%YAML:1.0
opencv_ml_ann_mlp:
   format: 3
   layer_sizes: [ 256, 128, 64, 32, 4 ]
   activation_function: SIGMOID_SYM
   f_param1: 6.6666666666666663e-01
   f_param2: 1.7159000000000000e+00
   min_val: 0.
   max_val: 0.
   min_val1: 0.
   max_val1: 0.
   training_params:
      train_method: RPROP
      dw0: 1.
      dw_plus: 1.2000000000000000e+00
      dw_minus: 5.0000000000000000e-01
      dw_min: 0.
      dw_max: 50.
      term_criteria:
         epsilon: 1.0000000000000000e-02
         iterations: 1000
   input_scale:
      - 1.5650015492616992e-316
      - 1.5650015492616992e-316
      - 0.
      - 6.9045499046428031e-310
      - 4.2439915834127416e-314
      - 2.7717082731693931e-321
      - 1.5651501642079683e-316
      - 6.9045834523527176e-310
      - 1.4821969375237396e-323
      - 0.
      - 0.
      - 4.9406564584124654e-324
      - 1.5650307979479330e-316
      - 2.4555062598309953e-321
      - 1.5651501642079683e-316
      - 6.9045834523527176e-310
      - 1.4700021759108221e-312
      - 0.
      - 2.3715151000379834e-322
      - 3.1620201333839779e-322
      - 1.5650047112818326e-316
      - 0.
      - 1.4821969375237396e-323
      - 0.
      - 0.
      - 9.8813129168249309e-324
      - 0.
      - 1.9021527364887992e-321
      - 1.5621335970007199e-316
      - 1.5622766784117556e-316
      - 1.6616442984968110e-312
      - 0.
      - 1.5650197308774662e-316
      - 1.6650012264850009e-321
      - 1.5650371219881998e-316
      - 1.5622300386147882e-316
      - 4.9406564584124654e-324
      - 0.
      - 0.
      - 8.4879831653432862e-314
      - 0.
      - 0.
      - 0.
      - 0.
      - 0.
      - 0.
      - 0.
      - 0.
      - 0.
      - 0.
      - 0.
      - 0.
      - 0.
      - 0.
      - 0.
      - 0.
      - 0.
      - 0.
      - 0.
      - 0.
      - 0.
      - 0.
      - 1.1857575500189917e-321
      - 2.3715151000379834e-322
      - 1.5622466392204884e-316
      - 6.9169190417774516e-323
      - 9.2361311376555554e+242
      - 6.2143611551882816e-310
      - 1.5650244739076662e-316
      - 2.4209216646221081e-322
      - 1.5650821807751005e-316
      - 1.5650560941090001e-316
      - 1.5650426555234332e-316
      - 1.5650521415838334e-316
      - 3.0829696300493784e-321
      - 4.7430302000759668e-322
      - 1.5622395246751883e-316
      - 0.
      - 3.9031186021458477e-322
      - 0.
      - 2.1219957914593380e-314
      - 0.
      - 0.
      - 9.8813129168249309e-324
      - 0.
      - 0.
      - 0.
      - 1.8265606926750885e-320
      - 1.5652236811760694e-316
      - 6.9045834523527176e-310
      - 0.
      - 0.
      - 3.7659600235536928e-310
      - 2.4209216646221081e-322
      - 1.5650466080485999e-316
      - 6.9045834523527176e-310
      - 2.4209216646221081e-322
      - 0.
      - 4.7430302000759668e-322
      - 4.7430302000759668e-322
      - 1.5650323789579997e-316
      - 0.
      - 3.9031186021458477e-322
      - 0.
      - 2.1219957919534036e-314
      - 0.
      - 0.
      - 9.8813129168249309e-324
      - 0.
      - 0.
      - 0.
      - 1.7317000886735691e-320
      - 1.5652236811760694e-316
      - 6.9045834523527176e-310
      - 0.
      - 0.
      - 0.
      - 2.4209216646221081e-322
      - 1.5650560941090001e-316
      - 6.9045834523527176e-310
      - 2.4209216646221081e-322
      - 0.
      - 4.7430302000759668e-322
      - 4.7430302000759668e-322
      - 1.5650418650183999e-316
      - 0.
      - 3.9031186021458477e-322
      - 0.
      - 2.1219957924474693e-314
      - 0.
      - 0.
      - 9.8813129168249309e-324
      - 0.
      - 0.
      - 0.
      - 1.6368394846720498e-320
      - 1.5652236811760694e-316
      - 6.9045834523527176e-310
      - 0.
      - 0.
      - 0.
      - 1.9021527364887992e-321
      - 1.5650300074428997e-316
      - 6.9045834523527176e-310
      - 2.3715151000379834e-322
      - 0.
      - 0.
      - 1.6650012264850009e-321
      - 1.5650821807751005e-316
      - 1.5650300074428997e-316
      - 4.9406564584124654e-324
      - 0.
      - 0.
      - 8.4879831648492206e-314
      - 0.
      - 0.
      - 0.
      - 0.
      - 0.
      - 0.
      - 0.
      - 0.
      - 0.
      - 0.
      - 0.
      - 0.
      - 0.
      - 0.
      - 0.
      - 0.
      - 0.
      - 0.
      - 0.
      - 0.
      - 0.
      - 0.
      - 1.1857575500189917e-321
      - 2.3715151000379834e-322
      - 1.5650300074428997e-316
      - 7.4109846876186982e-323
      - 5.7752652866743593e+160
      - 1.6373256999928633e-306
      - 0.
      - 2.4209216646221081e-322
      - 1.5651501642079683e-316
      - 1.5650892953204006e-316
      - 1.5650853427952339e-316
      - 0.
      - 2.1343635900341851e-321
      - 4.7430302000759668e-322
      - 1.5650513510788000e-316
      - 0.
      - 7.4109846876186982e-323
      - 0.
      - 2.1219957914593380e-314
      - 0.
      - 0.
      - 4.4465908125712189e-323
      - 0.
      - 0.
      - 0.
      - 1.3759728236678716e-320
      - 1.5652236811760694e-316
      - 6.9045834523527176e-310
      - 0.
      - 0.
      - 2.3715151000379834e-322
      - 4.7430302000759668e-322
      - 1.5650774377449004e-316
      - 0.
      - 7.4109846876186982e-323
      - 0.
      - 2.1219957919534036e-314
      - 0.
      - 0.
      - 4.4465908125712189e-323
      - 0.
      - 0.
      - 0.
      - 1.3048273706667321e-320
      - 1.5652236811760694e-316
      - 6.9045834523527176e-310
      - 0.
      - 0.
      - 0.
      - 1.9021527364887992e-321
      - 1.5651501642079683e-316
      - 1.5650750662298004e-316
      - 4.9406564584124654e-324
      - 0.
      - 0.
      - 8.4879831653432862e-314
      - 0.
      - 0.
      - 0.
      - 0.
      - 0.
      - 0.
      - 0.
      - 0.
      - 8.4879831643551549e-314
      - 0.
      - 0.
      - 0.
      - 0.
      - 0.
      - 0.
      - 0.
      - 0.
      - 0.
      - 0.
      - 0.
      - 0.
      - 0.
      - 1.1857575500189917e-321
      - 2.3715151000379834e-322
      - 1.5651058959261009e-316
      - 8.8931816251424378e-323
      - 1.4821969375237396e-322
      - 0.
      - 1.4229090600227900e-321
      - 2.3715151000379834e-322
      - 1.5650750662298004e-316
      - 4.9092277948771489e+252
      - 1.4468712438460905e-319
      - 0.
      - 0.
      - 2.4209216646221081e-322
      - 1.5652236811760694e-316
      - 1.5651296110771013e-316
      - 1.5651256585519345e-316
      - 1.5651351446123347e-316
      - 2.1343635900341851e-321
      - 4.7430302000759668e-322
      - 1.5650845522902005e-316
      - 0.
      - 4.6936236354918422e-322
      - 0.
      - 2.1219957914593380e-314
      - 0.
      - 0.
      - 6.9169190417774516e-323
      - 0.
      - 0.
      - 0.
      - 1.0439607096625539e-320
      - 1.5652236811760694e-316
      - 6.9045834523527176e-310
      - 0.
      - 0.
      - 0.
      - 7.1639518646980749e-322
      - 1.5651296110771013e-316
      - 6.9045834523527176e-310
      - 1.8280428896126122e-322
      - 0.
      - 2.3715151000379834e-322
      - 2.3715151000379834e-322
      - 1.5651153819865010e-316
      - 9.0836720636280295e+223
      - 5.2896469094364475e+180
      - 4.4581753677045617e+252
      - 2.3832193901745322e-312
      - 2.4209216646221081e-322
      - 1.5651296110771013e-316
      - 6.9045834523527176e-310
      - 2.5039815106727092e-317
      - 0.
      - 9.4860604001519336e-322
      - 4.7430302000759668e-322
      - 1.5651106389563010e-316
      - 0.
      - 3.9031186021458477e-322
      - 0.
      - 2.1219957919534036e-314
      - 0.
      - 0.
      - 2.4703282292062327e-323
      - 0.
      - 0.
      - 0.
      - 9.0166980366027494e-321
      - 1.5652236811760694e-316
      - 6.9045834523527176e-310
      - 0.
      - 0.
      - 0.
      - 2.4209216646221081e-322
      - 1.5651390971375014e-316
      - 6.9045834523527176e-310
      - 2.3715151000379834e-322
      - 0.
      - 4.7430302000759668e-322
      - 4.7430302000759668e-322
      - 1.5651248680469012e-316
      - 0.
      - 3.9031186021458477e-322
      - 0.
      - 2.1219957924474693e-314
      - 0.
      - 0.
      - 9.8813129168249309e-324
      - 0.
      - 0.
      - 0.
      - 8.0680919965875561e-321
      - 1.5652236811760694e-316
      - 6.9045834523527176e-310
      - 0.
      - 0.
      - 0.
      - 2.4209216646221081e-322
      - 1.5651082674412009e-316
      - 6.9045834523527176e-310
      - 2.4209216646221081e-322
      - 0.
      - 4.7430302000759668e-322
      - 2.3715151000379834e-322
      - 1.5651525357230683e-316
      - 1.5651470021878349e-316
      - 0.
      - 0.
      - 7.1145453001139502e-322
      - 3.9525251667299724e-322
      - 1.5622727258865888e-316
      - 4.9406564584124654e-323
      - 1.1857575500189917e-322
      - -5.8303566523661143e+303
      - -6.5188113965948265e+303
      - -7.2072661408235387e+303
      - -7.8957208850522508e+303
      - -8.5841756292809630e+303
      - 0.
      - 4.3527183398613821e-321
      - 1.5652236811760694e-316
      - 1.5650015492616992e-316
      - 4.8240714350961075e+228
      - 3.6365039814179525e-317
      - 0.
      - 2.4209216646221081e-322
      - 1.5651390971375014e-316
      - 1.5651746698640020e-316
      - 1.5651612312784351e-316
      - 1.5651667648136685e-316
      - 4.7430302000759668e-322
      - 3.1620201333839779e-322
      - 1.5650102448170660e-316
      - 0.
      - 1.4821969375237396e-323
      - 0.
      - 0.
      - 4.9406564584124654e-324
      - 0.
      - 3.5622133065153876e-321
      - 1.5652236811760694e-316
      - 6.9045834523527176e-310
      - 2.5039815106727092e-317
      - 0.
      - 2.3715151000379834e-322
      - 3.1620201333839779e-322
      - 1.5651549072381683e-316
      - 0.
      - 1.4821969375237396e-323
      - 0.
      - 0.
      - 9.8813129168249309e-324
      - 0.
      - 3.0088597831731915e-321
      - 1.5652236811760694e-316
      - 6.9045834523527176e-310
      - 6.4101929884648054e-315
      - 0.
      - 2.3715151000379834e-322
      - 3.1620201333839779e-322
      - 1.5651604407734018e-316
      - 0.
      - 1.4821969375237396e-323
      - 0.
      - 0.
      - 1.4821969375237396e-323
      - 0.
      - 2.4555062598309953e-321
      - 1.5652236811760694e-316
      - 6.9045834523527176e-310
      - 1.7257215387254975e-312
      - 0.
      - 2.3715151000379834e-322
      - 3.1620201333839779e-322
      - 1.5651659743086352e-316
      - 0.
      - 1.4821969375237396e-323
      - 0.
      - 0.
      - 1.9762625833649862e-323
      - 0.
      - 1.9021527364887992e-321
      - 1.5651390971375014e-316
      - 1.5651636027935351e-316
      - 6.4865899837913465e-315
      - 0.
      - 0.
      - 1.6650012264850009e-321
      - 1.5652236811760694e-316
      - 1.5651082674412009e-316
      - 4.9406564584124654e-324
      - 0.
      - 0.
      - 8.4879831648492206e-314
      - 0.
      - 0.
      - 0.
      - 0.
      - 0.
      - 0.
      - 0.
      - 0.
      - 8.4879831643551549e-314
      - 0.
      - 0.
      - 0.
      - 0.
      - 0.
      - 0.
      - 0.
      - 0.
      - 0.
      - 0.
      - 0.
      - 0.
      - 0.
      - 1.1857575500189917e-321
      - 2.3715151000379834e-322
      - 1.5651082674412009e-316
      - 6.4228533959362051e-323
      - 2.5840821740051934e+161
      - 2.4274848262435504e-312
      - 0.
      - 2.4209216646221081e-322
      - 1.5652687399629702e-316
      - 1.5651983850150024e-316
      - 1.5652039185502358e-316
      - 0.
      - 5.4544847300873618e-321
      - 4.7430302000759668e-322
      - 1.5651343541073013e-316
      - 0.
      - 3.9031186021458477e-322
      - 0.
      - 2.1219957914593380e-314
      - 0.
      - 0.
      - 9.8813129168249309e-324
      - 0.
      - 0.
      - 0.
      - 2.1393042464925975e-321
      - 1.5652236811760694e-316
      - 6.9045834523527176e-310
      - 5.8124163171860257e+180
      - 5.5104910295432215e-310
      - 0.
      - 2.4209216646221081e-322
      - 1.5652078710754025e-316
      - 6.9045834523527176e-310
      - 2.3715151000379834e-322
      - 0.
      - 4.7430302000759668e-322
      - 4.7430302000759668e-322
      - 1.5651936419848023e-316
      - 0.
      - 4.6936236354918422e-322
      - 0.
   output_scale:
      - 3.9031186021458477e-322
      - 0.
      - 2.1219958201151454e-314
      - 0.
      - 0.
      - 4.4465908125712189e-323
      - 0.
      - 0.
   inv_output_scale:
      - 3.9031186021458477e-322
      - 0.
      - 2.1219958186329485e-314
      - 0.
      - 0.
      - 9.8813129168249309e-324
      - 0.
      - 0.
   weights:
      -
         - 0.
         - 0.
         - 0.
         - 0.
         - 0.
         - 0.
         - 0.
         - 0.
         - 0.
         - 0.
         - 0.
         - 0.
         - 0.
         - 0.
         - 0.
         - 0.
         - 0.
         - 0.
         - 0.
         - 0.
         - 0.
         - 0.
         - 0.
         - 0.
         - 0.
         - 0.
         - 0.
         - 0.
         - 0.
         - 0.
         - 0.
         - 0.
         - 0.
         - 0.
         - 0.
         - 0.
         - 0.
         - 0.
         - 0.
         - 0.
         - 0.
         - 0.
         - 0.
         - 0.
         - 0.
         - 0.
         - 0.
         - 0.
         - 0.
         - 0.
         - 0.
         - 0.
         - 0.
         - 0.
         - 0.
         - 0.
         - 0.
         - 0.
         - 0.
         - 0.
         - 0.
         - 0.
         - 0.
         - 0.
         - 0.
         - 0.
         - 0.
         - 0.
         - 0.
         - 0.
         - 0.
         - 0.
         - 0.
         - 0.
         - 0.
         - 0.
         - 0.
         - 0.
         - 0.
         - 0.
         - 0.
         - 0.
         - 0.
         - 0.
         - 0.
         - 0.
         - 0.
         - 0.
         - 0.
         - 0.
         - 0.
         - 0.
         - 0.
         - 0.
         - 0.
         - 0.
         - 0.
         - 0.
         - 0.
         - 0.
         - 0.
         - 0.
         - 0.
         - 0.
         - 0.
         - 0.
         - 0.
         - 0.
         - 0.
         - 0.
         - 0.
         - 0.
         - 0.
         - 0.
         - 0.
         - 0.
         - 0.
         - 0.
         - 0.
         - 0.
         - 0.
         - 0.
         - 0.
         - 0.
         - 0.
         - 0.
         - 0.
         - 0.
         - 0.
         - 0.
         - 0.
         - 0.
         - 0.
         - 0.
         - 0.
         - 0.
         - 0.
         - 0.
         - 0.
         - 0.
         - 0.
         - 0.
         - 0.
         - 0.
         - 0.
         - 0.
         - 0.
         - 0.
         - 0.
         - 0.
         - 0.
         - 0.
         - 0.
         - 0.
         - 0.
         - 0.
         - 0.
         - 0.
         - 0.
         - 0.
         - 0.
         - 0.
         - 0.
         - 0.
         - 0.
         - 0.
         - 0.
         - 0.
         - 0.
         - 0.
         - 0.
         - 0.
         - 0.
         - 0.
         - 0.
         - 0.
         - 0.
         - 0.
         - 0.
         - 0.
         - 0.
         - 0.
         - 0.
         - 0.
         - 0.
         - 0.
         - 0.
         - 0.
         - 0.
         - 0.
         - 0.
         - 0.
         - 0.
         - 0.
         - 0.
         - 0.
         - 0.
         - 0.
         - 0.
         - 0.
         - 0.
         - 0.
         - 0.
         - 0.
         - 0.
         - 0.
         - 0.
         - 0.
         - 0.
         - 0.
         - 0.
         - 0.
         - 0.
         - 0.
         - 0.
         - 0.
         - 0.
         - 0.
         - 0.
         - 0.
         - 0.
         - 0.
         - 0.
         - 0.
         - 0.
         - 0.
         - 0.
         - 0.
         - 0.
         - 0.
         - 0.
         - 0.
         - 0.
         - 0.
         - 0.
         - 0.
         - 0.
         - 0.
         - 0.
         - 0.
         - 0.
         - 0.
         - 0.
         - 0.
         - 0.
         - 0.
         - 0.
         - 0.
         - 0.
         - 0.
         - 0.
         - 0.
         - 0.
         - 0.
         - 0.
         - 0.
         - 0.
         - 0.
         - 0.
         - 0.
         - 0.
         - 0.
         - 0.
         - 0.
         - 0.
         - 0.
         - 0.
         - 0.
         - 0.
         - 0.
         - 0.
         - 0.
         - 0.
         - 0.
         - 0.
         - 0.
         - 0.
         - 0.
         - 0.
         - 0.
         - 0.
         - 0.
         - 0.
         - 0.
         - 0.
         - 0.
         - 0.
         - 0.
         - 0.
         - 0.
         - 0.
         - 0.
         - 0.
         - 0.
         - 0.
         - 0.
         - 0.
         - 0.
         - 0.
         - 0.
         - 0.
         - 0.
         - 0.
         - 0.
         - 0.
         - 0.
         - 0.
         - 0.
         - 0.
         - 0.
         - 0.
         - 0.
         - 0.
         - 0.
         - 0.
         - 0.
         - 0.
         - 0.
         - 0.
         - 0.
         - 0.
         - 0.
         - 0.
         - 0.
         - 0.
         - 0.
         - 0.
         - 0.
         - 0.
         - 0.
         - 0.
         - 0.
         - 0.
         - 0.
         - 0.
         - 0.
         - 0.
         - 0.
         - 0.
         - 0.
         - 0.
         - 0.
         - 0.
         - 0.
         - 0.
         - 0.
         - 0.
         - 0.
         - 0.
         - 0.
         - 0.
         - 0.
         - 0.
         - 0.
         - 0.
         - 0.
         - 0.
         - 0.
         - 0.
         - 0.
         - 0.
         - 0.
         - 0.
         - 0.
         - 0.
         - 0.
         - 0.
         - 0.
         - 0.
         - 0.
         - 0.
         - 0.
         - 0.
         - 0.
         - 0.
         - 0.
         - 0.
         - 0.
         - 0.
         - 0.
         - 0.
         - 0.
         - 0.
         - 0.
         - 0.
         - 0.
         - 0.
         - 0.
         - 0.
         - 0.
         - 0.
         - 0.
         - 0.
         - 0.
         - 0.
         - 0.
         - 0.
         - 0.
         - 0.
         - 0.
         - 0.
         - 0.
         - 0.
         - 0.
         - 0.
         - 0.
         - 0.
         - 0.
         - 0.
         - 0.
         - 0.
         - 0.
         - 0.
         - 0.
         - 0.
         - 0.
         - 0.
         - 0.
         - 0.
         - 0.
         - 0.
         - 0.
         - 0.
         - 0.
         - 0.
         - 0.
         - 0.
         - 0.
         - 0.
         - 0.
         - 0.
         - 0.
         - 0.
         - 0.
         - 0.
         - 0.
         - 0.
         - 0.
         - 0.
         - 0.
         - 0.
         - 0.
         - 0.
         - 0.
         - 0.
         - 0.
         - 0.
         - 0.
         - 0.
         - 0.
         - 0.
         - 0.
         - 0.
         - 0.
         - 0.
         - 0.
         - 0.
         - 0.
         - 0.
         - 0.
         - 0.
         - 0.
         - 0.
         - 0.
         - 0.
         - 0.
         - 0.
         - 0.
         - 0.
         - 0.
         - 0.
         - 0.
         - 0.
         - 0.
         - 0.
         - 0.
         - 0.
         - 0.
         - 0.
         - 0.
         - 0.
         - 0.
         - 0.
         - 0.
         - 0.
         - 0.
         - 0.
         - 0.
         - 0.
         - 0.
         - 0.
         - 0.
         - 0.
         - 0.
         - 0.
         - 0.
         - 0.
         - 0.
         - 0.
         - 0.
         - 0.
         - 0.
         - 0.
         - 0.
         - 0.
         - 0.
         - 0.
         - 0.
         - 0.
         - 0.
         - 0.
         - 0.
         - 0.
         - 0.
         - 0.
         - 0.
         - 0.
         - 0.
         - 0.
         - 0.
         - 0.
         - 0.
         - 0.
         - 0.
         - 0.
         - 0.
         - 0.
         - 0.
         - 0.
         - 0.
         - 0.
         - 0.
         - 0.
         - 0.
         - 0.
         - 0.
         - 0.
         - 0.
         - 0.
         - 0.
         - 0.
         - 0.
         - 0.
         - 0.
         - 0.
         - 0.
         - 0.
         - 0.
         - 0.
         - 0.
         - 0.
         - 0.
         - 0.
         - 0.
         - 0.
         - 0.
         - 0.
         - 0.
         - 0.
         - 0.
         - 0.
         - 0.
         - 0.
         - 0.
         - 0.
         - 0.
         - 0.
         - 0.
         - 0.
         - 0.
         - 0.
         - 0.
         - 0.
         - 0.
         - 0.
         - 0.
         - 0.
         - 0.
         - 0.
         - 0.
         - 0.
         - 0.
         - 0.
         - 0.
         - 0.
         - 0.
         - 0.
         - 0.
         - 0.
         - 0.
         - 0.
         - 0.
         - 0.
         - 0.
         - 0.
         - 0.
         - 0.
         - 0.
         - 0.
         - 0.
         - 0.
         - 0.
         - 0.
         - 0.
         - 0.
         - 0.
         - 0.
         - 0.
         - 0.
         - 0.
         - 0.
         - 0.
         - 0.
         - 0.
         - 0.
         - 0.
         - 0.
         - 0.
         - 0.
         - 0.
         - 0.
         - 0.
         - 0.
         - 0.
         - 0.
         - 0.
         - 0.
         - 0.
         - 0.
         - 0.
         - 0.
         - 0.
         - 0.
         - 0.
         - 0.
         - 0.
         - 0.
         - 0.
         - 0.
         - 0.
         - 0.
         - 0.
         - 0.
         - 0.
         - 0.
         - 0.
         - 0.
         - 0.
         - 0.
         - 0.
         - 0.
         - 0.
         - 0.
         - 0.
         - 0.
         - 0.
         - 0.
         - 0.
         - 0.
         - 0.
         - 0.
         - 0.
         - 0.
         - 0.
         - 0.
         - 0.
         - 0.
         - 0.
         - 0.
         - 0.
         - 0.
         - 0.
         - 0.
         - 0.
         - 0.
         - 0.
         - 0.
         - 0.
         - 0.
         - 0.
         - 0.
         - 0.
         - 0.
         - 0.
         - 0.
         - 0.
         - 0.
         - 0.
         - 0.
         - 0.
         - 0.
         - 0.
         - 0.
         - 0.
         - 0.
         - 0.
         - 0.
         - 0.
         - 0.
         - 0.
         - 0.
         - 0.
         - 0.
         - 0.
         - 0.
         - 0.
         - 0.
         - 0.
         - 0.
         - 0.
         - 0.
         - 0.
         - 0.
         - 0.
         - 0.
         - 0.
         - 0.
         - 0.
         - 0.
         - 0.
         - 0.
         - 0.
         - 0.
         - 0.
         - 0.
         - 0.
         - 0.
         - 0.
         - 0.
         - 0.
         - 0.
         - 0.
         - 0.
         - 0.
         - 0.
         - 0.
         - 0.
         - 0.
         - 0.
         - 0.
         - 0.
         - 0.
         - 0.
         - 0.
         - 0.
         - 0.
         - 0.
         - 0.
         - 0.
         - 0.
         - 0.
         - 0.
         - 0.
         - 0.
         - 0.
         - 0.
         - 0.
         - 0.
         - 0.
         - 0.
         - 0.
         - 0.
         - 0.
         - 0.
         - 0.
         - 0.
         - 0.
         - 0.
         - 0.
         - 0.
         - 0.
         - 0.
         - 0.
         - 0.
         - 0.
         - 0.
         - 0.
         - 0.
         - 0.
         - 0.
         - 0.
         - 0.
         - 0.
         - 0.
         - 0.
         - 0.
         - 0.
         - 0.
         - 0.
         - 0.
         - 0.
         - 0.
         - 0.
         - 0.
         - 0.
         - 0.
         - 0.
         - 0.
         - 0.
         - 0.
         - 0.
         - 0.
         - 0.
         - 0.
         - 0.
         - 0.
         - 0.
         - 0.
         - 0.
         - 0.
         - 0.
         - 0.
         - 0.
         - 0.
         - 0.
         - 0.
         - 0.
         - 0.
         - 0.
         - 0.
         - 0.
         - 0.
         - 0.
         - 0.
         - 0.
         - 0.
         - 0.
         - 0.
         - 0.
         - 0.
         - 0.
         - 0.
         - 0.
         - 0.
         - 0.
         - 0.
         - 0.
         - 0.
         - 0.
         - 0.
         - 0.
         - 0.
         - 0.
         - 0.
         - 0.
         - 0.
         - 0.
         - 0.
         - 0.
         - 0.
         - 0.
         - 0.
         - 0.
         - 0.
         - 0.
         - 0.
         - 0.
         - 0.
         - 0.
         - 0.
         - 0.
         - 0.
         - 0.
         - 0.
         - 0.
         - 0.
         - 0.
         - 0.
         - 0.
         - 0.
         - 0.
         - 0.
         - 0.
         - 0.
         - 0.
         - 0.
         - 0.
         - 0.
         - 0.
         - 0.
         - 0.
         - 0.
         - 0.
         - 0.
         - 0.
         - 0.
         - 0.
         - 0.
         - 0.
         - 0.
         - 0.
         - 0.
         - 0.
         - 0.
         - 0.
         - 0.
         - 0.
         - 0.
         - 0.
         - 0.
         - 0.
         - 0.
         - 0.
         - 0.
         - 0.
         - 0.
         - 0.
         - 0.
         - 0.
         - 0.
         - 0.
         - 0.
         - 0.
         - 0.
         - 0.
         - 0.
         - 0.
         - 0.
         - 0.
         - 0.
         - 0.
         - 0.
         - 0.
         - 0.
         - 0.
         - 0.
         - 0.
         - 0.
         - 0.
         - 0.
         - 0.
         - 0.
         - 0.
         - 0.
         - 0.
         - 0.
         - 0.
         - 0.
         - 0.
         - 0.
         - 0.
         - 0.
         - 0.
         - 0.
         - 0.
         - 0.
         - 0.
         - 0.
         - 0.
         - 0.
         - 0.
         - 0.
         - 0.
         - 0.
         - 0.
         - 0.
         - 0.
         - 0.
         - 0.
         - 0.
         - 0.
         - 0.
         - 0.
         - 0.
         - 0.
         - 0.
         - 0.
         - 0.
         - 0.
         - 0.
         - 0.
         - 0.
         - 0.
         - 0.
         - 0.
         - 0.
         - 0.
         - 0.
         - 0.
         - 0.
         - 0.
         - 0.
         - 0.
         - 0.
         - 0.
         - 0.
         - 0.
         - 0.
         - 0.
         - 0.
         - 0.
         - 0.
         - 0.
         - 0.
         - 0.
         - 0.
         - 0.
         - 0.
         - 0.
         - 0.
         - 0.
         - 0.
         - 0.
         - 0.
         - 0.
         - 0.
         - 0.
         - 0.
         - 0.
         - 0.
         - 0.
         - 0.
         - 0.
         - 0.
         - 0.
         - 0.
         - 0.
         - 0.
         - 0.
         - 0.
         - 0.
         - 0.
         - 0.
         - 0.
         - 0.
         - 0.
         - 0.
         - 0.
         - 0.
         - 0.
         - 0.
         - 0.
         - 0.
         - 0.
         - 0.
         - 0.
         - 0.
         - 0.
         - 0.
         - 0.
         - 0.
         - 0.
         - 0.
         - 0.
         - 0.
         - 0.
         - 0.
         - 0.
         - 0.
         - 0.
         - 0.
         - 0.
         - 0.
         - 0.
         - 0.
         - 0.
         - 0.
         - 0.
         - 0.
         - 0.
         - 0.
         - 0.
         - 0.
         - 0.
         - 0.
         - 0.
         - 0.
         - 0.
         - 0.
         - 0.
         - 0.
         - 0.
         - 0.
         - 0.
         - 0.
         - 0.
         - 0.
         - 0.
         - 0.
         - 0.
         - 0.
         - 0.
         - 0.
         - 0.
         - 0.
         - 0.
         - 0.
         - 0.
         - 0.
         - 0.
         - 0.
         - 0.
         - 0.
         - 0.
         - 0.
         - 0.
         - 0.
         - 0.
         - 0.
         - 0.
         - 0.
         - 0.
         - 0.
         - 0.
         - 0.
         - 0.
         - 0.
         - 0.
         - 0.
         - 0.
         - 0.
         - 0.
         - 0.
         - 0.
         - 0.
         - 0.
         - 0.
         - 0.
         - 0.
         - 0.
         - 0.
         - 0.
         - 0.
         - 0.
         - 0.
         - 0.
         - 0.
         - 0.
         - 0.
         - 0.
         - 0.
         - 0.
         - 0.
         - 0.
         - 0.
         - 0.
         - 0.
         - 0.
         - 0.
         - 0.
         - 0.
         - 0.
         - 0.
         - 0.
         - 0.
         - 0.
         - 0.
         - 0.
         - 0.
         - 0.
         - 0.
         - 0.
         - 0.
         - 0.
         - 0.
         - 0.
         - 0.
         - 0.
         - 0.
         - 0.
         - 0.
         - 0.
         - 0.
         - 0.
         - 0.
         - 0.
         - 0.
         - 0.
         - 0.
         - 0.
         - 0.
         - 0.
         - 0.
         - 0.
         - 0.
         - 0.
         - 0.
         - 0.
         - 0.
         - 0.
         - 0.
         - 0.
         - 0.
         - 0.
         - 0.
         - 0.
         - 0.
         - 0.
         - 0.
         - 0.
         - 0.
         - 0.
         - 0.
         - 0.
         - 0.
         - 0.
         - 0.
         - 0.
         - 0.
         - 0.
         - 0.
         - 0.
         - 0.
         - 0.
         - 0.
         - 0.
         - 0.
         - 0.
         - 0.
         - 0.
         - 0.
         - 0.
         - 0.
         - 0.
         - 0.
         - 0.
         - 0.
         - 0.
         - 0.
         - 0.
         - 0.
         - 0.
         - 0.
         - 0.
         - 0.
         - 0.
         - 0.
         - 0.
         - 0.
         - 0.
         - 0.
         - 0.
         - 0.
         - 0.
         - 0.
         - 0.
         - 0.
         - 0.
         - 0.
         - 0.
         - 0.
         - 0.
         - 0.
         - 0.
         - 0.
         - 0.
         - 0.
         - 0.
         - 0.
         - 0.
         - 0.
         - 0.
         - 0.
         - 0.
         - 0.
         - 0.
         - 0.
         - 0.
         - 0.
         - 0.
         - 0.
         - 0.
         - 0.
         - 0.
         - 0.
         - 0.
         - 0.
         - 0.
         - 0.
         - 0.
         - 0.
         - 0.
         - 0.
         - 0.
         - 0.
         - 0.
         - 0.
         - 0.
         - 0.
         - 0.
         - 0.
         - 0.
         - 0.
         - 0.
         - 0.
         - 0.
         - 0.
         - 0.
         - 0.
         - 0.
         - 0.
         - 0.
         - 0.
         - 0.
         - 0.
         - 0.
         - 0.
         - 0.
         - 0.
         - 0.
         - 0.
         - 0.
         - 0.
         - 0.
         - 0.
         - 0.
         - 0.
         - 0.
         - 0.
         - 0.
         - 0.
         - 0.
         - 0.
         - 0.
         - 0.
         - 0.
         - 0.
         - 0.
         - 0.
         - 0.
         - 0.
         - 0.
         - 0.
         - 0.
         - 0.
         - 0.
         - 0.
         - 0.
         - 0.
         - 0.
         - 0.
         - 0.
         - 0.
         - 0.
         - 0.
         - 0.
         - 0.
         - 0.
         - 0.
         - 0.
         - 0.
         - 0.
         - 0.
         - 0.
         - 0.
         - 0.
         - 0.
         - 0.
         - 0.
         - 0.
         - 0.
         - 0.
         - 0.
         - 0.
         - 0.
         - 0.
         - 0.
         - 0.
         - 0.
         - 0.
         - 0.
         - 0.
         - 0.
         - 0.
         - 0.
         - 0.
         - 0.
         - 0.
         - 0.
         - 0.
         - 0.
         - 0.
         - 0.
         - 0.
         - 0.
         - 0.
         - 0.
         - 0.
         - 0.
         - 0.
         - 0.
         - 0.
         - 0.
         - 0.
         - 0.
         - 0.
         - 0.
         - 0.
         - 0.
         - 0.
         - 0.
         - 0.
         - 0.
         - 0.
         - 0.
         - 0.
         - 0.
         - 0.
         - 0.
         - 0.
         - 0.
         - 0.
         - 0.
         - 0.
         - 0.
         - 0.
         - 0.
         - 0.
         - 0.
         - 0.
         - 0.
         - 0.
         - 0.
         - 0.
         - 0.
         - 0.
         - 0.
         - 0.
         - 0.
         - 0.
         - 0.
         - 0.
         - 0.
         - 0.
         - 0.
         - 0.
         - 0.
         - 0.
         - 0.
         - 0.
         - 0.
         - 0.
         - 0.
         - 0.
         - 0.
         - 0.
         - 0.
         - 0.
         - 0.
         - 0.
         - 0.
         - 0.
         - 0.
         - 0.
         - 0.
         - 0.
         - 0.
         - 0.
         - 0.
         - 0.
         - 0.
         - 0.
         - 0.
         - 0.
         - 0.
         - 0.
         - 0.
         - 0.
         - 0.
         - 0.
         - 0.
         - 0.
         - 0.
         - 0.
         - 0.
         - 0.
         - 0.
         - 0.
         - 0.
         - 0.
         - 0.
         - 0.
         - 0.
         - 0.
         - 0.
         - 0.
         - 0.
         - 0.
         - 0.
         - 0.
         - 0.
         - 0.
         - 0.
         - 0.
         - 0.
         - 0.
         - 0.
         - 0.
         - 0.
         - 0.
         - 0.
         - 0.
         - 0.
         - 0.
         - 0.
         - 0.
         - 0.
         - 0.
         - 0.
         - 0.
         - 0.
         - 0.
         - 0.
         - 0.
         - 0.
         - 0.
         - 0.
         - 0.
         - 0.
         - 0.
         - 0.
         - 0.
         - 0.
         - 0.
         - 0.
         - 0.
         - 0.
         - 0.
         - 0.
         - 0.
         - 0.
         - 0.
         - 0.
         - 0.
         - 0.
         - 0.
         - 0.
         - 0.
         - 0.
         - 0.
         - 0.
         - 0.
         - 0.
         - 0.
         - 0.
         - 0.
         - 0.
         - 0.
         - 0.
         - 0.
         - 0.
         - 0.
         - 0.
         - 0.
         - 0.
         - 0.
         - 0.
         - 0.
         - 0.
         - 0.
         - 0.
         - 0.
         - 0.
         - 0.
         - 0.
         - 0.
         - 0.
         - 0.
         - 0.
         - 0.
         - 0.
         - 0.
         - 0.
         - 0.
         - 0.
         - 0.
         - 0.
         - 0.
         - 0.
         - 0.
         - 0.
         - 0.
         - 0.
         - 0.
         - 0.
         - 0.
         - 0.
         - 0.
         - 0.
         - 0.
         - 0.
         - 0.
         - 0.
         - 0.
         - 0.
         - 0.
         - 0.
         - 0.
         - 0.
         - 0.
         - 0.
         - 0.
         - 0.
         - 0.
         - 0.
         - 0.
         - 0.
         - 0.
         - 0.
         - 0.
         - 0.
         - 0.
         - 0.
         - 0.
         - 0.
         - 0.
         - 0.
         - 0.
         - 0.
         - 0.
         - 0.
         - 0.
         - 0.
         - 0.
         - 0.
         - 0.
         - 0.
         - 0.
         - 0.
         - 0.
         - 0.
         - 0.
         - 0.
         - 0.
         - 0.
         - 0.
         - 0.
         - 0.
         - 0.
         - 0.
         - 0.
         - 0.
         - 0.
         - 0.
         - 0.
         - 0.
         - 0.
         - 0.
         - 0.
         - 0.
         - 0.
         - 0.
         - 0.
         - 0.
         - 0.
         - 0.
         - 0.
         - 0.
         - 0.
         - 0.
         - 0.
         - 0.
         - 0.
         - 0.
         - 0.
         - 0.
         - 0.
         - 0.
         - 0.
         - 0.
         - 0.
         - 0.
         - 0.
         - 0.
         - 0.
         - 0.
         - 0.
         - 0.
         - 0.
         - 0.
         - 0.
         - 0.
         - 0.
         - 0.
         - 0.
         - 0.
         - 0.
         - 0.
         - 0.
         - 0.
         - 0.
         - 0.
         - 0.
         - 0.
         - 0.
         - 0.
         - 0.
         - 0.
         - 0.
         - 0.
         - 0.
         - 0.
         - 0.
         - 0.
         - 0.
         - 0.
         - 0.
         - 0.
         - 0.
         - 0.
         - 0.
         - 0.
         - 0.
         - 0.
         - 0.
         - 0.
         - 0.
         - 0.
         - 0.
         - 0.
         - 0.
         - 0.
         - 0.
         - 0.
         - 0.
         - 0.
         - 0.
         - 0.
         - 0.
         - 0.
         - 0.
         - 0.
         - 0.
         - 0.
         - 0.
         - 0.
         - 0.
         - 0.
         - 0.
         - 0.
         - 0.
         - 0.
         - 0.
         - 0.
         - 0.
         - 0.
         - 0.
         - 0.
         - 0.
         - 0.
         - 0.
         - 0.
         - 0.
         - 0.
         - 0.
         - 0.
         - 0.
         - 0.
         - 0.
         - 0.
         - 0.
         - 0.
         - 0.
         - 0.
         - 0.
         - 0.
         - 0.
         - 0.
         - 0.
         - 0.
         - 0.
         - 0.
         - 0.
         - 0.
         - 0.
         - 0.
         - 0.
         - 0.
         - 0.
         - 0.
         - 0.
         - 0.
         - 0.
         - 0.
         - 0.
         - 0.
         - 0.
         - 0.
         - 0.
         - 0.
         - 0.
         - 0.
         - 0.
         - 0.
         - 0.
         - 0.
         - 0.
         - 0.
         - 0.
         - 0.
         - 0.
         - 0.
         - 0.
         - 0.
         - 0.
         - 0.
         - 0.
         - 0.
         - 0.
         - 0.
         - 0.
         - 0.
         - 0.
         - 0.
         - 0.
         - 0.
         - 0.
         - 0.
         - 0.
         - 0.
         - 0.
         - 0.
         - 0.
         - 0.
         - 0.
         - 0.
         - 0.
         - 0.
         - 0.
         - 0.
         - 0.
         - 0.
         - 0.
         - 0.
         - 0.
         - 0.
         - 0.
         - 0.
         - 0.
         - 0.
         - 0.
         - 0.
         - 0.
         - 0.
         - 0.
         - 0.
         - 0.
         - 0.
         - 0.
         - 0.
         - 0.
         - 0.
         - 0.
         - 0.
         - 0.
         - 0.
         - 0.
         - 0.
         - 0.
         - 0.
         - 0.
         - 0.
         - 0.
         - 0.
         - 0.
         - 0.
         - 0.
         - 0.
         - 0.
         - 0.
         - 0.
         - 0.
         - 0.
         - 0.
         - 0.
         - 0.
         - 0.
         - 0.
         - 0.
         - 0.
         - 0.
         - 0.
         - 0.
         - 0.
         - 0.
         - 0.
         - 0.
         - 0.
         - 0.
         - 0.
         - 0.
         - 0.
         - 0.
         - 0.
         - 0.
         - 0.
         - 0.
         - 0.
         - 0.
         - 0.
         - 0.
         - 0.
         - 0.
         - 0.
         - 0.
         - 0.
         - 0.
         - 0.
         - 0.
         - 0.
         - 0.
         - 0.
         - 0.
         - 0.
         - 0.
         - 0.
         - 0.
         - 0.
         - 0.
         - 0.
         - 0.
         - 0.
         - 0.
         - 0.
         - 0.
         - 0.
         - 0.
         - 0.
         - 0.
         - 0.
         - 0.
         - 0.
         - 0.
         - 0.
         - 0.
         - 0.
         - 0.
         - 0.
         - 0.
         - 0.
         - 0.
         - 0.
         - 0.
         - 0.
         - 0.
         - 0.
         - 0.
         - 0.
         - 0.
         - 0.
         - 0.
         - 0.
         - 0.
         - 0.
         - 0.
         - 0.
         - 0.
         - 0.
         - 0.
         - 0.
         - 0.
         - 0.
         - 0.
         - 0.
         - 0.
         - 0.
         - 0.
         - 0.
         - 0.
         - 0.
         - 0.
         - 0.
         - 0.
         - 0.
         - 0.
         - 0.
         - 0.
         - 0.
         - 0.
         - 0.
         - 0.
         - 0.
         - 0.
         - 0.
         - 0.
         - 0.
         - 0.
         - 0.
         - 0.
         - 0.
         - 0.
         - 0.
         - 0.
         - 0.
         - 0.
         - 0.
         - 0.
         - 0.
         - 0.
         - 0.
         - 0.
         - 0.
         - 0.
         - 0.
         - 0.
         - 0.
         - 0.
         - 0.
         - 0.
         - 0.
         - 0.
         - 0.
         - 0.
         - 0.
         - 0.
         - 0.
         - 0.
         - 0.
         - 0.
         - 0.
         - 0.
         - 0.
         - 0.
         - 0.
         - 0.
         - 0.
         - 0.
         - 0.
         - 0.
         - 0.
         - 0.
         - 0.
         - 0.
         - 0.
         - 0.
         - 0.
         - 0.
         - 0.
         - 0.
         - 0.
         - 0.
         - 0.
         - 0.
         - 0.
         - 0.
         - 0.
         - 0.
         - 0.
         - 0.
         - 0.
         - 0.
         - 0.
         - 0.
         - 0.
         - 0.
         - 0.
         - 0.
         - 0.
         - 0.
         - 0.
         - 0.
         - 0.
         - 0.
         - 0.
         - 0.
         - 0.
         - 0.
         - 0.
         - 0.
         - 0.
         - 0.
         - 0.
         - 0.
         - 0.
         - 0.
         - 0.
         - 0.
         - 0.
         - 0.
         - 0.
         - 0.
         - 0.
         - 0.
         - 0.
         - 0.
         - 0.
         - 0.
         - 0.
         - 0.
         - 0.
         - 0.
         - 0.
         - 0.
         - 0.
         - 0.
         - 0.
         - 0.
         - 0.
         - 0.
         - 0.
         - 0.
         - 0.
         - 0.
         - 0.
         - 0.
         - 0.
         - 0.
         - 0.
         - 0.
         - 0.
         - 0.
         - 0.
         - 0.
         - 0.
         - 0.
         - 0.
         - 0.
         - 0.
         - 0.
         - 0.
         - 0.
         - 0.
         - 0.
         - 0.
         - 0.
         - 0.
         - 0.
         - 0.
         - 0.
         - 0.
         - 0.
         - 0.
         - 0.
         - 0.
         - 0.
         - 0.
         - 0.
         - 0.
         - 0.
         - 0.
         - 0.
         - 0.
         - 0.
         - 0.
         - 0.
         - 0.
         - 0.
         - 0.
         - 0.
         - 0.
         - 0.
         - 0.
         - 0.
         - 0.
         - 0.
         - 0.
         - 0.
         - 0.
         - 0.
         - 0.
         - 0.
         - 0.
         - 0.
         - 0.
         - 0.
         - 0.
         - 0.
         - 0.
         - 0.
         - 0.
         - 0.
         - 0.
         - 0.
         - 0.
         - 0.
         - 0.
         - 0.
         - 0.
         - 0.
         - 0.
         - 0.
         - 0.
         - 0.
         - 0.
         - 0.
         - 0.
         - 0.
         - 0.
         - 0.
         - 0.
         - 0.
         - 0.
         - 0.
         - 0.
         - 0.
         - 0.
         - 0.
         - 0.
         - 0.
         - 0.
         - 0.
         - 0.
         - 0.
         - 0.
         - 0.
         - 0.
         - 0.
         - 0.
         - 0.
         - 0.
         - 0.
         - 0.
         - 0.
         - 0.
         - 0.
         - 0.
         - 0.
         - 0.
         - 0.
         - 0.
         - 0.
         - 0.
         - 0.
         - 0.
         - 0.
         - 0.
         - 0.
         - 0.
         - 0.
         - 0.
         - 0.
         - 0.
         - 0.
         - 0.
         - 0.
         - 0.
         - 0.
         - 0.
         - 0.
         - 0.
         - 0.
         - 0.
         - 0.
         - 0.
         - 0.
         - 0.
         - 0.
         - 0.
         - 0.
         - 0.
         - 0.
         - 0.
         - 0.
         - 0.
         - 0.
         - 0.
         - 0.
         - 0.
         - 0.
         - 0.
         - 0.
         - 0.
         - 0.
         - 0.
         - 0.
         - 0.
         - 0.
         - 0.
         - 0.
         - 0.
         - 0.
         - 0.
         - 0.
         - 0.
         - 0.
         - 0.
         - 0.
         - 0.
         - 0.
         - 0.
         - 0.
         - 0.
         - 0.
         - 0.
         - 0.
         - 0.
         - 0.
         - 0.
         - 0.
         - 0.
         - 0.
         - 0.
         - 0.
         - 0.
         - 0.
         - 0.
         - 0.
         - 0.
         - 0.
         - 0.
         - 0.
         - 0.
         - 0.
         - 0.
         - 0.
         - 0.
         - 0.
         - 0.
         - 0.
         - 0.
         - 0.
         - 0.
         - 0.
         - 0.
         - 0.
         - 0.
         - 0.
         - 0.
         - 0.
         - 0.
         - 0.
         - 0.
         - 0.
         - 0.
         - 0.
         - 0.
         - 0.
         - 0.
         - 0.
         - 0.
         - 0.
         - 0.
         - 0.
         - 0.
         - 0.
         - 0.
         - 0.
         - 0.
         - 0.
         - 0.
         - 0.
         - 0.
         - 0.
         - 0.
         - 0.
         - 0.
         - 0.
         - 0.
         - 0.
         - 0.
         - 0.
         - 0.
         - 0.
         - 0.
         - 0.
         - 0.
         - 0.
         - 0.
         - 0.
         - 0.
         - 0.
         - 0.
         - 0.
         - 0.
         - 0.
         - 0.
         - 0.
         - 0.
         - 0.
         - 0.
         - 0.
         - 0.
         - 0.
         - 0.
         - 0.
         - 0.
         - 0.
         - 0.
         - 0.
         - 0.
         - 0.
         - 0.
         - 0.
         - 0.
         - 0.
         - 0.
         - 0.
         - 0.
         - 0.
         - 0.
         - 0.
         - 0.
         - 0.
         - 0.
         - 0.
         - 0.
         - 0.
         - 0.
         - 0.
         - 0.
         - 0.
         - 0.
         - 0.
         - 0.
         - 0.
         - 0.
         - 0.
         - 0.
         - 0.
         - 0.
         - 0.
         - 0.
         - 0.
         - 0.
         - 0.
         - 0.
         - 0.
         - 0.
         - 0.
         - 0.
         - 0.
         - 0.
         - 0.
         - 0.
         - 0.
         - 0.
         - 0.
         - 0.
         - 0.
         - 0.
         - 0.
         - 0.
         - 0.
         - 0.
         - 0.
         - 0.
         - 0.
         - 0.
         - 0.
         - 0.
         - 0.
         - 0.
         - 0.
         - 0.
         - 0.
         - 0.
         - 0.
         - 0.
         - 0.
         - 0.
         - 0.
         - 0.
         - 0.
         - 0.
         - 0.
         - 0.
         - 0.
         - 0.
         - 0.
         - 0.
         - 0.
         - 0.
         - 0.
         - 0.
         - 0.
         - 0.
         - 0.
         - 0.
         - 0.
         - 0.
         - 0.
         - 0.
         - 0.
         - 0.
         - 0.
         - 0.
         - 0.
         - 0.
         - 0.
         - 0.
         - 0.
         - 0.
         - 0.
         - 0.
         - 0.
         - 0.
         - 0.
         - 0.
         - 0.
         - 0.
         - 0.
         - 0.
         - 0.
         - 0.
         - 0.
         - 0.
         - 0.
         - 0.
         - 0.
         - 0.
         - 0.
         - 0.
         - 0.
         - 0.
         - 0.
         - 0.
         - 0.
         - 0.
         - 0.
         - 0.
         - 0.
         - 0.
         - 0.
         - 0.
         - 0.
         - 0.
         - 0.
         - 0.
         - 0.
         - 0.
         - 0.
         - 0.
         - 0.
         - 0.
         - 0.
         - 0.
         - 0.
         - 0.
         - 0.
         - 0.
         - 0.
         - 0.
         - 0.
         - 0.
         - 0.
         - 0.
         - 0.
         - 0.
         - 0.
         - 0.
         - 0.
         - 0.
         - 0.
         - 0.
         - 0.
         - 0.
         - 0.
         - 0.
         - 0.
         - 0.
         - 0.
         - 0.
         - 0.
         - 0.
         - 0.
         - 0.
         - 0.
         - 0.
         - 0.
         - 0.
         - 0.
         - 0.
         - 0.
         - 0.
         - 0.
         - 0.
         - 0.
         - 0.
         - 0.
         - 0.
         - 0.
         - 0.
         - 0.
         - 0.
         - 0.
         - 0.
         - 0.
         - 0.
         - 0.
         - 0.
         - 0.
         - 0.
         - 0.
         - 0.
         - 0.
         - 0.
         - 0.
         - 0.
         - 0.
         - 0.
         - 0.
         - 0.
         - 0.
         - 0.
         - 0.
         - 0.
         - 0.
         - 0.
         - 0.
         - 0.
         - 0.
         - 0.
         - 0.
         - 0.
         - 0.
         - 0.
         - 0.
         - 0.
         - 0.
         - 0.
         - 0.
         - 0.
         - 0.
         - 0.
         - 0.
         - 0.
         - 0.
         - 0.
         - 0.
         - 0.
         - 0.
         - 0.
         - 0.
         - 0.
         - 0.
         - 0.
         - 0.
         - 0.
         - 0.
         - 0.
         - 0.
         - 0.
         - 0.
         - 0.
         - 0.
         - 0.
         - 0.
         - 0.
         - 0.
         - 0.
         - 0.
         - 0.
         - 0.
         - 0.
         - 0.
         - 0.
         - 0.
         - 0.
         - 0.
         - 0.
         - 0.
         - 0.
         - 0.
         - 0.
         - 0.
         - 0.
         - 0.
         - 0.
         - 0.
         - 0.
         - 0.
         - 0.
         - 0.
         - 0.
         - 0.
         - 0.
         - 0.
         - 0.
         - 0.
         - 0.
         - 0.
         - 0.
         - 0.
         - 0.
         - 0.
         - 0.
         - 0.
         - 0.
         - 0.
         - 0.
         - 0.
         - 0.
         - 0.
         - 0.
         - 0.
         - 0.
         - 0.
         - 0.
         - 0.
         - 0.
         - 0.
         - 0.
         - 0.
         - 0.
         - 0.
         - 0.
         - 0.
         - 0.
         - 0.
         - 0.
         - 0.
         - 0.
         - 0.
         - 0.
         - 0.
         - 0.
         - 0.
         - 0.
         - 0.
         - 0.
         - 0.
         - 0.
         - 0.
         - 0.
         - 0.
         - 0.
         - 0.
         - 0.
         - 0.
         - 0.
         - 0.
         - 0.
         - 0.
         - 0.
         - 0.
         - 0.
         - 0.
         - 0.
         - 0.
         - 0.
         - 0.
         - 0.
         - 0.
         - 0.
         - 0.
         - 0.
         - 0.
         - 0.
         - 0.
         - 0.
         - 0.
         - 0.
         - 0.
         - 0.
         - 0.
         - 0.
         - 0.
         - 0.
         - 0.
         - 0.
         - 0.
         - 0.
         - 0.
         - 0.
         - 0.
         - 0.
         - 0.
         - 0.
         - 0.
         - 0.
         - 0.
         - 0.
         - 0.
         - 0.
         - 0.
         - 0.
         - 0.
         - 0.
         - 0.
         - 0.
         - 0.
         - 0.
         - 0.
         - 0.
         - 0.
         - 0.
         - 0.
         - 0.
         - 0.
         - 0.
         - 0.
         - 0.
         - 0.
         - 0.
         - 0.
         - 0.
         - 0.
         - 0.
         - 0.
         - 0.
         - 0.
         - 0.
         - 0.
         - 0.
         - 0.
         - 0.
         - 0.
         - 0.
         - 0.
         - 0.
         - 0.
         - 0.
         - 0.
         - 0.
         - 0.
         - 0.
         - 0.
         - 0.
         - 0.
         - 0.
         - 0.
         - 0.
         - 0.
         - 0.
         - 0.
         - 0.
         - 0.
         - 0.
         - 0.
         - 0.
         - 0.
         - 0.
         - 0.
         - 0.
         - 0.
         - 0.
         - 0.
         - 0.
         - 0.
         - 0.
         - 0.
         - 0.
         - 0.
         - 0.
         - 0.
         - 0.
         - 0.
         - 0.
         - 0.
         - 0.
         - 0.
         - 0.
         - 0.
         - 0.
         - 0.
         - 0.
         - 0.
         - 0.
         - 0.
         - 0.
         - 0.
         - 0.
         - 0.
         - 0.
         - 0.
         - 0.
         - 0.
         - 0.
         - 0.
         - 0.
         - 0.
         - 0.
         - 0.
         - 0.
         - 0.
         - 0.
         - 0.
         - 0.
         - 0.
         - 0.
         - 0.
         - 0.
         - 0.
         - 0.
         - 0.
         - 0.
         - 0.
         - 0.
         - 0.
         - 0.
         - 0.
         - 0.
         - 0.
         - 0.
         - 0.
         - 0.
         - 0.
         - 0.
         - 0.
         - 0.
         - 0.
         - 0.
         - 0.
         - 0.
         - 0.
         - 0.
         - 0.
         - 0.
         - 0.
         - 0.
         - 0.
         - 0.
         - 0.
         - 0.
         - 0.
         - 0.
         - 0.
         - 0.
         - 0.
         - 0.
         - 0.
         - 0.
         - 0.
         - 0.
         - 0.
         - 0.
         - 0.
         - 0.
         - 0.
         - 0.
         - 0.
         - 0.
         - 0.
         - 0.
         - 0.
         - 0.
         - 0.
         - 0.
         - 0.
         - 0.
         - 0.
         - 0.
         - 0.
         - 0.
         - 0.
         - 0.
         - 0.
         - 0.
         - 0.
         - 0.
         - 0.
         - 0.
         - 0.
         - 0.
         - 0.
         - 0.
         - 0.
         - 0.
         - 0.
         - 0.
         - 0.
         - 0.
         - 0.
         - 0.
         - 0.
         - 0.
         - 0.
         - 0.
         - 0.
         - 0.
         - 0.
         - 0.
         - 0.
         - 0.
         - 0.
         - 0.
         - 0.
         - 0.
         - 0.
         - 0.
         - 0.
         - 0.
         - 0.
         - 0.
         - 0.
         - 0.
         - 0.
         - 0.
         - 0.
         - 0.
         - 0.
         - 0.
         - 0.
         - 0.
         - 0.
         - 0.
         - 0.
         - 0.
         - 0.
         - 0.
         - 0.
         - 0.
         - 0.
         - 0.
         - 0.
         - 0.
         - 0.
         - 0.
         - 0.
         - 0.
         - 0.
         - 0.
         - 0.
         - 0.
         - 0.
         - 0.
         - 0.
         - 0.
         - 0.
         - 0.
         - 0.
         - 0.
         - 0.
         - 0.
         - 0.
         - 0.
         - 0.
         - 0.
         - 0.
         - 0.
         - 0.
         - 0.
         - 0.
         - 0.
         - 0.
         - 0.
         - 0.
         - 0.
         - 0.
         - 0.
         - 0.
         - 0.
         - 0.
         - 0.
         - 0.
         - 0.
         - 0.
         - 0.
         - 0.
         - 0.
         - 0.
         - 0.
         - 0.
         - 0.
         - 0.
         - 0.
         - 0.
         - 0.
         - 0.
         - 0.
         - 0.
         - 0.
         - 0.
         - 0.
         - 0.
         - 0.
         - 0.
         - 0.
         - 0.
         - 0.
         - 0.
         - 0.
         - 0.
         - 0.
         - 0.
         - 0.
         - 0.
         - 0.
         - 0.
         - 0.
         - 0.
         - 0.
         - 0.
         - 0.
         - 0.
         - 0.
         - 0.
         - 0.
         - 0.
         - 0.
         - 0.
         - 0.
         - 0.
         - 0.
         - 0.
         - 0.
         - 0.
         - 0.
         - 0.
         - 0.
         - 0.
         - 0.
         - 0.
         - 0.
         - 0.
         - 0.
         - 0.
         - 0.
         - 0.
         - 0.
         - 0.
         - 0.
         - 0.
         - 0.
         - 0.
         - 0.
         - 0.
         - 0.
         - 0.
         - 0.
         - 0.
         - 0.
         - 0.
         - 0.
         - 0.
         - 0.
         - 0.
         - 0.
         - 0.
         - 0.
         - 0.
         - 0.
         - 0.
         - 0.
         - 0.
         - 0.
         - 0.
         - 0.
         - 0.
         - 0.
         - 0.
         - 0.
         - 0.
         - 0.
         - 0.
         - 0.
         - 0.
         - 0.
         - 0.
         - 0.
         - 0.
         - 0.
         - 0.
         - 0.
         - 0.
         - 0.
         - 0.
         - 0.
         - 0.
         - 0.
         - 0.
         - 0.
         - 0.
         - 0.
         - 0.
         - 0.
         - 0.
         - 0.
         - 0.
         - 0.
         - 0.
         - 0.
         - 0.
         - 0.
         - 0.
         - 0.
         - 0.
         - 0.
         - 0.
         - 0.
         - 0.
         - 0.
         - 0.
         - 0.
         - 0.
         - 0.
         - 0.
         - 0.
         - 0.
         - 0.
         - 0.
         - 0.
         - 0.
         - 0.
         - 0.
         - 0.
         - 0.
         - 0.
         - 0.
         - 0.
         - 0.
         - 0.
         - 0.
         - 0.
         - 0.
         - 0.
         - 0.
         - 0.
         - 0.
         - 0.
         - 0.
         - 0.
         - 0.
         - 0.
         - 0.
         - 0.
         - 0.
         - 0.
         - 0.
         - 0.
         - 0.
         - 0.
         - 0.
         - 0.
         - 0.
         - 0.
         - 0.
         - 0.
         - 0.
         - 0.
         - 0.
         - 0.
         - 0.
         - 0.
         - 0.
         - 0.
         - 0.
         - 0.
         - 0.
         - 0.
         - 0.
         - 0.
         - 0.
         - 0.
         - 0.
         - 0.
         - 0.
         - 0.
         - 0.
         - 0.
         - 0.
         - 0.
         - 0.
         - 0.
         - 0.
         - 0.
         - 0.
         - 0.
         - 0.
         - 0.
         - 0.
         - 0.
         - 0.
         - 0.
         - 0.
         - 0.
         - 0.
         - 0.
         - 0.
         - 0.
         - 0.
         - 0.
         - 0.
         - 0.
         - 0.
         - 0.
         - 0.
         - 0.
         - 0.
         - 0.
         - 0.
         - 0.
         - 0.
         - 0.
         - 0.
         - 0.
         - 0.
         - 0.
         - 0.
         - 0.
         - 0.
         - 0.
         - 0.
         - 0.
         - 0.
         - 0.
         - 0.
         - 0.
         - 0.
         - 0.
         - 0.
         - 0.
         - 0.
         - 0.
         - 0.
         - 0.
         - 0.
         - 0.
         - 0.
         - 0.
         - 0.
         - 0.
         - 0.
         - 0.
         - 0.
         - 0.
         - 0.
         - 0.
         - 0.
         - 0.
         - 0.
         - 0.
         - 0.
         - 0.
         - 0.
         - 0.
         - 0.
         - 0.
         - 0.
         - 0.
         - 0.
         - 0.
         - 0.
         - 0.
         - 0.
         - 0.
         - 0.
         - 0.
         - 0.
         - 0.
         - 0.
         - 0.
         - 0.
         - 0.
         - 0.
         - 0.
         - 0.
         - 0.
         - 0.
         - 0.
         - 0.
         - 0.
         - 0.
         - 0.
         - 0.
         - 0.
         - 0.
         - 0.
         - 0.
         - 0.
         - 0.
         - 0.
         - 0.
         - 0.
         - 0.
         - 0.
         - 0.
         - 0.
         - 0.
         - 0.
         - 0.
         - 0.
         - 0.
         - 0.
         - 0.
         - 0.
         - 0.
         - 0.
         - 0.
         - 0.
         - 0.
         - 0.
         - 0.
         - 0.
         - 0.
         - 0.
         - 0.
         - 0.
         - 0.
         - 0.
         - 0.
         - 0.
         - 0.
         - 0.
         - 0.
         - 0.
         - 0.
         - 0.
         - 0.
         - 0.
         - 0.
         - 0.
         - 0.
         - 0.
         - 0.
         - 0.
         - 0.
         - 0.
         - 0.
         - 0.
         - 0.
         - 0.
         - 0.
         - 0.
         - 0.
         - 0.
         - 0.
         - 0.
         - 0.
         - 0.
         - 0.
         - 0.
         - 0.
         - 0.
         - 0.
         - 0.
         - 0.
         - 0.
         - 0.
         - 0.
         - 0.
         - 0.
         - 0.
         - 0.
         - 0.
         - 0.
         - 0.
         - 0.
         - 0.
         - 0.
         - 0.
         - 0.
         - 0.
         - 0.
         - 0.
         - 0.
         - 0.
         - 0.
         - 0.
         - 0.
         - 0.
         - 0.
         - 0.
         - 0.
         - 0.
         - 0.
         - 0.
         - 0.
         - 0.
         - 0.
         - 0.
         - 0.
         - 0.
         - 0.
         - 0.
         - 0.
         - 0.
         - 0.
         - 0.
         - 0.
         - 0.
         - 0.
         - 0.
         - 0.
         - 0.
         - 0.
         - 0.
         - 0.
         - 0.
         - 0.
         - 0.
         - 0.
         - 0.
         - 0.
         - 0.
         - 0.
         - 0.
         - 0.
         - 0.
         - 0.
         - 0.
         - 0.
         - 0.
         - 0.
         - 0.
         - 0.
         - 0.
         - 0.
         - 0.
         - 0.
         - 0.
         - 0.
         - 0.
         - 0.
         - 0.
         - 0.
         - 0.
         - 0.
         - 0.
         - 0.
         - 0.
         - 0.
         - 0.
         - 0.
         - 0.
         - 0.
         - 0.
         - 0.
         - 0.
         - 0.
         - 0.
         - 0.
         - 0.
         - 0.
         - 0.
         - 0.
         - 0.
         - 0.
         - 0.
         - 0.
         - 0.
         - 0.
         - 0.
         - 0.
         - 0.
         - 0.
         - 0.
         - 0.
         - 0.
         - 0.
         - 0.
         - 0.
         - 0.
         - 0.
         - 0.
         - 0.
         - 0.
         - 0.
         - 0.
         - 0.
         - 0.
         - 0.
         - 0.
         - 0.
         - 0.
         - 0.
         - 0.
         - 0.
         - 0.
         - 0.
         - 0.
         - 0.
         - 0.
         - 0.
         - 0.
         - 0.
         - 0.
         - 0.
         - 0.
         - 0.
         - 0.
         - 0.
         - 0.
         - 0.
         - 0.
         - 0.
         - 0.
         - 0.
         - 0.
         - 0.
         - 0.
         - 0.
         - 0.
         - 0.
         - 0.
         - 0.
         - 0.
         - 0.
         - 0.
         - 0.
         - 0.
         - 0.
         - 0.
         - 0.
         - 0.
         - 0.
         - 0.
         - 0.
         - 0.
         - 0.
         - 0.
         - 0.
         - 0.
         - 0.
         - 0.
         - 0.
         - 0.
         - 0.
         - 0.
         - 0.
         - 0.
         - 0.
         - 0.
         - 0.
         - 0.
         - 0.
         - 0.
         - 0.
         - 0.
         - 0.
         - 0.
         - 0.
         - 0.
         - 0.
         - 0.
         - 0.
         - 0.
         - 0.
         - 0.
         - 0.
         - 0.
         - 0.
         - 0.
         - 0.
         - 0.
         - 0.
         - 0.
         - 0.
         - 0.
         - 0.
         - 0.
         - 0.
         - 0.
         - 0.
         - 0.
         - 0.
         - 0.
         - 0.
         - 0.
         - 0.
         - 0.
         - 0.
         - 0.
         - 0.
         - 0.
         - 0.
         - 0.
         - 0.
         - 0.
         - 0.
         - 0.
         - 0.
         - 0.
         - 0.
         - 0.
         - 0.
         - 0.
         - 0.
         - 0.
         - 0.
         - 0.
         - 0.
         - 0.
         - 0.
         - 0.
         - 0.
         - 0.
         - 0.
         - 0.
         - 0.
         - 0.
         - 0.
         - 0.
         - 0.
         - 0.
         - 0.
         - 0.
         - 0.
         - 0.
         - 0.
         - 0.
         - 0.
         - 0.
         - 0.
         - 0.
         - 0.
         - 0.
         - 0.
         - 0.
         - 0.
         - 0.
         - 0.
         - 0.
         - 0.
         - 0.
         - 0.
         - 0.
         - 0.
         - 0.
         - 0.
         - 0.
         - 0.
         - 0.
         - 0.
         - 0.
         - 0.
         - 0.
         - 0.
         - 0.
         - 0.
         - 0.
         - 0.
         - 0.
         - 0.
         - 0.
         - 0.
         - 0.
         - 0.
         - 0.
         - 0.
         - 0.
         - 0.
         - 0.
         - 0.
         - 0.
         - 0.
         - 0.
         - 0.
         - 0.
         - 0.
         - 0.
         - 0.
         - 0.
         - 0.
         - 0.
         - 0.
         - 0.
         - 0.
         - 0.
         - 0.
         - 0.
         - 0.
         - 0.
         - 0.
         - 0.
         - 0.
         - 0.
         - 0.
         - 0.
         - 0.
         - 0.
         - 0.
         - 0.
         - 0.
         - 0.
         - 0.
         - 0.
         - 0.
         - 0.
         - 0.
         - 0.
         - 0.
         - 0.
         - 0.
         - 0.
         - 0.
         - 0.
         - 0.
         - 0.
         - 0.
         - 0.
         - 0.
         - 0.
         - 0.
         - 0.
         - 0.
         - 0.
         - 0.
         - 0.
         - 0.
         - 0.
         - 0.
         - 0.
         - 0.
         - 0.
         - 0.
         - 0.
         - 0.
         - 0.
         - 0.
         - 0.
         - 0.
         - 0.
         - 0.
         - 0.
         - 0.
         - 0.
         - 0.
         - 0.
         - 0.
         - 0.
         - 0.
         - 0.
         - 0.
         - 0.
         - 0.
         - 0.
         - 0.
         - 0.
         - 0.
         - 0.
         - 0.
         - 0.
         - 0.
         - 0.
         - 0.
         - 0.
         - 0.
         - 0.
         - 0.
         - 0.
         - 0.
         - 0.
         - 0.
         - 0.
         - 0.
         - 0.
         - 0.
         - 0.
         - 0.
         - 0.
         - 0.
         - 0.
         - 0.
         - 0.
         - 0.
         - 0.
         - 0.
         - 0.
         - 0.
         - 0.
         - 0.
         - 0.
         - 0.
         - 0.
         - 0.
         - 0.
         - 0.
         - 0.
         - 0.
         - 0.
         - 0.
         - 0.
         - 0.
         - 0.
         - 0.
         - 0.
         - 0.
         - 0.
         - 0.
         - 0.
         - 0.
         - 0.
         - 0.
         - 0.
         - 0.
         - 0.
         - 0.
         - 0.
         - 0.
         - 0.
         - 0.
         - 0.
         - 0.
         - 0.
         - 0.
         - 0.
         - 0.
         - 0.
         - 0.
         - 0.
         - 0.
         - 0.
         - 0.
         - 0.
         - 0.
         - 0.
         - 0.
         - 0.
         - 0.
         - 0.
         - 0.
         - 0.
         - 0.
         - 0.
         - 0.
         - 0.
         - 0.
         - 0.
         - 0.
         - 0.
         - 0.
         - 0.
         - 0.
         - 0.
         - 0.
         - 0.
         - 0.
         - 0.
         - 0.
         - 0.
         - 0.
         - 0.
         - 0.
         - 0.
         - 0.
         - 0.
         - 0.
         - 0.
         - 0.
         - 0.
         - 0.
         - 0.
         - 0.
         - 0.
         - 0.
         - 0.
         - 0.
         - 0.
         - 0.
         - 0.
         - 0.
         - 0.
         - 0.
         - 0.
         - 0.
         - 0.
         - 0.
         - 0.
         - 0.
         - 0.
         - 0.
         - 0.
         - 0.
         - 0.
         - 0.
         - 0.
         - 0.
         - 0.
         - 0.
         - 0.
         - 0.
         - 0.
         - 0.
         - 0.
         - 0.
         - 0.
         - 0.
         - 0.
         - 0.
         - 0.
         - 0.
         - 0.
         - 0.
         - 0.
         - 0.
         - 0.
         - 0.
         - 0.
         - 0.
         - 0.
         - 0.
         - 0.
         - 0.
         - 0.
         - 0.
         - 0.
         - 0.
         - 0.
         - 0.
         - 0.
         - 0.
         - 0.
         - 0.
         - 0.
         - 0.
         - 0.
         - 0.
         - 0.
         - 0.
         - 0.
         - 0.
         - 0.
         - 0.
         - 0.
         - 0.
         - 0.
         - 0.
         - 0.
         - 0.
         - 0.
         - 0.
         - 0.
         - 0.
         - 0.
         - 0.
         - 0.
         - 0.
         - 0.
         - 0.
         - 0.
         - 0.
         - 0.
         - 0.
         - 0.
         - 0.
         - 0.
         - 0.
         - 0.
         - 0.
         - 0.
         - 0.
         - 0.
         - 0.
         - 0.
         - 0.
         - 0.
         - 0.
         - 0.
         - 0.
         - 0.
         - 0.
         - 0.
         - 0.
         - 0.
         - 0.
         - 0.
         - 0.
         - 0.
         - 0.
         - 0.
         - 0.
         - 0.
         - 0.
         - 0.
         - 0.
         - 0.
         - 0.
         - 0.
         - 0.
         - 0.
         - 0.
         - 0.
         - 0.
         - 0.
         - 0.
         - 0.
         - 0.
         - 0.
         - 0.
         - 0.
         - 0.
         - 0.
         - 0.
         - 0.
         - 0.
         - 0.
         - 0.
         - 0.
         - 0.
         - 0.
         - 0.
         - 0.
         - 0.
         - 0.
         - 0.
         - 0.
         - 0.
         - 0.
         - 0.
         - 0.
         - 0.
         - 0.
         - 0.
         - 0.
         - 0.
         - 0.
         - 0.
         - 0.
         - 0.
         - 0.
         - 0.
         - 0.
         - 0.
         - 0.
         - 0.
         - 0.
         - 0.
         - 0.
         - 0.
         - 0.
         - 0.
         - 0.
         - 0.
         - 0.
         - 0.
         - 0.
         - 0.
         - 0.
         - 0.
         - 0.
         - 0.
         - 0.
         - 0.
         - 0.
         - 0.
         - 0.
         - 0.
         - 0.
         - 0.
         - 0.
         - 0.
         - 0.
         - 0.
         - 0.
         - 0.
         - 0.
         - 0.
         - 0.
         - 0.
         - 0.
         - 0.
         - 0.
         - 0.
         - 0.
         - 0.
         - 0.
         - 0.
         - 0.
         - 0.
         - 0.
         - 0.
         - 0.
         - 0.
         - 0.
         - 0.
         - 0.
         - 0.
         - 0.
         - 0.
         - 0.
         - 0.
         - 0.
         - 0.
         - 0.
         - 0.
         - 0.
         - 0.
         - 0.
         - 0.
         - 0.
         - 0.
         - 0.
         - 0.
         - 0.
         - 0.
         - 0.
         - 0.
         - 0.
         - 0.
         - 0.
         - 0.
         - 0.
         - 0.
         - 0.
         - 0.
         - 0.
         - 0.
         - 0.
         - 0.
         - 0.
         - 0.
         - 0.
         - 0.
         - 0.
         - 0.
         - 0.
         - 0.
         - 0.
         - 0.
         - 0.
         - 0.
         - 0.
         - 0.
         - 0.
         - 0.
         - 0.
         - 0.
         - 0.
         - 0.
         - 0.
         - 0.
         - 0.
         - 0.
         - 0.
         - 0.
         - 0.
         - 0.
         - 0.
         - 0.
         - 0.
         - 0.
         - 0.
         - 0.
         - 0.
         - 0.
         - 0.
         - 0.
         - 0.
         - 0.
         - 0.
         - 0.
         - 0.
         - 0.
         - 0.
         - 0.
         - 0.
         - 0.
         - 0.
         - 0.
         - 0.
         - 0.
         - 0.
         - 0.
         - 0.
         - 0.
         - 0.
         - 0.
         - 0.
         - 0.
         - 0.
         - 0.
         - 0.
         - 0.
         - 0.
         - 0.
         - 0.
         - 0.
         - 0.
         - 0.
         - 0.
         - 0.
         - 0.
         - 0.
         - 0.
         - 0.
         - 0.
         - 0.
         - 0.
         - 0.
         - 0.
         - 0.
         - 0.
         - 0.
         - 0.
         - 0.
         - 0.
         - 0.
         - 0.
         - 0.
         - 0.
         - 0.
         - 0.
         - 0.
         - 0.
         - 0.
         - 0.
         - 0.
         - 0.
         - 0.
         - 0.
         - 0.
         - 0.
         - 0.
         - 0.
         - 0.
         - 0.
         - 0.
         - 0.
         - 0.
         - 0.
         - 0.
         - 0.
         - 0.
         - 0.
         - 0.
         - 0.
         - 0.
         - 0.
         - 0.
         - 0.
         - 0.
         - 0.
         - 0.
         - 0.
         - 0.
         - 0.
         - 0.
         - 0.
         - 0.
         - 0.
         - 0.
         - 0.
         - 0.
         - 0.
         - 0.
         - 0.
         - 0.
         - 0.
         - 0.
         - 0.
         - 0.
         - 0.
         - 0.
         - 0.
         - 0.
         - 0.
         - 0.
         - 0.
         - 0.
         - 0.
         - 0.
         - 0.
         - 0.
         - 0.
         - 0.
         - 0.
         - 0.
         - 0.
         - 0.
         - 0.
         - 0.
         - 0.
         - 0.
         - 0.
         - 0.
         - 0.
         - 0.
         - 0.
         - 0.
         - 0.
         - 0.
         - 0.
         - 0.
         - 0.
         - 0.
         - 0.
         - 0.
         - 0.
         - 0.
         - 0.
         - 0.
         - 0.
         - 0.
         - 0.
         - 0.
         - 0.
         - 0.
         - 0.
         - 0.
         - 0.
         - 0.
         - 0.
         - 0.
         - 0.
         - 0.
         - 0.
         - 0.
         - 0.
         - 0.
         - 0.
         - 0.
         - 0.
         - 0.
         - 0.
         - 0.
         - 0.
         - 0.
         - 0.
         - 0.
         - 0.
         - 0.
         - 0.
         - 0.
         - 0.
         - 0.
         - 0.
         - 0.
         - 0.
         - 0.
         - 0.
         - 0.
         - 0.
         - 0.
         - 0.
         - 0.
         - 0.
         - 0.
         - 0.
         - 0.
         - 0.
         - 0.
         - 0.
         - 0.
         - 0.
         - 0.
         - 0.
         - 0.
         - 0.
         - 0.
         - 0.
         - 0.
         - 0.
         - 0.
         - 0.
         - 0.
         - 0.
         - 0.
         - 0.
         - 0.
         - 0.
         - 0.
         - 0.
         - 0.
         - 0.
         - 0.
         - 0.
         - 0.
         - 0.
         - 0.
         - 0.
         - 0.
         - 0.
         - 0.
         - 0.
         - 0.
         - 0.
         - 0.
         - 0.
         - 0.
         - 0.
         - 0.
         - 0.
         - 0.
         - 0.
         - 0.
         - 0.
         - 0.
         - 0.
         - 0.
         - 0.
         - 0.
         - 0.
         - 0.
         - 0.
         - 0.
         - 0.
         - 0.
         - 0.
         - 0.
         - 0.
         - 0.
         - 0.
         - 0.
         - 0.
         - 0.
         - 0.
         - 0.
         - 0.
         - 0.
         - 0.
         - 0.
         - 0.
         - 0.
         - 0.
         - 0.
         - 0.
         - 0.
         - 0.
         - 0.
         - 0.
         - 0.
         - 0.
         - 0.
         - 0.
         - 0.
         - 0.
         - 0.
         - 0.
         - 0.
         - 0.
         - 0.
         - 0.
         - 0.
         - 0.
         - 0.
         - 0.
         - 0.
         - 0.
         - 0.
         - 0.
         - 0.
         - 0.
         - 0.
         - 0.
         - 0.
         - 0.
         - 0.
         - 0.
         - 0.
         - 0.
         - 0.
         - 0.
         - 0.
         - 0.
         - 0.
         - 0.
         - 0.
         - 0.
         - 0.
         - 0.
         - 0.
         - 0.
         - 0.
         - 0.
         - 0.
         - 0.
         - 0.
         - 0.
         - 0.
         - 0.
         - 0.
         - 0.
         - 0.
         - 0.
         - 0.
         - 0.
         - 0.
         - 0.
         - 0.
         - 0.
         - 0.
         - 0.
         - 0.
         - 0.
         - 0.
         - 0.
         - 0.
         - 0.
         - 0.
         - 0.
         - 0.
         - 0.
         - 0.
         - 0.
         - 0.
         - 0.
         - 0.
         - 0.
         - 0.
         - 0.
         - 0.
         - 0.
         - 0.
         - 0.
         - 0.
         - 0.
         - 0.
         - 0.
         - 0.
         - 0.
         - 0.
         - 0.
         - 0.
         - 0.
         - 0.
         - 0.
         - 0.
         - 0.
         - 0.
         - 0.
         - 0.
         - 0.
         - 0.
         - 0.
         - 0.
         - 0.
         - 0.
         - 0.
         - 0.
         - 0.
         - 0.
         - 0.
         - 0.
         - 0.
         - 0.
         - 0.
         - 0.
         - 0.
         - 0.
         - 0.
         - 0.
         - 0.
         - 0.
         - 0.
         - 0.
         - 0.
         - 0.
         - 0.
         - 0.
         - 0.
         - 0.
         - 0.
         - 0.
         - 0.
         - 0.
         - 0.
         - 0.
         - 0.
         - 0.
         - 0.
         - 0.
         - 0.
         - 0.
         - 0.
         - 0.
         - 0.
         - 0.
         - 0.
         - 0.
         - 0.
         - 0.
         - 0.
         - 0.
         - 0.
         - 0.
         - 0.
         - 0.
         - 0.
         - 0.
         - 0.
         - 0.
         - 0.
         - 0.
         - 0.
         - 0.
         - 0.
         - 0.
         - 0.
         - 0.
         - 0.
         - 0.
         - 0.
         - 0.
         - 0.
         - 0.
         - 0.
         - 0.
         - 0.
         - 0.
         - 0.
         - 0.
         - 0.
         - 0.
         - 0.
         - 0.
         - 0.
         - 0.
         - 0.
         - 0.
         - 0.
         - 0.
         - 0.
         - 0.
         - 0.
         - 0.
         - 0.
         - 0.
         - 0.
         - 0.
         - 0.
         - 0.
         - 0.
         - 0.
         - 0.
         - 0.
         - 0.
         - 0.
         - 0.
         - 0.
         - 0.
         - 0.
         - 0.
         - 0.
         - 0.
         - 0.
         - 0.
         - 0.
         - 0.
         - 0.
         - 0.
         - 0.
         - 0.
         - 0.
         - 0.
         - 0.
         - 0.
         - 0.
         - 0.
         - 0.
         - 0.
         - 0.
         - 0.
         - 0.
         - 0.
         - 0.
         - 0.
         - 0.
         - 0.
         - 0.
         - 0.
         - 0.
         - 0.
         - 0.
         - 0.
         - 0.
         - 0.
         - 0.
         - 0.
         - 0.
         - 0.
         - 0.
         - 0.
         - 0.
         - 0.
         - 0.
         - 0.
         - 0.
         - 0.
         - 0.
         - 0.
         - 0.
         - 0.
         - 0.
         - 0.
         - 0.
         - 0.
         - 0.
         - 0.
         - 0.
         - 0.
         - 0.
         - 0.
         - 0.
         - 0.
         - 0.
         - 0.
         - 0.
         - 0.
         - 0.
         - 0.
         - 0.
         - 0.
         - 0.
         - 0.
         - 0.
         - 0.
         - 0.
         - 0.
         - 0.
         - 0.
         - 0.
         - 0.
         - 0.
         - 0.
         - 0.
         - 0.
         - 0.
         - 0.
         - 0.
         - 0.
         - 0.
         - 0.
         - 0.
         - 0.
         - 0.
         - 0.
         - 0.
         - 0.
         - 0.
         - 0.
         - 0.
         - 0.
         - 0.
         - 0.
         - 0.
         - 0.
         - 0.
         - 0.
         - 0.
         - 0.
         - 0.
         - 0.
         - 0.
         - 0.
         - 0.
         - 0.
         - 0.
         - 0.
         - 0.
         - 0.
         - 0.
         - 0.
         - 0.
         - 0.
         - 0.
         - 0.
         - 0.
         - 0.
         - 0.
         - 0.
         - 0.
         - 0.
         - 0.
         - 0.
         - 0.
         - 0.
         - 0.
         - 0.
         - 0.
         - 0.
         - 0.
         - 0.
         - 0.
         - 0.
         - 0.
         - 0.
         - 0.
         - 0.
         - 0.
         - 0.
         - 0.
         - 0.
         - 0.
         - 0.
         - 0.
         - 0.
         - 0.
         - 0.
         - 0.
         - 0.
         - 0.
         - 0.
         - 0.
         - 0.
         - 0.
         - 0.
         - 0.
         - 0.
         - 0.
         - 0.
         - 0.
         - 0.
         - 0.
         - 0.
         - 0.
         - 0.
         - 0.
         - 0.
         - 0.
         - 0.
         - 0.
         - 0.
         - 0.
         - 0.
         - 0.
         - 0.
         - 0.
         - 0.
         - 0.
         - 0.
         - 0.
         - 0.
         - 0.
         - 0.
         - 0.
         - 0.
         - 0.
         - 0.
         - 0.
         - 0.
         - 0.
         - 0.
         - 0.
         - 0.
         - 0.
         - 0.
         - 0.
         - 0.
         - 0.
         - 0.
         - 0.
         - 0.
         - 0.
         - 0.
         - 0.
         - 0.
         - 0.
         - 0.
         - 0.
         - 0.
         - 0.
         - 0.
         - 0.
         - 0.
         - 0.
         - 0.
         - 0.
         - 0.
         - 0.
         - 0.
         - 0.
         - 0.
         - 0.
         - 0.
         - 0.
         - 0.
         - 0.
         - 0.
         - 0.
         - 0.
         - 0.
         - 0.
         - 0.
         - 0.
         - 0.
         - 0.
         - 0.
         - 0.
         - 0.
         - 0.
         - 0.
         - 0.
         - 0.
         - 0.
         - 0.
         - 0.
         - 0.
         - 0.
         - 0.
         - 0.
         - 0.
         - 0.
         - 0.
         - 0.
         - 0.
         - 0.
         - 0.
         - 0.
         - 0.
         - 0.
         - 0.
         - 0.
         - 0.
         - 0.
         - 0.
         - 0.
         - 0.
         - 0.
         - 0.
         - 0.
         - 0.
         - 0.
         - 0.
         - 0.
         - 0.
         - 0.
         - 0.
         - 0.
         - 0.
         - 0.
         - 0.
         - 0.
         - 0.
         - 0.
         - 0.
         - 0.
         - 0.
         - 0.
         - 0.
         - 0.
         - 0.
         - 0.
         - 0.
         - 0.
         - 0.
         - 0.
         - 0.
         - 0.
         - 0.
         - 0.
         - 0.
         - 0.
         - 0.
         - 0.
         - 0.
         - 0.
         - 0.
         - 0.
         - 0.
         - 0.
         - 0.
         - 0.
         - 0.
         - 0.
         - 0.
         - 0.
         - 0.
         - 0.
         - 0.
         - 0.
         - 0.
         - 0.
         - 0.
         - 0.
         - 0.
         - 0.
         - 0.
         - 0.
         - 0.
         - 0.
         - 0.
         - 0.
         - 0.
         - 0.
         - 0.
         - 0.
         - 0.
         - 0.
         - 0.
         - 0.
         - 0.
         - 0.
         - 0.
         - 0.
         - 0.
         - 0.
         - 0.
         - 0.
         - 0.
         - 0.
         - 0.
         - 0.
         - 0.
         - 0.
         - 0.
         - 0.
         - 0.
         - 0.
         - 0.
         - 0.
         - 0.
         - 0.
         - 0.
         - 0.
         - 0.
         - 0.
         - 0.
         - 0.
         - 0.
         - 0.
         - 0.
         - 0.
         - 0.
         - 0.
         - 0.
         - 0.
         - 0.
         - 0.
         - 0.
         - 0.
         - 0.
         - 0.
         - 0.
         - 0.
         - 0.
         - 0.
         - 0.
         - 0.
         - 0.
         - 0.
         - 0.
         - 0.
         - 0.
         - 0.
         - 0.
         - 0.
         - 0.
         - 0.
         - 0.
         - 0.
         - 0.
         - 0.
         - 0.
         - 0.
         - 0.
         - 0.
         - 0.
         - 0.
         - 0.
         - 0.
         - 0.
         - 0.
         - 0.
         - 0.
         - 0.
         - 0.
         - 0.
         - 0.
         - 0.
         - 0.
         - 0.
         - 0.
         - 0.
         - 0.
         - 0.
         - 0.
         - 0.
         - 0.
         - 0.
         - 0.
         - 0.
         - 0.
         - 0.
         - 0.
         - 0.
         - 0.
         - 0.
         - 0.
         - 0.
         - 0.
         - 0.
         - 0.
         - 0.
         - 0.
         - 0.
         - 0.
         - 0.
         - 0.
         - 0.
         - 0.
         - 0.
         - 0.
         - 0.
         - 0.
         - 0.
         - 0.
         - 0.
         - 0.
         - 0.
         - 0.
         - 0.
         - 0.
         - 0.
         - 0.
         - 0.
         - 0.
         - 0.
         - 0.
         - 0.
         - 0.
         - 0.
         - 0.
         - 0.
         - 0.
         - 0.
         - 0.
         - 0.
         - 0.
         - 0.
         - 0.
         - 0.
         - 0.
         - 0.
         - 0.
         - 0.
         - 0.
         - 0.
         - 0.
         - 0.
         - 0.
         - 0.
         - 0.
         - 0.
         - 0.
         - 0.
         - 0.
         - 0.
         - 0.
         - 0.
         - 0.
         - 0.
         - 0.
         - 0.
         - 0.
         - 0.
         - 0.
         - 0.
         - 0.
         - 0.
         - 0.
         - 0.
         - 0.
         - 0.
         - 0.
         - 0.
         - 0.
         - 0.
         - 0.
         - 0.
         - 0.
         - 0.
         - 0.
         - 0.
         - 0.
         - 0.
         - 0.
         - 0.
         - 0.
         - 0.
         - 0.
         - 0.
         - 0.
         - 0.
         - 0.
         - 0.
         - 0.
         - 0.
         - 0.
         - 0.
         - 0.
         - 0.
         - 0.
         - 0.
         - 0.
         - 0.
         - 0.
         - 0.
         - 0.
         - 0.
         - 0.
         - 0.
         - 0.
         - 0.
         - 0.
         - 0.
         - 0.
         - 0.
         - 0.
         - 0.
         - 0.
         - 0.
         - 0.
         - 0.
         - 0.
         - 0.
         - 0.
         - 0.
         - 0.
         - 0.
         - 0.
         - 0.
         - 0.
         - 0.
         - 0.
         - 0.
         - 0.
         - 0.
         - 0.
         - 0.
         - 0.
         - 0.
         - 0.
         - 0.
         - 0.
         - 0.
         - 0.
         - 0.
         - 0.
         - 0.
         - 0.
         - 0.
         - 0.
         - 0.
         - 0.
         - 0.
         - 0.
         - 0.
         - 0.
         - 0.
         - 0.
         - 0.
         - 0.
         - 0.
         - 0.
         - 0.
         - 0.
         - 0.
         - 0.
         - 0.
         - 0.
         - 0.
         - 0.
         - 0.
         - 0.
         - 0.
         - 0.
         - 0.
         - 0.
         - 0.
         - 0.
         - 0.
         - 0.
         - 0.
         - 0.
         - 0.
         - 0.
         - 0.
         - 0.
         - 0.
         - 0.
         - 0.
         - 0.
         - 0.
         - 0.
         - 0.
         - 0.
         - 0.
         - 0.
         - 0.
         - 0.
         - 0.
         - 0.
         - 0.
         - 0.
         - 0.
         - 0.
         - 0.
         - 0.
         - 0.
         - 0.
         - 0.
         - 0.
         - 0.
         - 0.
         - 0.
         - 0.
         - 0.
         - 0.
         - 0.
         - 0.
         - 0.
         - 0.
         - 0.
         - 0.
         - 0.
         - 0.
         - 0.
         - 0.
         - 0.
         - 0.
         - 0.
         - 0.
         - 0.
         - 0.
         - 0.
         - 0.
         - 0.
         - 0.
         - 0.
         - 0.
         - 0.
         - 0.
         - 0.
         - 0.
         - 0.
         - 0.
         - 0.
         - 0.
         - 0.
         - 0.
         - 0.
         - 0.
         - 0.
         - 0.
         - 0.
         - 0.
         - 0.
         - 0.
         - 0.
         - 0.
         - 0.
         - 0.
         - 0.
         - 0.
         - 0.
         - 0.
         - 0.
         - 0.
         - 0.
         - 0.
         - 0.
         - 0.
         - 0.
         - 0.
         - 0.
         - 0.
         - 0.
         - 0.
         - 0.
         - 0.
         - 0.
         - 0.
         - 0.
         - 0.
         - 0.
         - 0.
         - 0.
         - 0.
         - 0.
         - 0.
         - 0.
         - 0.
         - 0.
         - 0.
         - 0.
         - 0.
         - 0.
         - 0.
         - 0.
         - 0.
         - 0.
         - 0.
         - 0.
         - 0.
         - 0.
         - 0.
         - 0.
         - 0.
         - 0.
         - 0.
         - 0.
         - 0.
         - 0.
         - 0.
         - 0.
         - 0.
         - 0.
         - 0.
         - 0.
         - 0.
         - 0.
         - 0.
         - 0.
         - 0.
         - 0.
         - 0.
         - 0.
         - 0.
         - 0.
         - 0.
         - 0.
         - 0.
         - 0.
         - 0.
         - 0.
         - 0.
         - 0.
         - 0.
         - 0.
         - 0.
         - 0.
         - 0.
         - 0.
         - 0.
         - 0.
         - 0.
         - 0.
         - 0.
         - 0.
         - 0.
         - 0.
         - 0.
         - 0.
         - 0.
         - 0.
         - 0.
         - 0.
         - 0.
         - 0.
         - 0.
         - 0.
         - 0.
         - 0.
         - 0.
         - 0.
         - 0.
         - 0.
         - 0.
         - 0.
         - 0.
         - 0.
         - 0.
         - 0.
         - 0.
         - 0.
         - 0.
         - 0.
         - 0.
         - 0.
         - 0.
         - 0.
         - 0.
         - 0.
         - 0.
         - 0.
         - 0.
         - 0.
         - 0.
         - 0.
         - 0.
         - 0.
         - 0.
         - 0.
         - 0.
         - 0.
         - 0.
         - 0.
         - 0.
         - 0.
         - 0.
         - 0.
         - 0.
         - 0.
         - 0.
         - 0.
         - 0.
         - 0.
         - 0.
         - 0.
         - 0.
         - 0.
         - 0.
         - 0.
         - 0.
         - 0.
         - 0.
         - 0.
         - 0.
         - 0.
         - 0.
         - 0.
         - 0.
         - 0.
         - 0.
         - 0.
         - 0.
         - 0.
         - 0.
         - 0.
         - 0.
         - 0.
         - 0.
         - 0.
         - 0.
         - 0.
         - 0.
         - 0.
         - 0.
         - 0.
         - 0.
         - 0.
         - 0.
         - 0.
         - 0.
         - 0.
         - 0.
         - 0.
         - 0.
         - 0.
         - 0.
         - 0.
         - 0.
         - 0.
         - 0.
         - 0.
         - 0.
         - 0.
         - 0.
         - 0.
         - 0.
         - 0.
         - 0.
         - 0.
         - 0.
         - 0.
         - 0.
         - 0.
         - 0.
         - 0.
         - 0.
         - 0.
         - 0.
         - 0.
         - 0.
         - 0.
         - 0.
         - 0.
         - 0.
         - 0.
         - 0.
         - 0.
         - 0.
         - 0.
         - 0.
         - 0.
         - 0.
         - 0.
         - 0.
         - 0.
         - 0.
         - 0.
         - 0.
         - 0.
         - 0.
         - 0.
         - 0.
         - 0.
         - 0.
         - 0.
         - 0.
         - 0.
         - 0.
         - 0.
         - 0.
         - 0.
         - 0.
         - 0.
         - 0.
         - 0.
         - 0.
         - 0.
         - 0.
         - 0.
         - 0.
         - 0.
         - 0.
         - 0.
         - 0.
         - 0.
         - 0.
         - 0.
         - 0.
         - 0.
         - 0.
         - 0.
         - 0.
         - 0.
         - 0.
         - 0.
         - 0.
         - 0.
         - 0.
         - 0.
         - 0.
         - 0.
         - 0.
         - 0.
         - 0.
         - 0.
         - 0.
         - 0.
         - 0.
         - 0.
         - 0.
         - 0.
         - 0.
         - 0.
         - 0.
         - 0.
         - 0.
         - 0.
         - 0.
         - 0.
         - 0.
         - 0.
         - 0.
         - 0.
         - 0.
         - 0.
         - 0.
         - 0.
         - 0.
         - 0.
         - 0.
         - 0.
         - 0.
         - 0.
         - 0.
         - 0.
         - 0.
         - 0.
         - 0.
         - 0.
         - 0.
         - 0.
         - 0.
         - 0.
         - 0.
         - 0.
         - 0.
         - 0.
         - 0.
         - 0.
         - 0.
         - 0.
         - 0.
         - 0.
         - 0.
         - 0.
         - 0.
         - 0.
         - 0.
         - 0.
         - 0.
         - 0.
         - 0.
         - 0.
         - 0.
         - 0.
         - 0.
         - 0.
         - 0.
         - 0.
         - 0.
         - 0.
         - 0.
         - 0.
         - 0.
         - 0.
         - 0.
         - 0.
         - 0.
         - 0.
         - 0.
         - 0.
         - 0.
         - 0.
         - 0.
         - 0.
         - 0.
         - 0.
         - 0.
         - 0.
         - 0.
         - 0.
         - 0.
         - 0.
         - 0.
         - 0.
         - 0.
         - 0.
         - 0.
         - 0.
         - 0.
         - 0.
         - 0.
         - 0.
         - 0.
         - 0.
         - 0.
         - 0.
         - 0.
         - 0.
         - 0.
         - 0.
         - 0.
         - 0.
         - 0.
         - 0.
         - 0.
         - 0.
         - 0.
         - 0.
         - 0.
         - 0.
         - 0.
         - 0.
         - 0.
         - 0.
         - 0.
         - 0.
         - 0.
         - 0.
         - 0.
         - 0.
         - 0.
         - 0.
         - 0.
         - 0.
         - 0.
         - 0.
         - 0.
         - 0.
         - 0.
         - 0.
         - 0.
         - 0.
         - 0.
         - 0.
         - 0.
         - 0.
         - 0.
         - 0.
         - 0.
         - 0.
         - 0.
         - 0.
         - 0.
         - 0.
         - 0.
         - 0.
         - 0.
         - 0.
         - 0.
         - 0.
         - 0.
         - 0.
         - 0.
         - 0.
         - 0.
         - 0.
         - 0.
         - 0.
         - 0.
         - 0.
         - 0.
         - 0.
         - 0.
         - 0.
         - 0.
         - 0.
         - 0.
         - 0.
         - 0.
         - 0.
         - 0.
         - 0.
         - 0.
         - 0.
         - 0.
         - 0.
         - 0.
         - 0.
         - 0.
         - 0.
         - 0.
         - 0.
         - 0.
         - 0.
         - 0.
         - 0.
         - 0.
         - 0.
         - 0.
         - 0.
         - 0.
         - 0.
         - 0.
         - 0.
         - 0.
         - 0.
         - 0.
         - 0.
         - 0.
         - 0.
         - 0.
         - 0.
         - 0.
         - 0.
         - 0.
         - 0.
         - 0.
         - 0.
         - 0.
         - 0.
         - 0.
         - 0.
         - 0.
         - 0.
         - 0.
         - 0.
         - 0.
         - 0.
         - 0.
         - 0.
         - 0.
         - 0.
         - 0.
         - 0.
         - 0.
         - 0.
         - 0.
         - 0.
         - 0.
         - 0.
         - 0.
         - 0.
         - 0.
         - 0.
         - 0.
         - 0.
         - 0.
         - 0.
         - 0.
         - 0.
         - 0.
         - 0.
         - 0.
         - 0.
         - 0.
         - 0.
         - 0.
         - 0.
         - 0.
         - 0.
         - 0.
         - 0.
         - 0.
         - 0.
         - 0.
         - 0.
         - 0.
         - 0.
         - 0.
         - 0.
         - 0.
         - 0.
         - 0.
         - 0.
         - 0.
         - 0.
         - 0.
         - 0.
         - 0.
         - 0.
         - 0.
         - 0.
         - 0.
         - 0.
         - 0.
         - 0.
         - 0.
         - 0.
         - 0.
         - 0.
         - 0.
         - 0.
         - 0.
         - 0.
         - 0.
         - 0.
         - 0.
         - 0.
         - 0.
         - 0.
         - 0.
         - 0.
         - 0.
         - 0.
         - 0.
         - 0.
         - 0.
         - 0.
         - 0.
         - 0.
         - 0.
         - 0.
         - 0.
         - 0.
         - 0.
         - 0.
         - 0.
         - 0.
         - 0.
         - 0.
         - 0.
         - 0.
         - 0.
         - 0.
         - 0.
         - 0.
         - 0.
         - 0.
         - 0.
         - 0.
         - 0.
         - 0.
         - 0.
         - 0.
         - 0.
         - 0.
         - 0.
         - 0.
         - 0.
         - 0.
         - 0.
         - 0.
         - 0.
         - 0.
         - 0.
         - 0.
         - 0.
         - 0.
         - 0.
         - 0.
         - 0.
         - 0.
         - 0.
         - 0.
         - 0.
         - 0.
         - 0.
         - 0.
         - 0.
         - 0.
         - 0.
         - 0.
         - 0.
         - 0.
         - 0.
         - 0.
         - 0.
         - 0.
         - 0.
         - 0.
         - 0.
         - 0.
         - 0.
         - 0.
         - 0.
         - 0.
         - 0.
         - 0.
         - 0.
         - 0.
         - 0.
         - 0.
         - 0.
         - 0.
         - 0.
         - 0.
         - 0.
         - 0.
         - 0.
         - 0.
         - 0.
         - 0.
         - 0.
         - 0.
         - 0.
         - 0.
         - 0.
         - 0.
         - 0.
         - 0.
         - 0.
         - 0.
         - 0.
         - 0.
         - 0.
         - 0.
         - 0.
         - 0.
         - 0.
         - 0.
         - 0.
         - 0.
         - 0.
         - 0.
         - 0.
         - 0.
         - 0.
         - 0.
         - 0.
         - 0.
         - 0.
         - 0.
         - 0.
         - 0.
         - 0.
         - 0.
         - 0.
         - 0.
         - 0.
         - 0.
         - 0.
         - 0.
         - 0.
         - 0.
         - 0.
         - 0.
         - 0.
         - 0.
         - 0.
         - 0.
         - 0.
         - 0.
         - 0.
         - 0.
         - 0.
         - 0.
         - 0.
         - 0.
         - 0.
         - 0.
         - 0.
         - 0.
         - 0.
         - 0.
         - 0.
         - 0.
         - 0.
         - 0.
         - 0.
         - 0.
         - 0.
         - 0.
         - 0.
         - 0.
         - 0.
         - 0.
         - 0.
         - 0.
         - 0.
         - 0.
         - 0.
         - 0.
         - 0.
         - 0.
         - 0.
         - 0.
         - 0.
         - 0.
         - 0.
         - 0.
         - 0.
         - 0.
         - 0.
         - 0.
         - 0.
         - 0.
         - 0.
         - 0.
         - 0.
         - 0.
         - 0.
         - 0.
         - 0.
         - 0.
         - 0.
         - 0.
         - 0.
         - 0.
         - 0.
         - 0.
         - 0.
         - 0.
         - 0.
         - 0.
         - 0.
         - 0.
         - 0.
         - 0.
         - 0.
         - 0.
         - 0.
         - 0.
         - 0.
         - 0.
         - 0.
         - 0.
         - 0.
         - 0.
         - 0.
         - 0.
         - 0.
         - 0.
         - 0.
         - 0.
         - 0.
         - 0.
         - 0.
         - 0.
         - 0.
         - 0.
         - 0.
         - 0.
         - 0.
         - 0.
         - 0.
         - 0.
         - 0.
         - 0.
         - 0.
         - 0.
         - 0.
         - 0.
         - 0.
         - 0.
         - 0.
         - 0.
         - 0.
         - 0.
         - 0.
         - 0.
         - 0.
         - 0.
         - 0.
         - 0.
         - 0.
         - 0.
         - 0.
         - 0.
         - 0.
         - 0.
         - 0.
         - 0.
         - 0.
         - 0.
         - 0.
         - 0.
         - 0.
         - 0.
         - 0.
         - 0.
         - 0.
         - 0.
         - 0.
         - 0.
         - 0.
         - 0.
         - 0.
         - 0.
         - 0.
         - 0.
