svm_type epsilon_svr
kernel_type rbf
gamma 8
nr_class 2
total_sv 67
rho -2.85466
SV
0.005700972359785197 1:1 2:0.63630576 3:0.60555443 4:0.4194363 5:0 
0.9415844281668647 1:1 2:0 3:0.18324638 4:0.1982133 5:0.068177284 
-0.7489025763874086 1:1 2:0.21882741 3:0.24619768 4:0.13181496 5:0 
0.07684051442131491 1:1 2:0.4046686 3:0.37113072 4:0.20176822 5:0 
-1.513166305445043 1:0.29882808 2:1 3:0 4:0.68289451 5:0.61838202 
-476.4956233102527 1:0 2:1 3:0.70693352 4:0.47869375 5:0.41105011 
-0.4170993848748544 1:0 2:1 3:0.21703 4:0.89554058 5:0.98113927 
-1.959601897217295 1:0.014877286 2:0 3:1 4:0.85061175 5:0.8352682 
-64.50053937330618 1:0 2:1 3:0.71896652 4:0.47896773 5:0.57223567 
4.8515205387158 1:0 2:1 3:0.28381097 4:0.11371759 5:0.036065366 
-0.4555833669355248 1:0.48912356 2:1 3:0.43043858 4:0 5:0.6729825 
-0.2491705562018888 1:0.062797606 2:0.88833691 3:0 4:1 5:0.69675213 
-54.62648633379712 1:0 2:1 3:0.75288122 4:0.50043633 5:0.37510605 
-3.029850045978173 1:0 2:1 3:0.71740643 4:0.38722156 5:0.17205623 
-5.428713700446134 1:0 2:1 3:0.32709315 4:0.28314119 5:0.44443986 
-532.184478705749 1:0 2:1 3:0.70693352 4:0.47869375 5:0.41105011 
1.697487537087455 1:0 2:0.40380388 3:1 4:0.8628476 5:0.75916362 
-0.5157480417973498 1:0.062797606 2:0.88833691 3:0 4:1 5:0.69675213 
-0.2026427185251617 1:0 2:1 3:0.13487247 4:0.49961009 5:0.8511528 
2.091635534939694 1:0.56084187 2:0 3:1 4:0.41875571 5:0.73493066 
1.235969093645924 1:1 2:0 3:0.50218382 4:0.81010994 5:0.75879033 
-1.506358850050306 1:0 2:0.44036806 3:0.29341592 4:1 5:0.51266792 
0.7260392720462527 1:0 2:0.06472995 3:0.77573487 4:0.90950258 5:1 
-0.0980943194345118 1:0.31912334 2:1 3:0.16559583 4:0 5:0.73586981 
2.622919081376176 1:0 2:1 3:0.55293849 4:0.40995158 5:0.42633631 
-545.3762656534029 1:0 2:1 3:0.77078809 4:0.49795633 5:0.39793453 
1205.361403691683 1:0 2:1 3:0.71430569 4:0.46747567 5:0.38597212 
0.9647101718076839 1:0 2:0.02338701 3:1 4:0.77914478 5:0.95030253 
97.52692410005285 1:0 2:1 3:0.66963144 4:0.33131525 5:0.29634301 
-1.792720759389351 1:0.45832581 2:0.51260324 3:0 4:1 5:0.60201881 
445.4291520592079 1:0 2:1 3:0.74250374 4:0.44072402 5:0.26731165 
3.714120708820487 1:0 2:1 3:0.55293849 4:0.40995158 5:0.42633631 
-0.7178314296010306 1:0.062819494 2:0.72033307 3:0 4:1 5:0.51551875 
-114.120558486424 1:0 2:1 3:0.77078809 4:0.49795633 5:0.39793453 
1.881323853231166 1:0.31453051 2:0 3:0.80447508 4:1 5:0.89324961 
-2.240951404783377 1:0.73804502 2:0.71669371 3:0.16335543 4:1 5:0 
-0.8170322629236745 1:0.042394237 2:0.85307369 3:0 4:1 5:0.50494463 
-0.2680895915089836 1:0.032035527 2:1 3:0.38815976 4:0 5:0.76640701 
-63.42079428048804 1:0 2:1 3:0.77078809 4:0.49795633 5:0.39793453 
0.3436724183704193 1:1 2:0 3:0.15605967 4:0.33933107 5:0.23458723 
-537.4322003085827 1:0 2:1 3:0.69974225 4:0.380862 5:0.31981134 
-2.443566291409398 1:0 2:0.99363102 3:0.29189898 4:1 5:0.67656563 
-174.9610036925842 1:0 2:1 3:0.75288122 4:0.50043633 5:0.37510605 
1.01037001777887 1:0 2:0.82733119 3:0.03004796 4:1 5:0.58010632 
-85.56985182336533 1:0 2:1 3:0.71740643 4:0.38722156 5:0.17205623 
2.48841757886231 1:0 2:0.79182183 3:1 4:0.58447949 5:0.29850282 
-0.2968404682596417 1:0.48006742 2:1 3:0.40048176 4:0 5:0.89964112 
-187.7428583724117 1:0 2:1 3:0.70693352 4:0.47869375 5:0.41105011 
-0.08699367753019512 1:0.053664124 2:1 3:0 4:0.28786151 5:0.4712869 
1.73423018286729 1:1 2:0.70612422 3:0 4:0.82529882 5:0.15871694 
-636.6974671926296 1:0 2:1 3:0.75288122 4:0.50043633 5:0.37510605 
-6.99920666574264 1:0 2:0.84597986 3:1 4:0.72128848 5:0.73289078 
0.09651944890196128 1:0.28435759 2:0.84194993 3:0 4:1 5:0.68437378 
2000.682621584543 1:0 2:1 3:0.75241086 4:0.47183811 5:0.40382728 
-2.069426337646044 1:0 2:0.20702905 3:1 4:0.70317005 5:0.20078386 
47.66836273268882 1:0 2:1 3:0.55293849 4:0.40995158 5:0.42633631 
-2.462293053054621 1:0 2:1 3:0.90126588 4:0.95625247 5:0.9602905 
1.794979783680543 1:0.029737763 2:0 3:1 4:0.84732693 5:0.70700758 
1.484814158480073 1:0.28435759 2:0.84194993 3:0 4:1 5:0.68437378 
-949.762631481377 1:0 2:1 3:0.77078809 4:0.49795633 5:0.39793453 
0.1163609350901863 1:0.2408685 2:0 3:1 4:0.8648064 5:0.94545143 
0.2697125662575254 1:0.00059251959 2:0 3:1 4:0.76602223 5:0.89838723 
-1.734197256105057 1:0.59464653 2:0 3:0.68273918 4:0.78450369 5:1 
0.6237760107172656 1:0 2:0.37282466 3:1 4:0.8096106 5:0.83324792 
632.8879548320907 1:0 2:1 3:0.77187448 4:0.57437162 5:0.42488444 
0.3914184678036041 1:1 2:0 3:0.07190292 4:0.12050569 5:0.20694686 
0.2242976999189977 1:1 2:0.48460293 3:0.34368013 4:0.075402303 5:0 
