svm_type nu_svr
kernel_type rbf
gamma 2
nr_class 2
total_sv 223
rho -2.81987
SV
-1.676942083074497 1:-8.1817709 2:0.57716411 3:-4.9679373 4:3.1718082 5:0.6821875 
1.384975431756995 1:-11.491022 2:-11.628439 3:2.2868723 4:0.12368099 5:0.091801447 
-1.819780960097368 1:-5.5701894 2:-3.1619484 3:-13.328297 4:-1.2039191 5:1.5392843 
2.180212938626941 1:-13.226929 2:-7.894588 3:-2.5818435 4:1.3835054 5:0.98594083 
-12.59459637967157 1:-1.5972484 2:3.2908842 3:-2.3111318 4:-5.9488972 5:2.2316965 
3.013417050949315 1:4.2415761 2:0.69099902 3:0.3994048 4:-1.4384487 5:-5.5804884 
29.5953021984377 1:-4.4464957 2:9.0972383 3:5.6638925 4:1.9816041 5:1.0556178 
1.180219652074587 1:8.9746146 2:5.0984514 3:-4.2151865 4:6.6703408 5:-2.1217417 
-7.812578121841742 1:-1.5794316 2:3.2446814 3:-2.1305176 4:-5.7909399 5:2.1498289 
1.180210509660149 1:8.7604169 2:-2.0945206 3:1.0032776 4:-1.4245371 5:4.4968709 
30.07578997922696 1:-1.5868201 2:3.3105388 3:-2.3162425 4:-6.1685008 5:2.0855132 
-1.819786905514217 1:-26.788551 2:1.3093835 3:-1.4648413 4:0.080168169 5:0.19362858 
-4.375215020237505 1:4.2365016 2:0.69372452 3:0.38500002 4:-1.4513806 5:-5.4750911 
-1.676935204444945 1:-7.2022979 2:0.065594768 3:-4.9661767 4:3.0735973 5:0.65525166 
-4.354727898039517 1:4.2276609 2:0.6860258 3:0.38860631 4:-1.3910441 5:-5.2694353 
0.186309158384514 1:4.1612835 2:0.61380335 3:0.49968541 4:-0.98406928 5:-3.4333221 
-0.4296080784568765 1:4.2108803 2:0.69985679 3:0.31764377 4:-1.4292815 5:-4.9856611 
1.180215275274719 1:-1.6832027 2:-1.7041579 3:2.4006262 4:-7.6463842 5:0.28306927 
6.675880987138729 1:-1.5917332 2:3.314202 3:-2.3708126 4:-6.0691886 5:1.9919945 
1.180212189145724 1:-2.6049017 2:10.384207 3:-2.4897339 4:-5.6070953 5:2.0282771 
-1.819784138534104 1:-15.249372 2:0.83869679 3:-10.855451 4:7.3002232 5:-0.91025903 
-14.38367933745072 1:-1.5942279 2:3.2987681 3:-2.2849497 4:-6.1317982 5:2.3509825 
-5.558281592696957 1:-1.5933727 2:3.3153821 3:-2.3501588 4:-6.1589527 5:2.1581642 
-0.8197866345840339 1:8.3469369 2:1.9892989 3:1.5028821 4:-3.7098752 5:4.8866471 
1.583239502303911 1:-4.4357732 2:9.0863085 3:5.7206574 4:1.9820883 5:0.91158793 
1.914923770541183 1:-11.666051 2:-11.354038 3:0.88570718 4:-0.034012155 5:1.0080903 
-0.5450386460061765 1:-1.5033825 2:3.1098339 3:-1.6108459 4:-5.204217 5:1.1614659 
2.18014202759748 1:5.7115824 2:-5.0258507 3:0.64964678 4:0.69965262 5:1.6064739 
-0.3826349891053127 1:-4.4390026 2:9.0482336 3:5.7152843 4:2.3105005 5:0.62014128 
-0.8198340340753241 1:-7.0214225 2:-15.559491 3:-5.7565684 4:-4.2954108 5:-1.2012664 
-32 1:-2.9370096 2:3.1056131 3:4.6942813 4:1.5233234 5:-0.65904778 
-1.819786668781493 1:2.2962718 2:3.948069 3:8.6017944 4:3.1720925 5:2.8706318 
-0.5223945306176567 1:-4.3328929 2:9.2577758 3:5.4171403 4:0.92970712 5:-1.9945336 
-0.8172730516507016 1:-1.3914639 2:2.7928575 3:-0.55487105 4:-3.5835695 5:0.0055799388 
-1.819820249011926 1:10.443857 2:-4.9666758 3:-3.2766427 4:-1.8537332 5:2.6230033 
-0.3842743628979406 1:-4.3694694 2:9.1461641 3:5.665939 4:1.5871949 5:-0.75658317 
1.163558224544136 1:19.529106 2:-3.7707224 3:0.21739407 4:0.28928153 5:-3.9286376 
-1.059454665547296 1:-1.6145225 2:3.2495248 3:-2.3070898 4:-5.443669 5:2.3812023 
4.106555957602083 1:4.2384944 2:0.67732241 3:0.45935305 4:-1.438975 5:-5.3252681 
-1.819796813447773 1:-2.2552539 2:-1.683706 3:-7.0814799 4:3.4486407 5:-0.74214921 
-3.065453597427211 1:-11.532733 2:-11.613534 3:2.1665227 4:0.13053216 5:0.89635908 
-0.8198093176149719 1:-4.3083234 2:12.673348 3:1.246265 4:0.49988714 5:3.2390083 
0.5720527422148152 1:-4.5058049 2:9.1884571 3:5.160263 4:2.037558 5:1.2084509 
-1.782970780998301 1:-6.1973303 2:3.7617438 3:-6.4221515 4:4.8512704 5:-0.55194053 
2.180208517071861 1:-7.2831222 2:-5.4914586 3:-3.9616718 4:2.1163293 5:0.52840969 
0.1802143529878073 1:3.8350674 2:0.35143483 3:0.63820159 4:0.99040338 5:4.4687374 
7.381161143347676 1:19.299504 2:-3.9453335 3:0.34926147 4:1.4190169 5:1.9130987 
-1.819794447601758 1:-8.0863341 2:1.063877 3:-8.2968503 4:5.76247 5:-0.63071342 
-1.819743503400691 1:-3.0016579 2:4.2838997 3:-6.1066442 4:0.9890012 5:0.31868134 
-0.9081452371539172 1:-5.9610848 2:2.4871481 3:-6.3507905 4:4.3726661 5:0.50776949 
1.180204010440704 1:15.464245 2:5.57615 3:6.2163087 4:-1.9540567 5:3.1568584 
1.180217264387505 1:-3.8340435 2:0.59544906 3:-10.045531 4:4.6069648 5:0.5846162 
1.180208545698132 1:17.604983 2:-14.200235 3:0.79480295 4:6.4130678 5:-1.6176012 
2.179972794683898 1:-8.3024807 2:3.2231049 3:5.3214673 4:1.524316 5:1.6823852 
0.3746440977276606 1:-1.5009953 2:3.2508735 3:-2.0149563 4:-5.926275 5:0.43294241 
-1.819784111231538 1:-6.4553955 2:-2.0313603 3:-3.5076741 4:3.5908261 5:-1.30502 
2.180203353454839 1:-13.091454 2:-5.8592446 3:4.8187488 4:2.3623216 5:0.50532051 
0.1751270969039638 1:4.0641175 2:0.7308837 3:0.020152891 4:-1.5268138 5:-1.7730811 
-10.87062434318456 1:19.309399 2:-3.9518479 3:0.37876639 4:1.457123 5:1.6989101 
-1.750999860855085 1:-6.565281 2:6.3199265 3:-6.064786 4:4.5603148 5:0.23560087 
2.180204203577723 1:-7.1549159 2:-3.2699043 3:-1.2207456 4:0.19113604 5:1.2460499 
-1.818937810138492 1:-3.4284373 2:10.492095 3:3.8405468 4:2.0632301 5:1.236981 
-1.803327427007382 1:-4.1446568 2:2.2173311 3:-6.6073074 4:3.9651374 5:0.75519525 
-0.06161501483474134 1:4.2362932 2:0.69180819 3:0.38888996 4:-1.4371601 5:-5.4669726 
-1.819700428829642 1:-12.078996 2:4.3010523 3:-7.2670295 4:4.4060452 5:-0.92578373 
1.025348000214321 1:19.425215 2:-3.7639631 3:0.028286038 4:0.36483609 5:-1.6999784 
-0.819164572177985 1:-0.28729033 2:6.999824 3:-0.77034522 4:-5.2885738 5:-0.30680635 
6.358632363224791 1:-11.503224 2:-11.628376 3:2.2828056 4:0.087560068 5:0.43456243 
-0.9227295182948959 1:-1.4922987 2:3.2672598 3:-2.0390348 4:-6.0491974 5:0.22061521 
-1.604714703489215 1:-1.5679132 2:3.3102999 3:-2.3051061 4:-6.1265604 5:1.5722791 
2.106144594166868 1:-6.819926 2:1.929311 3:4.7066308 4:1.7806923 5:0.70092256 
-1.793064404157852 1:-5.5036074 2:4.8939422 3:-6.637413 4:4.332361 5:-0.72432851 
2.179810673525703 1:-4.3823433 2:-5.4637511 3:0.31082514 4:-3.1336321 5:-6.8825875 
-11.58804630110231 1:-4.4631445 2:9.1318679 3:5.4904901 4:1.9677324 5:1.0261253 
0.1800738651129907 1:2.5727755 2:18.114716 3:-0.85058045 4:-3.8785039 5:3.7570601 
0.1471478367760559 1:-1.559008 2:3.2834713 3:-2.2139813 4:-5.9982197 5:1.480929 
-1.015821824906791 1:-6.0375183 2:2.4760696 3:-5.9004744 4:4.1515141 5:0.76417503 
0.1868174495893556 1:4.132027 2:0.7219378 3:0.08585387 4:-1.3310489 5:-3.5604362 
2.180068249096798 1:-12.325174 2:-14.104884 3:-0.0207788 4:0.59900913 5:1.0650911 
-0.7682307734658393 1:-4.4000215 2:2.5206548 3:-7.9293865 4:4.482327 5:0.56486476 
-1.819431602961008 1:-8.5370773 2:-11.583914 3:-0.81257504 4:3.4780666 5:-4.0500219 
-1.755870906731378 1:-6.3263054 2:7.0897571 3:-5.5070302 4:5.3877847 5:0.33615856 
1.179976263415919 1:15.760471 2:-1.9784275 3:0.13729047 4:2.2611885 5:1.7356398 
-6.488365732877558 1:-4.437213 2:9.0861884 3:5.737941 4:1.9436432 5:1.0239054 
-0.006585672332346578 1:-1.5375444 2:3.2137618 3:-2.0089578 4:-5.565277 5:1.2054827 
-0.1327387260069637 1:4.2363162 2:0.69348317 3:0.38561887 4:-1.4521806 5:-5.4700748 
1.180122852048021 1:12.979191 2:-13.129383 3:4.45609 4:-1.6506277 5:-0.2073116 
32 1:-1.590596 2:3.300921 3:-2.2863588 4:-6.1433782 5:2.2485904 
-1.200939860584127 1:-5.9035192 2:2.4682058 3:-6.0685125 4:3.9564982 5:-0.017715139 
2.16457126070212 1:-11.439061 2:-11.504757 3:2.0142828 4:-0.55320716 5:-1.6037561 
-4.686412971706795 1:-4.437213 2:9.0861884 3:5.737941 4:1.9436432 5:1.0239054 
0.8353267870502479 1:19.292889 2:-3.8711241 3:-0.0099010743 4:1.4764336 5:1.028529 
0.1801241928067503 1:-8.5899238 2:23.962851 3:0.90252009 4:9.7697048 5:-12.473109 
0.1799182180608831 1:-1.5952054 2:3.2552512 3:-2.2851628 4:-5.5146036 5:1.9516365 
2.179999131339636 1:-16.584856 2:-17.617504 3:3.0846305 4:1.7875818 5:1.7128708 
1.10660983679205 1:-11.52896 2:-11.628476 3:2.2261352 4:0.15631153 5:0.92489621 
2.180080121219623 1:8.8851187 2:-7.1464359 3:1.8889113 4:0.71963031 5:1.664074 
4.426790638361899 1:19.28718 2:-3.9566598 3:0.33577557 4:1.5649977 5:2.1179396 
5.552369256946194 1:-4.4464957 2:9.0972383 3:5.6638925 4:1.9816041 5:1.0556178 
2.179527213553488 1:-11.577723 2:-15.826447 3:1.8127374 4:-0.57196749 5:0.85054518 
-1.819857972458137 1:2.2296893 2:2.0592972 3:-2.3565677 4:4.3201968 5:-3.6602105 
-1.819229394738954 1:-3.8465321 2:3.1226075 3:-5.3069993 4:2.4773335 5:-0.057032689 
-0.06424734033693588 1:4.2110738 2:0.70640339 3:0.28562993 4:-1.4194877 5:-5.0892629 
-0.5631309471245831 1:4.2357705 2:0.69678507 3:0.37154348 4:-1.4556237 5:-5.4916277 
-0.09671894068877884 1:4.1483116 2:0.65781355 3:0.28884691 4:-0.99459507 5:-3.6546467 
5.082649713703948 1:-11.521258 2:-11.575538 3:2.0986692 4:-0.15562201 5:0.57375765 
1.87652596660619 1:-11.638043 2:-11.507904 3:1.3126732 4:0.9143326 5:0.78565491 
-2.818978367577966 1:-4.5622196 2:9.1373776 3:5.2873322 4:1.9994454 5:3.2771786 
-1.800726902429585 1:-4.6074022 2:1.5755184 3:-7.596544 4:4.1335873 5:-0.38154758 
-20.93178172027059 1:-1.5836252 2:3.30616 3:-2.2792783 4:-6.2110215 5:2.1229579 
-24.50429344662017 1:19.300306 2:-3.9589412 3:0.39050132 4:1.4842105 5:1.963002 
0.5104186560001369 1:4.2154788 2:0.6997978 3:0.33560655 4:-1.4676275 5:-5.0298475 
0.1637311976034002 1:4.1331953 2:0.5622076 3:0.6030203 4:-0.68890993 5:-2.5674995 
32 1:-4.4464957 2:9.0972383 3:5.6638925 4:1.9816041 5:1.0556178 
-2.500733187753447 1:4.2345611 2:0.69543374 3:0.38085126 4:-1.4704885 5:-5.4203776 
-0.8192815452010991 1:2.2907314 2:2.7107065 3:0.31935408 4:-3.1684473 5:-3.0350213 
-3.610051284646025 1:4.2287396 2:0.69168982 3:0.3740287 4:-1.4195567 5:-5.3153876 
-0.8171713417846811 1:-1.5538641 2:2.8898059 3:-1.6284832 4:-2.2368803 5:0.44560729 
-1.814889582396294 1:-6.7464888 2:5.554068 3:-6.13688 4:3.0215365 5:0.31535334 
-6.640028589908869 1:-1.5791398 2:3.2273533 3:-2.1393342 4:-5.5190208 5:1.9251675 
9.536151470012385 1:-1.5789358 2:3.2316119 3:-2.131331 4:-5.6057081 5:2.0073724 
-9.922120878586179 1:-1.5882753 2:3.3175043 3:-2.3360638 4:-6.2110017 5:2.084081 
1.030346976082369 1:19.330373 2:-3.9058517 3:0.32436997 4:1.0516086 5:1.2218355 
-1.819834025374216 1:0.26704748 2:8.2569608 3:2.2278014 4:-0.054274926 5:2.2536858 
-0.257993153135232 1:4.1698911 2:0.63479684 3:0.46216189 4:-1.1339357 5:-3.6666873 
2.18011250060304 1:-9.7295846 2:-14.93587 3:-1.6197481 4:1.6166897 5:-0.15030242 
-0.02493525153235389 1:4.1202238 2:0.6069433 3:0.40995936 4:-0.75730569 5:-2.7467097 
-1.819701632197368 1:-7.7852152 2:-0.16253139 3:-2.3099205 4:-0.047797936 5:1.5807919 
2.15320152654329 1:-8.7968239 2:1.5062547 3:4.360778 4:1.6538442 5:0.93502346 
1.276268023555536 1:4.232153 2:0.6839883 3:0.40177035 4:-1.3841286 5:-5.3528268 
0.1106300631674066 1:4.1752974 2:0.72238255 3:0.1970587 4:-1.5092719 5:-4.3048561 
-1.819763296868787 1:-1.7470525 2:1.2955427 3:-5.0748784 4:1.1765287 5:0.8209726 
-18.5237908063272 1:19.30729 2:-3.9663702 3:0.41464468 4:1.5416092 5:1.8011529 
-20.16544227943358 1:-4.437213 2:9.0861884 3:5.737941 4:1.9436432 5:1.0239054 
1.120259880805711 1:19.376072 2:-3.8760463 3:0.26881888 4:1.0016739 5:-0.099768048 
32 1:-1.5960738 2:3.2868728 3:-2.2992648 4:-5.9216344 5:2.2082131 
-1.375260768272483 1:-4.4470113 2:9.0870801 3:5.699745 4:2.0021916 5:1.1466848 
0.03458732129632123 1:4.1454404 2:0.62570353 3:0.3929754 4:-0.88145086 5:-3.3708913 
-0.6669288609392708 1:-1.6300822 2:3.2265526 3:-2.4692816 4:-4.6603283 5:1.8054274 
1.17988541711598 1:19.180799 2:-3.9896341 3:-0.37366383 4:3.8728139 5:1.4458537 
1.006276242167607 1:19.508771 2:-3.8424418 3:0.51602507 4:0.27825681 5:-2.5295615 
2.179878206134367 1:-15.883785 2:-16.557681 3:1.8178271 4:-0.91826412 5:0.53336109 
-25.11429725568655 1:-1.5948675 2:3.3019534 3:-2.3447193 4:-5.9876903 5:2.0977993 
0.9867215681711689 1:-1.5924251 2:3.208895 3:-2.1895317 4:-5.1424559 5:1.8945729 
0.4774649009261118 1:-11.465063 2:-11.637751 3:2.4073826 4:-0.017746446 5:-0.17417904 
-0.3981242969184311 1:4.2137401 2:0.69001134 3:0.35305967 4:-1.3901397 5:-4.9851534 
-0.03852232556371138 1:-4.4296003 2:9.2909988 3:5.1712825 4:0.79605445 5:-0.04159714 
1.800488351580833 1:-11.254904 2:-11.336407 3:2.6918387 4:-0.0064347074 5:0.47337218 
1.179829344652329 1:7.7727608 2:-1.4328919 3:-1.2463644 4:-0.38236266 5:-3.1344641 
-0.5174936279370865 1:-1.4827888 2:3.1608805 3:-1.742657 4:-5.4338611 5:0.38051806 
-1.819353526745264 1:-3.8000118 2:4.3579415 3:-6.879914 4:4.4663227 5:0.6335058 
1.179984171213324 1:13.176547 2:-0.65159254 3:0.31644463 4:0.69745778 5:-2.9588042 
32 1:-2.939566 2:3.1198277 3:4.6978541 4:1.5249889 5:-0.64990138 
2.906160177623515 1:4.2309066 2:0.71124762 3:0.32681129 4:-1.5382381 5:-5.4291492 
1.674054145278892 1:-9.6951116 2:-4.9552177 3:3.0183549 4:0.5978456 5:0.8983579 
1.180059321411641 1:-15.448854 2:13.349331 3:6.77973 4:1.0920062 5:-3.2129533 
-0.4824946893775769 1:19.313829 2:-3.8820266 3:0.19604794 4:1.0633679 5:1.3294246 
-2.206338781653869 1:-4.3694694 2:9.1461641 3:5.665939 4:1.5871949 5:-0.75658317 
-0.122774854481656 1:4.1746958 2:0.67171969 3:0.29696184 4:-1.1121899 5:-4.2729782 
2.179493250559613 1:-6.0448464 2:-12.379736 3:-7.7553764 4:1.0833694 5:-1.1812912 
31.00535599550673 1:19.309211 2:-3.9714895 3:0.45415301 4:1.4981527 5:1.8933285 
1.180049146580523 1:-2.9332926 2:41.552122 3:9.692156 4:2.1254814 5:-1.3289098 
5.473937979651752 1:4.2246671 2:0.69571038 3:0.34121911 4:-1.3892221 5:-5.320519 
18.19031074820043 1:19.303981 2:-3.962353 3:0.38852575 4:1.5545433 5:1.8057262 
1.179864848708925 1:-4.807064 2:-4.6511597 3:2.8815896 4:0.038134222 5:-3.4540135 
2.180055846033873 1:-11.996734 2:-16.104163 3:1.2528737 4:-0.41948602 5:-1.3533854 
-1.819746035266523 1:-0.67400581 2:-2.0770341 3:-6.0136305 4:4.4318945 5:0.98012791 
-0.3036669234715966 1:4.2436907 2:0.68420446 3:0.43201495 4:-1.4368801 5:-5.5466634 
2.179932364721322 1:-3.9452803 2:1.3965891 3:-3.3376869 4:9.254823 5:-3.2037812 
-1.819157876057458 1:-2.6285043 2:5.0147702 3:-5.0279716 4:3.7519427 5:0.031642265 
1.180021436585338 1:7.5873334 2:-15.261213 3:-3.7870425 4:3.2486217 5:2.0760432 
1.674881608228208 1:-9.313958 2:-5.4759291 3:3.4176795 4:0.47371526 5:0.81012924 
-0.3167953658441213 1:-4.4631445 2:9.1318679 3:5.4904901 4:1.9677324 5:1.0261253 
1.180004061222197 1:-5.105206 2:-0.78650413 3:2.4898299 4:-0.51565662 5:0.99780526 
2.18006294990918 1:-12.242922 2:-9.1007105 3:-1.2807176 4:2.8424456 5:0.60292097 
-2.67098028787378 1:-4.4390026 2:9.0482336 3:5.7152843 4:2.3105005 5:0.62014128 
-1.819622847977943 1:-4.428896 2:-0.11134123 3:-6.7848099 4:4.2334753 5:0.64868087 
-0.8193154343361368 1:-1.8324314 2:2.8348531 3:-3.2125749 4:2.4764909 5:0.40705167 
-11.36431075736871 1:-5.947336 2:2.5785014 3:-6.585144 4:3.8427095 5:-0.20199886 
1.179776088467847 1:-3.6420329 2:1.7621956 3:-2.7351848 4:-5.7355222 5:2.4652824 
-0.3233368217041993 1:-5.9291564 2:2.5338905 3:-6.2992517 4:3.6742378 5:0.24587143 
-0.7671449980335673 1:-1.5686898 2:3.0761001 3:-1.9605511 4:-3.8868011 5:1.0495439 
-0.5419751561919265 1:-1.6060261 2:3.1545386 3:-2.0847885 4:-4.7617103 5:2.2971465 
-0.6261175666765555 1:-1.5840812 2:3.3013251 3:-2.2916215 4:-6.1053414 5:2.0348959 
8.683705979378313 1:-1.5835832 2:3.2878536 3:-2.2679835 4:-5.9819702 5:2.0111014 
-0.829999407232443 1:4.2351738 2:0.70113818 3:0.36039103 4:-1.4844088 5:-5.4866822 
2.179721640477099 1:-9.1262533 2:-15.940433 3:-4.8311404 4:-4.6243628 5:0.83083848 
0.2758557255267186 1:4.1827508 2:0.62194463 3:0.49990198 4:-1.0152281 5:-3.9787121 
-2.799617046538869 1:-2.9370096 2:3.1056131 3:4.6942813 4:1.5233234 5:-0.65904778 
-17.24279172223534 1:-4.4470113 2:9.0870801 3:5.699745 4:2.0021916 5:1.1466848 
-1.836382142425555 1:-4.5255023 2:9.2594984 3:4.8602746 4:1.8976559 5:0.99271475 
-2.591484348187071 1:-4.4296003 2:9.2909988 3:5.1712825 4:0.79605445 5:-0.04159714 
5.951704653882908 1:19.302506 2:-3.9718216 3:0.40154785 4:1.6428999 5:1.8242449 
-1.81969475897972 1:5.5386562 2:-5.8836273 3:3.7436188 4:1.7959859 5:0.85488137 
2.676257076287133 1:-11.478989 2:-11.612789 3:2.2922385 4:-0.061468582 5:-0.087704287 
0.1470421994780111 1:4.1929057 2:0.68502362 3:0.30517766 4:-1.2573995 5:-4.650386 
-1.819399570187324 1:-1.1454927 2:5.9997674 3:3.9583934 4:2.5206626 5:0.52885113 
-16.11554860008272 1:-1.5887642 2:3.2884502 3:-2.2737655 4:-5.9979386 5:2.1397248 
-6.644047022378123 1:-5.9276591 2:2.5551967 3:-6.4721841 4:3.9201835 5:-0.45006307 
2.078995246409695 1:-7.4488676 2:1.2342749 3:3.8494953 4:1.8334373 5:0.9447161 
1.478160724622177 1:19.270951 2:-3.9227066 3:0.20339714 4:1.4390733 5:2.270831 
2.757890913796125 1:19.305335 2:-3.9282298 3:0.32569506 4:1.2760237 5:1.7906292 
1.179994581660446 1:9.4449273 2:0.73305026 3:-0.43787442 4:-0.47671587 5:-4.8828313 
-0.8198093176149721 1:-3.2236941 2:8.8729433 3:-3.9096614 4:-0.23004153 5:2.1146128 
-4.360845470028599 1:-11.497416 2:-11.609572 3:2.2304964 4:0.0089620485 5:0.1859549 
-0.003794310995326489 1:-4.4753873 2:9.1794433 3:5.2783358 4:1.9079137 5:0.79499658 
-0.05756525568944517 1:4.2343492 2:0.69893787 3:0.36432636 4:-1.4694609 5:-5.4601608 
-2.252560665193989 1:-4.3328929 2:9.2577758 3:5.4171403 4:0.92970712 5:-1.9945336 
-1.819713722744961 1:-4.7413594 2:1.9583519 3:-4.7951094 4:-0.69526191 5:0.8065952 
-1.819373788449511 1:-0.55675125 2:5.3233304 3:5.3910444 4:2.6507338 5:1.7197732 
0.7015245571500295 1:4.2158411 2:0.68855587 3:0.34765884 4:-1.3438569 5:-5.0931228 
2.179827057621185 1:-3.628944 2:-20.038575 3:9.2203514 4:-7.7862326 5:1.464707 
-9.38172861160818 1:-4.4581354 2:9.1086441 3:5.5773086 4:2.0402949 5:1.0835036 
2.180092705961423 1:-4.8628206 2:-9.36593 3:-0.11164162 4:-4.5425494 5:-3.6119058 
0.180130210882596 1:4.0389441 2:0.48128691 3:0.60593803 4:0.08501027 5:-0.51530836 
-19.63484808189519 1:19.305188 2:-3.9693092 3:0.42609194 4:1.5394786 5:1.8921031 
4.515560396434262 1:19.309768 2:-3.9539263 3:0.37641564 4:1.4947912 5:1.6549056 
2.392038470073155 1:-11.539874 2:-11.660631 3:2.2884945 4:0.39435266 5:1.2583005 
16.53033412994685 1:-5.9391624 2:2.5668981 3:-6.5275048 4:3.8888444 5:-0.26507805 
-7.644107870257281 1:-11.501376 2:-11.620524 3:2.2814519 4:-0.017435806 5:0.45179057 
2.180017904893964 1:1.3548565 2:-14.195122 3:-3.405858 4:1.3546912 5:0.5220497 
-0.3765415776200715 1:-4.4215148 2:9.0203535 3:5.9393172 4:2.2719485 5:0.92746872 
1.180020632093632 1:18.75261 2:12.450636 3:-0.84285957 4:8.3698209 5:3.4203852 
