svm_type epsilon_svr
kernel_type rbf
gamma 2
nr_class 2
total_sv 2522
rho -1.93951
SV
-0.5 1:0 2:0.19743931 3:0.057030065 4:1 
-0.5 1:0 2:1 3:0.60575622 4:0.74908837 
-0.5 1:0 2:0.9757953 3:0.2685872 4:1 
0.5 1:1 2:0.36216041 3:0 4:0.44500333 
0.5 1:0.45976559 2:0 3:1 4:0.48978176 
-0.5 1:0.99768007 2:0 3:0.44952685 4:1 
-0.5 1:0.61638905 2:0 3:0.48456844 4:1 
0.5 1:0.13136378 2:1 3:0 4:0.049465865 
-0.5 1:0 2:1 3:0.3623807 4:0.57586102 
-0.5 1:0.22131982 2:0 3:1 4:0.3363768 
-0.5 1:0 2:1 3:0.5941017 4:0.89630627 
-0.5 1:0 2:1 3:0.38646138 4:0.98536194 
0.5 1:0.38983914 2:0 3:0.55723249 4:1 
-0.5 1:0.50355189 2:0 3:0.27808853 4:1 
0.5 1:0 2:1 3:0.5079107 4:0.53472732 
0.5 1:0.69588644 2:0 3:0.38520859 4:1 
-0.5 1:0.39552394 2:0 3:0.21648565 4:1 
-0.5 1:0.57632729 2:0 3:0.031294445 4:1 
0.5 1:1 2:0.65192063 3:0 4:0.75550407 
-0.5 1:1 2:0.47977056 3:0.26240367 4:0 
0.5 1:1 2:0 3:0.75972738 4:0.73234664 
-0.5 1:1 2:0 3:0.23959364 4:0.94791705 
0.5 1:0.66301905 2:0 3:0.34083103 4:1 
-0.5 1:1 2:0.63449713 3:0 4:0.64816941 
0.5 1:0 2:1 3:0.44116516 4:0.83934084 
-0.5 1:0 2:0.74267485 3:0.23650217 4:1 
-0.5 1:0.65946213 2:1 3:0.99163916 4:0 
-0.5 1:0.11874863 2:0.24452936 3:0 4:1 
-0.5 1:0 2:1 3:0.53885173 4:0.78298341 
-0.5 1:0.18414356 2:0 3:1 4:0.21723366 
-0.5 1:0.48025626 2:0 3:1 4:0.60629829 
0.5 1:0 2:1 3:0.46670917 4:0.71754068 
0.5 1:0 2:1 3:0.4325523 4:0.64142655 
0.5 1:0.16910631 2:0 3:0.44607105 4:1 
-0.5 1:1 2:0 3:0.73557076 4:0.24791416 
0.5 1:0 2:1 3:0.94087274 4:0.14341978 
-0.5 1:0 2:1 3:0.33415116 4:0.53930947 
-0.5 1:0.73728283 2:0 3:0.96543264 4:1 
0.5 1:0.76497166 2:0 3:0.66220002 4:1 
-0.5 1:0 2:1 3:0.35372949 4:0.58731418 
-0.5 1:0.12226589 2:1 3:0 4:0.13276584 
0.5 1:0 2:1 3:0.75267724 4:0.61696446 
0.5 1:0.26542946 2:0 3:0.49312913 4:1 
-0.5 1:0 2:1 3:0.81180708 4:0.794502 
-0.5 1:0.49593393 2:0 3:0.29386094 4:1 
0.5 1:0.88498722 2:0 3:1 4:0.73556546 
-0.5 1:1 2:0.24731384 3:0.72800469 4:0 
-0.5 1:1 2:0.55501499 3:0 4:0.30428683 
-0.5 1:1 2:0 3:0.59490521 4:0.72653029 
0.5 1:1 2:0 3:0.34438945 4:0.67104114 
0.5 1:0.091329767 2:0 3:1 4:0.23180248 
0.5 1:0.84413588 2:0 3:1 4:0.6007091 
0.5 1:0.38726381 2:0 3:1 4:0.89527517 
-0.5 1:0.12538103 2:0 3:0.70966744 4:1 
-0.5 1:0 2:1 3:0.84392456 4:0.2568182 
0.5 1:0.23901595 2:1 3:0.71712083 4:0 
0.5 1:0 2:1 3:0.37357947 4:0.70674746 
-0.5 1:1 2:0 3:0.43985898 4:0.4467441 
-0.5 1:0 2:1 3:0.21362602 4:0.058144759 
-0.5 1:0.40594111 2:0 3:1 4:0.56812137 
-0.5 1:1 2:0.39188599 3:0 4:0.41649971 
-0.5 1:1 2:0 3:0.4968611 4:0.83560645 
0.5 1:0 2:1 3:0.45080715 4:0.74962197 
-0.5 1:0.7039194 2:0 3:0.779319 4:1 
0.5 1:0.41394 2:0 3:0.72437104 4:1 
-0.5 1:0 2:1 3:0.73998513 4:0.33551031 
0.5 1:0.62052994 2:0 3:1 4:0.98470908 
0.5 1:0.34878218 2:1 3:0 4:0.22462726 
0.5 1:0.0080266219 2:1 3:0 4:0.044519456 
0.5 1:1 2:0.12253747 3:0 4:0.60810795 
-0.5 1:1 2:0.5244088 3:0.60382712 4:0 
-0.5 1:0.273763 2:1 3:0 4:0.37277871 
0.5 1:0.69164199 2:0 3:0.34956953 4:1 
-0.5 1:0 2:0.81801972 3:0.53710509 4:1 
0.5 1:0 2:1 3:0.17797691 4:0.5871896 
-0.5 1:0.49512128 2:0 3:0.28632312 4:1 
-0.5 1:0 2:1 3:0.070749581 4:0.51499683 
0.5 1:0.88580875 2:0 3:0.65992193 4:1 
-0.5 1:0 2:1 3:0.66208311 4:0.7361811 
-0.5 1:0 2:1 3:0.54187104 4:0.14687077 
0.5 1:0.47822639 2:0.0076906859 3:0 4:1 
0.5 1:1 2:0 3:0.55086488 4:0.25918058 
-0.5 1:0.51749814 2:0 3:0.3154053 4:1 
-0.5 1:0 2:0.22977647 3:0.15740198 4:1 
-0.5 1:0.43300673 2:0 3:0.1700068 4:1 
0.5 1:1 2:0.42045535 3:0 4:0.39812766 
-0.5 1:0.33543295 2:0 3:1 4:0.41057237 
-0.5 1:1 2:0.65251957 3:0 4:0.4554514 
0.5 1:0.24477378 2:0 3:0.29662982 4:1 
0.5 1:1 2:0.5548308 3:0 4:0.63999434 
0.5 1:0.80206027 2:0 3:1 4:0.77013044 
0.5 1:0.36862413 2:0 3:0.74742318 4:1 
-0.5 1:0.097044724 2:0 3:1 4:0.22236085 
0.5 1:0.84384387 2:1 3:0 4:0.097747665 
0.5 1:0.7348557 2:0 3:0.40434532 4:1 
-0.5 1:1 2:0.49921842 3:0.78208111 4:0 
-0.5 1:0 2:0.65660514 3:0.31946539 4:1 
-0.5 1:0 2:1 3:0.89768919 4:0.15924064 
0.5 1:0.6716222 2:0 3:0.31825343 4:1 
0.5 1:0.3263903 2:0 3:0.53962407 4:1 
-0.5 1:0 2:0.8780946 3:1 4:0.93890029 
0.5 1:0.72594562 2:0 3:0.063930487 4:1 
-0.5 1:0.81697063 2:0 3:1 4:0.6910083 
0.5 1:1 2:0.57424938 3:0.5048325 4:0 
0.5 1:0.67982095 2:0 3:0.33755468 4:1 
-0.5 1:0.1574134 2:0 3:1 4:0.27715781 
-0.5 1:0 2:1 3:0.2082195 4:0.88331529 
0.5 1:0.69713006 2:0 3:0.37856252 4:1 
-0.5 1:0.43295522 2:0 3:0.36180088 4:1 
0.5 1:1 2:0.94210209 3:0 4:0.52929582 
0.5 1:0.35058861 2:0 3:0.53945102 4:1 
0.5 1:0.68022744 2:0 3:0.35716409 4:1 
0.5 1:0.72334192 2:0 3:0.40188779 4:1 
0.5 1:0 2:0.69198811 3:0.76492321 4:1 
-0.5 1:1 2:0.50925816 3:0.45763206 4:0 
0.5 1:1 2:0.1750818 3:0.22543518 4:0 
0.5 1:0.43161138 2:0 3:1 4:0.85226103 
0.1468790037019824 1:0.68845561 2:0 3:0.37717521 4:1 
0.5 1:0 2:1 3:0.11453415 4:0.97102245 
-0.5 1:0 2:1 3:0.8673244 4:0.59167417 
-0.5 1:0 2:1 3:0.84120531 4:0.27827298 
0.5 1:0.55634132 2:1 3:0.29095877 4:0 
0.5 1:0 2:0.71642253 3:0.77199232 4:1 
-0.5 1:0.55418842 2:0 3:1 4:0.69720427 
-0.5 1:0.61345743 2:0 3:0.53679444 4:1 
0.5 1:0.44535778 2:0 3:1 4:0.56723586 
0.5 1:0 2:1 3:0.66498731 4:0.78464347 
-0.5 1:1 2:0.58024747 3:0.6573579 4:0 
0.5 1:0 2:1 3:0.49664403 4:0.78601129 
-0.003436108063075381 1:0.55824528 2:0 3:0.13755178 4:1 
-0.5 1:0.50109254 2:0 3:0.37001344 4:1 
-0.5 1:0.32651902 2:1 3:0 4:0.2240993 
0.5 1:0.84333869 2:0 3:0.80360449 4:1 
-0.5 1:0.46190493 2:0 3:0.47199549 4:1 
0.5 1:0 2:1 3:0.88596427 4:0.55131086 
0.5 1:1 2:0 3:0.23389772 4:0.89224854 
-0.5 1:0.76351719 2:0 3:1 4:0.87179857 
0.5 1:0.1593533 2:0 3:0.40838107 4:1 
-0.5 1:0 2:0.99767867 3:1 4:0.092207049 
-0.5 1:0 2:0.71095773 3:1 4:0.024381599 
-0.5 1:0.56663776 2:0 3:0.38534195 4:1 
0.5 1:1 2:0.37640238 3:0 4:0.48119281 
-0.5 1:0.012418225 2:0.73550419 3:0 4:1 
-0.5 1:0.47372327 2:0 3:0.22746848 4:1 
0.5 1:1 2:0.18848381 3:0 4:0.56068473 
-0.5 1:0.50345442 2:0 3:0.71936872 4:1 
-0.5 1:0.0080266219 2:1 3:0 4:0.044519456 
-0.5 1:0 2:1 3:0.7836815 4:0.63414306 
0.5 1:1 2:0.48612544 3:0 4:0.45233067 
0.5 1:0.24807255 2:0 3:0.26545877 4:1 
-0.5 1:0 2:0.067827731 3:0.44390453 4:1 
0.5 1:0 2:1 3:0.30552891 4:0.53168447 
0.1481812469230097 1:1 2:0.25355204 3:0 4:0.076795825 
0.5 1:0 2:1 3:0.3715706 4:0.65823537 
0.5 1:0.69616308 2:0 3:0.14339464 4:1 
0.5 1:0.19317484 2:0 3:0.47724244 4:1 
-0.5 1:1 2:0.45245069 3:0 4:0.57677268 
-0.5 1:0.23565457 2:1 3:0 4:0.17819271 
-0.5 1:0 2:1 3:0.37549785 4:0.55480971 
-0.5 1:0.060991757 2:1 3:0.45749048 4:0 
-0.5 1:0.72734425 2:0 3:0.66047181 4:1 
-0.5 1:0 2:1 3:0.63723683 4:0.82395026 
0.3528212778909172 1:0.23252596 2:0.45963369 3:0 4:1 
-0.5 1:0 2:1 3:0.0037808128 4:0.77656753 
-0.5 1:1 2:0.38623422 3:0 4:0.38844062 
-0.5 1:0 2:1 3:0.57173054 4:0.91801775 
-0.5 1:0.13474985 2:0 3:0.72804653 4:1 
0.5 1:0.31096078 2:0 3:0.49098738 4:1 
-0.5 1:1 2:0.57081027 3:0.65832269 4:0 
0.5 1:0 2:0.16836938 3:1 4:0.27691578 
-0.5 1:1 2:0.42643626 3:0.3055821 4:0 
0.5 1:0.42285209 2:0 3:1 4:0.68889756 
0.5 1:0.1501224 2:1 3:0.84829259 4:0 
0.5 1:0 2:1 3:0.49245589 4:0.67150555 
-0.4724393291940521 1:0.28017352 2:0.38490151 3:1 4:0 
0.5 1:0 2:0.71849751 3:1 4:0.5845955 
-0.5 1:0 2:1 3:0.3610487 4:0.5453085 
0.5 1:0.46025057 2:0 3:1 4:0.6233359 
-0.5 1:0.084229131 2:0.95422962 3:1 4:0 
0.5 1:0.39985036 2:0 3:0.68773047 4:1 
-0.5 1:0.60900404 2:0 3:0.6830409 4:1 
-0.5 1:0 2:0.85701669 3:0.18904823 4:1 
-0.5 1:0 2:1 3:0.36462238 4:0.5511587 
-0.5 1:0 2:0.55953551 3:0.39361082 4:1 
0.5 1:0.25137693 2:0 3:0.51948856 4:1 
-0.5 1:0.82941627 2:0 3:0.15562552 4:1 
0.5 1:0.37146946 2:0 3:1 4:0.21414394 
-0.5 1:1 2:0 3:0.3945674 4:0.96282189 
0.5 1:0 2:0.53606403 3:0.27794483 4:1 
-0.5 1:0 2:1 3:0.87534239 4:0.69599747 
0.5 1:0.58457142 2:0 3:0.17901952 4:1 
-0.5 1:0.30491018 2:0 3:1 4:0.22183825 
0.5 1:0 2:0.6303965 3:1 4:0.56262051 
0.5 1:0.73387793 2:0 3:0.35157381 4:1 
-0.5 1:0.51713525 2:0 3:0.29261786 4:1 
-0.5 1:0 2:0.86236038 3:0.80522533 4:1 
-0.5 1:1 2:0 3:0.63150647 4:0.80419689 
-0.5 1:0.18257579 2:0 3:0.76769724 4:1 
0.5 1:0 2:0.48697328 3:0.4544513 4:1 
0.5 1:0 2:0.97980681 3:0.36623718 4:1 
0.5 1:1 2:0.31764367 3:0.41157211 4:0 
-0.5 1:0 2:1 3:0.35872962 4:0.56184586 
0.2927129619207557 1:0.83813681 2:1 3:0 4:0.37589393 
-0.5 1:0.36433037 2:0 3:1 4:0.89139314 
0.5 1:0 2:1 3:0.77020468 4:0.82032934 
-0.5 1:0.45778121 2:0 3:0.58169206 4:1 
0.5 1:0.86663585 2:0 3:0.21638205 4:1 
0.5 1:0.43601663 2:0.0090726032 3:0 4:1 
-0.5 1:0.36710569 2:0 3:0.08474538 4:1 
0.5 1:0 2:1 3:0.49791376 4:0.62537167 
-0.5 1:0.30166772 2:1 3:0 4:0.53726965 
-0.5 1:0 2:1 3:0.58917722 4:0.099262943 
0.5 1:0.15537727 2:0 3:0.12494255 4:1 
-0.5 1:0.50869605 2:0 3:0.76562886 4:1 
0.5 1:0.70831521 2:0 3:1 4:0.61584352 
-0.5 1:0.77060604 2:0 3:0.94607892 4:1 
-0.5 1:0 2:0.93816527 3:1 4:0.94753697 
0.5 1:0.69485403 2:0 3:0.38557176 4:1 
0.5 1:1 2:0 3:0.89823809 4:0.59422551 
-0.5 1:0.50066158 2:0 3:0.35253318 4:1 
0.5 1:0.70859472 2:0 3:0.29368538 4:1 
0.5 1:0.22056167 2:0.18165266 3:0 4:1 
-0.5 1:0.65334987 2:0 3:0.58219933 4:1 
-0.5 1:0.015001508 2:1 3:0.30222008 4:0 
-0.4480329053895364 1:0 2:1 3:0.43809078 4:0.083389165 
0.5 1:0 2:1 3:0.74921151 4:0.54845384 
-0.5 1:1 2:0.48517733 3:0.83366301 4:0 
-0.5 1:0 2:1 3:0.57996747 4:0.95541851 
-0.5 1:0 2:1 3:0.81076856 4:0.16645969 
0.5 1:1 2:0.53710441 3:0 4:0.5898759 
0.5 1:0.68789909 2:0 3:0.3684625 4:1 
0.5 1:1 2:0 3:0.57899698 4:0.43958534 
0.5 1:0.032788789 2:1 3:0 4:0.15540952 
-0.5 1:0.42735966 2:0.07003576 3:0 4:1 
-0.5 1:0.60439532 2:0 3:1 4:0.63681279 
-0.4969254312465137 1:0 2:1 3:0.37275233 4:0.59506296 
0.5 1:0 2:0.58448308 3:1 4:0.72271417 
-0.5 1:0.32457092 2:0 3:0.11246077 4:1 
-0.5 1:0 2:0.71758732 3:1 4:0.57858285 
-0.5 1:0.0058466257 2:0 3:1 4:0.15303222 
-0.5 1:0.57309258 2:0 3:0.39108978 4:1 
-0.5 1:1 2:0.70947333 3:0 4:0.82269117 
-0.5 1:0.174801 2:0 3:0.81843575 4:1 
0.5 1:0.7177783 2:0 3:0.41067174 4:1 
-0.5 1:0.39183089 2:0 3:0.21667823 4:1 
0.5 1:0.72091784 2:0 3:0.41408608 4:1 
0.5 1:1 2:0.55552182 3:0 4:0.0043426738 
-0.5 1:0.0080266219 2:1 3:0 4:0.044519456 
0.5 1:1 2:0.95294634 3:0 4:0.0066680756 
-0.5 1:0.27755207 2:1 3:0 4:0.81158955 
-0.5 1:1 2:0.46411181 3:0.72104527 4:0 
0.5 1:0.40110612 2:0 3:1 4:0.27219809 
-0.5 1:0.51660653 2:0 3:1 4:0.64460882 
0.5 1:0.72574082 2:0 3:1 4:0.50296799 
-0.5 1:0.83122045 2:0 3:0.84610025 4:1 
-0.5 1:0.83757638 2:0 3:1 4:0.943202 
-0.5 1:0 2:1 3:0.75743995 4:0.29140005 
-0.5 1:0.51285542 2:0 3:1 4:0.57607099 
-0.5 1:0.38754326 2:0 3:0.27145085 4:1 
-0.5 1:0 2:1 3:0.093379037 4:0.32524034 
0.5 1:0.95897441 2:0.051747209 3:0 4:1 
0.5 1:0.24363509 2:0 3:1 4:0.61270566 
0.5 1:0.2176674 2:0 3:0.41074254 4:1 
-0.5 1:0.15491192 2:0 3:1 4:0.16718039 
0.5 1:0.20368488 2:0 3:0.45284645 4:1 
0.5 1:0.54435719 2:0 3:0.36936218 4:1 
0.5 1:0.37495217 2:0 3:0.5374154 4:1 
0.5 1:0 2:0.97772134 3:0.42232348 4:1 
-0.5 1:1 2:0.26898822 3:0 4:0.1497118 
-0.5 1:0 2:0.039200268 3:1 4:0.13312682 
0.5 1:0.76030161 2:0 3:0.020865582 4:1 
-0.5 1:1 2:0 3:0.37219208 4:0.66575464 
-0.5 1:0.073379304 2:1 3:0.76839051 4:0 
-0.5 1:1 2:0 3:0.097755784 4:0.83347513 
-0.5 1:1 2:0 3:0.02064248 4:0.57105924 
-0.5 1:0.80862598 2:0 3:1 4:0.77588405 
-0.5 1:1 2:0.32703146 3:0 4:0.73506155 
0.5 1:0.25567305 2:0 3:0.24542922 4:1 
0.5 1:0.33647767 2:1 3:0 4:0.20824313 
-0.5 1:0.49257443 2:0 3:1 4:0.46579221 
-0.5 1:0.27151174 2:0 3:1 4:0.48421815 
0.5 1:0.31332858 2:1 3:0.58021218 4:0 
-0.5 1:1 2:0 3:0.63789464 4:0.13281495 
0.5 1:1 2:0.13827944 3:0 4:0.41821721 
-0.5 1:0.67280774 2:0 3:0.58339356 4:1 
0.5 1:0.30776734 2:0 3:0.59614423 4:1 
-0.5 1:0 2:1 3:0.59167851 4:0.020747628 
0.5 1:1 2:0 3:0.67185733 4:0.33604468 
-0.5 1:1 2:0.55157255 3:0.55031303 4:0 
0.5 1:1 2:0.55575138 3:0 4:0.79440835 
0.5 1:1 2:0.050759343 3:0 4:0.6563219 
0.5 1:0.6032506 2:0 3:0.67841668 4:1 
0.5 1:0.65466578 2:0 3:0.9038406 4:1 
-0.5 1:0.70361972 2:0 3:0.62050702 4:1 
0.5 1:0.42344826 2:0 3:0.70497775 4:1 
0.5 1:0.31956304 2:0 3:1 4:0.67442501 
-0.5 1:0.52982504 2:0 3:0.34385131 4:1 
-0.5 1:0.6398152 2:0 3:0.54061619 4:1 
0.5 1:0.12426988 2:0 3:1 4:0.096004261 
-0.5 1:0.44643464 2:0 3:0.41526174 4:1 
-0.09196025518912017 1:0 2:1 3:0.3512596 4:0.52935974 
-0.5 1:0.34130687 2:0.28111883 3:0 4:1 
-0.5 1:0.49676702 2:0 3:0.69461675 4:1 
0.5 1:0.68367969 2:0 3:1 4:0.840487 
0.5 1:0.12987796 2:0 3:0.004466659 4:1 
-0.5 1:1 2:0 3:0.29954281 4:0.91394914 
-0.5 1:1 2:0 3:0.78505236 4:0.69793863 
0.5 1:0.38693878 2:0 3:0.86328645 4:1 
-0.5 1:1 2:0.32703146 3:0 4:0.73506155 
0.5 1:0.39504446 2:0 3:0.37197984 4:1 
-0.5 1:1 2:0 3:0.079456498 4:0.74471913 
-0.5 1:0.21679528 2:1 3:0.010121618 4:0 
0.5 1:0.81611973 2:1 3:0.037019113 4:0 
-0.5 1:1 2:0.52881518 3:0.37849962 4:0 
0.5 1:0.14549159 2:0 3:0.33812051 4:1 
0.5 1:0.38852609 2:0 3:0.56607708 4:1 
0.5 1:0.23418144 2:0.21106896 3:1 4:0 
-0.5 1:0 2:0.55327582 3:0.40109775 4:1 
0.5 1:0 2:0.71127134 3:0.24840965 4:1 
-0.5 1:1 2:0.050384747 3:0.54758601 4:0 
-0.5 1:0 2:0.60475804 3:0.30327105 4:1 
-0.5 1:0.17834924 2:0 3:0.74327198 4:1 
0.5 1:1 2:0.32703146 3:0 4:0.73506155 
-0.5 1:1 2:0.025920669 3:0 4:0.13694297 
-0.5 1:0.34678205 2:0 3:0.3356297 4:1 
-0.5 1:0.54531755 2:0 3:0.62782298 4:1 
-0.5 1:0.48168754 2:1 3:0 4:0.11793931 
-0.5 1:0.12798458 2:0 3:0.64475348 4:1 
-0.5 1:0.43981636 2:0 3:0.19983786 4:1 
-0.5 1:0 2:0.70646776 3:1 4:0.97516051 
-0.5 1:0 2:1 3:0.55954161 4:0.77891403 
-0.5 1:0 2:1 3:0.24712003 4:0.93444481 
0.5 1:0.4955822 2:0 3:0.66313007 4:1 
0.5 1:0.55334597 2:0.88143656 3:0 4:1 
-0.5 1:1 2:0 3:0.29161134 4:0.7326849 
0.5 1:0.60317668 2:0 3:0.94349989 4:1 
-0.5 1:0.15890343 2:0 3:1 4:0.93843139 
-0.5 1:0.42936058 2:0.05086432 3:1 4:0 
-0.5 1:0 2:0.75110103 3:0.63286574 4:1 
0.5 1:0.24696254 2:0 3:0.58378611 4:1 
-0.5 1:0 2:0.1297494 3:0.35612748 4:1 
-0.5 1:0 2:1 3:0.7458113 4:0.30343796 
-0.5 1:0.6953577 2:0 3:0.66255114 4:1 
-0.5 1:0 2:0.42298027 3:1 4:0.69421826 
-0.5 1:0.82482802 2:1 3:0 4:0.16147862 
0.5 1:0.23565457 2:1 3:0 4:0.17819271 
-0.5 1:0.68897826 2:0.079477766 3:0 4:1 
-0.5 1:1 2:0.55742883 3:0 4:0.26193435 
-0.5 1:0.98615512 2:0 3:0.16190661 4:1 
0.5 1:0.0080266219 2:1 3:0 4:0.044519456 
0.5 1:0.38370935 2:0 3:0.69401918 4:1 
0.5 1:0 2:0.7337935 3:0.86493412 4:1 
-0.5 1:0.36747645 2:0 3:0.26140113 4:1 
0.5 1:0.62458444 2:0 3:0.12666508 4:1 
0.5 1:0 2:0.93100247 3:0.8506957 4:1 
-0.5 1:0.53122795 2:0 3:0.49452905 4:1 
0.5 1:0 2:0.65418844 3:1 4:0.080017959 
-0.5 1:0.58476025 2:0 3:0.46609761 4:1 
-0.5 1:1 2:0.38435896 3:0.096035162 4:0 
-0.5 1:0 2:0.72539702 3:0.55989519 4:1 
-0.5 1:0.65742568 2:1 3:0 4:0.074154347 
-0.5 1:0.50109254 2:0 3:0.37001344 4:1 
-0.5 1:0.51358579 2:0 3:0.12222719 4:1 
-0.5 1:0 2:1 3:0.11755387 4:0.26798631 
-0.5 1:0.65971976 2:0 3:1 4:0.28698437 
-0.5 1:0 2:0.92563825 3:0.87026485 4:1 
0.5 1:0 2:1 3:0.71309978 4:0.55355958 
-0.5 1:0.37351181 2:0 3:0.31550207 4:1 
0.5 1:0.25723735 2:0 3:0.5789738 4:1 
-0.5 1:0.29969528 2:0.0073629561 3:1 4:0 
-0.5 1:0.51152355 2:0 3:0.13484848 4:1 
-0.5 1:0.5587954 2:0 3:0.38192626 4:1 
0.5 1:1 2:0 3:0.023682748 4:0.82670253 
-0.5 1:0 2:0.084666875 3:0.37486929 4:1 
-0.4884048056349153 1:0 2:1 3:0.27119893 4:0.061571567 
-0.5 1:0.98615512 2:0 3:0.16190661 4:1 
-0.5 1:1 2:0.58577656 3:0 4:0.29326262 
0.5 1:0.23884221 2:0 3:0.33480107 4:1 
-0.5 1:0 2:1 3:0.78024115 4:0.77562286 
-0.5 1:0.39032335 2:0 3:0.31761897 4:1 
-0.5 1:0.60231953 2:0 3:1 4:0.42000078 
-0.5 1:0.17526095 2:0 3:0.88717708 4:1 
-0.5 1:0.43105933 2:0 3:0.388203 4:1 
0.5 1:0.87239369 2:1 3:0 4:0.53544035 
0.5 1:0.69999626 2:0 3:0.34696977 4:1 
-0.5 1:0.42567252 2:0 3:0.14931421 4:1 
-0.5 1:0.22251715 2:0 3:0.004969999 4:1 
0.05710413927121389 1:1 2:0.57171966 3:0 4:0.5408757 
-0.5 1:0.46578238 2:0 3:0.38977853 4:1 
-0.5 1:0.5056176 2:0 3:0.32680926 4:1 
-0.5 1:0.96035631 2:0 3:1 4:0.81227197 
-0.5 1:1 2:0.59951363 3:0 4:0.31958544 
-0.5 1:0.16499826 2:0 3:0.19113267 4:1 
-0.5 1:0.5575255 2:0 3:0.34987315 4:1 
-0.5 1:0 2:1 3:0.61604061 4:0.81520717 
0.5 1:0.69520335 2:0 3:0.38645684 4:1 
0.5 1:0.68845561 2:0 3:0.37717521 4:1 
-0.5 1:0.78471578 2:0 3:1 4:0.43447377 
0.5 1:0.056792554 2:0 3:1 4:0.065445815 
-0.5 1:0 2:0.99123492 3:1 4:0.61040475 
0.5 1:1 2:0.36680136 3:0.3612197 4:0 
0.5 1:1 2:0.54606566 3:0.59725491 4:0 
-0.5 1:1 2:0.46411181 3:0.72104527 4:0 
-0.5 1:1 2:0 3:0.23959364 4:0.94791705 
-0.5 1:1 2:0.52477492 3:0.73927892 4:0 
0.5 1:0.37080479 2:0.74143854 3:0 4:1 
0.5 1:0.70605324 2:0 3:0.30436114 4:1 
0.5 1:1 2:0.63000794 3:0 4:0.027345872 
0.5 1:0.24500793 2:0 3:1 4:0.29065394 
-0.5 1:0.92594217 2:0 3:0.10773022 4:1 
-0.5 1:1 2:0 3:0.62689713 4:0.55555122 
0.5 1:0.12512139 2:0 3:0.31729069 4:1 
0.5 1:0 2:1 3:0.38247823 4:0.56446087 
-0.5 1:0 2:1 3:0.58322019 4:0.13692421 
-0.5 1:0.63417135 2:0 3:0.010650374 4:1 
-0.5 1:0 2:1 3:0.027374952 4:0.31175068 
0.5 1:0.61329728 2:0 3:0.32746102 4:1 
-0.5 1:0.51903897 2:0 3:0.15539288 4:1 
-0.5 1:0.94599082 2:0 3:0.31697883 4:1 
-0.5 1:0.68281911 2:0 3:1 4:0.92319393 
-0.5 1:0 2:0.46204949 3:1 4:0.52300083 
0.5 1:1 2:0.42612152 3:0 4:0.37073396 
0.5 1:1 2:0.62153892 3:0.79072746 4:0 
0.5 1:0.28468591 2:0 3:1 4:0.04708982 
0.5 1:1 2:0 3:0.74389444 4:0.77170099 
-0.5 1:1 2:0.52521947 3:0.18986416 4:0 
-0.5 1:0.64688266 2:0 3:1 4:0.86207845 
-0.5 1:0.28122365 2:0 3:0.68555042 4:1 
0.5 1:1 2:0.081618912 3:0 4:0.85514418 
-0.5 1:0.85514022 2:0 3:1 4:0.43735949 
0.5 1:0.22548935 2:0 3:1 4:0.56247646 
0.5 1:0.6775903 2:0 3:0.30990724 4:1 
0.5 1:0.75355773 2:0 3:0.40433227 4:1 
0.5 1:0.15452871 2:0 3:0.36315977 4:1 
-0.5 1:0 2:0.72160889 3:0.4130144 4:1 
0.5 1:0.24956763 2:0 3:1 4:0.30486668 
0.5 1:0 2:0.7104758 3:0.60149927 4:1 
0.5 1:0.38476257 2:0 3:0.11571368 4:1 
0.5 1:0.57610168 2:0 3:1 4:0.24186184 
-0.5 1:1 2:0.37278647 3:0 4:0.93256014 
-0.5 1:0 2:0.79252416 3:0.51269846 4:1 
0.5 1:0.67326531 2:0.36817082 3:0 4:1 
-0.5 1:0.72240948 2:0 3:1 4:0.4318709 
0.5 1:0.67920889 2:0 3:0.33970155 4:1 
0.5 1:0 2:1 3:0.39374283 4:0.41469527 
-0.5 1:0.55030092 2:0 3:0.30855851 4:1 
-0.5 1:0.26834973 2:0 3:1 4:0.12089333 
0.5 1:1 2:0.4595694 3:0 4:0.70293543 
0.5 1:0.31451837 2:0 3:0.61046082 4:1 
0.5 1:0.36317793 2:0 3:0.088445109 4:1 
0.5 1:1 2:0.65394134 3:0.38333861 4:0 
-0.5 1:0.61307446 2:0 3:0.73078942 4:1 
-0.5 1:0 2:0.3067346 3:1 4:0.33576375 
0.5 1:0 2:1 3:0.12781209 4:0.39586522 
-0.5 1:0.11743576 2:1 3:0 4:0.26266728 
0.5 1:0.29181452 2:1 3:0 4:0.26591804 
-0.5 1:0.76532084 2:0 3:1 4:0.73716199 
0.5 1:0 2:1 3:0.61501437 4:0.44726111 
-0.5 1:0.44643464 2:0 3:0.41526174 4:1 
0.5 1:0 2:0.58694609 3:0.36474101 4:1 
-0.5 1:0 2:0.2777773 3:0.49207795 4:1 
-0.5 1:0.59124771 2:0 3:1 4:0.4003769 
0.5 1:0.68845561 2:0 3:0.37717521 4:1 
-0.5 1:0.7039194 2:0 3:0.779319 4:1 
0.5 1:0.42969339 2:0 3:0.48652526 4:1 
-0.5 1:0.50651235 2:0 3:1 4:0.65256635 
0.5 1:0.29969528 2:0.0073629561 3:1 4:0 
-0.5 1:0.25713604 2:0 3:1 4:0.93424995 
0.5 1:0.26408207 2:0 3:0.61588313 4:1 
-0.5 1:1 2:0 3:0.31248991 4:0.64902589 
-0.5 1:1 2:0.39310279 3:0 4:0.39029755 
-0.5 1:0.63162637 2:1 3:0.39817404 4:0 
0.5 1:0.12542315 2:0.78100637 3:0 4:1 
0.5 1:1 2:0.53606643 3:0.61533853 4:0 
0.5 1:0.19681756 2:0 3:0.44507068 4:1 
0.5 1:1 2:0.47895777 3:0 4:0.71264061 
0.5 1:0.73659428 2:1 3:0.018091047 4:0 
-0.5 1:0 2:1 3:0.63484881 4:0.99961324 
-0.5 1:0.76464931 2:0 3:1 4:0.73820081 
-0.5 1:1 2:0 3:0.15834705 4:0.39923466 
-0.5 1:0.65348873 2:0 3:0.67453799 4:1 
-0.5 1:0.43088996 2:0 3:0.35874182 4:1 
0.5 1:0.14473975 2:0 3:0.21772974 4:1 
0.5 1:0.77177108 2:0 3:0.27730101 4:1 
-0.1353867371829231 1:0 2:1 3:0.38687394 4:0.53817938 
-0.5 1:1 2:0 3:0.097755784 4:0.83347513 
-0.5 1:0.67661017 2:0.12797421 3:0 4:1 
0.5 1:0.13924824 2:0 3:0.082478852 4:1 
-0.5 1:0 2:1 3:0.095661434 4:0.34981393 
-0.5 1:0.35575049 2:0 3:0.35466557 4:1 
-0.5 1:0.6256794 2:0 3:0.57752581 4:1 
-0.5 1:0.58677279 2:0 3:0.66185611 4:1 
-0.5 1:1 2:0.60979676 3:0.86231085 4:0 
-0.5 1:1 2:0.77467704 3:0.54677216 4:0 
-0.5 1:0 2:0.49102062 3:1 4:0.29132717 
0.5 1:0.54363267 2:0 3:0.0065940417 4:1 
0.5 1:1 2:0.50268518 3:0.44105531 4:0 
-0.5 1:0 2:0.6764915 3:1 4:0.93883538 
-0.5 1:1 2:0 3:0.17846128 4:0.22925762 
0.5 1:1 2:0.64114015 3:0.0025034199 4:0 
-0.5 1:1 2:0 3:0.8312348 4:0.47401712 
0.5 1:0.8776766 2:0.11460773 3:0 4:1 
-0.5 1:0.43518793 2:0 3:1 4:0.6226109 
-0.5 1:1 2:0 3:0.272987 4:0.80302268 
-0.5 1:0.61638905 2:0 3:0.48456844 4:1 
-0.5 1:0.61345743 2:0 3:0.53679444 4:1 
0.5 1:0 2:0.66903351 3:1 4:0.25017843 
0.2929989814197921 1:0 2:0.52896553 3:0.87192318 4:1 
-0.5 1:0.8307098 2:0 3:1 4:0.92324814 
0.5 1:0 2:1 3:0.41160092 4:0.14814758 
-0.5 1:0.17055582 2:0 3:1 4:0.3421255 
0.5 1:0 2:0.72582656 3:1 4:0.03837304 
-0.5 1:0.53822958 2:0 3:0.39877679 4:1 
-0.5 1:1 2:0 3:0.26889749 4:0.24887901 
-0.5 1:1 2:0 3:0.29597664 4:0.82737156 
-0.5 1:0 2:1 3:0.72135809 4:0.76192627 
0.5 1:1 2:0 3:0.8296939 4:0.26461858 
0.5 1:0 2:1 3:0.80933387 4:0.46308811 
-0.5 1:0.57245347 2:0 3:0.62720969 4:1 
-0.5 1:0 2:0.93954445 3:0.56335396 4:1 
0.5 1:0.9244213 2:0.12427655 3:0 4:1 
-0.5 1:1 2:0.4073892 3:0.7673514 4:0 
0.5 1:1 2:0 3:0.86378958 4:0.37956744 
-0.5 1:1 2:0.35462276 3:0 4:0.64040994 
0.5 1:1 2:0.52578033 3:0 4:0.6996292 
-0.5 1:0.71967045 2:0 3:0.68828108 4:1 
0.5 1:0.35919811 2:0 3:1 4:0.63896251 
0.5 1:0.44560762 2:0 3:0.81505992 4:1 
-0.5 1:1 2:0.071166677 3:0.21124656 4:0 
0.5 1:0.39670601 2:0 3:0.7588908 4:1 
0.5 1:0.8672452 2:0.14681277 3:1 4:0 
-0.5 1:1 2:0 3:0.44595675 4:0.9086487 
0.5 1:0.75353883 2:0.52499919 3:1 4:0 
-0.5 1:0.42138723 2:0 3:0.32858887 4:1 
-0.5 1:0.28692782 2:0 3:0.33630629 4:1 
-0.5 1:0 2:0.96195527 3:0.63202339 4:1 
0.5 1:0.43581921 2:0 3:1 4:0.97645626 
-0.5 1:0 2:1 3:0.81136456 4:0.70790519 
-0.5 1:0.51787491 2:0 3:0.08824478 4:1 
-0.5 1:0.45654689 2:0 3:0.17674989 4:1 
-0.5 1:0.90584074 2:0 3:1 4:0.95579174 
0.5 1:1 2:0 3:0.38520362 4:0.037052275 
-0.5 1:0 2:0.66435297 3:0.98230738 4:1 
0.5 1:0.80019226 2:1 3:0.18497227 4:0 
-0.5 1:1 2:0.41208218 3:0 4:0.19103143 
-0.5 1:0.51927204 2:0 3:0.12205397 4:1 
0.5 1:0.26020646 2:0 3:1 4:0.19114495 
-0.5 1:0.59574052 2:0 3:0.44462202 4:1 
0.5 1:0 2:0.96709474 3:1 4:0.26526729 
0.5 1:0.41702861 2:0 3:0.36098318 4:1 
0.5 1:0.35574846 2:0 3:0.52897059 4:1 
0.5 1:0 2:1 3:0.12019021 4:0.33515378 
-0.5 1:0 2:0.2685379 3:1 4:0.72699806 
-0.5 1:0.53122795 2:0 3:0.49452905 4:1 
-0.5 1:0.65334987 2:0 3:0.58219933 4:1 
0.5 1:0.79026685 2:0 3:0.66768208 4:1 
0.5 1:0 2:1 3:0.90731812 4:0.96166456 
-0.5 1:0.035836153 2:0 3:0.33690732 4:1 
0.5 1:0.70698219 2:0 3:0.37271517 4:1 
-0.5 1:0.75968829 2:0 3:1 4:0.723556 
-0.5 1:0.072953 2:0 3:1 4:0.63488995 
-0.5 1:1 2:0 3:0.88537495 4:0.63819012 
-0.5 1:0.54388227 2:0 3:0.43118091 4:1 
0.5 1:0.25618676 2:0 3:1 4:0.18151269 
-0.5 1:0.12789811 2:0 3:0.77874308 4:1 
0.5 1:0.37474826 2:0.11700562 3:0 4:1 
0.3778873922492872 1:0 2:0.40874666 3:0.49987639 4:1 
0.5 1:0.30789905 2:0 3:0.75410884 4:1 
0.5 1:0 2:0.02533481 3:0.90736652 4:1 
0.5 1:0.67914196 2:0 3:0.33031379 4:1 
-0.5 1:0.70460607 2:0 3:1 4:0.84283797 
-0.5 1:0.47898853 2:0 3:0.38502721 4:1 
0.5 1:0.79179534 2:0 3:1 4:0.90880081 
0.5 1:0.68788244 2:0 3:0.35452322 4:1 
-0.5 1:0.054343245 2:0 3:0.55579253 4:1 
0.5 1:0.34593497 2:0 3:0.38744234 4:1 
-0.5 1:0 2:0.88591767 3:0.74032883 4:1 
0.5 1:0.23565457 2:1 3:0 4:0.17819271 
0.5 1:0.7061074 2:0 3:0.48329359 4:1 
0.5 1:0.49726754 2:0 3:0.81295463 4:1 
0.5 1:0.75712121 2:0 3:0.36597991 4:1 
-0.5 1:0.42904716 2:0 3:1 4:0.28483879 
0.5 1:1 2:0.60932859 3:0.61457702 4:0 
0.5 1:0.63595375 2:0.15125281 3:0 4:1 
0.5 1:0.16965794 2:1 3:0.91996359 4:0 
-0.5 1:0 2:1 3:0.76869348 4:0.34329567 
0.5 1:0 2:0.46907739 3:0.42796151 4:1 
-0.5 1:0.5675796 2:0 3:0.68876876 4:1 
-0.5 1:0.29504575 2:0 3:1 4:0.30233708 
0.5 1:1 2:0.52980544 3:0.8786731 4:0 
0.5 1:0.7905878 2:1 3:0 4:0.45575874 
-0.5 1:0.18765562 2:0 3:0.23191924 4:1 
-0.5 1:0.50919023 2:0 3:1 4:0.89955838 
0.5 1:0.48898815 2:0.10546771 3:0 4:1 
-0.5 1:0.5418453 2:0 3:0.36606348 4:1 
-0.5 1:0 2:1 3:0.88380505 4:0.44877575 
-0.5 1:0 2:1 3:0.49346504 4:0.99620979 
-0.5 1:0 2:1 3:0.06042008 4:0.42286728 
-0.5 1:0.49008398 2:0 3:0.11773021 4:1 
0.5 1:0 2:0.61358811 3:1 4:0.71331019 
-0.5 1:0.94292031 2:0.47498388 3:0 4:1 
-0.5 1:0.078894675 2:0 3:0.64687969 4:1 
0.5 1:0.5193122 2:0 3:0.096718583 4:1 
-0.5 1:0.4610131 2:0 3:1 4:0.53122901 
-0.5 1:0.37674259 2:0 3:1 4:0.32082583 
0.5 1:0 2:0.70762319 3:1 4:0.24119254 
0.5 1:0.74039848 2:0 3:0.54574102 4:1 
-0.5 1:1 2:0.60619284 3:0 4:0.65023972 
0.5 1:0.3177395 2:0.064803954 3:0 4:1 
0.5 1:0.84922798 2:0 3:1 4:0.52162158 
0.5 1:0 2:1 3:0.058854305 4:0.3299486 
0.5 1:0.0080266219 2:1 3:0 4:0.044519456 
-0.5 1:1 2:0 3:0.55143651 4:0.23498725 
-0.5 1:0 2:1 3:0.12341074 4:0.36026984 
-0.5 1:0.49322555 2:0 3:1 4:0.55390926 
0.5 1:1 2:0.77493278 3:0.67003218 4:0 
0.5 1:0.70859472 2:0 3:0.29368538 4:1 
0.5 1:0.49008229 2:0 3:1 4:0.52590399 
0.5 1:0.43679806 2:0 3:1 4:0.76313794 
0.5 1:1 2:0 3:0.039865135 4:0.97551563 
0.5 1:0.35059895 2:0 3:0.32472133 4:1 
0.5 1:0.4540399 2:0 3:0.98551685 4:1 
0.5 1:0.20779244 2:0 3:0.55070261 4:1 
-0.5 1:0.23298084 2:0 3:1 4:0.66239651 
-0.5 1:0.36516469 2:0 3:0.93302974 4:1 
0.5 1:0 2:0.44207343 3:0.28127983 4:1 
-0.1009475932937748 1:0.72351422 2:0.0027632146 3:1 4:0 
-0.5 1:0 2:0.31713796 3:0.33128278 4:1 
0.5 1:1 2:0.64510034 3:0.62210858 4:0 
-0.5 1:1 2:0 3:0.51764259 4:0.91099371 
0.5 1:0.71793163 2:0 3:0.39176156 4:1 
-0.5 1:1 2:0 3:0.63395557 4:0.81225928 
0.5 1:1 2:0 3:0.060697324 4:0.39997261 
-0.5 1:0 2:1 3:0.024753547 4:0.23746985 
0.5 1:0.95569181 2:0 3:0.12427253 4:1 
-0.5 1:1 2:0.49941648 3:0.44433454 4:0 
-0.5 1:0.53677576 2:0 3:0.10053886 4:1 
0.5 1:0.2994265 2:0 3:0.55184074 4:1 
0.5 1:0.36134125 2:0 3:0.43574828 4:1 
-0.5 1:0.63781952 2:0 3:1 4:0.67683768 
-0.5 1:0.60986607 2:0 3:1 4:0.85022879 
-0.5 1:0.36733889 2:0 3:1 4:0.32823642 
-0.5 1:0.35858619 2:0 3:1 4:0.86046307 
0.5 1:0.2146269 2:0 3:0.33069004 4:1 
-0.2683660945071175 1:0.47823531 2:0.52103624 3:0 4:1 
0.5 1:0 2:0.78638807 3:1 4:0.8337389 
0.5 1:1 2:0.32800346 3:0.72989366 4:0 
-0.5 1:0.7754265 2:0 3:0.83615372 4:1 
0.5 1:1 2:0 3:0.69281032 4:0.99347089 
0.5 1:0.15455125 2:0.091586521 3:1 4:0 
-0.5 1:1 2:0.3289151 3:0.70577426 4:0 
-0.5 1:1 2:0.41583301 3:0 4:0.55224761 
0.5 1:1 2:0.014874796 3:0 4:0.69666643 
0.5 1:0 2:0.92095554 3:0.9933667 4:1 
-0.5 1:0.43522532 2:0 3:0.20466198 4:1 
0.5 1:1 2:0.51170822 3:0.74825443 4:0 
0.5 1:1 2:0.59116828 3:0 4:0.65447911 
0.5 1:1 2:0 3:0.9540664 4:0.63003444 
-0.5 1:0 2:0.47230859 3:0.8091057 4:1 
0.5 1:1 2:0 3:0.043923193 4:0.56098609 
-0.5 1:0.92591283 2:0.46443323 3:0 4:1 
0.5 1:0.73665673 2:0 3:1 4:0.40065238 
0.5 1:0 2:1 3:0.98997346 4:0.96823283 
0.5 1:0.98137749 2:0 3:1 4:0.82939342 
0.5 1:1 2:0.67107253 3:0.55379624 4:0 
-0.5 1:0.95276565 2:0 3:0.24574445 4:1 
-0.5 1:0.47375747 2:0.049289028 3:0 4:1 
0.5 1:1 2:0.52619902 3:0.89265693 4:0 
-0.5 1:0.54063804 2:0 3:0.19304271 4:1 
0.5 1:0.68835327 2:0 3:0.33965314 4:1 
0.5 1:0 2:0.24104565 3:1 4:0.42745353 
0.5 1:0.59621721 2:0 3:1 4:0.93674188 
-0.5 1:0 2:0.9020505 3:0.80189059 4:1 
0.5 1:0.22387697 2:0 3:0.35399931 4:1 
-0.5 1:0.5624108 2:0 3:0.57099235 4:1 
-0.5 1:0 2:1 3:0.86837525 4:0.62279879 
-0.5 1:0.36848822 2:0 3:0.31684504 4:1 
-0.5 1:0 2:0.13556659 3:1 4:0.30782488 
-0.5 1:0.43579942 2:0 3:0.46450191 4:1 
-0.5 1:0.47941679 2:0 3:0.65509203 4:1 
0.5 1:0.1681832 2:0 3:0.38533786 4:1 
-0.5 1:1 2:0.032376116 3:0.24221258 4:0 
-0.5 1:0 2:0.97274477 3:1 4:0.41120615 
0.5 1:0.95497264 2:0.44613311 3:0 4:1 
0.5 1:0.77196214 2:0 3:0.37398365 4:1 
-0.5 1:1 2:0.61321211 3:0 4:0.26826233 
-0.5 1:0.49946524 2:0 3:0.51702941 4:1 
-0.5 1:0.54182344 2:0 3:1 4:0.18294237 
0.5 1:0.36184975 2:0 3:1 4:0.74604357 
0.5 1:0.70585328 2:0 3:0.39427982 4:1 
0.5 1:0 2:0.40916675 3:0.42076234 4:1 
-0.5 1:0.56663776 2:0 3:0.38534195 4:1 
0.5 1:0 2:0.75764452 3:0.52500997 4:1 
-0.5 1:1 2:0.45889807 3:0 4:0.55787821 
0.5 1:0.67536901 2:0 3:0.9793077 4:1 
0.5 1:0.18749617 2:0.13440788 3:0 4:1 
0.5 1:0 2:0.9725184 3:0.83233693 4:1 
0.5 1:1 2:0 3:0.44223468 4:0.61900691 
-0.5 1:0 2:0.94410427 3:0.57633911 4:1 
-0.5 1:0 2:1 3:0.090216061 4:0.45565875 
-0.5 1:0.20344462 2:0 3:1 4:0.25789757 
-0.5 1:0.65334987 2:0 3:0.58219933 4:1 
0.5 1:1 2:0.57348482 3:0 4:0.79751038 
0.5 1:0.80754277 2:0 3:1 4:0.51740173 
-0.5 1:0.51932994 2:0 3:1 4:0.59114759 
0.5 1:1 2:0.17184503 3:0 4:0.13740435 
0.5 1:1 2:0.19009398 3:0 4:0.74127759 
-0.5 1:0.49110312 2:0 3:0.71580329 4:1 
-0.5 1:0.40582163 2:0 3:1 4:0.73228968 
0.5 1:0 2:1 3:0.36426388 4:0.93442702 
0.5 1:0.70753117 2:0 3:0.34418106 4:1 
-0.5 1:0.004522699 2:1 3:0 4:0.68042988 
0.5 1:1 2:0.0353847 3:0.42661586 4:0 
0.5 1:0 2:1 3:0.70099244 4:0.42135491 
0.5 1:0.73574657 2:1 3:0.56669765 4:0 
0.5 1:0 2:0.89157614 3:1 4:0.097536438 
-0.5 1:0.45647642 2:0 3:0.48879165 4:1 
0.5 1:0 2:1 3:0.44308283 4:0.59027372 
0.5 1:1 2:0 3:0.38520362 4:0.037052275 
-0.5 1:1 2:0.39813887 3:0.26704012 4:0 
0.5 1:1 2:0 3:0.48776815 4:0.20930763 
0.5 1:0.71486752 2:0 3:0.47714637 4:1 
0.5 1:0 2:0.61104083 3:1 4:0.77149148 
-0.5 1:0.5624108 2:0 3:0.57099235 4:1 
-0.5 1:0 2:0.66666048 3:1 4:0.90220515 
0.5 1:0.67114085 2:0.089590547 3:1 4:0 
0.5 1:0.18562703 2:0 3:0.47476055 4:1 
-0.5 1:1 2:0.54226068 3:0.023340728 4:0 
0.5 1:0.6991166 2:0 3:0.2855586 4:1 
0.5 1:0 2:1 3:0.81028178 4:0.94735804 
-0.5 1:0.4711262 2:0 3:1 4:0.57162137 
-0.5 1:0.63800907 2:0.012727923 3:0 4:1 
0.5 1:0.12017208 2:1 3:0.96684308 4:0 
-0.5 1:0.58414365 2:0 3:0.55329505 4:1 
-0.5 1:1 2:0.46411181 3:0.72104527 4:0 
-0.5 1:0 2:1 3:0.9722915 4:0.61824845 
0.5 1:0.36327209 2:0 3:0.51898646 4:1 
0.5 1:0.29942418 2:1 3:0 4:0.66653608 
0.5 1:0.24101221 2:0 3:0.2587796 4:1 
-0.5 1:0.60329113 2:0 3:0.65652705 4:1 
-0.5 1:1 2:0 3:0.020338096 4:0.65465279 
0.5 1:0.67400197 2:0 3:0.30376314 4:1 
0.5 1:0 2:0.93305211 3:1 4:0.11768659 
-0.5 1:0.18805313 2:0 3:0.40284711 4:1 
0.5 1:0.72574082 2:0 3:1 4:0.50296799 
-0.5 1:1 2:0 3:0.34438945 4:0.67104114 
-0.5 1:0.063852936 2:0 3:0.63004852 4:1 
0.5 1:0.94727659 2:0 3:1 4:0.92680443 
0.5 1:0.28492628 2:0 3:0.46230513 4:1 
-0.5 1:0 2:1 3:0.027359772 4:0.55939938 
0.5 1:0.3629693 2:0 3:0.63691222 4:1 
0.5 1:0.32928901 2:0 3:0.59003539 4:1 
0.5 1:0.52963102 2:1 3:0 4:0.18161585 
-0.5 1:0.99208415 2:0 3:1 4:0.71255788 
0.5 1:0.14921695 2:0.76889145 3:1 4:0 
-0.5 1:0.85941591 2:0.80911745 3:0 4:1 
-0.5 1:0.54568527 2:0 3:0.53983327 4:1 
-0.5 1:0.39827882 2:0 3:0.45986346 4:1 
-0.5 1:0.96473318 2:0 3:1 4:0.68153918 
0.5 1:0.72979594 2:0 3:1 4:0.36277173 
0.5 1:0.32067294 2:0 3:1 4:0.47900118 
-0.5 1:0.51978075 2:0 3:0.164326 4:1 
-0.5 1:0.55388209 2:0 3:0.483408 4:1 
0.5 1:0 2:1 3:0.55211718 4:0.76452009 
0.5 1:0.19130201 2:0 3:1 4:0.43695058 
-0.5 1:0 2:0.93271107 3:1 4:0.17384565 
-0.5 1:0 2:1 3:0.36750036 4:0.53236273 
0.5 1:0.33297829 2:0 3:0.43225575 4:1 
0.5 1:0.77512041 2:0 3:0.34111859 4:1 
0.5 1:0.70124826 2:0.25115725 3:0 4:1 
0.5 1:0.19480451 2:0 3:0.52708864 4:1 
-0.5 1:0.42805663 2:0 3:0.83891845 4:1 
-0.5 1:0.55639324 2:0 3:1 4:0.2659189 
0.5 1:0.070931482 2:1 3:0.86948121 4:0 
-0.5 1:0 2:1 3:0.33240614 4:0.54882361 
0.5 1:0.69918753 2:0 3:0.29595315 4:1 
-0.5 1:0 2:0.16328423 3:0.44785701 4:1 
-0.5 1:0.61350894 2:0 3:0.51985244 4:1 
0.195070585750867 1:1 2:0.39732766 3:0 4:0.31188184 
0.5 1:0.41446908 2:0.023054884 3:1 4:0 
-0.01216953486019195 1:1 2:0 3:0.73557076 4:0.24791416 
-0.5 1:0.032788789 2:1 3:0 4:0.15540952 
-0.5 1:0.62447786 2:0.19540659 3:0 4:1 
0.5 1:0 2:1 3:0.80650239 4:0.95223855 
-0.5 1:0.49515435 2:0 3:0.38930404 4:1 
-0.5 1:0.2238856 2:0 3:0.88600236 4:1 
-0.5 1:0.22646731 2:0 3:0.12988875 4:1 
0.5 1:0 2:1 3:0.97768403 4:0.64961971 
0.2628591993079061 1:1 2:0.84088305 3:0 4:0.57711901 
-0.5 1:0.52523231 2:0 3:0.13485242 4:1 
-0.5 1:1 2:0 3:0.064245614 4:0.81768311 
-0.5 1:1 2:0.69480296 3:0 4:0.15067115 
-0.5 1:1 2:0.399877 3:0 4:0.35256475 
0.5 1:0.77337003 2:0 3:0.91751512 4:1 
-0.5 1:0.5355891 2:0 3:0.39186574 4:1 
-0.5 1:1 2:0.57370525 3:0 4:0.52038932 
0.5 1:0.15824085 2:0.16359491 3:0 4:1 
-0.5 1:0.50965179 2:0 3:0.43748139 4:1 
0.5 1:0.47777983 2:0 3:0.30760621 4:1 
-0.5 1:1 2:0.86438724 3:0.41867865 4:0 
-0.5 1:0 2:1 3:0.54372876 4:0.99548495 
0.5 1:0 2:1 3:0.46433419 4:0.57292297 
-0.5 1:0.1405352 2:0 3:1 4:0.33538386 
0.5 1:1 2:0.37860947 3:0 4:0.46652069 
-0.5 1:0.033481727 2:1 3:0.61004234 4:0 
0.5 1:0.72543168 2:0 3:0.39622776 4:1 
0.5 1:0.7056623 2:0 3:0.40172181 4:1 
-0.5 1:0.63753019 2:0 3:0.62804375 4:1 
-0.5 1:0.11613986 2:0.38135808 3:0 4:1 
0.5 1:0.7915235 2:0 3:1 4:0.28978802 
0.5 1:0 2:1 3:0.38738685 4:0.36406415 
-0.5 1:0 2:0.29611231 3:1 4:0.54005361 
-0.5 1:0 2:0.93174335 3:1 4:0.41606666 
-0.5 1:0 2:1 3:0.64956851 4:0.76424127 
0.5 1:0.75934782 2:0 3:1 4:0.91440563 
0.5 1:0.54471778 2:0 3:0.72170961 4:1 
0.5 1:0 2:1 3:0.36426388 4:0.93442702 
0.5 1:0.69925048 2:0 3:0.36755762 4:1 
0.5 1:1 2:0.41292984 3:0 4:0.44654262 
0.5 1:1 2:0.33696758 3:0.66917311 4:0 
-0.5 1:0.23565457 2:1 3:0 4:0.17819271 
0.5 1:0.32378394 2:0 3:1 4:0.30391915 
-0.5 1:1 2:0.099611941 3:0.77671772 4:0 
-0.5 1:0.24076585 2:1 3:0 4:0.38202962 
0.5 1:1 2:0.013059815 3:0.35000889 4:0 
0.5 1:0.79322196 2:0 3:0.30697275 4:1 
0.5 1:0.30533477 2:0 3:0.4624504 4:1 
-0.5 1:0 2:1 3:0.48508435 4:0.86453736 
-0.5 1:0.038443376 2:0 3:0.4854085 4:1 
-0.5 1:0.98824898 2:0.8968847 3:1 4:0 
0.1959272111208623 1:0.041271809 2:0 3:0.96102981 4:1 
0.5 1:1 2:0 3:0.59405868 4:0.65065454 
0.5 1:0.96095874 2:1 3:0 4:0.6277594 
-0.5 1:0 2:0.97384922 3:0.090610207 4:1 
-0.5 1:1 2:0.6819215 3:0 4:0.29763955 
0.5 1:0.33281859 2:0 3:0.76524381 4:1 
-0.5 1:0.5449037 2:0 3:0.57196212 4:1 
0.5 1:0.2331713 2:0 3:0.52960133 4:1 
-0.5 1:0 2:0.02369801 3:1 4:0.42153468 
0.5 1:0 2:1 3:0.61305221 4:0.8610847 
0.5 1:0.1267349 2:0.018586344 3:0 4:1 
-0.5 1:0 2:1 3:0.24415297 4:0.93550126 
-0.5 1:1 2:0.51075148 3:0.43664334 4:0 
-0.5 1:0.8191018 2:0 3:0.80603119 4:1 
-0.5 1:0.88080028 2:0 3:1 4:0.55109471 
-0.5 1:0.18500024 2:0 3:1 4:0.52557642 
-0.5 1:1 2:0.60111541 3:0 4:0.61520705 
-0.5 1:0.56663776 2:0 3:0.38534195 4:1 
-0.5 1:0.34085175 2:0 3:0.23050329 4:1 
0.5 1:0.17892926 2:0 3:0.19092149 4:1 
-0.5 1:0.51964745 2:0 3:0.42330385 4:1 
0.5 1:0.37763613 2:0 3:1 4:0.11320608 
-0.5 1:1 2:0.59566076 3:0 4:0.38609885 
-0.5 1:0 2:0.59598884 3:0.50318374 4:1 
-0.5 1:0.6775382 2:0 3:0.59219391 4:1 
-0.5 1:0.53982846 2:0 3:0.3005852 4:1 
-0.5 1:0.6262769 2:0 3:0.55483833 4:1 
0.5 1:0.29432421 2:0 3:0.26606008 4:1 
-0.5 1:0 2:0.041891836 3:1 4:0.34667974 
-0.5 1:1 2:0 3:0.85397578 4:0.62417822 
0.5 1:0.69101937 2:0 3:0.37075902 4:1 
-0.5 1:0.54369587 2:0 3:0.1649691 4:1 
-0.5 1:0.34495533 2:0 3:1 4:0.77610825 
0.5 1:0 2:0.95470998 3:0.55786968 4:1 
0.5 1:0 2:1 3:0.37355184 4:0.13709461 
-0.5 1:0.26634789 2:0 3:0.94148365 4:1 
0.5 1:0.24314779 2:0 3:1 4:0.3081076 
0.5 1:1 2:0.80390804 3:0 4:0.64983557 
0.5 1:0.69776428 2:0 3:0.3800156 4:1 
0.5 1:1 2:0.44229406 3:0 4:0.53837586 
0.5 1:0.70150909 2:0 3:0.36368095 4:1 
0.5 1:1 2:0 3:0.20547399 4:0.096236508 
-0.5 1:0 2:1 3:0.80470468 4:0.42043322 
-0.5 1:1 2:0 3:0.66407844 4:0.49385669 
-0.5 1:0.29859041 2:0.13121016 3:0 4:1 
-0.5 1:0.63011619 2:0 3:0.53934628 4:1 
0.5 1:1 2:0.74471356 3:0 4:0.62049914 
0.5 1:0.21394943 2:0 3:0.55509918 4:1 
0.5 1:0.31304006 2:0 3:1 4:0.72769498 
0.5 1:0.60691 2:0 3:1 4:0.50482903 
-0.5 1:0.97514426 2:0 3:0.26907722 4:1 
-0.5 1:0.24651355 2:0 3:0.27458378 4:1 
0.5 1:0.77892663 2:0 3:1 4:0.68427565 
-0.5 1:0 2:1 3:0.67081424 4:0.28863301 
-0.5 1:0.9923916 2:0 3:0.30849446 4:1 
-0.5 1:0.52792915 2:0 3:0.58656753 4:1 
-0.5 1:0 2:1 3:0.83405225 4:0.66704367 
-0.5 1:0.56663776 2:0 3:0.38534195 4:1 
0.5 1:0 2:1 3:0.8393658 4:0.3629868 
0.5 1:0.45305661 2:0 3:1 4:0.10364054 
0.5 1:0 2:0.85027596 3:0.24349419 4:1 
0.5 1:0 2:1 3:0.99129162 4:0.62020837 
0.5 1:0 2:0.92386235 3:1 4:0.94182083 
-0.5 1:1 2:0.34177385 3:0 4:0.014196449 
-0.5 1:0 2:1 3:0.53868224 4:0.80585685 
-0.5 1:0.36647349 2:0 3:0.39402164 4:1 
0.5 1:0 2:1 3:0.45386121 4:0.93395919 
-0.5 1:0.73555737 2:0 3:1 4:0.87752248 
-0.5 1:0.49168978 2:0 3:0.33244094 4:1 
-0.5 1:0.91187266 2:0 3:1 4:0.7087351 
-0.5 1:0.05921435 2:0 3:0.61940737 4:1 
-0.5 1:0.43269431 2:0 3:0.28733419 4:1 
0.5 1:1 2:0.80829736 3:0 4:0.86739118 
0.5 1:0 2:0.98470686 3:1 4:0.84876548 
-0.5 1:0 2:1 3:0.75967902 4:0.80550896 
0.5 1:0.72423084 2:0 3:0.64339095 4:1 
-0.5 1:0.81806471 2:0 3:1 4:0.41007168 
-0.5 1:1 2:0 3:0.97984398 4:0.67846385 
0.1766540659458868 1:1 2:0.39732766 3:0 4:0.31188184 
0.1847680482464495 1:0.072438006 2:0 3:1 4:0.66991217 
-0.5 1:0.066179879 2:0 3:0.61063434 4:1 
0.5 1:0.35136939 2:0 3:0.54463933 4:1 
0.1147603367268777 1:1 2:0.33174697 3:0.23271861 4:0 
-0.022309440928371 1:0.25977108 2:0.41490967 3:1 4:0 
-0.5 1:0 2:0.070394126 3:0.16628716 4:1 
0.5 1:0 2:1 3:0.73500504 4:0.63196417 
-0.5 1:1 2:0.45416285 3:0 4:0.45524163 
0.5 1:0 2:1 3:0.6316236 4:0.65206564 
-0.5 1:0.43981636 2:0 3:0.19983786 4:1 
-0.5 1:1 2:0.48676002 3:0 4:0.35150083 
0.5 1:1 2:0.10465059 3:0 4:0.82032523 
0.5 1:0 2:1 3:0.8139246 4:0.26576897 
0.5 1:1 2:0 3:0.30129102 4:0.97289363 
-0.5 1:0.97672965 2:0.70814695 3:0 4:1 
0.5 1:0 2:1 3:0.23143387 4:0.73690202 
-0.5 1:0 2:1 3:0.88544089 4:0.49000345 
-0.5 1:0.48391313 2:0 3:0.34029102 4:1 
-0.5 1:0.24111742 2:0 3:1 4:0.98863314 
0.5 1:0 2:0.7517293 3:0.50251033 4:1 
0.5 1:0.40950996 2:0.23497969 3:0 4:1 
0.5 1:0.34046728 2:0 3:1 4:0.54733907 
0.5 1:0.77370128 2:0 3:0.21464109 4:1 
-0.5 1:0.51392444 2:0 3:0.32698634 4:1 
-0.08428042032805101 1:0.44117337 2:0.55691621 3:1 4:0 
0.0726710726185114 1:1 2:0.51299083 3:0.98125994 4:0 
0.5 1:0.23295678 2:0 3:0.39481466 4:1 
0.5 1:1 2:0.39171437 3:0 4:0.31819522 
0.5 1:0.70700536 2:0 3:1 4:0.73802833 
0.5 1:0.36059434 2:0 3:1 4:0.34589877 
-0.5 1:1 2:0 3:0.87141151 4:0.4482242 
-0.5 1:1 2:0.39413225 3:0 4:0.48079511 
-0.5 1:0.91779047 2:0 3:0.16497042 4:1 
0.5 1:0.67885007 2:0 3:0.31077319 4:1 
0.5 1:0 2:0.59025 3:0.79961873 4:1 
0.5 1:0.21361363 2:0 3:0.48060057 4:1 
0.5 1:1 2:0.12995208 3:0 4:0.78748901 
0.5 1:0 2:1 3:0.44738343 4:0.75483883 
-0.5 1:1 2:0.49456521 3:0 4:0.20048792 
0.5 1:0.94479904 2:0 3:1 4:0.78253675 
-0.5 1:0 2:1 3:0.68130154 4:0.10096678 
-0.5 1:0 2:1 3:0.36108094 4:0.5858467 
0.5 1:0.30532796 2:1 3:0 4:0.43729378 
0.5 1:0.8993927 2:1 3:0 4:0.052314093 
-0.5 1:0.36678581 2:0 3:0.36946711 4:1 
-0.5 1:0 2:0.55462309 3:1 4:0.49899212 
0.5 1:0.23648878 2:0 3:0.18465428 4:1 
-0.5 1:0.49202861 2:0 3:1 4:0.9561284 
0.5 1:1 2:0 3:0.72550918 4:0.88560966 
-0.5 1:1 2:0.43970125 3:0.37102974 4:0 
0.4652726731868748 1:0 2:0.40874666 3:0.49987639 4:1 
-0.5 1:0 2:0.66621794 3:0.29099133 4:1 
-0.5 1:0 2:0.64578595 3:1 4:0.28551714 
-0.5 1:1 2:0.17577185 3:0.90012329 4:0 
0.5 1:0.10024383 2:0 3:0.17301902 4:1 
0.5 1:0.33110896 2:0 3:0.7289343 4:1 
-0.5 1:0 2:1 3:0.51025661 4:0.11143175 
0.5 1:0.14860481 2:0 3:0.26158592 4:1 
-0.5 1:1 2:0.5846136 3:0 4:0.54545684 
0.5 1:0.018744568 2:0 3:1 4:0.5530719 
-0.5 1:0.60039576 2:0 3:0.53580752 4:1 
0.5 1:1 2:0.2794082 3:0 4:0.92192906 
0.5 1:0.94568007 2:0 3:1 4:0.6421128 
0.5 1:0.22419756 2:0 3:0.34771396 4:1 
0.5 1:0 2:0.89550524 3:0.54070388 4:1 
0.5 1:0.24351682 2:0 3:1 4:0.66657981 
-0.5 1:1 2:0.60979676 3:0.86231085 4:0 
0.5 1:1 2:0.48346275 3:0.34471747 4:0 
-0.5 1:0.52982504 2:0 3:0.34385131 4:1 
0.5 1:0.32842807 2:0 3:0.37416786 4:1 
-0.4633053294293596 1:0 2:1 3:0.32686237 4:0.56107778 
-0.5 1:0.33137904 2:0 3:1 4:0.53614765 
0.5 1:0.43472867 2:0 3:1 4:0.88438317 
-0.5 1:0 2:0.032506784 3:0.342104 4:1 
0.5 1:0.215523 2:0 3:0.17879244 4:1 
-0.5 1:0.09100767 2:0 3:0.93026652 4:1 
0.5 1:1 2:0.48696686 3:0 4:0.43794399 
0.5 1:0.24248729 2:0 3:0.54584818 4:1 
-0.5 1:0.62447786 2:0.19540659 3:0 4:1 
0.5 1:0 2:0.48739356 3:0.3887559 4:1 
0.5 1:0 2:0.42326224 3:0.21615668 4:1 
-0.5 1:0.048630675 2:0 3:0.40293588 4:1 
-0.5 1:1 2:0.48876682 3:0 4:0.98275455 
-0.5 1:1 2:0.32703146 3:0 4:0.73506155 
0.5 1:1 2:0 3:0.42183223 4:0.83123494 
-0.5 1:0 2:0.2893228 3:0.37296798 4:1 
0.5 1:0.25129297 2:1 3:0 4:0.33925718 
-0.5 1:0 2:1 3:0.11285391 4:0.87874925 
0.5 1:0 2:1 3:0.82604764 4:0.62711291 
-0.5 1:1 2:0.5123623 3:0 4:0.6700857 
0.5 1:0 2:0.7767702 3:1 4:0.3536316 
-0.5 1:1 2:0 3:0.59490521 4:0.72653029 
0.5 1:0.14954733 2:0 3:1 4:0.3422199 
0.5 1:0.27502711 2:0 3:1 4:0.33738501 
0.1497055707694094 1:0.66811255 2:0 3:0.2898782 4:1 
-0.5 1:0.72785395 2:0 3:0.65734657 4:1 
0.5 1:0.13256068 2:0 3:0.21049696 4:1 
0.5 1:0.28983442 2:0 3:0.59847406 4:1 
-0.5 1:1 2:0.081756497 3:0 4:0.77301992 
-0.5 1:0.74761505 2:1 3:0.16582503 4:0 
0.5 1:0 2:1 3:0.9455277 4:0.80407066 
-0.5 1:0.54832263 2:1 3:0.84307842 4:0 
0.5 1:0 2:0.15193814 3:1 4:0.50375809 
-0.5 1:0 2:1 3:0.63838847 4:0.75236786 
-0.5 1:0.89198733 2:0.85223255 3:1 4:0 
0.5 1:0 2:1 3:0.2573752 4:0.2071095 
-0.5 1:1 2:0.18218989 3:0 4:0.50514475 
-0.5 1:0.0080266219 2:1 3:0 4:0.044519456 
-0.5 1:0.63781952 2:0 3:1 4:0.67683768 
0.5 1:0.16147974 2:0 3:0.25889214 4:1 
0.5 1:0.62319309 2:0.20598503 3:0 4:1 
-0.5 1:0.36848822 2:0 3:0.31684504 4:1 
-0.5 1:0.64978376 2:1 3:0 4:0.10241046 
0.5 1:0 2:1 3:0.8144463 4:0.40567037 
0.5 1:0 2:0.69579131 3:1 4:0.62364216 
-0.5 1:0.55010559 2:0 3:1 4:0.47663757 
0.5 1:0.70139319 2:0 3:1 4:0.5734202 
0.5 1:0 2:0.55758232 3:0.87394239 4:1 
0.5 1:0.15195182 2:0 3:0.26936129 4:1 
-0.5 1:0 2:0.26655977 3:0.71621179 4:1 
0.5 1:0 2:0.48929318 3:0.42433618 4:1 
-0.5 1:0.33515736 2:0 3:0.36391608 4:1 
0.5 1:0.40764862 2:1 3:0 4:0.27006438 
-0.5 1:1 2:0.19344029 3:0.62287871 4:0 
-0.5 1:1 2:0 3:0.33426849 4:0.11264314 
0.5 1:0.48430259 2:0 3:0.50349865 4:1 
-0.5 1:0.72066206 2:0 3:1 4:0.9839061 
0.5 1:0 2:0.71228574 3:1 4:0.15987212 
0.5 1:0.47382932 2:0.30255528 3:0 4:1 
-0.5 1:0.59515823 2:0 3:1 4:0.47308571 
-0.5 1:0 2:0.11549883 3:1 4:0.80643094 
0.5 1:0 2:0.90260325 3:1 4:0.3950952 
0.5 1:0 2:1 3:0.53734278 4:0.89940768 
0.5 1:0.38620035 2:0 3:0.71016943 4:1 
-0.5 1:1 2:0 3:0.44863603 4:0.65900914 
-0.5 1:0.16986539 2:1 3:0 4:0.15074443 
0.5 1:0.93298636 2:0 3:1 4:0.98988124 
0.5 1:1 2:0.53102557 3:0.74286865 4:0 
-0.5 1:0 2:1 3:0.081331875 4:0.56671756 
0.5 1:0 2:1 3:0.86006233 4:0.81765152 
-0.5 1:1 2:0 3:0.22431722 4:0.60452866 
-0.5 1:1 2:0 3:0.34153699 4:0.98296363 
0.5 1:0.70976816 2:0.26515835 3:0 4:1 
0.5 1:0.36406389 2:0 3:0.80027014 4:1 
0.5 1:0.67033262 2:0 3:0.77750211 4:1 
0.5 1:0 2:1 3:0.6892631 4:0.75516152 
-0.5 1:0.66993515 2:0 3:0.8477272 4:1 
0.5 1:0.69520335 2:0 3:0.38645684 4:1 
0.5 1:0 2:0.028557212 3:1 4:0.9948692 
-0.5 1:0.28506106 2:1 3:0.97958782 4:0 
0.5 1:0.26160919 2:0 3:0.29199723 4:1 
0.5 1:0 2:0.89105829 3:0.3856321 4:1 
0.5 1:0 2:1 3:0.51212409 4:0.530444 
0.5 1:0.75109162 2:0 3:0.35555277 4:1 
-0.5 1:0.43295522 2:0 3:0.36180088 4:1 
0.5 1:0.48823253 2:0 3:1 4:0.78878822 
0.5 1:0.41638525 2:0 3:1 4:0.64349627 
0.5 1:0 2:1 3:0.40598229 4:0.88454482 
0.5 1:0 2:0.84132339 3:0.99664269 4:1 
-0.5 1:0 2:1 3:0.63640479 4:0.1590649 
-0.5 1:0 2:0.94802136 3:0.41433623 4:1 
-0.5 1:0.58649663 2:0 3:0.53114049 4:1 
0.5 1:1 2:0 3:0.44637398 4:0.016438557 
-0.5 1:0 2:1 3:0.82286899 4:0.85561321 
0.5 1:0.21936653 2:0 3:0.5350721 4:1 
-0.5 1:0 2:0.98204936 3:1 4:0.98688564 
-0.5 1:0.099641296 2:0 3:0.6170149 4:1 
0.5 1:0 2:1 3:0.48227499 4:0.79534884 
0.5 1:0.69532594 2:0 3:0.37124846 4:1 
-0.5 1:0.02478302 2:0.24694882 3:0 4:1 
0.5 1:0.67914196 2:0 3:0.33031379 4:1 
-0.5 1:0.44809789 2:0 3:0.48156606 4:1 
0.5 1:0 2:0.731279 3:1 4:0.75695198 
0.5 1:0.76848389 2:0 3:0.44219784 4:1 
-0.5 1:0.31206705 2:0 3:0.64817267 4:1 
-0.02923071048521132 1:0.15693437 2:0 3:1 4:0.092031246 
-0.5 1:0.38427923 2:0 3:1 4:0.55739463 
-0.5 1:0 2:1 3:0.58888386 4:0.98090108 
-0.5 1:0 2:1 3:0.50664676 4:0.14250013 
-0.5 1:0 2:0.55523258 3:0.49808194 4:1 
0.5 1:0.70196415 2:0 3:0.34347852 4:1 
0.5 1:0 2:0.0025282325 3:1 4:0.52184179 
0.5 1:0.90053256 2:0 3:0.6740898 4:1 
0.5 1:0 2:1 3:0.64468458 4:0.67979507 
-0.5 1:0 2:1 3:0.11049758 4:0.68151245 
-0.5 1:0.62306885 2:1 3:0.25241743 4:0 
0.5 1:0.73385408 2:0 3:1 4:0.7664066 
0.5 1:0.3858897 2:0 3:0.9808242 4:1 
0.5 1:0.33209119 2:0 3:0.35230946 4:1 
0.5 1:0.39212332 2:0 3:0.65554714 4:1 
0.5 1:0 2:0.0065754303 3:1 4:0.44717968 
0.5 1:0 2:0.99487844 3:1 4:0.89211475 
-0.5 1:1 2:0 3:0.63789464 4:0.13281495 
0.5 1:0.60495464 2:0 3:1 4:0.79672469 
0.5 1:0.23565457 2:1 3:0 4:0.17819271 
-0.5 1:0.12143349 2:1 3:0.17495842 4:0 
0.5 1:0.88221709 2:0.35158187 3:0 4:1 
0.5 1:0.73834842 2:0 3:0.73997856 4:1 
0.5 1:0.91002347 2:0 3:1 4:0.58813368 
-0.5 1:0.11226718 2:0 3:0.72389363 4:1 
0.5 1:0.42272318 2:0 3:0.74215928 4:1 
0.5 1:0 2:0.63361481 3:1 4:0.13875638 
-0.5 1:0 2:1 3:0.92682551 4:0.36876668 
0.5 1:0 2:1 3:0.37394558 4:0.6976529 
0.5 1:0.28793428 2:0 3:0.41583498 4:1 
-0.5 1:0.47133295 2:0 3:0.48583927 4:1 
0.5 1:0 2:0.012052596 3:1 4:0.98292426 
0.5 1:0.71400822 2:0 3:1 4:0.92005175 
0.5 1:0.48113792 2:0 3:0.69629824 4:1 
0.5 1:0 2:0.87562141 3:0.35381074 4:1 
-0.5 1:1 2:0.12937204 3:0.62972272 4:0 
0.5 1:0.99653489 2:0 3:0.89816561 4:1 
0.5 1:0.22738556 2:0 3:0.33926375 4:1 
-0.5 1:0 2:0.60766951 3:1 4:0.63651838 
0.5 1:0.28214518 2:0 3:0.39983073 4:1 
-0.5 1:0 2:0.67662676 3:0.60202516 4:1 
0.5 1:0.27979851 2:0 3:0.11373423 4:1 
0.5 1:0.23183874 2:0 3:0.57323212 4:1 
0.5 1:0.70514671 2:0 3:0.28075246 4:1 
0.1345557225408337 1:1 2:0.60603633 3:0 4:0.03282357 
-0.5 1:0.24147528 2:0 3:0.1204761 4:1 
0.5 1:0.70406699 2:0 3:0.39930917 4:1 
0.5 1:0.27692295 2:1 3:0 4:0.3199809 
0.5 1:1 2:0.35223516 3:0 4:0.61924875 
0.5 1:0.93025816 2:0 3:1 4:0.34231482 
-0.5 1:0 2:1 3:0.96056947 4:0.84015792 
-0.5 1:1 2:0.47633202 3:0 4:0.7325526 
-0.5 1:0 2:1 3:0.1820015 4:0.85899696 
0.5 1:0 2:1 3:0.79650514 4:0.96537277 
-0.5 1:0.81839751 2:0 3:1 4:0.94415823 
-0.5 1:0 2:0.86629051 3:0.36755065 4:1 
-0.5 1:0.50532372 2:0 3:0.079399281 4:1 
0.5 1:0.67920889 2:0 3:0.33970155 4:1 
0.5 1:0 2:1 3:0.6781279 4:0.2238243 
-0.5 1:0.54099624 2:0 3:0.30339517 4:1 
-0.5 1:0 2:0.82663337 3:1 4:0.42006791 
-0.5 1:0 2:1 3:0.79979287 4:0.64459722 
-0.5 1:0.14019421 2:0 3:0.67197341 4:1 
0.5 1:0.47430988 2:0 3:1 4:0.96260244 
0.5 1:0.18276557 2:0 3:1 4:0.56241276 
-0.5 1:1 2:0.21667835 3:0 4:0.42958243 
-0.5 1:0.24118562 2:0 3:0.16884697 4:1 
-0.5 1:1 2:0 3:0.45722607 4:0.40333327 
0.5 1:0.84206254 2:0 3:1 4:0.58153874 
0.5 1:0.4249809 2:0 3:0.058683331 4:1 
0.5 1:0.77693233 2:1 3:0 4:0.14375092 
-0.5 1:0.89302886 2:0 3:0.22684315 4:1 
-0.5 1:1 2:0.0066463052 3:0.27478351 4:0 
0.5 1:0 2:0.018798202 3:1 4:0.89893241 
-0.5 1:0 2:1 3:0.12351018 4:0.70864362 
0.5 1:1 2:0.47534697 3:0 4:0.62955492 
-0.5 1:0.52523231 2:0 3:0.13485242 4:1 
-0.5 1:0 2:0.39069494 3:1 4:0.63870087 
0.5 1:0.39239522 2:0 3:1 4:0.82679309 
0.5 1:0.47716794 2:0 3:0.70007848 4:1 
0.5 1:0.12460458 2:0 3:0.16639037 4:1 
0.5 1:0.81053919 2:1 3:0.8920464 4:0 
-0.5 1:0 2:1 3:0.72080812 4:0.81747108 
-0.5 1:1 2:0 3:0.15186466 4:0.27109382 
0.5 1:0.36198294 2:0 3:0.85774537 4:1 
0.5 1:0.7006786 2:0 3:0.36115165 4:1 
-0.5 1:0.42028526 2:0 3:0.50336908 4:1 
-0.5 1:0.063209602 2:0 3:0.61810398 4:1 
-0.5 1:0 2:0.55700863 3:1 4:0.40539679 
0.5 1:0.30550658 2:0 3:0.51913085 4:1 
0.5 1:0.74534858 2:0 3:0.31947282 4:1 
-0.5 1:0.32262477 2:0 3:0.17435259 4:1 
-0.5 1:0.40099061 2:0 3:0.36859845 4:1 
-0.5 1:0.66447135 2:0 3:0.56190343 4:1 
-0.5 1:0 2:0.36119833 3:1 4:0.61748556 
0.5 1:1 2:0.37173843 3:0 4:0.45819013 
-0.5 1:0.68281911 2:0 3:1 4:0.92319393 
-0.5 1:1 2:0 3:0.45111523 4:0.68991035 
0.5 1:0.14668271 2:0.85802496 3:1 4:0 
0.5 1:1 2:0.56697176 3:0 4:0.58765057 
-0.5 1:1 2:0.41047756 3:0.62272527 4:0 
-0.5 1:0.72677719 2:1 3:0 4:0.30399229 
-0.5 1:1 2:0.53377752 3:0.84623986 4:0 
-0.5 1:1 2:0.34188894 3:0 4:0.54254857 
0.5 1:0 2:0.76808305 3:1 4:0.0093200441 
0.5 1:1 2:0.58003486 3:0.36902217 4:0 
0.5 1:0.79314167 2:0 3:0.63536682 4:1 
-0.5 1:0.041432148 2:0 3:1 4:0.33196599 
0.5 1:0.22442654 2:0 3:0.53297247 4:1 
-0.5 1:0.57890362 2:0 3:0.63873947 4:1 
-0.5 1:0.81631117 2:0.1074056 3:0 4:1 
0.5 1:0 2:0.018346821 3:1 4:0.7237467 
-0.5 1:0.35657343 2:0 3:1 4:0.59105277 
0.5 1:0 2:1 3:0.16942846 4:0.72063526 
0.5 1:1 2:0 3:0.78746333 4:0.9369258 
0.5 1:0.2137097 2:0 3:0.44476242 4:1 
-0.5 1:0 2:0.45206957 3:0.41115222 4:1 
-0.5 1:0.70926822 2:1 3:0 4:0.38291807 
0.5 1:0.44901378 2:0.89279397 3:1 4:0 
0.5 1:0.72224413 2:0 3:0.34511918 4:1 
-0.5 1:1 2:0.03554767 3:0 4:0.48155339 
0.5 1:0.71923283 2:0 3:0.36991519 4:1 
-0.5 1:1 2:0.44259939 3:0 4:0.69058196 
0.5 1:0.27490725 2:0 3:0.66105019 4:1 
0.5 1:0.21998761 2:0 3:0.32891732 4:1 
-0.5 1:0.59340462 2:0 3:0.43048035 4:1 
0.5 1:0 2:1 3:0.75251847 4:0.7189457 
-0.5 1:0 2:1 3:0.49752453 4:0.85063179 
0.5 1:0.70775735 2:0 3:0.35314418 4:1 
0.5 1:0.46522001 2:0 3:0.50414954 4:1 
0.5 1:1 2:0.078967771 3:0 4:0.72010935 
0.5 1:0.13309803 2:0 3:0.33706943 4:1 
-0.5 1:0 2:0.054535409 3:1 4:0.96069668 
0.5 1:0.21321523 2:0 3:0.57343556 4:1 
-0.5 1:0 2:0.5209177 3:0.72844352 4:1 
-0.5 1:1 2:0.2571683 3:0.25599255 4:0 
0.5 1:1 2:0.26004845 3:0 4:0.70827665 
-0.5 1:0.70030688 2:0 3:1 4:0.91949453 
0.5 1:1 2:0.59440433 3:0 4:0.017683983 
0.5 1:0.20467073 2:0 3:0.34231843 4:1 
-0.5 1:1 2:0.52167823 3:0.69323148 4:0 
-0.5 1:0 2:0.081487121 3:0.23735655 4:1 
0.5 1:0.10322991 2:0 3:0.19642725 4:1 
-0.5 1:0 2:1 3:0.61639881 4:0.72596846 
0.5 1:0.16948624 2:0 3:0.38647251 4:1 
0.5 1:0 2:1 3:0.71823383 4:0.82606868 
-0.5 1:0.29777661 2:0.3720724 3:1 4:0 
0.5 1:0.31637516 2:0 3:0.13142418 4:1 
0.5 1:0.68567667 2:0 3:0.54921989 4:1 
-0.5 1:0 2:0.044977149 3:0.3701315 4:1 
-0.5 1:1 2:0.57956688 3:0 4:0.097020471 
-0.5 1:0 2:0.43302671 3:0.62202921 4:1 
0.5 1:0.17566172 2:0 3:0.3967519 4:1 
0.5 1:0 2:1 3:0.70211086 4:0.69231219 
-0.5 1:0.060867294 2:0 3:0.5455513 4:1 
-0.5 1:0.49168978 2:0 3:0.33244094 4:1 
-0.5 1:0 2:0.35550066 3:0.86968379 4:1 
-0.5 1:0 2:1 3:0.70536676 4:0.96739122 
0.5 1:1 2:0.34022546 3:0 4:0.32960647 
0.5 1:0 2:0.52031644 3:0.74959462 4:1 
0.5 1:0 2:0.67860155 3:0.37950282 4:1 
-0.5 1:0.030021392 2:0.66240967 3:1 4:0 
-0.5 1:0.20358941 2:0 3:0.84117714 4:1 
0.5 1:1 2:0.70266683 3:0 4:0.0093555453 
-0.5 1:0.13743336 2:0 3:0.74014228 4:1 
-0.5 1:0.9713849 2:0.31365742 3:0 4:1 
0.5 1:1 2:0 3:0.95346633 4:0.49698694 
-0.5 1:1 2:0.29816651 3:0 4:0.63831726 
-0.5 1:0.47426624 2:0 3:0.27475633 4:1 
-0.5 1:1 2:0.32501193 3:0 4:0.76946101 
-0.5 1:0 2:1 3:0.4283719 4:0.95434462 
0.5 1:0 2:1 3:0.98494092 4:0.60406842 
0.5 1:0.1978213 2:0 3:0.4131163 4:1 
0.5 1:0 2:0.85913677 3:0.96003068 4:1 
-0.4012712628274044 1:1 2:0.40813477 3:0 4:0.97404143 
-0.5 1:0.43702492 2:0 3:0.10532817 4:1 
0.5 1:0 2:0.53923375 3:1 4:0.77253769 
0.5 1:0.30881787 2:0 3:0.39294964 4:1 
0.5 1:0.2506515 2:0 3:0.056067241 4:1 
0.5 1:0.28944226 2:0 3:0.53358698 4:1 
0.5 1:0.66488141 2:0.29639794 3:0 4:1 
-0.5 1:0.66013732 2:0 3:1 4:0.54457708 
0.5 1:0.38098123 2:0 3:0.38799736 4:1 
-0.5 1:0.42138723 2:0 3:0.32858887 4:1 
0.5 1:0.55742903 2:0 3:1 4:0.6784509 
0.5 1:0.44600361 2:0 3:0.88843708 4:1 
0.5 1:1 2:0 3:0.31715504 4:0.77622114 
0.5 1:0.75648218 2:0 3:0.3614461 4:1 
0.5 1:1 2:0 3:0.72016849 4:0.96638467 
0.5 1:0.69532594 2:0 3:0.37124846 4:1 
-0.5 1:0 2:0.032506784 3:0.342104 4:1 
0.5 1:0 2:0.34740617 3:0.10329506 4:1 
-0.5 1:0 2:1 3:0.082490154 4:0.22700502 
0.4089646183981055 1:0.86328652 2:1 3:0 4:0.17671844 
-0.5 1:0.96006434 2:0 3:0.34333946 4:1 
0.5 1:1 2:0 3:0.6547458 4:0.37086043 
-0.5 1:0 2:1 3:0.36219684 4:0.58974395 
0.5 1:0 2:0.55874473 3:0.81758048 4:1 
0.5 1:0.58201086 2:0 3:1 4:0.4700665 
-0.5 1:0.55772146 2:0 3:0.48437567 4:1 
0.5 1:1 2:0 3:0.34438945 4:0.67104114 
0.5 1:0.13287022 2:1 3:0.41678069 4:0 
0.5 1:0 2:0.98146146 3:0.3228262 4:1 
-0.5 1:1 2:0.36462968 3:0 4:0.60397957 
0.5 1:1 2:0.5914989 3:0 4:0.71335703 
0.5 1:0 2:1 3:0.83063182 4:0.6849322 
0.5 1:1 2:0.45248152 3:0 4:0.39087245 
-0.5 1:0.085434754 2:0 3:0.90554083 4:1 
-0.5 1:1 2:0.57347322 3:0 4:0.31358994 
0.5 1:0.0080266219 2:1 3:0 4:0.044519456 
0.5 1:0 2:0.52716763 3:0.38570211 4:1 
0.5 1:0 2:0.062829389 3:1 4:0.47846963 
0.5 1:0.24544984 2:0 3:0.50723515 4:1 
0.5 1:0.31451837 2:0 3:0.61046082 4:1 
-0.5 1:0 2:1 3:0.35026348 4:0.5377856 
0.5 1:1 2:0.34498006 3:0 4:0.33622971 
0.5 1:1 2:0.076301732 3:0 4:0.7750559 
-0.5 1:0.26500921 2:0 3:0.45970097 4:1 
-0.5 1:0.27568422 2:1 3:0.42266947 4:0 
-0.5 1:0.44052246 2:0 3:0.32052398 4:1 
-0.3187227013314776 1:0 2:1 3:0.39838258 4:0.54957404 
-0.5 1:1 2:0.30263029 3:0 4:0.79143638 
0.5 1:0.41930083 2:0 3:1 4:0.55409967 
-0.5 1:0.02243519 2:0.96151687 3:1 4:0 
0.5 1:0.071353826 2:0 3:1 4:0.57255279 
0.5 1:0.13712106 2:0 3:0.26820199 4:1 
0.5 1:0.28927035 2:0 3:0.54924559 4:1 
-0.5 1:0 2:1 3:0.71368762 4:0.3132488 
-0.5 1:0.7776292 2:0 3:1 4:0.71841339 
0.5 1:0.72806442 2:0 3:0.34016803 4:1 
-0.5 1:0.46180337 2:0 3:0.36049458 4:1 
-0.5 1:0 2:0.46902824 3:0.93465546 4:1 
-0.5 1:0.36789133 2:0 3:0.41692315 4:1 
0.5 1:0.20587871 2:0 3:0.48939342 4:1 
0.5 1:0 2:1 3:0.13047027 4:0.60624504 
-0.5 1:1 2:0.65987875 3:0 4:0.44268258 
-0.5 1:0 2:1 3:0.88665793 4:0.94242937 
0.5 1:0.35648155 2:0 3:0.58383442 4:1 
-0.5 1:0.54891967 2:0 3:0.47832923 4:1 
-0.5 1:1 2:0.36018831 3:0.25668602 4:0 
-0.4516164778186833 1:0 2:1 3:0.36426388 4:0.93442702 
-0.5 1:1 2:0 3:0.44747823 4:0.15668868 
0.5 1:0.44901596 2:0 3:0.83623442 4:1 
-0.5 1:0.74640175 2:0 3:1 4:0.94225002 
-0.0794427072847977 1:0.72479665 2:0 3:0.63983971 4:1 
-0.5 1:0.42601265 2:0 3:0.40267968 4:1 
0.5 1:0.40932814 2:0 3:1 4:0.95931034 
0.5 1:0 2:1 3:0.47296812 4:0.26351481 
0.5 1:0.64890463 2:0 3:0.41337704 4:1 
0.5 1:0.81497455 2:0 3:0.69310765 4:1 
0.5 1:1 2:0.39492976 3:0 4:0.58402202 
0.5 1:0.97618494 2:0 3:0.83516125 4:1 
0.5 1:0.70087145 2:0 3:0.35125118 4:1 
0.5 1:0.04821708 2:0.74121625 3:1 4:0 
-0.5 1:0 2:1 3:0.36426388 4:0.93442702 
-0.5 1:1 2:0.49003318 3:0.54680075 4:0 
0.5 1:0.27687803 2:0 3:0.37913401 4:1 
-0.5 1:1 2:0.43987315 3:0 4:0.68981929 
0.5 1:0.75769636 2:0 3:1 4:0.99724618 
-0.5 1:1 2:0 3:0.34438945 4:0.67104114 
-0.5 1:0.36877226 2:0 3:1 4:0.31215566 
0.5 1:0.71274925 2:0 3:1 4:0.5515883 
0.5 1:0.10957886 2:0 3:1 4:0.41360555 
-0.5 1:1 2:0.8064458 3:0 4:0.10929814 
-0.5 1:0 2:1 3:0.8929631 4:0.28999296 
-0.5 1:0.43579942 2:0 3:0.46450191 4:1 
0.5 1:0 2:1 3:0.2944579 4:0.063584862 
-0.5 1:0 2:1 3:0.36984386 4:0.58939304 
0.5 1:0 2:0.65357855 3:1 4:0.95019784 
0.5 1:0 2:1 3:0.38881558 4:0.62911252 
0.5 1:0 2:0.82433271 3:0.31482456 4:1 
-0.5 1:0.50346643 2:0 3:0.37219884 4:1 
0.5 1:0.54032455 2:0 3:0.35602831 4:1 
0.5 1:0.43043352 2:0 3:0.83094771 4:1 
-0.5 1:1 2:0.025920669 3:0 4:0.13694297 
-0.5 1:0.65670739 2:0 3:1 4:0.62858961 
-0.5 1:0.95618042 2:0 3:0.41000267 4:1 
-0.5 1:0 2:1 3:0.33976229 4:0.5484607 
-0.5 1:0 2:0.87159584 3:0.63122368 4:1 
0.5 1:0.71596165 2:0 3:0.37984947 4:1 
-0.5 1:1 2:0.8170909 3:0.56202782 4:0 
0.5 1:0.48795946 2:0 3:0.85900367 4:1 
0.5 1:0.19872097 2:0 3:0.48808531 4:1 
-0.5 1:0.85109187 2:0 3:1 4:0.99083362 
0.5 1:0 2:0.710098 3:0.8459669 4:1 
0.5 1:0.72420333 2:0 3:0.32924287 4:1 
0.5 1:0.26863997 2:0.32948252 3:0 4:1 
-0.5 1:0.90009478 2:0.22928107 3:0 4:1 
-0.5 1:0 2:1 3:0.36426388 4:0.93442702 
-0.5 1:1 2:0.39462916 3:0 4:0.34813923 
0.5 1:0.17385712 2:0 3:0.17315785 4:1 
-0.5 1:0 2:1 3:0.34207726 4:0.54617836 
0.5 1:0.30648677 2:0 3:0.7594414 4:1 
-0.5 1:0.32449824 2:0 3:1 4:0.36549294 
0.5 1:0.22243756 2:0 3:0.18770991 4:1 
-0.5 1:0.5476537 2:1 3:0.019503534 4:0 
0.5 1:0 2:1 3:0.47751089 4:0.086593147 
-0.5 1:1 2:0.22294849 3:0.84617258 4:0 
0.5 1:0.17201729 2:0 3:0.47332265 4:1 
0.5 1:0.94191747 2:0.76545025 3:0 4:1 
0.5 1:0.6335434 2:0 3:1 4:0.51162385 
0.5 1:0 2:0.5762991 3:1 4:0.57854273 
0.5 1:0.73456578 2:0 3:0.4837558 4:1 
0.5 1:1 2:0.70050577 3:0 4:0.77343827 
-0.5 1:0 2:1 3:0.77934996 4:0.39358447 
-0.5 1:0 2:1 3:0.6972902 4:0.80210773 
0.5 1:0 2:1 3:0.65258398 4:0.31829539 
0.5 1:0 2:1 3:0.43599972 4:0.53792971 
0.5 1:0.33110896 2:0 3:0.7289343 4:1 
0.3870787879581312 1:0.81904159 2:1 3:0.13566695 4:0 
-0.5 1:1 2:0.77097722 3:0.58436744 4:0 
-0.5 1:0.58148393 2:0 3:0.42740902 4:1 
0.5 1:0 2:0.84160861 3:1 4:0.63228213 
-0.5 1:1 2:0 3:0.097755784 4:0.83347513 
-0.5 1:0 2:0.64607918 3:1 4:0.20569914 
-0.5 1:0.55030092 2:0 3:0.30855851 4:1 
0.5 1:0 2:0.028462745 3:1 4:0.90954327 
-0.5 1:0.22988083 2:0 3:1 4:0.19675252 
0.5 1:0.41197782 2:0 3:0.11939159 4:1 
0.5 1:0.21572574 2:1 3:0.96840704 4:0 
-0.5 1:0.92300831 2:1 3:0.26717496 4:0 
0.5 1:0.13681951 2:0 3:0.22724068 4:1 
0.5 1:1 2:0.26258259 3:0 4:0.4233256 
-0.5 1:1 2:0.41311667 3:0.65254573 4:0 
-0.5 1:1 2:0.72299773 3:0 4:0.56980121 
-0.5 1:0.70698757 2:0 3:1 4:0.44391336 
-0.5 1:0.24226194 2:1 3:0 4:0.36106448 
0.5 1:0 2:1 3:0.36127675 4:0.60072338 
-0.5 1:0.26848368 2:0 3:1 4:0.31976277 
-0.5 1:1 2:0.58660671 3:0 4:0.32940963 
-0.5 1:0.55772146 2:0 3:0.48437567 4:1 
-0.5 1:0.63001703 2:0 3:1 4:0.77328064 
0.5 1:0 2:0.6982983 3:0.21436057 4:1 
-0.5 1:0.045805961 2:1 3:0.52346069 4:0 
0.5 1:1 2:0 3:0.40130619 4:0.69012397 
0.5 1:0.96120584 2:0 3:0.48692727 4:1 
0.5 1:0.70976816 2:0.26515835 3:0 4:1 
-0.5 1:0.54878002 2:0 3:0.43012066 4:1 
0.5 1:0.25484984 2:0 3:0.47785076 4:1 
0.5 1:0.092780528 2:1 3:0 4:0.31770078 
-0.5 1:0.733035 2:0 3:1 4:0.31187434 
0.5 1:0.73279203 2:1 3:0.21617234 4:0 
0.5 1:0 2:1 3:0.30091115 4:0.53065357 
-0.5 1:1 2:0 3:0.63150647 4:0.80419689 
0.5 1:0 2:1 3:0.93648953 4:0.43052793 
0.5 1:0 2:0.98289396 3:0.71481732 4:1 
-0.5 1:0.49081543 2:0 3:1 4:0.017361376 
0.5 1:0 2:0.52302515 3:1 4:0.35837352 
0.5 1:1 2:0.3778193 3:0.66812101 4:0 
0.5 1:0 2:0.43304935 3:1 4:0.43563874 
-0.5 1:0.81591272 2:0 3:1 4:0.79901246 
-0.5 1:0.42436732 2:0 3:0.14577741 4:1 
0.5 1:0.98394276 2:0.30939762 3:0 4:1 
-0.5 1:0.17289739 2:0 3:0.94937965 4:1 
-0.5 1:0.33130146 2:0 3:1 4:0.85540282 
0.5 1:0.72439633 2:0 3:0.63791588 4:1 
-0.5 1:1 2:0.62540235 3:0.64402337 4:0 
-0.5 1:0 2:0.23432823 3:0.079105099 4:1 
0.5 1:1 2:0.12322398 3:0.65859667 4:0 
0.5 1:1 2:0.46759666 3:0 4:0.43531823 
-0.5 1:0.52642724 2:0 3:0.69815231 4:1 
0.5 1:0.44634553 2:0 3:0.36499416 4:1 
-0.5 1:0 2:0.51044971 3:0.29360872 4:1 
0.5 1:0 2:1 3:0.61617734 4:0.94433776 
0.5 1:0.76794864 2:0 3:1 4:0.45758617 
0.5 1:0.15396429 2:1 3:0 4:0.2892017 
-0.5 1:0.56475679 2:0 3:0.60756317 4:1 
0.5 1:0 2:1 3:0.54520973 4:0.58800743 
-0.5 1:1 2:0.70568106 3:0.47344419 4:0 
0.5 1:0.82489964 2:0 3:0.55635671 4:1 
-0.5 1:0.097291527 2:0 3:0.61360037 4:1 
-0.5 1:1 2:0.5376737 3:0.16835003 4:0 
0.5 1:1 2:0 3:0.34438945 4:0.67104114 
-0.5 1:0.8861081 2:0 3:0.048088446 4:1 
0.5 1:1 2:0.42658107 3:0 4:0.7291024 
0.5 1:0 2:1 3:0.61684447 4:0.69688219 
-0.5 1:1 2:0.28791203 3:0 4:0.42749664 
-0.5 1:0.8990497 2:0.014371626 3:0 4:1 
0.5 1:0.63814961 2:0.88511848 3:0 4:1 
0.5 1:0.7104691 2:0 3:0.33277972 4:1 
0.5 1:0.82979648 2:0 3:0.86812346 4:1 
0.5 1:0 2:0.60214512 3:1 4:0.025442222 
0.5 1:0.76810556 2:0 3:0.39388813 4:1 
-0.5 1:0 2:0.20315391 3:0.89960925 4:1 
-0.5 1:0 2:0.075988006 3:0.40262087 4:1 
0.5 1:0 2:1 3:0.50361494 4:0.70924399 
-0.5 1:0.62459315 2:0 3:0.61326331 4:1 
-0.5 1:1 2:0.53848845 3:0 4:0.27075882 
-0.5 1:0.032788789 2:1 3:0 4:0.15540952 
0.5 1:0.19294262 2:0 3:0.1229843 4:1 
0.5 1:0 2:0.52902006 3:0.77437971 4:1 
0.5 1:0.70327564 2:0 3:0.39085374 4:1 
0.5 1:1 2:0 3:0.68981613 4:0.60944965 
-0.5 1:0.53904762 2:0.046840979 3:0 4:1 
0.5 1:1 2:0.43440853 3:0 4:0.39233683 
0.5 1:0.18606766 2:0 3:0.47047825 4:1 
-0.5 1:0.10837863 2:0 3:1 4:0.22308118 
-0.5 1:0.066728221 2:1 3:0 4:0.2876307 
0.5 1:0.14669495 2:0 3:0.36052661 4:1 
0.5 1:0.6716222 2:0 3:0.31825343 4:1 
-0.5 1:0.69706993 2:0 3:0.95671414 4:1 
0.5 1:0.3724048 2:0 3:0.36745961 4:1 
0.5 1:0 2:1 3:0.54734677 4:0.58865643 
-0.5 1:1 2:0.29732842 3:0 4:0.66934141 
-0.5 1:0.11055046 2:1 3:0 4:0.10247516 
0.5 1:0.26148316 2:0 3:0.36059644 4:1 
0.5 1:0 2:1 3:0.59070063 4:0.74833744 
0.5 1:0.14548005 2:0 3:1 4:0.50890713 
0.5 1:0.032788789 2:1 3:0 4:0.15540952 
-0.5 1:0 2:1 3:0.75307459 4:0.1697978 
0.5 1:0.40091239 2:0 3:0.80517136 4:1 
-0.5 1:0.2270315 2:0 3:0.92625232 4:1 
-0.5 1:0.58813679 2:0 3:0.47564451 4:1 
-0.5 1:0.58476025 2:0 3:0.46609761 4:1 
0.5 1:0.30331528 2:1 3:0 4:0.25236451 
0.5 1:0.71542924 2:0 3:0.29577118 4:1 
-0.5 1:0.22802143 2:1 3:0 4:0.43496839 
-0.5 1:0.60663348 2:0 3:0.57261472 4:1 
0.5 1:0.30670587 2:0 3:1 4:0.56571444 
0.5 1:0 2:1 3:0.732623 4:0.47648943 
0.5 1:0 2:1 3:0.87793657 4:0.61336525 
-0.5 1:1 2:0.19433004 3:0.57576219 4:0 
-0.5 1:0 2:0.036386036 3:0.35677431 4:1 
-0.5 1:1 2:0.77953298 3:0 4:0.52141238 
0.5 1:0 2:0.50168826 3:0.054914986 4:1 
0.5 1:0.25354911 2:1 3:0 4:0.38741281 
-0.5 1:0 2:1 3:0.90775038 4:0.51951833 
0.5 1:0.11272386 2:0 3:1 4:0.10013254 
-0.5 1:0 2:0.72982891 3:0.083384682 4:1 
-0.5 1:0.19575818 2:0 3:1 4:0.40766954 
-0.5 1:0 2:1 3:0.57091123 4:0.80773559 
0.5 1:0.68789909 2:0 3:0.3684625 4:1 
0.5 1:1 2:0.39398577 3:0.46715193 4:0 
-0.5 1:0 2:1 3:0.62980157 4:0.83191492 
-0.5 1:0.51879542 2:0 3:0.18834939 4:1 
0.5 1:0.47529612 2:0 3:0.82332094 4:1 
0.5 1:0 2:0.71661027 3:0.66524827 4:1 
0.5 1:0.71484353 2:1 3:0 4:0.087855578 
0.5 1:0.64789394 2:0 3:0.14269802 4:1 
-0.5 1:0.36710569 2:0 3:0.08474538 4:1 
-0.5 1:0 2:0.73192349 3:0.70780755 4:1 
0.5 1:0.83329974 2:0 3:1 4:0.50714596 
-0.5 1:0 2:0.99878589 3:1 4:0.59799477 
-0.260513547690301 1:0 2:1 3:0.38374632 4:0.53617337 
0.5 1:1 2:0.73234466 3:0 4:0.73251816 
0.5 1:1 2:0 3:0.63802805 4:0.73603689 
-0.5 1:0.23565457 2:1 3:0 4:0.17819271 
-0.5 1:0.60085833 2:0 3:1 4:0.90004833 
-0.5 1:0 2:0.93583596 3:1 4:0.25368063 
-0.5 1:0.14341795 2:0 3:0.70702165 4:1 
0.5 1:0.40944578 2:0 3:1 4:0.48155968 
-0.5 1:0 2:0.16485268 3:0.4353948 4:1 
0.5 1:0 2:0.6742613 3:0.905105 4:1 
-0.5 1:0.13755401 2:0 3:1 4:0.46923035 
-0.5 1:0.29938067 2:0 3:1 4:0.26191971 
-0.5 1:0 2:0.068355335 3:0.37610865 4:1 
0.5 1:1 2:0.28676357 3:0 4:0.58041225 
-0.5 1:0 2:1 3:0.12415274 4:0.16270063 
0.5 1:0.22233312 2:0 3:1 4:0.25612621 
-0.5 1:0 2:1 3:0.8708852 4:0.5833674 
-0.5 1:0.49811262 2:0 3:0.045806211 4:1 
0.5 1:1 2:0 3:0.28011422 4:0.35016544 
0.5 1:0.69789456 2:0 3:0.38508805 4:1 
-0.5 1:0.47898853 2:0 3:0.38502721 4:1 
-0.5 1:0 2:1 3:0.48228348 4:0.90087909 
0.5 1:0 2:1 3:0.5487003 4:0.93580651 
0.5 1:0.25517714 2:0 3:0.42591376 4:1 
0.5 1:0.37993901 2:1 3:0 4:0.22163583 
-0.4693440028305327 1:0.91909489 2:0 3:0.36386988 4:1 
0.5 1:0 2:1 3:0.63494981 4:0.80534591 
0.5 1:0 2:0.24323696 3:1 4:0.26748391 
0.5 1:1 2:0.70307911 3:0.54356166 4:0 
0.5 1:1 2:0.46551489 3:0 4:0.40780097 
-0.5 1:0.36171434 2:0 3:0.56748221 4:1 
-0.5 1:0.43009472 2:0 3:0.376363 4:1 
-0.5 1:0 2:1 3:0.82606795 4:0.60860697 
0.5 1:0.5476001 2:0 3:0.41097928 4:1 
0.5 1:0.28195774 2:0 3:0.60717654 4:1 
-0.5 1:0.50859466 2:0 3:0.35080437 4:1 
-0.5 1:0 2:0.70542433 3:0.46512677 4:1 
0.5 1:0.62286301 2:0 3:0.108264 4:1 
-0.5 1:0 2:0.0046670873 3:1 4:0.68579704 
0.5 1:0.29680706 2:0 3:0.50737225 4:1 
0.5 1:0.15382487 2:0 3:1 4:0.040217077 
-0.5 1:0.59437652 2:0.48890547 3:0 4:1 
-0.5 1:0.43214489 2:0 3:0.44876963 4:1 
-0.5 1:0 2:0.107365 3:0.15849572 4:1 
0.5 1:1 2:0 3:0.72258808 4:0.60871141 
0.5 1:0.71011507 2:0 3:1 4:0.66748473 
-0.5 1:1 2:0 3:0.34438945 4:0.67104114 
0.5 1:0.45847455 2:0 3:0.50228418 4:1 
0.5 1:0.17952737 2:0 3:0.37970941 4:1 
0.5 1:1 2:0 3:0.85460606 4:0.58209274 
0.5 1:0 2:1 3:0.52007993 4:0.99325514 
-0.5 1:0 2:1 3:0.56775822 4:0.77635179 
-0.5 1:1 2:0.56217596 3:0 4:0.67235811 
0.5 1:1 2:0.32703146 3:0 4:0.73506155 
-0.5 1:1 2:0.12417695 3:0 4:0.50405649 
-0.5 1:0.69592194 2:0 3:0.76955508 4:1 
0.5 1:0.3948562 2:0 3:0.53367805 4:1 
0.5 1:0.73372335 2:0 3:0.30193003 4:1 
0.5 1:0.2789822 2:0 3:1 4:0.60972405 
-0.5 1:0.84873232 2:0 3:1 4:0.93468153 
-0.5 1:0.85801444 2:0 3:1 4:0.91227915 
0.5 1:0 2:0.94428914 3:0.5736676 4:1 
0.5 1:1 2:0.025920669 3:0 4:0.13694297 
-0.5 1:1 2:0 3:0.24560201 4:0.78245139 
-0.5 1:1 2:0.35853437 3:0.5600067 4:0 
-0.5 1:0.56212116 2:0 3:0.38276098 4:1 
-0.5 1:1 2:0.57132505 3:0 4:0.53840086 
-0.5 1:0.5603863 2:0 3:0.42271168 4:1 
-0.5 1:0.41006152 2:0 3:0.34585889 4:1 
-0.5 1:1 2:0.42954214 3:0 4:0.64036496 
0.5 1:0.0080266219 2:1 3:0 4:0.044519456 
0.5 1:1 2:0 3:0.078284179 4:0.8851086 
-0.5 1:0.72377487 2:0 3:0.044584169 4:1 
-0.5 1:0.60739808 2:0 3:0.46076482 4:1 
0.5 1:0.59570484 2:0 3:1 4:0.85376539 
-0.5 1:0.52367224 2:0 3:0.36025017 4:1 
0.5 1:0.71635713 2:0 3:0.51850311 4:1 
-0.5 1:1 2:0.25358415 3:0 4:0.43022513 
0.5 1:0.75652952 2:0 3:1 4:0.30901196 
-0.5 1:1 2:0 3:0.18637734 4:0.18847728 
0.5 1:0.39463074 2:0.14611362 3:1 4:0 
-0.5 1:0.42601265 2:0 3:0.40267968 4:1 
-0.4054940608151325 1:0 2:1 3:0.36426388 4:0.93442702 
0.5 1:0.02994766 2:1 3:0 4:0.33684124 
-0.5 1:0.58922688 2:0 3:0.54187567 4:1 
0.5 1:0.71175227 2:0.015331327 3:0 4:1 
-0.5 1:0 2:0.83197826 3:1 4:0.13469339 
0.5 1:0.83309099 2:0 3:0.63046624 4:1 
0.5 1:0.221414 2:0 3:0.38142957 4:1 
0.5 1:1 2:0.31160626 3:0 4:0.59428667 
-0.5 1:0.28863313 2:0 3:0.23982298 4:1 
0.5 1:1 2:0.30614359 3:0.60782059 4:0 
0.5 1:0.7521674 2:0 3:0.55788092 4:1 
0.5 1:1 2:0 3:0.60510591 4:0.7407562 
-0.5 1:0.46880969 2:0 3:1 4:0.84916598 
-0.5 1:0.32747224 2:0 3:0.79806301 4:1 
0.5 1:0.37131714 2:1 3:0.77612757 4:0 
-0.5 1:0 2:0.20130918 3:1 4:0.34373602 
-0.5 1:0.46000267 2:0 3:0.45262198 4:1 
0.5 1:0.27996045 2:0 3:0.69833556 4:1 
-0.5 1:0.14460683 2:0 3:0.7997534 4:1 
0.5 1:0.16139568 2:0 3:1 4:0.50239631 
-0.5 1:0.97514426 2:0 3:0.26907722 4:1 
0.5 1:0.24077352 2:0 3:1 4:0.31766191 
0.5 1:0 2:1 3:0.28671919 4:0.30926547 
-0.5 1:0 2:1 3:0.60489902 4:0.82193646 
0.5 1:0 2:1 3:0.3224896 4:0.043944269 
-0.5 1:0.60901442 2:0 3:0.51515677 4:1 
-0.5 1:0 2:0.98104461 3:0.67410674 4:1 
0.5 1:0 2:1 3:0.17036597 4:0.88558992 
-0.5 1:0 2:1 3:0.8428541 4:0.25576481 
0.5 1:0.21759129 2:0 3:0.12565283 4:1 
-0.5 1:1 2:0.37860947 3:0 4:0.46652069 
-0.5 1:0 2:0.70108156 3:0.52008151 4:1 
0.5 1:1 2:0.76245418 3:0.4522253 4:0 
0.5 1:0 2:1 3:0.48480439 4:0.59441857 
-0.5 1:0.55225256 2:0 3:1 4:0.66762042 
0.5 1:0.4182115 2:0 3:1 4:0.94989112 
0.5 1:1 2:0.31208542 3:0.54764099 4:0 
-0.5 1:1 2:0 3:0.053846276 4:0.27261149 
0.5 1:0 2:1 3:0.42405914 4:0.72914081 
-0.5 1:0.99200554 2:0.68288473 3:0 4:1 
-0.5 1:0.52712006 2:0 3:0.46347155 4:1 
-0.5 1:1 2:0.5339102 3:0 4:0.55343061 
-0.5 1:0 2:0.35778439 3:0.29115464 4:1 
-0.5 1:0 2:0.39006747 3:0.47432233 4:1 
-0.5 1:0.53906754 2:0 3:0.74269377 4:1 
0.5 1:0.2192073 2:0 3:0.52952038 4:1 
-0.5 1:0.90980747 2:0 3:1 4:0.44892756 
0.1264881184370187 1:0.084195654 2:0 3:0.082501438 4:1 
-0.5 1:0.55708647 2:0 3:0.40245089 4:1 
-0.5 1:0.14602498 2:0 3:0.85585703 4:1 
0.5 1:1 2:0.036147652 3:0.19143589 4:0 
-0.5 1:0.50019907 2:0 3:0.30192659 4:1 
0.5 1:0.19099415 2:0.81403843 3:0 4:1 
0.5 1:0.28103415 2:0 3:0.25651682 4:1 
0.5 1:0.88272507 2:0.5767644 3:1 4:0 
0.5 1:0.24171869 2:0 3:1 4:0.6294011 
0.5 1:1 2:0.58352836 3:0.43181651 4:0 
-0.1625251989432798 1:1 2:0 3:0.45296805 4:0.010909022 
0.5 1:0 2:0.62120911 3:0.8479162 4:1 
-0.5 1:0.4960276 2:0 3:0.41990636 4:1 
0.5 1:1 2:0.39730652 3:0 4:0.37049302 
0.5 1:0.66221834 2:0 3:0.80295951 4:1 
-0.5 1:0 2:1 3:0.58951604 4:0.94885317 
-0.5 1:0.24746148 2:0 3:1 4:0.37867829 
-0.5 1:1 2:0.6163873 3:0.84978243 4:0 
0.5 1:0.29836527 2:0.18144064 3:0 4:1 
-0.5 1:1 2:0.36821536 3:0.58716414 4:0 
-0.5 1:0.89416811 2:0 3:0.27596042 4:1 
0.5 1:0.3655415 2:0 3:1 4:0.35358856 
0.5 1:0.15149205 2:0 3:0.30546519 4:1 
0.5 1:0.6263896 2:0 3:1 4:0.83523716 
0.5 1:0 2:1 3:0.11571903 4:0.44133164 
0.5 1:1 2:0.81701156 3:0.71708314 4:0 
-0.5 1:1 2:0 3:0.48339127 4:0.049159635 
-0.5 1:0.11352444 2:0 3:0.73834969 4:1 
0.5 1:0.32249262 2:0 3:0.55275687 4:1 
-0.5 1:0.46180337 2:0 3:0.36049458 4:1 
-0.5 1:0.95518164 2:0 3:0.25787914 4:1 
0.5 1:0 2:1 3:0.37143906 4:0.63092297 
-0.5 1:0.95490256 2:0 3:0.24227586 4:1 
-0.5 1:0.22405314 2:0 3:1 4:0.31430736 
-0.5 1:0 2:1 3:0.66558923 4:0.88178286 
0.00216205178988513 1:0.96300187 2:0 3:1 4:0.24441715 
0.5 1:1 2:0 3:0.092937553 4:0.93969016 
-0.5 1:0.080934569 2:1 3:0 4:0.031278619 
-0.5 1:0.49523402 2:0 3:1 4:0.53961961 
0.2799410547823963 1:1 2:0.5141073 3:0 4:0.010790172 
0.5 1:0 2:1 3:0.55451267 4:0.38308874 
-0.5 1:0.17280296 2:0 3:0.73344605 4:1 
0.5 1:0 2:1 3:0.28693448 4:0.76285872 
-0.5 1:0.087701651 2:0 3:0.71806932 4:1 
-0.5 1:0.94637094 2:0 3:1 4:0.22666054 
0.5 1:0.22002768 2:0 3:0.55434342 4:1 
0.5 1:0 2:1 3:0.93566285 4:0.17296324 
0.5 1:1 2:0.20033964 3:0 4:0.89334662 
0.5 1:1 2:0 3:0.12838382 4:0.26097467 
-0.5 1:0.42466039 2:0 3:0.21284451 4:1 
0.5 1:1 2:0.3080168 3:0 4:0.39495964 
-0.5 1:0.37024963 2:0 3:0.35181775 4:1 
-0.5 1:0.83757638 2:0 3:1 4:0.943202 
-0.5 1:0.060483475 2:0 3:0.58197209 4:1 
0.5 1:1 2:0.40843529 3:0 4:0.61646793 
-0.5 1:1 2:0.90382836 3:0 4:0.56201544 
0.5 1:1 2:0 3:0.018323396 4:0.44553121 
0.5 1:0.32139349 2:0 3:0.50316792 4:1 
0.5 1:0.60893257 2:0 3:0.17027922 4:1 
-0.5 1:0.50695573 2:0 3:0.13927381 4:1 
-0.5 1:0.47526821 2:0 3:0.094450261 4:1 
-0.5 1:0.46916561 2:0 3:0.33409337 4:1 
0.5 1:0.30724756 2:0 3:0.14489639 4:1 
-0.5 1:0.42886531 2:0 3:0.33277648 4:1 
-0.5 1:0.52385536 2:0 3:0.21974274 4:1 
0.5 1:1 2:0.22182135 3:0 4:0.21315094 
-0.5 1:0.11380185 2:0 3:0.72630609 4:1 
0.5 1:0.35444971 2:0 3:0.65487734 4:1 
0.5 1:0.29181936 2:0 3:0.11089492 4:1 
-0.5 1:0 2:0.97276069 3:0.44787494 4:1 
-0.3616986394112002 1:0 2:1 3:0.13799187 4:0.36921418 
0.2367995548618866 1:0 2:0.004023712 3:0.82138694 4:1 
0.5 1:1 2:0.43323724 3:0 4:0.3679909 
0.5 1:0.16986539 2:1 3:0 4:0.15074443 
-0.5 1:0.52292078 2:0 3:0.45509308 4:1 
0.5 1:0.36809518 2:0 3:0.71589821 4:1 
0.5 1:0.52182784 2:0 3:0.58268002 4:1 
-0.5 1:0.29565858 2:0 3:0.65830802 4:1 
0.5 1:0.53192392 2:0 3:0.58087895 4:1 
0.5 1:0.62394911 2:0 3:0.45612613 4:1 
-0.5 1:0 2:0.73457025 3:0.64447378 4:1 
0.5 1:0 2:0.91939149 3:1 4:0.81166946 
0.5 1:0.31877469 2:0 3:1 4:0.12759734 
-0.5 1:0.15510697 2:0 3:0.24162055 4:1 
-0.5 1:0 2:1 3:0.33976229 4:0.5484607 
-0.5 1:1 2:0 3:0.4034777 4:0.28309225 
0.5 1:0.11046528 2:0 3:0.13408434 4:1 
-0.5 1:0.61638905 2:0 3:0.48456844 4:1 
-0.5 1:0 2:0.74492114 3:1 4:0.025818559 
-0.5 1:1 2:0 3:0.33426572 4:0.90444817 
-0.5 1:0.083237246 2:0 3:0.72942519 4:1 
-0.5 1:0 2:1 3:0.38212131 4:0.56145539 
0.5 1:0 2:1 3:0.94405403 4:0.56623365 
-0.5 1:0.46685278 2:0 3:0.76557285 4:1 
0.5 1:0.62789195 2:0 3:0.74956088 4:1 
-0.5 1:0.52792915 2:0 3:0.58656753 4:1 
0.5 1:1 2:0 3:0.15834705 4:0.39923466 
-0.5 1:0.72336223 2:0 3:0.716317 4:1 
-0.003385911563804575 1:0 2:0.35560165 3:0.91203856 4:1 
0.5 1:0.0080266219 2:1 3:0 4:0.044519456 
0.5 1:0.6554689 2:0 3:1 4:0.9452829 
0.5 1:1 2:0.60061339 3:0 4:0.7311887 
0.5 1:0.71227909 2:0 3:0.35903083 4:1 
-0.5 1:0.7079484 2:0 3:0.90048857 4:1 
-0.5 1:0 2:1 3:0.33976229 4:0.5484607 
0.5 1:0 2:1 3:0.44224109 4:0.69800694 
-0.5 1:0.47400559 2:0 3:0.2449004 4:1 
-0.5 1:1 2:0 3:0.041001925 4:0.84917651 
0.5 1:0 2:1 3:0.37969111 4:0.69154243 
-0.5 1:0.81839751 2:0 3:1 4:0.94415823 
-0.5 1:0 2:1 3:0.55088477 4:0.18998693 
0.5 1:0.69813543 2:0 3:1 4:0.608274 
0.5 1:0 2:0.32824994 3:1 4:0.48138768 
0.5 1:0 2:0.59208488 3:0.51809152 4:1 
-0.5 1:0.50493458 2:0 3:0.40685266 4:1 
-0.5 1:0.89648484 2:0 3:1 4:0.73909684 
0.5 1:0 2:0.079515401 3:0.98030199 4:1 
-0.5 1:0.61214589 2:0 3:0.48014001 4:1 
0.5 1:0.10978091 2:0 3:1 4:0.36611589 
0.5 1:0.46751955 2:0 3:0.76098551 4:1 
-0.5 1:0.052445741 2:0 3:0.54685427 4:1 
0.5 1:0.034021483 2:0 3:0.9524638 4:1 
0.5 1:0.59170207 2:0 3:1 4:0.792853 
0.5 1:0.70829779 2:0 3:0.35689393 4:1 
0.5 1:0 2:0.28099582 3:1 4:0.26117384 
0.5 1:1 2:0.62044161 3:0.49169535 4:0 
-0.5 1:0.60809461 2:0 3:0.46750243 4:1 
0.5 1:0.81031158 2:0 3:0.68837917 4:1 
-0.5 1:0 2:1 3:0.9329556 4:0.8025253 
-0.5 1:0.63321854 2:0 3:0.67854869 4:1 
-0.5 1:1 2:0.44365646 3:0.16355728 4:0 
-0.5 1:0.889026 2:0 3:1 4:0.84867236 
0.5 1:1 2:0 3:0.92271932 4:0.77413403 
0.5 1:0 2:0.94149288 3:0.35456421 4:1 
-0.5 1:0.12351225 2:0 3:1 4:0.10833953 
-0.5 1:0 2:1 3:0.74240583 4:0.8050216 
-0.5 1:0.076315103 2:0 3:0.61209454 4:1 
-0.5 1:0.19572602 2:0 3:1 4:0.94592219 
0.5 1:0 2:1 3:0.61370178 4:0.65938337 
0.5 1:0 2:1 3:0.80464292 4:0.065803047 
-0.5 1:0.51599362 2:0 3:0.023534128 4:1 
-0.5 1:0 2:1 3:0.19028177 4:0.09742967 
-0.5 1:0.80701797 2:0 3:0.78271844 4:1 
-0.5 1:0 2:1 3:0.38783426 4:0.58393254 
0.5 1:0.65329956 2:0 3:1 4:0.92170857 
0.5 1:1 2:0.5542192 3:0.42515953 4:0 
-0.5 1:1 2:0.56722714 3:0 4:0.34164289 
-0.5 1:0.23832472 2:0 3:1 4:0.66176875 
0.5 1:0.70434614 2:0 3:0.35086336 4:1 
0.5 1:0.59487247 2:0 3:0.42883821 4:1 
-0.5 1:0 2:0.64511775 3:0.6007212 4:1 
-0.5 1:0.36987275 2:0 3:0.3782486 4:1 
-0.5 1:0.1937267 2:1 3:0.08404362 4:0 
-0.5 1:0.35905707 2:0.29436425 3:0 4:1 
0.5 1:0.42081754 2:0 3:1 4:0.51034579 
-0.5 1:0.081789637 2:0 3:0.18486853 4:1 
-0.5 1:0.10937313 2:0 3:0.64117133 4:1 
0.5 1:1 2:0.42383971 3:0.69062519 4:0 
0.5 1:0.61551872 2:0 3:0.12445774 4:1 
-0.5 1:0.37738412 2:0 3:0.32046121 4:1 
0.5 1:1 2:0.51430999 3:0.48564888 4:0 
-0.5 1:0 2:0.013277973 3:0.13229524 4:1 
-0.5 1:0.53304486 2:0 3:0.540068 4:1 
-0.5 1:0.77060604 2:0 3:0.94607892 4:1 
0.5 1:0.69311995 2:1 3:0 4:0.35956789 
-0.5 1:0 2:1 3:0.818665 4:0.71527345 
0.5 1:0 2:1 3:0.68135148 4:0.51428813 
0.5 1:0 2:0.013575783 3:1 4:0.6126816 
0.5 1:0.69548161 2:0 3:0.60712725 4:1 
0.5 1:0.23037077 2:0 3:0.42711259 4:1 
-0.5 1:0 2:0.80472264 3:1 4:0.75535185 
0.5 1:0 2:1 3:0.27407519 4:0.43416451 
0.5 1:1 2:0.025920669 3:0 4:0.13694297 
-0.5 1:0 2:0.42120474 3:1 4:0.20381032 
0.2531920515029095 1:1 2:0.65432747 3:0.36221496 4:0 
-0.5 1:0.32886087 2:0 3:0.41269034 4:1 
0.5 1:0 2:0.007467643 3:0.89494098 4:1 
-0.5 1:1 2:0 3:0.38699227 4:0.95849109 
-0.5 1:0.649004 2:0 3:0.5795115 4:1 
-0.5 1:0.87531747 2:0 3:0.13920741 4:1 
0.5 1:0.67333999 2:0 3:0.32700507 4:1 
-0.5 1:0.79785242 2:0 3:1 4:0.8682015 
0.5 1:1 2:0.39732766 3:0 4:0.31188184 
-0.5 1:0 2:1 3:0.37486228 4:0.56210173 
0.5 1:1 2:0.3819196 3:0 4:0.52241545 
0.5 1:0 2:1 3:0.49743395 4:0.71654041 
0.5 1:1 2:0.7046496 3:0.68349762 4:0 
0.5 1:0 2:1 3:0.51514929 4:0.54269914 
-0.5 1:0.49590952 2:0 3:0.64036214 4:1 
0.5 1:0 2:0.70837671 3:1 4:0.98471676 
0.5 1:0 2:0.42917015 3:1 4:0.61879423 
0.5 1:1 2:0.3399371 3:0 4:0.55824976 
0.5 1:0.32954588 2:0 3:0.42291498 4:1 
0.0863604643799064 1:1 2:0 3:0.28339541 4:0.33100181 
0.5 1:0.66961758 2:0 3:1 4:0.87368969 
0.5 1:0.32034909 2:0 3:0.17626279 4:1 
0.5 1:0.68485098 2:0 3:1 4:0.70969628 
-0.5 1:1 2:0.43827447 3:0.55491535 4:0 
0.5 1:0.6832521 2:0 3:0.31509614 4:1 
0.5 1:0.33301048 2:0 3:1 4:0.65530795 
0.5 1:1 2:0.51457125 3:0.47520569 4:0 
-0.5 1:0.65334987 2:0 3:0.58219933 4:1 
-0.5 1:0.64427221 2:0 3:1 4:0.067394687 
0.5 1:1 2:0.27506777 3:0 4:0.1845566 
-0.5 1:0.61235589 2:0 3:0.70669834 4:1 
0.5 1:0.96900361 2:0 3:1 4:0.93573145 
-0.5 1:1 2:0.63463543 3:0.3530302 4:0 
-0.5 1:0.47898853 2:0 3:0.38502721 4:1 
-0.5 1:1 2:0.5542192 3:0.42515953 4:0 
-0.5 1:0.71480905 2:0 3:1 4:0.71780904 
-0.5 1:0.88962572 2:0 3:1 4:0.67861471 
0.5 1:1 2:0 3:0.073608461 4:0.39020618 
0.5 1:0.44123415 2:0 3:1 4:0.78927803 
0.5 1:1 2:0.55366592 3:0 4:0.79697081 
-0.5 1:0 2:0.86114277 3:0.31990991 4:1 
0.5 1:1 2:0.59898462 3:0 4:0.019550172 
-0.5 1:0 2:1 3:0.93440539 4:0.65253833 
0.5 1:0.71350874 2:0.11379123 3:1 4:0 
-0.5 1:1 2:0 3:0.29871447 4:0.31509391 
0.5 1:0.68434892 2:0 3:0.31092029 4:1 
0.5 1:0.0080266219 2:1 3:0 4:0.044519456 
0.5 1:0.26768361 2:0 3:0.58826703 4:1 
-0.5 1:0.33139965 2:0 3:0.040308042 4:1 
0.5 1:0.88737482 2:0 3:1 4:0.42859718 
0.5 1:1 2:0 3:0.95586984 4:0.28882028 
-0.5 1:0 2:0.35516591 3:0.86922922 4:1 
0.5 1:0.54363267 2:0 3:0.0065940417 4:1 
0.5 1:1 2:0.35010831 3:0 4:0.70556102 
0.5 1:1 2:0.47215831 3:0.46146035 4:0 
0.5 1:0.25169263 2:0 3:0.5147569 4:1 
-0.5 1:0.6077203 2:0 3:0.52491677 4:1 
0.5 1:0 2:1 3:0.4563355 4:0.87253146 
0.5 1:0.47889238 2:0 3:1 4:0.9519805 
0.5 1:0 2:0.65193662 3:1 4:0.75100934 
0.5 1:0.067310568 2:0 3:1 4:0.062896433 
-0.5 1:0 2:1 3:0.73430952 4:0.85616978 
0.5 1:0.0080266219 2:1 3:0 4:0.044519456 
-0.5 1:1 2:0.44103278 3:0 4:0.6086846 
0.5 1:0.4272995 2:0 3:0.262945 4:1 
0.5 1:1 2:0.52239196 3:0.59900104 4:0 
-0.5 1:1 2:0.52167823 3:0.69323148 4:0 
0.5 1:0 2:0.26277625 3:1 4:0.57972798 
-0.5 1:0 2:0.044338474 3:1 4:0.3715701 
0.5 1:1 2:0.37401165 3:0 4:0.60007805 
0.5 1:1 2:0.58350599 3:0.60348767 4:0 
0.5 1:0.59926484 2:0 3:1 4:0.79413061 
-0.5 1:1 2:0.48592527 3:0 4:0.74336176 
-0.5 1:0.35938992 2:0 3:0.30254868 4:1 
-0.5 1:0.30577106 2:0 3:1 4:0.30422803 
0.5 1:0.2650733 2:0 3:0.51191702 4:1 
0.5 1:0 2:1 3:0.81461531 4:0.91499376 
-0.5 1:0 2:0.9673205 3:1 4:0.47386406 
-0.5 1:0.74570596 2:0 3:1 4:0.85341685 
-0.5 1:1 2:0 3:0.77325629 4:0.63568046 
0.5 1:0.72835042 2:0 3:1 4:0.56989523 
-0.5 1:0 2:0.73338145 3:0.48422444 4:1 
0.5 1:0.82525636 2:0 3:1 4:0.59329635 
0.5 1:0 2:1 3:0.52945849 4:0.29442798 
-0.1386056046447445 1:0.3216996 2:0 3:1 4:0.21947316 
-0.5 1:0 2:0.44129557 3:0.71514706 4:1 
-0.5 1:0.54441123 2:0 3:0.35863174 4:1 
-0.5 1:1 2:0.29958801 3:0.043045979 4:0 
0.5 1:0.73387793 2:0 3:0.35157381 4:1 
0.5 1:0 2:0.082102065 3:1 4:0.10541139 
0.5 1:0.21317193 2:0.17932128 3:0 4:1 
-0.5 1:0.32152696 2:0 3:0.27695176 4:1 
0.5 1:1 2:0.37018639 3:0 4:0.55339535 
-0.5 1:0.027770772 2:0 3:0.30694865 4:1 
-0.5 1:0.98615512 2:0 3:0.16190661 4:1 
-0.5 1:0.87571322 2:0.26570225 3:0 4:1 
0.5 1:0.62803025 2:0 3:0.01242423 4:1 
0.5 1:0.71601499 2:0 3:0.311125 4:1 
0.5 1:1 2:0.50925816 3:0.45763206 4:0 
0.5 1:0.39485545 2:0 3:0.77672379 4:1 
-0.5 1:1 2:0.2771253 3:0 4:0.15632641 
-0.4895296396846946 1:0.45992221 2:0.63784708 3:1 4:0 
0.5 1:0.27115095 2:0 3:0.29179085 4:1 
0.5 1:0.49877296 2:0 3:0.45463804 4:1 
0.5 1:0.41384583 2:0 3:0.62103798 4:1 
0.5 1:1 2:0.30401829 3:0 4:0.83935601 
-0.5 1:0 2:1 3:0.69219308 4:0.10039295 
0.5 1:0 2:0.78869301 3:0.64792455 4:1 
-0.5 1:0.48554443 2:0 3:1 4:0.38054511 
0.5 1:0.19824995 2:0 3:0.38104189 4:1 
0.5 1:0.74494965 2:0.33965775 3:0 4:1 
0.5 1:0 2:1 3:0.92593407 4:0.18516632 
-0.5 1:0 2:0.92998099 3:0.46804368 4:1 
0.5 1:0.19221526 2:0 3:1 4:0.45119152 
0.5 1:0.82980684 2:0.13064021 3:0 4:1 
0.5 1:0.70227209 2:0 3:1 4:0.51918414 
-0.5 1:0.36848822 2:0 3:0.31684504 4:1 
0.5 1:0 2:0.43918874 3:0.089413011 4:1 
-0.5 1:0.0080266219 2:1 3:0 4:0.044519456 
0.5 1:0.74094165 2:0 3:0.40672883 4:1 
0.5 1:0.22394133 2:0 3:0.50244793 4:1 
-0.5 1:1 2:0.14359763 3:0 4:0.88096929 
-0.5 1:0.28012399 2:0 3:0.34167114 4:1 
0.5 1:0.61042401 2:0 3:1 4:0.65319927 
-0.5 1:1 2:0.4575246 3:0 4:0.20359701 
0.5 1:0.43318305 2:0 3:0.4490056 4:1 
0.5 1:0.61783065 2:0 3:0.83580496 4:1 
-0.5 1:0.62058657 2:0 3:0.51695129 4:1 
-0.5 1:0.45693109 2:0 3:0.41671327 4:1 
-0.5 1:0 2:0.107365 3:0.15849572 4:1 
0.5 1:0 2:1 3:0.82512989 4:0.42599728 
-0.5 1:0 2:1 3:0.85105666 4:0.52230075 
0.5 1:0.58862792 2:0 3:0.52868667 4:1 
0.5 1:1 2:0.92525806 3:0 4:0.50491262 
0.5 1:1 2:0.17177548 3:0.39104443 4:0 
-0.5 1:0.59910818 2:0 3:0.4541089 4:1 
-0.5 1:1 2:0.47480913 3:0.52894745 4:0 
-0.5 1:0.44496097 2:0.71917444 3:1 4:0 
0.5 1:0.22978246 2:0 3:0.49302486 4:1 
-0.5 1:0.58857934 2:0 3:0.047791976 4:1 
-0.2480659492711258 1:0 2:1 3:0.82231894 4:0.59058101 
0.5 1:0 2:1 3:0.36426388 4:0.93442702 
0.5 1:0.97250345 2:0 3:0.82587606 4:1 
0.5 1:0.24781127 2:0 3:0.58197779 4:1 
0.5 1:1 2:0.032668148 3:0.73454969 4:0 
0.5 1:0.71923283 2:0 3:0.36991519 4:1 
0.5 1:0.6174003 2:0 3:0.12253301 4:1 
-0.5 1:0 2:1 3:0.33976229 4:0.5484607 
0.5 1:0 2:1 3:0.91437159 4:0.0045199672 
-0.5 1:0.6953577 2:0 3:0.66255114 4:1 
0.5 1:0.36288089 2:0 3:0.54335012 4:1 
-0.5 1:0.16836821 2:0 3:1 4:0.66045501 
-0.5 1:0.54891967 2:0 3:0.47832923 4:1 
-0.5 1:1 2:0.30307084 3:0.74111534 4:0 
-0.5 1:0 2:0.72006308 3:1 4:0.49681732 
0.5 1:0.5912285 2:0 3:0.47919664 4:1 
-0.5 1:1 2:0.43827447 3:0.55491535 4:0 
0.5 1:0 2:1 3:0.31730633 4:0.61281042 
-0.5 1:0.4964301 2:0 3:0.38001626 4:1 
0.5 1:1 2:0.35462276 3:0 4:0.64040994 
-0.5 1:0.0080266219 2:1 3:0 4:0.044519456 
-0.5 1:0.27796741 2:0 3:1 4:0.86082535 
0.5 1:1 2:0.43240035 3:0 4:0.56137418 
0.5 1:1 2:0.26258259 3:0 4:0.4233256 
0.5 1:0 2:0.65908944 3:0.79163568 4:1 
-0.5 1:0.52526468 2:1 3:0.082193421 4:0 
0.5 1:1 2:0.75040575 3:0 4:0.62967519 
-0.5 1:0 2:0.031666636 3:0.36367808 4:1 
-0.5 1:0.48988434 2:0 3:1 4:0.3837386 
-0.5 1:0.90920875 2:0 3:1 4:0.76085569 
0.5 1:0.75407732 2:0 3:0.4181257 4:1 
0.5 1:0.0016008357 2:1 3:0 4:0.31593371 
-0.5 1:1 2:0 3:0.38229233 4:0.82032443 
-0.5 1:0 2:0.78188446 3:1 4:0.89595931 
0.5 1:0.53487507 2:0 3:0.78348508 4:1 
-0.5 1:0.42850834 2:0 3:0.70345061 4:1 
-0.5 1:1 2:0.24912958 3:0 4:0.50742274 
-0.5 1:0 2:0.68420585 3:0.12489069 4:1 
-0.5 1:1 2:0.2407453 3:0 4:0.20406462 
0.5 1:0.66974043 2:0 3:1 4:0.95650968 
0.5 1:0.97502574 2:0 3:0.41955425 4:1 
-0.5 1:0.32113763 2:0 3:0.29871487 4:1 
0.5 1:0 2:0.62163433 3:1 4:0.15513775 
0.5 1:0 2:1 3:0.49242644 4:0.51433692 
-0.5 1:0 2:0.40874666 3:0.49987639 4:1 
-0.5 1:0 2:1 3:0.01975245 4:0.34626584 
0.5 1:1 2:0.44285215 3:0 4:0.49515953 
-0.5 1:0.064782136 2:0.011958428 3:0 4:1 
-0.5 1:0.2673741 2:0 3:1 4:0.74230108 
0.5 1:0.88910729 2:1 3:0.65758799 4:0 
0.5 1:0.55622614 2:0 3:0.59414727 4:1 
0.5 1:0.6751505 2:0 3:0.3356854 4:1 
-0.5 1:0.2573281 2:0 3:1 4:0.41761681 
-0.5 1:0.54195874 2:0 3:0.44469566 4:1 
-0.5 1:0.54891967 2:0 3:0.47832923 4:1 
0.5 1:1 2:0 3:0.26581879 4:0.97777869 
-0.5 1:0 2:1 3:0.079839627 4:0.58473537 
0.5 1:0 2:0.54075055 3:0.18280034 4:1 
-0.5 1:1 2:0.43881693 3:0.24706848 4:0 
-0.5 1:0.54561789 2:0 3:0.45021768 4:1 
-0.5 1:1 2:0.34587353 3:0 4:0.80766221 
0.5 1:0 2:1 3:0.60840883 4:0.56566263 
0.5 1:1 2:0.43116525 3:0.32120115 4:0 
0.5 1:0.19378713 2:0 3:0.46103062 4:1 
-0.5 1:0.45110597 2:0.98242197 3:1 4:0 
0.5 1:0.63746448 2:0 3:0.62579186 4:1 
-0.5 1:0 2:0.3345047 3:0.55376413 4:1 
-0.5 1:0 2:0.25937697 3:1 4:0.59950588 
0.5 1:0.98065107 2:1 3:0 4:0.82429579 
0.5 1:0.71962346 2:0 3:1 4:0.43727959 
-0.5 1:0.97942692 2:0 3:1 4:0.56657226 
0.5 1:0 2:0.65395269 3:1 4:0.31743864 
-0.5 1:0 2:0.74416873 3:0.34268602 4:1 
-0.5 1:0.81081373 2:0 3:1 4:0.32112006 
-0.5 1:0.81058372 2:0 3:0.88227048 4:1 
0.5 1:1 2:0.3831296 3:0.33212847 4:0 
-0.5 1:1 2:0.35832759 3:0 4:0.16839403 
-0.5 1:1 2:0.32703146 3:0 4:0.73506155 
-0.3954169937413621 1:0.088829393 2:0.24066673 3:1 4:0 
-0.5 1:0.52388233 2:0 3:0.42547191 4:1 
0.5 1:0 2:1 3:0.25180034 4:0.27391976 
-0.5 1:0.10581872 2:0.22086875 3:1 4:0 
0.5 1:1 2:0.20674405 3:0 4:0.23416559 
-0.5 1:1 2:0.33704678 3:0 4:0.040572195 
-0.5 1:0.032788789 2:1 3:0 4:0.15540952 
-0.5 1:0.52792915 2:0 3:0.58656753 4:1 
0.5 1:0 2:1 3:0.34487313 4:0.35805688 
-0.5 1:1 2:0.63968859 3:0 4:0.30479163 
-0.5 1:1 2:0.46923305 3:0 4:0.29450289 
-0.5 1:0 2:1 3:0.6019963 4:0.93505482 
0.5 1:0.3486377 2:0 3:0.69860423 4:1 
0.5 1:0.69713006 2:0 3:0.37856252 4:1 
0.5 1:1 2:0.59019084 3:0.48332391 4:0 
0.5 1:1 2:0.054665088 3:0.43661503 4:0 
-0.5 1:0.53193321 2:0 3:0.12306114 4:1 
0.5 1:0.36479128 2:0 3:0.60520872 4:1 
0.5 1:0.88886941 2:0 3:0.72973389 4:1 
0.5 1:1 2:0.3002065 3:0.31296499 4:0 
0.5 1:0 2:1 3:0.74683644 4:0.99229907 
-0.5 1:0.50554198 2:0 3:0.23576881 4:1 
-0.5 1:0.54561789 2:0 3:0.45021768 4:1 
-0.5 1:0.54354942 2:0 3:0.61533452 4:1 
-0.5 1:0.32973489 2:0 3:0.42106124 4:1 
0.5 1:0.24763969 2:0 3:0.54000076 4:1 
0.5 1:0.29368039 2:0 3:0.23545381 4:1 
-0.5 1:0.25151967 2:1 3:0 4:0.69570641 
0.5 1:1 2:0.22867932 3:0 4:0.067049433 
-0.5 1:0 2:0.35572707 3:0.22233297 4:1 
-0.5 1:0.87167062 2:0 3:1 4:0.5986979 
0.5 1:0.98508864 2:0 3:1 4:0.80027466 
0.5 1:1 2:0.10559524 3:0.5464297 4:0 
-0.5 1:0.81666316 2:0 3:0.89251854 4:1 
-0.5 1:1 2:0.50528521 3:0.86073104 4:0 
-0.5 1:0.52889139 2:0 3:0.10792365 4:1 
-0.5 1:0.083640539 2:0 3:0.56377924 4:1 
0.5 1:0 2:0.40874666 3:0.49987639 4:1 
0.5 1:0.28715805 2:1 3:0.56589736 4:0 
0.5 1:0.72108396 2:0 3:0.31918283 4:1 
-0.5 1:0.48771935 2:0 3:0.89434066 4:1 
0.5 1:0.65164788 2:0 3:1 4:0.71514864 
-0.5 1:0.38541839 2:0 3:1 4:0.34111319 
0.5 1:0.69603502 2:0 3:0.35717947 4:1 
-0.5 1:0.0084416171 2:0 3:1 4:0.073520055 
0.5 1:1 2:0.34541344 3:0 4:0.54524988 
0.5 1:0 2:1 3:0.31853977 4:0.60132773 
-0.5 1:0.58183198 2:0 3:0.61624171 4:1 
-0.5 1:0 2:1 3:0.87057579 4:0.28025407 
-0.5 1:0.59271803 2:0 3:0.45482162 4:1 
0.5 1:0.68297588 2:0 3:0.29072085 4:1 
-0.5 1:0.66902367 2:0 3:0.59644614 4:1 
0.5 1:1 2:0.59898462 3:0 4:0.019550172 
-0.5 1:1 2:0.39002522 3:0 4:0.30657538 
-0.5 1:0.6104752 2:0 3:0.75561112 4:1 
0.5 1:0 2:0.74980667 3:0.42987262 4:1 
0.5 1:0.26532427 2:0 3:0.64409286 4:1 
0.5 1:0.27816232 2:0 3:0.47557579 4:1 
0.5 1:1 2:0.46760137 3:0.49900381 4:0 
0.5 1:0.57367743 2:0 3:1 4:0.97540815 
-0.5 1:0.19932672 2:0 3:1 4:0.3101771 
-0.5 1:0.26871146 2:0 3:1 4:0.21349244 
0.5 1:0 2:0.59952885 3:0.76185378 4:1 
-0.5 1:1 2:0.61367353 3:0 4:0.62268538 
0.5 1:0.99618496 2:0.1214652 3:0 4:1 
0.5 1:0.22799612 2:0 3:1 4:0.082519598 
-0.5 1:0 2:0.91039515 3:1 4:0.60633993 
-0.5 1:0 2:0.87910143 3:0.60931157 4:1 
-0.5 1:0.91539075 2:0 3:1 4:0.7937836 
0.5 1:0 2:1 3:0.33284354 4:0.30391671 
0.5 1:1 2:0 3:0.51074783 4:0.65407066 
0.5 1:1 2:0 3:0.32988518 4:0.31654034 
0.5 1:1 2:0 3:0.26756485 4:0.82918941 
-0.5 1:1 2:0.51987612 3:0.74181896 4:0 
0.5 1:0 2:0.69772372 3:1 4:0.14933524 
-0.5 1:0.52005302 2:0 3:0.31200232 4:1 
0.5 1:1 2:0.028941598 3:0.055549134 4:0 
-0.5 1:0.099426657 2:0 3:0.63213372 4:1 
-0.5 1:1 2:0.62002121 3:0 4:0.5635359 
0.5 1:1 2:0.3831296 3:0.33212847 4:0 
-0.5 1:0.49645039 2:0 3:0.16234986 4:1 
0.5 1:1 2:0 3:0.85691939 4:0.83054371 
0.5 1:0.35837142 2:0 3:0.41046775 4:1 
0.5 1:0.86643099 2:0 3:1 4:0.24852189 
0.5 1:0.23571353 2:0 3:1 4:0.36461075 
-0.5 1:0.16202764 2:0 3:1 4:0.46099225 
-0.5 1:0.39735002 2:0 3:0.34090735 4:1 
0.5 1:1 2:0.3773583 3:0.42878313 4:0 
0.5 1:0.70987521 2:0 3:0.28815352 4:1 
0.5 1:1 2:0.80358466 3:0.68939424 4:0 
0.5 1:0 2:0.069403516 3:1 4:0.46464075 
0.5 1:0 2:0.6660014 3:1 4:0.82128984 
-0.4078694868476193 1:0 2:0.056025211 3:0.40875065 4:1 
0.5 1:1 2:0.40736193 3:0 4:0.37381385 
0.5 1:1 2:0.6097089 3:0 4:0.617022 
-0.5 1:0 2:1 3:0.54128325 4:0.96032937 
0.5 1:0.91745295 2:0.34966139 3:1 4:0 
0.5 1:0.69829965 2:0 3:1 4:0.68295595 
0.5 1:0.52604177 2:0 3:0.23513177 4:1 
-0.5 1:1 2:0 3:0.92030258 4:0.74999864 
0.5 1:0 2:0.78608471 3:0.89326012 4:1 
0.5 1:0.4065009 2:0 3:0.86019472 4:1 
0.5 1:0.076653297 2:0 3:1 4:0.24090971 
0.5 1:0.58985971 2:0 3:1 4:0.38954007 
0.5 1:0.17174003 2:0 3:0.33282788 4:1 
-0.5 1:0.5185864 2:0 3:0.34549526 4:1 
0.2456880769923371 1:1 2:0.73979838 3:0 4:0.016284037 
0.5 1:0.20668967 2:0 3:1 4:0.41670432 
0.5 1:0.42748494 2:0 3:0.68098472 4:1 
0.5 1:0.1675661 2:0 3:0.34662515 4:1 
-0.5 1:1 2:0.50925816 3:0.45763206 4:0 
-0.5 1:0 2:0.1444361 3:1 4:0.76485956 
-0.5 1:0.9937621 2:0 3:0.25029452 4:1 
0.5 1:1 2:0.54335145 3:0.38584578 4:0 
-0.5 1:0.097122135 2:1 3:0 4:0.96083805 
0.5 1:0.076734742 2:1 3:0 4:0.46256935 
0.5 1:0.3054847 2:0 3:0.38046531 4:1 
-0.5 1:1 2:0.55820453 3:0 4:0.46528052 
-0.5 1:0.17971171 2:0 3:1 4:0.16561689 
0.5 1:0.13901749 2:0 3:1 4:0.011130635 
0.5 1:0 2:1 3:0.24134707 4:0.40151124 
0.5 1:0 2:0.40874666 3:0.49987639 4:1 
0.5 1:0.059712937 2:0.86983739 3:1 4:0 
0.5 1:1 2:0 3:0.531978 4:0.45994492 
-0.5 1:0.94476949 2:0 3:1 4:0.68628418 
0.5 1:1 2:0.52029311 3:0.69223339 4:0 
0.5 1:1 2:0.56113836 3:0 4:0.017438786 
0.5 1:0.73385408 2:0 3:1 4:0.7664066 
0.5 1:0.55739259 2:0.061495871 3:0 4:1 
-0.5 1:0.39827882 2:0 3:0.45986346 4:1 
-0.5 1:1 2:0.53222151 3:0 4:0.45958463 
-0.5 1:0.12828953 2:0.36395471 3:1 4:0 
0.5 1:0 2:0.53792918 3:0.4637691 4:1 
0.5 1:0.74570577 2:0 3:0.40012491 4:1 
-0.5 1:0.068343965 2:0 3:0.54123676 4:1 
-0.5 1:0.89237392 2:0 3:1 4:0.37436628 
0.5 1:0.32812096 2:0 3:1 4:0.091149641 
-0.5 1:0.08047159 2:0 3:0.68815059 4:1 
0.5 1:0.77063016 2:0 3:1 4:0.95260477 
-0.5 1:1 2:0.11585058 3:0.5944422 4:0 
-0.5 1:0.81911018 2:0 3:1 4:0.75439121 
-0.5 1:0.88928669 2:1 3:0 4:0.89166659 
-0.5 1:0 2:1 3:0.4236007 4:0.033644063 
-0.3771818363135044 1:0.53272709 2:0 3:1 4:0.53204137 
-0.5 1:0.91909489 2:0 3:0.36386988 4:1 
0.5 1:0.7722788 2:0 3:0.43705239 4:1 
0.5 1:0.33789384 2:0 3:0.54361917 4:1 
0.5 1:0.70719851 2:0 3:0.33573962 4:1 
-0.404858401092239 1:0 2:1 3:0.36586248 4:0.53144408 
-0.5 1:0.85259524 2:0 3:0.21979969 4:1 
0.5 1:0.98817807 2:0 3:1 4:0.63569844 
0.5 1:0.11210034 2:0 3:1 4:0.52552504 
0.5 1:0 2:0.91711798 3:1 4:0.78567412 
-0.5 1:0.63075126 2:0 3:0.53633055 4:1 
0.5 1:0 2:0.58056101 3:0.45232281 4:1 
0.5 1:0.18585262 2:0.011236055 3:0 4:1 
-0.5 1:0.65123645 2:0 3:1 4:0.81444417 
0.5 1:1 2:0.27824403 3:0.25356167 4:0 
0.5 1:0 2:0.76460413 3:0.26505609 4:1 
0.5 1:0.46675652 2:0 3:0.7917835 4:1 
0.5 1:0.55356081 2:0.2477161 3:0 4:1 
-0.5 1:0 2:1 3:0.64328114 4:0.22918554 
0.5 1:0.46633118 2:0 3:0.716249 4:1 
-0.5 1:0 2:1 3:0.38746415 4:0.55504759 
-0.5 1:0.25677604 2:0 3:1 4:0.30235678 
0.5 1:0.75764191 2:0 3:0.83894547 4:1 
-0.5 1:0.61370996 2:0 3:0.57788909 4:1 
-0.5 1:0.55338782 2:0 3:1 4:0.3930841 
0.5 1:0.30984542 2:1 3:0 4:0.43968858 
0.5 1:1 2:0.51359664 3:0 4:0.0039115731 
0.5 1:0.41835554 2:0 3:0.70139611 4:1 
0.5 1:0.32495139 2:0 3:1 4:0.24520751 
-0.5 1:0 2:0.32481426 3:1 4:0.83241894 
0.5 1:1 2:0 3:0.012758947 4:0.609374 
-0.5 1:0.784727 2:0 3:1 4:0.44237185 
-0.5 1:0.053804893 2:0 3:0.82425753 4:1 
0.5 1:0.36518386 2:0 3:1 4:0.1944321 
0.5 1:1 2:0.29526144 3:0 4:0.75620177 
-0.5 1:0.23565457 2:1 3:0 4:0.17819271 
0.5 1:0.81510101 2:0 3:1 4:0.81592831 
-0.5 1:1 2:0.79037884 3:0 4:0.9149434 
-0.5 1:0.10295577 2:1 3:0.24773172 4:0 
0.5 1:0.70848634 2:0 3:0.35023588 4:1 
-0.5 1:0.19427606 2:0 3:0.77571597 4:1 
-0.5 1:0.96378223 2:1 3:0 4:0.054327857 
-0.5 1:0.74377744 2:0 3:0.69882788 4:1 
-0.5 1:0 2:0.7173848 3:1 4:0.99234008 
-0.5 1:1 2:0.086554422 3:0.89540712 4:0 
-0.5 1:0.64810731 2:0 3:0.9538792 4:1 
0.5 1:0.0080266219 2:1 3:0 4:0.044519456 
-0.5 1:0.40067489 2:0 3:1 4:0.32200196 
-0.5 1:0.78235192 2:0.55658004 3:0 4:1 
-0.5 1:0.38936467 2:0 3:0.18141256 4:1 
0.5 1:0 2:1 3:0.34664682 4:0.50002932 
0.5 1:0.5313946 2:0 3:1 4:0.7932824 
-0.5 1:0.47732152 2:0 3:1 4:0.70813533 
-0.5 1:1 2:0.56668446 3:0 4:0.72660779 
0.5 1:0.16107854 2:0 3:0.039706488 4:1 
0.5 1:0.7545672 2:0 3:0.41532691 4:1 
-0.05412394334242471 1:0.053281188 2:0.050938588 3:1 4:0 
0.5 1:1 2:0.55265889 3:0.3538483 4:0 
0.5 1:1 2:0.14350544 3:0 4:0.32222076 
0.5 1:0 2:1 3:0.18686401 4:0.95477097 
-0.4832511206205468 1:0.93738307 2:0 3:1 4:0.97319143 
-0.5 1:0.1864673 2:0 3:0.24326647 4:1 
-0.5 1:0.23013033 2:0 3:1 4:0.5409659 
-0.5 1:0.22077913 2:0 3:1 4:0.20184598 
0.5 1:0.37022296 2:0 3:0.38013394 4:1 
0.5 1:0 2:0.81276636 3:0.67847445 4:1 
-0.5 1:0.23469475 2:0 3:1 4:0.40447818 
-0.2452833845128672 1:0 2:1 3:0.767552 4:0.38912201 
0.5 1:0.28427613 2:0 3:1 4:0.28471094 
0.5 1:0.21171225 2:0 3:1 4:0.36970082 
-0.5 1:1 2:0.59162934 3:0 4:0.41412519 
-0.5 1:0.57245347 2:0 3:0.62720969 4:1 
0.5 1:1 2:0.53270114 3:0 4:0.73906509 
0.5 1:0.21166949 2:0 3:0.44040449 4:1 
0.5 1:0 2:0.525534 3:0.53390933 4:1 
0.5 1:0.12982204 2:0.080863453 3:0 4:1 
0.5 1:1 2:0.39496739 3:0 4:0.30971831 
-0.5 1:1 2:0.5461016 3:0.16915522 4:0 
0.5 1:0.76673028 2:0 3:0.3816579 4:1 
0.5 1:0.320449 2:0.10133889 3:0 4:1 
0.5 1:0 2:1 3:0.021705984 4:0.8167846 
-0.5 1:0 2:1 3:0.66057239 4:0.81967683 
-0.5 1:1 2:0.51075148 3:0.43664334 4:0 
0.5 1:0.0080266219 2:1 3:0 4:0.044519456 
-0.5 1:0.53689734 2:0 3:0.36172013 4:1 
-0.5 1:0 2:0.107365 3:0.15849572 4:1 
0.5 1:0.69424846 2:0 3:0.35789699 4:1 
-0.5 1:1 2:0 3:0.23452377 4:0.21255893 
0.5 1:0.010330747 2:0.067760643 3:1 4:0 
-0.5 1:0 2:1 3:0.86977352 4:0.50408992 
0.5 1:0.30645444 2:0 3:1 4:0.60146252 
0.5 1:0 2:1 3:0.77699669 4:0.17373596 
0.5 1:0.71041122 2:0 3:0.39550431 4:1 
0.5 1:1 2:0 3:0.34438945 4:0.67104114 
-0.5 1:0.27881295 2:0 3:1 4:0.47206961 
0.5 1:0.93359525 2:0 3:0.24729365 4:1 
0.5 1:1 2:0.85464365 3:0.59211664 4:0 
0.5 1:0.68609353 2:0 3:0.54877479 4:1 
-0.5 1:0.43088996 2:0 3:0.35874182 4:1 
0.5 1:0.74960184 2:0 3:0.42699959 4:1 
0.5 1:0 2:1 3:0.41192783 4:0.75221199 
-0.5 1:0.54195874 2:0 3:0.44469566 4:1 
0.5 1:1 2:0 3:0.67670582 4:0.056022809 
0.5 1:1 2:0.34005551 3:0.34640358 4:0 
-0.5 1:0.57395255 2:0 3:1 4:0.38623102 
-0.5 1:0 2:0.96958955 3:1 4:0.67657974 
-0.5 1:0.89731771 2:0 3:0.066377962 4:1 
-0.5 1:0.26839014 2:0 3:1 4:0.64059112 
-0.5 1:0.35620172 2:0 3:0.53419222 4:1 
0.5 1:1 2:0.39171437 3:0 4:0.31819522 
-0.5 1:0.48361797 2:0 3:0.50000109 4:1 
-0.5 1:0 2:0.9596695 3:1 4:0.69244276 
-0.5 1:0.93964027 2:0 3:0.38735598 4:1 
-0.5 1:1 2:0.16654398 3:0 4:0.80848728 
-0.5 1:0.50573624 2:0 3:0.3991918 4:1 
0.5 1:0.22811369 2:0 3:0.36596756 4:1 
-0.5 1:0.21425983 2:0 3:0.89551379 4:1 
-0.5 1:1 2:0.33856501 3:0 4:0.45108635 
0.5 1:0 2:0.21813228 3:1 4:0.51334981 
0.5 1:0.056830472 2:1 3:0.99761998 4:0 
-0.5 1:0.6783709 2:0 3:0.71719704 4:1 
0.5 1:0.7903635 2:0 3:1 4:0.81759277 
0.5 1:1 2:0.34110637 3:0.23989786 4:0 
0.5 1:0.44781739 2:0 3:0.8934284 4:1 
0.5 1:0 2:0.52808671 3:0.51689878 4:1 
0.5 1:1 2:0.54706196 3:0 4:0.73920585 
-0.5 1:0 2:0.31078899 3:0.23797293 4:1 
0.5 1:0 2:1 3:0.68359215 4:0.57496655 
0.5 1:1 2:0 3:0.43550146 4:0.811655 
0.5 1:0.82155412 2:0 3:1 4:0.55426685 
0.5 1:0.64383099 2:0 3:1 4:0.78782554 
0.5 1:0 2:0.015512184 3:1 4:0.50164201 
-0.5 1:0 2:1 3:0.40314606 4:0.56709465 
-0.5 1:1 2:0.087005958 3:0 4:0.56550674 
0.5 1:0.97023356 2:0.38158295 3:1 4:0 
-0.5 1:0 2:0.5703603 3:1 4:0.41843077 
0.5 1:1 2:0.54606566 3:0.59725491 4:0 
0.5 1:0.48380806 2:0 3:0.84692657 4:1 
-0.5 1:0.97983909 2:0 3:0.37063724 4:1 
-0.5 1:0.54158888 2:0 3:0.38181364 4:1 
-0.5 1:0.58514794 2:0 3:0.43180567 4:1 
-0.5 1:0.54790064 2:0 3:0.49383979 4:1 
0.5 1:1 2:0 3:0.93804482 4:0.29422153 
0.5 1:0.23150018 2:1 3:0.98729778 4:0 
-0.5 1:0.53722043 2:0 3:0.50501164 4:1 
0.5 1:0.5408288 2:0 3:0.76711999 4:1 
0.5 1:0 2:0.66984343 3:0.34958324 4:1 
-0.5 1:1 2:0.31522423 3:0.62364285 4:0 
-0.5 1:0.52967585 2:0 3:0.2259024 4:1 
-0.5 1:0.19093675 2:0 3:1 4:0.40363797 
0.5 1:0 2:0.050319453 3:1 4:0.7457483 
0.5 1:0.77868285 2:0 3:1 4:0.6515003 
0.5 1:0.35157794 2:0 3:0.46339946 4:1 
0.5 1:0 2:0.83311819 3:0.43016214 4:1 
0.5 1:0.12072346 2:0.45768861 3:0 4:1 
-0.5 1:0 2:1 3:0.65428623 4:0.89128903 
-0.5 1:0 2:1 3:0.95298261 4:0.92005094 
0.5 1:0 2:1 3:0.67122804 4:0.18207559 
0.5 1:1 2:0 3:0.32229153 4:0.67218796 
0.5 1:0.3295801 2:0 3:0.84111326 4:1 
0.5 1:0 2:0.75122728 3:1 4:0.40172953 
-0.5 1:0.53630735 2:0 3:0.47421569 4:1 
-0.5 1:0.62058657 2:0 3:0.51695129 4:1 
-0.5 1:0.60685214 2:0 3:1 4:0.58631 
-0.5 1:0.03304311 2:1 3:0 4:0.67149366 
-0.5 1:1 2:0 3:0.49172516 4:0.60797659 
-0.5 1:1 2:0.67672791 3:0.93058857 4:0 
0.5 1:0.6751505 2:0 3:0.3356854 4:1 
-0.5 1:0.59340462 2:0 3:0.43048035 4:1 
0.5 1:1 2:0.40736193 3:0 4:0.37381385 
0.5 1:1 2:0.67972749 3:0.43328379 4:0 
0.5 1:0 2:1 3:0.73089437 4:0.63491629 
-0.5 1:0.31823999 2:0 3:1 4:0.63478981 
0.5 1:0.2865866 2:0 3:0.63104234 4:1 
-0.5 1:0.72243546 2:1 3:0 4:0.18087 
-0.5 1:0.032106225 2:0.47731184 3:1 4:0 
0.5 1:0.37938724 2:0 3:0.76895214 4:1 
-0.5 1:0 2:1 3:0.28409474 4:0.98028541 
-0.5 1:0.49064343 2:0 3:0.087625206 4:1 
-0.5 1:0.45770381 2:0 3:0.23310783 4:1 
0.5 1:0.48164375 2:0 3:0.49583651 4:1 
0.5 1:0.2364989 2:0 3:1 4:0.6172395 
-0.5 1:1 2:0.31280127 3:0 4:0.81916884 
-0.5 1:0 2:1 3:0.75280317 4:0.68405617 
0.5 1:0.4947819 2:0 3:0.65945848 4:1 
-0.5 1:0.50472062 2:0 3:0.36895229 4:1 
-0.5 1:1 2:0.8860018 3:0 4:0.64255017 
0.5 1:1 2:0.46727914 3:0 4:0.56098083 
-0.1869227853948425 1:0 2:0.18034505 3:1 4:0.026764275 
-0.5 1:0.49983366 2:0 3:0.30290134 4:1 
0.5 1:0.65781055 2:0 3:1 4:0.91365836 
-0.5 1:0 2:1 3:0.53614645 4:0.84471578 
0.5 1:0.046305855 2:0.50356035 3:0 4:1 
-0.5 1:1 2:0.42957038 3:0.67969654 4:0 
0.5 1:0.53733885 2:0 3:0.66563801 4:1 
-0.5 1:0.49512128 2:0 3:0.28632312 4:1 
-0.5 1:1 2:0.39756696 3:0 4:0.65273666 
-0.5 1:0.25395916 2:0 3:0.12046542 4:1 
0.5 1:1 2:0.51598283 3:0 4:0.60801896 
0.5 1:0 2:0.68079366 3:1 4:0.60635084 
-0.5 1:0.6419504 2:0 3:0.80718325 4:1 
0.5 1:0 2:0.80114429 3:0.96219943 4:1 
0.5 1:0 2:0.50973902 3:0.69591566 4:1 
-0.5 1:1 2:0.23979628 3:0.70701004 4:0 
-0.5 1:0 2:1 3:0.96111083 4:0.47402635 
-0.5 1:0 2:0.0018780739 3:1 4:0.28442605 
-0.5 1:0.50164717 2:0 3:0.35210642 4:1 
0.5 1:0.085308291 2:0 3:0.055385583 4:1 
-0.5 1:0.91092344 2:0 3:1 4:0.82914031 
-0.2058209121993291 1:0 2:1 3:0.64838033 4:0.70449821 
0.5 1:0.54809924 2:0 3:0.67266391 4:1 
-0.5 1:0.10803146 2:0 3:0.62501761 4:1 
-0.5 1:0 2:0.35289935 3:1 4:0.20736934 
-0.5 1:0.72734425 2:0 3:0.66047181 4:1 
0.5 1:1 2:0 3:0.22380002 4:0.30929821 
0.5 1:0.25510647 2:0 3:0.23544201 4:1 
-0.5 1:0.54292985 2:0 3:0.76328122 4:1 
0.5 1:0.49038171 2:0 3:0.99453648 4:1 
0.5 1:0.0088510551 2:1 3:0 4:0.63964012 
0.5 1:1 2:0.50054163 3:0.6034492 4:0 
-0.5 1:0 2:1 3:0.1214128 4:0.8594411 
-0.5 1:1 2:0 3:0.079456498 4:0.74471913 
0.5 1:0 2:0.87571625 3:0.066989371 4:1 
-0.5 1:0 2:1 3:0.95123781 4:0.72670383 
-0.5 1:0 2:1 3:0.87969815 4:0.22554903 
0.5 1:1 2:0.3831296 3:0.33212847 4:0 
0.5 1:1 2:0.46822854 3:0 4:0.41162511 
0.5 1:0.18033598 2:0 3:0.48711715 4:1 
0.5 1:0.7994374 2:1 3:0.085756092 4:0 
0.5 1:0 2:0.41659036 3:0.4762079 4:1 
0.5 1:0.13804218 2:1 3:0.095797778 4:0 
0.5 1:1 2:0.30280838 3:0 4:0.46622543 
0.5 1:0.76509475 2:0 3:0.59881703 4:1 
-0.5 1:0.73917626 2:0 3:1 4:0.86134253 
0.5 1:0.46999036 2:0 3:0.46781118 4:1 
0.5 1:0.39485545 2:0 3:0.77672379 4:1 
-0.5 1:0.57645256 2:0 3:1 4:0.57723428 
-0.5 1:1 2:0 3:0.15030307 4:0.59820017 
-0.5 1:1 2:0 3:0.63395557 4:0.81225928 
-0.5 1:0 2:0.42966985 3:0.28391403 4:1 
0.5 1:0.73962107 2:0 3:1 4:0.70310114 
-0.5 1:0.53982846 2:0 3:0.3005852 4:1 
0.5 1:0.6775903 2:0 3:0.30990724 4:1 
-0.5 1:0.33513485 2:0 3:1 4:0.26248075 
0.5 1:0.1306981 2:0 3:0.26429793 4:1 
-0.5 1:0 2:0.1508821 3:0.065568303 4:1 
0.5 1:0 2:1 3:0.764458 4:0.6298419 
-0.5 1:0.83386665 2:1 3:0.27220254 4:0 
-0.5 1:1 2:0.17698838 3:0 4:0.74871132 
0.5 1:0.24234524 2:0 3:0.45200655 4:1 
-0.5 1:1 2:0.50912823 3:0 4:0.97615007 
-0.5 1:0.54568527 2:0 3:0.53983327 4:1 
0.5 1:1 2:0.20887218 3:0.35991712 4:0 
0.5 1:0 2:1 3:0.51606523 4:0.86401114 
-0.5 1:1 2:0.42267606 3:0 4:0.56502334 
0.5 1:0.42948761 2:0 3:1 4:0.42063303 
0.5 1:0.70200402 2:0 3:0.37132325 4:1 
0.5 1:0.85890024 2:0 3:1 4:0.39810055 
-0.5 1:0 2:1 3:0.71029044 4:0.270783 
0.5 1:0 2:1 3:0.12608061 4:0.16642216 
0.5 1:0.92554292 2:0.32338997 3:1 4:0 
-0.5 1:0.63608051 2:0 3:1 4:0.82301329 
0.5 1:0.73387805 2:0 3:0.34994197 4:1 
0.5 1:0.72450497 2:0 3:0.41378457 4:1 
0.5 1:0 2:0.70445964 3:0.66974157 4:1 
-0.5 1:1 2:0.35572389 3:0 4:0.31506986 
0.5 1:0.49528181 2:0 3:1 4:0.67462024 
0.5 1:0 2:0.94910001 3:0.71808517 4:1 
-0.5 1:0.65334987 2:0 3:0.58219933 4:1 
0.5 1:0.32925837 2:0 3:0.4086324 4:1 
-0.5 1:0.63623781 2:0 3:0.63748994 4:1 
-0.5 1:0 2:0.50984471 3:0.19642087 4:1 
-0.5 1:1 2:0 3:0.76290532 4:0.54385247 
0.45887510168891 1:1 2:0.51299083 3:0.98125994 4:0 
-0.5 1:0.24484401 2:0 3:0.29855922 4:1 
-0.5 1:0.69670504 2:0.71911959 3:1 4:0 
-0.5 1:0.81697063 2:0 3:1 4:0.6910083 
-0.5 1:0 2:1 3:0.72850158 4:0.93317927 
-0.5 1:0.10743032 2:0 3:1 4:0.23799104 
0.5 1:0.031830637 2:1 3:0.014834417 4:0 
0.5 1:1 2:0 3:0.48776815 4:0.20930763 
0.5 1:0.65831271 2:0.17285661 3:0 4:1 
-0.5 1:0 2:1 3:0.17708508 4:0.85222972 
-0.5 1:0 2:1 3:0.36260767 4:0.56778209 
0.5 1:0.79122943 2:0 3:1 4:0.48524809 
-0.5 1:0.080443378 2:0.73807209 3:1 4:0 
0.5 1:0.3642341 2:0.094980606 3:0 4:1 
-0.4382401064687961 1:0.1682203 2:0 3:0.71481789 4:1 
0.5 1:0.56686369 2:0 3:1 4:0.78142887 
0.5 1:0.40815943 2:0 3:0.63327675 4:1 
0.5 1:0 2:1 3:0.38957677 4:0.65675562 
-0.5 1:0.12546983 2:0 3:0.87416334 4:1 
-0.5 1:0.14278209 2:0 3:0.27388531 4:1 
0.5 1:0.33108554 2:0 3:1 4:0.62835363 
-0.5 1:0 2:0.96402126 3:1 4:0.90466514 
-0.5 1:0.57458544 2:0 3:0.015641371 4:1 
0.5 1:0.50174569 2:0 3:0.36999558 4:1 
0.5 1:0.22281713 2:0.86174172 3:1 4:0 
0.5 1:0 2:0.92711151 3:0.40433715 4:1 
0.5 1:0 2:1 3:0.43056063 4:0.62261547 
0.5 1:1 2:0.40091676 3:0 4:0.50295474 
0.5 1:1 2:0.31611327 3:0 4:0.71418061 
-0.5 1:0 2:0.36070382 3:0.89650225 4:1 
-0.5 1:0 2:0.26945153 3:1 4:0.39651394 
0.5 1:1 2:0.39589129 3:0 4:0.58017658 
-0.5 1:1 2:0.26431895 3:0 4:0.31358069 
-0.5 1:1 2:0.61580561 3:0.22608782 4:0 
-0.5 1:1 2:0.42090608 3:0 4:0.62424697 
-0.5 1:0.54887433 2:0 3:0.3376899 4:1 
0.5 1:0.16129556 2:0 3:1 4:0.36015165 
-0.5 1:0.3487563 2:0 3:1 4:0.83718906 
0.5 1:0 2:1 3:0.33232296 4:0.29003792 
0.5 1:0.14531631 2:0 3:0.30419022 4:1 
-0.5 1:0 2:0.002337579 3:1 4:0.87339005 
-0.5 1:0.8990497 2:0.014371626 3:0 4:1 
0.5 1:1 2:0 3:0.48776815 4:0.20930763 
0.5 1:0.27757209 2:0 3:1 4:0.27397221 
-0.5 1:0 2:1 3:0.52443069 4:0.85509362 
