svm_type epsilon_svr
kernel_type rbf
gamma 10
nr_class 2
total_sv 60
rho -2.67819
SV
-0.6870091981806681 1:0 2:1 3:0.71896652 4:0.47896773 5:0.57223567 
-79.16401467700409 1:0 2:1 3:0.77078809 4:0.49795633 5:0.39793453 
-3.040453487427401 1:0 2:0.79182183 3:1 4:0.58447949 5:0.29850282 
54.46364374881171 1:0 2:1 3:0.75241086 4:0.47183811 5:0.40382728 
-100 1:0 2:1 3:0.77078809 4:0.49795633 5:0.39793453 
-0.6140777467404535 1:0 2:1 3:0.71740643 4:0.38722156 5:0.17205623 
0.8978673503541458 1:0 2:0.84597986 3:1 4:0.72128848 5:0.73289078 
100 1:0 2:0.79338226 3:1 4:0.58456322 5:0.29979556 
-1.470035767148089 1:0 2:0.81386697 3:0.58459221 4:0.82611695 5:1 
27.99676696571532 1:0 2:1 3:0.74250374 4:0.44072402 5:0.26731165 
-2.562067947722396 1:1 2:0 3:0.84284776 4:0.67233607 5:0.58994409 
-100 1:0 2:1 3:0.77078809 4:0.49795633 5:0.39793453 
-0.5307859481371502 1:0 2:0.99363102 3:0.29189898 4:1 5:0.67656563 
-0.7923814995405645 1:0.25482594 2:0.78192326 3:0 4:1 5:0.61508232 
-6.592329574081511 1:0 2:1 3:0.70584804 4:0.47781786 5:0.41727373 
-0.4740127354846385 1:0.059669721 2:1 3:0 4:0.97305783 5:0.79433422 
-1.93833898975219 1:0.73804502 2:0.71669371 3:0.16335543 4:1 5:0 
100 1:0 2:1 3:0.77187448 4:0.57437162 5:0.42488444 
0.8658937805394546 1:0 2:0.01305326 3:1 4:0.95736929 5:0.92932397 
-0.4062333257153792 1:0.25115755 2:1 3:0.070554946 4:0 5:0.71421591 
0.1764065049104329 1:1 2:0 3:0.17411443 4:0.21497915 5:0.26262282 
100 1:0 2:1 3:0.75241086 4:0.47183811 5:0.40382728 
-0.2911099916519074 1:0.48912356 2:1 3:0.43043858 4:0 5:0.6729825 
100 1:0 2:1 3:0.75241086 4:0.47183811 5:0.40382728 
0.3151943385798644 1:1 2:0.56564515 3:0.42889956 4:0.16278164 5:0 
3.031734317717145 1:1 2:0 3:0.5635977 4:0.49066147 5:0.54957302 
2.047411777868543 1:0 2:1 3:0.28381097 4:0.11371759 5:0.036065366 
1.649380149347757 1:1 2:0.70612422 3:0 4:0.82529882 5:0.15871694 
-0.8101164901420251 1:0 2:1 3:0.21703 4:0.89554058 5:0.98113927 
0.004161391036009237 1:1 2:0.47160675 3:0.40239232 4:0.20916648 5:0 
-15.69878966771934 1:0 2:1 3:0.66963144 4:0.33131525 5:0.29634301 
0.2218337291469075 1:0.050820862 2:0.86957988 3:0 4:1 5:0.62206082 
-1.254651504040226 1:0.012164439 2:0 3:1 4:0.85869462 5:0.88124749 
0.6485036931913288 1:1 2:0 3:0.1425512 4:0.14326633 5:0.17136459 
1.862234899748671 1:0 2:1 3:0.55293849 4:0.40995158 5:0.42633631 
-0.4941855215455523 1:0.053664124 2:1 3:0 4:0.28786151 5:0.4712869 
-73.51058838350211 1:0 2:1 3:0.70584804 4:0.47781786 5:0.41727373 
-11.00057756667816 1:0 2:1 3:0.71896652 4:0.47896773 5:0.57223567 
1.252134016298627 1:0.015550209 2:0 3:1 4:0.81100895 5:0.76940867 
-99.52395170116036 1:0 2:0.79182183 3:1 4:0.58447949 5:0.29850282 
-0.9549841748643271 1:0 2:0.7589914 3:0.19513468 4:1 5:0.4774728 
2.130547092249196 1:0 2:0.19061363 3:0.3533664 4:1 5:0.83106253 
-0.2805305870275515 1:0 2:1 3:0.061066741 4:0.8731392 5:0.49660352 
-0.08302174941923542 1:0.23293104 2:0.83468286 3:0 4:1 5:0.69638601 
7.034825176285004 1:0 2:1 3:0.71430375 4:0.51308913 5:0.2343293 
-9.798862365053447 1:0 2:1 3:0.71740643 4:0.38722156 5:0.17205623 
2.007407438642864 1:1 2:0.15600414 3:0.17310542 4:0.25231913 5:0 
1.473426639155744 1:0 2:0.30145603 3:1 4:0.76876783 5:0.79519129 
5.779520198691278 1:0 2:0.98861528 3:1 4:0.53927292 5:0.38275096 
-0.6104140401152121 1:0.92856539 2:1 3:0.59324888 4:0 5:0.022694756 
100 1:0 2:1 3:0.75241086 4:0.47183811 5:0.40382728 
-0.3391298739141428 1:0.48006742 2:1 3:0.40048176 4:0 5:0.89964112 
-1.512638222788913 1:0.51118777 2:0.37686917 3:0 4:1 5:0.6695459 
0.06086727006706828 1:1 2:0.47160675 3:0.40239232 4:0.20916648 5:0 
1.374906845991164 1:0.2408685 2:0 3:1 4:0.8648064 5:0.94545143 
-100 1:0 2:1 3:0.77078809 4:0.49795633 5:0.39793453 
1.06925932517218 1:0 2:0.06472995 3:0.77573487 4:0.90950258 5:1 
-1.581363169339055 1:1 2:0.21882741 3:0.24619768 4:0.13181496 5:0 
-0.4695328666557452 1:0 2:1 3:0.049559451 4:0.79411245 5:0.57410752 
0.1222621230314129 1:1 2:0.6385101 3:0.60882243 4:0.42170765 5:0 
