svm_type c_svc
kernel_type rbf
gamma 0.2
nr_class 6
total_sv 187
rho 0.531553 0.225763 0.775705 0.799992 0.689767 -0.378792 0.509741 0.551767 0.347657 0.711165 0.723355 0.603832 0.0443294 -0.280598 -0.300115
label 0 2 3 5 1 4
probA -5.438 -5.29845 -4.94318 -5.28229 -5.05938 -5.21542 -4.97591 -4.96785 -5.27819 -5.11749 -5.09455 -5.05639 -4.66666 -4.28074 -5.10275
probB 0.669284 0.366131 0.635735 0.35142 0.741772 0.0826368 -0.931761 -0.753437 -0.418958 -0.481458 -0.806261 -0.546712 -0.100035 0.628436 0.929813
nr_sv 13 26 15 46 53 34
SV
0.5129829734746774 0.2214296353984817 0.7554476639010943 0.780660890269648 0.6704904356471941 1:-6.8508093 2:11.241069 3:3.549376 4:0.24288234 5:6.4996345 
1 0.9898534715719089 1 0.9991039919912702 1 1:-6.8508093 2:11.241069 3:3.549376 4:0.24288234 5:6.4996345 
0 0 0.7744278875008626 0 0.7458497875591391 1:-5.3964954 2:5.881582 3:5.4610812 4:-1.623827 5:-0.65843608 
0.4233062416211118 0.3099501661466224 0.4509693350035419 0.4667072176707844 0.430070864087013 1:-6.5825552 2:11.17294 3:5.328542 4:-1.4780946 5:0.43336719 
0.3825251606346927 0 0.4133026356861036 0.5033855584077782 0.3274622705382777 1:-6.782109 2:11.593602 3:2.5963545 4:-0.12959593 5:1.632754 
0.8841767230915608 0.9425692026179036 0.9526020094536867 0.9614354259801948 0.9726719808778599 1:-6.782109 2:11.593602 3:2.5963545 4:-0.12959593 5:1.632754 
0 0 0.001547154068854611 0.00320152977958295 0 1:-6.6070237 2:11.38177 3:3.9329509 4:-2.1615604 5:0.29269852 
0.5705119506721721 0.3622257425755787 1 0.8019404432679313 1 1:-5.3964954 2:5.881582 3:5.4610812 4:-1.623827 5:-0.65843608 
0.1823147859820201 0 0.2421751466967362 0.254091474404338 0.1747602328795205 1:-6.6318651 2:11.04958 3:5.7030925 4:-0.91320961 5:2.3040861 
0.05377564415414683 0 0 0 0 1:-6.7157578 2:11.291673 3:4.4333882 4:-0.043708795 5:1.9485688 
0.9901607649889511 0.6918040180916862 1 1 0.9521060855454475 1:-6.6070237 2:11.38177 3:3.9329509 4:-2.1615604 5:0.29269852 
0.9858293877082051 0.8617372976664295 0.9987466342160971 0.9994266864310785 0.9405074603538628 1:-5.3964954 2:5.881582 3:5.4610812 4:-1.623827 5:-0.65843608 
0.9517149873371039 0.8532664933532988 0.9929639986853708 1 1 1:-6.6318651 2:11.04958 3:5.7030925 4:-0.91320961 5:2.3040861 
-0.4682211455805769 0.6211272350212256 1 1 1 1:4.6123726 2:7.324953 3:6.4717848 4:-1.2663563 5:-4.9463617 
-0 0 0.1048262809047244 0.1425508330950391 0 1:-2.0869005 2:3.8764217 3:-1.762361 4:-2.8185962 5:1.1809443 
-0 0 0.08126101416528528 0.1418025926274854 0 1:-2.3571115 2:4.3562752 3:-3.7120936 4:1.8481575 5:0.097153918 
-0.326692891919212 0.4330802378989162 0.970454141296617 0.9978964669454211 0.9380708846339874 1:-2.3571115 2:4.3562752 3:-3.7120936 4:1.8481575 5:0.097153918 
-0.1450793605786548 0.192762038873138 0.4721926743992345 0.4855208868584682 0.4203219714500147 1:-2.2239193 2:4.2081371 3:-3.2408749 4:-0.71273464 5:0.17726396 
-0.3465830823321955 0.4596622185101718 1 1 0.9993637949417103 1:-2.2417871 2:4.473459 3:-5.9213053 4:-3.6681356 5:2.1587427 
-0.4683340135773484 0.6212236580088542 1 1 1 1:-20.66301 2:-3.0156476 3:-1.0049085 4:1.2643506 5:-1.2746365 
-1 0.6208153697383924 1 1 1 1:-5.9866901 2:9.0271093 3:3.65815 4:-1.1249138 5:1.4016373 
-0.4674200527179916 0.6844052924506968 1 1 1 1:5.1662123 2:0.24942416 3:-3.1303263 4:-0.1322368 5:-3.24412 
-0 0 0.1559439853462497 0.2896047511038533 0.02841291620694322 1:-2.3045634 2:3.8145815 3:0.12945975 4:4.2543872 5:0.0059151941 
-0.1264218623177981 0.1669548684341138 0.4019924743805668 0.3996321388666027 0.3617966316063583 1:-2.2960552 2:4.2958887 3:-3.8406707 4:0.030729225 5:0.86774232 
-0.2709252944525273 0.3589547496595538 0.8854379512956034 0.9301410005097496 0.7877483446987403 1:-2.3150443 2:3.9066687 3:-1.0315738 4:2.8267494 5:1.3170924 
-0 0 0.2973686383049388 0.3331226157105027 0.171683694678837 1:-2.0874089 2:4.444676 3:-4.7725746 4:-4.183439 5:-1.9190636 
-0 0 0.5112730863046022 0.5661403918777849 0.5061196524582146 1:24.159826 2:-1.7488967 3:2.1605666 4:2.7122308 5:2.410178 
-0.4675854932951239 0.6782634314614258 1 1 1 1:4.0164812 2:4.6543593 3:-1.5771328 4:-2.9525274 5:-3.2562115 
-0.3430774420625858 0.455701488270422 1 1 0.9886792355511472 1:-2.0869005 2:3.8764217 3:-1.762361 4:-2.8185962 5:1.1809443 
-0 0 0.00693231684761593 0.01157168747097657 0 1:-2.2487572 2:4.3781677 3:-4.9901004 4:-2.4429367 5:1.6825227 
-0.4501506452967519 0.5978700840990737 1 1 1 1:-5.5870299 2:5.2568207 3:1.0517005 4:2.6050803 5:1.5882871 
-0.1447336883628828 0.1917169410184753 0.472275910722586 0.4880922899661258 0.417169964918448 1:-2.197472 2:4.1277334 3:-3.5134381 4:-2.4064335 5:2.110525 
-0.468039202256445 0.6210657626491547 1 1 1 1:22.602 2:-18.249119 3:-0.39047953 4:1.6606601 5:0.28856344 
-0.3553941639210036 0.4715299866539427 0.9958607376229401 0.9250732381090335 0.9977486148641272 1:-2.3045634 2:3.8145815 3:0.12945975 4:4.2543872 5:0.0059151941 
-0.4683609462762105 0.621155733179432 0.9986477218839063 0.9855349072227297 0.8507618603747386 1:24.159826 2:-1.7488967 3:2.1605666 4:2.7122308 5:2.410178 
-0.01438690483667429 0.01809703996531341 0 0 0 1:-2.1320835 2:4.4543455 3:-5.066874 4:-3.9438214 5:-0.8563043 
-0 0 0.1152600615500884 0.1455253917973175 0 1:-2.2403577 2:4.4992221 3:-6.0422597 4:-3.7221006 5:1.9585142 
-0.404673463272806 0.5370796089856591 1 1 1 1:-2.0690882 2:4.4062308 3:-4.3284718 4:-3.9087702 5:-2.538833 
-0.2012189666078531 0.2675073585812295 0.6171163847314309 0.6257971378823545 0.5789918729937484 1:-2.1741762 2:4.494327 3:-5.4968047 4:-3.7701922 5:-0.058758747 
-0 -0.2933497080907774 0.5600769727929925 0.5743516296009016 0.4794135705375389 1:5.6270923 2:1.2084887 3:1.0725272 4:0.53519391 5:4.4622856 
-0 -0.1278162684037392 0.4054690291875776 0.3903558818416957 0.3012933658048175 1:5.941964 2:1.6064583 3:0.67047348 4:-2.2826764 5:-5.5239088 
-0.7738618165521978 -1 1 1 1 1:43.161791 2:3.5045568 3:0.66311101 4:4.6368137 5:5.2411086 
-0 -0.4935381232665185 0.8005071682644938 0.7492885683843969 0.6507811753053958 1:-10.465534 2:3.4959499 3:3.8902925 4:0.033768603 5:2.7002404 
-0.3134908979567376 -0.5117098616283084 0.6890394358662162 0.6947706922470728 0.6459240895884231 1:5.7982028 2:1.4158948 3:0.88007098 4:-1.0008824 5:-0.85666611 
-0.7058335559425573 -0.9636007877938711 1 0.9965950804757215 0.9827888757446883 1:5.6270923 2:1.2084887 3:1.0725272 4:0.53519391 5:4.4622856 
-0.6245191053362484 -0.9902828076699863 0.9745970169756 1 0.9921080785087957 1:5.941964 2:1.6064583 3:0.67047348 4:-2.2826764 5:-5.5239088 
-0.1435784746903828 -0.2914573398629796 0.3220753726401608 0.3238857325022021 0.3017200423019656 1:5.7460139 2:1.4572693 3:0.53637568 4:-0.48170549 5:-0.18536734 
-0 -0 0.08509821606767297 0.09237340146526338 0.01662279825030392 1:5.7250843 2:1.3155175 3:1.0543337 4:-0.25955216 5:1.4037894 
-0 -0.01380990770269525 0 0 0 1:5.8015612 2:1.624791 3:-0.12437023 4:-1.363908 5:-2.2989496 
-0.4364403809531629 -0.858867781110366 0.9637558924176665 0.9712280356206602 0.9041898351460457 1:5.8366766 2:1.6464387 3:-0.28798334 4:-2.1181021 5:-2.6867505 
-0.195486557662045 -0.3206244222710105 0.4337400439450942 0.4360803290970593 0.4060388175203444 1:5.8654838 2:1.5245177 3:0.84260978 4:-1.3179263 5:-3.5618803 
-0.7741043765598199 -0.8854001383799415 0.9514617083005756 0.9745783283484467 0.9530491465941023 1:-10.465534 2:3.4959499 3:3.8902925 4:0.033768603 5:2.7002404 
-0.4913120543422718 -0.8685159572789966 0.9994298999784446 1 1 1:5.7250843 2:1.3155175 3:1.0543337 4:-0.25955216 5:1.4037894 
-0.7742088074264865 -1 1 1 1 1:15.841077 2:-5.211064 3:-1.4744134 4:0.68213612 5:0.83947397 
-0.1965601293274 -0.4292206189480999 -0.2530364527881515 0.9204259267981919 0.6309496200629239 1:-17.000053 2:-14.356302 3:-4.1540395 4:0.36316455 5:-0.30505501 
-0.2231065857440575 -0.4876444041333815 -0.2873506401967698 1 0.7150926829249279 1:-5.105053 2:-2.1267698 3:3.9138013 4:0.34886659 5:3.5113116 
-0.1674193596934067 -0.3663339100905736 -0.2157927210870424 0.7818652721342215 0.5367808284992219 1:-15.132753 2:-13.91423 3:-2.4813198 4:0.75649345 5:1.970696 
-0.2240676116423478 -0.4901688984582692 -0.2886742564679798 1 0.7194534515443689 1:17.017099 2:-22.27133 3:-2.573452 4:-4.8672009 5:-1.0264795 
-0.06185126876948242 -0.134760751801128 -0.07989098376598608 0.2887057430877901 0.2550978479787701 1:-17.765336 2:-16.146916 3:1.1320311 4:-0.82990989 5:0.37126489 
-0.2196418032690055 -0.479759852187246 -0.2829714490094521 1 0.9786796591625992 1:-14.730359 2:-19.324314 3:2.12975 4:0.96982362 5:1.7341385 
-0.2236590669078925 -0.4894278088631525 -0.2887639668617579 1 0.7183530502871314 1:-17.267303 2:-13.888857 3:-5.7514363 4:5.5183082 5:-1.9274201 
-0.22351208951499 -0.4885958140066769 -0.2879859366873457 1 0.751171073180007 1:-17.017352 2:-20.275926 3:-0.44880074 4:-1.1925533 5:-2.9653127 
-0.1018503904867834 -0.2218204299997487 -0.1307663479743915 0.4719357084037312 0.3234158395571962 1:-16.84131 2:-15.091829 3:-0.39931825 4:-0.86126909 5:2.2380392 
-0.130857817537921 -0.2871345991729781 -0.1689024726392527 0.6272256553294613 0.4214501160290241 1:-13.629001 2:-8.0888825 3:2.0235479 4:0.00071053261 5:-0.31966713 
-0.2241244846443775 -0.4899507702625179 -0.288497567799879 1 0.7192812377269182 1:5.169229 2:-3.8987448 3:0.2635415 4:-2.2603833 5:-9.4147779 
-0.195156011919627 -0.4266831263337726 -0.2655568141464363 0.9105315515522028 0.6260470513000236 1:-9.3464414 2:-2.8596816 3:3.2054807 4:-0.7685487 5:1.312133 
-0.213836804451301 -0.4679449015028159 -0.2767712772967318 0.9970533134751007 0.6869216943750411 1:-14.657833 2:-2.3697106 3:3.3953874 4:-0.066041085 5:2.5178584 
-0.1900231980197125 -0.4145840706872543 -0.2436641456375122 0.8829979385399855 0.607304793078344 1:-16.586337 2:-15.111216 3:1.1284932 4:-2.2306014 5:-4.082029 
-0.2240675867798054 -0.4900687956055823 -0.2885801298766397 1 0.719584562102193 1:-10.176441 2:-1.979884 3:-3.7806402 4:4.7857627 5:-0.14528581 
-0.0925100539900339 -0.2018924403389459 -0.1194309080227062 0.4323986317744843 0.4054277513229441 1:-15.021318 2:-15.476866 3:1.1286053 4:-0.3873888 5:0.46229551 
-0.2241693362200825 -0.4902671087767322 -0.2889360635378233 1 0.7190242289258577 1:-27.70502 2:-2.4502066 3:-2.7283824 4:-1.8562974 5:10.017434 
-0.105597911716625 -0.2303728466438528 -0.134819132537474 0.4874133282979213 0.3252169458197841 1:-16.66114 2:-15.187936 3:0.57591526 4:-2.7266154 5:-0.4533446 
-0.2118449263899821 -0.4631469299143487 -0.27242300600759 0.9866013741215395 0.6806998692204512 1:-18.543167 2:-13.687207 3:2.6142837 4:0.5110757 5:-4.1549964 
-0.2244809629682608 -0.4903750662731735 -0.2892799844507782 1 0.7201137003864714 1:29.453162 2:13.747261 3:0.61787251 4:-0.74194242 5:5.6699332 
-0.03516210484189312 -0.07325747041302176 -0.04383613582201092 0.1570757814857162 0.09662298069956538 1:-16.889156 2:-14.874839 3:-0.81610003 4:0.93524313 5:-0.22773134 
-0.02320570060269903 -0.05216294001096262 -0.03194430432297049 0.1130083399989422 0.08783380428341621 1:-16.64128 2:-15.261585 3:1.6359255 4:-1.5397412 5:-1.9262782 
-0.2243587318871396 -0.4902257905241116 -0.2892228710638544 1 0.719278654875211 1:-32.450551 2:-34.541759 3:-1.562789 4:-3.1298682 5:3.8483677 
-0.1741242599456887 -0.3807911001201638 -0.4324155122095704 0.810829182683188 0.5579239107879154 1:-11.268562 2:0.21803855 3:3.2256693 4:-0.0060614132 5:2.5309959 
-1 -0.5190395714921812 -0.289252621218588 1 1 1:-5.3999782 2:5.8961349 3:5.4575841 4:-1.6205357 5:-0.64002176 
-0.2246673635601834 -0.4903717678684712 -0.2887774745081926 1 0.7192502891078238 1:0.90305269 2:25.168994 3:7.4107285 4:1.3232041 5:6.3847401 
-0.005350274958447068 -0.01604993548889667 -0.008656062452493457 0.03603394041736927 0.03358009064558572 1:-16.863735 2:-15.059741 3:0.51159735 4:1.6744198 5:-0.40364203 
-0.2240945319815729 -0.4900278497374216 -0.2891908143937906 1 0.7194143042551628 1:21.150647 2:7.9512553 3:3.1046801 4:0.96484496 5:3.2949801 
-0.2241693362200825 -0.4903750663051527 -0.2891787108942711 1 0.7196436953099732 1:1.1353099 2:-18.30184 3:0.59661823 4:-1.5854065 5:4.1918433 
-0.2241880862948389 -0.490423741148281 -0.2888903864031759 1 0.7190521358648614 1:-19.849427 2:-7.3307106 3:2.7730303 4:-1.6507211 5:1.2855289 
-0.2241106961959239 -0.4905062662996267 -0.2887774745081927 1 0.7189857586370888 1:21.678417 2:-28.051186 3:6.4898797 4:-7.8041332 5:-12.962122 
-0.2240941907573317 -0.4904267585162284 -0.2892048998667634 1 0.7194332440793336 1:-13.184283 2:-25.704016 3:-1.8076185 4:3.4687485 5:3.1717334 
-0.0375692777359735 -0.07848099215566087 -0.04730114431516689 0.166296735428629 0.1029967791132124 1:-16.836644 2:-15.26723 3:1.5218378 4:1.5016784 5:0.62820932 
-0.0875258734125177 -0.1931787693669691 -0.1131121263723279 0.4112455309231468 0.2642341048443455 1:-16.782703 2:-15.389188 3:1.6910802 4:-0.090108795 5:2.030546 
-0.1317210029841232 -0.2870697036549845 -0.1688594609271164 0.6071717935132138 0.4202316699321777 1:-13.647972 2:-9.2852222 3:1.7573161 4:-0.4642339 5:-0.26102001 
-0.2241578838376597 -0.4902671087766833 -0.2886675868163011 1 0.7196510731018597 1:-7.4135582 2:-18.65585 3:4.3306047 4:-8.7627341 5:-1.9492174 
-0.227089003499733 -0.490255649308022 -0.2889845584314927 1 0.719519217054458 1:-1.8389967 2:12.457057 3:7.049935 4:-2.1084715 5:-0.80276467 
-0.2235301462904518 -0.4887950860350196 -0.2886819952030638 1 0.7196030813972011 1:-22.038715 2:-18.926121 3:0.62757566 4:-1.0766844 5:0.49689685 
-0.05373504385063981 -0.1167722697832767 -0.06741256838582305 0.2455359887562963 0.1361173163201317 1:-16.715318 2:-15.265902 3:1.6917431 4:-0.19305223 5:-1.1033493 
-0.224113765625764 -0.490323304693721 -0.2910132975723518 1 0.7193079367235951 1:-7.1214774 2:2.2759585 3:6.8520977 4:3.2964497 5:1.2872436 
-0.224951481415663 -0.4904014830934184 -0.2890096668519724 1 0.7194346370945424 1:4.9922778 2:-45.252623 3:-10.783739 4:4.0876864 5:5.4075082 
-0.2239899301612194 -0.4898543801811286 -0.2891300379776128 1 0.7196510730924102 1:6.2519249 2:6.0474835 3:7.1176954 4:-3.8291944 5:3.1717087 
-0.05656684544659707 -0.1236902930615157 -0.0728668024425372 0.2654235710635999 0.1805343930495731 1:-16.722408 2:-14.979487 3:-0.34674222 4:-1.844558 5:-0.9818613 
-0.07169840714999448 -0.156233548114974 -0 0.3343287433853636 0.2299427579713256 1:-11.353776 2:-1.3032213 3:3.3067125 4:-0.35594089 5:1.4906439 
-0.2026390814983389 -0.4417943411102944 -0.2606983615588925 0.9415515135307934 0.6493312102694027 1:-16.697628 2:-15.632491 3:1.4689301 4:3.8844352 5:-0.81627097 
-0.1070320450647771 -0.2359150484959525 -0.1380716251262621 0.5013575713127553 0.3490699831122567 1:-16.970178 2:-14.866844 3:-1.0366133 4:1.9345722 5:1.1269573 
-0.1934735568993224 -0.4518317767994292 -0.2673968708263819 -0.9235048651837693 0.6768296354530753 1:-0.0070281221 2:5.2192764 3:-1.963115 4:7.1876633 5:1.3958231 
-0.199930883613107 -0.4482160198500292 -0.2765528807285502 -0.9557669246004843 0.6999170236677992 1:-6.4283938 2:-6.2699367 3:-9.1674964 4:0.25032208 5:-3.5890891 
-0.3824261998417283 -0.7419104688095026 -0.2735254402477569 -0.9522450320934656 0.7003330988979568 1:-6.878242 2:8.377167 3:2.9877012 4:0.94614244 5:0.71909744 
-0.1694678438464988 -0.379297959898535 -0.2340726319544781 -0.8097150902956762 0.5933042776635713 1:-6.1711929 2:3.299783 3:-0.87038964 4:-5.9686817 5:2.5387198 
-0.1035241293564383 -0.2322431766121207 -0.1434360525828502 -0.4956356667507867 0.3636062224882127 1:-9.2228801 2:7.5318829 3:-2.0052697 4:6.847625 5:-0.10608426 
-0.1679554449567894 -0.3762624395898145 -0.2318149940402584 -0.8009586641994184 0.5865606999233722 1:-6.3753471 2:7.9688867 3:-2.2977463 4:6.3462671 5:-0.61719222 
-0.1377838149458414 -0.3097405164372134 -0.1912627537553811 -0.6772300513426229 0.4840316410104242 1:-10.764333 2:-2.5937443 3:-2.4135336 4:0.45413278 5:0.3077121 
-0.1289709278823305 -0.2882973742810737 -0.1778533096834588 -0.613931174426826 0.4485069832822323 1:-9.612389 2:6.3162137 3:-1.6813504 4:6.9885113 5:-1.3960302 
-0.04321754173322807 -0.01887902743261452 -0.05882612895067049 -0.2057093104546907 0.1546629685080686 1:-6.5482397 2:3.6969996 3:-0.67151431 4:4.2011471 5:-1.0501125 
-0.1994310497728228 -0.4478135442035762 -0.2764744501978009 -0.9542325230972352 0.6986844052407992 1:-6.4065025 2:-0.55878832 3:-5.8437288 4:-1.6890095 5:1.2181999 
-0 -0.003092619150008967 -0.000589355704495042 -0 0 1:-6.7163819 2:3.8678758 3:-1.4344991 4:6.9524109 5:-0.4603939 
-0.1998197055974405 -0.4480738663190207 -0.2765268201561874 -0.957711299385 0.7002018196920647 1:-21.548848 2:-16.32703 3:-4.6140423 4:3.1789755 5:0.22301833 
-0.113430856065721 -0.2349952433649739 -0.157357618723676 -0.5230370998370034 0.3995300931588882 1:-6.4680124 2:3.202798 3:2.4635954 4:5.0883104 5:-0.51797164 
-0.2000071656953716 -0.4482265950049752 -0.2764994823487305 -0.9674236857123079 0.6997557728056791 1:-14.944056 2:-8.4491615 3:5.9928382 4:0.86581967 5:-2.1569619 
-0.09129643397211978 -0.4833344494442141 -0.1284172969611966 -0.4362936086265889 0.3170776766787846 1:-6.5402202 2:3.5411295 3:-0.30267741 4:3.5032793 5:0.81958101 
-0.200176531801818 -0.4481675925827212 -0.2763979285419184 -0.9647456586643675 0.6999086434267487 1:-15.547103 2:-10.254641 3:-2.527975 4:1.4135921 5:-2.2202965 
-0.4076176885815646 -0.4717640802932904 -0.2730824473554508 -0.9442918306821928 0.6910811386009462 1:-3.7590096 2:11.568942 3:2.8988229 4:1.0156201 5:2.1021675 
-0.1098105419435582 -0.2543156246777228 -0.1508862179790342 -0.5246070388294775 0.383814770325174 1:-5.630322 2:2.3486985 3:-2.6332712 4:7.0225903 5:0.46720715 
-0.1999133739881491 -0.4482469249421045 -0.2765682102548674 -0.9556460360150915 0.6996313678690131 1:0.71447636 2:6.4057838 3:9.7440983 4:-3.7400939 5:9.6729506 
-0.09236042332477688 -0.2068463906597603 -0.1275275354007049 -0.4409805918476449 0.3249079992346063 1:-6.721472 2:3.967252 3:-1.7032883 4:7.3235561 5:-1.5914762 
-0.1990229090720063 -0.5044672869658422 -0.2757383003642004 -0.953169877286549 0.6979216487398259 1:0.17613203 2:7.3829068 3:-3.4703435 4:2.504593 5:0.68986939 
-0.1998913488035782 -0.4481841497016965 -0.2765272891707903 -0.9559999475001315 0.6996580195382308 1:-12.435489 2:-10.283496 3:-5.1141584 4:6.8544886 5:-1.7477259 
-0.007926610519688427 -0.001370568746345481 -0.01192637936465106 -0.03687650937242553 0.02836260241887551 1:-5.8408786 2:1.7162375 3:-2.5386944 4:6.2624785 5:-0.44277172 
-0.1623687866587042 -0.3618506766494228 -0.2241528114833174 -0.77584231811924 0.568089200667516 1:-6.5548732 2:4.1553598 3:-2.6226994 4:4.1865173 5:-4.6612711 
-0 -0.1839638780044912 -0 -0 0 1:-6.4659331 2:3.2561622 3:1.4280894 4:3.3733509 5:0.97445672 
-0.09982915398572161 -0.2255082168632831 -0.1378991691090449 -0.537296332927609 0.3503532581585542 1:-9.0933969 2:0.92857686 3:-2.0454903 4:6.3533002 5:-0.68322526 
-0.197248061312874 -0.4577039955525029 -0.2727295172966741 -0.9414241220626333 0.6896866765837549 1:1.3902571 2:1.0636574 3:-4.0745933 4:0.40903282 5:0.41521296 
-0.1996644371038368 -0.4477898085697682 -0.276406137624688 -0.9546718461114552 0.6986875274372757 1:-13.095759 2:10.926547 3:-1.0602 4:5.0021031 5:-0.99498041 
-0.1998617542708135 -0.4483199382891456 -0.2760790268156491 -0.9560142289934443 0.6995745813894354 1:-37.824345 2:4.3708574 3:-3.4060918 4:6.6700261 5:-2.9209763 
-0.1998197496263677 -0.4479846138473565 -0.276569529378422 -0.9556012581246407 0.6997258010144818 1:-5.515593 2:0.49106342 3:16.236521 4:-5.8353438 5:5.0594231 
-0.181423827052218 -0.4115908191641703 -0.2513353825186281 -0.867037071694599 0.6349487593372045 1:-2.0159139 2:1.9993184 3:-1.3305666 4:8.5985257 5:-1.3735182 
-0.0677073146466258 -0.1538547989661448 -0.09328219817340705 -0.3109439760544864 0.2372365462857017 1:-8.2925647 2:2.2401549 3:-2.7489493 4:5.422835 5:-1.8045223 
-0.199861712971614 -0.4482453776952108 -0.2769607191278864 -0.9556213928408622 0.6999492928680443 1:-17.659193 2:-22.970684 3:-7.755798 4:4.9676907 5:-1.9270368 
-0.1992572193642055 -0.4465389793161503 -0.2751793534995037 -0.9584181305342355 0.697398612564283 1:-7.1097879 2:-2.9658747 3:-3.3170875 4:8.4823226 5:0.93395894 
-0.1749736342884093 -0.5047976541762499 -0.242379606366607 -0.8362051401237547 0.6124098578723411 1:-4.4024153 2:1.633801 3:-3.5702292 4:3.3707396 5:0.41600609 
-0.1694247699463872 -0.402227798354918 -0.2343607055883651 -0.809804001389801 0.5934787829146695 1:-6.3179625 2:3.4121149 3:-1.134928 4:-3.0664664 5:2.7746924 
-0.08708864859246318 -0.201952788012688 -0.1213110428602728 -0.4180642628123946 0.3055324500701712 1:-6.6524619 2:4.1873656 3:-3.574916 4:4.1679261 5:-1.7837839 
-0.196868059373406 -0.4411419963208218 -0.2727503186928817 -0.9417004852812706 0.6895382157186222 1:-0.16715886 2:-2.7051974 3:-6.1528801 4:0.57915134 5:0.69114058 
-0.08542926206882971 -0.1891538179316637 -0.1185682778882214 -0.3956703992943114 0.2977995697694876 1:-9.2174869 2:1.7251405 3:-2.5391079 4:6.1573945 5:0.20976561 
-0.1300529809959058 -0.2877860083252891 -0.180891312659839 -0.6234059128831265 0.4565511720557394 1:-6.7806506 2:4.0917368 3:-3.7672271 4:5.137507 5:1.9496523 
-0.1625350102099347 -0.423353384469034 -0.2276765331786015 -0.7543373679234532 0.5674248123449125 1:-6.485954 2:3.0452152 3:2.1248682 4:3.3591121 5:3.4665887 
-0.09586417307804204 -0.1953444594853398 -0.1345837790213137 -0.5583915997091611 0.3355060474724152 1:-6.3982173 2:2.9213644 3:3.5219873 4:3.6922343 5:1.254839 
-0.01460820971928917 -0.06035021841553888 -0.02060890364052872 -0.07229408459764625 0.04595303349302705 1:-6.5618124 2:3.6526464 3:-0.31569121 4:4.7878697 5:-0.95305608 
-0.1739556393832371 -0.3927767124518944 -0.2402020937147927 -0.8285964047821652 0.6072689720581808 1:-6.7686479 2:4.3876379 3:-5.9807334 4:2.9034734 5:1.8219815 
-0.1999027367871267 -0.4482164126363601 -0.2767439598485917 -0.9556467521120814 0.7000429906247099 1:-6.5617079 2:5.5632927 3:-16.210745 4:-11.686936 5:3.1819723 
-0.01902764165479973 -0.03812101229747359 -0.02529032876546853 -0.09013733047956342 0.06522777293342882 1:-6.7118834 2:4.1704352 3:-4.0461087 4:4.0760163 5:0.38536385 
-0.1993845673752637 -0.4468531885261803 -0.2758012624283885 -0.9576709052507799 0.6981386643934818 1:-14.327001 2:0.2622941 3:-3.1350256 4:6.8856971 5:-0.315737 
-0.1387621715830939 -0.3097363558543781 -0.1909977603712213 -0.6545998441008852 0.482676917215647 1:-10.83027 2:-2.1081551 3:-2.290578 4:-0.98342396 5:1.6135789 
-0.1485385258821756 -0.3466703232050323 -0.2054667363169907 -0.7096573128626525 0.5195616766842057 1:-3.45257 2:4.5708151 3:-2.6955664 4:7.7032947 5:-0.65515945 
-0.02652258813842145 -0.05591954031123592 -0.03616740018216197 -0.126675152341533 0.0907264853452405 1:-6.7451806 2:4.1980895 3:-3.2142438 4:6.5780863 5:-1.8488979 
-0.1067003415660291 -0.2591766751992424 -0.1470736809641547 -0.509281552717104 0.3727010982496429 1:-4.960207 2:2.7095973 3:-2.2551247 4:5.2117576 5:-2.7060308 
-0.1509245827857159 -0.3354991853858723 -0.2061609316317289 -0.7066664618100433 0.5224239689381165 1:-6.3244308 2:3.1301404 3:2.6974332 4:2.5010729 5:-1.3791659 
-0.03489267556719584 -0 -0.04661880514257986 -0.1656250018749546 0.1258586751544391 1:-6.5683944 2:3.5149525 3:-0.085647317 4:4.2051169 5:1.1410138 
-0.3103314258578516 -0.6520439887315466 -0.3961336124564048 -1 -1 1:0.26034753 2:17.697458 3:4.9252707 4:-1.0586281 5:3.6146614 
-0 -0 -0 -0.2810123596220867 -0.3005978289818889 1:20.111808 2:0.3761887 3:-0.82294308 4:2.5147989 5:3.5775819 
-0.3101114082804954 -0.6520690634273856 -0.3963151141845017 -1 -1 1:30.648688 2:-28.750195 3:-4.2845971 4:2.6823942 5:-2.6045181 
-0.3104507099629918 -0.6522896471534094 -0.3961686749283468 -1 -1 1:-15.244673 2:-7.0422898 3:2.6345845 4:8.4819001 5:-1.52451 
-0.310122820138463 -0.6522896469238193 -0.396207689695649 -1 -1 1:29.629231 2:8.3664581 3:-0.63806081 4:-2.6588146 5:7.1214232 
-0.3067448557099794 -0.645277342349497 -0.4017258989969426 -1 -1 1:16.016611 2:-1.847695 3:0.20327256 4:0.33113097 5:-2.088341 
-0.3086017386821518 -0.6476757665015156 -0.3935282815997973 -1 -1 1:5.9539892 2:-7.3463773 3:1.9253023 4:-0.14736682 5:-2.7359331 
-0.310078767258564 -0.6519609737776877 -0.3960478864771811 -1 -1 1:-19.449234 2:-23.549066 3:0.67288071 4:-0.97228106 5:-1.4088914 
-0.02347597115078846 -0.005327036923994876 -0 -0.04782093524698598 -0.02835216951088358 1:26.475334 2:-5.8445646 3:0.53683576 4:0.84973055 5:2.3579257 
-0.3099793258023657 -0.652484175517732 -0.3958781843968698 -1 -1 1:-15.097605 2:-18.784901 3:0.590105 4:-0.54809539 5:0.58427839 
-0 -0.03696491191310614 -0.0469592246215195 -0.04926888372690259 -0.06876099272568062 1:26.490289 2:-5.9140199 3:1.006976 4:0.98747517 5:2.3205444 
-0.2427878320592126 -0.5088298976177928 -0.3096174639638426 -1 -1 1:26.406597 2:-5.3898979 3:-1.9816503 4:0.70082189 5:0.9425734 
-0.309918773867261 -0.6521872314189268 -0.396191285458973 -1 -1 1:0.7073989 2:16.301884 3:-5.9568578 4:-4.944571 5:2.5488333 
-0.3104135429478717 -0.6526057708080981 -0.3960898456459518 -1 -1 1:-12.382348 2:-8.0200939 3:-5.0257672 4:0.71131639 5:4.7474311 
-0.07221599088749922 -0.1502653680824052 -0.09227750433205642 -0.2993246832048739 -0.3053104803631446 1:26.542626 2:-5.5797576 3:-0.49310378 4:-0.15899724 5:-0.76457779 
-0.2714729039613042 -0.5705246690791936 -0.3469475890366994 -1 -1 1:26.64302 2:-5.6718691 3:0.77517322 4:-0.025206789 5:-3.3424899 
-0.1417916538202604 -0.2998107245099552 -0.1805348645530842 -0.5789006240356305 -0.5845860402480689 1:26.593304 2:-5.8260242 3:0.94965644 4:-0.14875561 5:-0.3339163 
-1 -0.6819550812700051 -0.3962466274746096 -1 -1 1:-5.4312978 2:5.9135344 3:5.4609772 4:-1.6219976 5:-0.64180112 
-0 -0 -0 -0.07109855770972907 -0.08628035185562727 1:26.644437 2:-5.7123577 3:0.80441782 4:-0.35458745 5:-2.6672661 
-0.3099583900766107 -0.7759281345426903 -0.3968886085830151 -1 -1 1:2.3217676 2:4.3698241 3:-3.5284521 4:-4.4043906 5:-1.6436071 
-0.3106750178711398 -0.6525527579103187 -0.3961989488425086 -1 -1 1:-10.347393 2:9.818933 3:-4.3150165 4:-1.5542373 5:3.6494029 
-0.0341042180235512 -0.08234089474475699 -0.04924478376107066 -0.1407581459802863 -0.1478810230750767 1:26.473156 2:-5.7953592 3:0.63390066 4:1.5125154 5:1.2287044 
-0.3101083623878967 -0.7057653190524191 -0.3959131009424158 -1 -1 1:23.872327 2:-19.722063 3:1.5302498 4:-0.62008952 5:-1.1062167 
-0.2057223802693068 -0.4470947490155241 -0.2628390748427772 -0.8495364820604131 -0.862848229524367 1:24.801891 2:-5.7376275 3:0.34659941 4:2.4919364 5:4.2051819 
-0 -0.0115323937243802 -0.00497332737701966 -0.01493220691222749 -0.0301530121670564 1:26.461537 2:-5.6614231 3:-0.53853455 4:0.44063272 5:1.7956915 
-0.3065546029064068 -0.6453736376012154 -0.4064592618980534 -1 -1 1:16.279232 2:-6.4162918 3:-0.021216602 4:0.13454944 5:-3.2858098 
-0.3106736146624865 -0.6520292488187647 -0.3961165028702871 -1 -1 1:14.258339 2:3.3585837 3:-2.2711869 4:-2.833886 5:3.297301 
-0.09538866008434857 -0.2091713321215327 -0.1001826578784304 -0.3860830081263144 -0.3862873787809518 1:26.487441 2:-5.9292819 3:1.1937446 4:1.2873099 5:2.1814989 
-0.3100961775157249 -0.6526244117201272 -0.3961974509607656 -1 -1 1:26.482461 2:-12.457233 3:-1.0765447 4:0.3725623 5:4.8807573 
-0.04415217724046494 -0.07749901192048407 -0.05163860354731333 -0.1802986638049201 -0.1783061102959579 1:26.515633 2:-5.8958811 3:1.1336724 4:0.95908697 5:1.3802341 
-0.3104035883005651 -0.6525264864026162 -0.396353869148489 -1 -1 1:37.83968 2:29.787061 3:2.7196504 4:-5.2383597 5:7.8031878 
-0.1991289993830221 -0.4147008148821097 -0.2545980325720479 -0.8216755546762572 -0.8339142841357519 1:26.405462 2:-6.0806673 3:1.6998067 4:2.2910082 5:4.6672245 
-0.3106706502075271 -0.6551487103644809 -0.3962088787011914 -1 -0.9994820265746234 1:20.111808 2:0.3761887 3:-0.82294308 4:2.5147989 5:3.5775819 
-0.3077845581722029 -0.6480202405495237 -0.3932469455546069 -1 -1 1:1.2704983 2:-8.6358686 3:2.90218 4:-0.079880442 5:-2.0909312 
