svm_type c_svc
kernel_type sigmoid
gamma 0.2
coef0 0
nr_class 5
total_sv 1272
rho 41.0484 41.2749 -36.9413 41.4871 31.3387 32.5613 -39.0707 34.3757 33.5155 35.889
label 0 1 2 3 4
nr_sv 248 256 256 256 256
SV
0 1 1 1 1:-24.789908 2:-13.264081 3:2.2988928 4:0.30438591 5:-0.075872097 
0 0 1 0 1:-0.31572738 2:15.046759 3:5.3788798 4:-0.7592137 5:-0.30086914 
0 0 1 0 1:-0.36523495 2:15.099579 3:4.7992503 4:-1.0626944 5:-1.4126369 
0 0 1 0 1:25.675484 2:-11.654795 3:0.74933536 4:-1.2656182 5:-1.0533396 
0 0 1 0 1:-0.51948074 2:4.2409497 3:-3.7598942 4:4.8687048 5:-2.2838838 
1 1 0 1 1:-6.2163858 2:4.800655 3:-5.405509 4:-1.0586157 5:1.1643074 
1 1 0 1 1:6.459464 2:0.97596768 3:0.47751965 4:2.2029105 5:4.5249053 
1 1 0 1 1:6.4818465 2:0.99760406 3:0.41276222 4:2.4111303 5:5.3641051 
0 0 1 0 1:25.653938 2:-11.681982 3:0.86946325 4:-1.5953904 5:-1.7290781 
0 0 1 0 1:25.657262 2:-11.683929 3:0.89652327 4:-1.5844344 5:-1.6282239 
1 1 0 1 1:-0.53040857 2:4.242926 3:-3.8191583 4:4.8045186 5:-2.6251365 
0 0 1 0 1:-0.12952959 2:10.376159 3:5.6131541 4:-0.28473924 5:0.6669422 
1 1 0 1 1:-6.3449315 2:4.6710282 3:-4.7447352 4:-5.3009238 5:0.75463772 
0 1 1 1 1:-24.795646 2:-13.265404 3:2.2894767 4:0.20056226 5:-0.1719757 
1 1 0 1 1:-0.52907459 2:4.2718739 3:-4.0406275 4:5.0673373 5:-2.6775434 
1 1 0 1 1:6.4826542 2:0.9954831 3:0.43115015 4:2.4182977 5:5.3669467 
0 0 1 0 1:25.663732 2:-11.67437 3:0.84280523 4:-1.3707524 5:-1.5771637 
0 0 1 0 1:-0.50180099 2:4.2160118 3:-3.4900008 4:4.7424831 5:-1.6030431 
1 1 0 1 1:-6.3277022 2:4.6829967 3:-4.7543881 4:-5.2267275 5:1.4865779 
0.0241166794594276 0 1 0 1:25.696832 2:-11.674748 3:0.98279588 4:-1.1559128 5:-0.51077142 
1 1 0 1 1:-6.3921726 2:4.7182395 3:-5.4426213 4:-3.5373401 5:-3.3329188 
1 1 0 1 1:6.4795047 2:0.99752006 3:0.40191781 4:2.4214681 5:5.2521571 
1 1 0 1 1:-6.4059639 2:4.6676937 3:-4.9963652 4:-5.4806579 5:-1.570285 
1 1 0 1 1:6.4806548 2:0.99623236 3:0.41660422 4:2.4138184 5:5.2962822 
1 0 1 0 1:25.66472 2:-11.674148 3:0.85263129 4:-1.4440304 5:-1.4242089 
0 0 1 0 1:-0.30046398 2:15.079169 3:5.1870145 4:-0.34250223 5:0.033540173 
1 1 1 1 1:-24.804396 2:-13.277449 3:2.3600177 4:-0.13182578 5:-0.17548168 
1 1 0 1 1:-0.52648019 2:4.17571 3:-3.2845739 4:4.3348285 5:-2.4185034 
1 0 1 0 1:25.65411 2:-11.683152 3:0.88150467 4:-1.6346238 5:-1.6785125 
0 0 1 0 1:-0.51938405 2:4.1010176 3:-2.670989 4:3.732177 5:-1.9619025 
1 1 0 1 1:6.4779645 2:0.9966237 3:0.40316966 4:2.392424 5:5.2216485 
0 0 1 0 1:-0.38192684 2:15.12092 3:4.5885809 4:-1.2992232 5:-1.5570037 
0 0 1 1 1:-24.818294 2:-13.23009 3:1.9247745 4:0.3026004 5:-0.92731934 
0 0 1 0 1:-0.44224176 2:4.1982333 3:-3.0956274 4:4.911826 5:0.47702282 
0 0 1 0 1:-0.30625448 2:15.104186 3:4.9715996 4:-0.2160606 5:-0.15322993 
0 0 1 0 1:-0.41915008 2:15.360528 3:2.6647065 4:-0.69489827 5:-1.6842768 
1 1 0 1 1:-0.5318456 2:4.2798431 3:-4.1171149 4:5.1481164 5:-2.8323363 
1 1 0 1 1:6.4873213 2:0.99648418 3:0.44091692 4:2.4757403 5:5.4797997 
1 1 0 1 1:6.4882151 2:1.0007415 3:0.40944912 4:2.5428873 5:5.4658892 
0 0 1 0 1:-0.30618402 2:15.212734 3:4.1260636 4:0.72044956 5:-0.47077778 
1 1 0 1 1:6.4448089 2:0.9678866 3:0.48661872 4:1.946257 5:4.2073213 
0 0 1 0 1:-0.51236905 2:4.2462248 3:-3.7606086 4:4.8544786 5:-1.9054678 
1 0 1 0 1:25.6534 2:-11.683464 3:0.8782758 4:-1.6160156 5:-1.737943 
1 1 0 1 1:-6.3480608 2:4.6650807 3:-4.7097385 4:-5.3953943 5:0.70522276 
0 0 1 0 1:-0.30618402 2:15.212734 3:4.1260636 4:0.72044956 5:-0.47077778 
1 1 0 1 1:-6.3141955 2:4.6185397 3:-4.26325 4:-4.8702046 5:0.90042551 
0 0 1 0 1:-0.30625448 2:15.104186 3:4.9715996 4:-0.2160606 5:-0.15322993 
0 0 1 0 1:-0.35889111 2:15.101995 3:4.8055853 4:-0.99281567 5:-1.2272068 
0 0 1 0 1:-0.30046398 2:15.079169 3:5.1870145 4:-0.34250223 5:0.033540173 
0 0 1 0 1:-0.12952959 2:10.376159 3:5.6131541 4:-0.28473924 5:0.6669422 
1 1 0 1 1:6.4726315 2:0.98436931 3:0.4744383 4:2.274739 5:5.0501696 
0 0 1 0 1:-0.52111507 2:4.259536 3:-3.9116523 4:5.0139343 5:-2.3881401 
0 0 1 0 1:-0.51938405 2:4.1010176 3:-2.670989 4:3.732177 5:-1.9619025 
0 0 1 0 1:-0.34594216 2:15.032982 3:5.3472495 4:-1.0373807 5:-1.2983356 
1 1 0 1 1:6.481105 2:0.9848019 3:0.50881701 4:2.3117091 5:5.3572814 
0 0 1 1 1:-24.799039 2:-13.253395 3:2.177528 4:0.35015214 5:-0.41858508 
1 1 0 1 1:6.485423 2:0.99710276 3:0.43017585 4:2.4542605 5:5.4467359 
0 0 1 0 1:-0.34594216 2:15.032982 3:5.3472495 4:-1.0373807 5:-1.2983356 
1 1 0 1 1:-6.3503839 2:4.6574795 3:-4.6707559 4:-5.3572541 5:0.4710227 
1 1 0 1 1:6.4837434 2:0.99762562 3:0.42031846 4:2.4261448 5:5.4224192 
0 0 1 0 1:-0.30046398 2:15.079169 3:5.1870145 4:-0.34250223 5:0.033540173 
0 0 1 0 1:-0.41915008 2:15.360528 3:2.6647065 4:-0.69489827 5:-1.6842768 
1 1 0 1 1:-0.53040857 2:4.242926 3:-3.8191583 4:4.8045186 5:-2.6251365 
0 0 1 0 1:-0.35173122 2:15.009226 3:5.5081753 4:-1.1380332 5:-1.6077263 
0 0 1 1 1:-24.815115 2:-13.264267 3:2.1979887 4:0.15638977 5:-0.90079674 
1 1 0 1 1:-6.2235756 2:4.450923 3:-2.7611271 4:-3.4905135 5:1.0420857 
0 0 1 1 1:-24.782972 2:-13.228209 3:2.0576197 4:0.55473799 5:0.19580284 
0 0 1 0 1:-0.41915008 2:15.360528 3:2.6647065 4:-0.69489827 5:-1.6842768 
1 1 0 1 1:-6.3458413 2:4.6689164 3:-4.7256302 4:-5.3688587 5:0.8104133 
0 0 1 0 1:-0.30625448 2:15.104186 3:4.9715996 4:-0.2160606 5:-0.15322993 
0 0 1 0 1:-0.34520145 2:15.047226 3:5.2479646 4:-0.87521253 5:-1.3584082 
1 1 0 1 1:-6.3512338 2:4.66052 3:-4.6854025 4:-5.4793782 5:0.65012458 
0 0 1 0 1:-0.36163907 2:15.113293 3:4.7017881 4:-0.86080546 5:-1.426884 
1 1 0 1 1:6.4390435 2:1.0245438 3:0.015961153 4:2.4612198 5:3.7603091 
1 0 1 0 1:25.659351 2:-11.689789 3:0.9481676 4:-1.5739626 5:-1.6103375 
0 0 1 0 1:-0.40865081 2:15.243672 3:3.6050073 4:-1.4674407 5:-1.2416412 
1 1 0 1 1:-6.3489516 2:4.6513267 3:-4.6057842 4:-5.4505323 5:0.63685904 
1 1 0 1 1:6.4842908 2:0.99707554 3:0.42534926 4:2.4417601 5:5.4155213 
0 0 1 1 1:-24.748497 2:-13.221835 3:2.1458785 4:0.90149254 5:1.1890923 
1 1 0 1 1:6.484418 2:1.0000581 3:0.4031489 4:2.4645784 5:5.4178529 
0 0 1 0 1:-0.30625448 2:15.104186 3:4.9715996 4:-0.2160606 5:-0.15322993 
0 0.1534526126929379 1 1 1:-24.806743 2:-13.253212 3:2.1476716 4:0.2647965 5:-0.61248198 
1 0 1 0 1:25.656998 2:-11.67852 3:0.85673351 4:-1.5629945 5:-1.6147238 
0 0 1 0 1:-0.36163907 2:15.113293 3:4.7017881 4:-0.86080546 5:-1.426884 
1 1 0 1 1:-6.3326478 2:4.6971579 3:-4.9498533 4:-4.3696371 5:0.15138959 
0 0 1 0 1:-0.38192684 2:15.12092 3:4.5885809 4:-1.2992232 5:-1.5570037 
0 0 1 0 1:-0.34790039 2:15.04355 3:5.2641436 4:-0.88279634 5:-1.4898936 
1 0 0 0.5130319644185831 1:-0.5281177 2:4.2679936 3:-4.0026548 4:4.9912261 5:-2.5665133 
1 1 0 1 1:6.4846902 2:0.99711749 3:0.42600294 4:2.44855 5:5.4196586 
1 0 1 0 1:25.650311 2:-11.655794 3:0.6795265 4:-1.7505979 5:-1.3992778 
1 1 0 1 1:-6.3525274 2:4.684693 3:-4.8955868 4:-5.0754101 5:0.22827804 
1 1 0 1 1:-6.3533916 2:4.674722 3:-4.8079892 4:-5.3432931 5:0.49538402 
0 1 1 1 1:-24.798516 2:-13.26173 3:2.2472884 4:0.25552397 5:-0.33749592 
1 1 0 1 1:-6.3380844 2:4.6593323 3:-4.6428301 4:-5.1441834 5:0.69634374 
1 1 0 1 1:-6.2560463 2:4.7784656 3:-5.335394 4:-2.3225645 5:1.1299044 
0 0 1 0 1:-0.35889111 2:15.101995 3:4.8055853 4:-0.99281567 5:-1.2272068 
0 0 1 0 1:-0.34790039 2:15.04355 3:5.2641436 4:-0.88279634 5:-1.4898936 
1 1 0 1 1:-6.3436273 2:4.6461956 3:-4.5647539 4:-5.2875515 5:0.54551553 
1 1 0 1 1:-6.1143431 2:4.0019008 3:0.92566189 4:-3.3397677 5:1.0429973 
0 1 1 1 1:-24.818958 2:-13.307732 3:2.510781 4:-0.14146526 5:-1.050316 
1 1 0 1 1:-6.3069176 2:4.624539 3:-4.2842268 4:-4.6202114 5:0.92233732 
0 0 1 0 1:-0.46888923 2:4.2469804 3:-3.5919468 4:5.1983021 5:-0.59345312 
1 1 0 1 1:-6.334064 2:4.6856185 3:-4.8418437 4:-4.752955 5:0.54590079 
1 0 1 0 1:25.660797 2:-11.676229 3:0.84596299 4:-1.4352802 5:-1.6269521 
0 0 1 1 1:-24.8018 2:-13.234474 3:2.0148126 4:0.52772346 5:-0.61522391 
0 0 1 0 1:-0.34930548 2:15.043365 3:5.2627922 4:-0.90645425 5:-1.5111116 
1 0 1 0 1:25.66706 2:-11.66533 3:0.79175411 4:-1.3094221 5:-1.4315984 
1 1 0 1 1:-6.3028147 2:4.6190781 3:-4.2425308 4:-4.5218787 5:0.86595221 
0 0 1 0 1:-0.52742767 2:4.2692175 3:-4.0056528 4:4.9710208 5:-2.4918604 
1 0 1 0 1:25.668353 2:-11.675265 3:0.87721254 4:-1.4556458 5:-1.2670976 
1 1 0 1 1:-6.3107018 2:4.6285943 3:-4.3062587 4:-4.9938522 5:1.3324389 
0 0 1 0 1:-0.30046398 2:15.079169 3:5.1870145 4:-0.34250223 5:0.033540173 
1 0 1 0 1:25.656164 2:-11.694118 3:0.97259613 4:-1.6638974 5:-1.6527004 
1 0 1 0 1:25.621372 2:-11.688911 3:0.77932668 4:-1.7206736 5:-2.9570177 
1 1 0 1 1:-6.3179955 2:4.5654368 3:-3.8848995 4:-5.0873114 5:0.55683527 
1 1 -0 1 1:-0.5757662 2:4.0215508 3:-2.1711691 4:1.287918 5:-1.5037596 
0 0 1 0 1:-0.37589785 2:15.109239 3:4.6978783 4:-1.2764192 5:-1.4523288 
1 1 0 1 1:6.4726315 2:0.98436931 3:0.4744383 4:2.274739 5:5.0501696 
0 0 1 0 1:-0.36163907 2:15.113293 3:4.7017881 4:-0.86080546 5:-1.426884 
0 1 1 1 1:-24.786946 2:-13.270176 3:2.3501668 4:0.40491137 5:-0.15591117 
0 0 1 0 1:-0.12952959 2:10.376159 3:5.6131541 4:-0.28473924 5:0.6669422 
1 1 0 1 1:-5.9832051 2:3.3688865 3:5.9914019 4:-2.8368686 5:-0.31083752 
1 0.1372190523178882 1 0.2433055820965928 1:25.692529 2:-11.687638 3:1.0736801 4:-1.3248108 5:-0.54581415 
1 1 1 1 1:25.701535 2:-11.612883 3:0.5367205 4:-0.78195019 5:-0.26154621 
0 0 1 0 1:-0.41915008 2:15.360528 3:2.6647065 4:-0.69489827 5:-1.6842768 
1 1 1 1 1:25.656947 2:-11.681049 3:0.87326272 4:-1.5494538 5:-1.6611917 
1 1 0 1 1:-0.52789014 2:4.2830392 3:-4.1274072 4:5.2104978 5:-2.7338809 
0 0 1 0 1:-0.50231244 2:4.2590528 3:-3.8198077 4:5.0203431 5:-1.6134156 
0 0 1 0 1:-0.41915008 2:15.360528 3:2.6647065 4:-0.69489827 5:-1.6842768 
1 1 0 1 1:6.4815405 2:0.99616628 3:0.42252452 4:2.3818559 5:5.3739868 
1 1 0 1 1:-6.3563295 2:4.7104837 3:-5.0729324 4:-5.3477802 5:0.73522918 
1 1 0 1 1:-0.53136419 2:4.2796218 3:-4.1038498 4:5.0398171 5:-2.6575433 
1 1 1 1 1:25.806191 2:-11.597555 3:0.83564431 4:0.2517628 5:2.7491389 
1 1 1 1 1:25.660629 2:-11.683664 3:0.90905335 4:-1.5474131 5:-1.5360191 
1 1 0 1 1:-6.3225152 2:4.6160802 3:-4.2722724 4:-5.0290723 5:0.76069752 
1 1 0 1 1:6.4481004 2:0.97776826 3:0.41232129 4:2.198128 5:4.0723429 
1 1 0 1 1:-6.3405357 2:4.6777335 3:-4.778486 4:-5.2260716 5:0.89619742 
1 1 1 1 1:25.667834 2:-11.681942 3:0.91951448 4:-1.4331517 5:-1.3910746 
1 1 1 1 1:25.659498 2:-11.676236 3:0.84850342 4:-1.4983722 5:-1.5738128 
0 0 1 0 1:-0.34889917 2:15.053142 3:5.193353 4:-0.91537693 5:-1.3954597 
1 1 0 1 1:6.4403016 2:0.9642263 3:0.49814047 4:1.882049 5:4.083541 
1 1 0 1 1:-0.5328801 2:4.2667788 3:-4.0095124 4:4.9173723 5:-2.6632975 
1 1 0 1 1:-6.3626178 2:4.6508589 3:-4.6579079 4:-5.6033585 5:0.26890383 
1 1 1 1 1:25.656271 2:-11.676078 3:0.83346998 4:-1.5330609 5:-1.6665119 
1 1 0 1 1:-6.3777365 2:4.6695575 3:-4.8621977 4:-5.6331577 5:-0.15056376 
1 1 0 1 1:6.4262188 2:0.97828378 3:0.34020918 4:1.767618 5:3.7945403 
0 1 1 1 1:-24.797316 2:-13.264301 3:2.2742155 4:0.21807233 5:-0.25708225 
1 1 0 1 1:6.4691244 2:1.0038958 3:0.30272423 4:2.4751202 5:4.7990846 
0 0 1 0 1:-0.34930548 2:15.043365 3:5.2627922 4:-0.90645425 5:-1.5111116 
1 1 0 1 1:-6.3221259 2:4.7290782 3:-5.1919606 4:-3.5733837 5:-0.26506887 
1 1 0 1 1:-6.3425131 2:4.6744424 3:-4.7627447 4:-5.2345431 5:0.7877345 
1 1 0 1 1:-6.3373551 2:4.5643682 3:-3.9053761 4:-5.9034618 5:0.91775057 
1 1 0 1 1:-6.306777 2:4.572259 3:-3.8454898 4:-5.525226 5:1.7268135 
0 0 1 0 1:-0.30618402 2:15.212734 3:4.1260636 4:0.72044956 5:-0.47077778 
1 1 0 1 1:6.4585317 2:0.98090223 3:0.44406494 4:2.1349262 5:4.6317561 
1 1 0 1 1:6.458748 2:1.0070369 3:0.23488512 4:2.4349376 5:4.4562857 
1 1 1 1 1:25.66925 2:-11.677644 3:0.90045685 4:-1.471773 5:-1.2290603 
0 0 1 1 1:-24.788348 2:-13.253735 3:2.1923026 4:0.73365693 5:-0.5592626 
0.02435641828573302 1 1 1 1:-24.954208 2:-12.721675 3:-2.1641099 4:-1.6655438 5:1.1792035 
1 1 -0 1 1:-0.70040352 2:3.9069653 3:-1.5714361 4:-3.1500389 5:-1.2726795 
1 1 0 1 1:-6.3329521 2:4.6370142 3:-4.4753291 4:-5.0110627 5:0.50765432 
0 1 1 1 1:-24.818976 2:-13.25818 3:2.1414349 4:0.043714184 5:-0.83041426 
0 1 1 1 1:-24.793354 2:-13.260082 3:2.2551054 4:0.30707156 5:-0.18161264 
1 1 1 1 1:-24.828499 2:-13.182113 3:1.5634455 4:-0.010160679 5:-0.43244004 
1 1 0 1 1:-6.3474846 2:4.6472595 3:-4.5913719 4:-5.2902082 5:0.3939671 
1 1 1 1 1:25.659092 2:-11.679164 3:0.86742276 4:-1.4808949 5:-1.6436449 
1 1 0 1 1:6.420933 2:0.94469081 3:0.56508951 4:1.656565 5:3.4181815 
0 0 1 0 1:-0.34594216 2:15.032982 3:5.3472495 4:-1.0373807 5:-1.2983356 
0 0 1 0 1:-0.34790039 2:15.04355 3:5.2641436 4:-0.88279634 5:-1.4898936 
1 1 0 1 1:-6.2607767 2:4.6016862 3:-4.0599882 4:-2.9459113 5:0.15219612 
1 1 0 1 1:6.4771263 2:0.99634655 3:0.39899476 4:2.4100584 5:5.1619587 
1 1 0 1 1:6.3085352 2:0.97670673 3:-0.13864324 4:1.0019858 5:-0.018859194 
1 1 0 1 1:6.4861494 2:0.99596922 3:0.44150862 4:2.4457032 5:5.4784428 
1 1 0 1 1:-6.3447697 2:4.6690322 3:-4.7296258 4:-5.2999366 5:0.73989416 
0 0 1 0 1:-0.36523495 2:15.099579 3:4.7992503 4:-1.0626944 5:-1.4126369 
1 1 1 1 1:25.656947 2:-11.681049 3:0.87326272 4:-1.5494538 5:-1.6611917 
0 0 1 0 1:-0.50557603 2:4.2674729 3:-3.9012945 4:5.0932279 5:-1.7754415 
1 1 0 1 1:-0.53285454 2:4.2677757 3:-4.0111137 4:4.8487452 5:-2.5542437 
1 1 0 1 1:6.427102 2:0.96436627 3:0.44224616 4:1.7954096 5:3.657862 
1 1 0 1 1:6.4307337 2:0.98923766 3:0.26895103 4:1.9543089 5:3.8155072 
1 1 0 1 1:-6.3442734 2:4.669782 3:-4.7328128 4:-5.3329877 5:0.80576998 
1 1 0 1 1:-6.3400186 2:4.6673096 3:-4.7131596 4:-5.095603 5:0.61930597 
1 1 1 1 1:25.658694 2:-11.6791 3:0.86723191 4:-1.5453654 5:-1.5696969 
1 1 0 1 1:6.459464 2:0.97596768 3:0.47751965 4:2.2029105 5:4.5249053 
1 1 0 1 1:6.4882151 2:1.0007415 3:0.40944912 4:2.5428873 5:5.4658892 
1 1 0 1 1:-6.3425997 2:4.6466943 3:-4.5579753 4:-5.368387 5:0.71640639 
1 1 1 1 1:25.655718 2:-11.686098 3:0.90488625 4:-1.5830502 5:-1.7167039 
1 1 0 1 1:6.4773935 2:0.99000588 3:0.45465276 4:2.3026128 5:5.2639834 
1 1 1 1 1:25.65755 2:-11.67862 3:0.85867639 4:-1.552005 5:-1.6105608 
0 0.9842125297912573 1 1 1:-24.794188 2:-13.252418 3:2.1892108 4:0.38400769 5:-0.25453928 
1 1 0 1 1:-0.5288232 2:4.2759259 3:-4.0686766 4:5.068571 5:-2.6303452 
0 0 1 0 1:-0.35173122 2:15.009226 3:5.5081753 4:-1.1380332 5:-1.6077263 
0 0 1 1 1:-24.781924 2:-13.205012 3:1.8511985 4:1.1866155 5:-0.46666374 
1 1 0 1 1:-6.3648591 2:4.6618332 3:-4.7258779 4:-5.8713197 5:0.67140643 
1 1 0 1 1:-6.3449315 2:4.6710282 3:-4.7447352 4:-5.3009238 5:0.75463772 
0 1 1 1 1:-24.689958 2:-13.275004 3:2.6062823 4:3.1559869 5:-0.18651306 
0 0 1 0 1:-0.3693228 2:4.181803 3:-2.6548542 4:5.1027154 5:3.0741188 
1 1 0 1 1:-0.42917664 2:15.10628 3:4.422251 4:-1.4274961 5:-3.4130929 
1 1 0 1 1:-0.5494749 2:4.2650626 3:-4.0146525 4:4.1751105 5:-2.2864736 
0 0 1 0 1:-0.40865081 2:15.243672 3:3.6050073 4:-1.4674407 5:-1.2416412 
1 1 0 1 1:6.4782651 2:0.99729035 3:0.39729904 4:2.4183375 5:5.196776 
1 1 0 1 1:6.4866623 2:0.99913538 3:0.41969585 4:2.4672334 5:5.4967721 
1 1 0 1 1:-0.53009881 2:4.2664566 3:-3.9971459 4:4.9593648 5:-2.6094113 
1 1 0 1 1:-6.3488201 2:4.6649273 3:-4.7236862 4:-5.2523708 5:0.46153263 
1 1 -0 1 1:-0.42917664 2:15.10628 3:4.422251 4:-1.4274961 5:-3.4130929 
0 0 1 0 1:-0.37589785 2:15.109239 3:4.6978783 4:-1.2764192 5:-1.4523288 
0 0 1 0 1:-0.30618402 2:15.212734 3:4.1260636 4:0.72044956 5:-0.47077778 
0 0 1 1 1:-24.808814 2:-13.205079 3:1.790679 4:0.3260783 5:-0.32974871 
0 0 1 0 1:-0.52249251 2:4.2411542 3:-3.7551977 4:4.6281875 5:-2.0526378 
1 1 0 1 1:-0.57366144 2:4.2089643 3:-3.6558284 4:3.2019492 5:-2.428626 
0 0 1 0 1:-0.34930548 2:15.043365 3:5.2627922 4:-0.90645425 5:-1.5111116 
1 1 0 1 1:-6.3511795 2:4.6530582 3:-4.6390974 4:-5.395543 5:0.45860802 
0 0 1 1 1:-24.83232 2:-13.133091 3:1.1672538 4:0.3473163 5:-0.64511876 
1 1 0 1 1:-6.3481423 2:4.6601928 3:-4.6732121 4:-5.4197034 5:0.68716636 
0 0 1 0 1:-0.34520145 2:15.047226 3:5.2479646 4:-0.87521253 5:-1.3584082 
0 0 1 0 1:-0.38192684 2:15.12092 3:4.5885809 4:-1.2992232 5:-1.5570037 
0 0 1 0 1:-0.34790039 2:15.04355 3:5.2641436 4:-0.88279634 5:-1.4898936 
1 1 0 1 1:6.427102 2:0.96436627 3:0.44224616 4:1.7954096 5:3.657862 
1 1 0 1 1:6.4233504 2:0.96062463 3:0.45180042 4:1.7183417 5:3.56287 
0.9515269022548393 0 0 0 1:-0.52560774 2:4.272749 3:-4.0350642 4:5.117772 5:-2.5995817 
1 1 0 1 1:-6.3495134 2:4.6641825 3:-4.7105894 4:-5.3904351 5:0.62662693 
1 1 0 1 1:6.4873213 2:0.99648418 3:0.44091692 4:2.4757403 5:5.4797997 
0 0 1 0 1:-0.50557603 2:4.2674729 3:-3.9012945 4:5.0932279 5:-1.7754415 
0 1 1 1 1:-24.797744 2:-13.268254 3:2.296556 4:0.25551172 5:-0.37124631 
1 1 0 1 1:6.4585317 2:0.98090223 3:0.44406494 4:2.1349262 5:4.6317561 
0 0 1 0 1:-0.12952959 2:10.376159 3:5.6131541 4:-0.28473924 5:0.6669422 
1 1 1 1 1:25.659785 2:-11.67056 3:0.80486847 4:-1.4755245 5:-1.5541487 
1 1 1 1 1:25.65411 2:-11.683152 3:0.88150467 4:-1.6346238 5:-1.6785125 
1 1 0 1 1:-6.341055 2:4.6796028 3:-4.7851565 4:-5.3245119 5:1.0443406 
0 0 1 0 1:-0.36163907 2:15.113293 3:4.7017881 4:-0.86080546 5:-1.426884 
1 1 1 1 1:25.675302 2:-11.67352 3:0.89357187 4:-1.4010902 5:-1.0402681 
1 1 0 1 1:-6.2661309 2:4.7660233 3:-5.322418 4:-1.984527 5:0.10041555 
0 0 1 0 1:-0.35889111 2:15.101995 3:4.8055853 4:-0.99281567 5:-1.2272068 
1 1 0 1 1:-0.53494135 2:4.2798761 3:-4.1182051 4:4.9907307 5:-2.7309273 
1 1 0 1 1:-6.3431353 2:4.6887084 3:-4.8925658 4:-5.0795363 5:0.63579138 
1 1 1 1 1:25.643782 2:-11.577025 3:0.072618978 4:-1.5253163 5:-1.2371809 
1 1 0 1 1:-6.3648591 2:4.6618332 3:-4.7258779 4:-5.8713197 5:0.67140643 
1 1 1 1 1:25.651013 2:-11.337879 3:-1.7311102 4:0.23175179 5:-1.1910931 
1 1 0 1 1:6.4773935 2:0.99000588 3:0.45465276 4:2.3026128 5:5.2639834 
0 0 1 1 1:-24.796316 2:-13.253634 3:2.1882148 4:0.39540802 5:-0.36877198 
0 0 1 0 1:-0.34520145 2:15.047226 3:5.2479646 4:-0.87521253 5:-1.3584082 
1 1 0 1 1:6.4701746 2:0.97744506 3:0.5163982 4:2.2215318 5:4.9591117 
1 1 0 1 1:-0.52804764 2:4.2433154 3:-3.8166132 4:4.8614701 5:-2.6102369 
0 1 1 1 1:-24.797132 2:-13.263874 3:2.2778013 4:0.28951263 5:-0.3152611 
1 1 1 1 1:25.65755 2:-11.67862 3:0.85867639 4:-1.552005 5:-1.6105608 
1 1 -0 1 1:-0.42917664 2:15.10628 3:4.422251 4:-1.4274961 5:-3.4130929 
1 1 1 1 1:25.656218 2:-11.686217 3:0.90973614 4:-1.5915177 5:-1.6812319 
0 0 1 0 1:-0.52341929 2:4.2704342 3:-4.0039036 4:5.0751486 5:-2.4654539 
-0 1 1 0 1:-0.53228775 2:4.2772308 3:-4.0921639 4:5.0467523 5:-2.7345658 
-0 1 1 0 1:6.4846902 2:0.99711749 3:0.42600294 4:2.44855 5:5.4196586 
-0 1 1 -0 1:-0.5291734 2:4.2708951 3:-4.0323888 4:5.0494214 5:-2.6633423 
-1 0 0 1 1:-0.35662227 2:15.069137 3:5.0464293 4:-0.96046764 5:-1.4977771 
-1 0 0 0 1:25.655392 2:-11.686521 3:0.90514602 4:-1.5703854 5:-1.751785 
-0 1 1 0 1:-0.53270955 2:4.27133 3:-4.0508492 4:5.0251789 5:-2.7744114 
-0 1 1 0 1:-0.58162981 2:4.1600862 3:-3.2564865 4:2.1552221 5:-1.6837897 
-1 1 1 1 1:-0.52735101 2:4.2744862 3:-4.0537982 4:5.1004571 5:-2.628773 
-1 1 1 1 1:-24.798701 2:-13.251868 3:2.1687225 4:0.34124638 5:-0.37889581 
-1 0 0 1 1:-24.833242 2:-13.190507 3:1.587052 4:0.14986142 5:-0.94954118 
-1 0 0 1 1:-0.47183714 2:4.2504465 3:-3.6245675 4:5.1402078 5:-0.6117271 
-1 1 1 1 1:-24.649849 2:-13.133337 3:1.8732187 4:2.1966991 5:4.2529333 
-1 0 0 1 1:-0.50557603 2:4.2674729 3:-3.9012945 4:5.0932279 5:-1.7754415 
-1 0 0 1 1:-0.34520145 2:15.047226 3:5.2479646 4:-0.87521253 5:-1.3584082 
-0 1 1 0 1:6.4691244 2:1.0038958 3:0.30272423 4:2.4751202 5:4.7990846 
-1 0 0 1 1:-0.12952959 2:10.376159 3:5.6131541 4:-0.28473924 5:0.6669422 
-1 0 0 1 1:-0.35662227 2:15.069137 3:5.0464293 4:-0.96046764 5:-1.4977771 
-1 1 1 1 1:-24.814073 2:-13.251301 3:2.0946177 4:0.2975158 5:-0.95172434 
-1 0 0 1 1:-0.51986836 2:4.255784 3:-3.8785166 4:5.001831 5:-2.3530962 
-0 1 1 0 1:6.4641746 2:0.99148248 3:0.38345247 4:2.2836438 5:4.7529014 
-1 0 0 1 1:-0.15847669 2:10.41247 3:5.6151323 4:-0.28605932 5:0.65892634 
-1 1 1 1 1:-24.799 2:-13.259968 3:2.2303553 4:0.28165976 5:-0.37943861 
-1 1 1 1 1:-24.802132 2:-13.255872 3:2.1883295 4:0.26604296 5:-0.44793196 
-1 0 0 0 1:25.675484 2:-11.654795 3:0.74933536 4:-1.2656182 5:-1.0533396 
-1 0 0 1 1:-0.12952959 2:10.376159 3:5.6131541 4:-0.28473924 5:0.6669422 
-0 1 1 0.07038515395402833 1:-0.53445035 2:4.2358087 3:-3.7622089 4:4.5006418 5:-2.4155632 
-1 0 0 0 1:25.64955 2:-11.684135 3:0.87192106 4:-1.6757613 5:-1.8116685 
-0 1 1 0 1:-6.3490388 2:4.6588376 3:-4.668676 4:-5.4036557 5:0.61481701 
-1 0 0 1 1:25.654495 2:-11.682534 3:0.87293096 4:-1.5840255 5:-1.7297859 
-1 0 1 1 1:-24.833969 2:-13.216943 3:1.7918553 4:-0.10230414 5:-0.86940774 
-1 0 0 1 1:-0.47476502 2:3.8077916 3:-0.27690797 4:2.4261435 5:-1.0155933 
-0 1 1 0 1:6.4863911 2:0.9938569 3:0.45858615 4:2.4312968 5:5.486717 
-1 0 0 1 1:25.657133 2:-11.678027 3:0.85535153 4:-1.5821744 5:-1.5775633 
-1 1 1 1 1:-24.804502 2:-13.266147 3:2.250269 4:0.25895452 5:-0.63529959 
-1 0 0 1 1:-0.40865081 2:15.243672 3:3.6050073 4:-1.4674407 5:-1.2416412 
-0 1 1 0 1:6.4816375 2:0.99472619 3:0.43254104 4:2.4032019 5:5.3372401 
-1 0 0 1 1:25.656998 2:-11.67852 3:0.85673351 4:-1.5629945 5:-1.6147238 
-1 1 1 1 1:-24.799153 2:-13.257861 3:2.2143235 4:0.28485874 5:-0.37254128 
-0 1 1 0 1:6.4825443 2:0.99772499 3:0.41243334 4:2.4436105 5:5.3458433 
-1 0 0 1 1:-0.35889111 2:15.101995 3:4.8055853 4:-0.99281567 5:-1.2272068 
-1 0 0 1 1:-0.52579104 2:4.2727164 3:-4.03389 4:5.0889756 5:-2.5656743 
-1 0 0 1 1:25.663254 2:-11.689975 3:0.95676447 4:-1.4660546 5:-1.6161175 
-0 1 1 0 1:-5.9832051 2:3.3688865 3:5.9914019 4:-2.8368686 5:-0.31083752 
-0 1 1 0 1:6.4403016 2:0.9642263 3:0.49814047 4:1.882049 5:4.083541 
-0 1 1 0 1:6.4782651 2:0.99729035 3:0.39729904 4:2.4183375 5:5.196776 
-1 1 1 1 1:-24.806743 2:-13.253212 3:2.1476716 4:0.2647965 5:-0.61248198 
-1 0 0 1 1:-0.34520145 2:15.047226 3:5.2479646 4:-0.87521253 5:-1.3584082 
-0 1 1 0 1:6.4641746 2:0.99148248 3:0.38345247 4:2.2836438 5:4.7529014 
-0 1 1 0 1:-6.334277 2:4.5698382 3:-3.9628843 4:-5.3796791 5:0.35371666 
-0 1 1 0 1:-0.5328801 2:4.2667788 3:-4.0095124 4:4.9173723 5:-2.6632975 
-1 0 0 1 1:-0.34594216 2:15.032982 3:5.3472495 4:-1.0373807 5:-1.2983356 
-1 0 0 1 1:25.650644 2:-11.679515 3:0.83878965 4:-1.6269446 5:-1.79747 
-0 1 1 0 1:-6.3495134 2:4.6641825 3:-4.7105894 4:-5.3904351 5:0.62662693 
-0 1 1 0 1:-0.53596953 2:4.2089361 3:-3.5701142 4:4.3804274 5:-2.5664073 
-0 1 1 0 1:-6.2559358 2:4.3722659 3:-2.2906961 4:-4.2874737 5:0.090366787 
-1 0 1 1 1:25.720742 2:-11.644977 3:0.84581902 4:-0.68830345 5:0.094598605 
-1 1 1 1 1:-24.809929 2:-13.204527 3:1.7933633 4:0.23497026 5:-0.31072949 
-1 0 1 1 1:25.703268 2:-11.638326 3:0.74019965 4:-0.95772276 5:-0.17481896 
-0 1 1 0 1:-6.1774942 2:4.1359888 3:-0.30504516 4:-3.5498621 5:0.018649841 
-1 0 0 1 1:25.651575 2:-11.692338 3:0.94176958 4:-1.7113042 5:-1.7565793 
-1 0 0 1 1:-0.34520145 2:15.047226 3:5.2479646 4:-0.87521253 5:-1.3584082 
-1 0.6610336822943106 1 1 1:-0.53747878 2:4.1982018 3:-3.4681834 4:3.9892591 5:-2.157746 
-0 1 1 0 1:-6.3575882 2:4.6660281 3:-4.7578585 4:-5.4224574 5:0.35827443 
-1 1 1 1 1:-24.801667 2:-13.264747 3:2.2606482 4:0.16489653 5:-0.37267203 
-1 0 0 1 1:-0.36163907 2:15.113293 3:4.7017881 4:-0.86080546 5:-1.426884 
-1 0 0 1 1:25.669679 2:-11.662565 3:0.78027841 4:-1.2452888 5:-1.386707 
-1 1 1 1 1:-24.804712 2:-13.263667 3:2.231433 4:0.22353544 5:-0.57952929 
-1 0 0 1 1:25.660889 2:-11.692288 3:0.97243548 4:-1.5745425 5:-1.5713861 
-1 0 0 1 1:25.652271 2:-11.686994 3:0.89633763 4:-1.6039116 5:-1.8413562 
-1 0 0 1 1:-0.37589785 2:15.109239 3:4.6978783 4:-1.2764192 5:-1.4523288 
-0 1 1 0 1:-6.3450932 2:4.6668763 3:-4.7102086 4:-5.3679342 5:0.80539418 
-1 0 0 1 1:25.681268 2:-11.628447 3:0.58687003 4:-1.1875486 5:-0.65798661 
-1 0 0 1 1:-0.50231244 2:4.2590528 3:-3.8198077 4:5.0203431 5:-1.6134156 
-1 0 0 1 1:25.676828 2:-11.573573 3:0.11706077 4:-0.50132796 5:-1.3352174 
-0 1 1 -0 1:-0.42917664 2:15.10628 3:4.422251 4:-1.4274961 5:-3.4130929 
-0 1 1 0 1:6.3921008 2:0.89050007 3:0.84407571 4:1.2655968 5:2.2510999 
-1 0 1 1 1:-0.52782437 2:4.2601038 3:-3.937888 4:4.9038192 5:-2.4997563 
-1 0 0 1 1:25.66706 2:-11.66533 3:0.79175411 4:-1.3094221 5:-1.4315984 
-1 1 1 1 1:-24.789083 2:-13.243885 3:2.1546168 4:0.38399519 5:0.040293947 
-1 1 1 1 1:-24.798496 2:-13.258898 3:2.2229072 4:0.31109115 5:-0.39114005 
-1 0 0 1 1:25.661386 2:-11.680483 3:0.87132619 4:-1.4082582 5:-1.7005885 
-1 0 0 1 1:-0.55024099 2:4.0328713 3:-2.1830623 4:1.8822737 5:-1.2036634 
-1 0 1 1 1:25.717238 2:-11.621468 3:0.65834875 4:-0.6585509 5:0.12138992 
-1 0 0 1 1:25.654802 2:-11.682924 3:0.87762835 4:-1.5689263 5:-1.7414954 
-0 1 1 0 1:-6.3375548 2:4.6808483 3:-4.7875835 4:-5.1937103 5:1.002809 
-1 1 1 1 1:-24.798184 2:-13.263571 3:2.2635858 4:0.22633358 5:-0.30982719 
-1 1 1 1 1:-24.793863 2:-13.259226 3:2.2416068 4:0.36462494 5:-0.27880697 
-1 0 0 1 1:-0.35662227 2:15.069137 3:5.0464293 4:-0.96046764 5:-1.4977771 
-0 1 1 0 1:-6.3165549 2:4.6138801 3:-4.231968 4:-4.9753251 5:0.91163889 
-1 0 0 1 1:-0.52878927 2:4.2761718 3:-4.0633603 4:4.9926388 5:-2.5134212 
-1 0 0 1 1:25.660639 2:-11.673553 3:0.82746598 4:-1.4558128 5:-1.5789969 
-0 1 1 0 1:-6.3364154 2:4.629392 3:-4.4145898 4:-5.2378441 5:0.61525009 
-1 0 0 1 1:25.653227 2:-11.680913 3:0.85925542 4:-1.6101416 5:-1.7279998 
-0 1 1 0 1:-0.42917664 2:15.10628 3:4.422251 4:-1.4274961 5:-3.4130929 
-0 1 1 0 1:-0.53270955 2:4.27133 3:-4.0508492 4:5.0251789 5:-2.7744114 
-1 0 1 1 1:-0.52782437 2:4.2601038 3:-3.937888 4:4.9038192 5:-2.4997563 
-0 1 1 0 1:6.4854358 2:0.99470295 3:0.44890495 4:2.4235282 5:5.4656614 
-1 1 1 1 1:-0.53809396 2:4.2240861 3:-3.6731305 4:4.2153727 5:-2.2644524 
-0 1 1 0 1:6.459464 2:0.97596768 3:0.47751965 4:2.2029105 5:4.5249053 
-0 1 1 0 1:6.4863911 2:0.9938569 3:0.45858615 4:2.4312968 5:5.486717 
-1 0 0 1 1:25.684058 2:-11.656337 3:0.77718093 4:-0.95993532 5:-1.1527995 
-0 1 1 1 1:-0.52929409 2:4.2704288 3:-4.0270068 4:5.0109883 5:-2.6198513 
-0 1 1 0 1:-6.3481423 2:4.6601928 3:-4.6732121 4:-5.4197034 5:0.68716636 
-0 1 1 0 1:6.459464 2:0.97596768 3:0.47751965 4:2.2029105 5:4.5249053 
-1 0 0 1 1:-0.41915008 2:15.360528 3:2.6647065 4:-0.69489827 5:-1.6842768 
-0 1 1 0 1:6.458748 2:1.0070369 3:0.23488512 4:2.4349376 5:4.4562857 
-1 0 0 1 1:-24.977026 2:-12.548204 3:-3.5361224 4:-0.89029021 5:0.73361664 
-1 0 0 1 1:-0.51938405 2:4.1010176 3:-2.670989 4:3.732177 5:-1.9619025 
-0 1 1 0 1:6.4757544 2:0.98368269 3:0.49002148 4:2.3255798 5:5.1006674 
-1 0 1 1 1:25.720742 2:-11.644977 3:0.84581902 4:-0.68830345 5:0.094598605 
-0 1 1 -0 1:-0.52907459 2:4.2718739 3:-4.0406275 4:5.0673373 5:-2.6775434 
-0 1 1 0 1:-6.3453572 2:4.6545325 3:-4.6157279 4:-5.4743558 5:0.8304641 
-0 1 1 0 1:6.4779645 2:0.9966237 3:0.40316966 4:2.392424 5:5.2216485 
-0 1 1 0 1:5.8668543 2:0.48955415 3:1.7649819 4:-5.2547428 5:-13.98008 
-1 1 1 1 1:-24.798579 2:-13.256113 3:2.2048334 4:0.30086149 5:-0.36017414 
-1 0 0 1 1:-0.34520145 2:15.047226 3:5.2479646 4:-0.87521253 5:-1.3584082 
-1 0 0 1 1:-0.51449931 2:4.2747776 3:-3.9958351 4:5.1270251 5:-2.1282063 
-1 0 1 1 1:-24.784006 2:-13.23445 3:2.1201769 4:0.26427286 5:0.51453063 
-0 1 1 0 1:6.4806548 2:0.99623236 3:0.41660422 4:2.4138184 5:5.2962822 
-1 0 0 1 1:-0.30625448 2:15.104186 3:4.9715996 4:-0.2160606 5:-0.15322993 
-1 0 0 0 1:-0.49487233 2:3.9217802 3:-1.2451895 4:3.2214817 5:-1.9263171 
-0 1 1 0 1:-0.70731626 2:3.7679472 3:-0.42015996 4:-5.6626556 5:0.75040938 
-1 0 0 1 1:25.661236 2:-11.634892 3:0.55343139 4:-1.347003 5:-1.3220404 
-1 0 0 1 1:-0.34594216 2:15.032982 3:5.3472495 4:-1.0373807 5:-1.2983356 
-0 1 1 0 1:-6.3565751 2:4.6576531 3:-4.6889615 4:-5.4802894 5:0.40485841 
-1 0 0 1 1:-0.44224176 2:4.1982333 3:-3.0956274 4:4.911826 5:0.47702282 
-0 1 1 0 1:-6.3384926 2:4.6898435 3:-4.8856393 4:-4.8871052 5:0.5888238 
-0 1 1 0 1:6.4015036 2:0.9356646 3:0.56391557 4:1.415344 5:2.8903082 
-1 0 0 1 1:-0.37589785 2:15.109239 3:4.6978783 4:-1.2764192 5:-1.4523288 
-1 0 0 1 1:25.672157 2:-11.621662 3:0.48716585 4:-1.0448981 5:-1.2145429 
-0 1 1 0 1:-6.3369126 2:4.6699484 3:-4.7102789 4:-5.1831425 5:0.90247641 
-0 1 1 -0 1:-0.53633953 2:4.2527976 3:-3.9043483 4:4.637862 5:-2.5300137 
-1 0 0 1 1:25.650288 2:-11.681752 3:0.85333795 4:-1.6297907 5:-1.8310597 
-0 1 1 0 1:-0.57713207 2:4.2125196 3:-3.6608 4:2.8317777 5:-1.9764018 
-1 0 0 1 1:25.648095 2:-11.666412 3:0.72014931 4:-1.4181778 5:-2.0725374 
-0 1 1 0 1:-6.3214237 2:4.7945334 3:-5.7415728 4:-2.5503534 5:-1.1140493 
-1 1 1 1 1:-0.52752191 2:4.2738688 3:-4.0482153 4:5.0840185 5:-2.6149513 
-1 1 1 1 1:-24.796887 2:-13.247889 3:2.1490385 4:0.34741845 5:-0.28095152 
-1 1 1 1 1:-24.805387 2:-13.254874 3:2.160272 4:0.33739083 5:-0.66908925 
-1 0 0 1 1:25.654376 2:-11.681054 3:0.86261512 4:-1.5739859 5:-1.7329978 
-1 0 0 1 1:-0.30046398 2:15.079169 3:5.1870145 4:-0.34250223 5:0.033540173 
-1 0 0 1 1:25.657262 2:-11.683929 3:0.89652327 4:-1.5844344 5:-1.6282239 
-1 0 0 1 1:-0.30046398 2:15.079169 3:5.1870145 4:-0.34250223 5:0.033540173 
-0 1 1 -0 1:-0.53009881 2:4.2664566 3:-3.9971459 4:4.9593648 5:-2.6094113 
-1 1 1 1 1:-24.808224 2:-13.238858 3:2.0407245 4:0.24869297 5:-0.51279095 
-1 0 0 1 1:-0.35662227 2:15.069137 3:5.0464293 4:-0.96046764 5:-1.4977771 
-1 0 0 1 1:25.649911 2:-11.672419 3:0.78341756 4:-1.6315411 5:-1.7593053 
-0 1 1 -0 1:-0.52789014 2:4.2830392 3:-4.1274072 4:5.2104978 5:-2.7338809 
-0 1 1 0 1:-6.3489985 2:4.6589692 3:-4.671969 4:-5.3817494 5:0.58639763 
-1 0 0 1 1:-0.52341929 2:4.2704342 3:-4.0039036 4:5.0751486 5:-2.4654539 
-1 0 0 1 1:-0.34790039 2:15.04355 3:5.2641436 4:-0.88279634 5:-1.4898936 
-1 0 0.780570820383221 1 1:-24.841773 2:-13.126069 3:1.1181327 4:-0.18509347 5:-0.18962707 
-1 0 0 1 1:-0.10930853 2:10.408426 3:5.6156727 4:-0.28821385 5:0.6567426 
-0 1 1 0 1:6.4863911 2:0.9938569 3:0.45858615 4:2.4312968 5:5.486717 
-1 0 0 1 1:-0.34790039 2:15.04355 3:5.2641436 4:-0.88279634 5:-1.4898936 
-0 1 1 0 1:6.4513239 2:0.96057837 3:0.57128563 4:1.9355207 5:4.4218144 
-0 1 1 0 1:-6.3466085 2:4.6642106 3:-4.7026203 4:-5.3246911 5:0.65253264 
-0 1 1 0 1:6.4826542 2:0.9954831 3:0.43115015 4:2.4182977 5:5.3669467 
-1 0 0 1 1:25.660639 2:-11.673553 3:0.82746598 4:-1.4558128 5:-1.5789969 
-0 1 1 0 1:6.4842908 2:0.99707554 3:0.42534926 4:2.4417601 5:5.4155213 
-0 1 1 0 1:-6.3344316 2:4.6515613 3:-4.5516773 4:-5.3628583 5:1.0938336 
-1 1 1 1 1:-24.787136 2:-13.290583 3:2.5084612 4:0.16470178 5:-0.028624591 
-1 0 0 1 1:-0.34594216 2:15.032982 3:5.3472495 4:-1.0373807 5:-1.2983356 
-0 1 1 0 1:-6.340616 2:4.6737784 3:-4.7481523 4:-5.248353 5:0.8847652 
-0 1 1 0 1:6.4837868 2:0.99991046 3:0.40298193 4:2.439158 5:5.4250712 
-1 0 0 1 1:25.657541 2:-11.681531 3:0.87704666 4:-1.5220507 5:-1.6821205 
-0 1 1 0 1:6.4664602 2:0.99220798 3:0.38869788 4:2.2988515 5:4.837337 
-0 1 1 0 1:-6.312874 2:4.6286737 3:-4.3217191 4:-4.9734236 5:1.2021183 
-0 1 1 0 1:6.4449702 2:0.96076265 3:0.54039945 4:1.9199725 5:4.1875286 
-0 1 1 0 1:-6.34994 2:4.6672847 3:-4.739754 4:-5.316973 5:0.53403709 
-0 1 1 0 1:-0.53251839 2:4.2589294 3:-3.9496167 4:4.8762906 5:-2.6650312 
-1 0 1 1 1:-0.52918579 2:4.2572693 3:-3.9195143 4:4.8516867 5:-2.5058346 
-1 0 0 1 1:25.657433 2:-11.681984 3:0.88564478 4:-1.5810944 5:-1.6015676 
-0 1 1 0 1:-6.3443808 2:4.6646771 3:-4.6975526 4:-5.3060931 5:0.71944017 
-0 1 1 0 1:6.4849617 2:0.99822415 3:0.42105445 4:2.4325968 5:5.4710666 
-0 1 1 0 1:-6.3470527 2:4.6623326 3:-4.6866685 4:-5.3889188 5:0.70695856 
-1 1 1 1 1:-24.773387 2:-13.254474 3:2.2857755 4:0.60752383 5:0.261282 
-0 1 1 0 1:-6.0958941 2:3.9635833 3:1.2764638 4:-3.2215435 5:1.2611565 
-1 0 0 1 1:25.655909 2:-11.665555 3:0.74147752 4:-1.3931105 5:-1.803915 
-0 1 1 0 1:6.3724138 2:1.031391 3:-0.32068017 4:2.1427442 5:1.5141247 
-1 0 0 1 1:-0.35662227 2:15.069137 3:5.0464293 4:-0.96046764 5:-1.4977771 
-1 0 0 1 1:-0.30618402 2:15.212734 3:4.1260636 4:0.72044956 5:-0.47077778 
-1 0 0 1 1:25.725099 2:-11.48596 3:-0.3495468 4:0.37533393 5:0.24221114 
-1 0 0 1 1:-0.38192684 2:15.12092 3:4.5885809 4:-1.2992232 5:-1.5570037 
-1 0 0 1 1:-0.5212189 2:4.266658 3:-3.9649822 4:5.0412016 5:-2.3626849 
-1 1 1 1 1:-24.788825 2:-13.224162 3:1.9948973 4:0.62881416 5:-0.12763566 
-0 1 1 0 1:6.4849617 2:0.99822415 3:0.42105445 4:2.4325968 5:5.4710666 
-1 0 0 1 1:-0.41915008 2:15.360528 3:2.6647065 4:-0.69489827 5:-1.6842768 
-1 0 0 1 1:25.654246 2:-11.684402 3:0.88737706 4:-1.590043 5:-1.7479739 
-0 1 1 0 1:6.4780699 2:0.99447014 3:0.41714585 4:2.4088907 5:5.1789372 
-1 0 0 1 1:25.657441 2:-11.678119 3:0.85186704 4:-1.5223423 5:-1.6551997 
-0 1 1 -0 1:-0.52648019 2:4.17571 3:-3.2845739 4:4.3348285 5:-2.4185034 
-1 0 0 1 1:-0.12952959 2:10.376159 3:5.6131541 4:-0.28473924 5:0.6669422 
-0 1 1 0 1:6.4861494 2:0.99596922 3:0.44150862 4:2.4457032 5:5.4784428 
-0 1 1 0 1:6.4457607 2:1.0654939 3:-0.27498256 4:2.8425141 5:3.8788703 
-1 0 0 1 1:25.658111 2:-11.661147 3:0.74226631 4:-1.586043 5:-1.3655026 
-1 0 0 1 1:-0.52666062 2:4.2651254 3:-3.9746838 4:4.9863109 5:-2.5237033 
-0 1 1 1 1:-0.52911149 2:4.2777829 3:-4.0849309 4:5.0869776 5:-2.64961 
-0 1 1 0 1:-6.3602487 2:4.6466485 3:-4.6303802 4:-5.4943255 5:0.15981765 
-1 0 0 1 1:-0.40865081 2:15.243672 3:3.6050073 4:-1.4674407 5:-1.2416412 
-0 1 1 0 1:-6.3558588 2:4.7222703 3:-5.1314756 4:-5.7006343 5:1.3696265 
-1 0 0 1 1:25.656935 2:-11.678043 3:0.8519699 4:-1.551496 5:-1.6333473 
-0 1 1 0 1:-6.3506184 2:4.6650345 3:-4.7572012 4:-4.9144533 5:-0.098834185 
-1 0 0 1 1:25.643752 2:-11.675614 3:0.78102119 4:-1.6356656 5:-2.0306097 
-1 0 0 1 1:25.658901 2:-11.681613 3:0.88522433 4:-1.539954 5:-1.5997223 
-0 1 1 0 1:6.4390435 2:1.0245438 3:0.015961153 4:2.4612198 5:3.7603091 
-0 1 1 0 1:6.4307337 2:0.98923766 3:0.26895103 4:1.9543089 5:3.8155072 
-1 1 1 1 1:-24.790652 2:-13.250843 3:2.2001445 4:0.33643902 5:-0.023463039 
-0 1 1 0 1:6.4837868 2:0.99991046 3:0.40298193 4:2.439158 5:5.4250712 
-1 0 0 1 1:-0.35889111 2:15.101995 3:4.8055853 4:-0.99281567 5:-1.2272068 
-1 1 1 1 1:-24.799491 2:-13.254895 3:2.1902648 4:0.30279335 5:-0.38217106 
-1 0 0 1 1:-0.34520145 2:15.047226 3:5.2479646 4:-0.87521253 5:-1.3584082 
-1 1 1 1 1:-24.802753 2:-13.249564 3:2.144029 4:0.25156517 5:-0.39861498 
-1 0 0 1 1:25.664176 2:-11.649231 3:0.68239784 4:-1.5121468 5:-1.088913 
-0 1 1 0 1:6.4307337 2:0.98923766 3:0.26895103 4:1.9543089 5:3.8155072 
-1 0 0 1 1:25.653773 2:-11.664055 3:0.74380724 4:-1.6140298 5:-1.5327929 
-0 1 1 0 1:6.4605963 2:0.97265629 3:0.51147449 4:2.1308972 5:4.6411241 
-0 1 1 0 1:-6.345368 2:4.6704212 3:-4.7448403 4:-5.2708117 5:0.69201717 
-1 0 0 1 1:-0.52579104 2:4.2727164 3:-4.03389 4:5.0889756 5:-2.5656743 
-1 0.5000004470348358 0 1 1:25.651406 2:-11.674862 3:0.80997387 4:-1.6183174 5:-1.7291589 
-1 1 1 1 1:25.765087 2:-11.619641 3:0.85174897 4:-0.47472698 5:1.8528932 
-0 1 1 0 1:-6.344997 2:4.6431391 3:-4.5412455 4:-5.4272541 5:0.65640587 
-1 1 0 1 1:25.66472 2:-11.674148 3:0.85263129 4:-1.4440304 5:-1.4242089 
-0 1 1 0 1:6.4866623 2:0.99913538 3:0.41969585 4:2.4672334 5:5.4967721 
-0 1 1 0 1:6.4403016 2:0.9642263 3:0.49814047 4:1.882049 5:4.083541 
-0 1 1 0 1:6.4825443 2:0.99772499 3:0.41243334 4:2.4436105 5:5.3458433 
-1 1 1 1 1:25.71572 2:-11.622384 3:0.67911861 4:-0.90673826 5:0.41774689 
-1 1 0 1 1:25.650215 2:-11.68512 3:0.87259168 4:-1.5860495 5:-1.9325292 
-0 1 1 0 1:6.4641746 2:0.99148248 3:0.38345247 4:2.2836438 5:4.7529014 
-0 1 1 0 1:6.4620934 2:0.98593738 3:0.41990057 4:2.1986433 5:4.7362321 
-0 1 1 0 1:6.4843914 2:0.99843062 3:0.40896542 4:2.5260666 5:5.3085878 
-1 1 0 1 1:25.650644 2:-11.679515 3:0.83878965 4:-1.6269446 5:-1.79747 
-1 0.1697187577342554 1 1 1:-24.810704 2:-13.270343 3:2.2625499 4:0.091242033 5:-0.69304153 
-1 1 1 1 1:-0.53809396 2:4.2240861 3:-3.6731305 4:4.2153727 5:-2.2644524 
-1 0 0 1 1:-0.52515998 2:4.2787665 3:-4.0771037 4:5.1298566 5:-2.5433859 
-1 1 1 1 1:25.683082 2:-11.663997 3:0.84882179 4:-1.2564624 5:-0.84298945 
-1 1 0 1 1:25.652758 2:-11.556103 3:-0.089862659 4:-0.84640845 5:-1.6567762 
-1 1 1 1 1:-24.803236 2:-13.236389 3:2.0341577 4:0.37599683 5:-0.47129062 
-1 0 0 1 1:-0.30625448 2:15.104186 3:4.9715996 4:-0.2160606 5:-0.15322993 
-0 1 1 0 1:6.4722251 2:0.98199628 3:0.48814407 4:2.2884607 5:4.9893969 
-0 1 1 0 1:6.4861587 2:0.99815922 3:0.42701144 4:2.4396822 5:5.5073423 
-0 1 1 0 1:-6.3485747 2:4.6660145 3:-4.7261495 4:-5.2811882 5:0.52934357 
-0 1 1 0 1:-6.3346407 2:4.5807766 3:-4.0592827 4:-5.336727 5:0.35023295 
-1 0 0 1 1:-0.38192684 2:15.12092 3:4.5885809 4:-1.2992232 5:-1.5570037 
-1 0 0 1 1:-0.31572738 2:15.046759 3:5.3788798 4:-0.7592137 5:-0.30086914 
-0 1 1 0 1:-6.3420907 2:4.6710215 3:-4.7372246 4:-5.223453 5:0.75947217 
-1 1 1 1 1:-0.52792134 2:4.2740955 3:-4.0517125 4:5.0756944 5:-2.6201967 
-1 0 0 1 1:-0.31572738 2:15.046759 3:5.3788798 4:-0.7592137 5:-0.30086914 
-0 1 1 0 1:-0.42917664 2:15.10628 3:4.422251 4:-1.4274961 5:-3.4130929 
-1 0.6692471129365982 0.7808775707344416 0.9648076018369203 1:25.607494 2:-11.638749 3:0.45951245 4:-2.9941165 5:-1.2023716 
-0 1 1 0 1:6.4863577 2:0.99628265 3:0.44058586 4:2.4424837 5:5.4928812 
-0 1 1 0 1:-6.3125213 2:4.6025847 3:-4.1435137 4:-4.8496622 5:0.78632755 
-0 1 1 0 1:6.4725424 2:1.0059261 3:0.30660492 4:2.4579632 5:4.9865956 
-0 1 1 0 1:-0.52547851 2:4.1808669 3:-3.3390298 4:4.5166453 5:-2.6198692 
-0 1 1 1 1:-0.52852657 2:4.2760106 3:-4.0698194 4:5.0950837 5:-2.6554913 
-0 1 1 0 1:6.4863577 2:0.99628265 3:0.44058586 4:2.4424837 5:5.4928812 
-1 -1 0 0 1:25.657226 2:-11.678901 3:0.85636012 4:-1.5213423 5:-1.6741631 
-0 -0 1 1 1:6.4605963 2:0.97265629 3:0.51147449 4:2.1308972 5:4.6411241 
-1 -1 0 0 1:25.655015 2:-11.641953 3:0.57925363 4:-1.4531221 5:-1.5035149 
-1 -1 1 0.2575535966898317 1:-24.810051 2:-13.269509 3:2.2661223 4:0.03464245 5:-0.57788764 
-0 -0 1 1 1:-6.3462428 2:4.6638948 3:-4.6959022 4:-5.3496134 5:0.70375388 
-1 -1 1 0 1:25.766733 2:-11.561642 3:0.39797374 4:0.20453925 5:1.5052806 
-0 -0 1 1 1:-6.3144644 2:4.6554661 3:-4.5558833 4:-4.4795599 5:0.68008458 
-0 -0 1 1 1:6.472628 2:0.99641846 3:0.3860454 4:2.305959 5:5.1194207 
-1 -1 0 0 1:-0.40865081 2:15.243672 3:3.6050073 4:-1.4674407 5:-1.2416412 
-1 -1 0 0 1:-0.37589785 2:15.109239 3:4.6978783 4:-1.2764192 5:-1.4523288 
-1 -1 0 0 1:25.650215 2:-11.68512 3:0.87259168 4:-1.5860495 5:-1.9325292 
-1 -1 1 1 1:-0.5288232 2:4.2759259 3:-4.0686766 4:5.068571 5:-2.6303452 
-0 -0 1 1 1:-6.343849 2:4.6700716 3:-4.7325904 4:-5.3142788 5:0.80574802 
-1 -1 0 0 1:-0.31572738 2:15.046759 3:5.3788798 4:-0.7592137 5:-0.30086914 
-0 -0 1 1 1:-0.52907459 2:4.2718739 3:-4.0406275 4:5.0673373 5:-2.6775434 
-1 -1 0 0 1:-0.35889111 2:15.101995 3:4.8055853 4:-0.99281567 5:-1.2272068 
-0 -0 1 1 1:-6.3408941 2:4.6866473 3:-4.8488514 4:-5.1494878 5:0.85119986 
-0 -0 1 1 1:-6.3226097 2:4.623769 3:-4.3221052 4:-5.0437208 5:0.86606159 
-1 -1 1 1 1:-0.52618351 2:4.266651 3:-3.9931028 4:5.1088576 5:-2.6668455 
-1 -1 0 0 1:25.647358 2:-11.673136 3:0.77167759 4:-1.4926326 5:-2.059214 
-0 -0 1 1 1:6.4816375 2:0.99472619 3:0.43254104 4:2.4032019 5:5.3372401 
-0 -0 1 1 1:-6.3345021 2:4.6986964 3:-4.9400824 4:-4.726184 5:0.61314487 
-0 -0 1 1 1:-6.3415291 2:4.6690725 3:-4.7360179 4:-5.1861428 5:0.67567897 
-0 -0 1 1 1:6.4722251 2:0.98199628 3:0.48814407 4:2.2884607 5:4.9893969 
-1 -1 1 1 1:-24.806222 2:-13.251979 3:2.1461194 4:0.18554662 5:-0.46552414 
-1 -1 0 0 1:-0.34930548 2:15.043365 3:5.2627922 4:-0.90645425 5:-1.5111116 
-1 -1 1 0 1:-24.791945 2:-13.276062 3:2.399954 4:-0.019899632 5:0.19361908 
-1 -1 0 0 1:-0.34889917 2:15.053142 3:5.193353 4:-0.91537693 5:-1.3954597 
-1 -1 0 0 1:-24.828499 2:-13.182113 3:1.5634455 4:-0.010160679 5:-0.43244004 
-0 -0 1 1 1:6.4480134 2:1.0068849 3:0.19103595 4:2.360051 5:4.1125087 
-1 -1 0 0 1:25.653938 2:-11.681982 3:0.86946325 4:-1.5953904 5:-1.7290781 
-0 -0 1 1 1:-6.3175144 2:4.5674794 3:-3.9075053 4:-4.9872248 5:0.43880073 
-1 -1 0 0 1:-0.30618402 2:15.212734 3:4.1260636 4:0.72044956 5:-0.47077778 
-1 -1 0 0 1:25.662843 2:-11.660646 3:0.75101717 4:-1.4650046 5:-1.3349332 
-1 -1 0 0 1:-0.34889917 2:15.053142 3:5.193353 4:-0.91537693 5:-1.3954597 
-0 -0 1 1 1:6.4262188 2:0.97828378 3:0.34020918 4:1.767618 5:3.7945403 
-1 -1 1 1 1:-0.53747878 2:4.1982018 3:-3.4681834 4:3.9892591 5:-2.157746 
-1 -1 1 1 1:-24.792202 2:-13.330766 3:2.7577296 4:0.29824171 5:-0.72650054 
-1 -1 0 0 1:25.666843 2:-11.672112 3:0.84715609 4:-1.4462431 5:-1.3154817 
-0 -0 1 1 1:6.4233504 2:0.96062463 3:0.45180042 4:1.7183417 5:3.56287 
-0 -0 1 1 1:-6.3430103 2:4.6708829 3:-4.7356315 4:-5.2845478 5:0.81029392 
-1 -1 1 1 1:-0.53445035 2:4.2358087 3:-3.7622089 4:4.5006418 5:-2.4155632 
-0 -0 1 1 1:-6.3415116 2:4.6658141 3:-4.6928171 4:-5.299863 5:0.84419397 
-1 -1 0 0 1:-0.47183714 2:4.2504465 3:-3.6245675 4:5.1402078 5:-0.6117271 
-1 -1 1 1 1:-24.806929 2:-13.275853 3:2.3231243 4:0.061994743 5:-0.54520234 
-1 -1 0 1 1:-24.824156 2:-13.250252 3:2.0487354 4:0.22273703 5:-1.2486244 
-1 -1 1 1 1:-24.787395 2:-13.24813 3:2.1875695 4:0.44022146 5:-0.013623827 
-0 -0 1 1 1:6.484418 2:1.0000581 3:0.4031489 4:2.4645784 5:5.4178529 
-1 -1 0 0 1:-0.35889111 2:15.101995 3:4.8055853 4:-0.99281567 5:-1.2272068 
-0 -0 1 1 1:6.4585317 2:0.98090223 3:0.44406494 4:2.1349262 5:4.6317561 
-0 -0 1 1 1:-0.42917664 2:15.10628 3:4.422251 4:-1.4274961 5:-3.4130929 
-1 -1 1 1 1:-24.797151 2:-13.260969 3:2.2375896 4:0.38765226 5:-0.46820347 
-1 -1 0 0 1:25.654149 2:-11.657224 3:0.69393963 4:-1.5842799 5:-1.4966525 
-1 -1 0 0 1:25.654983 2:-11.537535 3:-0.23065165 4:-0.5574224 5:-1.7940346 
-0 -0 1 1 1:-6.1408722 2:5.2597714 3:-8.977112 4:7.028786 5:-3.1229987 
-1 -1 0 1 1:-24.821856 2:-13.275731 3:2.25897 4:-0.036432439 5:-1.0214788 
-0 -0 1 1 1:-6.3663281 2:4.6562215 3:-4.7239496 4:-5.5130437 5:0.029945903 
-1 -1 0 0 1:25.653329 2:-11.683453 3:0.87593951 4:-1.577235 5:-1.7951694 
-1 -1 0 1 1:-24.805097 2:-13.253595 3:2.1558767 4:0.29526292 5:-0.58509006 
-1 -1 1 0 1:-0.52752191 2:4.2738688 3:-4.0482153 4:5.0840185 5:-2.6149513 
-0 -0 1 1 1:6.4269577 2:1.0196038 3:0.0016441836 4:2.3691985 5:3.3403999 
-0 -0 1 1 1:-0.53427746 2:4.2228278 3:-3.6701426 4:4.4789435 5:-2.5129987 
-1 -1 1 1 1:-24.797938 2:-13.258373 3:2.2285849 4:0.22863194 5:-0.24306271 
-1 -1 1 1 1:-24.800626 2:-13.263655 3:2.2545315 4:0.21365039 5:-0.37873835 
-1 -1 0 0 1:25.654802 2:-11.682924 3:0.87762835 4:-1.5689263 5:-1.7414954 
-1 -1 0 0 1:25.657038 2:-11.679885 3:0.86602328 4:-1.56342 5:-1.627287 
-1 -1 0 0 1:-0.36163907 2:15.113293 3:4.7017881 4:-0.86080546 5:-1.426884 
-1 -1 1 1 1:-0.5288232 2:4.2759259 3:-4.0686766 4:5.068571 5:-2.6303452 
-1 -1 0 0 1:-0.50557603 2:4.2674729 3:-3.9012945 4:5.0932279 5:-1.7754415 
-0 -0 1 1 1:-6.3496764 2:4.6446709 3:-4.5676184 4:-5.3650989 5:0.41837235 
-1 -1 0 1 1:-24.771389 2:-13.080642 3:0.91541266 4:2.2695039 5:-0.80780837 
-0 -0 1 1 1:-6.34973 2:4.6855981 3:-4.8799848 4:-5.1649309 5:0.49334482 
-0 -0 1 1 1:6.3433869 2:0.88027615 3:0.74070938 4:0.62799614 5:1.0584804 
-1 -1 0 1 1:-24.813912 2:-13.250501 3:2.0981713 4:0.22839717 5:-0.83397826 
-0 -0 1 1 1:6.4641746 2:0.99148248 3:0.38345247 4:2.2836438 5:4.7529014 
-0 -0 1 1 1:6.4825443 2:0.99772499 3:0.41243334 4:2.4436105 5:5.3458433 
-1 -1 1 1 1:-24.804315 2:-13.271104 3:2.3013787 4:0.072079208 5:-0.40712513 
-1 -1 1 1 1:-24.799463 2:-13.25742 3:2.2085355 4:0.29749112 5:-0.39674178 
-0 -0 1 1 1:-6.323931 2:4.6319988 3:-4.3634909 4:-5.3851656 5:1.3764238 
-1 -1 0.624131339393457 0 1:-0.52918579 2:4.2572693 3:-3.9195143 4:4.8516867 5:-2.5058346 
-1 -1 1 0 1:25.797305 2:-11.530706 3:0.32842447 4:0.12939037 5:3.2017275 
-0.7934085757869325 -0 1 1 1:-0.70731626 2:3.7679472 3:-0.42015996 4:-5.6626556 5:0.75040938 
-0 -0 1 1 1:6.458748 2:1.0070369 3:0.23488512 4:2.4349376 5:4.4562857 
-1 -1 1 1 1:-0.52618351 2:4.266651 3:-3.9931028 4:5.1088576 5:-2.6668455 
-1 -1 0 0 1:-0.30625448 2:15.104186 3:4.9715996 4:-0.2160606 5:-0.15322993 
-1 -1 0 0 1:-0.34930548 2:15.043365 3:5.2627922 4:-0.90645425 5:-1.5111116 
-1 -1 0 1 1:-24.802738 2:-13.246122 3:2.1097651 4:0.34468702 5:-0.49497793 
-1 -1 1 1 1:-0.52852657 2:4.2760106 3:-4.0698194 4:5.0950837 5:-2.6554913 
-0 -0 1 1 1:-0.52907459 2:4.2718739 3:-4.0406275 4:5.0673373 5:-2.6775434 
-1 -1 0 0 1:-0.41915008 2:15.360528 3:2.6647065 4:-0.69489827 5:-1.6842768 
-1 -1 1 1 1:-24.800505 2:-13.260458 3:2.2274072 4:0.27225493 5:-0.43362629 
-1 -1 0 1 1:-24.847274 2:-13.22253 3:1.7359403 4:0.29442306 5:-2.0572409 
-1 -1 0 1 1:-24.803609 2:-13.252907 3:2.1390185 4:0.26834259 5:-0.54438629 
-1 -1 0 0 1:-0.34520145 2:15.047226 3:5.2479646 4:-0.87521253 5:-1.3584082 
-1 -1 1 1 1:-24.802426 2:-13.253035 3:2.1640227 4:0.29376067 5:-0.47229548 
-1 -1 0 0 1:-0.34594216 2:15.032982 3:5.3472495 4:-1.0373807 5:-1.2983356 
-1 -1 0 0 1:-0.31572738 2:15.046759 3:5.3788798 4:-0.7592137 5:-0.30086914 
-0 -0 1 1 1:6.3433869 2:0.88027615 3:0.74070938 4:0.62799614 5:1.0584804 
-1 -1 0 0 1:-0.50231244 2:4.2590528 3:-3.8198077 4:5.0203431 5:-1.6134156 
-0 -0 1 1 1:-6.3410605 2:4.6670489 3:-4.724571 4:-4.9939027 5:0.42264192 
-0 -0 1 1 1:-0.42917664 2:15.10628 3:4.422251 4:-1.4274961 5:-3.4130929 
-0 -0 1 1 1:6.4846902 2:0.99711749 3:0.42600294 4:2.44855 5:5.4196586 
-1 -1 0 0 1:25.66925 2:-11.677644 3:0.90045685 4:-1.471773 5:-1.2290603 
-1 -1 0 0 1:25.648145 2:-11.67119 3:0.76509982 4:-1.5853243 5:-1.878117 
-1 -1 0 1 1:-24.806656 2:-13.216847 3:1.8878187 4:0.27991284 5:-0.2825864 
-1 -1 1 1 1:-0.53809396 2:4.2240861 3:-3.6731305 4:4.2153727 5:-2.2644524 
-1 -1 0 0 1:25.701535 2:-11.612883 3:0.5367205 4:-0.78195019 5:-0.26154621 
-1 -1 0 1 1:-24.807072 2:-13.253705 3:2.145273 4:0.31443819 5:-0.70525284 
-0 -0 1 1 1:6.4861587 2:0.99815922 3:0.42701144 4:2.4396822 5:5.5073423 
-1 -1 0 0 1:25.653732 2:-11.684527 3:0.89051267 4:-1.6323641 5:-1.7053414 
-1 -1 1 0 1:25.757041 2:-11.554447 3:0.32387183 4:-0.045892865 5:1.5449873 
-1 -1 0 0 1:25.656458 2:-11.687013 3:0.91537508 4:-1.5805494 5:-1.6947288 
-0 -0 1 1 1:-0.52869119 2:4.2724976 3:-4.0441834 4:5.0783763 5:-2.6715744 
-0 -0 1 1 1:6.4701746 2:0.97744506 3:0.5163982 4:2.2215318 5:4.9591117 
-1 -1 0 0 1:-0.35173122 2:15.009226 3:5.5081753 4:-1.1380332 5:-1.6077263 
-0 -0 1 1 1:6.4863577 2:0.99628265 3:0.44058586 4:2.4424837 5:5.4928812 
-0 -0 1 1 1:6.2645535 2:0.82533131 3:0.83345538 4:-0.16680596 5:-1.5728905 
-0 -0 1 1 1:6.4837868 2:0.99991046 3:0.40298193 4:2.439158 5:5.4250712 
-1 -1 0 0 1:-0.51948074 2:4.2409497 3:-3.7598942 4:4.8687048 5:-2.2838838 
-1 -1 0 0 1:-0.41915008 2:15.360528 3:2.6647065 4:-0.69489827 5:-1.6842768 
-1 -1 1 1 1:-24.797513 2:-13.260451 3:2.2355578 4:0.31706256 5:-0.38180534 
-1 -1 1 1 1:-24.803507 2:-13.302119 3:2.5252043 4:0.03532545 5:-0.62359226 
-0 -0 1 1 1:-5.8296538 2:3.0554721 3:8.5075583 4:2.0166533 5:-3.9570313 
-0 -0 1 1 1:6.4816375 2:0.99472619 3:0.43254104 4:2.4032019 5:5.3372401 
-0 -0 1 1 1:-6.3398072 2:4.6536788 3:-4.6071156 4:-5.183305 5:0.62765715 
-1 -1 0 0 1:25.657541 2:-11.681531 3:0.87704666 4:-1.5220507 5:-1.6821205 
-0 -0 1 1 1:6.4780699 2:0.99447014 3:0.41714585 4:2.4088907 5:5.1789372 
-0 -0 1 1 1:-6.3398072 2:4.6536788 3:-4.6071156 4:-5.183305 5:0.62765715 
-0 -0 1 1 1:-6.1758661 2:4.7634027 3:-4.8556762 4:-2.2517892 5:4.2394621 
-1 -1 0 0 1:-0.30046398 2:15.079169 3:5.1870145 4:-0.34250223 5:0.033540173 
-0 -0 1 1 1:6.4671663 2:1.0063589 3:0.28174015 4:2.4114005 5:4.8362783 
-1 -1 0 0 1:-0.35889111 2:15.101995 3:4.8055853 4:-0.99281567 5:-1.2272068 
-0 -0 1 1 1:6.4771263 2:0.99634655 3:0.39899476 4:2.4100584 5:5.1619587 
-0 -0 1 1 1:-0.53029908 2:4.2668054 3:-4.0016574 4:4.9610948 5:-2.6209201 
-0 -0 1 1 1:6.4480134 2:1.0068849 3:0.19103595 4:2.360051 5:4.1125087 
-1 -1 0 0 1:25.652962 2:-11.677979 3:0.83860294 4:-1.6278089 5:-1.6864671 
-0 -0 1 1 1:6.4795047 2:0.99752006 3:0.40191781 4:2.4214681 5:5.2521571 
-1 -1 0 0 1:-0.52715635 2:4.2658045 3:-3.9822201 4:4.9845867 5:-2.5350875 
-1 -1 0 0 1:-0.35173122 2:15.009226 3:5.5081753 4:-1.1380332 5:-1.6077263 
-1 -1 0 0 1:-0.30625448 2:15.104186 3:4.9715996 4:-0.2160606 5:-0.15322993 
-1 -1 0 0 1:25.659579 2:-11.665512 3:0.75834644 4:-1.3381765 5:-1.712263 
-0 -0 1 1 1:-6.3338342 2:4.5981248 3:-4.18751 4:-5.1211054 5:0.25713149 
-1 -1 0 1 1:-24.807594 2:-13.22428 3:1.9087115 4:0.60899494 5:-0.8717837 
-0 -0 1 1 1:-6.3360074 2:4.683587 3:-4.8180663 4:-4.9500146 5:0.74330409 
-0 -0 1 1 1:-6.3312125 2:4.7094749 3:-5.0178951 4:-4.5207236 5:0.55257822 
-1 -1 0 0 1:-0.34594216 2:15.032982 3:5.3472495 4:-1.0373807 5:-1.2983356 
-0 -0 1 1 1:-6.2094499 2:4.0595187 3:0.28583812 4:-5.997335 5:1.5164461 
-1 -1 0 0 1:25.659816 2:-11.674774 3:0.8423259 4:-1.5401045 5:-1.490539 
-1 -1 0 0 1:-0.30625448 2:15.104186 3:4.9715996 4:-0.2160606 5:-0.15322993 
-1 -1 1 1 1:-0.52929409 2:4.2704288 3:-4.0270068 4:5.0109883 5:-2.6198513 
-0 -0 1 1 1:6.4586381 2:0.99727531 3:0.32351612 4:2.1761323 5:4.7280128 
-0 -0 1 1 1:-6.3409476 2:4.6434854 3:-4.5255624 4:-5.3551685 5:0.74197922 
-1 -1 0 0 1:-0.31572738 2:15.046759 3:5.3788798 4:-0.7592137 5:-0.30086914 
-0 -0 1 1 1:-6.3165549 2:4.6138801 3:-4.231968 4:-4.9753251 5:0.91163889 
-0 -0 1 1 1:-6.3360074 2:4.683587 3:-4.8180663 4:-4.9500146 5:0.74330409 
-1 -1 0 0 1:25.656271 2:-11.676078 3:0.83346998 4:-1.5330609 5:-1.6665119 
-0 -0 1 1 1:-6.3571132 2:4.677247 3:-4.8437633 4:-5.3653842 5:0.39265406 
-1 -1 1 1 1:-24.800737 2:-13.270131 3:2.2965348 4:0.25502239 5:-0.51590785 
-0 -0 1 1 1:6.4757544 2:0.98368269 3:0.49002148 4:2.3255798 5:5.1006674 
-0 -0 1 1 1:-0.60752176 2:4.0539318 3:-2.4842694 4:0.4746844 5:-1.3236535 
-0 -0 1 1 1:6.4641746 2:0.99148248 3:0.38345247 4:2.2836438 5:4.7529014 
-0 -0 1 1 1:6.4806613 2:0.99344044 3:0.43836322 4:2.3905339 5:5.3019218 
-1 -1 0.6881445603894092 0 1:25.675302 2:-11.67352 3:0.89357187 4:-1.4010902 5:-1.0402681 
-0 -0 1 1 1:-0.53494135 2:4.2798761 3:-4.1182051 4:4.9907307 5:-2.7309273 
-1 -1 1 1 1:-0.52792134 2:4.2740955 3:-4.0517125 4:5.0756944 5:-2.6201967 
-1 -1 1 0 1:-24.721887 2:-13.278237 3:2.7215465 4:0.29279842 5:2.6505688 
-1 -1 1 0 1:-0.52776431 2:4.2622082 3:-3.9585438 4:4.9658507 5:-2.5726381 
-1 -1 1 1 1:-24.808463 2:-13.301966 3:2.4994916 4:0.032063965 5:-0.81277199 
-0 -0 1 1 1:6.472628 2:0.99641846 3:0.3860454 4:2.305959 5:5.1194207 
-1 -1 0 0 1:25.658363 2:-11.678884 3:0.86311322 4:-1.5323928 5:-1.6051618 
-1 -1 0 0 1:25.627345 2:-11.681893 3:0.77515641 4:-1.9193459 5:-2.3499032 
-1 -1 0 0 1:-0.35173122 2:15.009226 3:5.5081753 4:-1.1380332 5:-1.6077263 
-1 -1 0 0 1:25.65251 2:-11.679254 3:0.83840082 4:-1.559511 5:-1.8245415 
-0 -0 1 1 1:6.4806548 2:0.99623236 3:0.41660422 4:2.4138184 5:5.2962822 
-1 -1 0.6877241002171337 1 1:-24.805128 2:-13.245168 3:2.0991193 4:0.24574373 5:-0.4460101 
-0 -0 1 1 1:6.4826542 2:0.9954831 3:0.43115015 4:2.4182977 5:5.3669467 
-0 -0 1 1 1:6.4686726 2:0.97983905 3:0.49128582 4:2.2330826 5:4.9022427 
-1 -1 0 0 1:-0.41915008 2:15.360528 3:2.6647065 4:-0.69489827 5:-1.6842768 
-1 -1 1 1 1:-24.797384 2:-13.261845 3:2.2500868 4:0.29291147 5:-0.34756933 
-1 -1 0 0 1:25.665962 2:-11.683109 3:0.92118034 4:-1.444205 5:-1.4629108 
-1 -1 1 1 1:-24.805988 2:-13.253676 3:2.1569209 4:0.23083749 5:-0.53769047 
-1 -1 0 0 1:25.668327 2:-11.659107 3:0.7547549 4:-1.4410349 5:-1.1540695 
-1 -1 0 0 1:25.656458 2:-11.687013 3:0.91537508 4:-1.5805494 5:-1.6947288 
-0 -0 1 1 1:6.4816375 2:0.99472619 3:0.43254104 4:2.4032019 5:5.3372401 
-0 -0 1 1 1:-6.3334145 2:4.6542684 3:-4.5827167 4:-5.1657191 5:0.87178794 
-1 -1 0 1 1:-24.804929 2:-13.254916 3:2.164683 4:0.2980501 5:-0.60268874 
-1 -1 0 0 1:-0.34790039 2:15.04355 3:5.2641436 4:-0.88279634 5:-1.4898936 
-1 -1 1 1 1:-24.799 2:-13.259968 3:2.2303553 4:0.28165976 5:-0.37943861 
-0 -0 1 1 1:6.4429149 2:1.0617298 3:-0.23998406 4:2.585902 5:4.0941937 
-1 -1 0 0 1:-0.41915008 2:15.360528 3:2.6647065 4:-0.69489827 5:-1.6842768 
-1 -1 0 0 1:-0.52639329 2:4.2743556 3:-4.047317 4:5.0832137 5:-2.5641285 
-0 -0 1 1 1:6.481105 2:0.9848019 3:0.50881701 4:2.3117091 5:5.3572814 
-0 -0 1 1 1:6.485423 2:0.99710276 3:0.43017585 4:2.4542605 5:5.4467359 
-0 -0 1 1 1:6.4818465 2:0.99760406 3:0.41276222 4:2.4111303 5:5.3641051 
-0 -0 1 1 1:-6.3471622 2:4.6717947 3:-4.7458877 4:-5.4445373 5:0.88985959 
-0 -0 1 1 1:-6.347544 2:4.6585338 3:-4.6586383 4:-5.4141449 5:0.69238386 
-0 -0 1 1 1:-0.54920721 2:4.2223829 3:-3.6922488 4:3.9716592 5:-2.3863858 
-0 -0 1 1 1:-0.5318456 2:4.2798431 3:-4.1171149 4:5.1481164 5:-2.8323363 
-0 -0 1 1 1:6.3926488 2:0.93004656 3:0.5484901 4:1.4855117 5:2.3361387 
-0 -0 1 1 1:6.4816375 2:0.99472619 3:0.43254104 4:2.4032019 5:5.3372401 
-1 -1 1 1 1:-24.788264 2:-13.244213 3:2.1591589 4:0.41492935 5:0.028516219 
-0 -0 1 1 1:-6.3400186 2:4.6673096 3:-4.7131596 4:-5.095603 5:0.61930597 
-1 -1 0 0 1:-0.34520145 2:15.047226 3:5.2479646 4:-0.87521253 5:-1.3584082 
-0 -0 1 1 1:6.4861494 2:0.99596922 3:0.44150862 4:2.4457032 5:5.4784428 
-0 -0 1 1 1:-6.3399809 2:4.66258 3:-4.6708578 4:-5.1905639 5:0.71708742 
-0 -0 1 1 1:-0.52910896 2:4.2552115 3:-3.9103983 4:4.917367 5:-2.6205061 
-1 -1 1 0 1:25.814622 2:-11.57204 3:0.69848305 4:0.1848045 5:3.4417974 
-1 -1 0 0 1:-0.35889111 2:15.101995 3:4.8055853 4:-0.99281567 5:-1.2272068 
-0 -0 1 1 1:-0.56698927 2:4.2551315 3:-3.9591815 4:3.3573784 5:-1.9140833 
-1 -1 0 0 1:-0.30625448 2:15.104186 3:4.9715996 4:-0.2160606 5:-0.15322993 
-1 -1 1 1 1:-24.804872 2:-13.267582 3:2.272515 4:0.10154778 5:-0.43184301 
-1 -1 0 0 1:25.740782 2:-11.54624 3:0.18629471 4:-0.0064177363 5:0.87837017 
-1 -1 0 0 1:-0.40865081 2:15.243672 3:3.6050073 4:-1.4674407 5:-1.2416412 
-1 -1 0 0 1:25.648636 2:-11.687979 3:0.90364268 4:-1.7441546 5:-1.7747982 
-0 -0 1 1 1:-6.3446654 2:4.6503921 3:-4.5788923 4:-5.4956351 5:0.85631735 
-1 -1 0 1 1:-24.851544 2:-13.127648 3:1.0025713 4:0.79816975 5:-2.0547982 
-0 -0 1 1 1:-0.53029908 2:4.2668054 3:-4.0016574 4:4.9610948 5:-2.6209201 
-0 -0 1 1 1:6.4605963 2:0.97265629 3:0.51147449 4:2.1308972 5:4.6411241 
-0 -0 1 1 1:-6.3450932 2:4.6668763 3:-4.7102086 4:-5.3679342 5:0.80539418 
-0 -0 1 1 1:6.4795047 2:0.99752006 3:0.40191781 4:2.4214681 5:5.2521571 
-1 -1 0 0.5000003576278687 1:25.663569 2:-11.673079 3:0.84604949 4:-1.5163358 5:-1.353838 
-1 -1 0 0 1:-0.46888923 2:4.2469804 3:-3.5919468 4:5.1983021 5:-0.59345312 
-1 -1 0 0 1:-0.34594216 2:15.032982 3:5.3472495 4:-1.0373807 5:-1.2983356 
-1 -1 1 1 1:-24.799039 2:-13.253395 3:2.177528 4:0.35015214 5:-0.41858508 
-0 -0 1 1 1:-6.3337881 2:4.6845444 3:-4.7892016 4:-5.2988877 5:1.3423837 
-1 -1 0 1 1:25.657226 2:-11.678901 3:0.85636012 4:-1.5213423 5:-1.6741631 
-0 -0 1 1 1:6.4361402 2:0.96187874 3:0.49689639 4:1.8518425 5:3.9270545 
-1 -1 0 1 1:-24.806591 2:-13.234659 3:2.0095401 4:0.33135587 5:-0.53346544 
-1 -1 0 0 1:-0.52521049 2:4.2822515 3:-4.0996542 4:5.1625059 5:-2.5418527 
-0 -0 1 1 1:6.467431 2:0.98549599 3:0.4451187 4:2.2415088 5:4.8951177 
-1 -1 1 1 1:-24.802541 2:-13.262418 3:2.2377425 4:0.20457616 5:-0.43944768 
-0 -0 1 1 1:6.484418 2:1.0000581 3:0.4031489 4:2.4645784 5:5.4178529 
-1 -1 0 0 1:-0.52715635 2:4.2658045 3:-3.9822201 4:4.9845867 5:-2.5350875 
-0 -0 1 1 1:6.4806613 2:0.99344044 3:0.43836322 4:2.3905339 5:5.3019218 
-1 -1 1 1 1:-24.798496 2:-13.258898 3:2.2229072 4:0.31109115 5:-0.39114005 
-1 -1 0 1 1:25.667049 2:-11.677366 3:0.88787412 4:-1.4864153 5:-1.3011387 
-0.4814756190151508 -0 1 1 1:-0.53029908 2:4.2668054 3:-4.0016574 4:4.9610948 5:-2.6209201 
-0 -0 1 1 1:-0.52648019 2:4.17571 3:-3.2845739 4:4.3348285 5:-2.4185034 
-0 -0 1 1 1:6.467431 2:0.98549599 3:0.4451187 4:2.2415088 5:4.8951177 
-1 -1 0 0 1:-0.47183714 2:4.2504465 3:-3.6245675 4:5.1402078 5:-0.6117271 
-1 -1 1 1 1:-24.791321 2:-13.277269 3:2.3912277 4:0.25558029 5:-0.18468311 
-0 -0 1 1 1:6.4722251 2:0.98199628 3:0.48814407 4:2.2884607 5:4.9893969 
-1 -1 0 0 1:-0.31572738 2:15.046759 3:5.3788798 4:-0.7592137 5:-0.30086914 
-0 -0 1 1 1:-6.3529016 2:4.6431772 3:-4.5762208 4:-5.3939487 5:0.28756043 
-0 -0 1 1 1:-0.53220101 2:4.2629209 3:-3.9897953 4:5.0285588 5:-2.8410284 
-0 -0 1 1 1:-0.53320434 2:4.2690991 3:-4.0245423 4:4.8746183 5:-2.5939145 
-1 -1 1 1 1:-24.787395 2:-13.24813 3:2.1875695 4:0.44022146 5:-0.013623827 
-1 -1 0 1 1:25.652962 2:-11.677979 3:0.83860294 4:-1.6278089 5:-1.6864671 
-1 -1 0 1 1:25.661239 2:-11.678553 3:0.87176826 4:-1.5049265 5:-1.5233 
-1 -1 1 0 1:-0.5281177 2:4.2679936 3:-4.0026548 4:4.9912261 5:-2.5665133 
-1 -1 0 1 1:-24.811531 2:-13.255207 3:2.1461623 4:0.18059091 5:-0.70981584 
-1 -1 0 0.7579140240559337 1:25.647358 2:-11.673136 3:0.77167759 4:-1.4926326 5:-2.059214 
-0 -0 1 1 1:6.4715738 2:0.98637145 3:0.45437044 4:2.2908637 5:5.0032218 
-1 -1 0 0 1:-0.38192684 2:15.12092 3:4.5885809 4:-1.2992232 5:-1.5570037 
-0 -0 1 1 1:6.4846902 2:0.99711749 3:0.42600294 4:2.44855 5:5.4196586 
-1 -1 -0 -0 1:-0.47183714 2:4.2504465 3:-3.6245675 4:5.1402078 5:-0.6117271 
-0 -1 -1 1 1:-24.79366 2:-13.252184 3:2.1849081 4:0.46738075 5:-0.35380846 
-0 -1 -1 0 1:-0.37589785 2:15.109239 3:4.6978783 4:-1.2764192 5:-1.4523288 
-0 -1 -1 0 1:-24.833335 2:-13.197715 3:1.6823796 4:-0.37476944 5:-0.24705499 
-0 -1 -1 1 1:-24.79366 2:-13.252184 3:2.1849081 4:0.46738075 5:-0.35380846 
-0 -1 -1 0 1:-24.818853 2:-13.243839 3:2.0289647 4:0.21379492 5:-0.95308623 
-1 -0 -0 1 1:-6.1499886 2:3.9556025 3:1.2180965 4:-5.0413485 5:1.5779146 
-0 -1 -1 0 1:25.658901 2:-11.681613 3:0.88522433 4:-1.539954 5:-1.5997223 
-1 -0 -0 1 1:-6.3115605 2:4.5887379 3:-4.0115433 4:-5.2321161 5:1.2456209 
-1 -0 -0 1 1:6.4671663 2:1.0063589 3:0.28174015 4:2.4114005 5:4.8362783 
-1 -0 -0 1 1:-6.347544 2:4.6585338 3:-4.6586383 4:-5.4141449 5:0.69238386 
-0 -1 -1 0 1:25.653732 2:-11.684527 3:0.89051267 4:-1.6323641 5:-1.7053414 
-1 -0 -0 1 1:6.4861494 2:0.99596922 3:0.44150862 4:2.4457032 5:5.4784428 
-0 -1 -1 0 1:-0.36523495 2:15.099579 3:4.7992503 4:-1.0626944 5:-1.4126369 
-0 -1 -1 1 1:-24.782246 2:-13.253291 3:2.2473567 4:0.45454858 5:0.1310473 
-1 -0 -0 1 1:6.4513239 2:0.96057837 3:0.57128563 4:1.9355207 5:4.4218144 
-0 -1 -1 0 1:25.658537 2:-11.67024 3:0.79772318 4:-1.4952131 5:-1.5740334 
-0 -1 -1 0 1:-0.30618402 2:15.212734 3:4.1260636 4:0.72044956 5:-0.47077778 
-1 -0 -0 1 1:-6.3565751 2:4.6576531 3:-4.6889615 4:-5.4802894 5:0.40485841 
-1 -0 -0 1 1:-6.2115209 2:4.4360519 3:-2.7988839 4:-1.0348042 5:-2.1921327 
-0 -1 -1 0 1:-0.52162995 2:4.1139391 3:-2.7737914 4:3.7103972 5:-1.8978908 
-0 -1 -1 0 1:25.655718 2:-11.686098 3:0.90488625 4:-1.5830502 5:-1.7167039 
-0 -1 -1 0 1:25.65157 2:-11.638057 3:0.52620165 4:-1.3536563 5:-1.7612053 
-0 -1 -1 1 1:-24.794361 2:-13.23483 3:2.0575898 4:0.47053736 5:-0.22142264 
-1 -0 -0 1 1:-6.3447697 2:4.6690322 3:-4.7296258 4:-5.2999366 5:0.73989416 
-0 -1 -1 0 1:25.655919 2:-11.691875 3:0.94757732 4:-1.5528172 5:-1.7989596 
-0 -1 -1 1 1:-24.788651 2:-13.239634 3:2.1164172 4:0.49318906 5:-0.063398887 
-1 -0 -0 1 1:6.4815405 2:0.99616628 3:0.42252452 4:2.3818559 5:5.3739868 
-0 -1 -1 0 1:25.706394 2:-11.642508 3:0.78527245 4:-0.99170743 5:-0.048875572 
-0 -1 -1 0 1:-0.31572738 2:15.046759 3:5.3788798 4:-0.7592137 5:-0.30086914 
-0 -1 -1 0 1:-24.957442 2:-12.944123 3:-0.61168854 4:-1.4970046 5:-1.3548455 
-0 -1 -1 0 1:-0.35173122 2:15.009226 3:5.5081753 4:-1.1380332 5:-1.6077263 
-0 -1 -1 0 1:-24.798024 2:-13.239088 3:2.1324245 4:-0.246719 5:0.64385317 
-1 -0 -0 1 1:6.459464 2:0.97596768 3:0.47751965 4:2.2029105 5:4.5249053 
-1 -0 -0 1 1:-6.327263 2:4.6522797 3:-4.52638 4:-5.3043903 5:1.3255056 
-1 -0 -0 1 1:6.472628 2:0.99641846 3:0.3860454 4:2.305959 5:5.1194207 
-1 -0 -0 1 1:6.427102 2:0.96436627 3:0.44224616 4:1.7954096 5:3.657862 
-1 -0 -0 1 1:6.4863577 2:0.99628265 3:0.44058586 4:2.4424837 5:5.4928812 
-1 -0 -0 1 1:-6.3447681 2:4.806049 3:-5.7305664 4:-4.9571014 5:1.5665885 
-0 -1 -1 1 1:-24.7949 2:-13.251487 3:2.1842938 4:0.34638715 5:-0.22117327 
-0 -1 -1 0 1:-0.40865081 2:15.243672 3:3.6050073 4:-1.4674407 5:-1.2416412 
-1 -0 -0 1 1:6.4403016 2:0.9642263 3:0.49814047 4:1.882049 5:4.083541 
-0 -1 -1 0 1:25.658618 2:-11.699941 3:1.0221858 4:-1.6428092 5:-1.6443878 
-1 -0 -0 1 1:6.4361402 2:0.96187874 3:0.49689639 4:1.8518425 5:3.9270545 
-0 -1 -1 0 1:25.654376 2:-11.681054 3:0.86261512 4:-1.5739859 5:-1.7329978 
-1 -0 -0 1 1:-6.3515532 2:4.6816164 3:-4.8520533 4:-5.2469001 5:0.51301014 
-0 -1 -1 0 1:-0.51718689 2:4.277204 3:-4.0318337 4:5.1886107 5:-2.3034276 
-1 -0 -0 1 1:-6.3430707 2:4.6558106 3:-4.6275072 4:-5.2992135 5:0.6849218 
-0 -1 -1 0 1:25.661239 2:-11.678553 3:0.87176826 4:-1.5049265 5:-1.5233 
-1 -0 -0 1 1:-6.3380844 2:4.6593323 3:-4.6428301 4:-5.1441834 5:0.69634374 
-1 -0 -0 1 1:-0.42917664 2:15.10628 3:4.422251 4:-1.4274961 5:-3.4130929 
-1 -0 -0 1 1:6.485423 2:0.99710276 3:0.43017585 4:2.4542605 5:5.4467359 
-0 -1 -1 0 1:25.657146 2:-11.631087 3:0.48693912 4:-1.1480798 5:-1.7578947 
-1 -0 -0 1 1:-0.53029908 2:4.2668054 3:-4.0016574 4:4.9610948 5:-2.6209201 
-0 -1 -1 0 1:25.664959 2:-11.679096 3:0.88924077 4:-1.4671653 5:-1.4317457 
-1 -0 -0 1 1:6.4818465 2:0.99760406 3:0.41276222 4:2.4111303 5:5.3641051 
-0 -1 -1 0 1:-0.38192684 2:15.12092 3:4.5885809 4:-1.2992232 5:-1.5570037 
-0 -1 -1 1 1:-24.792286 2:-13.230901 3:2.0248744 4:0.64942349 5:-0.35969917 
-1 -0 -0 1 1:6.467431 2:0.98549599 3:0.4451187 4:2.2415088 5:4.8951177 
-0 -1 -1 0 1:-0.52264333 2:4.2692706 3:-3.99348 4:5.0741578 5:-2.4447747 
-1 -0 -0 1 1:-6.342424 2:4.67086 3:-4.7383782 4:-5.2213191 5:0.73720022 
-1 -0 -0 1 1:-5.7701959 2:3.5015054 3:5.2630356 4:6.7111795 5:-4.1598332 
-0 -1 -1 0 1:-0.34889917 2:15.053142 3:5.193353 4:-0.91537693 5:-1.3954597 
-0 -1 -1 0 1:25.658609 2:-11.689274 3:0.94039119 4:-1.5398774 5:-1.6785154 
-1 -0 -0 1 1:-6.3303296 2:4.6656138 3:-4.6872813 4:-4.7110037 5:0.44289408 
-0 -1 -1 0 1:25.658331 2:-11.657109 3:0.66112928 4:-0.97167237 5:-2.2254831 
-0 -1 -1 0 1:25.65403 2:-11.674157 3:0.80839497 4:-1.534954 5:-1.7427221 
-1 -1 -1 0 1:-0.53403267 2:4.2569427 3:-3.9193482 4:4.6019874 5:-2.3447911 
-0 -1 -1 0 1:-0.34520145 2:15.047226 3:5.2479646 4:-0.87521253 5:-1.3584082 
-1 -0 -0 1 1:-6.3395883 2:4.663678 3:-4.6697444 4:-5.2684537 5:0.86463988 
-0 -1 -1 0 1:25.703268 2:-11.638326 3:0.74019965 4:-0.95772276 5:-0.17481896 
-1 -0 -0 1 1:-6.3016417 2:4.6295595 3:-4.2904967 4:-4.7740976 5:1.3904494 
-0 -1 -1 1 1:-24.759292 2:-13.267749 3:2.4352723 4:0.70139519 5:0.57967471 
-0 -1 -1 0 1:-24.797577 2:-13.252179 3:2.1840095 4:0.27010931 5:-0.22815288 
-0 -1 -1 1 1:-24.79104 2:-13.250003 3:2.1851872 4:0.40371167 5:-0.14173577 
-1 -0 -0 1 1:6.4757544 2:0.98368269 3:0.49002148 4:2.3255798 5:5.1006674 
-0 -1 -1 0 1:25.638248 2:-11.693849 3:0.91440605 4:-2.001139 5:-1.8954534 
-1 -0 -0 1 1:6.4511908 2:0.9794208 3:0.4331314 4:1.9704315 5:4.5492471 
-1 -0 -0 1 1:6.4457607 2:1.0654939 3:-0.27498256 4:2.8425141 5:3.8788703 
-1 -1 -1 1 1:-0.52792134 2:4.2740955 3:-4.0517125 4:5.0756944 5:-2.6201967 
-1 -0 -0 1 1:-6.2694493 2:4.5365205 3:-3.5201015 4:-4.2793015 5:1.1068254 
-1 -0 -0 1 1:6.4112881 2:1.0322196 3:-0.15899136 4:2.3371844 5:2.8624062 
-0 -1 -1 0.500000074505806 1:-24.806743 2:-13.253212 3:2.1476716 4:0.2647965 5:-0.61248198 
-0 -1 -1 0 1:-0.38192684 2:15.12092 3:4.5885809 4:-1.2992232 5:-1.5570037 
-1 -0 -0 1 1:6.4818465 2:0.99760406 3:0.41276222 4:2.4111303 5:5.3641051 
-0 -1 -1 0 1:25.656223 2:-11.67848 3:0.85382256 4:-1.5647622 5:-1.6439977 
-1 -0 -0 1 1:-6.2627643 2:4.4994283 3:-3.2163294 4:-4.4040745 5:1.2116245 
-1 -1 -1 1 1:-0.52776431 2:4.2622082 3:-3.9585438 4:4.9658507 5:-2.5726381 
-0 -1 -1 0 1:-0.38192684 2:15.12092 3:4.5885809 4:-1.2992232 5:-1.5570037 
-0 -1 -1 0 1:-0.50231244 2:4.2590528 3:-3.8198077 4:5.0203431 5:-1.6134156 
-0 -1 -1 0 1:-0.38192684 2:15.12092 3:4.5885809 4:-1.2992232 5:-1.5570037 
-1 -1 -1 0 1:-24.77133 2:-13.318854 3:2.8071024 4:-0.049744977 5:0.688667 
-1 -0 -0 1 1:6.4726315 2:0.98436931 3:0.4744383 4:2.274739 5:5.0501696 
-0 -1 -1 -0 1:-0.5212189 2:4.266658 3:-3.9649822 4:5.0412016 5:-2.3626849 
-0 -1 -1 1 1:-24.796397 2:-13.250028 3:2.1532265 4:0.54414178 5:-0.56720349 
-0 -1 -1 0 1:-0.35662227 2:15.069137 3:5.0464293 4:-0.96046764 5:-1.4977771 
-1 -0 -0 1 1:-0.53596953 2:4.2089361 3:-3.5701142 4:4.3804274 5:-2.5664073 
-1 -0 -0 1 1:-0.5402234 2:4.2410591 3:-3.8222467 4:4.4356094 5:-2.5130395 
-1 -0 -0 1 1:6.4837434 2:0.99762562 3:0.42031846 4:2.4261448 5:5.4224192 
-1 -0 -0 1 1:-6.3368461 2:4.7044464 3:-5.0315343 4:-4.2172563 5:-0.17139598 
-1 -0 -0 1 1:6.4726315 2:0.98436931 3:0.4744383 4:2.274739 5:5.0501696 
-0 -1 -1 1 1:-24.799396 2:-13.225692 3:1.9746421 4:0.41167252 5:-0.26172593 
-0 -1 -1 1 1:-24.794541 2:-13.164281 3:1.5275755 4:0.89773342 5:-0.17916427 
-0 -1 -1 0 1:25.666843 2:-11.672112 3:0.84715609 4:-1.4462431 5:-1.3154817 
-0 -1 -1 0 1:25.644795 2:-11.629493 3:0.46635724 4:-1.741001 5:-1.387672 
-0 -1 -1 0 1:-0.37589785 2:15.109239 3:4.6978783 4:-1.2764192 5:-1.4523288 
-1 -0 -0 1 1:-6.3293768 2:4.7203659 3:-5.0989012 4:-4.3891811 5:0.53846282 
-0 -1 -1 0 1:-24.827008 2:-13.298658 3:2.4173941 4:-0.24918437 5:-1.1431371 
-0 -1 -1 0 1:25.659092 2:-11.679164 3:0.86742276 4:-1.4808949 5:-1.6436449 
-0 -1 -1 0 1:-0.36523495 2:15.099579 3:4.7992503 4:-1.0626944 5:-1.4126369 
-0 -1 -1 1 1:-24.788825 2:-13.224162 3:1.9948973 4:0.62881416 5:-0.12763566 
-1 -0 -0 1 1:-0.5494749 2:4.2650626 3:-4.0146525 4:4.1751105 5:-2.2864736 
-1 -0 -0 1 1:-6.3492107 2:4.6776614 3:-4.8149025 4:-5.2533461 5:0.56973726 
-1 -0 -1 1 1:-0.5288232 2:4.2759259 3:-4.0686766 4:5.068571 5:-2.6303452 
-0.9779945980433653 -1 -1 1 1:-24.798397 2:-13.235426 3:2.0556883 4:0.40006007 5:-0.26774272 
-0 -1 -1 1 1:-24.801004 2:-13.262581 3:2.2428197 4:0.24477464 5:-0.43368807 
-1 -0 -0 1 1:6.4911596 2:0.98378728 3:0.55189413 4:2.4473753 5:5.5680606 
-1 -0 -0 1 1:-6.3426655 2:4.6769064 3:-4.7778723 4:-5.2750525 5:0.86654421 
-1 -1 -1 0 1:-0.52560774 2:4.272749 3:-4.0350642 4:5.117772 5:-2.5995817 
-0 -1 -1 1 1:-24.797205 2:-13.257505 3:2.2218592 4:0.28060959 5:-0.27944232 
-1 -0 -0 1 1:6.472628 2:0.99641846 3:0.3860454 4:2.305959 5:5.1194207 
-0 -1 -1 1 1:-24.795946 2:-13.241567 3:2.1065525 4:0.38707618 5:-0.22785354 
-0 -1 -1 1 1:-24.80172 2:-13.269171 3:2.2894409 4:0.19890162 5:-0.45739676 
-0 -1 -1 0 1:-0.52264333 2:4.2692706 3:-3.99348 4:5.0741578 5:-2.4447747 
-1 -0 -0 1 1:6.4757544 2:0.98368269 3:0.49002148 4:2.3255798 5:5.1006674 
-0.05879565574985161 -1 -1 0 1:-0.51938405 2:4.1010176 3:-2.670989 4:3.732177 5:-1.9619025 
-0 -1 -1 1 1:-24.798516 2:-13.26173 3:2.2472884 4:0.25552397 5:-0.33749592 
-0 -1 -1 0.999999925494194 1:25.656271 2:-11.676078 3:0.83346998 4:-1.5330609 5:-1.6665119 
-1 -1 -1 0 1:-0.5325036 2:4.2739512 3:-4.0501988 4:4.80739 5:-2.4194705 
-0 -1 -1 0 1:-0.34889917 2:15.053142 3:5.193353 4:-0.91537693 5:-1.3954597 
-0 -1 -1 1 1:-24.799036 2:-13.257716 3:2.2104001 4:0.32831595 5:-0.42378166 
-1 -1 -1 0 1:-0.52565751 2:4.2718502 3:-4.0276256 4:5.094034 5:-2.5769908 
-0 -1 -1 1 1:-24.802753 2:-13.263607 3:2.2431033 4:0.22316303 5:-0.49370277 
-0 -1 -1 0 1:-0.30625448 2:15.104186 3:4.9715996 4:-0.2160606 5:-0.15322993 
-0 -1 -1 1 1:25.650311 2:-11.655794 3:0.6795265 4:-1.7505979 5:-1.3992778 
-0 -1 -1 0 1:-0.30046398 2:15.079169 3:5.1870145 4:-0.34250223 5:0.033540173 
-0 -1 -1 1 1:25.659351 2:-11.689789 3:0.9481676 4:-1.5739626 5:-1.6103375 
-0 -1 -1 0 1:-0.34930548 2:15.043365 3:5.2627922 4:-0.90645425 5:-1.5111116 
-1 -0 -0 1 1:6.4671663 2:1.0063589 3:0.28174015 4:2.4114005 5:4.8362783 
-1 -0 -0 1 1:-0.53809396 2:4.2240861 3:-3.6731305 4:4.2153727 5:-2.2644524 
-0 -1 -1 1 1:-24.806198 2:-13.257922 3:2.1895374 4:0.21564232 5:-0.55680243 
-0 -1 -1 0 1:-0.54443661 2:4.1562488 3:-3.1251029 4:3.0313501 5:-1.4463184 
-0 -1 -1 0 1:-0.35662227 2:15.069137 3:5.0464293 4:-0.96046764 5:-1.4977771 
-1 -1 -1 1 1:25.669215 2:-11.675501 3:0.88822206 4:-1.5037874 5:-1.1588193 
-1 -0 -0 1 1:-0.53320434 2:4.2690991 3:-4.0245423 4:4.8746183 5:-2.5939145 
-1 -0 -0 1 1:-0.54104329 2:4.2558098 3:-3.9458224 4:4.6108739 5:-2.6648776 
-1 -0 -0 1 1:-6.3345021 2:4.6986964 3:-4.9400824 4:-4.726184 5:0.61314487 
-0.9927794900784485 -1 -1 1 1:-24.796791 2:-13.238061 3:2.0747007 4:0.40687309 5:-0.25638979 
-1 -0 -0 1 1:6.3433869 2:0.88027615 3:0.74070938 4:0.62799614 5:1.0584804 
-1 -0.5614483911176626 -1 1 1:-0.52792134 2:4.2740955 3:-4.0517125 4:5.0756944 5:-2.6201967 
-0 -1 -1 0 1:-0.35173122 2:15.009226 3:5.5081753 4:-1.1380332 5:-1.6077263 
-1 -0 -0 1 1:6.458748 2:1.0070369 3:0.23488512 4:2.4349376 5:4.4562857 
-1 -0 -0 1 1:-6.3179401 2:4.6790954 3:-4.6938901 4:-5.0758305 5:1.6289951 
-1 -1 -1 1 1:25.645596 2:-11.665112 3:0.73265374 4:-1.7544398 5:-1.6551935 
-1 -1 -1 0 1:-0.52782437 2:4.2601038 3:-3.937888 4:4.9038192 5:-2.4997563 
-1 -0 -0 1 1:6.4671663 2:1.0063589 3:0.28174015 4:2.4114005 5:4.8362783 
-0 -1 -1 0 1:-24.833335 2:-13.197715 3:1.6823796 4:-0.37476944 5:-0.24705499 
-0 -1 -1 0 1:-0.35173122 2:15.009226 3:5.5081753 4:-1.1380332 5:-1.6077263 
-1 -1 -1 1 1:25.655677 2:-11.657892 3:0.69663109 4:-1.466686 5:-1.6139051 
-1 -1 -1 1 1:25.653925 2:-11.680723 3:0.85526959 4:-1.5263317 5:-1.8193203 
-0 -1 -1 0 1:-0.12952959 2:10.376159 3:5.6131541 4:-0.28473924 5:0.6669422 
-0 -1 -1 0 1:-0.35889111 2:15.101995 3:4.8055853 4:-0.99281567 5:-1.2272068 
-1 -0 -0 1 1:-0.42917664 2:15.10628 3:4.422251 4:-1.4274961 5:-3.4130929 
-0 -1 -1 0 1:-0.34520145 2:15.047226 3:5.2479646 4:-0.87521253 5:-1.3584082 
-1 -1 -1 1 1:25.648607 2:-11.678212 3:0.82168536 4:-1.6594445 5:-1.8210549 
-0 -1 -1 1 1:-24.783907 2:-13.243194 3:2.1652615 4:0.49118842 5:0.10647695 
-0 -1 -1 0 1:-0.51948074 2:4.2409497 3:-3.7598942 4:4.8687048 5:-2.2838838 
-1 -1 -1 1 1:25.648607 2:-11.678212 3:0.82168536 4:-1.6594445 5:-1.8210549 
-0 -1 -1 0 1:-0.36163907 2:15.113293 3:4.7017881 4:-0.86080546 5:-1.426884 
-1 -0 -0 1 1:-6.3404068 2:4.6401216 3:-4.5378053 4:-4.9425289 5:0.10879528 
-1 -0 -0 1 1:6.4726315 2:0.98436931 3:0.4744383 4:2.274739 5:5.0501696 
-1 -0 -0 1 1:-6.3430103 2:4.6708829 3:-4.7356315 4:-5.2845478 5:0.81029392 
-1 -0 -0 1 1:6.4513239 2:0.96057837 3:0.57128563 4:1.9355207 5:4.4218144 
-1 -0 -0 1 1:6.4816375 2:0.99472619 3:0.43254104 4:2.4032019 5:5.3372401 
-0 -1 -1 1 1:-24.796227 2:-13.253819 3:2.1968256 4:0.31393877 5:-0.24589486 
-1 -1 -1 1 1:25.660629 2:-11.683664 3:0.90905335 4:-1.5474131 5:-1.5360191 
-1 -1 -1 0 1:-0.53403267 2:4.2569427 3:-3.9193482 4:4.6019874 5:-2.3447911 
-0 -1 -1 1 1:-24.783178 2:-13.251081 3:2.2287069 4:0.459268 5:0.11542897 
-1 -1 -1 0 1:-0.52742767 2:4.2692175 3:-4.0056528 4:4.9710208 5:-2.4918604 
-1 -1 -1 1 1:25.659498 2:-11.676236 3:0.84850342 4:-1.4983722 5:-1.5738128 
-1 -0 -0 1 1:-0.6138421 2:4.006913 3:-2.2126029 4:0.85136508 5:-2.5932097 
-1 -0 -0 1 1:-6.3177548 2:4.7269201 3:-5.0799979 4:-4.4803211 5:1.2318709 
-1 -0 -0 1 1:6.4326344 2:1.0042489 3:0.17752244 4:1.8898098 5:4.137597 
-1 -0 -0 1 1:-0.53003146 2:4.2771021 3:-4.0828005 4:5.0767972 5:-2.6802621 
-0 -1 -1 0 1:-0.34594216 2:15.032982 3:5.3472495 4:-1.0373807 5:-1.2983356 
-0 -1 -1 0 1:-0.35662227 2:15.069137 3:5.0464293 4:-0.96046764 5:-1.4977771 
-1 -1 -1 1 1:-25.184288 2:-12.036052 3:-7.8792343 4:-4.3834675 5:2.1938921 
-1 -0 -0 1 1:6.4866623 2:0.99913538 3:0.41969585 4:2.4672334 5:5.4967721 
-1 -0 -0 1 1:-6.2168307 2:3.945739 3:0.91254496 4:-4.2372544 5:-2.4772358 
-1 -0 -0 1 1:6.4866254 2:0.99876499 3:0.42333133 4:2.4469587 5:5.5200204 
-1 -0 -0 1 1:-0.53494135 2:4.2798761 3:-4.1182051 4:4.9907307 5:-2.7309273 
-0 -1 -1 1 1:-24.796024 2:-13.255011 3:2.2032574 4:0.31784223 5:-0.26350414 
-1 -0 -0 1 1:-6.3225152 2:4.6160802 3:-4.2722724 4:-5.0290723 5:0.76069752 
-0 -1 -1 0 1:-0.37589785 2:15.109239 3:4.6978783 4:-1.2764192 5:-1.4523288 
-1 -1 -1 1 1:25.657441 2:-11.678119 3:0.85186704 4:-1.5223423 5:-1.6551997 
-1 -1 -1 1 1:25.663642 2:-11.689668 3:0.96045752 4:-1.506792 5:-1.50715 
-1 -0 -0 1 1:6.4671663 2:1.0063589 3:0.28174015 4:2.4114005 5:4.8362783 
-1 -0 -0 1 1:6.4448089 2:0.9678866 3:0.48661872 4:1.946257 5:4.2073213 
-1 -0 -0 1 1:6.4112881 2:1.0322196 3:-0.15899136 4:2.3371844 5:2.8624062 
-0 -1 -1 1 1:-24.778396 2:-13.250703 3:2.2358548 4:0.60143498 5:0.10402137 
-0 -1 -1 1 1:-24.808126 2:-13.264744 3:2.2326355 4:0.17030851 5:-0.63979175 
-0 -1 -1 0 1:-0.35662227 2:15.069137 3:5.0464293 4:-0.96046764 5:-1.4977771 
-0 -1 -1 0 1:-0.40865081 2:15.243672 3:3.6050073 4:-1.4674407 5:-1.2416412 
-1 -0 -0 1 1:-6.3495501 2:4.6583524 3:-4.6713207 4:-5.3507071 5:0.51333443 
-0 -1 -1 0 1:-0.44891953 2:3.2772557 3:4.0239786 4:-2.5592727 5:2.2645004 
-0 -1 -1 0 1:-0.52111507 2:4.259536 3:-3.9116523 4:5.0139343 5:-2.3881401 
-1 -1 -1 1 1:25.664944 2:-11.642487 3:0.61326861 4:-1.2560213 5:-1.3840903 
-1 -1 -1 1 1:25.675302 2:-11.67352 3:0.89357187 4:-1.4010902 5:-1.0402681 
-1 -0 -0 1 1:-0.52907459 2:4.2718739 3:-4.0406275 4:5.0673373 5:-2.6775434 
-1 -0 -0 1 1:-6.3266258 2:4.7326627 3:-5.1816133 4:-4.2392136 5:0.56136927 
-1 -0 -0 1 1:-6.3392541 2:4.6770761 3:-4.7789181 4:-5.0839899 5:0.73016544 
-1 -0 -0 1 1:-0.53251839 2:4.2589294 3:-3.9496167 4:4.8762906 5:-2.6650312 
-1 -0 -0 1 1:-6.3491192 2:4.6694131 3:-4.7413535 4:-5.4105829 5:0.72690599 
-1 -0 -0 1 1:-0.52869119 2:4.2724976 3:-4.0441834 4:5.0783763 5:-2.6715744 
-0 -1 -1 0 1:-0.49425599 2:4.2237294 3:-3.5412674 4:5.148104 5:-1.806446 
-1 -0 -0 1 1:-0.52804764 2:4.2433154 3:-3.8166132 4:4.8614701 5:-2.6102369 
-0 -1 -1 0 1:-0.36523495 2:15.099579 3:4.7992503 4:-1.0626944 5:-1.4126369 
-1 -0 -0 1 1:-6.3213384 2:4.6102824 3:-4.2328925 4:-4.9249477 5:0.6072153 
-1 -1 -1 1 1:25.656935 2:-11.678043 3:0.8519699 4:-1.551496 5:-1.6333473 
-0 -1 -1 0 1:-0.34520145 2:15.047226 3:5.2479646 4:-0.87521253 5:-1.3584082 
-1 -0 -0 1 1:-6.328628 2:4.6723867 3:-4.6985623 4:-5.0722977 5:1.1070027 
-1 -1 -1 1 1:25.657038 2:-11.679885 3:0.86602328 4:-1.56342 5:-1.627287 
-1 -0 -0 1 1:-6.3451889 2:4.6574621 3:-4.66698 4:-5.0731984 5:0.28236004 
-0 -1 -1 1 1:-24.794541 2:-13.164281 3:1.5275755 4:0.89773342 5:-0.17916427 
-1 -0 -0 1 1:6.4361402 2:0.96187874 3:0.49689639 4:1.8518425 5:3.9270545 
-0 -1 -1 0 1:-0.38192684 2:15.12092 3:4.5885809 4:-1.2992232 5:-1.5570037 
-0 -1 -1 0 1:-0.35889111 2:15.101995 3:4.8055853 4:-0.99281567 5:-1.2272068 
-0 -1 -1 0 1:-0.35662227 2:15.069137 3:5.0464293 4:-0.96046764 5:-1.4977771 
-1 -0 -0 1 1:-6.3366602 2:4.6368916 3:-4.4613317 4:-5.320188 5:0.79757828 
-1 -0 -0 1 1:-6.3354043 2:4.6518374 3:-4.5731061 4:-5.1747573 5:0.78174068 
-0 -1 -1 0 1:-0.31572738 2:15.046759 3:5.3788798 4:-0.7592137 5:-0.30086914 
-1 -1 -1 1 1:-0.52735101 2:4.2744862 3:-4.0537982 4:5.1004571 5:-2.628773 
-1 -0 -0 1 1:-6.1408722 2:5.2597714 3:-8.977112 4:7.028786 5:-3.1229987 
-0 -1 -1 1 1:-24.799153 2:-13.257861 3:2.2143235 4:0.28485874 5:-0.37254128 
-0 -1 -1 1 1:-24.793488 2:-13.252341 3:2.1991578 4:0.31784985 5:-0.12756382 
-1 -0 -0 1 1:-6.3165549 2:4.6138801 3:-4.231968 4:-4.9753251 5:0.91163889 
-0 -1 -1 1 1:-24.800505 2:-13.260458 3:2.2274072 4:0.27225493 5:-0.43362629 
-0 -1 -1 0 1:-0.51167434 2:4.230743 3:-3.6462853 4:4.8142629 5:-1.9753686 
-1 -0 -0 1 1:-0.42917664 2:15.10628 3:4.422251 4:-1.4274961 5:-3.4130929 
-0 -1 -1 0 1:-0.34594216 2:15.032982 3:5.3472495 4:-1.0373807 5:-1.2983356 
-0 -1 -1 1 1:-24.787854 2:-13.252238 3:2.2089733 4:0.51317574 5:-0.17396001 
-0.96699191830896 -1 -1 1 1:25.657541 2:-11.681531 3:0.87704666 4:-1.5220507 5:-1.6821205 
-0 -1 -1 0 1:-0.34790039 2:15.04355 3:5.2641436 4:-0.88279634 5:-1.4898936 
-0 -1 -1 0.9446989079297028 1:-24.806743 2:-13.253212 3:2.1476716 4:0.2647965 5:-0.61248198 
-0 -1 -1 0 1:-24.816517 2:-13.246241 3:2.0741321 4:0.010598796 5:-0.59253739 
-1 -0 -0 1 1:-6.3510731 2:4.663956 3:-4.715179 4:-5.3558831 5:0.52529618 
-0 -1 -1 0 1:-0.36163907 2:15.113293 3:4.7017881 4:-0.86080546 5:-1.426884 
-1 -0 -0 1 1:6.4866623 2:0.99913538 3:0.41969585 4:2.4672334 5:5.4967721 
-1 -0 -0 1 1:6.4390435 2:1.0245438 3:0.015961153 4:2.4612198 5:3.7603091 
-0.003438337819374391 -1 -1 0.4443736073881135 1:25.65117 2:-11.643112 3:0.57872677 4:-1.4306204 5:-1.6777478 
-1 -0 -0 1 1:6.4795047 2:0.99752006 3:0.40191781 4:2.4214681 5:5.2521571 
-0 -1 -1 1 1:-24.808814 2:-13.205079 3:1.790679 4:0.3260783 5:-0.32974871 
-1 -0 -0 1 1:-6.3466049 2:4.6653203 3:-4.7106455 4:-5.3049997 5:0.63855377 
-0 -1 -1 0 1:-24.977026 2:-12.548204 3:-3.5361224 4:-0.89029021 5:0.73361664 
-0 -1 -1 0 1:-0.48826391 2:4.213188 3:-3.4212149 4:4.9313763 5:-1.3342041 
-1 -1 -1 0 1:-0.52565751 2:4.2718502 3:-4.0276256 4:5.094034 5:-2.5769908 
-1 -0 -1 1 1:-0.52852657 2:4.2760106 3:-4.0698194 4:5.0950837 5:-2.6554913 
-1 -0 -1 -1 1:-24.800267 2:-13.370426 3:3.0324662 4:-0.050678467 5:-1.0262301 
-1 -0 -1 -1 1:-24.790814 2:-13.231895 3:2.0508424 4:0.49168098 5:-0.074611427 
-0 -1 -0 -0 1:6.4233504 2:0.96062463 3:0.45180042 4:1.7183417 5:3.56287 
-0 -1 -0 -0 1:-6.2822377 2:4.4832853 3:-3.1880773 4:-4.4356464 5:0.28937952 
-1 -0 -1 -1 1:-24.801395 2:-13.262195 3:2.2405754 4:0.24839128 5:-0.44931808 
-1 -0 -1 -1 1:-0.30046398 2:15.079169 3:5.1870145 4:-0.34250223 5:0.033540173 
-0 -1 -0 -0 1:-0.53003146 2:4.2771021 3:-4.0828005 4:5.0767972 5:-2.6802621 
-1 -0 -1 -1 1:-24.804234 2:-13.272717 3:2.3217783 4:-0.025897187 5:-0.26743853 
-0 -1 -0 -0 1:-0.53494135 2:4.2798761 3:-4.1182051 4:4.9907307 5:-2.7309273 
-1 -1 -1 -0 1:-0.53285454 2:4.2677757 3:-4.0111137 4:4.8487452 5:-2.5542437 
-1 -0 -1 -1 1:-0.41915008 2:15.360528 3:2.6647065 4:-0.69489827 5:-1.6842768 
-1 -0 -1 -1 1:-24.797638 2:-13.256985 3:2.2128575 4:0.3218997 5:-0.35020878 
-1 -1 -1 -1 1:25.648286 2:-11.686603 3:0.87627822 4:-1.6218928 5:-1.9766661 
-1 -0 -1 -1 1:-0.52249251 2:4.2411542 3:-3.7551977 4:4.6281875 5:-2.0526378 
-1 -0 -1 -1 1:-0.41915008 2:15.360528 3:2.6647065 4:-0.69489827 5:-1.6842768 
-0 -1 -0 -0 1:-6.3571132 2:4.677247 3:-4.8437633 4:-5.3653842 5:0.39265406 
-0 -1 -0 -0 1:-6.3538392 2:4.6898806 3:-4.9366069 4:-5.1142372 5:0.29041017 
-1 -0 -1 -1 1:-24.802329 2:-13.272919 3:2.3119842 4:0.24146458 5:-0.57310464 
-1 -0 -1 -1 1:-0.54443661 2:4.1562488 3:-3.1251029 4:3.0313501 5:-1.4463184 
-0 -1 -0 -0 1:-0.53270955 2:4.27133 3:-4.0508492 4:5.0251789 5:-2.7744114 
-0 -1 -0 -0 1:-6.3427598 2:4.6698615 3:-4.7277569 4:-5.3139309 5:0.8421477 
-0 -1 -0 -0 1:6.4605963 2:0.97265629 3:0.51147449 4:2.1308972 5:4.6411241 
-1 -0 -1 -1 1:-24.799275 2:-13.25501 3:2.1846702 4:0.38840276 5:-0.50193048 
-1 -0 -1 -1 1:-24.824856 2:-13.066286 3:0.78688774 4:-0.058795037 5:0.60857045 
-1 -1 -1 -1 1:25.656223 2:-11.67848 3:0.85382256 4:-1.5647622 5:-1.6439977 
-1 -0 -1 -1 1:-0.52264333 2:4.2692706 3:-3.99348 4:5.0741578 5:-2.4447747 
-1 -1 -1 -1 1:25.648095 2:-11.666412 3:0.72014931 4:-1.4181778 5:-2.0725374 
-0 -1 -0 -0 1:-6.3377938 2:4.6729609 3:-4.7301459 4:-5.2370479 5:0.97950054 
-1 -0 -1 -1 1:-0.5325036 2:4.2739512 3:-4.0501988 4:4.80739 5:-2.4194705 
-1 -0 -1 -1 1:-0.37589785 2:15.109239 3:4.6978783 4:-1.2764192 5:-1.4523288 
-1 -0 -1 -1 1:-24.796641 2:-13.255657 3:2.2014149 4:0.39029697 5:-0.40132423 
-0 -1 -0 -0 1:6.3900971 2:1.0249346 3:-0.20911834 4:2.3534039 5:1.8723778 
-0 -1 -0 -0 1:-6.3438826 2:4.6407276 3:-4.5457148 4:-5.0552816 5:0.14963203 
-1 -0 -1 -1 1:-0.30625448 2:15.104186 3:4.9715996 4:-0.2160606 5:-0.15322993 
-1 -0 -1 -1 1:-24.801799 2:-13.224487 3:1.9557032 4:0.39971019 5:-0.3319242 
-1 -0 -1 -1 1:-0.52537074 2:4.2656794 3:-3.9755113 4:5.0134758 5:-2.5049214 
-0 -1 -0 -0 1:-6.3397447 2:4.7034807 3:-5.0076034 4:-4.6435025 5:0.3156802 
-1 -0 -1 -1 1:-0.12952959 2:10.376159 3:5.6131541 4:-0.28473924 5:0.6669422 
-0 -1 -0 -0 1:-6.3417048 2:4.6642705 3:-4.6873586 4:-5.2240555 5:0.71519496 
-1 -0 -1 -1 1:-24.784006 2:-13.23445 3:2.1201769 4:0.26427286 5:0.51453063 
-1 -1 -1 -1 1:25.664762 2:-11.684082 3:0.92615601 4:-1.4578058 5:-1.4899558 
-1 -0 -1 -1 1:-24.808938 2:-13.283707 3:2.3623708 4:0.11271564 5:-0.77018564 
-1 -1 -1 -1 1:25.657875 2:-11.657238 3:0.69312846 4:-1.3665547 5:-1.6629481 
-0 -1 -0 -0 1:-6.3490388 2:4.6588376 3:-4.668676 4:-5.4036557 5:0.61481701 
-1 -1 -1 -1 1:25.65403 2:-11.674157 3:0.80839497 4:-1.534954 5:-1.7427221 
-0 -1 -0 -0 1:-0.53136419 2:4.2796218 3:-4.1038498 4:5.0398171 5:-2.6575433 
-1 -0 -1 -1 1:-0.36523495 2:15.099579 3:4.7992503 4:-1.0626944 5:-1.4126369 
-1 -1 -1 -1 1:25.666812 2:-11.66444 3:0.79307128 4:-1.4815774 5:-1.1916533 
-1 -1 -1 -1 1:25.648221 2:-11.614501 3:0.33907775 4:-1.2994202 5:-1.7525556 
-1 -0 -1 -1 1:-24.805988 2:-13.253676 3:2.1569209 4:0.23083749 5:-0.53769047 
-1 -0 -1 -1 1:-24.799905 2:-13.271951 3:2.318401 4:0.20946319 5:-0.42572045 
-1 -0 -1 -1 1:-24.815636 2:-13.26194 3:2.1733847 4:0.15827383 5:-0.925536 
-1 -1 -1 -1 1:25.639447 2:-11.678265 3:0.78936893 4:-1.7720811 5:-2.042867 
-1 -0 -1 -1 1:-0.47476502 2:3.8077916 3:-0.27690797 4:2.4261435 5:-1.0155933 
-1 -0 -1 -1 1:-24.799036 2:-13.257716 3:2.2104001 4:0.32831595 5:-0.42378166 
-1 -0 -1 -1 1:-24.799561 2:-13.23003 3:2.0092845 4:0.39737302 5:-0.27301381 
-0 -1 -0 -0 1:-6.3369126 2:4.6699484 3:-4.7102789 4:-5.1831425 5:0.90247641 
-0 -1 -0 -0 1:6.4686726 2:0.97983905 3:0.49128582 4:2.2330826 5:4.9022427 
-1 -0 -1 -1 1:-24.803129 2:-13.249249 3:2.1380172 4:0.24089038 5:-0.38939879 
-1 -0 -1 -1 1:-24.82338 2:-13.260834 3:2.1365812 4:0.12836653 5:-1.1855024 
-1 -0 -1 -1 1:-24.794879 2:-13.281492 3:2.419159 4:0.08590771 5:-0.12704365 
-1 -0 -1 -1 1:-0.30618402 2:15.212734 3:4.1260636 4:0.72044956 5:-0.47077778 
-1 -0 -1 -1 1:-24.801139 2:-13.283866 3:2.3981872 4:0.16790766 5:-0.53362777 
-0 -1 -0 -0 1:-6.3521726 2:4.6665544 3:-4.7416034 4:-5.3740109 5:0.50803142 
-1 -0 -1 -1 1:-0.48826391 2:4.213188 3:-3.4212149 4:4.9313763 5:-1.3342041 
-1 -0 -1 -1 1:-0.52537074 2:4.2656794 3:-3.9755113 4:5.0134758 5:-2.5049214 
-0 -1 -0 -0 1:-0.52804764 2:4.2433154 3:-3.8166132 4:4.8614701 5:-2.6102369 
-1 -0 -1 -1 1:-24.80331 2:-13.25753 3:2.1920853 4:0.29025336 5:-0.54954905 
-1 -0 -1 -1 1:-0.34790039 2:15.04355 3:5.2641436 4:-0.88279634 5:-1.4898936 
-1 -0 -1 -1 1:-24.799091 2:-13.258171 3:2.2154611 4:0.29777428 5:-0.39045271 
-1 -0 -1 -1 1:-0.34594216 2:15.032982 3:5.3472495 4:-1.0373807 5:-1.2983356 
-0.7563375465151759 -1 -1 -1 1:-24.797094 2:-13.252659 3:2.1582917 4:0.65549845 5:-0.78093856 
-1 -0 -1 -1 1:-24.788847 2:-13.222363 3:1.9809851 4:0.63791269 5:-0.12076391 
-1 -0 -1 -1 1:-0.50180099 2:4.2160118 3:-3.4900008 4:4.7424831 5:-1.6030431 
-0 -1 -0 -0 1:-6.3506461 2:4.6695801 3:-4.7548453 4:-5.388977 5:0.62929629 
-0 -1 -0 -0 1:6.4806613 2:0.99344044 3:0.43836322 4:2.3905339 5:5.3019218 
-0 -1 -0 -0 1:-0.53320434 2:4.2690991 3:-4.0245423 4:4.8746183 5:-2.5939145 
-0 -1 -0 -0 1:-6.348908 2:4.6704209 3:-4.7090842 4:-5.914025 5:1.4829028 
-1 -0 -1 -1 1:-0.36523495 2:15.099579 3:4.7992503 4:-1.0626944 5:-1.4126369 
-1 -1 -1 -1 1:25.643249 2:-11.572003 3:0.11775295 4:-1.4205783 5:-1.0858613 
-0 -0 -1 -1 1:-24.748497 2:-13.221835 3:2.1458785 4:0.90149254 5:1.1890923 
-1 -1 -1 -1 1:25.648023 2:-11.675205 3:0.79246921 4:-1.5467357 5:-1.9741166 
-1 -1 -1 -1 1:25.664275 2:-11.678832 3:0.89102816 4:-1.5382339 5:-1.3504903 
-1 -1 -1 -1 1:-24.828835 2:-13.245899 3:1.9921255 4:0.28603683 5:-1.493834 
-1 -1 -1 -1 1:25.661333 2:-11.656773 3:0.70503485 4:-1.2249067 5:-1.6922145 
-1 -0 -1 -1 1:-0.34889917 2:15.053142 3:5.193353 4:-0.91537693 5:-1.3954597 
-1 -0 -1 -1 1:-0.50180099 2:4.2160118 3:-3.4900008 4:4.7424831 5:-1.6030431 
-1 -0 -1 -1 1:-0.51167434 2:4.230743 3:-3.6462853 4:4.8142629 5:-1.9753686 
-1 -1 -1 -1 1:-0.52560774 2:4.272749 3:-4.0350642 4:5.117772 5:-2.5995817 
-0 -1 -0 -0 1:-6.3232194 2:4.6247472 3:-4.3223511 4:-5.1660253 5:1.0268211 
-1 -0 -1 -1 1:-24.841773 2:-13.126069 3:1.1181327 4:-0.18509347 5:-0.18962707 
-1 -0 -1 -1 1:-0.30618402 2:15.212734 3:4.1260636 4:0.72044956 5:-0.47077778 
-1 -0 -1 -1 1:-0.52548615 2:4.2871403 3:-4.1370677 4:5.1248359 5:-2.4574182 
-0 -1 -0 -0 1:6.4511908 2:0.9794208 3:0.4331314 4:1.9704315 5:4.5492471 
-1 -0 -1 -1 1:-24.811531 2:-13.255207 3:2.1461623 4:0.18059091 5:-0.70981584 
-1 -1 -1 -1 1:25.657038 2:-11.679885 3:0.86602328 4:-1.56342 5:-1.627287 
-0 -1 -0 -0 1:-6.2402163 2:4.5782412 3:-3.6339781 4:-4.7958121 5:3.4920719 
-1 -0 -1 -1 1:-24.797132 2:-13.263874 3:2.2778013 4:0.28951263 5:-0.3152611 
-1 -1 -1 -1 1:25.657364 2:-11.671341 3:0.80275387 4:-1.5113552 5:-1.6071129 
-1 -0 -1 -1 1:-0.41915008 2:15.360528 3:2.6647065 4:-0.69489827 5:-1.6842768 
-0 -1 -0 -0 1:6.484418 2:1.0000581 3:0.4031489 4:2.4645784 5:5.4178529 
-1 -1 -1 -1 1:25.668886 2:-11.65904 3:0.75723371 4:-1.3516437 5:-1.239901 
-1 -0 -1 -1 1:-0.49104147 2:4.252717 3:-3.7184748 4:4.9782522 5:-1.1439774 
-1 -1 -1 -1 1:-0.52715635 2:4.2658045 3:-3.9822201 4:4.9845867 5:-2.5350875 
-1 -1 -1 -1 1:25.651856 2:-11.655688 3:0.65526688 4:-1.3622676 5:-1.9033468 
-0 -1 -0 -0 1:-6.3511698 2:4.6917647 3:-4.9099573 4:-5.461552 5:0.92307251 
-1 -0 -1 -1 1:-0.52515998 2:4.2787665 3:-4.0771037 4:5.1298566 5:-2.5433859 
-1 -0 -1 -1 1:-24.783907 2:-13.243194 3:2.1652615 4:0.49118842 5:0.10647695 
-0 -1 -0 -0 1:-0.52910896 2:4.2552115 3:-3.9103983 4:4.917367 5:-2.6205061 
-0 -1 -1 -1 1:-24.769394 2:-13.210544 3:1.9676695 4:0.89022781 5:0.43850731 
-1 -1 -1 -1 1:-0.52560774 2:4.272749 3:-4.0350642 4:5.117772 5:-2.5995817 
-0 -1 -0 -0 1:-6.2408646 2:4.377277 3:-2.2482213 4:-4.3867646 5:0.91835832 
-1 -0 -1 -1 1:-0.34930548 2:15.043365 3:5.2627922 4:-0.90645425 5:-1.5111116 
-0 -1 -1 -0 1:-0.52869119 2:4.2724976 3:-4.0441834 4:5.0783763 5:-2.6715744 
-1 -1 -1 -1 1:25.642683 2:-11.681645 3:0.8207887 4:-1.6736147 5:-2.0802919 
-0 -1 -0 -0 1:6.4620934 2:0.98593738 3:0.41990057 4:2.1986433 5:4.7362321 
-0 -1 -0 -0 1:-6.3450234 2:4.664719 3:-4.6805695 4:-5.5235857 5:1.0212066 
-1 -1 -1 -1 1:25.653141 2:-11.690223 3:0.93202095 4:-1.6678182 5:-1.7289553 
-0 -1 -0.5154679783736341 -0 1:-0.52869119 2:4.2724976 3:-4.0441834 4:5.0783763 5:-2.6715744 
-0 -1 -0 -0 1:-6.3334669 2:4.6574611 3:-4.5856898 4:-5.4074254 5:1.2716671 
-0 -1 -0 -0 1:-6.3669928 2:4.6872797 3:-4.9412954 4:-5.5592015 5:0.35431071 
-0 -1 -0 -0 1:6.4726315 2:0.98436931 3:0.4744383 4:2.274739 5:5.0501696 
-0 -1 -0 -0 1:-0.54104329 2:4.2558098 3:-3.9458224 4:4.6108739 5:-2.6648776 
-1 -1 -1 -1 1:-0.52299746 2:4.2557392 3:-3.8962527 4:5.0755222 5:-2.5850504 
-1 -0 -1 -1 1:-24.7949 2:-13.251487 3:2.1842938 4:0.34638715 5:-0.22117327 
-1 -0 -1 -1 1:-24.805911 2:-13.248559 3:2.1229008 4:0.22422829 5:-0.49690774 
-0 -1 -0 -0 1:-6.3248565 2:4.6046101 3:-4.1759453 4:-5.3349194 5:1.0043747 
-0 -1 -0 -0 1:-6.3454065 2:4.6740704 3:-4.7691958 4:-5.295864 5:0.75451609 
-0 -1 -0 -0 1:6.4181091 2:0.95414162 3:0.48381693 4:1.6615826 5:3.380076 
-0 -1 -0 -0 1:-6.306133 2:4.6585265 3:-4.5056556 4:-4.9142865 5:1.6874566 
-0 -1 -0 -0 1:-6.3462428 2:4.6638948 3:-4.6959022 4:-5.3496134 5:0.70375388 
-1 -0 -1 -1 1:-24.813912 2:-13.250501 3:2.0981713 4:0.22839717 5:-0.83397826 
-1 -0 -1 -1 1:-0.12952959 2:10.376159 3:5.6131541 4:-0.28473924 5:0.6669422 
-1 -0 -1 -1 1:-24.796892 2:-13.250516 3:2.169862 4:0.31881575 5:-0.25503351 
-1 -1 -1 -1 1:25.650288 2:-11.681752 3:0.85333795 4:-1.6297907 5:-1.8310597 
-0 -1 -0 -0 1:-0.58162981 2:4.1600862 3:-3.2564865 4:2.1552221 5:-1.6837897 
-0 -0 -1 -1 1:-24.771306 2:-13.293604 3:2.5687344 4:0.64202142 5:-0.082357053 
-0 -1 -0 -0 1:-6.336499 2:4.6677611 3:-4.6923231 4:-5.1830918 5:0.89876972 
-1 -1 -1 -1 1:25.657902 2:-11.682615 3:0.89641474 4:-1.6570503 5:-1.4767264 
-0 -1 -0 -0 1:6.4777755 2:0.98887708 3:0.46078195 4:2.3569142 5:5.1908749 
-1 -0 -1 -1 1:-0.34594216 2:15.032982 3:5.3472495 4:-1.0373807 5:-1.2983356 
-1 -0 -1 -1 1:-24.808463 2:-13.301966 3:2.4994916 4:0.032063965 5:-0.81277199 
-0 -1 -0 -0 1:-6.3422845 2:4.6634358 3:-4.7028205 4:-5.0179144 5:0.37210015 
-0 -1 -0 -0 1:6.3630153 2:1.0149825 3:-0.18214806 4:1.3622493 5:2.1123758 
-1 -0 -1 -1 1:-0.34790039 2:15.04355 3:5.2641436 4:-0.88279634 5:-1.4898936 
-1 -0 -1 -1 1:-24.813057 2:-13.264763 3:2.2255769 4:-0.053870348 5:-0.52241523 
-1 -0 -1 -1 1:-0.36163907 2:15.113293 3:4.7017881 4:-0.86080546 5:-1.426884 
-0 -1 -0 -0 1:-6.3413349 2:4.6720497 3:-4.746086 4:-5.1702162 5:0.72245282 
-0 -1 -0 -0 1:-6.3608224 2:4.6632804 3:-4.7436259 4:-5.560306 5:0.39775053 
-0 -1 -0 -0 1:6.4726315 2:0.98436931 3:0.4744383 4:2.274739 5:5.0501696 
-0 -1 -0 -0 1:-0.52910896 2:4.2552115 3:-3.9103983 4:4.917367 5:-2.6205061 
-1 -0 -1 -1 1:-24.797078 2:-13.248136 3:2.1496732 4:0.35939108 5:-0.29424003 
-0 -1 -0 -0 1:-6.3488473 2:4.6615986 3:-4.6933739 4:-5.3393694 5:0.55907842 
-0 -1 -0 -0 1:-6.3339808 2:4.685544 3:-4.8186068 4:-5.0247632 5:0.94427187 
-0 -1 -0 -0 1:-6.3421998 2:4.6928448 3:-4.8985849 4:-5.1677868 5:0.88565676 
-1 -0 -1 -1 1:-24.797384 2:-13.261845 3:2.2500868 4:0.29291147 5:-0.34756933 
-1 -0 -1 -1 1:-24.793354 2:-13.261425 3:2.2578223 4:0.36826464 5:-0.29172816 
-1 -0 -1 -1 1:-0.36163907 2:15.113293 3:4.7017881 4:-0.86080546 5:-1.426884 
-0 -1 -0 -0 1:-6.3414604 2:4.6686463 3:-4.7191065 4:-5.2248358 5:0.76013423 
-1 -0 -1 -1 1:-24.804218 2:-13.253729 3:2.1687516 4:0.20517335 5:-0.42069054 
-1 -1 -1 -1 1:25.673042 2:-11.647618 3:0.71083973 4:-1.5220928 5:-0.69531819 
-0 -1 -0 -0 1:-6.3365448 2:4.666852 3:-4.6990625 4:-5.0180542 5:0.65056466 
-0 -1 -0 -0 1:6.4641746 2:0.99148248 3:0.38345247 4:2.2836438 5:4.7529014 
-0 -1 -0 -0 1:6.4671663 2:1.0063589 3:0.28174015 4:2.4114005 5:4.8362783 
-1 -0 -1 -1 1:-0.30046398 2:15.079169 3:5.1870145 4:-0.34250223 5:0.033540173 
-1 -0.03519275579094863 -1 -1 1:-24.792132 2:-13.29006 3:2.4563024 4:0.53185484 5:-0.74381698 
-1 -1 -1 -1 1:25.6534 2:-11.683464 3:0.8782758 4:-1.6160156 5:-1.737943 
-1 -0 -1 -1 1:-0.30625448 2:15.104186 3:4.9715996 4:-0.2160606 5:-0.15322993 
-1 -1 -1 -1 1:25.651856 2:-11.655688 3:0.65526688 4:-1.3622676 5:-1.9033468 
-1 -1 -1 -1 1:25.664959 2:-11.679096 3:0.88924077 4:-1.4671653 5:-1.4317457 
-1 -0 -1 -1 1:-24.784618 2:-13.239895 3:2.1349352 4:0.53678459 5:0.041780337 
-0 -1 -0 -0 1:-6.3454065 2:4.6740704 3:-4.7691958 4:-5.295864 5:0.75451609 
-0 -1 -0 -0 1:-6.3425137 2:4.6877504 3:-4.8408294 4:-5.2384689 5:0.9775493 
-0 -1 -0 -0 1:6.4015036 2:0.9356646 3:0.56391557 4:1.415344 5:2.8903082 
-0 -1 -0 -0 1:6.4429149 2:1.0617298 3:-0.23998406 4:2.585902 5:4.0941937 
-1 -0 -1 -1 1:-24.803053 2:-13.255812 3:2.1812602 4:0.27402644 5:-0.50233447 
-0 -1 -0 -0 1:-6.259958 2:4.3990445 3:-2.4916461 4:-4.3966148 5:0.35120784 
-0 -1 -0 -0 1:-6.349488 2:4.6586227 3:-4.6787377 4:-5.2954205 5:0.43341371 
-0 -1 -0 -0 1:-6.3454865 2:4.6797977 3:-4.800624 4:-5.3847737 5:0.94465517 
-0 -1 -0 -0 1:6.4605963 2:0.97265629 3:0.51147449 4:2.1308972 5:4.6411241 
-0 -1 -0 -0 1:6.3433869 2:0.88027615 3:0.74070938 4:0.62799614 5:1.0584804 
-0 -1 -0 -0 1:6.4722251 2:0.98199628 3:0.48814407 4:2.2884607 5:4.9893969 
-1 -0 -1 -1 1:-24.802476 2:-13.230135 3:2.012821 4:0.12657513 5:-0.040263896 
-0 -1 -0 -0 1:6.4269577 2:1.0196038 3:0.0016441836 4:2.3691985 5:3.3403999 
-1 -0 -1 -1 1:-0.41915008 2:15.360528 3:2.6647065 4:-0.69489827 5:-1.6842768 
-1 -0 -1 -1 1:-24.785304 2:-13.29763 3:2.5767567 4:0.033203012 5:0.17869389 
-0 -1 -0 -0 1:6.4457607 2:1.0654939 3:-0.27498256 4:2.8425141 5:3.8788703 
-1 -1 -1 -1 1:25.654246 2:-11.684402 3:0.88737706 4:-1.590043 5:-1.7479739 
-0 -1 -0 -0 1:-0.53220101 2:4.2629209 3:-3.9897953 4:5.0285588 5:-2.8410284 
-1 -1 -1 -1 1:25.651459 2:-11.682314 3:0.86411255 4:-1.6448142 5:-1.7622667 
-0 -1 -0 -0 1:-0.54104329 2:4.2558098 3:-3.9458224 4:4.6108739 5:-2.6648776 
-1 -0 -1 -1 1:-0.38192684 2:15.12092 3:4.5885809 4:-1.2992232 5:-1.5570037 
-0 -1 -0 -0 1:6.4361402 2:0.96187874 3:0.49689639 4:1.8518425 5:3.9270545 
-0 -1 -0 -0 1:-6.3198863 2:4.8431413 3:-6.1019658 4:-2.3426286 5:-0.912056 
-1 -0 -1 -1 1:-24.82338 2:-13.260834 3:2.1365812 4:0.12836653 5:-1.1855024 
-0 -1 -0 -0 1:-6.3487899 2:4.670624 3:-4.7610499 4:-5.3038576 5:0.59089325 
-1 -0 -1 -1 1:-0.34594216 2:15.032982 3:5.3472495 4:-1.0373807 5:-1.2983356 
-0 -1 -0 -0 1:-6.3240521 2:4.5738037 3:-3.9594027 4:-5.2947626 5:0.66834432 
-0 -1 -0 -0 1:6.4725424 2:1.0059261 3:0.30660492 4:2.4579632 5:4.9865956 
-1 -1 -1 -1 1:25.659123 2:-11.68717 3:0.93571235 4:-1.6438078 5:-1.4894101 
-0 -1 -0 -0 1:6.4866254 2:0.99876499 3:0.42333133 4:2.4469587 5:5.5200204 
-1 -1 -1 -1 1:-0.52792134 2:4.2740955 3:-4.0517125 4:5.0756944 5:-2.6201967 
-1 -0 -1 -1 1:-0.35173122 2:15.009226 3:5.5081753 4:-1.1380332 5:-1.6077263 
-1 -0 -1 -1 1:-24.797316 2:-13.264301 3:2.2742155 4:0.21807233 5:-0.25708225 
-1 -0 -1 -1 1:-0.31572738 2:15.046759 3:5.3788798 4:-0.7592137 5:-0.30086914 
-1 -1 -1 -1 1:-0.52911149 2:4.2777829 3:-4.0849309 4:5.0869776 5:-2.64961 
-0 -1 -0 -0 1:-6.3452118 2:4.648145 3:-4.5834276 4:-5.4140898 5:0.65678677 
-0 -1 -0 -0 1:-6.3133718 2:4.5815308 3:-3.9818906 4:-5.0830329 5:0.87923637 
-1 -0 -1 -1 1:-24.802678 2:-13.254329 3:2.176726 4:0.2332101 5:-0.40730574 
-0 -1 -0 -0 1:-6.3600956 2:4.6615003 3:-4.7337304 4:-5.4913919 5:0.30393833 
-1 -0 -1 -1 1:-24.908742 2:-13.131742 3:1.0194763 4:-2.2188722 5:-0.045553527 
-1 -1 -1 -1 1:25.656164 2:-11.694118 3:0.97259613 4:-1.6638974 5:-1.6527004 
-1 -0 -1 -1 1:-0.52430952 2:4.2694674 3:-4.002253 4:5.0864866 5:-2.528967 
-1 -1 -1 -1 1:25.643877 2:-11.614509 3:0.30582108 4:-1.1333414 5:-2.1746809 
-1 -1 -1 -1 1:25.717238 2:-11.621468 3:0.65834875 4:-0.6585509 5:0.12138992 
-1 -0 -1 -1 1:-0.36523495 2:15.099579 3:4.7992503 4:-1.0626944 5:-1.4126369 
-1 -1 -1 -1 1:-24.819627 2:-13.202896 3:1.7074805 4:0.55364812 5:-1.1170396 
-0 -1 -0 -0 1:-6.3473048 2:4.6968117 3:-4.9746717 4:-4.8407352 5:0.22992182 
-0 -1 -0 -0 1:-6.3276593 2:4.6563302 3:-4.5578071 4:-5.2980984 5:1.3341635 
-1 -0 -1 -1 1:-0.41915008 2:15.360528 3:2.6647065 4:-0.69489827 5:-1.6842768 
-1 -0 -1 -1 1:-0.41915008 2:15.360528 3:2.6647065 4:-0.69489827 5:-1.6842768 
-1 -1 -1 -1 1:25.643877 2:-11.614509 3:0.30582108 4:-1.1333414 5:-2.1746809 
-0 -1 -0 -0 1:6.4849617 2:0.99822415 3:0.42105445 4:2.4325968 5:5.4710666 
-0 -1 -0 -0 1:6.472628 2:0.99641846 3:0.3860454 4:2.305959 5:5.1194207 
-1 -1 -1 -1 1:-0.52792134 2:4.2740955 3:-4.0517125 4:5.0756944 5:-2.6201967 
-1 -0 -1 -1 1:-0.34889917 2:15.053142 3:5.193353 4:-0.91537693 5:-1.3954597 
-1 -1 -1 -1 1:-0.52782437 2:4.2601038 3:-3.937888 4:4.9038192 5:-2.4997563 
-1 -1 -1 -1 1:25.656998 2:-11.67852 3:0.85673351 4:-1.5629945 5:-1.6147238 
-1 -0 -1 -1 1:-24.80435 2:-13.298848 3:2.5014232 4:0.020051244 5:-0.60375557 
-1 -1 -1 -1 1:25.651459 2:-11.682314 3:0.86411255 4:-1.6448142 5:-1.7622667 
-1 -0 -1 -1 1:-0.46434181 2:4.224862 3:-3.3969969 4:4.985582 5:-0.30710563 
-0 -1 -0 -0 1:-6.3468763 2:4.6548399 3:-4.6292655 4:-5.4141708 5:0.67915275 
-1 -1 -1 -1 1:25.581298 2:-11.791511 3:1.4895254 4:-3.008766 5:-3.5548594 
-1 -1 -1 -1 1:25.660629 2:-11.683664 3:0.90905335 4:-1.5474131 5:-1.5360191 
-1 -0 -1 -1 1:-24.790014 2:-13.252965 3:2.2063021 4:0.47197647 5:-0.22433863 
-1 -1 -1 -1 1:25.652022 2:-11.688716 3:0.9203168 4:-1.7386567 5:-1.661565 
-1 -0 -1 -1 1:-0.30046398 2:15.079169 3:5.1870145 4:-0.34250223 5:0.033540173 
-1 -0 -1 -1 1:-24.803371 2:-13.259928 3:2.2051193 4:0.33369797 5:-0.63347668 
-1 -0 -1 -1 1:-0.30618402 2:15.212734 3:4.1260636 4:0.72044956 5:-0.47077778 
-1 -0 -1 -1 1:-24.803129 2:-13.249249 3:2.1380172 4:0.24089038 5:-0.38939879 
-1 -0 -1 -1 1:-0.37589785 2:15.109239 3:4.6978783 4:-1.2764192 5:-1.4523288 
-1 -0 -1 -1 1:-0.46434181 2:4.224862 3:-3.3969969 4:4.985582 5:-0.30710563 
-1 -1 -1 -0.8887472147762295 1:-0.52929409 2:4.2704288 3:-4.0270068 4:5.0109883 5:-2.6198513 
-1 -1 -1 -0.000325300541586835 1:-0.52929409 2:4.2704288 3:-4.0270068 4:5.0109883 5:-2.6198513 
-1 -0 -1 -1 1:-24.804343 2:-13.258867 3:2.1972757 4:0.27963964 5:-0.58997962 
-1 -1 -1 -1 1:25.672094 2:-11.679649 3:0.93226225 4:-1.5298503 5:-1.0438402 
-1 -1 -1 -1 1:25.682413 2:-11.558604 3:0.039072823 4:-0.51571259 5:-0.92810448 
-1 -1 -1 -1 1:25.654232 2:-11.682543 3:0.87672865 4:-1.614205 5:-1.6939811 
-0 -1 -0 -0 1:-0.42917664 2:15.10628 3:4.422251 4:-1.4274961 5:-3.4130929 
-1 -0 -1 -1 1:-24.801348 2:-13.258692 3:2.2088226 4:0.30766896 5:-0.50079874 
-1 -0 -1 -1 1:-24.791945 2:-13.276062 3:2.399954 4:-0.019899632 5:0.19361908 
-1 -0 -1 -1 1:-24.809232 2:-13.296556 3:2.4633119 4:0.03010952 5:-0.79534913 
-0 -1 -0 -0 1:-6.265378 2:4.5086623 3:-3.3188798 4:-4.0793883 5:0.71486398 
-1 -1 -1 -1 1:25.654232 2:-11.682543 3:0.87672865 4:-1.614205 5:-1.6939811 
-0 -1 -0 -0 1:-0.42917664 2:15.10628 3:4.422251 4:-1.4274961 5:-3.4130929 
-0 -1 -0 -0 1:6.4854358 2:0.99470295 3:0.44890495 4:2.4235282 5:5.4656614 
