svm_type c_svc
kernel_type linear
nr_class 6
total_sv 191
rho 0.0437938 -0.345605 -10.0484 0.879187 0.392511 -1.28367 -2.90075 0.885089 -0.027525 -1.18405 0.225931 0.480111 2.27142 4.47269 -1.48373
label 1 3 4 0 2 5
nr_sv 33 24 21 18 51 44
SV
0 0 0 1 1 1:-6.2789339 2:5.3150578 3:-7.0686899 4:-4.6570263 5:-1.6208396 
0 0 0 0.1314416535466095 1 1:-6.2958879 2:4.5646795 3:-4.8712419 4:-0.60573598 5:2.3756439 
0 0 0 0 1 1:-6.1949444 2:3.7930209 3:-2.7029729 4:4.5411222 5:-0.073506129 
0.6799913688978724 0.8293623038358329 1 0.6264549180672681 1 1:-5.6611184 2:1.4897546 3:8.9279431 4:9.950871 5:-0.70096646 
0 0 0.2927420966051734 1 1 1:-5.7699418 2:2.7613177 3:6.2094695 4:-0.11829515 5:3.5253127 
0 0 0 0 0.5054597799211248 1:-6.1627873 2:3.8062617 3:-2.691372 4:4.5712849 5:-1.6604368 
0 0 0 0 0.6418183460365922 1:-6.4227296 2:5.0202435 3:-7.7197326 4:-0.59283287 5:1.5758535 
0 0 0 0 0.03504730084216253 1:-6.4227296 2:5.0202435 3:-7.7197326 4:-0.59283287 5:1.5758535 
0 0.8739223823031277 0 1 1 1:-24.59639 2:-19.696556 3:-0.91056408 4:0.50942069 5:1.2791601 
0 0 0 1 1 1:54.716453 2:93.110875 3:0.45359422 4:-13.995416 5:3.4313092 
1 1 0 1 1 1:-24.703255 2:-32.370142 3:-3.5961574 4:1.0066153 5:-2.5377704 
0 0 0 1 1 1:-6.3694978 2:5.0594628 3:-7.4066578 4:-1.4164905 5:0.19285897 
0 0 0 0.03741502137992497 0.6235856803424995 1:104.06667 2:174.78757 3:-2.8968553 4:-26.825388 5:8.9995389 
0.1728172719667754 1 0.3444763355293735 1 1 1:-5.4883033 2:3.4783509 3:8.743007 4:-12.482214 5:2.8121899 
0 0 1 1 1 1:3.5051859 2:20.573188 3:2.6670387 4:1.2191744 5:2.1342904 
0 0 0 0 1 1:20.530201 2:47.930727 3:2.0224249 4:-3.6614542 5:4.5562639 
1 1 0.1510869460201443 1 1 1:-8.9742937 2:-17.077618 3:14.247683 4:9.1803083 5:4.1693267 
0 0 0 1 1 1:-19.412698 2:-8.0691509 3:-3.8733891 4:-1.8748194 5:0.53320233 
0 1 0 1 1 1:-4.3288689 2:0.37675471 3:-3.9839983 4:-0.79615821 5:0.58494522 
0 0 0 1 1 1:-4.1420469 2:6.7299526 3:1.2224075 4:-2.4630442 5:2.1315359 
0.2732267561383208 0 0 1 1 1:18.719677 2:27.700149 3:1.9547765 4:-2.1580957 5:2.5250064 
0 0 0.03789261216119056 0 0 1:-26.362246 2:-16.569981 3:-6.4834025 4:9.8653369 5:-1.9097476 
0 0 1 1 1 1:-2.6917738 2:14.606669 3:3.2275413 4:1.3201333 5:1.2430707 
0.7346534105003605 1 0 1 0 1:-6.2699514 2:4.838714 3:-7.0994862 4:1.2311486 5:-5.4293695 
1 1 0 1 0 1:18.262963 2:26.559478 3:-8.2843695 4:-1.2906642 5:-1.0306083 
0 0 0 1 1 1:-6.374243 2:5.0591906 3:-7.4516723 4:-1.338413 5:0.2623866 
0 0.5658299455039106 0 1 1 1:-6.0801318 2:4.8750704 3:-3.2561587 4:-6.5400831 5:-0.93462957 
1 1 0 1 1 1:13.924398 2:-0.74600648 3:3.3557423 4:0.94639019 5:1.6576596 
0 0 0 0.4910849629261901 1 1:-6.3905329 2:5.0256708 3:-7.4186142 4:-1.1211366 5:1.0333863 
0 0 0 1 1 1:2.3360994 2:11.92675 3:-1.2884659 4:-5.0868235 5:3.41681 
1 1 0 1 1 1:-56.00626 2:-92.722546 3:-5.4356259 4:9.9825636 5:-1.3010771 
0 0.5736432192090812 0 0 0 1:-39.15487 2:-37.867105 3:-12.487511 4:10.218338 5:-1.2642602 
0 0 1 0 1 1:-0.81676707 2:14.935057 3:1.4305644 4:2.1374423 5:1.0962932 
-0 1 0 0 0 1:5.1279728 2:0.68611933 3:0.59781338 4:-0.76252009 5:-2.0862855 
-0 1 0 0 0 1:5.1468832 2:0.71817203 3:0.5356589 4:-0.88287155 5:-3.1153651 
-0 0 0 0 0.5938199115364202 1:5.0692549 2:0.51174138 3:0.72555405 4:0.66515259 5:0.33096982 
-0 1 0 0 0 1:5.1554692 2:0.71454435 3:0.60308404 4:-0.93468848 5:-3.3370788 
-0 0.04371022293497984 0 0 0 1:5.156784 2:0.69578567 3:0.65689576 4:-0.8188947 5:-3.3286599 
-0.3709361178271989 0 0.03772304092764819 0.4021472310486282 0 1:-2.1234364 2:7.3207272 3:6.3229659 4:6.6730657 5:-5.8600484 
-0 1 0 0 0 1:5.1279728 2:0.68611933 3:0.59781338 4:-0.76252009 5:-2.0862855 
-0 1 0 0 0 1:5.1554692 2:0.71454435 3:0.60308404 4:-0.93468848 5:-3.3370788 
-0 0.2030102177390648 0 0 0 1:5.156784 2:0.69578567 3:0.65689576 4:-0.8188947 5:-3.3286599 
-1 0.690110093440844 0 0 1 1:5.0738696 2:0.51182876 3:1.0265884 4:0.021683508 5:1.1928781 
-0.4897526896761339 1 0.002558018549693522 0.04522620792611459 0.1643657219219337 1:-180.81159 2:-257.21585 3:-11.915668 4:38.594665 5:-8.9394796 
-1 1 0 0.001633619396681222 1 1:5.0366156 2:0.49641315 3:0.67900397 4:0.74015075 5:1.7714809 
-0 1 0 0 0 1:5.1554692 2:0.71454435 3:0.60308404 4:-0.93468848 5:-3.3370788 
-1 1 0 0 1 1:5.0738696 2:0.51182876 3:1.0265884 4:0.021683508 5:1.1928781 
-0 0.4287284748939839 0 0 0 1:2.5700996 2:-16.296942 3:12.357361 4:2.4440184 5:-5.2540041 
-0 1 0 0 0 1:5.0935028 2:0.68156351 3:0.51774073 4:-0.75934421 5:-0.58534302 
-1 1 0 0.2075466171601504 1 1:5.0366156 2:0.49641315 3:0.67900397 4:0.74015075 5:1.7714809 
-0 1 0 0 0.0002159281453079873 1:5.0692549 2:0.51174138 3:0.72555405 4:0.66515259 5:0.33096982 
-1 0 0.147398020947785 1 1 1:2.5414655 2:16.945504 3:2.7139378 4:1.0256134 5:-3.9134592 
-0 1 0 0 0 1:5.0860321 2:0.63602319 3:0.59487486 4:-0.42975382 5:-0.21787075 
-0 1 0 0 0 1:5.1468832 2:0.71817203 3:0.5356589 4:-0.88287155 5:-3.1153651 
-1 1 0 1 1 1:5.0366156 2:0.49641315 3:0.67900397 4:0.74015075 5:1.7714809 
-0 0.4337356260691508 0 0 1 1:5.0692549 2:0.51174138 3:0.72555405 4:0.66515259 5:0.33096982 
-0 1 0 0 0.7874459943237008 1:5.0692549 2:0.51174138 3:0.72555405 4:0.66515259 5:0.33096982 
-1 -1 0 0.5800915236850434 1 1:22.164852 2:14.095393 3:-1.1725653 4:1.7457157 5:3.6696602 
-0 -1 0 0 0 1:16.508587 2:-4.0263699 3:-0.30213404 4:0.43229659 5:-1.4800778 
-0 -1 0 0 0.3776000670332225 1:17.750457 2:-0.0051979304 3:-0.95927739 4:-0.9497974 5:-1.2509606 
-0.5187582090274361 -0.6468072070205395 0.005713109974519614 0 0 1:95.934519 2:80.914875 3:2.0898803 4:-9.0873671 5:5.2792324 
-0.3239996418245233 -1 0 0 1 1:23.940399 2:10.715773 3:5.4910214 4:-0.84029306 5:-0.79407407 
-0 -1 0 0 0 1:4.1927279 2:-9.2234667 3:2.6253796 4:1.8837959 5:-6.2355442 
-1 -1 0.004361632625521941 1 1 1:-64.784258 2:-61.493435 3:2.1859017 4:13.544001 5:-2.7360327 
-1 -1 0 0 1 1:-33.549073 2:-44.944746 3:-2.6070701 4:7.2469055 5:-6.3741115 
-1 -1 1 1 1 1:-2.4711688 2:9.4656368 3:4.9393271 4:3.3830649 5:0.043074367 
-1 -1 0 1 1 1:-3.1370163 2:-1.4657172 3:-1.3453464 4:-2.7684742 5:5.7794812 
-1 -1 0.005396369788120472 1 1 1:0.095623629 2:8.4485742 3:-5.3354411 4:-2.9166834 5:0.63191411 
-1 -1 0 0 1 1:-35.987396 2:-44.844786 3:-5.528399 4:4.637526 5:-5.6329452 
-0 -1 0 0 0 1:-38.042075 2:-78.721326 3:2.2841498 4:11.891633 5:-2.9790245 
-1 -1 0 0 1 1:-20.476054 2:-33.954527 3:-5.6885847 4:1.4583928 5:0.81941614 
-0 -0 0 0 0.7140469545487221 1:25.759128 2:-10.168232 3:0.09638677 4:2.311831 5:4.5085089 
-1 -1 0 1 1 1:-22.485635 2:-16.718396 3:3.6280036 4:-1.3682482 5:-0.28922879 
-0 -0.1524874280574774 0 0 0 1:25.628785 2:-8.9470386 3:1.8603724 4:0.67898113 5:1.4078433 
-0 -1 0 0 0 1:-26.367956 2:-52.025051 3:-0.45157971 4:8.6005792 5:-5.7101218 
-1 -1 0.009526126775672664 1 1 1:-22.485635 2:-16.718396 3:3.6280036 4:-1.3682482 5:-0.28922879 
-0 -1 0 1 0 1:23.02818 2:16.223012 3:1.1805917 4:-2.8244929 5:-5.8889093 
-0 -0 0 0 0.5419868545607821 1:22.513589 2:-13.31993 3:-7.6498168 4:-5.4118906 5:2.8405579 
-0.4632409414427414 -0 -0 0 0 1:-2.4479438 2:9.4309836 3:4.9338505 4:3.3888407 5:0.034955324 
-0 -0 -0 0 0.003242650777478982 1:-2.6362344 2:12.924947 3:5.3913737 4:1.6671663 5:-3.6344683 
-0.4024856321803443 -0 -0 0 0 1:-2.8012428 2:12.995434 3:4.896508 4:0.67471808 5:3.8405516 
-0 -0 -0 0 0.04470710691554603 1:-2.8012428 2:12.995434 3:4.896508 4:0.67471808 5:3.8405516 
-0.2239639531841293 -0 -0 0 0 1:-2.4479438 2:9.4309836 3:4.9338505 4:3.3888407 5:0.034955324 
-0.01132471495322383 -0 -0 0 0 1:-2.8012428 2:12.995434 3:4.896508 4:0.67471808 5:3.8405516 
-0 -0 -0 0 0.0114542205637398 1:-2.8012428 2:12.995434 3:4.896508 4:0.67471808 5:3.8405516 
-0 -0 -0 0 0.1281393527996706 1:-2.6362344 2:12.924947 3:5.3913737 4:1.6671663 5:-3.6344683 
-0 -0 -0 0 1 1:-2.6362344 2:12.924947 3:5.3913737 4:1.6671663 5:-3.6344683 
-0.7437074763094754 -0 -0 0 0.006018005268604793 1:-2.8012428 2:12.995434 3:4.896508 4:0.67471808 5:3.8405516 
-0.7602533096982309 -0 -0 0 0 1:-2.4479438 2:9.4309836 3:4.9338505 4:3.3888407 5:0.034955324 
-0.009443201478457206 -0 -0 0 0 1:-2.8012428 2:12.995434 3:4.896508 4:0.67471808 5:3.8405516 
-0.864915105585251 -0 -0.02527696277277623 0 0 1:-2.4479438 2:9.4309836 3:4.9338505 4:3.3888407 5:0.034955324 
-1 -0.03966051403161121 -0.9997202763910582 0.06235726133790924 0 1:-2.4479438 2:9.4309836 3:4.9338505 4:3.3888407 5:0.034955324 
-0 -0.1480185663935155 -0 0 1 1:-2.6362344 2:12.924947 3:5.3913737 4:1.6671663 5:-3.6344683 
-0 -0 -0 0 0.8728299369618016 1:-2.8012428 2:12.995434 3:4.896508 4:0.67471808 5:3.8405516 
-0.2089455103857604 -0 -0 0 1 1:-2.8012428 2:12.995434 3:4.896508 4:0.67471808 5:3.8405516 
-0.1379181450982679 -0 -0 0 1 1:-2.8012428 2:12.995434 3:4.896508 4:0.67471808 5:3.8405516 
-0 -0 -0 -0 1 1:0.32927221 2:5.9697351 3:0.26225327 4:-3.613356 5:1.6237407 
-1 -0.001612931198155467 -0 -0 1 1:0.37623186 2:4.6595778 3:2.7120566 4:7.0454866 5:-0.55160308 
-1 -0 -0 -0 1 1:0.31492246 2:5.8985332 3:0.23356691 4:-2.7845554 5:1.7954481 
-1 -0.4908638895950491 -0 -0 1 1:0.37623186 2:4.6595778 3:2.7120566 4:7.0454866 5:-0.55160308 
-0 -0 -0.3418431970656008 -0 0 1:0.29140782 2:6.2416054 3:-0.87300755 4:-4.6130815 5:1.2296387 
-0 -0 -0 -0.008378994309783982 1 1:0.32927221 2:5.9697351 3:0.26225327 4:-3.613356 5:1.6237407 
-0 -0 -0 -0 1 1:0.33262949 2:6.0457653 3:0.093500099 4:-4.129244 5:1.3188088 
-1 -0 -0.08499178919456012 -0 1 1:0.26591534 2:5.9624828 3:-0.71198218 4:-1.7731581 5:1.3150971 
-0 -0 -0 -0 1 1:0.32215535 2:6.1023517 3:-0.067240019 4:-4.5233304 5:1.6504026 
-0 -0 -0 -0 0.5094602579879224 1:0.2847868 2:6.1718025 3:-0.66987386 4:-4.2690368 5:1.866913 
-1 -0 -0 -0 1 1:0.26198987 2:6.0722822 3:-0.79798021 4:-2.9346832 5:1.9371656 
-0 -0.9714755491767075 -0.1123045627751285 -0 0 1:0.43138615 2:6.1273193 3:0.089125413 4:-4.4511735 5:-3.3756791 
-0 -0 -0.2948040538675011 -0 0 1:0.27810414 2:6.2163482 3:-0.95779369 4:-4.2084374 5:1.4521274 
-0.2713148322556677 -0 -0 -0 0 1:0.27718369 2:6.1408265 3:-0.80971955 4:-3.6324848 5:1.548026 
-1 -0 -0 -0 1 1:0.31492246 2:5.8985332 3:0.23356691 4:-2.7845554 5:1.7954481 
-1 -0 -0 -0 1 1:0.26198987 2:6.0722822 3:-0.79798021 4:-2.9346832 5:1.9371656 
-0.1868823853507347 -0 -0.8031619177197183 -0 1 1:-87.431225 2:-86.931136 3:10.422608 4:16.798262 5:-10.053924 
-0 -0 -0 -0 1 1:0.27951634 2:6.1451213 3:-0.64997443 4:-4.0326809 5:2.0703017 
-0.2360170624865048 -0 -0 -0 0 1:0.27718369 2:6.1408265 3:-0.80971955 4:-3.6324848 5:1.548026 
-0 -0 -0 -0 1 1:0.33262949 2:6.0457653 3:0.093500099 4:-4.129244 5:1.3188088 
-0 -0 -0 -0 1 1:0.33262949 2:6.0457653 3:0.093500099 4:-4.129244 5:1.3188088 
-0 -0 -0 -0 1 1:0.33262949 2:6.0457653 3:0.093500099 4:-4.129244 5:1.3188088 
-0 -0 -0 -0 1 1:0.33262949 2:6.0457653 3:0.093500099 4:-4.129244 5:1.3188088 
-0 -0 -0 -0 1 1:0.29553017 2:6.054318 3:-0.39443555 4:-3.3932516 5:1.5322604 
-0 -0.1926013055616619 -1 -0 0 1:-10.716508 2:-18.722745 3:6.7050616 4:0.14649398 5:2.1999676 
-1 -0 -1 -0 0 1:0.18286291 2:6.1619343 3:-2.3188986 4:-1.1551583 5:1.0993653 
-1 -0 -0 -0.0106913303088224 1 1:4.5133568 2:18.144252 3:-4.8590825 4:-1.6572694 5:-3.2665101 
-0 -0 -0 -0 1 1:0.286712 2:6.1732174 3:-0.61174171 4:-4.4042869 5:1.9976937 
-0.5921822758270883 -0 -0 -0 0 1:0.27718369 2:6.1408265 3:-0.80971955 4:-3.6324848 5:1.548026 
-1 -0 -0 -0 1 1:-36.552981 2:-20.026233 3:-4.1227146 4:-5.4246617 5:0.30869328 
-0 -0 -0 -0 0.8110314824940748 1:0.36677988 2:5.8151972 3:0.62343147 4:-2.3090475 5:-0.047746303 
-1 -0 -0.03839305691898789 -0 1 1:0.26591534 2:5.9624828 3:-0.71198218 4:-1.7731581 5:1.3150971 
-0 -0 -0 -0 1 1:0.33932762 2:5.987902 3:0.2128288 4:-3.6571266 5:1.0266352 
-1 -0 -0.02609927856043861 -0 1 1:0.26591534 2:5.9624828 3:-0.71198218 4:-1.7731581 5:1.3150971 
-1 -0 -0 -0 1 1:0.31492246 2:5.8985332 3:0.23356691 4:-2.7845554 5:1.7954481 
-0 -0 -8.266155632188454e-07 -0 0 1:0.35714689 2:6.2756553 3:-0.38034457 4:-5.6858663 5:-0.19351315 
-0 -0 -0 -0 1 1:0.32215535 2:6.1023517 3:-0.067240019 4:-4.5233304 5:1.6504026 
-1 -1 -0.3543716331384735 -0.04164299911914837 1 1:0.37623186 2:4.6595778 3:2.7120566 4:7.0454866 5:-0.55160308 
-0 -0 -0 -0 1 1:0.33932762 2:5.987902 3:0.2128288 4:-3.6571266 5:1.0266352 
-0 -0 -0 -0 1 1:0.286712 2:6.1732174 3:-0.61174171 4:-4.4042869 5:1.9976937 
-1 -0 -0.4113505847534288 -0 0 1:0.26619541 2:6.1371594 3:-0.95085666 4:-3.3498218 5:1.5890369 
-1 -0 -0 -0 1 1:0.26198987 2:6.0722822 3:-0.79798021 4:-2.9346832 5:1.9371656 
-1 -0 -1 -0 0.7259572597767151 1:0.10685 2:5.8496949 3:-2.710843 4:2.9810006 5:1.5846062 
-0 -0 -0 -0 1 1:0.36677988 2:5.8151972 3:0.62343147 4:-2.3090475 5:-0.047746303 
-0 -0 -0.4749630105353726 -0 0 1:0.28906178 2:6.2612665 3:-0.92942992 4:-4.7405212 5:1.2781347 
-1 -0 -1 -0 0 1:0.28719524 2:6.0428335 3:-0.77341723 4:-2.4691541 5:0.5118929 
-1 -0 -0 -0 0 1:0.26619541 2:6.1371594 3:-0.95085666 4:-3.3498218 5:1.5890369 
-1 -0 -0.6378076125402747 -0 0 1:0.28719524 2:6.0428335 3:-0.77341723 4:-2.4691541 5:0.5118929 
-0 -0 -0 -0 1 1:0.33932762 2:5.987902 3:0.2128288 4:-3.6571266 5:1.0266352 
-0 -0 -0 -0 1 1:0.33262949 2:6.0457653 3:0.093500099 4:-4.129244 5:1.3188088 
-1 -0 -0 -0.001643937600154481 1 1:-36.552981 2:-20.026233 3:-4.1227146 4:-5.4246617 5:0.30869328 
-1 -0 -1 -0.000931787028912009 -1 1:-0.56965575 2:18.058449 3:-6.9451445 4:1.1233103 5:0.91773785 
-0 -0 -0 -0 -0.8649185195353821 1:-21.997776 2:-14.481809 3:2.5529161 4:-0.095301234 5:-1.5409314 
-1 -0 -0 -0 -0 1:-22.111538 2:-14.472276 3:1.6628366 4:0.9976813 5:1.2741907 
-1 -0 -0 -0 -1 1:-17.0655 2:-6.9568961 3:2.9336942 4:2.2075488 5:0.91247725 
-1 -1 -1 -0 -1 1:44.359453 2:23.37903 3:-7.7259418 4:-9.1678831 5:3.0193055 
-1 -0 -0 -0 -1 1:-22.334323 2:-13.788624 3:-3.0110166 4:1.6867785 5:0.31444797 
-0 -0 -0 -0 -1 1:-22.068142 2:-14.360805 3:1.5731796 4:0.14584886 5:-0.62508899 
-0.9816940215456412 -0 -0 -0 -1 1:-18.130496 2:-10.445902 3:2.9558793 4:1.1923719 5:0.25229528 
-0 -0 -0 -0 -1 1:-16.590168 2:-11.327495 3:4.1762986 4:-0.95776124 5:0.26522838 
-1 -0 -0 -0 -1 1:-16.815657 2:-7.5893917 3:0.92329193 4:2.7173418 5:0.1551818 
-1 -0 -0 -0 -1 1:-12.381475 2:-3.2571524 3:-1.9855657 4:-2.1467748 5:0.76925028 
-1 -0 -0 -0 -0 1:-22.102628 2:-14.466942 3:1.6462324 4:1.0370051 5:0.74814867 
-0 -0.0830388742547663 -1 -0 -1 1:-14.231651 2:-63.348314 3:-6.7416158 4:-7.5462502 5:5.5176303 
-1 -1 -0.7629139501957709 -1 -1 1:-0.40418411 2:12.058977 3:4.9158491 4:2.9582057 5:0.17898863 
-0 -0 -0 -0 -1 1:-22.032931 2:-14.303612 3:1.7311044 4:-0.66014921 5:-1.5223984 
-0 -0 -0 -0 -1 1:-22.068142 2:-14.360805 3:1.5731796 4:0.14584886 5:-0.62508899 
-1 -0.1710694183483913 -1 -0 -0.2829516395973171 1:-44.088692 2:-55.574902 3:1.5378181 4:10.968801 5:-1.024572 
-1 -0 -0 -1 -0 1:-14.208397 2:-0.35736422 3:1.5709865 4:1.9971417 5:0.81927408 
-0 -1 -1 -0.775147151477501 -1 1:-17.777313 2:-30.90323 3:7.6667461 4:6.6475337 5:0.37451489 
-1 -0 -0 -0.3945513642999697 -1 1:142.40961 2:209.00045 3:6.3979459 4:-32.306884 5:10.477661 
-1 -0 -0 -0 -1 1:-22.534158 2:-12.487971 3:-8.6291774 4:-2.7078124 5:-1.304704 
-1 -0 -0 -0 -1 1:4.6428058 2:6.8552282 3:-1.897941 4:-3.8325017 5:3.0407534 
-1 -0 -0 -0 -1 1:-14.459317 2:-1.6637116 3:-0.81571059 4:2.7409464 5:0.0078217398 
-1 -0 -0 -0 -0 1:-22.110381 2:-14.399675 3:1.3603296 4:0.81011773 5:0.55743871 
-1 -1 -1 -0 -1 1:-2.234958 2:7.3214045 3:-7.9144881 4:2.4036375 5:0.43826272 
-0 -0 -0 -0 -1 1:-6.7432634 2:-10.713238 3:0.82407367 4:-1.6409528 5:4.4045706 
-1 -0 -0 -0 -1 1:26.925926 2:39.231851 3:-3.3021148 4:-8.266704 5:5.7351361 
-0 -0 -1 -0 -1 1:-21.963239 2:-14.334686 3:2.0925865 4:-0.62985982 5:-4.0804027 
-0 -0 -0 -0 -1 1:-22.07211 2:-14.242728 3:1.3499562 4:-0.80671274 5:-0.46336307 
-1 -0 -0 -0 -0 1:-22.085184 2:-14.413477 3:1.5508714 4:0.71411477 5:-0.11372102 
-1 -1 -1 -1 -0.898578841126029 1:-20.218341 2:-13.716247 3:6.2771879 4:8.797879 5:-1.2400948 
-1 -0.3085647649584211 -0 -0 -1 1:130.08245 2:177.68265 3:0.62502307 4:-25.766 5:10.705491 
-0 -0 -0 -0.8957609704804615 -0 1:-23.812879 2:10.009074 3:4.9020673 4:-1.8142444 5:-0.89603568 
-1 -1 -1 -0 -1 1:-26.434773 2:-37.583101 3:-0.76139711 4:6.3166816 5:1.0900813 
-0 -0 -0 -0 -1 1:-22.068775 2:-14.143508 3:1.3298249 4:-1.9223829 5:-0.036373129 
-0 -0 -0 -0 -1 1:-26.449414 2:-28.923433 3:-0.94181029 4:0.12278564 5:-1.1985412 
-1 -0 -0 -0 -0 1:-22.181948 2:-14.247119 3:0.54447547 4:0.31271362 5:2.350976 
-1 -0 -0.3124262639343376 -0 -1 1:-22.57683 2:-12.566497 3:-9.0472183 4:-1.2078674 5:-1.057525 
-0.4545273974651193 -1 -1 -0 -1 1:22.803806 2:-8.0522621 3:2.2646182 4:0.45300872 5:1.281116 
-0 -0.9831744983657766 -1 -0 -1 1:-21.940153 2:-14.308116 3:2.0717045 4:-0.74713238 5:-5.2007528 
-0 -0 -0 -0 -1 1:-1.6420035 2:17.82122 3:4.8834002 4:-5.3954273 5:0.68925647 
-0.3696896881316016 -0 -0.5582936620126103 -0 -1 1:-22.015043 2:-14.46059 3:1.9139363 4:0.94336769 5:-2.8407036 
-1 -0 -0 -0 -1 1:-21.339976 2:-13.872421 3:2.4268909 4:3.3722033 5:-0.92311717 
-0 -0 -0 -0 -1 1:-10.79767 2:-2.9546255 3:-3.3909429 4:-9.8808768 5:0.017532343 
