svm_type epsilon_svr
kernel_type rbf
gamma 0.000488281
nr_class 2
total_sv 401
rho -4.86178
SV
2048 1:-22.716735 2:-15.536008 3:0.74791657 4:0.82387246 5:-0.70654672 
2048 1:-22.704404 2:-15.495197 3:0.51356826 4:0.90828513 5:-0.38944186 
-2048 1:-5.1540202 2:6.2141857 3:0.087898311 4:-7.2665183 5:1.0506368 
-475.066760429141 1:-3.9432399 2:12.773106 3:6.1099617 4:2.256653 5:-1.6790607 
-1097.723870098884 1:-4.6219515 2:2.8138226 3:12.734683 4:8.8750043 5:-1.6405248 
-2048 1:-5.1265521 2:6.128033 3:0.11719092 4:-6.2802601 5:0.56292625 
-25.41453918186145 1:-3.8414151 2:12.89524 3:5.382157 4:3.0375855 5:1.0613305 
-2048 1:0.3764106 2:6.5860578 3:-6.4264641 4:1.8979736 5:-2.5864956 
-2048 1:-3.9321698 2:12.806057 3:5.89581 4:2.3456668 5:-1.4546663 
2048 1:-22.706239 2:-15.494614 3:0.50454679 4:0.9036501 5:-0.4572969 
2048 1:-22.68275 2:-15.400964 3:-0.31588072 4:1.509275 5:-0.64996721 
2048 1:24.986795 2:-11.217836 3:1.5659789 4:-0.74422992 5:-1.7933112 
-2048 1:-5.1282891 2:6.2939042 3:-0.6754882 4:-6.6045235 5:0.87676374 
-2048 1:-3.9321698 2:12.806057 3:5.89581 4:2.3456668 5:-1.4546663 
-24.73507402743856 1:-3.9956302 2:13.349395 3:3.4221503 4:0.67974376 5:-1.6956872 
-2048 1:-5.127193 2:6.3205534 3:-0.73141984 4:-6.7629862 5:1.1667512 
-2048 1:-5.1003654 2:6.2927036 3:-0.62275421 4:-6.4638165 5:1.7983562 
-2048 1:-5.1121675 2:6.2047589 3:-0.35307381 4:-6.1508999 5:0.84116817 
-2048 1:-5.1429024 2:6.2366501 3:-0.35432199 4:-6.6846068 5:0.47360546 
1814.690185506584 1:25.093452 2:-11.180039 3:1.1915314 4:0.31298245 5:0.77595736 
966.5815004645292 1:-20.777676 2:-14.698652 3:8.0641099 4:3.2604175 5:-1.4383327 
181.9642286040021 1:25.033186 2:-11.183943 3:1.3743928 4:-0.40705459 5:-0.48415867 
-2048 1:-3.9321698 2:12.806057 3:5.89581 4:2.3456668 5:-1.4546663 
2048 1:24.987333 2:-11.209731 3:1.5688604 4:-0.82470527 5:-1.6434753 
-2048 1:-5.1290332 2:6.2863567 3:-0.68210395 4:-6.5298551 5:0.71561305 
-2048 1:-5.1429024 2:6.2366501 3:-0.35432199 4:-6.6846068 5:0.47360546 
785.5392116302339 1:25.006866 2:-10.672012 3:-1.5252556 4:-0.83309611 5:-1.3701974 
-2048 1:-5.1409443 2:6.3013833 3:-0.53252932 4:-6.9994729 5:1.0463424 
-1968.355210293463 1:-3.9432399 2:12.773106 3:6.1099617 4:2.256653 5:-1.6790607 
-2048 1:-5.1424247 2:6.2801194 3:-0.57014135 4:-6.7487205 5:0.55874862 
-2048 1:0.39756071 2:6.6016044 3:-6.7210881 4:2.3807207 5:-2.5774568 
-2048 1:-5.1506917 2:6.2609155 3:-0.45213365 4:-6.8263665 5:0.36395192 
-2048 1:-3.9432399 2:12.773106 3:6.1099617 4:2.256653 5:-1.6790607 
-2048 1:-3.306608 2:7.1200435 3:4.0664973 4:2.7585785 5:1.1770074 
2048 1:6.4684164 2:0.96212503 3:-0.34975392 4:2.0907436 5:4.008539 
-54.74320184532488 1:-3.9956302 2:13.349395 3:3.4221503 4:0.67974376 5:-1.6956872 
-2048 1:-3.306608 2:7.1200435 3:4.0664973 4:2.7585785 5:1.1770074 
-2048 1:-5.1208243 2:6.1776792 3:-0.10666013 4:-6.3529289 5:0.8686648 
2048 1:-22.69204 2:-15.527911 3:0.64263266 4:1.1050048 5:-0.19380579 
2048 1:-22.681704 2:-15.533242 3:0.67905423 4:1.1797859 5:0.12141286 
-20.54088206367305 1:-3.9432399 2:12.773106 3:6.1099617 4:2.256653 5:-1.6790607 
-2048 1:-3.9321698 2:12.806057 3:5.89581 4:2.3456668 5:-1.4546663 
-42.95310299575426 1:-4.8127165 2:3.8740403 3:7.749857 4:5.2632941 5:-4.3803016 
-2048 1:-3.9321698 2:12.806057 3:5.89581 4:2.3456668 5:-1.4546663 
-2048 1:-5.1365172 2:6.2416495 3:-0.37320649 4:-6.6636132 5:0.67193911 
-4.44813610687854 1:-3.9956302 2:13.349395 3:3.4221503 4:0.67974376 5:-1.6956872 
-2048 1:0.39444174 2:6.6059052 3:-6.7059007 4:2.2959103 5:-2.5477232 
-2048 1:-3.9432399 2:12.773106 3:6.1099617 4:2.256653 5:-1.6790607 
-2048 1:-3.9432399 2:12.773106 3:6.1099617 4:2.256653 5:-1.6790607 
654.5373499556873 1:25.076376 2:-10.628969 3:-2.2496204 4:0.44260011 5:-0.77704053 
-1237.200562771603 1:-3.8414151 2:12.89524 3:5.382157 4:3.0375855 5:1.0613305 
2048 1:24.966687 2:-11.1937 3:1.4987101 4:-1.0200091 5:-2.1711206 
2048 1:-22.674498 2:-15.223502 3:-1.1427907 4:1.2204497 5:0.034392169 
-180.6967733373827 1:-5.1594872 2:6.2709335 3:-0.45886614 4:-6.9622065 5:0.25287679 
-2048 1:-3.306608 2:7.1200435 3:4.0664973 4:2.7585785 5:1.1770074 
-2048 1:-5.1381817 2:6.213913 3:-0.24821803 4:-6.6028941 5:0.54663618 
-2048 1:-3.9321698 2:12.806057 3:5.89581 4:2.3456668 5:-1.4546663 
2048 1:-1.0733887 2:9.8915736 3:3.7312459 4:2.7460992 5:1.4423553 
1056.674697116918 1:6.5197166 2:1.0296472 3:-0.69999042 4:2.400244 5:5.530487 
2048 1:24.972321 2:-11.222969 3:1.6614663 4:-0.96066156 5:-2.0150602 
-2048 1:-3.9321698 2:12.806057 3:5.89581 4:2.3456668 5:-1.4546663 
2048 1:24.982353 2:-11.202974 3:1.5445767 4:-0.88663147 5:-1.7447656 
2048 1:24.984921 2:-11.166755 3:1.2952375 4:-0.81401583 5:-1.8093478 
2048 1:-21.878073 2:-15.175653 3:3.8869005 4:1.8764354 5:-0.13961154 
-2048 1:-3.9432399 2:12.773106 3:6.1099617 4:2.256653 5:-1.6790607 
-2048 1:-3.306608 2:7.1200435 3:4.0664973 4:2.7585785 5:1.1770074 
-2048 1:-5.1357781 2:6.30601 3:-0.66023633 4:-6.8012076 5:0.90063548 
-2048 1:0.38993093 2:6.5901706 3:-6.6192571 4:2.2677953 5:-2.6879865 
158.9543352597967 1:-22.728541 2:-15.46836 3:0.38768955 4:0.67093071 5:-1.0063671 
-1081.982246255871 1:-5.1232909 2:6.344096 3:-0.82846236 4:-6.7991701 5:1.3753193 
-288.3973163944006 1:5.854509 2:0.52871759 3:2.2757328 4:-2.6804977 5:-12.761755 
2048 1:24.996663 2:-11.140895 3:1.1348477 4:-0.70520083 5:-1.5456372 
-234.6029865044162 1:-3.8414151 2:12.89524 3:5.382157 4:3.0375855 5:1.0613305 
710.0877732631551 1:0.40026348 2:5.9168317 3:-2.3103508 4:1.8730319 5:-0.79635043 
-2048 1:-5.1279197 2:6.2935077 3:-0.50948512 4:-6.8694571 5:1.3457828 
-2048 1:-5.1240459 2:6.2780622 3:-0.30576619 4:-7.0109872 5:1.7959238 
-2048 1:0.39756071 2:6.6016044 3:-6.7210881 4:2.3807207 5:-2.5774568 
-2048 1:-3.9956302 2:13.349395 3:3.4221503 4:0.67974376 5:-1.6956872 
1338.574783809026 1:24.978846 2:-11.182791 3:1.4638771 4:-0.9746506 5:-1.7547141 
2048 1:0.40026348 2:5.9168317 3:-2.3103508 4:1.8730319 5:-0.79635043 
-387.5122867599699 1:-4.9992565 2:6.8879772 3:-6.6440934 4:-1.7489085 5:-3.0327163 
2048 1:-22.713382 2:-15.522273 3:0.72445704 4:0.76021966 5:-0.47281751 
-2048 1:-5.1322099 2:6.3460303 3:-0.92722473 4:-6.7279114 5:0.87212177 
-2048 1:0.3764106 2:6.5860578 3:-6.4264641 4:1.8979736 5:-2.5864956 
-2048 1:-5.1398692 2:6.3094428 3:-0.7433511 4:-6.7342116 5:0.60245663 
-2048 1:-3.9321698 2:12.806057 3:5.89581 4:2.3456668 5:-1.4546663 
-2048 1:-5.125315 2:6.2507182 3:-0.5200827 4:-6.4239212 5:0.71584717 
-1326.254679520321 1:-3.9956302 2:13.349395 3:3.4221503 4:0.67974376 5:-1.6956872 
-2048 1:0.39508208 2:6.5779773 3:-6.5816162 4:2.3620246 5:-2.628351 
321.9790201690015 1:24.886958 2:-11.334171 3:2.571398 4:-1.9122097 5:-3.4914013 
2048 1:-22.722231 2:-15.636467 3:1.3141699 4:0.83290942 5:-0.82461804 
-2048 1:-3.9321698 2:12.806057 3:5.89581 4:2.3456668 5:-1.4546663 
-3.009985993903416 1:-3.8414151 2:12.89524 3:5.382157 4:3.0375855 5:1.0613305 
-308.843371766159 1:-3.9956302 2:13.349395 3:3.4221503 4:0.67974376 5:-1.6956872 
387.1775825398458 1:6.5197166 2:1.0296472 3:-0.69999042 4:2.400244 5:5.530487 
-2048 1:-3.9321698 2:12.806057 3:5.89581 4:2.3456668 5:-1.4546663 
2048 1:-22.676059 2:-15.467844 3:0.35457977 4:1.1203682 5:0.3956205 
2048 1:-22.717285 2:-15.516115 3:0.64589041 4:0.79923736 5:-0.70854435 
-2048 1:-5.1278331 2:6.3271956 3:-1.0971358 4:-6.2530882 5:0.21087485 
-2048 1:-5.1344349 2:6.2373636 3:-0.15561609 4:-6.9440889 5:1.2867684 
-2048 1:-3.306608 2:7.1200435 3:4.0664973 4:2.7585785 5:1.1770074 
-2048 1:0.39508208 2:6.5779773 3:-6.5816162 4:2.3620246 5:-2.628351 
40.3809025233259 1:-22.877121 2:-14.397188 3:-3.403312 4:-4.5351419 5:0.88405627 
-2048 1:-3.306608 2:7.1200435 3:4.0664973 4:2.7585785 5:1.1770074 
-2048 1:-3.306608 2:7.1200435 3:4.0664973 4:2.7585785 5:1.1770074 
-2048 1:-3.9432399 2:12.773106 3:6.1099617 4:2.256653 5:-1.6790607 
2048 1:24.974971 2:-11.190349 3:1.4723173 4:-0.94720037 5:-1.960787 
-1872.903620960061 1:0.29296636 2:6.6200429 3:-5.0971741 4:-1.1766563 5:-0.63982035 
415.2466406893656 1:24.979703 2:-11.207615 3:1.5668827 4:-0.89854016 5:-1.8290324 
-2048 1:0.3980212 2:6.5947396 3:-6.6539615 4:2.3419577 5:-2.4855543 
-19.65454620423628 1:-3.9432399 2:12.773106 3:6.1099617 4:2.256653 5:-1.6790607 
-2048 1:-3.9956302 2:13.349395 3:3.4221503 4:0.67974376 5:-1.6956872 
-2048 1:-3.9956302 2:13.349395 3:3.4221503 4:0.67974376 5:-1.6956872 
2048 1:-4.9293792 2:5.3191593 3:3.0004926 4:-1.7002713 5:1.551427 
-2048 1:-3.306608 2:7.1200435 3:4.0664973 4:2.7585785 5:1.1770074 
2048 1:24.982373 2:-11.183022 3:1.3429046 4:-0.73879729 5:-1.9865193 
1582.156770715224 1:-22.712354 2:-15.473546 3:0.46450546 4:0.72097991 5:-0.4116032 
2048 1:24.987333 2:-11.209731 3:1.5688604 4:-0.82470527 5:-1.6434753 
2048 1:-22.747853 2:-15.577801 3:1.1152306 4:0.4045012 5:-1.216404 
2048 1:6.5150948 2:1.0185557 3:-0.62428428 4:2.3503145 5:5.4401213 
706.7625017454156 1:24.98382 2:-11.106587 3:0.98557843 4:-0.89741882 5:-1.7666543 
-2048 1:-5.1271454 2:6.2699368 3:-0.49654495 4:-6.6557 5:1.0345909 
-2048 1:-5.1251913 2:6.3221322 3:-0.73708439 4:-6.7500725 5:1.2350745 
444.6528952749246 1:-22.737653 2:-15.465498 3:0.31258756 4:0.69333869 5:-1.4322367 
2048 1:-3.3343789 2:7.1575838 3:4.074681 4:2.7590765 5:1.1675679 
-2048 1:-5.1235964 2:6.3029594 3:-0.8348163 4:-6.3982068 5:0.70176037 
102.5407880972922 1:-22.877121 2:-14.397188 3:-3.403312 4:-4.5351419 5:0.88405627 
2048 1:-22.710277 2:-15.487971 3:0.45912599 4:0.88079069 5:-0.59306777 
2048 1:24.975702 2:-11.203854 3:1.5733562 4:-0.97526369 5:-1.8674044 
2048 1:-22.687904 2:-15.493314 3:0.5135954 4:1.0157089 5:0.10928334 
2048 1:-22.706239 2:-15.494614 3:0.50454679 4:0.9036501 5:-0.4572969 
-1202.253744390193 1:-5.1121675 2:6.2047589 3:-0.35307381 4:-6.1508999 5:0.84116817 
765.507562416117 1:-22.739162 2:-15.57856 3:1.0400648 4:0.60172984 5:-1.1849322 
1263.704062901692 1:-22.6117 2:-15.530118 3:0.51392916 4:1.9586725 5:1.6683882 
286.9924493359226 1:-22.765111 2:-15.595707 3:1.2558376 4:0.22053827 5:-1.5981396 
-2048 1:-5.1555903 2:6.3090309 3:-0.89950336 4:-6.5984569 5:-0.29419655 
2048 1:24.982119 2:-11.218147 3:1.6563625 4:-0.91887697 5:-1.6705507 
-5.308107837891797 1:-3.9432399 2:12.773106 3:6.1099617 4:2.256653 5:-1.6790607 
4.60440548929364 1:-4.577937 2:8.1265523 3:-18.962843 4:9.3512651 5:-6.5067011 
2048 1:-22.705431 2:-15.514183 3:0.6610155 4:0.84683738 5:-0.29928981 
2048 1:-22.703711 2:-15.503282 3:0.54886067 4:0.93489683 5:-0.39543264 
550.751172852486 1:-22.748474 2:-14.954931 3:-1.9651133 4:-0.60007378 5:-0.14111754 
-561.5403009508314 1:-5.0564719 2:5.7388471 3:0.73409181 4:-3.0413219 5:-1.850473 
2048 1:24.975702 2:-11.203854 3:1.5733562 4:-0.97526369 5:-1.8674044 
-2048 1:-5.1219579 2:6.2786245 3:-0.67682126 4:-6.4131162 5:0.80947608 
-2048 1:0.39756071 2:6.6016044 3:-6.7210881 4:2.3807207 5:-2.5774568 
2048 1:-22.702478 2:-15.497201 3:0.56196037 4:0.86651208 5:-0.23290535 
2048 1:-22.710217 2:-15.485652 3:0.45077028 4:0.88338506 5:-0.57804375 
2048 1:-22.704799 2:-15.498083 3:0.55630111 4:0.86503443 5:-0.32429724 
-2048 1:-3.9956302 2:13.349395 3:3.4221503 4:0.67974376 5:-1.6956872 
2048 1:24.985061 2:-11.208555 3:1.5477112 4:-0.8196959 5:-1.7492411 
1627.416901183533 1:-22.601212 2:-15.488096 3:-0.34833273 4:2.9947012 5:0.19684758 
-2048 1:-5.138214 2:6.2873249 3:-0.60012556 4:-6.7342697 5:0.7133338 
-2048 1:0.38993093 2:6.5901706 3:-6.6192571 4:2.2677953 5:-2.6879865 
-2048 1:-5.1272114 2:6.2991639 3:-0.99124206 4:-6.1422785 5:0.098138249 
-1961.393466783546 1:0.3980212 2:6.5947396 3:-6.6539615 4:2.3419577 5:-2.4855543 
-2048 1:-3.9321698 2:12.806057 3:5.89581 4:2.3456668 5:-1.4546663 
-339.6600113981367 1:-5.1448106 2:6.2924605 3:-0.30858547 4:-7.3052666 5:1.4260749 
-2048 1:-5.0992928 2:6.3821835 3:-2.1381531 4:-4.8858039 5:-1.0505706 
2048 1:24.980627 2:-11.191671 3:1.4796869 4:-0.90390175 5:-1.7993925 
-2048 1:-3.9432399 2:12.773106 3:6.1099617 4:2.256653 5:-1.6790607 
2048 1:24.982353 2:-11.202974 3:1.5445767 4:-0.88663147 5:-1.7447656 
-2048 1:-5.0900492 2:6.4995621 3:-2.9693308 4:-4.615997 5:-1.3049096 
2048 1:-22.740747 2:-15.388736 3:-0.03539725 4:0.49721108 5:-1.2936394 
1863.883295340693 1:6.4632149 2:0.96647173 3:-0.32017177 4:1.9611869 5:4.0087172 
2048 1:24.974971 2:-11.190349 3:1.4723173 4:-0.94720037 5:-1.960787 
287.9772258073966 1:-22.875287 2:-14.946952 3:-1.162763 4:-2.9223727 5:-1.3353529 
-2048 1:-5.1252041 2:6.2920725 3:-0.60924282 4:-6.6674815 5:1.1291916 
-1213.495507596811 1:-3.9307104 2:12.808523 3:5.8643865 4:2.4078484 5:-1.4643354 
2048 1:-22.696704 2:-15.472999 3:0.36075112 4:1.0028591 5:-0.25162855 
-2048 1:-3.9432399 2:12.773106 3:6.1099617 4:2.256653 5:-1.6790607 
2048 1:-22.714085 2:-15.488977 3:0.4626019 4:0.85718161 5:-0.70921731 
2048 1:6.5150948 2:1.0185557 3:-0.62428428 4:2.3503145 5:5.4401213 
-2048 1:-3.9956302 2:13.349395 3:3.4221503 4:0.67974376 5:-1.6956872 
2048 1:-22.744109 2:-15.54245 3:0.91184608 4:0.42372043 5:-1.1532727 
2048 1:-22.704799 2:-15.498083 3:0.55630111 4:0.86503443 5:-0.32429724 
-2048 1:-5.1293101 2:6.3104993 3:-0.9187229 4:-6.3846684 5:0.41743398 
-2048 1:-5.1397981 2:6.282384 3:-0.51253706 4:-6.8442146 5:0.83235178 
2048 1:24.974381 2:-11.224039 3:1.6608574 4:-0.93243052 5:-1.9737975 
-2048 1:6.5008517 2:1.0232004 3:-0.61309823 4:2.1783863 5:5.1414168 
-2048 1:-22.716735 2:-15.536008 3:0.74791657 4:0.82387246 5:-0.70654672 
-2048 1:24.974838 2:-11.207108 3:1.5605193 4:-0.9307756 5:-1.9754237 
2048 1:0.38280736 2:6.4892746 3:-5.9001337 4:2.0248682 5:-2.4410234 
2048 1:-5.1383169 2:6.3172833 3:-0.7485438 4:-6.7869706 5:0.75170224 
-2048 1:0.37688349 2:6.4759248 3:-5.6551553 4:1.7163598 5:-2.125587 
2048 1:-3.9630948 2:12.967636 3:5.3273532 4:1.5099282 5:-1.3929804 
-2048 1:-22.692364 2:-15.47213 3:0.39648363 4:0.96652802 5:-0.015245275 
2048 1:6.5131886 2:1.024545 3:-0.64583767 4:2.313151 5:5.4197549 
-2048 1:6.4186594 2:0.99403995 3:-0.38818037 4:1.4673477 5:2.9933598 
2048 1:-5.1614333 2:6.2886811 3:-0.52113553 4:-7.0562152 5:0.28916002 
-2048 1:-22.704404 2:-15.495197 3:0.51356826 4:0.90828513 5:-0.38944186 
2048 1:-3.9469309 2:12.915154 3:5.4197419 4:1.9835065 5:-1.5020141 
2048 1:-5.1540202 2:6.2141857 3:0.087898311 4:-7.2665183 5:1.0506368 
2048 1:6.5160234 2:1.0252211 3:-0.64655264 4:2.3294835 5:5.5085543 
2048 1:24.975238 2:-11.213936 3:1.6077237 4:-0.93691795 5:-1.9394233 
2048 1:24.968832 2:-11.110478 3:1.214674 4:-1.2766902 5:-1.5250817 
2048 1:0.39434617 2:6.5816687 3:-6.509995 4:2.2089833 5:-2.3855896 
-332.6479502232524 1:-3.9432399 2:12.773106 3:6.1099617 4:2.256653 5:-1.6790607 
-2048 1:-22.720064 2:-15.445955 3:0.39310951 4:0.51500199 5:-0.39861839 
2048 1:6.5185151 2:1.0271658 3:-0.64948619 4:2.3347559 5:5.6007834 
2048 1:-5.1436799 2:6.32355 3:-0.68139048 4:-6.9964148 5:0.88042101 
-2048 1:0.41019432 2:6.5315652 3:-6.221752 4:2.3455896 5:-1.9090534 
2048 1:-4.6219515 2:2.8138226 3:12.734683 4:8.8750043 5:-1.6405248 
2048 1:0.4057953 2:6.5841841 3:-6.5810914 4:2.3857538 5:-2.2242884 
2048 1:-5.1517206 2:6.3318383 3:-0.89633213 4:-6.7920438 5:0.18477576 
-2048 1:0.40109033 2:6.584231 3:-6.6199828 4:2.4116102 5:-2.4668713 
-2048 1:-5.1265521 2:6.128033 3:0.11719092 4:-6.2802601 5:0.56292625 
-2048 1:-22.705558 2:-15.515335 3:0.61636062 4:0.92733622 5:-0.44659058 
2048 1:0.39987091 2:6.5902327 3:-6.6286297 4:2.3572827 5:-2.4328525 
2048 1:-4.9987014 2:5.6293014 3:1.260011 4:-2.4038331 5:-0.45635034 
-2048 1:25.032726 2:-11.127839 3:1.1234431 4:-0.53485236 5:-0.31308992 
-2048 1:-22.706328 2:-15.498573 3:0.5349527 4:0.89230481 5:-0.43468192 
-2048 1:24.986841 2:-11.218674 3:1.6032642 4:-0.7978719 5:-1.6995031 
-2048 1:6.4967058 2:1.010849 3:-0.56232322 4:2.1828139 5:4.9735161 
2048 1:-5.1528213 2:6.3066257 3:-0.58782485 4:-7.0533334 5:0.63334305 
-2048 1:6.4173827 2:0.98762052 3:-0.40299636 4:1.5409303 5:2.8114241 
2048 1:-3.8414151 2:12.89524 3:5.382157 4:3.0375855 5:1.0613305 
2048 1:-5.1473517 2:6.316808 3:-0.68300046 4:-6.9553078 5:0.67855783 
-2048 1:24.963787 2:-11.174972 3:1.4330568 4:-1.1146207 5:-2.1434314 
2048 1:-3.9365483 2:12.805427 3:5.8886336 4:2.3594506 5:-1.6054689 
2048 1:-3.9365483 2:12.805427 3:5.8886336 4:2.3594506 5:-1.6054689 
-2048 1:0.4071614 2:6.4151564 3:-5.3439747 4:2.0272201 5:-1.3450708 
-2048 1:6.5024404 2:1.0263504 3:-0.65668711 4:2.232358 5:5.1163994 
-2048 1:24.990387 2:-11.249136 3:1.7399309 4:-0.69672714 5:-1.696177 
2048 1:-5.1739577 2:6.3424456 3:-0.88480446 4:-7.0828541 5:-0.24251351 
-2048 1:24.977925 2:-11.203033 3:1.5490587 4:-0.92687296 5:-1.8551221 
2048 1:6.5172618 2:1.0325351 3:-0.68363927 4:2.3280957 5:5.553083 
2048 1:0.3764106 2:6.5860578 3:-6.4264641 4:1.8979736 5:-2.5864956 
-2048 1:24.969933 2:-11.223581 3:1.6068809 4:-0.88670301 5:-2.2546439 
2048 1:-5.1387531 2:6.320939 3:-0.76693114 4:-6.7979156 5:0.74380991 
-2048 1:25.004091 2:-11.190805 3:1.468464 4:-0.71460925 5:-1.1551833 
2048 1:-3.9321698 2:12.806057 3:5.89581 4:2.3456668 5:-1.4546663 
2048 1:-3.9732435 2:12.962606 3:5.392427 4:1.3767295 5:-1.5757177 
-2048 1:-22.706239 2:-15.494614 3:0.50454679 4:0.9036501 5:-0.4572969 
2048 1:6.5185151 2:1.0271658 3:-0.64948619 4:2.3347559 5:5.6007834 
-2048 1:24.952472 2:-11.213897 3:1.6131117 4:-1.1179968 5:-2.5669108 
-2048 1:-22.68275 2:-15.400964 3:-0.31588072 4:1.509275 5:-0.64996721 
-2048 1:24.986795 2:-11.217836 3:1.5659789 4:-0.74422992 5:-1.7933112 
2048 1:-5.1282891 2:6.2939042 3:-0.6754882 4:-6.6045235 5:0.87676374 
2048 1:-3.9956302 2:13.349395 3:3.4221503 4:0.67974376 5:-1.6956872 
2048 1:-5.1542267 2:6.3053335 3:-0.59095938 4:-7.0453368 5:0.55993922 
-2048 1:-22.706447 2:-15.50931 3:0.59858032 4:0.89201831 5:-0.42739913 
2048 1:-5.1535106 2:6.3119301 3:-0.63938967 4:-7.0260167 5:0.54904279 
-2048 1:24.980995 2:-11.197806 3:1.5422658 4:-0.94076796 5:-1.7065796 
2048 1:-3.9406327 2:12.81378 3:5.867385 4:2.278664 5:-1.653935 
2048 1:6.5185134 2:1.029697 3:-0.67339258 4:2.3485508 5:5.570668 
2048 1:-3.9406327 2:12.81378 3:5.867385 4:2.278664 5:-1.653935 
2048 1:-5.1117614 2:6.3999474 3:-1.3910409 4:-6.3429726 5:0.99006396 
2048 1:-5.1231815 2:6.4240163 3:-1.622363 4:-6.2927345 5:0.38858154 
2048 1:6.4082877 2:0.95594848 3:-0.23692437 4:1.5079016 5:2.5216309 
-2048 1:24.975705 2:-11.193166 3:1.4872388 4:-0.9385061 5:-1.9419184 
2048 1:-3.9365483 2:12.805427 3:5.8886336 4:2.3594506 5:-1.6054689 
-2048 1:6.4949912 2:1.0861836 3:-1.0960172 4:2.3053168 5:4.5999773 
2048 1:6.4729444 2:1.0479284 3:-0.73218355 4:1.9200768 5:4.4055239 
-2048 1:-5.1557534 2:6.3292448 3:-0.78861602 4:-6.9734302 5:0.3327147 
-2048 1:24.977859 2:-11.203626 3:1.5151854 4:-0.86847505 5:-1.9692514 
-2048 1:0.42014671 2:6.495352 3:-6.0204265 4:2.4444493 5:-1.6290505 
2048 1:-5.1447209 2:6.3199075 3:-0.70501987 4:-6.9312508 5:0.73651192 
2048 1:-3.9321698 2:12.806057 3:5.89581 4:2.3456668 5:-1.4546663 
-2048 1:0.4024319 2:6.5555789 3:-6.3064551 4:2.1953459 5:-1.9890075 
2048 1:-5.0314853 2:5.5465854 3:2.5846266 4:-3.9838518 5:1.0531278 
2048 1:-5.1739577 2:6.3424456 3:-0.88480446 4:-7.0828541 5:-0.24251351 
2048 1:24.988245 2:-11.216158 3:1.6280719 4:-0.84686986 5:-1.546213 
-2048 1:6.5136758 2:1.0302931 3:-0.68410286 4:2.3225821 5:5.4137762 
2048 1:6.4138094 2:0.91749377 3:0.032682573 4:1.4861196 5:2.8399195 
-2048 1:6.512497 2:1.0296364 3:-0.67882301 4:2.3118639 5:5.3875192 
2048 1:-3.9956302 2:13.349395 3:3.4221503 4:0.67974376 5:-1.6956872 
2048 1:-5.1480212 2:6.3097722 3:-0.63921811 4:-6.9672651 5:0.65887101 
2048 1:-5.0870257 2:6.1643761 3:-0.10760772 4:-5.9678226 5:1.6116402 
-2048 1:6.456104 2:0.99023369 3:-0.43997024 4:1.8713934 5:3.8431857 
2048 1:6.5144971 2:1.0280992 3:-0.65088196 4:2.2969943 5:5.4982277 
2048 1:-5.0635397 2:5.9332175 3:0.54782158 4:-4.6425132 5:0.4941148 
-2048 1:-5.127193 2:6.3205534 3:-0.73141984 4:-6.7629862 5:1.1667512 
2048 1:-5.1003654 2:6.2927036 3:-0.62275421 4:-6.4638165 5:1.7983562 
-2048 1:-22.707622 2:-15.438089 3:0.17947143 4:0.87354806 5:-0.52696594 
2048 1:0.40636229 2:6.2491811 3:-4.4725511 4:2.2056059 5:-1.5122601 
-2048 1:6.5035937 2:1.0339816 3:-0.67862063 4:2.2016263 5:5.2026992 
-2048 1:0.41432839 2:6.5945831 3:-6.6649212 4:2.487828 5:-2.0551873 
-2048 1:24.986195 2:-11.204918 3:1.5141429 4:-0.78745724 5:-1.7505874 
2048 1:0.41019432 2:6.5315652 3:-6.221752 4:2.3455896 5:-1.9090534 
-2048 1:6.5176091 2:1.0284956 3:-0.66622335 4:2.3411589 5:5.5493329 
2048 1:-5.1121675 2:6.2047589 3:-0.35307381 4:-6.1508999 5:0.84116817 
2048 1:-3.9630948 2:12.967636 3:5.3273532 4:1.5099282 5:-1.3929804 
2048 1:-5.1429024 2:6.2366501 3:-0.35432199 4:-6.6846068 5:0.47360546 
-2048 1:0.4571013 2:6.5088348 3:-6.050326 4:2.6491794 5:-0.45009066 
2048 1:-4.9966922 2:5.242506 3:3.0206876 4:-1.5271378 5:-1.5165052 
2048 1:0.39987091 2:6.5902327 3:-6.6286297 4:2.3572827 5:-2.4328525 
2048 1:0.36173377 2:6.4388882 3:-5.2667329 4:1.336999 5:-2.0317483 
-2048 1:24.980348 2:-11.209425 3:1.5550085 4:-0.85925872 5:-1.876477 
2048 1:0.27829463 2:6.1989918 3:-2.9329814 4:-0.7471456 5:-1.5680759 
2048 1:24.979168 2:-11.207369 3:1.5569248 4:-0.88858568 5:-1.8689268 
2048 1:-5.1408334 2:6.3239136 3:-0.71552476 4:-6.9200201 5:0.88348023 
-2048 1:-22.715048 2:-15.504173 3:0.58843588 4:0.79348282 5:-0.61833212 
-2048 1:6.5108013 2:1.0266017 3:-0.6592253 4:2.2955991 5:5.3446703 
2048 1:0.4045442 2:6.5714955 3:-6.4920029 4:2.3547473 5:-2.2084007 
2048 1:0.40886937 2:6.5563327 3:-6.4029397 4:2.3891812 5:-2.0713265 
-2048 1:25.093452 2:-11.180039 3:1.1915314 4:0.31298245 5:0.77595736 
2048 1:-5.170928 2:6.3037839 3:-0.59799148 4:-7.1502169 5:0.047554134 
-2048 1:-22.719978 2:-15.507207 3:0.64960077 4:0.68645597 5:-0.63454052 
2048 1:6.4990624 2:1.0378506 3:-0.7554954 4:2.2520962 5:4.9296411 
2048 1:0.38877116 2:6.5686673 3:-6.40395 4:2.1232407 5:-2.4441145 
2048 1:-5.1105262 2:6.2373603 3:-0.54632139 4:-6.1390999 5:0.86085787 
2048 1:24.972349 2:-11.216851 3:1.6435173 4:-0.99058409 5:-1.9694437 
-2048 1:-20.777676 2:-14.698652 3:8.0641099 4:3.2604175 5:-1.4383327 
2048 1:-3.9307104 2:12.808523 3:5.8643865 4:2.4078484 5:-1.4643354 
-2048 1:-22.702968 2:-15.499449 3:0.54034237 4:0.91808417 5:-0.33846841 
-2048 1:24.978241 2:-11.204598 3:1.5667119 4:-0.93823678 5:-1.8264822 
2048 1:-5.1455372 2:6.3210695 3:-0.70898914 4:-6.9429597 5:0.72283009 
-2048 1:6.5098511 2:1.0272502 3:-0.64307202 4:2.2567489 5:5.3746981 
-2048 1:-22.641706 2:-15.360465 3:-0.29403849 4:1.3956832 5:1.2153211 
2048 1:-3.8705089 2:12.971626 3:4.8567466 4:2.9293581 5:-0.045168849 
-2048 1:-22.696402 2:-15.546396 3:0.84674107 4:0.92790069 5:-0.024018195 
2048 1:-5.0595189 2:5.8810202 3:0.76044648 4:-4.457594 5:0.37119425 
2048 1:-5.1448387 2:6.3219493 3:-0.70390294 4:-6.9517543 5:0.77062756 
2048 1:-3.9365468 2:12.816464 3:5.8155278 4:2.3676519 5:-1.6412596 
2048 1:-5.1086603 2:6.1904475 3:-0.16601374 4:-6.2889113 5:1.2418131 
2048 1:6.5131886 2:1.024545 3:-0.64583767 4:2.313151 5:5.4197549 
-2048 1:6.5088262 2:1.0140517 3:-0.57299508 4:2.2636008 5:5.3390616 
2048 1:0.39235057 2:6.5438973 3:-6.2870569 4:2.1969641 5:-2.4051539 
2048 1:-3.9444302 2:12.894944 3:5.5620088 4:1.9671329 5:-1.3462001 
-2048 1:-22.708269 2:-15.505279 3:0.61892047 4:0.8076502 5:-0.35741258 
2048 1:-3.9307104 2:12.808523 3:5.8643865 4:2.4078484 5:-1.4643354 
2048 1:0.4084412 2:6.570347 3:-6.4572423 4:2.3436138 5:-2.0066681 
2048 1:0.39750363 2:6.5899922 3:-6.6288254 4:2.3438124 5:-2.5020626 
2048 1:-3.9321698 2:12.806057 3:5.89581 4:2.3456668 5:-1.4546663 
-2048 1:0.38620063 2:6.498155 3:-5.7552713 4:1.7381227 5:-1.7927121 
-2048 1:24.987333 2:-11.209731 3:1.5688604 4:-0.82470527 5:-1.6434753 
2048 1:0.39748918 2:6.5949969 3:-6.6494398 4:2.3305658 5:-2.4801327 
-2048 1:24.977925 2:-11.203033 3:1.5490587 4:-0.92687296 5:-1.8551221 
2048 1:24.980421 2:-11.205479 3:1.5519684 4:-0.88893263 5:-1.8177944 
-2048 1:-22.706245 2:-15.496365 3:0.56282894 4:0.82906436 5:-0.31876868 
2048 1:-5.1290332 2:6.2863567 3:-0.68210395 4:-6.5298551 5:0.71561305 
2048 1:-5.109546 2:6.2644365 3:-0.59340443 4:-6.3130683 5:1.1675692 
-2048 1:-5.1429024 2:6.2366501 3:-0.35432199 4:-6.6846068 5:0.47360546 
2048 1:0.3994834 2:6.5959035 3:-6.6611835 4:2.354077 5:-2.4444419 
2048 1:6.512497 2:1.0296364 3:-0.67882301 4:2.3118639 5:5.3875192 
2048 1:6.496673 2:1.0280617 3:-0.65402823 4:2.1654557 5:4.9824846 
-2048 1:25.006866 2:-10.672012 3:-1.5252556 4:-0.83309611 5:-1.3701974 
2048 1:-5.1409443 2:6.3013833 3:-0.53252932 4:-6.9994729 5:1.0463424 
2048 1:-5.1498465 2:6.3038265 3:-0.59588317 4:-6.9892635 5:0.65204318 
2048 1:-5.1455693 2:6.3104637 3:-0.62230707 4:-6.9780424 5:0.80084221 
2048 1:-3.9432399 2:12.773106 3:6.1099617 4:2.256653 5:-1.6790607 
-2048 1:-22.70009 2:-15.458843 3:0.28772989 4:0.95691685 5:-0.33249227 
2048 1:-3.9365468 2:12.816464 3:5.8155278 4:2.3676519 5:-1.6412596 
2048 1:-5.1128534 2:6.3514611 3:-1.2604678 4:-6.1012747 5:0.56345482 
-2048 1:-22.698967 2:-15.492104 3:0.45229468 4:1.0186711 5:-0.35996852 
-2048 1:-22.729141 2:-15.462864 3:0.19726435 4:0.9150315 5:-1.4843159 
2048 1:-5.0632168 2:6.0405315 3:0.27534489 4:-5.2197221 5:1.4152103 
-2048 1:-22.701653 2:-15.486523 3:0.4692359 4:0.91831789 5:-0.3021173 
-2048 1:-5.1424247 2:6.2801194 3:-0.57014135 4:-6.7487205 5:0.55874862 
2048 1:0.39756071 2:6.6016044 3:-6.7210881 4:2.3807207 5:-2.5774568 
2048 1:-3.9406327 2:12.81378 3:5.867385 4:2.278664 5:-1.653935 
2048 1:6.5175706 2:1.0290696 3:-0.66458083 4:2.3330664 5:5.5614463 
-2048 1:24.97909 2:-11.209956 3:1.5893616 4:-0.91771955 5:-1.8213154 
2048 1:-5.142143 2:6.3228083 3:-0.68821532 4:-6.9677588 5:0.89848863 
-2048 1:-5.1506917 2:6.2609155 3:-0.45213365 4:-6.8263665 5:0.36395192 
2048 1:-3.9365483 2:12.805427 3:5.8886336 4:2.3594506 5:-1.6054689 
2048 1:-5.1486396 2:6.3020316 3:-0.58954787 4:-6.9741852 5:0.66430764 
-2048 1:0.39235057 2:6.5438973 3:-6.2870569 4:2.1969641 5:-2.4051539 
-2048 1:-22.720064 2:-15.445955 3:0.39310951 4:0.51500199 5:-0.39861839 
2048 1:-5.1165259 2:6.4683765 3:-2.1287218 4:-5.8560385 5:-0.16025613 
2048 1:-3.9365483 2:12.805427 3:5.8886336 4:2.3594506 5:-1.6054689 
-2048 1:-3.9432399 2:12.773106 3:6.1099617 4:2.256653 5:-1.6790607 
-2048 1:6.5175706 2:1.0290696 3:-0.66458083 4:2.3330664 5:5.5614463 
-2048 1:6.512497 2:1.0296364 3:-0.67882301 4:2.3118639 5:5.3875192 
-2048 1:-22.704149 2:-15.491036 3:0.49439481 4:0.90163719 5:-0.36954944 
2048 1:-5.1315496 2:6.2989026 3:-0.69117318 4:-6.6527365 5:0.81677299 
2048 1:-3.8774523 2:12.883444 3:5.4324522 4:2.7920508 5:-0.0036854361 
-2048 1:24.961488 2:-11.170532 3:1.3932631 4:-1.1160343 5:-2.2567978 
2048 1:0.3932608 2:6.5226488 3:-6.0825112 4:2.0794278 5:-2.1357697 
2048 1:-3.306608 2:7.1200435 3:4.0664973 4:2.7585785 5:1.1770074 
2048 1:-3.9732435 2:12.962606 3:5.392427 4:1.3767295 5:-1.5757177 
2048 1:-5.0498199 2:6.5196099 3:-3.0485663 4:-4.368761 5:-0.068257694 
-2048 1:24.980421 2:-11.205479 3:1.5519684 4:-0.88893263 5:-1.8177944 
2048 1:6.5156753 2:1.0308662 3:-0.68085751 4:2.3269213 5:5.4873875 
2048 1:0.40564269 2:6.5999108 3:-6.6836284 4:2.3966011 5:-2.2765782 
-2048 1:6.5035937 2:1.0339816 3:-0.67862063 4:2.2016263 5:5.2026992 
-2048 1:6.4684164 2:0.96212503 3:-0.34975392 4:2.0907436 5:4.008539 
-2048 1:-22.730792 2:-15.460864 3:0.33132615 4:0.67213649 5:-1.1110661 
2048 1:0.39767455 2:6.5938361 3:-6.6335161 4:2.3154248 5:-2.4506024 
-2048 1:24.983747 2:-11.235147 3:1.7229998 4:-0.85404692 5:-1.706929 
-2048 1:24.981038 2:-11.19143 3:1.5039483 4:-0.93977028 5:-1.7140559 
-2048 1:24.96054 2:-11.222298 3:1.7338914 4:-1.1650683 5:-2.1250018 
2048 1:0.3932608 2:6.5226488 3:-6.0825112 4:2.0794278 5:-2.1357697 
-2048 1:6.4886075 2:1.058561 3:-0.89969098 4:2.2055838 5:4.5402862 
-2048 1:-22.701684 2:-15.50806 3:0.63054727 4:0.86536495 5:-0.18158089 
2048 1:-3.9956302 2:13.349395 3:3.4221503 4:0.67974376 5:-1.6956872 
-2048 1:6.501748 2:1.037475 3:-0.68839333 4:2.1703046 5:5.1788782 
-2048 1:-22.702126 2:-15.518511 3:0.58905358 4:1.0279107 5:-0.47626994 
-2048 1:-22.693786 2:-15.498153 3:0.58569621 4:0.90308485 5:0.077280367 
2048 1:-3.306608 2:7.1200435 3:4.0664973 4:2.7585785 5:1.1770074 
-2048 1:6.4643751 2:0.99199026 3:-0.47767639 4:1.9783634 5:3.9971046 
-2048 1:24.978531 2:-11.21373 3:1.5962627 4:-0.89618196 5:-1.8796089 
-2048 1:-5.1208243 2:6.1776792 3:-0.10666013 4:-6.3529289 5:0.8686648 
2048 1:0.40001316 2:6.5953306 3:-6.6550308 4:2.3536072 5:-2.4196054 
-2048 1:6.5105928 2:1.0259898 3:-0.65640848 4:2.2964044 5:5.341099 
-2048 1:-22.723423 2:-15.465016 3:0.25960796 4:0.87867233 5:-1.1679011 
-2048 1:0.39357275 2:6.5846552 3:-6.4089547 4:2.0148253 5:-2.0738067 
2048 1:-5.1266337 2:6.4834853 3:-1.5387965 4:-7.0127528 5:1.4706747 
-2048 1:-22.704033 2:-15.481626 3:0.46377613 4:0.86209441 5:-0.29736174 
2048 1:6.5176091 2:1.0284956 3:-0.66622335 4:2.3411589 5:5.5493329 
