svm_type c_svc
kernel_type rbf
gamma 0.25
nr_class 5
total_sv 7694
rho 3.11226 -0.226058 -2.73764 2.34509 -3.46975 -3.90916 1.19481 -2.16488 3.02134 4.64249
label 0 2 3 4 1
nr_sv 1638 1639 1630 1261 1526
SV
1 1 0 1 1:1 2:0.26033929 3:0.56553977 4:0 
1 1 0 1 1:1 2:0 3:0.37058458 4:0.39024053 
1 1 0 1 1:1 2:0.2785171 3:0 4:0.21812435 
1 1 1 0 1:0.47353852 2:0.47935129 3:0.5350639 4:1 
1 1 1 1 1:0 2:0.8298192 3:0.82226547 4:0.7854416 
1 1 1 0 1:0 2:0.57634892 3:0.3568457 4:0.90370429 
1 1 0 1 1:1 2:0.37841385 3:0.41014596 4:0 
1 1 0 1 1:1 2:0.21351617 3:0.050844532 4:0.25471397 
0 1 1 0 1:0.05289348 2:0.33506009 3:0.13673332 4:0.35455329 
1 1 1 1 1:0 2:0.90987077 3:0.84937067 4:0.83287259 
1 1 1 1 1:0.33513178 2:0.60205287 3:0 4:0.72205115 
1 1 1 1 1:0 2:0.97929088 3:0.9780293 4:0.87568488 
1 1 0 1 1:1 2:0.52790474 3:0.68088262 4:0.30303903 
1 1 0 1 1:1 2:0.52539525 3:0.57740198 4:0.34919007 
1 1 1 1 1:0.23664048 2:0.47917718 3:0.4240807 4:0.097826201 
1 1 0 1 1:0.031978603 2:1 3:0 4:0.40845241 
1 1 1 1 1:0 2:0.95569913 3:0.92611293 4:0.71899725 
1 1 0 1 1:1 2:0 3:0.80562804 4:0.49175259 
1 1 0 1 1:1 2:0.37230996 3:0.55432351 4:0 
1 1 0 1 1:1 2:0.28099234 3:0.579107 4:0.46521541 
1 0 1 1 1:0 2:0.70431548 3:0.094420437 4:0.98499636 
1 1 1 0 1:0 2:0.73533221 3:0.72232377 4:0.94809095 
1 1 1 1 1:0 2:0.31739825 3:1 4:0.50703488 
1 1 1 1 1:0 2:0.81356667 3:0.96602964 4:0.68142813 
1 1 1 1 1:0 2:0.70378121 3:1 4:0.77426069 
1 1 1 1 1:0 2:0.78549074 3:0.84813301 4:0.7110682 
1 1 1 1 1:0.22807289 2:1 3:0.47730489 4:0.71645035 
1 1 0 1 1:0.78028366 2:0.64458859 3:0.48716627 4:0.093380258 
1 1 1 1 1:0 2:0.78096977 3:0.86618748 4:0.72359701 
1 1 1 1 1:0.22641148 2:0.47039273 3:0.42444792 4:0.08061038 
1 1 1 1 1:0 2:0.86494994 3:0.63517434 4:0.90993043 
1 1 1 1 1:0 2:0.96203781 3:0.98674677 4:0.88981623 
1 1 0.5829301904611945 1 1:1 2:0.16576122 3:0 4:0.64977979 
1 1 1 0 1:0 2:0.75565662 3:0.92206196 4:0.90435797 
1 1 0 1 1:0.51351112 2:1 3:0 4:0.10279096 
1 1 1 1 1:0 2:0.8381782 3:0.65694226 4:0.96743669 
0 1 0 1 1:1 2:0 3:0.3424123 4:0.31127416 
1 0 1 1 1:0 2:0.97845305 3:0.98326276 4:0.89835564 
1 1 0 1 1:1 2:0.46636028 3:0.3842719 4:0 
1 1 1 1 1:0 2:0.98691039 3:0.98254907 4:0.88404217 
1 1 1 1 1:1 2:0.35292385 3:0.45539837 4:0.46480429 
1 1 0 1 1:1 2:0.27638028 3:0.34965771 4:0.22064969 
1 1 1 1 1:0 2:0.98691039 3:0.98254907 4:0.88404217 
1 0 1 1 1:0 2:0.92941576 3:0.20815047 4:0.23820359 
1 1 0 1 1:1 2:0 3:0.82953123 4:0.52301929 
1 1 1 1 1:0 2:0.70386077 3:0.51239182 4:0.84845603 
1 0 1 1 1:0 2:0.71217923 3:0.24797837 4:0.18623928 
1 1 1 1 1:0.87517062 2:0.81836823 3:0.62278446 4:0.19481489 
1 1 0 1 1:1 2:0.32049003 3:0.59182592 4:0.52520729 
1 1 1 1 1:1 2:0.15554173 3:0.36982163 4:0.7877708 
1 1 1 1 1:0 2:0.64192377 3:0.84364073 4:0.53578756 
1 1 0 1 1:1 2:0.28830363 3:0.1384977 4:0 
1 1 1 0 1:0.6600414 2:0 3:0.91663103 4:1 
0 1 0 1 1:0.030862878 2:0.17714622 3:0.13197762 4:0 
1 1 1 0 1:0.21552526 2:0 3:0.50905911 4:1 
1 1 1 1 1:0 2:0.095017757 3:0.81407494 4:0.83858456 
1 1 0 1 1:1 2:0 3:0.69186566 4:0.42436782 
1 1 1 1 1:0 2:0.80573469 3:0.874878 4:0.74008844 
1 0 1 1 1:0 2:0.9831075 3:0.98447114 4:0.89543516 
1 1 0 1 1:0.93638936 2:0.63467296 3:0.72656142 4:0.16204658 
1 1 1 1 1:0 2:0.33963773 3:1 4:0.51708639 
1 1 1 1 1:0.018837148 2:0 3:0.74027176 4:0.44215658 
1 1 1 0 1:0 2:0.70545065 3:0.86970185 4:0.81590443 
1 1 1 1 1:0 2:0.22161981 3:0.50907651 4:1 
1 1 0 1 1:1 2:0 3:0.67948688 4:0.060308523 
1 1 0 1 1:1 2:0.041161747 3:0.070251784 4:0.055278113 
1 1 0 1 1:1 2:0.04435759 3:0 4:0.41371126 
1 1 0 1 1:1 2:0.28361737 3:0.40869316 4:0 
1 1 1 1 1:0 2:0.61256729 3:0.89093251 4:0.7738627 
1 1 0 1 1:1 2:0.70147799 3:0.53223382 4:0 
1 1 1 1 1:0.49220025 2:1 3:0.084602844 4:0.51543243 
0 1 1 1 1:0.17842967 2:0 3:0.37597131 4:0.26803444 
1 1 1 1 1:1 2:0.5268045 3:0.37150258 4:0.62218686 
1 1 0 1 1:0.78844975 2:0.64927445 3:0.49143193 4:0.096753802 
1 1 1 1 1:0 2:0.54206629 3:1 4:0.71067716 
1 1 1 0 1:0.9752511 2:0 3:0.52015335 4:0.66054606 
1 1 1 1 1:0 2:0.85355466 3:0.81811239 4:0.78758606 
0 1 0 1 1:0.81161834 2:0.081525877 3:0.009078677 4:0.37952459 
1 1 0 1 1:0.22382478 2:0.46627751 3:0.53976883 4:0 
1 1 1 0 1:0 2:0.89190514 3:0.98039381 4:0.88552466 
1 1 1 1 1:0 2:1 3:0.94292217 4:0.74396386 
1 1 1 0 1:0 2:0.70126381 3:0.64468217 4:0.93000179 
1 1 0 1 1:1 2:0.34261943 3:0.53136337 4:0.37901914 
1 1 0 1 1:1 2:0.30869311 3:0.57897244 4:0.50167152 
1 0 1 1 1:0 2:0.98795951 3:0.99718557 4:0.89723468 
1 1 1 1 1:0 2:0.74093411 3:0.30284903 4:0.65638668 
1 1 0 1 1:0.21740875 2:0.46555152 3:0.53467138 4:0 
1 1 0 1 1:0.88790232 2:0 3:0.75638815 4:0.30188013 
1 1 0 1 1:0.99905928 2:0.74245962 3:0.60687165 4:0 
1 1 1 1 1:0 2:0.897122 3:0.93771114 4:0.83384898 
1 1 1 0 1:0 2:0.83859152 3:0.87557797 4:0.85698352 
1 1 0 1 1:1 2:0.025129947 3:0 4:0.37443345 
1 1 1 1 1:0 2:0.96335825 3:0.99929918 4:0.86291746 
1 1 1 1 1:0 2:0.25188639 3:0.82422909 4:0.78130935 
1 1 1 1 1:0.46825897 2:0.28920446 3:0.72240336 4:0.45965765 
1 1 1 1 1:0.1118578 2:0.57373289 3:0.65406528 4:0 
0 1 1 1 1:0.085098703 2:0.37347746 3:0.15931685 4:0.35489314 
1 1 0 1 1:1 2:0.53441248 3:0.64729231 4:0.27850305 
1 1 1 1 1:0.8438989 2:0.63419598 3:0.59244691 4:0.61897856 
1 1 1 1 1:1 2:0.3314914 3:0.19592989 4:0.49447341 
1 1 0 1 1:1 2:0.23472519 3:0.10486415 4:0.22317856 
1 1 1 1 1:0.8920634 2:1 3:0.29444247 4:0.24858855 
1 1 1 1 1:0 2:0.96747004 3:0.95740737 4:0.89967176 
1 1 1 1 1:0.5767927 2:0.60450335 3:0 4:0.79259814 
1 1 1 1 1:0 2:0.96510842 3:1 4:0.88602535 
1 1 1 1 1:0.078237165 2:0.48056317 3:0 4:0.99648407 
1 1 1 1 1:1 2:0.53140642 3:0.46350259 4:0.65149086 
1 1 1 1 1:0.23438797 2:0.50035554 3:0.43139671 4:0.07714461 
0 1 1 0 1:0.3987814 2:0.38212673 3:0.53894436 4:0.58950703 
1 1 1 1 1:0 2:0.95835766 3:0.91938578 4:0.72038882 
1 1 1 1 1:0 2:0.058750885 3:0.86788944 4:0.33553821 
1 1 1 1 1:0.3246514 2:0.60712883 3:0 4:0.72883594 
1 1 0 1 1:1 2:0.50905477 3:0.3280529 4:0 
1 1 1 0 1:0 2:0.72561424 3:0.88490522 4:0.87899639 
1 1 0 1 1:1 2:0.57834034 3:0 4:0.51589217 
1 1 0 1 1:1 2:0.32381879 3:0.14106573 4:0 
1 1 1 0 1:0 2:0.94514938 3:0.9875359 4:0.88286283 
1 1 1 1 1:0 2:1 3:0.94457482 4:0.73574469 
1 1 0 1 1:1 2:0.27093497 3:0.14348699 4:0 
1 0 1 1 1:0 2:0.95579835 3:0.68518477 4:0.92962826 
0 1 1 0 1:0.25954143 2:0 3:0.3870329 4:0.29435365 
1 1 0 1 1:1 2:0.84386454 3:0.29297249 4:0 
1 1 1 1 1:0.11604683 2:1 3:0 4:0.90173793 
1 1 0 1 1:1 2:0.21265737 3:0.32316139 4:0.18295201 
1 1 1 1 1:0 2:0.86552152 3:0.80198403 4:0.66856953 
1 1 1 1 1:0 2:0.87223779 3:0.9799437 4:0.73475 
1 1 0 1 1:1 2:0.14598234 3:0 4:0.6284915 
1 1 0.8683888609887039 1 1:0.21540399 2:0.46665265 3:0.51385986 4:0.019647557 
1 1 0 1 1:0.92585429 2:0.54045113 3:0 4:0.25375739 
1 1 0 1 1:1 2:0 3:0.36419532 4:0.39158367 
1 0 0 1 1:0.011620171 2:1 3:0 4:0.14116905 
1 0 1 1 1:0 2:0.97845305 3:0.98326276 4:0.89835564 
1 1 1 1 1:0.29762844 2:0.26627999 3:1 4:0.38503503 
1 1 1 1 1:0.62786396 2:0.60410754 3:1 4:0.29256688 
1 1 1 1 1:0 2:0.28799356 3:0.93698043 4:0.88376015 
0 1 1 0 1:0.44358175 2:0.38511953 3:0.53803528 4:0.59519631 
1 1 0 1 1:1 2:0.028374897 3:0.87318657 4:0.80282263 
1 1 1 1 1:0 2:0.61963402 3:1 4:0.79137262 
1 1 0 1 1:1 2:0.50461577 3:0.20997888 4:0.3291338 
1 1 0 1 1:1 2:0.26126863 3:0 4:0.21646878 
1 1 1 1 1:0.1665207 2:1 3:0.90531251 4:0.29423177 
1 1 1 1 1:0 2:0.68201357 3:0.40751367 4:0.47074617 
0 1 0 1 1:1 2:0 3:0.34907624 4:0.28071853 
1 1 1 1 1:0 2:1 3:0.89324179 4:0.82306665 
1 1 0 1 1:0.73885251 2:0.24879497 3:0 4:0.065674648 
1 1 1 0 1:0.10970722 2:0.34796028 3:0.66670864 4:0.66403461 
1 1 1 1 1:0 2:0.55465965 3:0.64744151 4:1 
1 1 1 1 1:0.85788103 2:0.63672044 3:0.59326214 4:0.61617175 
1 1 1 1 1:0.62366654 2:0.43216543 3:0.51956369 4:0.41637436 
1 1 1 1 1:0 2:0.96766405 3:0.95651747 4:0.89903365 
1 1 1 1 1:0 2:0.90572706 3:0.89723647 4:0.83984048 
1 1 1 0 1:0.52172779 2:0.41264105 3:0.64473446 4:1 
1 1 0 1 1:1 2:0 3:0.38094054 4:0.52829406 
0 1 0 1 1:1 2:0 3:0.34775204 4:0.29452314 
1 1 1 1 1:0.17207293 2:0.92618296 3:0 4:0.94261585 
1 1 1 0 1:0.14480841 2:0 3:0.58794633 4:0.68916781 
1 1 1 0 1:0.10971644 2:0.34777465 3:0.66655747 4:0.66408495 
1 1 1 1 1:0 2:1 3:0.63850673 4:0.79724062 
1 1 1 1 1:0.14185787 2:0.45702101 3:0.31600395 4:0.20112435 
1 1 1 1 1:0 2:0.80610051 3:0.7315391 4:0.7384998 
1 0 1 1 1:0 2:0.956783 3:0.68669958 4:0.92925057 
1 1 1 1 1:0 2:0.42153953 3:0.9773895 4:0.79572462 
1 1 0 1 1:0.99756677 2:0.76281489 3:0.52828964 4:0 
1 1 0 1 1:1 2:0.62627248 3:0.68589993 4:0 
1 1 1 1 1:0.023383309 2:0.52836837 3:0.023610252 4:0.95542367 
1 1 1 1 1:0.20762724 2:0.47355187 3:0.51354939 4:0.024547744 
1 0 1 1 1:0 2:0.98841908 3:0.99384999 4:0.89637136 
1 1 0 1 1:1 2:0.21948827 3:0 4:0.14008347 
1 1 1 1 1:1 2:0.3583684 3:0.17904514 4:0.54851512 
1 1 0 1 1:1 2:0.32972143 3:0.58963478 4:0.51605389 
1 1 0 1 1:0.87160845 2:0.81618354 3:0.74418286 4:0 
1 1 1 1 1:0 2:0.88838802 3:1 4:0.79710345 
1 1 1 1 1:1 2:0.52648121 3:0 4:0.8934871 
1 1 1 1 1:0 2:0.81941841 3:0.76274227 4:0.69475446 
1 1 0 1 1:0.53314468 2:1 3:0.059111283 4:0.12858571 
1 1 1 1 1:0 2:1 3:0.89436446 4:0.651161 
1 1 1 0 1:0 2:0.82647553 3:0.87575201 4:0.92375366 
1 1 0 1 1:1 2:0.17326698 3:0 4:0.14915661 
1 1 1 1 1:0 2:0.66417514 3:0.27881923 4:1 
1 1 1 1 1:1 2:0.893024 3:0.50988443 4:0.15477499 
1 1 0 1 1:1 2:0.23993735 3:0.26633231 4:0.23094688 
1 1 1 1 1:0.44336802 2:0.74144254 3:0.54312595 4:0 
1 1 1 1 1:0 2:0.76263367 3:0.98199314 4:0.82660824 
1 1 0 1 1:1 2:0.1793863 3:0 4:0.13858936 
1 1 1 0 1:0 2:0.73954922 3:0.92689374 4:0.84379181 
1 1 0 1 1:1 2:0.4582097 3:0.70857835 4:0.48324338 
0 1 1 0 1:0.066026942 2:0.37446915 3:0.16331931 4:0.38196393 
1 1 1 0 1:0 2:0.7394946 3:0.92688345 4:0.84379752 
1 1 0 1 1:1 2:0.087068098 3:0.058420998 4:0.41673641 
1 1 1 0 1:0.16410069 2:0.30943579 3:0 4:0.95398495 
1 1 0 1 1:1 2:0.17093654 3:0.2928922 4:0.21665184 
1 1 1 1 1:0 2:0.96747735 3:0.9574076 4:0.89968295 
1 1 1 0 1:0 2:0.70251344 3:0.63985007 4:0.93395966 
1 1 1 1 1:0 2:0.60417553 3:0.8944885 4:0.77335283 
1 1 1 0 1:0 2:0.82700271 3:0.97879629 4:0.89328132 
1 1 1 0 1:0 2:0.68053127 3:0.57471395 4:0.77516074 
1 1 1 1 1:0.81470512 2:0.49117468 3:0.98927377 4:0.66509968 
1 1 1 1 1:0 2:0.97211744 3:0.9861314 4:0.88994662 
1 1 1 1 1:1 2:0.48416524 3:0.7316138 4:0.54459855 
1 1 0 1 1:1 2:0.078491796 3:0.88901539 4:0.79143716 
1 1 1 1 1:0 2:0.85309422 3:0.82383982 4:0.85876989 
1 1 1 1 1:0.34936345 2:0 3:0.98677142 4:0.47353818 
1 1 1 0 1:0 2:0.8776061 3:1 4:0.87901177 
1 1 0 1 1:0.7769601 2:0.50070994 3:0.34695994 4:0 
1 1 1 0 1:0 2:0.78792563 3:0.97810462 4:0.86163535 
1 1 0 1 1:1 2:0 3:0.56646435 4:0.31318191 
1 1 1 1 1:0 2:0.98691039 3:0.98254907 4:0.88404217 
1 1 0 1 1:1 2:0.61914486 3:0.68538538 4:0 
1 1 1 1 1:0 2:0.87054952 3:0.95453344 4:0.73575933 
1 1 0 1 1:1 2:0.50076278 3:0.1037147 4:0.280682 
1 1 1 1 1:0.62472244 2:0.43866134 3:0.54092048 4:0.41738092 
1 1 1 1 1:0 2:0.82606811 3:0.96073268 4:0.33446023 
1 1 1 1 1:0.49701791 2:0.4559427 3:0.47148115 4:0.63009505 
1 1 1 1 1:0 2:0.79036289 3:0.75361544 4:0.74338728 
1 1 1 0 1:0 2:0.94179473 3:0.97492939 4:0.89400411 
1 1 1 1 1:0 2:0.86835617 3:0.78436588 4:0.89192047 
1 1 1 1 1:0 2:0.94811259 3:0.91132038 4:0.89237827 
1 0.7552936603224383 1 1 1:0 2:0.93928912 3:0.18886889 4:0.5419879 
1 1 1 1 1:0.17659535 2:0.80272676 3:0.53080829 4:0 
1 1 0 1 1:1 2:0.53277465 3:0.6724113 4:0.2813008 
1 1 0 1 1:1 2:0.1718788 3:0 4:0.64623372 
1 1 1 1 1:0 2:0.91598836 3:1 4:0.68465058 
1 1 1 0 1:0.2083162 2:0 3:0.470048 4:1 
1 1 1 1 1:0 2:0.5804159 3:0.4013432 4:0.5714987 
1 1 1 1 1:0 2:1 3:0.83201953 4:0.42667177 
1 1 1 1 1:0 2:0.71711079 3:0.46743556 4:0.74006016 
1 1 1 1 1:0.69223294 2:0.48634796 3:0.562731 4:1 
1 1 0 1 1:1 2:0.36009356 3:0.41445743 4:0 
1 1 0 1 1:1 2:0 3:0.43745314 4:0.12664521 
1 1 1 1 1:0.24409621 2:0.48456558 3:0.43382633 4:0.088219674 
1 1 1 0 1:0.96060723 2:0 3:0.51321207 4:0.66260564 
1 1 1 1 1:1 2:0.87208745 3:0.52255385 4:0.10043985 
1 1 1 1 1:0 2:0.41051262 3:0.93028201 4:0.88420579 
1 1 1 1 1:0 2:0.96751552 3:0.86326818 4:0.81429337 
1 1 1 1 1:0 2:1 3:0.5951493 4:0.13233229 
1 1 0 1 1:1 2:0.24762364 3:0 4:0.23579865 
1 1 0 1 1:0.98901469 2:0.58832133 3:0.41212376 4:0 
1 1 1 1 1:0 2:0.82913146 3:0.95281164 4:0.35648759 
1 1 0 1 1:1 2:0 3:0.36409447 4:0.10819277 
1 1 1 1 1:0 2:1 3:0.28412966 4:0.67324496 
1 1 1 1 1:0 2:0.9474767 3:0.90054176 4:0.87430995 
0 1 1 0.5254528599050183 1:0.2429313 2:0 3:0.39879143 4:0.29883564 
1 1 1 1 1:0.20615209 2:0.46735212 3:0.51130584 4:0.01877313 
1 1 0 1 1:1 2:0.18024638 3:0.095863374 4:0.3175056 
1 1 1 0 1:0 2:0.72356762 3:0.92208614 4:0.87626717 
1 1 1 1 1:0 2:0.86136599 3:0.94796476 4:0.73438535 
1 1 1 1 1:0 2:0.63234935 3:1 4:0.79296556 
1 1 0 1 1:1 2:0 3:0.36975008 4:0.51626335 
1 1 1 1 1:0.49040921 2:0.21140874 3:0.72149737 4:0.31187207 
1 1 1 1 1:0 2:0.97471327 3:0.9043909 4:0.7902676 
1 1 1 1 1:0.79706243 2:0.49897781 3:0.99322158 4:0.6646289 
1 1 0 1 1:1 2:0 3:0.80972275 4:0.58705646 
1 1 1 1 1:0.75687528 2:0.67255165 3:0 4:1 
1 1 1 0 1:0 2:0.73329167 3:0.88825084 4:0.81590936 
1 1 1 0 1:0 2:0.48429205 3:0.60499465 4:0.8009461 
1 1 0 1 1:1 2:0.44551941 3:0 4:0.056944567 
0 1 0 1 1:0.73795391 2:0.058392242 3:0.4211058 4:0.35854272 
1 1 1 0 1:0.5600607 2:0.40381952 3:0.58430152 4:1 
1 0 1 1 1:0 2:0.98389463 3:0.96266232 4:0.90609411 
1 1 1 0 1:0 2:0.83574553 3:0.87314238 4:0.84773386 
1 1 1 1 1:0 2:0.97732871 3:0.96788266 4:0.83606481 
1 1 1 1 1:0 2:0.86458563 3:0.80148314 4:0.69461715 
1 1 1 1 1:0 2:0.96652178 3:0.99606913 4:0.86482597 
1 1 1 1 1:0 2:0.73479515 3:1 4:0.81399944 
1 1 1 1 1:0.20478385 2:0.45748154 3:0.51230846 4:0.030622717 
1 1 1 0 1:0 2:0.70363302 3:0.63480566 4:0.93626978 
1 1 1 1 1:1 2:0.27920594 3:0.64563067 4:0.85265211 
1 0.08915654671745907 1 1 1:0 2:0.99094946 3:0.45005888 4:0.88366756 
1 1 0 1 1:1 2:0.23220677 3:0 4:0.19720293 
1 1 0 1 1:1 2:0 3:0.45813001 4:0.14697746 
1 1 0 1 1:0.76661427 2:0.93855169 3:1 4:0 
1 1 1 0 1:0 2:0.90614386 3:1 4:0.883735 
1 0 1 1 1:0 2:1 3:0.73992618 4:0.90906875 
1 1 1 0.514446714624177 1:0 2:0.71261706 3:0.64266933 4:0.93718169 
1 1 1 1 1:0 2:0.80416435 3:0.84722799 4:0.68262236 
1 1 0 1 1:1 2:0 3:0.81161815 4:0.088539642 
1 1 0 1 1:1 2:0.27065248 3:0.15991587 4:0 
1 1 1 1 1:0 2:0.93384281 3:0.98326876 4:0.83438187 
1 1 1 1 1:0 2:0.96503896 3:1 4:0.88152005 
1 1 1 0 1:1 2:0 3:0.37957141 4:0.66999586 
1 1 1 1 1:0 2:0.85542908 3:0.82560256 4:0.81728475 
1 1 1 1 1:0.90679481 2:0.67857731 3:0.68609187 4:1 
1 1 1 1 1:0.35301435 2:0.29942773 3:1 4:0.36929464 
1 0.3649182002486124 0 1 1:0.028803756 2:1 3:0 4:0.12017847 
1 1 1 0 1:0 2:0.96251108 3:0.98816832 4:0.89085107 
1 1 1 1 1:0 2:0.55621861 3:1 4:0.78286083 
1 1 1 1 1:0 2:0.80697192 3:0.68996237 4:0.71177192 
1 1 1 1 1:0 2:0.89243936 3:0.98002917 4:0.76261648 
1 1 0 1 1:1 2:0.35601813 3:0.52341172 4:0.39186621 
1 1 1 1 1:0.1592624 2:0.76950113 3:0.63155836 4:0.79166381 
1 1 0 1 1:1 2:0.73108957 3:0.50588301 4:0 
1 1 1 1 1:0.047645328 2:0.53812273 3:0.020276817 4:0.95073031 
0.1743757516979239 1 1 1 1:0.14536204 2:0.43671481 3:0.32529628 4:0.21084265 
0 1 1 0 1:0.33085987 2:0.2538023 3:0.31626531 4:0.71366191 
1 1 1 1 1:0.41492521 2:1 3:0.63513842 4:0.55249383 
1 1 0 1 1:1 2:0.48381168 3:0.29151821 4:0.06995619 
1 1 0 1 1:1 2:0.57446045 3:0.37150346 4:0 
1 1 0 0 1:1 2:0 3:0.53021636 4:0.59054053 
1 1 1 1 1:0 2:0.96747735 3:0.9574076 4:0.89968295 
1 1 1 0 1:0 2:0.57525753 3:0.40384036 4:0.78018618 
1 1 1 1 1:1 2:0.95764759 3:0.41054833 4:0.093982639 
1 1 1 1 1:0 2:0.93316699 3:0.97071289 4:0.63786181 
1 0 1 1 1:0 2:0.98758917 3:0.98842834 4:0.89410711 
1 1 1 0 1:0 2:0.83317384 3:0.868744 4:0.84925233 
1 1 1 1 1:0 2:0.94738785 3:0.90042603 4:0.87436885 
1 1 1 1 1:0 2:0.93757028 3:0.88253112 4:0.82651085 
1 1 1 1 1:0 2:0.60937852 3:0.897349 4:0.77573198 
1 1 1 1 1:0 2:0.89760142 3:0.96559388 4:0.77453003 
1 1 0 1 1:1 2:0.15485495 3:0.28652921 4:0.028135144 
1 1 1 1 1:0 2:0.46057737 3:0.69170636 4:1 
1 1 0 1 1:0.60111342 2:1 3:0.11611865 4:0.12021717 
0 1 1 0 1:0.17535804 2:0.11148408 3:0.12223903 4:0.89189238 
1 0 1 1 1:0 2:0.68975303 3:0.18489438 4:1 
1 1 1 1 1:0 2:0.90664163 3:0.93501352 4:0.82937063 
1 1 1 0 1:0 2:0.77132778 3:0.92695437 4:0.87246856 
1 1 1 1 1:0 2:1 3:0.82645587 4:0.76146123 
1 1 0 1 1:1 2:0 3:0.38193634 4:0.19339247 
1 1 1 1 1:0.33651441 2:0.58946195 3:0 4:0.71277898 
1 1 0 1 1:1 2:0.15539886 3:0 4:0.64674456 
1 1 1 1 1:0.23203153 2:0.87328817 3:0.44964682 4:0 
1 1 1 0 1:0.20410936 2:0 3:0.61485653 4:0.71494735 
1 0 1 1 1:0 2:0.97219523 3:0.87952664 4:0.91367348 
1 1 1 1 1:0 2:0.7755108 3:0.83460658 4:0.62592961 
1 1 1 0 1:0 2:0.96324313 3:0.9838822 4:0.89781757 
1 1 1 1 1:0 2:0.86343 3:0.77882176 4:0.89264916 
0 1 1 0 1:0 2:0.3843699 3:0.2252724 4:0.8187898 
1 1 0 1 1:1 2:0.77000268 3:0.81035251 4:0 
1 1 0 1 1:1 2:0.2684923 3:0.45826095 4:0 
1 1 1 1 1:0.77827667 2:0.67248463 3:0 4:1 
1 1 1 1 1:0 2:0.18684725 3:1 4:0.77440419 
1 1 1 0 1:0 2:0.96251108 3:0.98816832 4:0.89085107 
1 1 1 1 1:0 2:0.75896099 3:0.83787887 4:0.74180645 
1 1 1 1 1:0.69325039 2:0.48333138 3:0.57307169 4:1 
0 1 1 0 1:0.111361 2:0 3:0.51625273 4:0.7552366 
1 1 1 1 1:0.028178178 2:0 3:0.74496385 4:0.44824212 
1 1 1 0 1:0 2:0.75367238 3:0.89915895 4:0.83968051 
1 1 1 1 1:0 2:0.88498114 3:0.95763801 4:0.82368277 
1 1 1 1 1:0 2:0.39429311 3:0.80004538 4:0.87991563 
1 1 1 1 1:0 2:0.48351069 3:1 4:0.61188026 
1 1 1 0 1:0 2:0.8041988 3:0.87699815 4:0.85015001 
1 1 1 0 1:0.96686176 2:0 3:0.5259496 4:0.65127354 
1 1 1 1 1:0.52471997 2:0.4538234 3:0.062040419 4:0.74797643 
1 1 1 1 1:0 2:0.9420209 3:0.65281353 4:0.85930808 
1 1 1 1 1:0.21913037 2:0.98895446 3:0.46450775 4:0.69452146 
0 1 1 0 1:0 2:0.37636969 3:0.19153248 4:0.81174783 
1 1 1 1 1:0 2:0.79424598 3:0.98115372 4:0.80525019 
1 1 1 1 1:0.20690558 2:0.69125628 3:0 4:1 
1 1 1 0 1:0 2:0.90137599 3:0.96612289 4:0.87845283 
0 1 1 0 1:0.22515441 2:0.10385509 3:0.12902274 4:0.91584252 
1 1 1 1 1:0 2:0.73618357 3:0.88282568 4:0.75380847 
1 1 0 1 1:1 2:0.31427763 3:0.58748409 4:0.525686 
1 1 0 1 1:1 2:0.12101104 3:0 4:0.44996375 
1 1 0 1 1:0.72871866 2:0.83708223 3:0 4:0.30651996 
1 1 1 1 1:0.84165147 2:0.6382942 3:0.59287111 4:0.61785297 
1 1 1 0 1:0.91521897 2:0 3:0.54382571 4:0.71139458 
1 1 1 1 1:0 2:1 3:0.28359307 4:0.67309893 
1 1 0 1 1:1 2:0.58737698 3:0.67357995 4:0.29739568 
1 1 1 1 1:0 2:0.82137882 3:0.95768867 4:0.38415262 
1 0 1 1 1:0 2:0.9154609 3:0.16668078 4:1 
1 1 0 1 1:1 2:0.30793316 3:0.34572075 4:0 
1 1 1 0 1:0 2:0.89901813 3:0.97491533 4:0.86638735 
0 1 0 1 1:0.70081051 2:0.16902204 3:0 4:0.36667431 
1 1 1 0 1:0 2:0.76100633 3:0.92562944 4:0.87423942 
1 1 1 1 1:0.23486414 2:0.46923323 3:0.4329187 4:0.083634868 
1 1 0 1 1:1 2:0.19063741 3:0 4:0.35741958 
1 1 1 1 1:0.69022805 2:0.73496223 3:0.92476995 4:0.86595579 
1 1 1 1 1:0 2:0.83590203 3:0.9042097 4:0.70478615 
1 1 1 1 1:0 2:0.56062807 3:0.66389021 4:1 
1 1 1 1 1:0.019059494 2:0.1474911 3:0.9275156 4:0.77411698 
1 1 1 1 1:0.15047791 2:0.76559007 3:0.64433987 4:0.7955979 
1 0 0 1 1:0 2:0.70797795 3:0.20693317 4:0.16734498 
1 1 1 1 1:0 2:0.65937273 3:1 4:0.58727399 
1 1 1 1 1:0 2:0.96711043 3:0.95740394 4:0.89915061 
1 1 1 1 1:0.36603067 2:1 3:0.60887217 4:0.55715593 
1 1 1 1 1:0.82920571 2:0.64640862 3:0.60364355 4:0.62374865 
1 1 1 0 1:0 2:0.58628403 3:0.37226562 4:0.90530724 
1 1 1 0 1:0 2:0.74555496 3:0.90609674 4:0.87735654 
1 0 0 1 1:0 2:0.71404983 3:0.21759046 4:0.17727278 
1 1 1 1 1:0 2:0.81721261 3:0.82381679 4:0.69397671 
1 1 1 1 1:0 2:1 3:0.63423695 4:0.52122048 
1 1 1 1 1:1 2:0.32236823 3:0.19550272 4:0.49598713 
1 1 1 1 1:0.78306566 2:0.66397424 3:0 4:1 
1 1 1 1 1:0 2:0.96839378 3:0.81758378 4:0.91202681 
1 1 1 1 1:1 2:0.37312841 3:0.20859793 4:0.49637569 
1 1 0 1 1:0.22227156 2:0.46898339 3:0.3927986 4:0.055269561 
1 1 1 0 1:0 2:0.74818168 3:0.91636773 4:0.90762516 
1 1 1 1 1:0.5218564 2:0.69214163 3:0.73966734 4:0.92594408 
1 1 1 1 1:0 2:1 3:0.78369948 4:0.87021826 
1 1 1 1 1:0 2:0.77850219 3:0.86209993 4:0.75457377 
1 1 1 1 1:0.69265397 2:0.47862275 3:0.55846336 4:1 
1 1 0 1 1:1 2:0.89357755 3:0.40511594 4:0 
1 1 1 1 1:0.092557791 2:0.75080826 3:0 4:0.92560179 
1 1 1 1 1:0 2:0.86962522 3:0.88238227 4:0.75776356 
1 0 1 1 1:0 2:0.95905026 3:0.68706767 4:0.92898043 
1 1 1 0 1:0 2:0.91669143 3:0.92319874 4:0.89195568 
1 1 1 1 1:0 2:0.97693935 3:0.97773461 4:0.87001357 
1 1 1 1 1:0 2:0.94517023 3:0.87682628 4:0.64819949 
1 1 1 1 1:0.19897383 2:0.47780113 3:0.49873762 4:0.018288978 
1 1 0 0 1:1 2:0 3:0.43250365 4:0.56841685 
0 0 0 1 1:0.019171143 2:0.15338592 3:0.089879747 4:0 
1 1 0 1 1:1 2:0 3:0.34781303 4:0.37953787 
1 1 0 1 1:1 2:0 3:0.16207413 4:0.13699898 
0 1 0 1 1:0.99993169 2:0 3:0.30151016 4:0.10605226 
1 1 1 1 1:1 2:0.15229571 3:0.37010572 4:0.78052975 
1 1 0 1 1:0.77648701 2:0.041340855 3:1 4:0 
1 1 1 1 1:0.24124385 2:0.49201746 3:0.42843063 4:0.070919006 
1 1 1 1 1:0 2:0.85034003 3:0.86052581 4:0.65184903 
1 1 1 1 1:0 2:0.98691039 3:0.98254907 4:0.88404217 
1 1 1 1 1:1 2:0.1029218 3:0 4:0.67462822 
1 1 1 0 1:0 2:0.79735549 3:0.8794442 4:0.84520406 
1 1 1 0 1:0.28388392 2:0.41857431 3:0.62011355 4:0.7345947 
0.1862940107504859 1 0 1 1:0.82358527 2:0.081347938 3:0.018219843 4:0.38174922 
1 1 0 1 1:1 2:0 3:0.35233693 4:0.38930234 
1 1 1 0 1:0 2:0.96660092 3:0.9766047 4:0.91140075 
1 1 0 1 1:1 2:0.14474579 3:0.39737229 4:0.18575271 
1 0 1 1 1:0 2:0.98449932 3:0.98824259 4:0.89576069 
1 1 0 1 1:1 2:0.48060906 3:0.70641694 4:0.4852548 
1 1 1 1 1:0 2:0.88291332 3:0.93219413 4:0.82307484 
1 1 1 1 1:0.36531898 2:0.28660244 3:1 4:0.36818578 
1 0 1 1 1:0 2:0.9831075 3:0.98447114 4:0.89543516 
1 1 1 0 1:0.45496496 2:0.35694344 3:0.60720614 4:1 
1 1 1 1 1:0 2:0.90711403 3:0.85258121 4:0.80886588 
1 1 1 1 1:0 2:0.94862791 3:0.90184531 4:0.87479065 
1 1 0 1 1:1 2:0.69189637 3:0.47938488 4:0 
1 1 1 0.5654998787833277 1:0.6727135 2:0 3:1 4:0.9422746 
1 1 1 1 1:0 2:0.93688484 3:0.88691214 4:0.93883188 
1 1 1 1 1:0 2:0.85958954 3:0.84156963 4:0.8647741 
1 1 1 1 1:0 2:0.59980906 3:0.88960386 4:0.77061653 
1 1 1 1 1:0.62338711 2:0.43819637 3:0.52043192 4:0.41613077 
1 0 1 1 1:0 2:0.99830751 3:0.95119104 4:0.92779061 
1 1 0 1 1:1 2:0.05373709 3:0.1240591 4:0.076522581 
1 1 1 0 1:0 2:0.74551454 3:0.90773281 4:0.87818729 
1 1 0 1 1:1 2:0.53572178 3:0 4:0.054497884 
1 1 1 1 1:0.53906303 2:1 3:0.46460846 4:0.29510571 
1 1 1 1 1:0 2:0.33960575 3:1 4:0.5169581 
1 1 1 1 1:0.18049085 2:1 3:0.97440335 4:0.28845398 
1 1 1 1 1:0 2:0.93572729 3:0.98128793 4:0.83922562 
1 1 0 1 1:1 2:0.26265013 3:0 4:0.42207209 
1 1 0 1 1:0.98717874 2:0.65316338 3:0.56677106 4:0 
1 1 1 1 1:0.84241747 2:0.63973848 3:0.59920883 4:0.62295371 
1 1 0 0 1:1 2:0 3:0.3934952 4:0.55347456 
1 0 1 1 1:0 2:1 3:0.40327949 4:0.89551203 
1 1 0 1 1:1 2:0 3:0.40713239 4:0.051446645 
1 0 1 1 1:0 2:0.98450307 3:0.98832973 4:0.89581617 
1 1 0 1 1:1 2:0.35171011 3:0.31432878 4:0 
0 1 1 0 1:0.46161769 2:0.35327871 3:0.34651983 4:0.88900592 
1 1 1 1 1:0 2:1 3:0.87273254 4:0.80807947 
1 1 1 1 1:0 2:1 3:0.94040915 4:0.74471345 
1 1 1 1 1:1 2:0.64196276 3:0.67020826 4:0.93832419 
1 1 1 1 1:0 2:0.72302807 3:0.98359034 4:0.75172247 
1 1 1 1 1:0 2:0.9658224 3:0.99958371 4:0.86992246 
1 1 1 1 1:0 2:0.89561068 3:0.8445308 4:0.92917514 
1 1 1 1 1:0.34772441 2:1 3:0.66629646 4:0.56355926 
1 1 1 1 1:0 2:0.82441932 3:0.76803738 4:0.69828121 
1 1 1 1 1:0 2:0.59654921 3:0.89140947 4:0.77039874 
1 1 1 0 1:0 2:0.81181126 3:0.88675292 4:0.85782279 
1 1 0 1 1:1 2:0.32507812 3:0.027537569 4:0.19334246 
1 1 0 1 1:1 2:0.21737574 3:0.27390559 4:0.16571901 
1 1 0 1 1:1 2:0 3:0.1567869 4:0.10029302 
1 1 0 1 1:1 2:0.26379527 3:0.1423462 4:0 
1 0 1 1 1:0 2:0.97845305 3:0.98326276 4:0.89835564 
1 1 1 1 1:0 2:0.27214775 3:0.57045537 4:0.98133615 
1 1 1 1 1:0 2:0.55637531 3:0.64690699 4:1 
1 0 1 1 1:0 2:0.95909332 3:0.68703165 4:0.92790613 
1 1 0 1 1:1 2:0.70112923 3:0.55684888 4:0 
1 1 1 1 1:0 2:0.64157561 3:0.83853991 4:0.54144709 
1 1 1 1 1:0 2:0.88224118 3:1 4:0.85184185 
1 1 1 1 1:0.56693959 2:0.83328822 3:1 4:0.45092858 
1 1 0 1 1:1 2:0.097803919 3:0.037748953 4:0.42963959 
1 1 0 1 1:0.89635319 2:0 3:0.5786045 4:0.38570524 
1 0 1 0 1:0 2:0.96972717 3:0.98856271 4:0.91099034 
1 1 1 1 1:0 2:0.11999631 3:0.82062839 4:0.84290476 
1 1 1 1 1:0 2:0.10339779 3:0.81471541 4:0.8434525 
1 1 1 1 1:0 2:0.93986878 3:0.76771163 4:0.71496135 
0 1 1 1 1:0.072208519 2:0.37286106 3:0.17391544 4:0.35996612 
1 1 1 1 1:0 2:0.93552081 3:0.98148668 4:0.83795758 
1 1 1 1 1:0.12793295 2:0.61736063 3:0.39428262 4:1 
1 1 1 1 1:0 2:0.98133978 3:0.20308071 4:0.5895956 
1 1 1 1 1:0 2:0.89054448 3:0.82064455 4:0.74140612 
1 1 1 1 1:0.61115122 2:0.96292454 3:1 4:0.49953308 
1 1 1 0 1:0 2:0.71779806 3:0.80552236 4:0.92353793 
1 1 1 1 1:0 2:0.79818886 3:1 4:0.84315377 
1 1 1 1 1:0 2:1 3:0.91543532 4:0.8721965 
1 1 0 1 1:1 2:0.2814755 3:0.42502298 4:0 
1 1 1 1 1:0 2:0.81951179 3:0.75952719 4:0.68870376 
1 1 1 0 1:0 2:0.9414756 3:0.9749355 4:0.89424739 
1 1 0 1 1:1 2:0.26785247 3:0.15847967 4:0 
0.09003301451218904 1 1 1 1:0 2:0.25446121 3:0.50029896 4:0.96993812 
1 1 0 1 1:1 2:0.2809861 3:0.37458001 4:0.27514255 
1 1 1 1 1:0 2:0.55730549 3:0.65219213 4:1 
1 1 1 1 1:0.62928526 2:0.57700482 3:1 4:0.2714881 
1 1 0 1 1:0.85485328 2:0.5246459 3:0 4:0.41396938 
1 1 0 1 1:0.69262753 2:0.81955065 3:0 4:0.31479126 
1 1 0 1 1:1 2:0.23169648 3:0 4:0.18560388 
1 1 1 1 1:0 2:0.88713881 3:0.95310127 4:0.82940444 
1 1 1 1 1:0 2:0.88130068 3:0.62432201 4:0.85318552 
1 0 1 1 1:0 2:0.97219523 3:0.87952664 4:0.91367348 
1 1 1 1 1:0.84636381 2:0.62204484 3:0.58907389 4:0.60870639 
1 1 0 1 1:1 2:0.13317879 3:0.22468205 4:0.0051524652 
1 1 0 1 1:1 2:0.42948277 3:0.25688526 4:0.37749416 
1 1 1 1 1:0 2:1 3:0.94070968 4:0.67141206 
1 1 1 1 1:1 2:0.18480354 3:0.56359895 4:0.65828213 
1 1 0 1 1:1 2:0.46341468 3:0 4:0.18693738 
1 1 1 0 1:0.18797548 2:0 3:0.46092745 4:1 
1 0 1 1 1:0 2:0.97845305 3:0.98326276 4:0.89835564 
1 1 0 1 1:1 2:0.53148432 3:0.55355323 4:0.3617951 
1 1 0 1 1:1 2:0.096904496 3:0.23785656 4:0 
1 1 1 1 1:0.28665965 2:0.25838214 3:1 4:0.38351497 
1 1 1 1 1:0 2:0.11597936 3:0.80782455 4:0.83471338 
1 0 1 1 1:0 2:0.97845305 3:0.98326276 4:0.89835564 
1 1 1 0 1:0.97261201 2:0 3:0.52074515 4:0.66017408 
1 1 1 1 1:0.34244544 2:0.59984143 3:0 4:0.71204611 
1 1 1 0 1:0 2:0.75297063 3:0.91758378 4:0.91003501 
1 1 1 1 1:0.3681336 2:0.28802397 3:1 4:0.36447623 
1 1 1 1 1:0.33607438 2:0.59465465 3:0 4:0.71251922 
1 1 1 1 1:1 2:0.38489987 3:0.22941371 4:0.56915181 
1 1 0 1 1:1 2:0.62009561 3:0.30594429 4:0 
1 1 1 1 1:0 2:0.98651894 3:0.98253584 4:0.88323001 
1 1 1 1 1:0 2:0.97615768 3:0.9320288 4:0.74508087 
1 1 1 1 1:0 2:0.70632013 3:1 4:0.77424186 
1 1 1 1 1:0.3856238 2:0.53793783 3:0 4:1 
1 1 0 1 1:1 2:0.35221078 3:0.0089202653 4:0 
1 1 0 1 1:1 2:0.23739205 3:0.062904558 4:0.24117552 
1 1 1 1 1:0 2:0.92941333 3:0.878084 4:0.78798997 
1 1 1 1 1:0 2:0.85582092 3:0.78955098 4:0.6828703 
1 0 1 1 1:0 2:0.99287487 3:0.95177063 4:0.91782161 
1 1 1 0 1:0 2:0.87621744 3:1 4:0.87937936 
1 1 0 1 1:1 2:0.66384277 3:0.21395419 4:0.24749072 
1 1 1 1 1:0 2:0.28045751 3:0.83255282 4:0.78575819 
1 1 1 1 1:0 2:0.65892853 3:1 4:0.58734935 
1 1 1 1 1:0.50940229 2:0.44165288 3:0.4633032 4:0.62937948 
1 1 1 1 1:0 2:0.95513843 3:0.68548183 4:0.92772048 
1 1 1 1 1:0.7003202 2:0.48309671 3:0.56455606 4:1 
1 1 1 1 1:0.68314612 2:0.4728857 3:0.57227752 4:1 
1 1 0 1 1:1 2:0.15583568 3:0.39436389 4:0.1684758 
1 1 0 1 1:0.046470703 2:1 3:0 4:0.39821574 
0 1 1 0 1:0.1954037 2:0.23852433 3:0 4:0.93650937 
1 1 1 1 1:0 2:1 3:0.82476855 4:0.25575339 
1 1 0 1 1:1 2:0.32721392 3:0.5503156 4:0.36273785 
1 1 0 1 1:1 2:0.5303082 3:0.32736837 4:0.0016563042 
1 1 1 1 1:0 2:0.98691039 3:0.98254907 4:0.88404217 
0 1 1 1 1:0.08010982 2:0.36845463 3:0.14998313 4:0.35188145 
1 1 0 1 1:1 2:0.085223557 3:0.21784548 4:0.30777991 
1 1 1 1 1:0 2:0.96723032 3:0.82976124 4:0.90372603 
1 1 0 1 1:1 2:0.22865705 3:0 4:0.22040592 
1 1 1 1 1:0 2:0.77296798 3:0.68291191 4:0.70475369 
1 1 0 1 1:1 2:0.91015173 3:0.65381696 4:0 
1 1 1 1 1:1 2:0.15409199 3:0.36751715 4:0.78252212 
1 1 1 1 1:0.4760683 2:0.28018344 3:0.70637501 4:0.45832993 
1 1 0 1 1:1 2:0 3:0.40197748 4:0.52576262 
1 1 0 1 1:1 2:0.17404613 3:0 4:0.29945465 
1 1 1 1 1:0 2:1 3:0.29741844 4:0.68120951 
1 1 0 1 1:1 2:0.24408583 3:0.38830965 4:0.21777762 
1 0 1 1 1:0 2:0.98465538 3:0.99283133 4:0.8954 
1 1 1 1 1:0 2:0.71150877 3:1 4:0.77910415 
1 1 0 1 1:1 2:0.25953679 3:0.17769319 4:0 
1 1 1 1 1:0 2:0.65869711 3:0.38885698 4:0.51766073 
1 1 1 0 1:0 2:0.88215691 3:1 4:0.88060996 
1 1 0 1 1:1 2:0.49846837 3:0.60608959 4:0.35827165 
1 1 1 1 1:0 2:0.93246482 3:0.98168296 4:0.83396114 
1 1 1 0 1:0 2:0.79619756 3:0.89124768 4:0.84791855 
1 1 1 1 1:0 2:0.95964358 3:0.904789 4:0.82979648 
1 1 1 1 1:0.22129684 2:1 3:0.47300124 4:0.71812183 
1 1 0 1 1:1 2:0.15460174 3:0.38698232 4:0.17664575 
1 1 0 1 1:1 2:0.18484601 3:0 4:0.14452672 
1 0 0 1 1:0 2:1 3:0.019984054 4:0.17558047 
1 1 1 1 1:0 2:0.73147333 3:0.49483185 4:0.74940282 
1 1 0.2171558103753766 1 1:1 2:0.53167523 3:0.72580045 4:0.4705636 
1 1 0 1 1:1 2:0 3:0.35031175 4:0.35984261 
1 1 1 1 1:0.22250638 2:1 3:0.46770573 4:0.71000365 
1 1 1 0 1:0 2:0.96483222 3:0.98531412 4:0.89881531 
1 1 1 1 1:0 2:0.93314182 3:0.98083556 4:0.83694102 
1 1 1 1 1:0 2:0.97929088 3:0.9780293 4:0.87568488 
1 1 1 1 1:0 2:0.87897976 3:0.82260336 4:0.71306692 
1 1 1 1 1:0 2:0.97929088 3:0.9780293 4:0.87568488 
0 1 1 1 1:0.1428915 2:0.4412838 3:0.29288408 4:0.20162707 
1 1 1 1 1:0 2:0.72386223 3:0.77920072 4:0.73330059 
1 1 0 1 1:1 2:0 3:0.80386867 4:0.50005515 
1 1 1 1 1:0 2:0.97843713 3:0.98324048 4:0.89836546 
1 1 0 1 1:1 2:0 3:0.40379214 4:0.38704655 
1 1 0 1 1:1 2:0.15846651 3:0 4:0.64874976 
1 1 1 1 1:0.36260489 2:0 3:0.97387101 4:0.45075935 
1 1 0 1 1:1 2:0 3:0.80283075 4:0.50223632 
1 1 0 1 1:1 2:0.34094862 3:0.35865484 4:0.42656738 
1 1 1 1 1:0.22597769 2:1 3:0.46603201 4:0.69903005 
1 1 1 1 1:0 2:0.43556004 3:0.94407205 4:0.81571205 
1 0 1 1 1:0.0043347549 2:0.91978243 3:0.16913932 4:1 
1 1 0 1 1:1 2:0.35776205 3:0.39934306 4:0 
1 1 0 1 1:1 2:0.33854173 3:0.15974445 4:0.49036249 
1 1 1 0 1:0.066767578 2:0.40269346 3:0.69102103 4:0.64710743 
1 1 0 1 1:0.79119025 2:0.64564594 3:0.48191764 4:0.084660976 
0 1 0 1 1:0.81620006 2:0.04955847 3:0.014445822 4:0.35407703 
1 1 0 1 1:1 2:0 3:0.57244057 4:0.21213227 
0 1 1 0 1:0 2:0.34683233 3:0.17184212 4:0.80285233 
1 1 0 1 1:1 2:0.65479865 3:0.21968192 4:0.24494153 
1 1 1 1 1:0.33993054 2:0.61208069 3:0 4:0.71777 
1 1 1 0 1:0 2:0.9521924 3:1 4:0.90286737 
1 1 1 1 1:1 2:0.30615617 3:0.67781169 4:0.65047712 
1 1 1 1 1:0.014238398 2:0.14921851 3:0.94296776 4:0.78010033 
1 1 1 0 1:0 2:0.96324313 3:0.9838822 4:0.89781757 
1 1 1 1 1:0 2:0.71089904 3:0.46123503 4:0.73711773 
1 1 1 0 1:0.3929721 2:0.17960023 3:0.86181926 4:0.9773213 
1 1 0 1 1:1 2:0.67675654 3:0.064122586 4:0 
1 1 1 1 1:1 2:0.18362341 3:0.6508619 4:0.6627024 
1 1 0 1 1:1 2:0.75213657 3:0.50102372 4:0 
1 1 1 1 1:0 2:0.88644508 3:0.9355384 4:0.80614779 
1 1 1 1 1:0 2:0.9651758 3:1 4:0.86348644 
1 1 1 1 1:0 2:1 3:0.41988022 4:0.70997641 
1 1 1 0 1:0 2:0.69398117 3:0.5930428 4:0.78203322 
1 1 1 0 1:0 2:0.80537092 3:0.92346162 4:0.86856593 
1 1 1 0 1:0 2:0.91859742 3:0.99488528 4:0.92635628 
1 1 1 1 1:1 2:0.18271614 3:0.5769982 4:0.64530192 
1 1 1 1 1:0 2:0.84399226 3:0.86774941 4:0.74995563 
1 1 0 1 1:0.211915 2:0.46649971 3:0.49566455 4:0 
1 1 1 0 1:0 2:0.78588603 3:0.81888591 4:0.9636787 
0 1 1 0 1:0.53954896 2:0.19335103 3:0.18933879 4:0.70073391 
0 1 1 0 1:0.17332565 2:0.32909321 3:0.50308782 4:0.96037933 
1 1 1 0 1:0 2:0.79509465 3:0.86122545 4:0.93311889 
1 1 1 1 1:0 2:1 3:0.28578975 4:0.67347873 
1 1 1 1 1:1 2:0.28172261 3:0.64840038 4:0.63765668 
1 1 1 1 1:0 2:0.97207772 3:0.98434953 4:0.89582333 
1 1 1 1 1:0 2:0.61666851 3:1 4:0.78054104 
1 1 1 0 1:0 2:0.9284249 3:0.9504085 4:0.89374359 
1 1 1 1 1:0.20651025 2:0.99079506 3:0.46130019 4:0.68745109 
0 1 1 0 1:0 2:0.37562697 3:0.27230175 4:0.41640167 
1 1 1 1 1:0.39679883 2:0.7775924 3:0.75268429 4:0.87524876 
0 1 0 1 1:1 2:0 3:0.32209742 4:0.1352411 
1 1 0 1 1:1 2:0.074995989 3:0.8731784 4:0.78440317 
1 1 1 1 1:1 2:0.54050211 3:0 4:0.92146759 
1 1 1 1 1:0.62525615 2:0.58680933 3:1 4:0.29186394 
1 1 0 1 1:1 2:0.1119557 3:0.20929201 4:0.20600656 
1 1 1 1 1:0 2:0.60075453 3:0.89180505 4:0.77164827 
1 1 1 1 1:0 2:0.96302101 3:0.84356401 4:0.87794494 
1 1 1 1 1:0.63814591 2:0.86899781 3:1 4:0.50794595 
1 1 1 0 1:0 2:0.79785014 3:0.97428364 4:0.88223973 
1 1 1 1 1:0 2:0.89482765 3:0.9833274 4:0.82279256 
1 1 1 1 1:0 2:0.61006652 3:0.89464726 4:0.77362675 
1 1 1 1 1:0 2:0.85247405 3:0.82141371 4:0.6645108 
1 1 0 1 1:1 2:0.52327962 3:0.10972385 4:0.29733823 
1 1 1 1 1:0 2:0.1679372 3:0.82898869 4:0.84174769 
1 1 1 1 1:0 2:0.86616899 3:0.78198278 4:0.89514961 
1 0 1 1 1:0 2:0.98252248 3:0.98790783 4:0.89616549 
1 1 1 1 1:0.78421498 2:0.66673229 3:0 4:1 
1 1 0 1 1:1 2:0 3:0.72488421 4:0.39339528 
1 1 1 0 1:0.93795499 2:0 3:0.81967614 4:1 
1 1 1 1 1:0 2:0.54481952 3:0.63511028 4:1 
1 1 1 1 1:0 2:0.60519972 3:0.89014998 4:0.77155125 
1 1 1 1 1:0 2:0.9734954 3:0.84415093 4:0.85604221 
1 1 1 1 1:0 2:0.75404515 3:1 4:0.82978091 
1 0 1 1 1:0 2:0.98758917 3:0.98842834 4:0.89410711 
1 1 0 1 1:1 2:0.43478765 3:0.36047709 4:0 
1 1 1 1 1:0 2:0.79896634 3:0.9946106 4:0.84119454 
0 1 1 0 1:0 2:0.25664598 3:0.31019104 4:0.75655329 
1 1 1 1 1:0 2:0.95986718 3:0.94472034 4:0.89892602 
1 1 0 1 1:1 2:0.22072344 3:0.33023186 4:0.26370462 
1 1 1 1 1:0 2:0.65855434 3:1 4:0.58730104 
1 1 1 0 1:0 2:0.69656131 3:0.62899667 4:0.93562402 
1 1 1 1 1:0.35311146 2:0.29215126 3:1 4:0.36177988 
1 1 1 0 1:0 2:0.52267826 3:0.54049468 4:0.67065944 
1 1 1 1 1:0.47806423 2:0.28389126 3:0.73517184 4:0.44791777 
1 1 0 1 1:1 2:0.48981026 3:0.30016527 4:0 
1 1 1 1 1:0 2:0.61261684 3:0.89815929 4:0.77617476 
1 1 1 1 1:0 2:1 3:0.30706988 4:0.69101511 
1 1 1 0 1:0 2:0.90501521 3:0.93812153 4:0.88973188 
1 1 1 1 1:0 2:0.82868562 3:0.97798361 4:0.33501213 
1 1 0 1 1:1 2:0 3:0.40152334 4:0.38679478 
1 1 1 1 1:0.33250488 2:0.59814102 3:0 4:0.73243274 
1 1 1 1 1:0 2:0.98631833 3:0.98214026 4:0.88060939 
1 1 1 0.8720005225653288 1:0 2:0.59103699 3:0.37092007 4:0.90194562 
1 1 1 0 1:0.43339799 2:0.05415165 3:0.89207665 4:1 
1 1 0 1 1:1 2:0.38420384 3:0.35082299 4:0.41084071 
1 0 1 1 1:0 2:0.95536391 3:0.67901068 4:0.92896498 
1 1 1 1 1:0.80743776 2:0.49512367 3:0.96911437 4:0.6549609 
1 1 1 1 1:0.035290876 2:0.54354127 3:0.011684046 4:0.94982458 
1 1 1 0 1:0 2:0.90731353 3:0.92447787 4:0.89204242 
1 1 0 1 1:1 2:0.29359273 3:0.25438768 4:0.4249723 
1 1 1 1 1:0 2:0.72010588 3:0.687594 4:0.56590464 
1 1 0 1 1:1 2:0.84180991 3:0.5017828 4:0.079969394 
1 0 1 1 1:0 2:0.99509476 3:0.94878198 4:0.92878657 
1 1 1 1 1:0 2:0.97929088 3:0.9780293 4:0.87568488 
1 0 1 1 1:0 2:0.99046755 3:0.95729202 4:0.92652677 
1 1 1 1 1:1 2:0.92399622 3:0.63887528 4:0.3662548 
1 1 1 1 1:1 2:0.33828796 3:0.24904541 4:0.55917658 
1 1 1 0 1:0.58679155 2:0.3936069 3:0.61265828 4:1 
1 1 1 1 1:0.93273478 2:0.16597419 3:0.41962508 4:0.49369595 
1 1 1 1 1:0.22939967 2:0.51780399 3:0.50955047 4:0.39603404 
1 1 0 1 1:0.95753627 2:1 3:0 4:0.085474475 
1 1 0 1 1:0.90805564 2:0.2889113 3:0.062299381 4:0.1764829 
1 1 1 1 1:0 2:0.92151019 3:0.89252706 4:0.88152376 
1 1 0 1 1:1 2:0.49597004 3:0 4:0.36991613 
1 1 1 1 1:0 2:0.95629899 3:0.69024474 4:0.92804161 
1 0 1 1 1:0 2:0.7015931 3:0.23656875 4:1 
1 1 1 1 1:0.30704124 2:0.7874882 3:0 4:0.7495324 
1 0 1 1 1:0 2:0.98403035 3:0.97291185 4:0.8987094 
1 0 1 1 1:0 2:0.81483013 3:0.13801957 4:0.91308025 
1 1 1 1 1:0.57191092 2:0.66318963 3:0 4:0.78716667 
1 1 1 1 1:0 2:0.40034015 3:1 4:0.54408228 
1 1 1 1 1:0 2:0.57488664 3:0.47934833 4:0.41857242 
1 1 0 1 1:1 2:0.089999722 3:0.14805908 4:0.081940768 
1 1 0 1 1:1 2:0.33838522 3:0.4036342 4:0 
0 1 0 1 1:1 2:0 3:0.31886577 4:0.2765342 
1 1 1 1 1:0 2:0.83299413 3:0.71613463 4:0.85709014 
1 1 1 1 1:0 2:0.80563274 3:1 4:0.84081868 
1 0 1 1 1:0 2:0.98152082 3:0.95157082 4:0.90531902 
1 1 1 1 1:0.28648134 2:0.26146242 3:1 4:0.38618123 
1 1 1 0 1:0 2:0.7394946 3:0.92688345 4:0.84379752 
0 1 1 0 1:0.1884901 2:0.25211407 3:0 4:0.93556133 
1 1 1 1 1:0 2:1 3:0.94018037 4:0.73926706 
1 1 1 1 1:0 2:0.97929088 3:0.9780293 4:0.87568488 
0 1 0 1 1:1 2:0 3:0.27981797 4:0.34025932 
1 1 1 0 1:0 2:0.81087872 3:1 4:0.84634289 
1 1 0 1 1:1 2:0.055612141 3:0.11859116 4:0.084116574 
1 1 1 1 1:0 2:0.53616837 3:0.060574625 4:0.96346865 
1 1 0 1 1:1 2:0.31112402 3:0.57905265 4:0.5054222 
1 1 0 1 1:1 2:0.31494781 3:0.38228197 4:0.22224277 
1 1 1 0 1:0.51769799 2:0.04755953 3:0.6222204 4:0.82723515 
1 1 0 1 1:1 2:0.26125436 3:0.31971182 4:0.2093952 
1 1 1 0 1:0 2:0.81843696 3:0.97764478 4:0.89108024 
1 0 0 1 1:0 2:1 3:0.053171959 4:0.17373361 
1 1 1 1 1:0 2:0.82557831 3:0.95260774 4:0.34193558 
1 1 1 1 1:0 2:0.54135746 3:0.44646223 4:0.39992507 
1 1 1 0 1:0 2:0.96251108 3:0.98816832 4:0.89085107 
1 1 1 1 1:0.39280296 2:0.74132516 3:0.54350152 4:0 
1 1 0 1 1:0.89713606 2:0.68283543 3:0.52581729 4:0 
1 1 1 0.9335362329793574 1:0 2:0.96251108 3:0.98816832 4:0.89085107 
1 1 1 0.5208802872952057 1:0 2:0.96251108 3:0.98816832 4:0.89085107 
1 1 1 1 1:0.11605566 2:0.51319835 3:0 4:0.97423612 
1 1 1 1 1:0 2:0.88744639 3:0.81091591 4:0.90200598 
1 1 1 1 1:0.63863011 2:0.59405668 3:1 4:0.28047065 
1 1 1 1 1:0.2228065 2:0.9941023 3:0.47108122 4:0.69438478 
1 1 1 1 1:0 2:0.87489605 3:0.65762533 4:0.90942229 
1 1 1 0 1:0 2:0.7708801 3:0.90821656 4:0.88128193 
1 1 1 1 1:0 2:0.95181476 3:0.7617834 4:0.7127212 
1 1 0 1 1:1 2:0 3:0.36228945 4:0.065749751 
1 1 1 1 1:0 2:0.93563465 3:0.92698992 4:0.80113342 
1 1 1 1 1:0 2:0.76355144 3:0.84373422 4:0.73740819 
0 1 0 1 1:0.96615383 2:0 3:0.30754939 4:0.10024854 
1 1 0 1 1:1 2:0 3:0.43272277 4:0.11032368 
1 1 0 1 1:1 2:0.47653613 3:0.68959224 4:0.48269101 
1 1 0 1 1:1 2:0 3:0.34469983 4:0.38963539 
1 1 1 1 1:1 2:0.44625272 3:0.73909465 4:0.63850122 
1 1 1 1 1:0 2:0.96739932 3:0.95811504 4:0.89886813 
1 1 1 1 1:0.6838768 2:0.4729556 3:0.56062213 4:1 
1 1 1 1 1:0.77107406 2:0.66948064 3:0 4:1 
1 1 1 1 1:1 2:0.36537153 3:0.26057267 4:0.55321845 
1 1 0 1 1:1 2:0.12602641 3:0.10013702 4:0.42919747 
0 1 1 0 1:0.64151661 2:0 3:0.16424136 4:0.61663617 
0.7184671569570062 1 0 1 1:1 2:0.014484043 3:0.19891862 4:0.23067805 
1 1 0 1 1:0.82303633 2:0 3:1 4:0.52307091 
1 1 1 1 1:0 2:0.93005717 3:0.95881177 4:0.65979183 
1 0 1 1 1:0 2:0.98098164 3:0.98246866 4:0.89778688 
1 1 0 1 1:1 2:0.12587833 3:0.26662871 4:0.27897763 
1 1 1 1 1:0 2:0.94967938 3:0.93059029 4:0.88017655 
1 1 1 0 1:0 2:0.5059417 3:0.51133408 4:0.65949735 
1 1 0 1 1:1 2:0 3:0.4443173 4:0.088453002 
1 1 1 1 1:0 2:1 3:0.84841681 4:0.8013804 
1 1 0 1 1:1 2:0 3:0.6828104 4:0.057096343 
1 1 0 1 1:0.18290499 2:0.92771214 3:0 4:0.42427286 
1 1 1 0 1:0 2:0.70692518 3:0.65023913 4:0.9353276 
1 0 1 1 1:0 2:0.97219523 3:0.87952664 4:0.91367348 
1 1 1 1 1:0 2:0.97043842 3:0.98710907 4:0.89612254 
1 1 1 1 1:0 2:1 3:0.94270867 4:0.85507009 
0.9423075717156257 1 1 0 1:0 2:0.57165387 3:0.35009731 4:0.90163055 
1 1 1 1 1:0 2:0.91885177 3:0.95958004 4:0.85828799 
1 0 1 1 1:0 2:0.99989731 3:0.95452767 4:0.9282335 
1 1 1 1 1:0.84157503 2:0.62661599 3:0.5872406 4:0.62243514 
1 1 1 1 1:0 2:0.75040638 3:0.53632062 4:0.5212404 
1 1 1 1 1:0.59800815 2:0.61324108 3:0 4:1 
1 1 0 1 1:1 2:0.26023096 3:0 4:0.17266441 
1 1 1 1 1:0.34741037 2:0.60875208 3:0 4:0.7158012 
1 1 1 0 1:0 2:0.64828979 3:0.8071807 4:1 
1 1 0 1 1:1 2:0 3:0.40547936 4:0.38866658 
1 1 1 1 1:0.21820858 2:1 3:0.47000538 4:0.70099464 
1 1 1 1 1:0 2:0.94786031 3:0.90091851 4:0.87452318 
1 1 1 1 1:0 2:0.74762089 3:0.26563529 4:0.67257118 
1 1 0 1 1:1 2:0.12180375 3:0.29178302 4:0.059380126 
1 1 1 1 1:0 2:0.1101324 3:0.82032145 4:0.84641693 
1 1 1 0 1:0.19392162 2:0 3:0.46973035 4:1 
1 1 0 1 1:1 2:0 3:0.63988871 4:0.11238154 
1 1 0 1 1:1 2:0.45727157 3:0.74628794 4:0.50466815 
1 1 1 0 1:0 2:0.84040166 3:0.83016717 4:0.9261407 
1 0 1 1 1:0 2:0.68097367 3:0.16115777 4:1 
1 1 1 1 1:1 2:0.2065729 3:0.56180558 4:0.63496561 
1 1 0 1 1:0.72995767 2:0.25406166 3:0 4:0.24794291 
1 1 1 1 1:0 2:0.94916476 3:0.91866622 4:0.74907785 
1 1 1 1 1:0 2:0.6494718 3:0.84578758 4:0.52828051 
1 1 1 1 1:0 2:0.82463122 3:0.76826715 4:0.69544463 
1 1 1 1 1:0 2:0.94783796 3:0.90098806 4:0.87449399 
1 1 1 1 1:0.62481622 2:0.58898602 3:1 4:0.28077876 
1 1 0 1 1:0.63804839 2:1 3:0.10349666 4:0.10569565 
1 1 0 1 1:1 2:0.33531465 3:0.52169742 4:0.37446225 
1 1 1 1 1:0 2:0.96711403 3:0.95737104 4:0.89914937 
1 1 0 1 1:0.9543246 2:0.58914987 3:0.34852124 4:0 
1 1 0 1 1:1 2:0.49969532 3:0.13612415 4:0.25772328 
1 1 0 1 1:0.94010984 2:0.092926501 3:0.16800887 4:0.32987342 
1 1 1 1 1:0 2:0.1043896 3:0.81755721 4:0.842687 
1 1 1 0 1:0.48377258 2:0.29599622 3:0.39218926 4:1 
1 1 1 1 1:0 2:0.98514767 3:0.9669986 4:0.82995225 
1 1 1 1 1:0 2:0.96684617 3:0.95714209 4:0.89811064 
1 1 1 1 1:0 2:0.96475427 3:0.95862105 4:0.85529698 
1 1 0 1 1:1 2:0.49576016 3:0.018476836 4:0 
1 1 1 0 1:0.16546444 2:0 3:0.4603681 4:1 
1 1 1 1 1:0 2:0.66276466 3:1 4:0.59481217 
1 1 1 0 1:0 2:0.57548955 3:0.35457132 4:0.90388975 
1 1 0 1 1:1 2:0.85828352 3:0.50365117 4:0.083734803 
1 1 0 1 1:1 2:0 3:0.36354123 4:0.14589376 
1 1 1 1 1:0.04753011 2:0.33742038 3:0.73378729 4:0.63961226 
1 1 0 1 1:1 2:0.66279968 3:0.27999668 4:0 
1 1 1 1 1:0 2:0.65590362 3:0.93116294 4:0.77509301 
1 1 1 1 1:1 2:0.63643204 3:0.66822755 4:0.93177226 
1 1 0 1 1:0.57894089 2:0.52223073 3:1 4:0.25482223 
1 1 1 1 1:0.81189414 2:0.51716902 3:0.98091262 4:0.66042142 
1 1 1 1 1:0.15736331 2:0.48593976 3:0 4:0.96673133 
1 0 1 1 1:0 2:0.97845305 3:0.98326276 4:0.89835564 
1 1 0 1 1:1 2:0 3:0.38240553 4:0.14244446 
1 1 1 1 1:0 2:0.87855041 3:1 4:0.78637281 
1 1 1 1 1:1 2:0.14633752 3:0.36670133 4:0.77669805 
1 1 1 1 1:0 2:0.97980867 3:0.80485874 4:0.83661957 
1 1 1 0 1:0 2:0.74130132 3:0.92751374 4:0.84403361 
1 1 0 1 1:1 2:0.66143998 3:0.22478975 4:0.245807 
1 1 1 1 1:0 2:0.67517858 3:1 4:0.62347793 
1 1 0 1 1:1 2:0.48759479 3:0.33144782 4:0 
0.6284526089866471 1 1 0 1:0 2:0.57165387 3:0.35009731 4:0.90163055 
1 1 1 1 1:0 2:0.60860323 3:0.891219 4:0.77292036 
1 1 1 1 1:0 2:0.714586 3:0.46948894 4:0.73061501 
1 1 1 1 1:0 2:0.86637138 3:0.94831299 4:0.72509325 
1 1 1 0 1:0 2:0.75267978 3:0.90513946 4:0.87100247 
1 1 1 1 1:0 2:0.94904277 3:0.99860494 4:0.87775784 
1 1 1 1 1:0 2:0.9848739 3:0.61518803 4:0.64237101 
1 1 1 1 1:0 2:0.77644242 3:0.84158555 4:0.7498435 
1 1 1 1 1:0 2:0.7089009 3:1 4:0.77691705 
1 1 1 1 1:0.85445609 2:0.66860569 3:0.62497227 4:0.221949 
1 1 0 1 1:1 2:0 3:0.55043523 4:0.31269145 
1 1 1 1 1:1 2:0.50196546 3:0.68761114 4:0.4701054 
1 1 0 1 1:0.80089582 2:0 3:0.90166063 4:0.40116436 
1 1 1 1 1:0 2:0.87214687 3:0.74179581 4:0.91249176 
1 1 0 1 1:1 2:0.5297817 3:0.65887203 4:0.2754128 
1 1 1 1 1:0 2:0.82190754 3:0.90593706 4:0.35629918 
1 1 1 1 1:0 2:0.89814788 3:0.83945535 4:0.80311523 
1 1 1 1 1:1 2:0.33421567 3:0.26923173 4:0.52950895 
0 1 1 0 1:0 2:0.40414125 3:0.30394408 4:0.45784179 
1 1 1 0 1:0 2:0.90709299 3:1 4:0.88342981 
1 1 1 1 1:0 2:0.71371883 3:0.64159673 4:0.94049295 
1 1 1 1 1:0.70224787 2:0.64913529 3:0.8069453 4:0.95008033 
1 1 0 1 1:1 2:0.28655993 3:0.2957955 4:0 
1 1 0 1 1:1 2:0.75365055 3:0.50374726 4:0 
1 1 1 1 1:1 2:0.88093754 3:0.52667702 4:0.34242581 
1 1 1 1 1:0 2:0.60344246 3:0.89434452 4:0.77288216 
1 1 1 0 1:0.16943847 2:0.2967581 3:0 4:0.94653183 
1 0 1 1 1:0 2:0.93990243 3:0.18522399 4:0.53719176 
1 1 1 1 1:0.88944802 2:0.24589677 3:0.37508813 4:0.52171326 
1 1 1 1 1:0 2:0.90534827 3:0.82967904 4:0.92748099 
0 1 1 1 1:0.13527372 2:0.44503852 3:0.30827738 4:0.24808699 
1 1 1 1 1:0 2:0.98697925 3:0.98258127 4:0.88410751 
1 1 0 1 1:0.77821422 2:0.66894686 3:1 4:0.33277761 
1 1 1 1 1:0 2:0.87272053 3:0.95327858 4:0.73840389 
1 0 1 1 1:0 2:0.92641013 3:0.18356824 4:1 
0 1 1 0 1:0.43510749 2:0.38837209 3:0.53933427 4:0.59442421 
1 1 0 1 1:1 2:0 3:0.67315625 4:0.32282451 
1 1 0 1 1:1 2:0 3:0.23990704 4:0.53565602 
1 1 1 1 1:0.3197817 2:0.60301029 3:0 4:0.72035268 
1 1 1 1 1:0 2:0.78732234 3:1 4:0.73631467 
1 0 1 1 1:0 2:0.9845293 3:0.98836098 4:0.89583349 
1 1 1 1 1:0.13853101 2:0.46589139 3:0.30978985 4:0.20730569 
1 1 0 1 1:1 2:0.10136266 3:0 4:0.45056545 
1 1 1 1 1:0 2:0.95557029 3:0.95911755 4:0.84801923 
1 1 0 1 1:1 2:0 3:0.36351971 4:0.077461524 
1 1 1 1 1:0 2:0.97095017 3:0.96001172 4:0.90088335 
1 1 1 1 1:0 2:0.94733139 3:0.90038318 4:0.87424083 
1 1 1 1 1:0 2:0.55901267 3:0.65133097 4:1 
1 1 1 1 1:0 2:0.89053203 3:0.93531993 4:0.81069091 
1 1 0 1 1:0.78737221 2:0.65254043 3:0.49632367 4:0.10378949 
1 1 0 1 1:1 2:0.16831906 3:0.42981759 4:0.16900458 
1 1 0 1 1:1 2:0.37354933 3:0.5389234 4:0.35369339 
1 1 1 1 1:1 2:0.37118079 3:0.2680641 4:0.56493512 
1 1 0 1 1:1 2:0 3:0.35191574 4:0.10114947 
1 1 1 0 1:0 2:0.89380769 3:0.96392041 4:0.88038537 
1 1 0 1 1:1 2:0.26233121 3:0.092940814 4:0.24037002 
0 1 1 1 1:0.078080288 2:0.37246133 3:0.15620622 4:0.35130892 
1 1 0 1 1:0.63267303 2:0 3:0.83159132 4:0.11233053 
1 1 1 1 1:0 2:0.2823898 3:0.83129626 4:0.78123035 
1 0 1 1 1:0 2:0.8372274 3:0.44376078 4:1 
1 1 1 1 1:1 2:0.11772745 3:0.61126452 4:0.67117671 
1 1 1 1 1:0.23627597 2:1 3:0.57687298 4:0.43571765 
1 1 1 0 1:0.95822488 2:0 3:0.48056261 4:0.65035936 
1 1 0 1 1:1 2:0.19992004 3:0 4:0.13333814 
1 1 1 1 1:0 2:1 3:0.94051922 4:0.73218401 
1 1 1 1 1:0 2:0.85601897 3:0.91420207 4:0.79828669 
1 0 1 1 1:0 2:0.71622429 3:0.24439018 4:0.19588769 
1 1 1 1 1:1 2:0.2145095 3:0 4:0.71952424 
1 1 1 1 1:0.30615009 2:0.26912807 3:1 4:0.38974443 
1 1 1 1 1:0 2:0.95459592 3:0.89056616 4:0.76067663 
1 0 1 1 1:0 2:0.99092246 3:1 4:0.90031393 
1 1 1 1 1:0 2:0.93803351 3:0.84173469 4:0.59706093 
1 1 1 1 1:0 2:0.90581701 3:0.92723607 4:0.79786414 
1 1 1 0 1:0.69249964 2:0 3:0.26103153 4:1 
1 1 1 0 1:0 2:0.79908045 3:0.87234363 4:0.84288624 
1 1 1 1 1:0.62498102 2:0.62549757 3:0 4:0.77233309 
1 1 1 1 1:0.0010110073 2:0.16539393 3:0.93786905 4:0.77190649 
1 1 0 1 1:1 2:0.094473781 3:0 4:0.33042061 
1 1 0 1 1:1 2:0.29083683 3:0.36852039 4:0 
1 1 1 1 1:0 2:0.92000787 3:0.89070375 4:0.88083457 
1 1 0 1 1:1 2:0.70002366 3:0.53555801 4:0 
1 1 0 1 1:0.93788581 2:0.77788582 3:0.34422783 4:0 
1 1 1 1 1:0 2:0.67510233 3:1 4:0.59767732 
1 1 1 1 1:0.7625891 2:0.48724432 3:0.92686735 4:0.66824437 
1 1 1 1 1:0 2:0.62891197 3:0.93006612 4:0.7629536 
1 1 0 1 1:1 2:0.30081771 3:0.36842003 4:0 
1 1 1 0 1:0 2:0.9162251 3:0.97189882 4:0.88290035 
1 1 1 1 1:0.17204249 2:0.55121374 3:0.48166405 4:0.43390793 
1 1 1 1 1:1 2:0.56451755 3:0.41956548 4:0.59098886 
1 1 1 1 1:0.61784294 2:0.43953624 3:0.52182875 4:0.42679865 
1 1 1 1 1:1 2:0.54434599 3:0.35424966 4:0.62951811 
0 1 1 1 1:0.13816453 2:0.43909459 3:0.29751593 4:0.21364429 
1 1 0 1 1:1 2:0.13303872 3:0.40520867 4:0.20807572 
0 1 1 0 1:0.40102641 2:0.31101826 3:0.34007112 4:0.86660434 
1 1 1 1 1:0 2:0.88740985 3:0.90531006 4:0.79100684 
1 1 1 1 1:0 2:0.86340323 3:0.77879439 4:0.89261171 
1 1 1 1 1:0.99182761 2:0.33973942 3:0.60632688 4:0.53301394 
1 1 0 1 1:1 2:0.28329863 3:0.29513406 4:0.43914753 
1 1 1 1 1:0.4198118 2:1 3:0.64035341 4:0.54829493 
1 1 0 1 1:0.81811927 2:0.10115191 3:1 4:0 
1 1 1 1 1:0 2:0.98366036 3:0.96997971 4:0.87801102 
0 1 1 0 1:0.68610919 2:0 3:0.13159031 4:0.51298801 
1 1 1 0 1:0 2:0.73983278 3:0.89184907 4:0.87780831 
1 1 1 1 1:0 2:0.99534553 3:0.97076421 4:0.84347704 
1 1 0 1 1:1 2:0.10134096 3:0.014693823 4:0.26045433 
1 1 1 1 1:0.022713256 2:0.52180356 3:0.03920385 4:0.9468937 
1 1 1 1 1:0.68440249 2:0.47456675 3:0.56329824 4:1 
1 1 1 1 1:0.15368087 2:0.77841614 3:0.63424853 4:0.79324188 
0 1 1 1 1:0.13619092 2:0.44719201 3:0.30943044 4:0.22925426 
1 1 0 1 1:1 2:0.34594049 3:0.28214219 4:0.1914442 
1 1 1 1 1:0 2:0.9197711 3:0.89053404 4:0.88123785 
1 1 1 1 1:0 2:0.97549391 3:0.97870094 4:0.88939875 
1 1 1 1 1:0 2:0.96256523 3:0.92827657 4:0.73735831 
1 0 1 1 1:0 2:0.98403035 3:0.97291185 4:0.8987094 
1 1 1 1 1:0 2:0.7894995 3:0.95682483 4:0.81972528 
1 1 1 0 1:0 2:0.77646284 3:0.93389167 4:0.8795686 
1 1 1 1 1:0 2:0.82861174 3:0.80970064 4:0.77467456 
1 1 1 1 1:0 2:0.84778976 3:0.93229792 4:0.40177763 
1 1 1 0 1:0 2:0.95140565 3:1 4:0.90344853 
1 1 1 1 1:0.82186467 2:0.49954967 3:0.97531487 4:0.64761205 
1 1 1 1 1:0 2:0.76072899 3:1 4:0.83316862 
1 1 0 1 1:1 2:0.25540432 3:0.27333427 4:0.21753184 
1 1 0 1 1:1 2:0.06073566 3:0.11886328 4:0.076903664 
1 1 0 1 1:1 2:0.31668126 3:0.3825253 4:0 
1 1 1 1 1:0 2:0.96618543 3:0.90229625 4:0.90326267 
1 1 1 1 1:0 2:0.60575019 3:0.89603527 4:0.77441797 
1 1 0 1 1:1 2:0.045053009 3:0.90657913 4:0.84573204 
1 1 1 1 1:0.20318437 2:0.50971239 3:0.47712493 4:0.38571183 
1 1 1 1 1:0 2:1 3:0.87435175 4:0.81085621 
0 1 1 0 1:0.072509959 2:0.37896058 3:0.16111274 4:0.37067297 
1 1 0 1 1:1 2:0.50977451 3:0.13186443 4:0.28134588 
1 1 1 1 1:1 2:0.42140032 3:0.1391973 4:0.53284429 
1 1 1 1 1:0.58262034 2:0.39250982 3:0.52095117 4:0.42483975 
1 1 0 1 1:1 2:0.20173456 3:0.28284489 4:0.19858779 
1 1 0 1 1:1 2:0 3:0.55102258 4:0.15765977 
1 1 1 1 1:0.34035154 2:0.60312027 3:0 4:0.71350624 
1 1 1 1 1:0 2:0.86893482 3:0.94650259 4:0.73649985 
1 1 1 1 1:0.030213608 2:0.40929458 3:0.924051 4:0.033386978 
1 1 0 1 1:0.94272623 2:0.24813865 3:0 4:0.10063201 
1 1 1 1 1:0 2:0.15599514 3:0.90302508 4:0.76357512 
0 1 1 1 1:0.077808129 2:0.38618689 3:0.16291178 4:0.37003345 
1 1 1 1 1:0 2:0.85658857 3:0.62948137 4:0.88100829 
1 1 1 1 1:0 2:0.71948678 3:1 4:0.77757326 
1 1 1 1 1:0 2:0.8491755 3:0.9140765 4:0.78148041 
1 1 1 1 1:0 2:0.93546977 3:0.9850896 4:0.83562553 
1 1 1 1 1:0.7946185 2:0.50655305 3:0.97599516 4:0.64408337 
1 1 1 1 1:0.33436383 2:0.61031901 3:0 4:0.72856012 
1 1 0.0122665122328674 0 1:0.83405247 2:0 3:0.5933536 4:0.55341878 
1 1 1 1 1:0.10003622 2:0.75329195 3:0 4:0.92728765 
1 1 1 1 1:0 2:1 3:0.86459273 4:0.80716347 
1 1 1 0 1:0 2:0.96268517 3:0.98217109 4:0.89495757 
1 1 1 1 1:0 2:0.60616369 3:0.8956303 4:0.77632882 
1 1 1 0 1:0 2:0.73184633 3:0.63201855 4:0.80206498 
1 1 1 1 1:0 2:0.87838155 3:0.8443845 4:0.86293166 
1 1 0 1 1:1 2:0 3:0.33469877 4:0.35893516 
1 1 0 1 1:1 2:0.10218269 3:0.062676807 4:0.43986282 
1 1 1 0 1:0.54257985 2:0.38608857 3:0.42499645 4:1 
1 1 1 0 1:0 2:0.87113963 3:0.98238015 4:0.85419791 
1 1 0 1 1:1 2:0 3:0.81604581 4:0.48805573 
1 1 1 0 1:0 2:0.83380975 3:0.87201408 4:0.84983221 
1 1 1 1 1:0 2:0.88728489 3:0.93355151 4:0.80910108 
1 1 1 1 1:0 2:0.7240492 3:0.36539142 4:0.60122814 
1 1 0 1 1:1 2:0.54574002 3:0.1286917 4:0.26287972 
1 1 1 1 1:0.021178379 2:0.15143469 3:0.92148544 4:0.77293638 
1 1 0 1 1:1 2:0.31124257 3:0.57789687 4:0.50548854 
1 1 0 1 1:1 2:0.43968843 3:0.38026177 4:0 
1 1 0 1 1:1 2:0.30794219 3:0.58064912 4:0.50720728 
1 1 1 0 1:0 2:0.74145797 3:0.90961854 4:0.86826822 
1 1 1 0 1:0 2:0.70660702 3:0.65287235 4:0.93138751 
1 1 1 1 1:0 2:0.8601762 3:0.8815429 4:0.85256136 
1 1 0 1 1:0.78376694 2:0.64113776 3:0.47206301 4:0.079125886 
1 1 0 1 1:1 2:0.089197398 3:0.26994211 4:0.060493518 
1 1 1 1 1:1 2:0.25403669 3:0.42498097 4:0.52803438 
1 1 1 1 1:1 2:0.5137343 3:0.078156387 4:0.55894274 
1 1 1 0 1:0 2:0.80761202 3:0.89075726 4:0.85532618 
1 1 1 1 1:0.62001015 2:0.43850027 3:0.52375065 4:0.42877836 
1 1 1 0 1:0 2:0.85044537 3:0.86555875 4:0.92309195 
1 1 1 1 1:1 2:0.63601467 3:0.66548554 4:0.93430729 
1 1 1 1 1:0.34323008 2:0.28967181 3:1 4:0.38651741 
0 1 1 0 1:0 2:0.38645711 3:0.28476819 4:0.41804616 
1 1 0 1 1:0.98216192 2:0.40304188 3:0.62303117 4:0 
1 1 1 1 1:0 2:0.56094898 3:0.6371865 4:1 
1 1 0 1 1:1 2:0 3:0.33139049 4:0.069250993 
1 0 1 1 1:0 2:0.98719735 3:0.95037968 4:0.92108323 
1 0 1 1 1:0 2:0.90548018 3:0.20275649 4:0.22555573 
0 1 1 0 1:0 2:0.26524639 3:0.31078409 4:0.74955855 
1 1 1 1 1:1 2:0.3544814 3:0.22335534 4:0.58313907 
1 1 1 1 1:0 2:0.647797 3:0.85117664 4:0.53985553 
1 1 1 1 1:0 2:0.88218995 3:1 4:0.789891 
1 1 0 1 1:1 2:0.36278949 3:0.50500348 4:0.35666567 
1 1 0 1 1:0.88555302 2:0.57566517 3:0.30446507 4:0 
1 1 1 1 1:0 2:0.60129159 3:0.89425249 4:0.77406252 
1 1 1 1 1:0.48932146 2:0.44398466 3:0.46404684 4:0.64010204 
1 1 1 1 1:0 2:0.88266142 3:0.95773042 4:0.79297918 
1 0 1 1 1:0 2:0.95744724 3:0.68940272 4:0.92816399 
1 1 1 1 1:1 2:0.69074018 3:0.40998409 4:0.47602385 
1 1 1 1 1:0 2:0.94828775 3:0.90049455 4:0.87187365 
1 1 0 1 1:1 2:0 3:0.52976592 4:0.14729452 
1 0 1 1 1:0 2:0.989126 3:0.97486114 4:0.89990707 
1 1 1 1 1:1 2:0.35366599 3:0.25131475 4:0.55815125 
0 1 1 0 1:0.11548466 2:0.44218223 3:0.28124461 4:0.60785445 
1 1 0 1 1:1 2:0.46344913 3:0.56207939 4:0.30427625 
1 1 1 0 1:0 2:0.79928329 3:1 4:0.84442305 
1 1 1 1 1:0 2:0.56307685 3:0.63606644 4:1 
1 1 0 1 1:1 2:0.2383352 3:0.17618783 4:0.24498749 
1 1 0 1 1:1 2:0.6552186 3:0.22301326 4:0.25335464 
1 0 1 1 1:0 2:0.70886012 3:0.121801 4:0.98316319 
1 1 1 1 1:0 2:0.96929135 3:0.90254498 4:0.78294982 
1 1 1 1 1:0.47257887 2:0.71065461 3:0.74032334 4:0.89845991 
1 0 1 1 1:0 2:0.71508534 3:0.23569111 4:0.2011567 
1 1 0 1 1:1 2:0 3:0.41547424 4:0.094778701 
1 1 1 1 1:0.65234825 2:0.65662949 3:0.93026129 4:0.87700048 
1 1 1 1 1:0 2:0.91715491 3:0.87609314 4:0.82627147 
0 1 0 0 1:0.51852005 2:0.06995979 3:0 4:0.46134248 
1 0.5458897030887759 1 1 1:0 2:0.97845305 3:0.98326276 4:0.89835564 
1 1 1 1 1:0 2:0.93020138 3:0.83171391 4:0.62171211 
1 1 1 1 1:0 2:0.39126475 3:0.79967149 4:0.87989069 
1 1 1 1 1:0 2:0.12187222 3:0.81795808 4:0.84386357 
1 1 1 1 1:0 2:0.64610502 3:0.51464062 4:0.44548729 
1 0 1 1 1:0 2:0.98758917 3:0.98842834 4:0.89410711 
1 1 1 1 1:0.4904661 2:0.43961695 3:0.46055754 4:0.63427855 
1 1 1 1 1:0 2:0.96280662 3:0.99884428 4:0.86250422 
1 1 0 1 1:1 2:0 3:0.14614048 4:0.087104025 
1 1 0.1724700172299137 1 1:0 2:0.25840776 3:0.43162944 4:0.091129586 
1 1 0 1 1:0.71244554 2:0.34267123 3:0.22487681 4:0 
1 1 0 1 1:1 2:0.58018468 3:0.3007851 4:0 
1 1 1 1 1:0.69699103 2:0.48340192 3:0.56875751 4:1 
1 1 1 0 1:0.41923722 2:0 3:0.58264329 4:1 
1 1 1 1 1:1 2:0.25638472 3:0.41159751 4:0.53165992 
1 1 1 0 1:0 2:0.53016573 3:0.54373744 4:0.66742135 
0 1 1 1 1:0.12149417 2:0 3:0.39068718 4:0.28550708 
1 0 1 1 1:0 2:0.98507011 3:0.97522429 4:0.89911809 
1 1 1 1 1:1 2:0.40829746 3:0 4:0.78740564 
1 1 0 1 1:1 2:0 3:0.031817311 4:0.48666184 
1 1 1 1 1:0.36783656 2:0.29042107 3:1 4:0.36799109 
1 1 0 1 1:1 2:0.024333925 3:0.098607323 4:0.057539947 
1 1 1 0 1:0 2:0.67880365 3:0.57288694 4:0.77428714 
1 1 0 1 1:1 2:0.85923779 3:0.50692443 4:0.082046327 
1 1 1 1 1:0 2:0.86956862 3:0.9416268 4:0.72347931 
1 1 1 1 1:0 2:0.96466611 3:0.21576631 4:0.58640208 
1 1 1 1 1:0 2:0.096595986 3:0.81423394 4:0.8407047 
1 1 1 1 1:0.15035362 2:0.45974272 3:0.31577618 4:0.21738383 
1 0 1 1 1:0 2:0.98545006 3:0.98762295 4:0.8913126 
1 1 1 1 1:0 2:0.81966214 3:0.76290926 4:0.69095448 
1 1 1 1 1:0 2:0.92072566 3:0.86428131 4:0.81080989 
1 1 0 1 1:1 2:0.080878095 3:0.031765789 4:0.36591161 
1 1 1 1 1:0 2:0.98691039 3:0.98254907 4:0.88404217 
1 1 0 1 1:1 2:0 3:0.82164978 4:0.49552532 
1 1 1 0 1:0 2:0.58648269 3:0.36499746 4:0.90285229 
1 1 1 1 1:0.07347851 2:0.92302228 3:0.46853658 4:0.43183526 
1 1 1 1 1:0 2:0.83665632 3:0.33293843 4:0.69951844 
1 1 1 1 1:0.10541885 2:1 3:0 4:0.89516686 
1 1 1 1 1:0.26891421 2:0.91572282 3:0 4:0.96007732 
1 1 0 1 1:0.94338727 2:0.33878798 3:1 4:0.65191534 
1 1 0 1 1:0.70606882 2:0.26991705 3:0 4:0.14923069 
1 1 1 1 1:0.04786383 2:0.53853138 3:0.020255358 4:0.94999899 
1 1 1 1 1:0 2:1 3:0.29723738 4:0.68184069 
1 1 1 1 1:0 2:0.76864024 3:0.78229777 4:0.73446001 
1 1 1 1 1:0.35879633 2:0.29063892 3:1 4:0.36918686 
1 1 0 1 1:1 2:0.11050199 3:0 4:0.35470764 
1 1 1 1 1:1 2:0.64861234 3:0.69347641 4:0.94766672 
1 1 0 1 1:1 2:0.056323288 3:0 4:0.43070785 
1 1 1 1 1:0.15238784 2:0.76234516 3:0.61833337 4:0.7924769 
1 1 1 1 1:0 2:0.59324638 3:0.89170655 4:0.77020483 
1 1 1 1 1:1 2:0.19764662 3:0.39385415 4:0.82179968 
1 1 1 1 1:0 2:0.93477232 3:0.97123401 4:0.6460121 
1 0 1 1 1:0.0040712436 2:0.92007297 3:0.1678924 4:1 
1 1 0 1 1:1 2:0.17570562 3:0.48877521 4:0.51959449 
1 1 1 1 1:0 2:0.80634094 3:0.86574338 4:0.18700659 
1 1 1 1 1:1 2:0.20362909 3:0.36322359 4:0.83700315 
1 1 1 1 1:0 2:0.6800913 3:0.5200776 4:0.46938148 
1 1 1 0 1:0 2:0.96328282 3:0.98392035 4:0.89784719 
1 1 1 1 1:0 2:0.81895396 3:0.76653783 4:0.69585189 
1 1 1 1 1:0.80968467 2:0.52546039 3:0.97802905 4:0.63419429 
0 1 1 0 1:0 2:0.36179951 3:0.21780622 4:0.80840385 
1 1 1 1 1:0 2:0.90066198 3:0.74809614 4:1 
1 1 1 1 1:0 2:0.74680277 3:0.82217654 4:0.77493701 
1 0 1 1 1:0 2:0.97637563 3:0.88752774 4:0.91494843 
1 1 1 0 1:0.10264308 2:0.35189525 3:0.67043453 4:0.66249938 
1 1 0 1 1:1 2:0.64833358 3:0.18599422 4:0.079321242 
1 1 0 1 1:1 2:0.097930502 3:0.4554569 4:0 
1 1 0 1 1:1 2:0.16668601 3:0 4:0.64619547 
1 1 0 1 1:1 2:0.21402648 3:0 4:0.16595427 
1 1 0 1 1:1 2:0.44285942 3:0.33433892 4:0.3979035 
1 1 1 1 1:0 2:1 3:0.92007826 4:0.71491786 
0 1 1 0 1:0.43638156 2:0.38213501 3:0.54449022 4:0.59592808 
1 1 1 1 1:0.63922417 2:0.84182185 3:0.57257146 4:0.72837442 
1 1 1 1 1:0 2:0.9058454 3:0.84218112 4:0.80464609 
1 1 0 1 1:1 2:0.40199554 3:0.3627264 4:0 
1 1 1 1 1:0.44688219 2:0.70224028 3:0.66631944 4:0.82311092 
0 1 1 0 1:0.44404299 2:0.38329061 3:0.53884657 4:0.5974409 
1 1 0 1 1:1 2:0 3:0.4398833 4:0.11695119 
1 1 1 0 1:0 2:0.89481465 3:0.92757047 4:0.89861262 
1 1 0 0 1:1 2:0 3:0.38274152 4:0.55284897 
0 1 1 0 1:0.059755562 2:0.36332808 3:0.14282805 4:0.38973089 
1 1 1 1 1:0.15818425 2:0.76081548 3:0.62966843 4:0.78859035 
1 1 1 0 1:0 2:0.96324313 3:0.9838822 4:0.89781757 
1 1 1 1 1:0 2:0.71840014 3:1 4:0.78042647 
1 1 1 1 1:0.4734115 2:0.27805478 3:0.70539757 4:0.45862313 
1 1 1 0 1:0 2:0.89429475 3:0.96344327 4:0.87755436 
1 1 0 1 1:1 2:0.31353855 3:0.58195458 4:0.50376634 
1 1 1 1 1:0 2:0.7598491 3:0.94790356 4:0.6358915 
1 1 0 1 1:1 2:0.80037221 3:0.23863734 4:0.13006805 
1 1 1 1 1:0 2:0.91308863 3:0.57325909 4:0.83901823 
1 1 1 1 1:0 2:0.8702131 3:0.83502556 4:0.85620705 
1 1 1 1 1:0 2:1 3:0.96667986 4:0.73730374 
1 1 1 1 1:0 2:0.66476988 3:1 4:0.59597349 
1 1 0 1 1:1 2:0 3:0.42889363 4:0.012059042 
0 1 0 1 1:0.81356616 2:0.079021501 3:0.020592826 4:0.38036847 
1 1 0 1 1:1 2:0.12258289 3:0.21768085 4:0.27239835 
1 1 1 1 1:0.44342298 2:0.23792534 3:1 4:0.55615812 
1 1 0 1 1:1 2:0.1063499 3:0.41164141 4:0.15845021 
1 1 1 1 1:0.023884761 2:0.14834231 3:0.92800955 4:0.77516627 
1 1 1 1 1:0 2:0.95440285 3:0.68547755 4:0.9285442 
1 1 1 1 1:0 2:0.7287517 3:0.69868764 4:0.5928165 
1 1 0 1 1:1 2:0.36530849 3:0.51405192 4:0.37300902 
1 0 1 1 1:0 2:0.99791983 3:0.98502827 4:0.87805834 
1 1 1 1 1:0 2:0.84748732 3:0.9060156 4:0.77944715 
1 1 1 1 1:0 2:0.55625779 3:0.64989865 4:1 
1 1 1 1 1:0 2:1 3:0.9598297 4:0.73594728 
1 1 0 1 1:1 2:0.2918601 3:0 4:0.38418426 
1 1 1 1 1:0.25049717 2:1 3:0.46858648 4:0.70537781 
1 1 1 0.5860728985281263 1:0.49117143 2:0.42549694 3:0.45458346 4:0.6289102 
1 1 0 1 1:1 2:0 3:0.67933952 4:0.069669384 
1 1 0 1 1:1 2:0.55275542 3:0.55795504 4:0.33375634 
1 1 1 1 1:1 2:0.36378397 3:0.24702508 4:0.55470197 
1 1 1 1 1:0 2:0.89941419 3:0.85538259 4:0.8509588 
1 1 0 1 1:1 2:0.18550163 3:0.26733255 4:0.18702369 
1 1 1 1 1:0 2:1 3:0.85084091 4:0.80442031 
1 1 1 1 1:1 2:0.35350583 3:0.21910765 4:0.49929588 
1 1 1 1 1:0 2:1 3:0.88063318 4:0.84631316 
1 1 1 1 1:0 2:0.89248983 3:0.93441239 4:0.83676262 
1 0 0 1 1:0 2:1 3:0.041306642 4:0.18619059 
1 1 1 1 1:0 2:0.93572142 3:0.87215411 4:0.79055507 
1 1 0 1 1:1 2:0.27315505 3:0.38956633 4:0.2314443 
1 1 0 1 1:1 2:0.51455881 3:0.28689078 4:0.30231072 
1 1 0 1 1:1 2:0.46188589 3:0.19419467 4:0 
1 1 1 1 1:0 2:1 3:0.87519357 4:0.81163886 
1 1 0 1 1:1 2:0.056646343 3:0.1314181 4:0.097121423 
1 1 1 1 1:0 2:0.94699063 3:0.77027048 4:0.71743776 
1 1 1 1 1:0 2:0.94837562 3:0.90153817 4:0.87514987 
1 1 0 1 1:1 2:0.21779101 3:0.58614229 4:0.19206818 
1 1 1 0 1:0 2:0.94679651 3:0.98877201 4:0.88407052 
1 1 1 0 1:0 2:0.71902376 3:0.88213927 4:0.87879826 
1 0 1 1 1:0 2:0.92648725 3:0.21370388 4:1 
1 1 1 1 1:0 2:0.97845305 3:0.98326276 4:0.89835564 
1 1 1 1 1:0.021544506 2:0 3:0.92582828 4:0.66638613 
1 1 1 0 1:0 2:0.70292237 3:0.64554218 4:0.9330347 
1 0 1 1 1:0 2:0.98450196 3:0.9883094 4:0.89577975 
1 1 1 1 1:0 2:0.85808271 3:0.94198653 4:0.73006194 
1 1 0 1 1:1 2:0.24201581 3:0.29178292 4:0.42847859 
1 1 1 1 1:0 2:1 3:0.85355581 4:0.80667454 
1 0 1 1 1:0 2:0.97257685 3:0.88086213 4:0.91270032 
1 1 0 1 1:0.73134532 2:0.32812912 3:0.19393568 4:0 
1 1 1 1 1:0.3515865 2:0.2967803 3:1 4:0.37165439 
1 1 1 1 1:0.2334431 2:0.6247119 3:0.64528332 4:0 
1 1 1 1 1:0.71889038 2:0.62107179 3:0 4:1 
0 1 1 0 1:0 2:0.48877192 3:0.49077539 4:0.65799883 
1 1 0 1 1:1 2:0.66348907 3:0 4:0.046770105 
1 1 1 1 1:0 2:0.8394434 3:0.7185813 4:0.93217281 
1 1 1 1 1:0 2:0.65254907 3:0.93699403 4:0.76852271 
1 1 1 1 1:0.29290781 2:0.27224894 3:1 4:0.38047872 
1 1 0 1 1:1 2:0 3:0.35870388 4:0.064726469 
1 1 1 1 1:0 2:0.88711115 3:0.9358525 4:0.81245403 
0 1 1 0 1:0 2:0.55401558 3:0.38435464 4:0.77524085 
1 1 0 1 1:1 2:0.15592521 3:0.29497433 4:0.1923955 
1 1 1 1 1:0 2:1 3:0.89863366 4:0.85676653 
1 1 1 1 1:0 2:0.66276521 3:0.94199122 4:0.77411356 
1 1 1 1 1:0 2:0.51103928 3:1 4:0.68011457 
1 0.3540511189957902 1 1 1:0 2:0.97845305 3:0.98326276 4:0.89835564 
1 1 0 1 1:1 2:0 3:0.36107305 4:0.38557175 
1 1 1 1 1:0 2:0.88425304 3:0.92257485 4:0.82141053 
1 1 0 0 1:1 2:0 3:0.53538633 4:0.61612281 
1 1 1 0 1:0.67570874 2:0 3:0.29724916 4:1 
1 1 1 1 1:0.47923178 2:0.28390306 3:0.70364267 4:0.43578872 
0 1 1 0 1:0 2:0.36441967 3:0.20214315 4:0.80725622 
1 1 1 1 1:0.77866675 2:0.66691236 3:0 4:1 
1 1 1 1 1:0 2:0.85734497 3:0.95035132 4:0.73324615 
1 1 1 0 1:0 2:0.65177451 3:0.82470373 4:1 
1 1 1 1 1:0 2:0.78161928 3:0.79998037 4:0.74056579 
1 1 1 0 1:0.47411452 2:0.47923402 3:0.53516442 4:1 
1 1 1 0 1:0 2:0.96046026 3:0.98618803 4:0.89112963 
1 1 0 1 1:1 2:0.15247491 3:0.46585203 4:0.40803153 
1 1 1 0.4095520144778738 1:0 2:0.75433896 3:0.99434864 4:0.84409182 
1 1 1 1 1:1 2:0.38015548 3:0.19168238 4:0.51223746 
1 1 1 1 1:0 2:1 3:0.81718091 4:0.77581779 
1 1 0 1 1:1 2:0.22853831 3:0 4:0.41042296 
1 1 1 1 1:0.89007981 2:1 3:0.29671711 4:0.24674431 
1 1 1 1 1:0 2:0.89736853 3:1 4:0.66488023 
1 1 1 1 1:0.029285443 2:0.53087286 3:0.023963725 4:0.95539614 
0 1 0 1 1:0 2:0.14120721 3:0.10714376 4:0.036595075 
1 1 1 0 1:0 2:0.91154144 3:0.93573952 4:0.91149008 
0 1 0 1 1:0.77115122 2:0.15179015 3:0.48187897 4:0.29012097 
1 1 0 1 1:1 2:0 3:0.36641648 4:0.53410473 
1 1 1 1 1:0 2:0.63355357 3:0.5062382 4:0.43519314 
1 1 1 0 1:0 2:0.7186809 3:0.88221539 4:0.8772194 
1 1 1 1 1:0 2:1 3:0.8377567 4:0.7607152 
0 1 1 1 1:0 2:0.36781845 3:0.26356951 4:0.39631058 
1 1 0 1 1:1 2:0.67738308 3:0 4:0.30609251 
0 1 1 0 1:0.28667 2:0.39793891 3:0 4:0.63937085 
1 1 1 1 1:0.46358365 2:0.26231103 3:0.73201133 4:0.45496963 
1 1 1 1 1:0 2:1 3:0.87470992 4:0.82359307 
1 1 1 1 1:0.45578183 2:0.73180622 3:0.53864222 4:0 
1 1 1 1 1:0 2:0.82432166 3:0.98314295 4:0.3837492 
1 1 1 1 1:0 2:1 3:0.94889693 4:0.74167661 
1 1 1 1 1:0 2:0.63729012 3:0.30389877 4:0.43985905 
1 1 1 1 1:0.32078527 2:0.59732611 3:0 4:0.705659 
1 1 0 1 1:1 2:0.30127972 3:0.5826928 4:0 
1 1 1 1 1:0 2:0.99687399 3:0.9354332 4:0.81282079 
1 1 1 1 1:0 2:0.84118805 3:0.77521742 4:0.82844027 
1 1 0 1 1:1 2:0.15375076 3:0.36457665 4:0.38424852 
1 0 1 1 1:0 2:0.98942089 3:0.97249324 4:0.90018573 
1 1 1 1 1:0.10749872 2:1 3:0 4:0.89874596 
1 1 1 0.6725561597852181 1:0 2:0.70791309 3:0.6377373 4:0.9377786 
1 1 1 1 1:0 2:0.81608973 3:0.75500449 4:0.77203797 
1 1 1 0 1:0 2:0.54948135 3:0.61200934 4:0.72174856 
1 1 1 1 1:0 2:0.8015628 3:0.93650887 4:0.81527704 
1 1 1 1 1:0 2:0.15374306 3:0.73158127 4:0.42150613 
1 1 1 1 1:0.33460429 2:0.55278274 3:0.24363264 4:1 
1 1 1 1 1:0.08583205 2:0.75194383 3:0 4:0.92784176 
1 1 0 1 1:0.85015583 2:0 3:0.6106959 4:0.42902628 
1 1 0 1 1:1 2:0 3:0.53844759 4:0.15542852 
1 1 0 1 1:1 2:0.23248573 3:0.29631944 4:0.26559319 
1 1 1 1 1:0 2:0.68675644 3:0.539294 4:0.47786337 
1 1 0 1 1:1 2:0.21113569 3:0.073429672 4:0.22133522 
1 1 0 1 1:1 2:0.17158635 3:0 4:0.27452683 
1 1 1 1 1:0 2:1 3:0.90714044 4:0.75792508 
1 1 1 1 1:0 2:0.95446649 3:0.86688738 4:0.92257073 
1 1 1 1 1:1 2:0.37163072 3:0.24112257 4:0.55072139 
1 1 1 1 1:0 2:0.98018644 3:0.98185296 4:0.87558568 
1 1 1 1 1:0.18043816 2:0.54919758 3:0.50831059 4:0.35859006 
1 1 0 1 1:1 2:0.34751332 3:0.15153303 4:0.48176089 
1 1 1 1 1:0.43428411 2:0.74721062 3:0.54311384 4:0 
1 1 1 0 1:0.64127639 2:0 3:0.97508628 4:1 
1 1 1 1 1:1 2:0.34481248 3:0.22144633 4:0.49499041 
0 1 1 0 1:0 2:0.55633332 3:0.40192126 4:0.77177675 
1 1 0 1 1:1 2:0.3089421 3:0.2734656 4:0.46066024 
1 1 1 1 1:0 2:1 3:0.16988006 4:0.57965807 
1 1 1 1 1:0 2:0.14711653 3:0.91184529 4:0.77336054 
1 1 0 1 1:1 2:0 3:0.3601407 4:0.14477007 
1 1 1 1 1:0 2:1 3:0.97943863 4:0.30437606 
1 1 1 0 1:0 2:0.59174647 3:0.57319844 4:0.78121483 
1 1 1 1 1:0.2344944 2:0.47569953 3:0.441491 4:0.071636806 
1 1 0 1 1:1 2:0.22382438 3:0.059443025 4:0.26179582 
1 1 0 1 1:1 2:0.73239703 3:0 4:0.33610198 
1 1 0 1 1:1 2:0.80037092 3:0.47682586 4:0 
1 1 0 1 1:1 2:0 3:0.3517054 4:0.072367623 
1 1 1 1 1:1 2:0.15501003 3:0.37266126 4:0.79178238 
1 1 1 0 1:0 2:0.7394946 3:0.92688345 4:0.84379752 
1 1 1 1 1:1 2:0.57554246 3:0.36579708 4:0.59764925 
1 0.3182499540784458 1 1 1:0 2:0.9554052 3:0.68512477 4:0.92902373 
1 1 0 1 1:1 2:0.82356665 3:0.92559432 4:0 
1 1 0 1 1:0.71715429 2:1 3:0 4:0.35140472 
1 1 0 1 1:0.85135073 2:0 3:0.57088851 4:0.43906078 
1 1 1 1 1:1 2:0.26715182 3:0.42088743 4:0.53197347 
1 1 1 0 1:0 2:0.90614386 3:1 4:0.883735 
1 1 1 1 1:0 2:0.76795074 3:0.98589275 4:0.82139992 
1 1 1 1 1:0 2:0.68519087 3:1 4:0.60116916 
1 1 1 1 1:0.48085373 2:0.28208705 3:0.72211986 4:0.44065208 
1 1 0 1 1:1 2:0 3:0.70775938 4:0.44217973 
1 1 1 1 1:0.62629799 2:0.42591164 3:0.53272449 4:0.4163691 
0 1 0 1 1:0.68977171 2:0.19238172 3:0 4:0.21504357 
1 1 1 1 1:0 2:0.85184802 3:0.56065196 4:0.85408059 
1 1 1 1 1:0.4341352 2:1 3:0.31833061 4:0.034753531 
1 1 1 1 1:0 2:0.95597326 3:0.93797097 4:0.74801888 
1 1 1 1 1:0 2:0.91125421 3:0.88407737 4:0.80002379 
1 1 0 1 1:1 2:0 3:0.67768524 4:0.067353619 
1 1 1 0 1:0 2:0.9331644 3:0.96186881 4:0.89082834 
1 1 1 1 1:0 2:0.98691039 3:0.98254907 4:0.88404217 
1 1 1 0 1:0 2:0.96807248 3:0.97449897 4:0.91300152 
1 1 1 1 1:0.95903305 2:1 3:0.6285012 4:0.19967981 
1 1 1 0 1:0.55434896 2:0.42266597 3:0.59477726 4:0.98772735 
1 1 0 1 1:1 2:0.22894968 3:0 4:0.14109092 
1 1 0 1 1:1 2:0.25867793 3:0.22498586 4:0.44647412 
1 1 1 1 1:0 2:0.98765074 3:0.93321226 4:0.88540412 
1 1 1 0 1:0 2:0.73946161 3:0.8895732 4:0.88271623 
1 1 1 1 1:0 2:0.77893863 3:0.38285544 4:0.30214918 
1 1 1 1 1:0.044144085 2:0.73429394 3:0 4:0.92608418 
1 0 1 0 1:0 2:0.969041 3:0.98518451 4:0.91302196 
1 1 1 0 1:0 2:0.94119976 3:0.97493536 4:0.89442734 
1 1 1 1 1:0 2:0.86712877 3:0.95920775 4:0.73733904 
1 1 1 1 1:0 2:0.86480867 3:0.80533802 4:0.70471726 
1 1 1 1 1:0.14515058 2:0.44666029 3:0.31487371 4:0.20859117 
1 1 1 1 1:0 2:0.97788415 3:0.78473996 4:0.8374883 
1 1 1 1 1:0 2:1 3:0.63639795 4:0.11127672 
1 1 1 1 1:0 2:0.85241574 3:0.91294696 4:0.78659611 
1 1 1 1 1:1 2:0.33866006 3:0.18974895 4:0.50769108 
1 1 0 1 1:1 2:0.77196667 3:0 4:0.31234106 
1 1 0 1 1:1 2:0 3:0.33278571 4:0.41293908 
1 1 1 1 1:0 2:0.92023032 3:0.89102069 4:0.88106705 
1 1 0 1 1:0.96297974 2:1 3:0 4:0.23069254 
1 1 1 1 1:0 2:0.6042127 3:0.89328953 4:0.77405921 
1 1 0 1 1:1 2:0.24862575 3:0.27212832 4:0.4485787 
1 1 1 0 1:0 2:0.7993941 3:0.87843266 4:0.84418587 
1 1 1 1 1:0 2:0.93561591 3:0.98366281 4:0.8360737 
1 1 1 1 1:0 2:0.63627042 3:0.51163552 4:0.44503718 
1 1 0 1 1:1 2:0.30113345 3:0.18740811 4:0.48541095 
1 1 1 0 1:0 2:0.94119976 3:0.97493536 4:0.89442734 
1 0 1 1 1:0 2:1 3:0.27599302 4:0.89684446 
0 1 1 0 1:0.44249002 2:0.37003423 3:0.3867202 4:0.8724998 
1 1 1 1 1:0 2:0.59324638 3:0.89170655 4:0.77020483 
1 1 0 1 1:1 2:0.86301767 3:0.65926302 4:0 
1 1 1 1 1:0 2:0.84398939 3:0.80846293 4:0.82381783 
1 1 0 1 1:0.96218619 2:0.66489489 3:0.11907503 4:0.29776798 
1 1 1 1 1:0 2:0.86138896 3:0.90192965 4:0.75580908 
1 1 1 1 1:0.012339083 2:0.15581112 3:0.92014603 4:0.77485539 
1 1 1 1 1:0 2:0.32126031 3:1 4:0.50285445 
1 1 1 1 1:0 2:0.90507627 3:1 4:0.65512896 
1 1 1 1 1:0 2:0.95514743 3:0.68004197 4:0.92824217 
1 1 1 1 1:0 2:0.65123911 3:0.85035798 4:0.53826019 
1 1 0 1 1:0.73493473 2:0.3923768 3:0 4:0.44075438 
0 0 0 1 1:0.016609956 2:0.17153716 3:0.095449589 4:0 
1 1 1 0 1:0 2:0.79790777 3:1 4:0.86651446 
1 1 1 1 1:0 2:0.93717754 3:0.82141138 4:0.92475 
1 1 0 1 1:1 2:0 3:0.36963804 4:0.51671274 
1 0 1 1 1:0 2:0.9785075 3:0.98331569 4:0.89842097 
1 1 1 1 1:0.50249427 2:0.45414531 3:0.46624064 4:0.619088 
1 1 0 1 1:0.28812917 2:1 3:0 4:0.36531954 
1 1 0 1 1:1 2:0 3:0.53799546 4:0.5810438 
1 1 0 1 1:1 2:0.60846533 3:0.31262707 4:0 
1 1 1 1 1:0.18495883 2:0.86358734 3:0 4:0.93663183 
1 0 0 1 1:0 2:0.71011477 3:0.20972311 4:0.16912767 
1 1 1 1 1:0 2:0.88914074 3:1 4:0.79924648 
1 1 1 1 1:0 2:0.71675513 3:0.63627626 4:0.93938495 
1 1 1 0 1:0.50310521 2:0.44868957 3:0.52174697 4:1 
0 1 0 0 1:0.75100873 2:0.050924458 3:0.045076945 4:0.40469042 
1 1 1 1 1:1 2:0.3660713 3:0.37287672 4:0.46009277 
1 1 1 1 1:1 2:0.31379467 3:0.47135643 4:0.66604946 
1 1 1 1 1:0 2:1 3:0.34813155 4:0.63335925 
1 1 0 1 1:1 2:0.2989256 3:0.2161428 4:0 
1 1 1 1 1:0.73810297 2:1 3:0.17171449 4:0.32126769 
1 1 1 0 1:0 2:0.80266654 3:0.89949088 4:0.85377475 
1 1 1 1 1:0 2:0.98691039 3:0.98254907 4:0.88404217 
1 1 1 1 1:0.07494606 2:0.64164004 3:0.41732483 4:1 
1 1 0 1 1:1 2:0.058343518 3:0.11775559 4:0.076289437 
0 1 0 1 1:0.64962977 2:0.20580499 3:0 4:0.42954202 
1 1 0 1 1:1 2:0.45906427 3:0.42127113 4:0 
1 1 0 1 1:1 2:0.28835944 3:0.2589815 4:0.28123481 
1 0 1 1 1:0 2:0.90862791 3:0.63329725 4:0.98949964 
1 1 1 1 1:0.79298741 2:0.53609298 3:0.97969111 4:0.63994185 
1 1 0 1 1:1 2:0.057240465 3:0.878555 4:0.82435486 
1 1 1 1 1:0.11694992 2:1 3:0 4:0.90139784 
1 1 1 1 1:0 2:0.93971352 3:0.86954201 4:0.61590825 
1 0 1 1 1:0 2:0.74056553 3:0.23994747 4:0.21795016 
1 1 0 1 1:1 2:0 3:0.34863183 4:0.13223411 
1 1 1 1 1:0 2:0.27940837 3:0.82701788 4:0.77661741 
1 1 1 1 1:0.093692094 2:0.75441225 3:0 4:0.92871221 
1 1 0 1 1:1 2:0 3:0.47803365 4:0.56763117 
1 1 0 1 1:1 2:0.23933696 3:0.25276201 4:0.20561672 
1 0 1 1 1:0 2:0.70845767 3:0.21263324 4:1 
1 1 1 1 1:0 2:0.77647987 3:0.94447185 4:0.78768427 
1 1 0 1 1:1 2:0 3:0.65966609 4:0.337183 
1 1 1 1 1:0 2:0.65851925 3:0.85636913 4:0.54316633 
1 1 1 1 1:0.47978064 2:0.27860718 3:0.72949446 4:0.44515167 
1 1 1 1 1:0 2:0.95464659 3:0.91436485 4:0.70855941 
1 1 1 0 1:0 2:0.81431957 3:0.97489286 4:0.88796465 
1 1 1 1 1:0 2:0.99108428 3:0.83142622 4:0.79875034 
1 1 0 0.9486593068461225 1:0.83484942 2:0 3:0.75010706 4:0.6155934 
1 1 1 1 1:0 2:0.83143475 3:0.86155677 4:0.68693913 
1 1 0 1 1:1 2:0.016685503 3:0.32600277 4:0.42830147 
1 1 1 1 1:1 2:0.32808632 3:0.21937017 4:0.48626308 
1 1 1 1 1:0.82316963 2:0.43232631 3:1 4:0.77679827 
1 1 0 1 1:1 2:0.26023994 3:0.38492282 4:0.24961021 
1 1 0 1 1:1 2:0.26629547 3:0.26057546 4:0.4417548 
1 1 1 1 1:0 2:0.97845298 3:0.98539031 4:0.89740935 
1 1 0 1 1:1 2:0 3:0.38952585 4:0.40642249 
1 0 1 1 1:0 2:0.9831075 3:0.98447114 4:0.89543516 
1 1 1 1 1:0.14265616 2:0.46571451 3:0.3274393 4:0.2535497 
1 1 0 1 1:1 2:0 3:0.4916563 4:0.12719283 
1 1 1 1 1:0 2:0.65996461 3:1 4:0.58714502 
1 1 0 1 1:0.95617641 2:0.84005689 3:1 4:0 
1 1 1 1 1:0.62046368 2:0.43480289 3:0.53402164 4:0.42490884 
1 1 0 1 1:0.2045254 2:0.46164099 3:0.50864683 4:0.020152704 
1 1 1 1 1:0 2:0.99168817 3:0.92142697 4:0.77474109 
1 1 0 1 1:1 2:0.29183281 3:0 4:0.49705001 
1 1 0 1 1:0.15444309 2:0.27905781 3:0.87198113 4:0 
1 0 1 1 1:0 2:0.99313235 3:0.95087876 4:0.91787575 
0 1 0 1 1:1 2:0 3:0.2620403 4:0.23522598 
1 1 1 0 1:0 2:0.84551653 3:0.87535585 4:0.85588011 
1 1 1 1 1:0.49347409 2:0.43994364 3:0.46550929 4:0.64406051 
1 1 1 1 1:0.98735953 2:0.5671902 3:0.070782579 4:0.54009573 
1 1 1 1 1:0 2:0.95799637 3:0.91806387 4:0.71300057 
1 1 1 0 1:0 2:0.8770941 3:1 4:0.88213602 
1 1 1 1 1:0 2:0.91703282 3:0.8964713 4:0.85147158 
1 1 0 1 1:0.082805862 2:1 3:0 4:0.41124224 
1 1 0 1 1:1 2:0 3:0.52200389 4:0.57939616 
1 0 1 1 1:0 2:0.92381262 3:0.22706459 4:0.28560302 
1 1 1 1 1:0 2:0.86711534 3:0.95642169 4:0.7315111 
1 1 1 1 1:0 2:0.75125669 3:0.29253039 4:0.6649531 
0 1 1 1 1:0 2:0.38531873 3:0.2547137 4:0.37144537 
1 1 1 1 1:0.91077141 2:0.91701634 3:0.55792331 4:0 
1 1 1 1 1:0.3731735 2:0 3:0.98104565 4:0.464417 
1 1 1 1 1:0 2:0.73151686 3:0.70466109 4:0.56647929 
1 1 1 1 1:0.84418252 2:1 3:0.59563554 4:0 
1 1 1 0 1:0 2:0.8758229 3:1 4:0.87950674 
1 1 0 1 1:1 2:0 3:0.37618134 4:0.53404108 
1 1 0 1 1:1 2:0.65677535 3:0.2243797 4:0.24990698 
1 1 1 1 1:0 2:0.87543217 3:0.91358441 4:0.80155692 
1 0 1 0 1:0 2:0.96967887 3:0.97438967 4:0.91211706 
1 1 1 1 1:0 2:0.9785422 3:0.9836456 4:0.89814764 
0 1 0 1 1:0.036527922 2:0.17585533 3:0.13347089 4:0 
1 1 1 1 1:0 2:0.848414 3:0.65932489 4:0.92692431 
1 1 0.0768350531273352 1 1:1 2:0.86084438 3:0.4891271 4:0.10139212 
1 1 1 1 1:0 2:0.91974269 3:0.89047035 4:0.88099368 
1 1 0 1 1:1 2:0 3:0.54365245 4:0.37619249 
0 1 1 1 1:0.15334262 2:0.43775481 3:0.30946828 4:0.2092666 
1 1 1 1 1:0.0583722 2:1 3:0 4:0.91722423 
0 1 0 1 1:0.033936176 2:0.18570897 3:0.15043541 4:0 
1 1 1 1 1:0.75190277 2:0.67303041 3:0.49189005 4:0.12992727 
0 1 1 0 1:0 2:0.34607547 3:0.17401629 4:0.798944 
1 1 0 1 1:1 2:0.29904556 3:0.060685593 4:0.28239545 
1 1 1 1 1:0 2:0.98691039 3:0.98254907 4:0.88404217 
1 1 1 1 1:0 2:0.94709646 3:0.90274087 4:0.7875704 
1 1 1 1 1:0 2:1 3:0.63637474 4:0.8284304 
1 1 0 1 1:0.93274574 2:0.18261101 3:0 4:0.30077539 
1 1 1 1 1:0 2:0.84396949 3:0.78089584 4:0.75886172 
1 1 1 1 1:0.84763436 2:0.64768458 3:0.59303277 4:0.61084655 
1 1 1 0 1:0 2:0.7394946 3:0.92688345 4:0.84379752 
1 1 0 1 1:0.79304382 2:0.35272022 3:0.13522701 4:0.2569724 
1 1 0 1 1:1 2:0 3:0.37147279 4:0.15494814 
1 1 1 0 1:0 2:0.70039289 3:0.63375745 4:0.93250363 
1 1 0 1 1:1 2:0.53927386 3:0.076417511 4:0.2890326 
0 1 1 1 1:0 2:0.40640382 3:0.31142787 4:0.42138823 
1 1 1 1 1:0.1095094 2:1 3:0 4:0.90036049 
1 1 1 0 1:0.60182233 2:0.047300223 3:0.7013714 4:1 
1 1 1 1 1:0.23642759 2:0.47366355 3:0.43313852 4:0.071941666 
1 1 0 1 1:0.19953098 2:0.45693154 3:0.52630709 4:0.011017947 
1 1 1 1 1:0 2:0.65061014 3:0.84407882 4:0.52016223 
1 1 1 0 1:0.7456377 2:0 3:0.62209481 4:0.92651706 
1 1 1 1 1:0.62179584 2:0.44114657 3:0.53327847 4:0.42154882 
0 1 0 1 1:0.8443317 2:0.073015915 3:0.01914904 4:0.20276876 
1 1 1 1 1:0 2:0.86682811 3:0.78280682 4:0.89494086 
1 1 0 1 1:1 2:0.15598635 3:0 4:0.6494315 
1 1 0 1 1:1 2:0.043849969 3:0.14556785 4:0.10245087 
1 1 1 0 1:0 2:0.59417702 3:0.40105922 4:0.90504593 
1 1 0 1 1:0.1012622 2:1 3:0 4:0.41280526 
1 1 1 1 1:0.091659571 2:0.75411538 3:0 4:0.92719072 
1 1 0 1 1:1 2:0 3:0.50948698 4:0.57351087 
1 1 0 1 1:1 2:0.86045443 3:0 4:0.26718978 
1 1 1 1 1:0.34749474 2:0.28784678 3:1 4:0.37227212 
1 1 1 0 1:0 2:0.70863239 3:0.63816436 4:0.93331645 
1 1 1 1 1:0 2:1 3:0.93235296 4:0.83801017 
1 1 1 1 1:0 2:0.79218999 3:0.75369184 4:0.7313956 
1 1 0 1 1:0.79373924 2:0.64807088 3:0.48779671 4:0.090121892 
1 1 1 0 1:0 2:0.79562612 3:0.88230015 4:0.84878886 
1 1 0 1 1:1 2:0.6586555 3:0.22124908 4:0.23826524 
1 1 1 1 1:1 2:0.33010501 3:0.26221567 4:0.55655859 
1 1 1 1 1:0 2:0.84143891 3:0.86932512 4:0.71482347 
1 1 1 0 1:0 2:0.57943458 3:0.35778142 4:0.90272567 
1 1 1 1 1:0.78486607 2:0.66483138 3:0 4:1 
1 1 1 0 1:0 2:0.82376984 3:1 4:0.85431406 
1 1 1 1 1:0.6303706 2:1 3:0.22705821 4:0.17025785 
1 1 1 1 1:0 2:0.97315409 3:0.9776984 4:0.88897059 
1 1 0 1 1:0.93812415 2:0.89971956 3:0.42528256 4:0 
1 1 1 1 1:0 2:0.94987376 3:0.9259519 4:0.87143747 
1 1 1 1 1:0 2:0.92775315 3:0.90304774 4:0.88462369 
1 1 1 1 1:0 2:0.95409857 3:0.80178468 4:0.73296587 
1 1 1 1 1:0 2:0.94184032 3:1 4:0.68714688 
1 1 1 1 1:1 2:0.71363928 3:0.39285535 4:0.47965039 
1 1 1 1 1:0 2:0.85048595 3:0.80266257 4:0.75853257 
1 1 0 1 1:1 2:0 3:0.80524191 4:0.48820681 
1 0 1 1 1:0 2:0.72063015 3:0.13969572 4:0.98165224 
1 1 1 1 1:0 2:0.96595815 3:0.94493543 4:0.87683787 
1 1 0 1 1:1 2:0.068960633 3:0.12875544 4:0.072393025 
1 1 1 0 1:0 2:0.88519272 3:1 4:0.88190448 
1 1 0 1 1:1 2:0.27142089 3:0 4:0.51662453 
1 1 1 1 1:0.23577885 2:0.47093507 3:0.44165444 4:0.077908602 
1 1 0 1 1:0.23080281 2:0.47525115 3:0.41473595 4:0.065317935 
1 1 0 1 1:0.84392597 2:0 3:0.61228414 4:0.47342927 
1 1 1 1 1:0 2:0.86277755 3:0.76702558 4:0.92143464 
1 1 1 1 1:0 2:0.98694624 3:0.98292158 4:0.88393438 
1 1 0 1 1:0.88452844 2:0.67903077 3:0.23606521 4:0 
1 1 1 1 1:0 2:0.72528406 3:0.77458161 4:0.69750655 
1 1 1 1 1:0 2:0.89076633 3:0.94427785 4:0.85783318 
1 1 1 1 1:0 2:0.9669882 3:0.95715042 4:0.74503764 
1 1 1 1 1:0.33094634 2:0.59914204 3:0 4:0.70830766 
1 1 0 1 1:1 2:0 3:0.079637879 4:0.059078136 
1 1 1 1 1:0.46662921 2:0.27113343 3:0.71161094 4:0.45905844 
1 1 0 1 1:1 2:0.75318685 3:0.48835583 4:0 
1 1 1 1 1:0 2:0.70426332 3:1 4:0.77422129 
1 1 1 0 1:0 2:0.91351091 3:0.95136302 4:0.89604782 
1 1 0 1 1:1 2:0.22651302 3:0.0595312 4:0.23983653 
1 0 1 1 1:0 2:0.98050147 3:0.47792462 4:0.90890987 
1 1 1 1 1:1 2:0.34037767 3:0.21020572 4:0.50211617 
1 1 0 1 1:1 2:0.10658603 3:0.31295096 4:0.28243345 
1 1 1 1 1:0 2:1 3:0.92421557 4:0.76905097 
1 1 1 1 1:0 2:0.86831375 3:0.64077449 4:0.91547576 
1 1 1 0 1:0 2:0.96687596 3:0.98521409 4:0.89547799 
1 0 1 1 1:0 2:0.67756406 3:0.15666264 4:1 
1 1 0 1 1:1 2:0.30327898 3:0.17791361 4:0 
1 1 0 1 1:1 2:0.22272268 3:0 4:0.16371519 
1 1 1 1 1:0 2:0.80396188 3:0.32932986 4:0.90863895 
0 1 0 1 1:0 2:0.33750077 3:0.24514499 4:0.16685234 
1 1 1 1 1:0.35526885 2:0.30662966 3:1 4:0.36389545 
1 1 1 0 1:0 2:0.73995689 3:0.9080715 4:0.90338606 
1 1 0 1 1:1 2:0 3:0.80033691 4:0.49448601 
1 0 1 1 1:0 2:0.70143111 3:0.083699882 4:0.9851941 
1 1 1 1 1:0 2:0.91819063 3:0.84465448 4:0.91100798 
1 1 0 1 1:1 2:0.47423815 3:0.30452737 4:0 
1 1 1 1 1:0 2:0.57211244 3:0.47090869 4:0.40425382 
1 1 1 1 1:0 2:0.89557491 3:0.91898464 4:0.81043228 
1 1 1 1 1:1 2:0.3444359 3:0.24724719 4:0.5547244 
1 1 1 1 1:0 2:0.88033607 3:0.92017346 4:0.82473393 
1 1 1 1 1:0 2:0.87487108 3:0.80422546 4:0.89302057 
1 1 1 0 1:0 2:0.69656131 3:0.62899667 4:0.93562402 
1 1 1 1 1:0.63464423 2:0.59507489 3:1 4:0.28330291 
1 1 1 1 1:0 2:0.76096056 3:0.98755253 4:0.81961893 
1 1 0 1 1:0.89225949 2:0 3:0.59527671 4:0.43309077 
1 1 1 1 1:1 2:0.74339606 3:0.73536168 4:0.47007601 
1 1 1 1 1:0 2:0.86935277 3:1 4:0.83338187 
1 1 1 1 1:0 2:0.96827427 3:0.93382773 4:0.76054321 
1 1 0 1 1:1 2:0 3:0.22442371 4:0.45149841 
1 1 0 1 1:1 2:0 3:0.80476731 4:0.48568094 
1 1 1 0 1:0.21039485 2:0 3:0.46945233 4:1 
1 1 1 1 1:0 2:0.96247452 3:0.72347315 4:0.69686877 
1 1 0 1 1:1 2:0.18951203 3:0.39515859 4:0.16041906 
1 1 1 1 1:0 2:1 3:0.29051768 4:0.67319276 
1 1 1 1 1:0.40716266 2:1 3:0.65684499 4:0.5401147 
1 1 1 1 1:1 2:0.88348465 3:0.54351441 4:0.2524827 
1 1 0 1 1:0.81935403 2:0.0063634326 3:1 4:0 
1 1 1 1 1:0.33943263 2:0.27645101 3:1 4:0.37897208 
1 1 1 1 1:0 2:1 3:0.95001751 4:0.65243655 
0 1 1 0 1:0 2:0.34540472 3:0.17210549 4:0.80205034 
1 1 0 1 1:1 2:0.21366621 3:0 4:0.20023392 
1 0 1 1 1:0 2:0.98758917 3:0.98842834 4:0.89410711 
1 1 1 1 1:0 2:0.76652479 3:0.98345964 4:0.81448911 
1 1 0 1 1:1 2:0.66162106 3:0.21320898 4:0.24085821 
1 1 1 1 1:0 2:0.65890139 3:0.85468492 4:0.53760871 
1 1 0 1 1:1 2:0.1539107 3:0.29430879 4:0.17463176 
1 1 1 0.6358857306414127 1:0 2:0.80380049 3:1 4:0.84364767 
1 0 1 1 1:0 2:1 3:0.15090279 4:0.87617916 
1 1 1 0 1:0.96819563 2:0 3:0.52377339 4:0.65662352 
1 1 1 1 1:1 2:0.42212419 3:0 4:0.84893227 
1 1 1 1 1:0.49147377 2:0.4504061 3:0.47252131 4:0.6208884 
1 1 0 1 1:1 2:0.28801944 3:0.25856032 4:0.19755217 
1 1 1 0.6971060575088215 1:1 2:0.14378127 3:0.37197977 4:0.77654864 
0 1 1 1 1:0.13518897 2:0.43283303 3:0.32351199 4:0.21910499 
1 1 1 1 1:0.46895583 2:0.27185411 3:0.69658534 4:0.44446915 
1 1 1 1 1:0 2:0.8735662 3:0.95040688 4:0.72735821 
1 1 1 0 1:0 2:0.8938805 3:0.96322207 4:0.87731388 
1 1 1 1 1:0 2:0.9023471 3:0.90349885 4:0.80750318 
1 1 1 0 1:0 2:0.96573277 3:0.98974349 4:0.89416576 
1 1 0 1 1:1 2:0.0098051403 3:0.073805703 4:0.50532698 
1 1 1 1 1:0.77538056 2:0.52570447 3:0.68341901 4:0.99031453 
1 1 1 0 1:0 2:0.95242239 3:0.97838856 4:0.89431706 
1 1 1 1 1:0 2:0.87629971 3:0.86038057 4:0.677247 
1 1 1 1 1:0.19780669 2:0.63146471 3:0.69004222 4:0 
1 1 0 1 1:1 2:0.45632006 3:0.28596999 4:0.3399619 
1 1 1 1 1:0.70282365 2:0.48714148 3:0.57755353 4:1 
1 1 1 1 1:1 2:0.3497835 3:0.26560999 4:0.54998024 
1 1 0 1 1:1 2:0.38152989 3:0.67247628 4:0 
1 1 1 1 1:0 2:1 3:0.85433192 4:0.80690252 
1 1 1 1 1:0.052309558 2:0.46550973 3:1 4:0.46880772 
1 1 0 1 1:1 2:0.24767222 3:0.25542457 4:0.445617 
1 1 1 0 1:0 2:0.73468547 3:0.88813657 4:0.88092722 
1 1 1 0 1:1 2:0 3:0.30331663 4:0.87387232 
1 1 1 1 1:0 2:0.75368659 3:0.83615068 4:0.73355761 
1 1 0 1 1:1 2:0.12439681 3:0.19131774 4:0.23837754 
1 1 1 1 1:0 2:0.87455048 3:0.93380359 4:0.79134228 
1 1 1 0 1:0 2:0.7369795 3:0.88965723 4:0.88241126 
1 1 1 0 1:0 2:0.70265498 3:0.63617692 4:0.93512703 
1 1 0 1 1:1 2:0.23903774 3:0.064925842 4:0.2422641 
1 1 1 1 1:0.28024543 2:0.2614181 3:1 4:0.39327817 
0 1 1 0 1:0.05569721 2:0.38692715 3:0.15150806 4:0.37189388 
1 1 1 0 1:0.97417095 2:0 3:0.52126027 4:0.66204182 
1 1 1 1 1:0.59820666 2:0.61683273 3:1 4:0.29443553 
1 1 1 1 1:0.46879708 2:0.2750596 3:0.69603486 4:0.42970758 
1 1 0 1 1:0.6128583 2:1 3:0.0082968384 4:0 
1 1 0 1 1:1 2:0.48316002 3:0.14859759 4:0.45727939 
1 1 0 1 1:1 2:0.11859174 3:0.40821669 4:0.18046334 
1 1 1 1 1:0.36401754 2:0 3:0.979266 4:0.47494715 
1 1 1 1 1:0 2:0.73776435 3:0.82773977 4:0.73003847 
1 0 1 1 1:0 2:0.98943188 3:0.97250705 4:0.9001921 
1 1 1 1 1:0 2:0.90188489 3:0.84171482 4:0.80397548 
1 1 1 1 1:0 2:0.83857671 3:0.82904758 4:0.77474695 
1 1 1 1 1:0.090411341 2:0.47407492 3:1 4:0.44905278 
0 1 0 1 1:0.77221657 2:0.1098555 3:0.025455336 4:0.35124796 
1 1 1 1 1:0.47640286 2:0.26658037 3:0.7408135 4:0.43917729 
1 1 0 1 1:1 2:0.40782445 3:0.24199596 4:0.31462352 
1 1 1 1 1:0 2:0.94788424 3:0.76294324 4:0.71233467 
0 0 0 1 1:0.0025496657 2:0.1452592 3:0.10943239 4:0 
1 1 1 1 1:0.16055416 2:0.7769434 3:0.63678893 4:0.79687788 
1 1 1 0 1:0 2:0.57311003 3:0.35168791 4:0.90281033 
1 1 1 1 1:0.81775764 2:0.49195457 3:0.9852955 4:0.65279214 
1 1 0 1 1:1 2:0.23985345 3:0.058408035 4:0.26046329 
1 1 1 0 1:0 2:0.81476619 3:0.92844234 4:0.87107385 
1 1 1 1 1:0 2:0.8248552 3:0.88949567 4:0.70273808 
1 1 0 1 1:0.77348802 2:0.64783459 3:0.50231206 4:0.077517964 
1 0 1 1 1:0 2:0.94174193 3:0.21109185 4:0.27419614 
0 1 1 0 1:0.41400464 2:0.20719047 3:0 4:0.64011859 
1 1 1 1 1:1 2:0.14800035 3:0 4:0.66481698 
1 1 0 1 1:1 2:0.75876609 3:0.78482316 4:0 
1 0 1 1 1:0 2:0.98403035 3:0.97291185 4:0.8987094 
1 1 1 1 1:0 2:0.57982299 3:0.49191085 4:0.45090087 
1 1 1 1 1:0 2:0.92312691 3:0.86315331 4:0.81434109 
1 1 1 1 1:0.37898385 2:0 3:0.98273127 4:0.46561863 
1 1 1 1 1:0.30376738 2:0.26887457 3:1 4:0.38724565 
1 1 1 0 1:0 2:0.81095166 3:1 4:0.88582943 
1 1 0 1 1:1 2:0.7694642 3:0.93434801 4:0 
0 1 0 1 1:0.97393479 2:0 3:0.29077209 4:0.39982433 
1 1 1 0 1:0 2:0.77619721 3:0.92242443 4:0.87346742 
1 1 0 1 1:1 2:0.069619474 3:0.36151305 4:0.40277882 
1 1 1 1 1:0 2:0.87976026 3:1 4:0.79356292 
1 1 1 1 1:0 2:0.26608003 3:0.92993807 4:0.87788873 
1 1 0 1 1:1 2:0.014952955 3:0.033320309 4:0.051207236 
1 1 1 1 1:0.39111715 2:0.16318527 3:1 4:0.59093949 
1 0 1 1 1:0 2:0.98518209 3:0.99001879 4:0.89173139 
1 1 1 1 1:0 2:0.96175951 3:0.79876048 4:0.73842751 
1 1 1 0 1:0 2:0.8014796 3:0.90032498 4:0.85141013 
1 1 1 1 1:0 2:0.75806557 3:0.98330983 4:0.80847021 
1 1 1 1 1:0 2:0.39806452 3:0.80064958 4:0.8782396 
1 1 0 1 1:0.8404494 2:0.23095694 3:0.26815487 4:0.20752382 
1 1 1 1 1:1 2:0.34444021 3:0.19720525 4:0.49873498 
1 1 0 1 1:0.52903852 2:1 3:0.069527539 4:0.048447343 
1 1 0 1 1:1 2:0.22182802 3:0 4:0.20166829 
1 1 1 1 1:0 2:0.82007639 3:0.76330996 4:0.68972401 
-1 1 0 1 1:1 2:0.069091536 3:0.25840202 4:0.35342484 
-1 1 1 1 1:0.46747311 2:1 3:0.65087432 4:0.23238315 
-1 1 0 1 1:1 2:0.29457241 3:0 4:0.39699009 
-0 1 0 1 1:1 2:0.86409527 3:0.16442194 4:0 
-1 1 0 1 1:1 2:0 3:0.76241412 4:0.62359818 
-1 1 0 1 1:0.52581876 2:1 3:0.002112037 4:0.24314695 
-1 1 1 1 1:0.88894642 2:0.74436456 3:1 4:0.53438955 
-1 1 1 0 1:0 2:0.81508538 3:1 4:0.92849065 
-1 1 1 1 1:0 2:0.082127202 3:0.67504651 4:0.88319783 
-1 1 0 1 1:1 2:0.28723271 3:0.25781575 4:0 
-1 1 1 1 1:1 2:0.4123993 3:0.29492114 4:0.73337797 
-1 1 0 1 1:1 2:0.13470156 3:0.25134844 4:0 
-1 1 1 1 1:0 2:0.86190145 3:0.79584364 4:0.81990437 
-1 1 1 1 1:0 2:0.90200769 3:0.75023319 4:1 
-1 1 1 1 1:0 2:0.872662 3:0.82483768 4:0.84888649 
-1 1 1 1 1:1 2:0.51569876 3:0.42990555 4:0.64432867 
-1 1 1 1 1:0 2:0.64520055 3:0.80908828 4:0.75638236 
-1 1 0 1 1:1 2:0.64920048 3:0 4:0.3198216 
-1 1 0 1 1:1 2:0.65112141 3:0 4:0.33138792 
-1 1 1 1 1:0 2:0.876226 3:0.90515297 4:0.83857783 
-1 1 0 1 1:0.91183402 2:0 3:0.84839483 4:0.3577041 
-1 1 1 1 1:0.27873196 2:0.3939978 3:1 4:0.30483651 
-1 1 0 1 1:1 2:0.57139147 3:0.56960034 4:0 
-1 1 0 1 1:1 2:0.097386135 3:0.18757495 4:0.28422276 
-1 1 1 1 1:0 2:1 3:0.26043449 4:0.21510213 
-1 1 1 0 1:0.55882162 2:0.31387274 3:0.60226459 4:1 
-0 0 0 1 1:0.80454282 2:1 3:0.07893444 4:0 
-1 1 1 1 1:0.54683497 2:0.48136829 3:1 4:0.48244677 
-1 1 1 1 1:0 2:0.36711465 3:1 4:0.60743014 
-1 1 0 1 1:1 2:0.1839765 3:0.29242345 4:0.19147343 
-1 1 1 0 1:0.40911943 2:0 3:0.97076353 4:0.8967515 
-1 1 1 1 1:0 2:0.9031579 3:0.8923416 4:0.62055883 
-1 1 1 0 1:0 2:0.98563525 3:0.92904726 4:0.90373346 
-1 1 1 1 1:0 2:0.42738924 3:0.97122767 4:0.79235085 
-1 1 1 1 1:0 2:0.80739147 3:0.6579892 4:0.88077166 
-1 1 1 1 1:0 2:0.75612568 3:1 4:0.77859956 
-1 1 1 1 1:0.49067119 2:1 3:0.42462156 4:0.37439204 
-1 1 1 1 1:0.85843327 2:0.64239106 3:0.535217 4:0.61752812 
-1 1 1 1 1:0.76417723 2:0.41619544 3:0.95619672 4:0.80507077 
-1 1 0 1 1:1 2:0.025779404 3:0.35295603 4:0.24647761 
-1 1 1 1 1:0.14447412 2:0 3:0.51473432 4:0.73350239 
-1 1 1 1 1:1 2:0.41138714 3:0.59002678 4:0.6872557 
-1 1 1 1 1:0 2:0.83775954 3:0.86524076 4:0.6621896 
-1 1 1 1 1:0 2:0.19262831 3:0.64575969 4:0.39302059 
-1 1 0 1 1:1 2:0.39620876 3:0 4:0.25508213 
-1 0 1 1 1:0 2:0.92885211 3:0.11543819 4:0.98749714 
-1 1 1 1 1:0 2:0.89394319 3:1 4:0.72306239 
-1 1 1 1 1:0 2:0.56601592 3:0.9568763 4:0.71375414 
-1 1 1 1 1:0 2:0.96637161 3:1 4:0.85295223 
-0 0 0.2458910189274249 1 1:0.77340573 2:1 3:0.75891492 4:0.13991719 
-1 1 0 1 1:0.99758818 2:0.62638333 3:0 4:0.85323144 
-1 1 1 1 1:0.59970367 2:1 3:0.57063886 4:0.43222156 
-1 1 0 1 1:1 2:0.31228474 3:0 4:0.47484351 
-1 1 0 1 1:0.61949913 2:0.0030804583 3:0.90123383 4:0.22230733 
-1 1 1 0 1:0 2:0.91589977 3:0.92220246 4:0.87934901 
-1 1 0 1 1:1 2:0.71632485 3:0.79684407 4:0.42375935 
-1 1 0 1 1:0.92999643 2:0.44168201 3:1 4:0.18685015 
-1 1 1 1 1:0 2:0.84155118 3:0.55823151 4:0.79125027 
-1 0 1 0 1:0 2:0.9826994 3:0.98372393 4:0.89719192 
-1 1 1 1 1:0 2:0.6185693 3:0.48559291 4:0.89743888 
-1 1 1 1 1:0 2:0.25639494 3:0.14360382 4:0.58650973 
-1 1 0 1 1:1 2:0.3328267 3:0.18095985 4:0.064698598 
-1 1 0 1 1:1 2:0.075854968 3:0.13596749 4:0.10026523 
-1 0 0 1 1:0.60314125 2:1 3:0.0048888712 4:0 
-1 1 1 0 1:0 2:0.80110299 3:0.72067872 4:0.93658678 
-1 1 1 1 1:0 2:0.89526721 3:0.87964087 4:0.7962424 
-1 1 1 1 1:0 2:1 3:0.84874613 4:0.87053111 
-1 1 1 1 1:0.6579003 2:1 3:0.32347324 4:0.83110134 
-1 1 1 1 1:0.93228158 2:0.67301463 3:1 4:0.62387214 
-1 1 1 1 1:0 2:0.93888992 3:0.96318241 4:0.73046924 
-1 1 0 1 1:1 2:0.26815084 3:0.067682464 4:0.22414152 
-1 1 0 1 1:1 2:0 3:0.15586096 4:0.40221713 
-1 1 1 1 1:0.287458 2:1 3:0 4:0.44754348 
-1 1 1 1 1:0.69158397 2:0.69425122 3:1 4:0.24999993 
-1 1 0 1 1:1 2:0.68048574 3:0.078969496 4:0 
-0 1 0 1 1:0.68130747 2:0.82102783 3:1 4:0.024866151 
-1 1 1 1 1:0 2:0.79889767 3:0.9291094 4:0.62652611 
-1 1 1 1 1:0 2:0.81389294 3:0.77029537 4:0.80723407 
-1 0 1 1 1:0 2:1 3:0.9374749 4:0.85678609 
-1 1 1 1 1:0 2:0.99020951 3:0.80316755 4:0.50664022 
-1 1 1 1 1:0 2:0.84017127 3:0.81538033 4:0.69235596 
-1 1 0 1 1:1 2:0.04723459 3:0.28103297 4:0.21135042 
-1 1 1 1 1:0.23614732 2:0.79705971 3:0 4:0.90285257 
-1 1 1 1 1:0.13056076 2:0.92818051 3:0.52365664 4:0 
-1 1 1 1 1:0.8983313 2:0.73202813 3:0.028989175 4:0.83715105 
-1 1 0 1 1:1 2:0 3:0.80932277 4:0.58905284 
-1 1 0 1 1:1 2:0.098188954 3:0.23378656 4:0.073743923 
-1 0 1 1 1:0 2:0.9846441 3:0.98840829 4:0.88107575 
-1 1 1 1 1:1 2:0.27435002 3:0.30451641 4:0.52380563 
-1 1 1 1 1:1 2:0.32600863 3:0.43762892 4:0.59063991 
-1 1 0 1 1:0.99758818 2:0.62638333 3:0 4:0.85323144 
-1 1 0 1 1:1 2:0.22881965 3:0.58617166 4:0.22969038 
-1 1 0 1 1:0.92999643 2:0.44168201 3:1 4:0.18685015 
-1 1 0 1 1:1 2:0.25616197 3:0.07229173 4:0.23402309 
-1 1 1 1 1:0 2:0.4351733 3:0.65225241 4:0.52314724 
-1 1 1 1 1:0 2:0.88572547 3:0.83537022 4:0.72661287 
-1 1 1 1 1:0 2:0.2393189 3:0.78646557 4:0.81810485 
-1 1 1 1 1:0 2:0.52865603 3:0.6134242 4:0.66107116 
-1 1 1 1 1:0 2:0.55337277 3:1 4:0.37295768 
-1 1 1 1 1:0 2:0.64520055 3:0.80908828 4:0.75638236 
-1 1 1 1 1:0 2:0.87362096 3:0.74375688 4:0.83613331 
-1 1 1 1 1:0 2:0.90411242 3:0.8448621 4:0.63566446 
-1 1 1 1 1:0 2:0.90770781 3:0.95462611 4:0.8620582 
-1 1 1 1 1:1 2:0.18307925 3:0.5094591 4:0.45618178 
-1 0 1 1 1:0 2:1 3:0.87036824 4:0.91395819 
-1 1 0 1 1:1 2:0.73681072 3:0.093820168 4:0.47994244 
-1 1 0 1 1:1 2:0.12103475 3:0.12167577 4:0.3108419 
-1 1 1 1 1:0 2:0.97929088 3:0.9780293 4:0.87568488 
-1 1 0 1 1:1 2:0.31949079 3:0 4:0.34105737 
-1 1 1 1 1:1 2:0.38188403 3:0.31964696 4:0.34117071 
-1 1 1 1 1:0 2:0.68107252 3:0.84301247 4:0.7229392 
-1 1 0 1 1:1 2:0 3:0.56588966 4:0.16707698 
-1 1 0 1 1:0.58259694 2:1 3:0.18951283 4:0.048579135 
-1 1 1 1 1:0.16924949 2:0.49713324 3:1 4:0.51782817 
-1 1 1 1 1:0 2:0.8767947 3:0.83733529 4:0.78742718 
-1 1 1 1 1:0 2:0.12756449 3:0.50198693 4:0.14497654 
-1 0 1 1 1:0 2:1 3:0.95646143 4:0.90185469 
-1 1 1 0 1:0.73924969 2:0 3:0.75595573 4:1 
-1 1 0 1 1:1 2:0.13470156 3:0.25134844 4:0 
-1 1 1 1 1:0.29112387 2:0.44506954 3:0.39619049 4:0 
-1 1 1 1 1:1 2:0.52740464 3:0.59219936 4:0.39401381 
-1 1 0 1 1:1 2:0.19670862 3:0.15591936 4:0.19500385 
-1 1 1 0 1:0.19513973 2:0 3:0.46694132 4:1 
-1 1 1 1 1:0 2:0.97440344 3:0.97924937 4:0.89012069 
-1 1 1 1 1:0 2:0.19747066 3:0.86301134 4:0.85647474 
-1 0 1 1 1:0 2:1 3:0.98375529 4:0.81909266 
-1 1 1 1 1:1 2:0 3:0.36355447 4:0.70859313 
-1 1 1 1 1:0.12601928 2:0.43244637 3:0.49858009 4:0.8447262 
-1 1 1 1 1:0 2:0.52200079 3:0.42456131 4:0.38283483 
-1 1 1 0 1:0 2:0.90690375 3:0.91870074 4:0.94541854 
-1 1 0 1 1:0.91639653 2:0 3:0.62109311 4:0.23505549 
-1 1 0 1 1:1 2:0.056562649 3:0.37320804 4:0.061346821 
-1 1 1 1 1:0 2:0.78336358 3:0.43593778 4:1 
-1 1 1 1 1:0 2:0.47672167 3:1 4:0.8114957 
-1 1 1 1 1:1 2:0 3:0.23038853 4:0.52015781 
-1 1 1 1 1:0 2:0.84954332 3:0.92790769 4:0.85144359 
-1 1 1 1 1:0 2:0.96074599 3:1 4:0.79385549 
-1 1 0 1 1:1 2:0.26115701 3:0.22713069 4:0.31067678 
-0 0 0 1 1:0.83614035 2:1 3:0.034037706 4:0.13516577 
-1 1 0 1 1:1 2:0.013376778 3:0.4056754 4:0.23245705 
-1 1 1 0 1:0 2:0.75669075 3:0.8907331 4:0.95412376 
-1 1 1 1 1:1 2:0.38400939 3:0 4:0.65231856 
-1 1 1 1 1:0 2:0.68090896 3:0.69813576 4:0.87028251 
-1 1 1 1 1:0 2:1 3:0.25785749 4:0.1914186 
-1 0 1 1 1:0 2:0.98631833 3:0.98214026 4:0.88060939 
-0 1 1 1 1:0.9540944 2:1 3:0.38191683 4:0.77010648 
-1 1 0 1 1:0.92623218 2:0.51819484 3:0 4:0.41558087 
-0 0 0 1 1:0.84568447 2:1 3:0.91654543 4:0 
-1 1 1 1 1:0 2:0.85407846 3:0.99545575 4:0.79762367 
-0 0 0 1 1:0.8556996 2:1 3:0.55606843 4:0 
-1 1 1 1 1:0 2:0.30238448 3:1 4:0.90639344 
-1 1 1 1 1:0.19119725 2:0.20786852 3:0 4:0.76360054 
-1 1 1 1 1:0 2:0.84153802 3:0.71580489 4:0.86122257 
-1 0 1 1 1:0 2:1 3:0.87294805 4:0.91304043 
-0 0.697460190738093 0 1 1:0.68466601 2:1 3:0 4:0.061952579 
-1 1 1 1 1:0 2:1 3:0.3376652 4:0.43163685 
-1 1 1 1 1:0 2:0.81361295 3:0.85155225 4:0.63615754 
-1 1 1 1 1:0 2:0.85993159 3:0.8275722 4:0.66651029 
-1 1 1 1 1:0.69231565 2:0.69485591 3:1 4:0.26070238 
-1 1 1 1 1:0.42355895 2:1 3:0 4:0.5101105 
-1 1 1 0 1:0 2:0.97520876 3:0.98216155 4:0.89219617 
-1 1 0 1 1:1 2:0.18010098 3:0.23638743 4:0.25346589 
-1 1 1 1 1:0 2:0.86965284 3:0.64367828 4:0.90874107 
-1 1 1 1 1:0.29161551 2:0.64862917 3:1 4:0.25319267 
-1 1 1 1 1:0 2:0.80748313 3:1 4:0.73337645 
-1 1 1 1 1:0.73718781 2:0.0319785 3:0.13007356 4:0.72296156 
-1 1 1 1 1:0 2:0.78376223 3:0.49928459 4:0.95869463 
-1 1 0 1 1:1 2:0 3:0.60258033 4:0.40039157 
-1 1 1 1 1:1 2:0.46115695 3:0.28182368 4:0.38492882 
-1 1 1 1 1:0 2:0.76756727 3:1 4:0.83952484 
-1 1 1 1 1:0 2:0.87430714 3:1 4:0.48242996 
-1 1 1 0 1:0 2:0.87855064 3:0.94630977 4:0.88121453 
-1 1 1 1 1:0 2:0.7638007 3:0.31224474 4:0.92527174 
-1 1 1 0 1:0 2:0.8491168 3:0.81713872 4:0.88052813 
-1 1 0 1 1:1 2:0.27262159 3:0.093773782 4:0 
-1 1 1 0 1:0 2:0.89876065 3:0.91398207 4:0.86738362 
-1 1 1 1 1:1 2:0.42533745 3:0.44182853 4:0.41572908 
-1 1 1 1 1:0 2:0.90658869 3:0.91956101 4:0.78572217 
-0 0 0 1 1:1 2:0.99559165 3:0.8364053 4:0.30647927 
-1 1 1 1 1:0 2:0.72758889 3:0.44599399 4:0.89876226 
-1 1 0 1 1:1 2:0.26610792 3:0.13369867 4:0 
-1 1 1 1 1:0 2:0.40093137 3:0.18967828 4:0.87546266 
-0 1 0 1 1:0.89863414 2:0.65867943 3:1 4:0 
-1 1 1 1 1:0 2:0.82598748 3:1 4:0.68927277 
-1 1 1 1 1:0 2:0.72509071 3:0.75701698 4:0.60665011 
-0 1 0 1 1:0.99602744 2:1 3:0 4:0.5353071 
-1 1 1 1 1:0.60464837 2:1 3:0.30071084 4:0.30041393 
-1 1 0 1 1:1 2:0.7517384 3:0.48248631 4:0 
-1 0 1 1 1:0 2:1 3:0.912381 4:0.89161416 
-1 1 1 1 1:0 2:0.52084295 3:0.46876157 4:0.7986702 
-1 1 1 1 1:0 2:0.4039535 3:0.844291 4:0.87580556 
-1 1 0 1 1:1 2:0.08287161 3:0.66862795 4:0.41264175 
-1 1 1 1 1:0.3846166 2:0 3:1 4:0.26579938 
-1 1 1 1 1:0 2:1 3:0.92614802 4:0.72685471 
-1 1 1 1 1:0 2:0.94558034 3:0.61042084 4:1 
-1 1 0 1 1:1 2:0 3:0.28899198 4:0.20426046 
-1 1 1 1 1:0 2:0.8937298 3:0.98777029 4:0.84842469 
-1 1 1 1 1:0 2:0.63823821 3:0.76557807 4:0.81709382 
-1 1 1 1 1:0 2:0.5363043 3:0.20212183 4:1 
-1 1 1 0 1:0 2:0.84719396 3:0.81503862 4:0.88023568 
-1 1 1 1 1:0 2:0.90728601 3:0.88305792 4:0.72838193 
-1 1 1 1 1:0 2:0.84015406 3:0.89514238 4:0.82073071 
-1 1 1 1 1:0.22037649 2:0.33128829 3:0 4:0.89181956 
-1 1 1 1 1:0.64990571 2:0.75346928 3:0.81737489 4:0.5503755 
-1 1 1 1 1:0 2:0.72584012 3:0.69961557 4:0.90219359 
-1 1 0 1 1:0 2:0.96127584 3:0.10610965 4:0.23262045 
-1 1 0 1 1:1 2:0.26429347 3:0 4:0.25712166 
-1 1 0 1 1:1 2:0.16956785 3:0.59087352 4:0.3367052 
-0 0 0 1 1:1 2:0.97708396 3:0 4:0.22573506 
-1 1 0 1 1:1 2:0.77914834 3:0.031729408 4:0.25064205 
-1 1 1 1 1:0 2:0.812997 3:0.88694076 4:0.66306414 
-1 1 0 1 1:1 2:0.43952935 3:0.24422132 4:0.33889479 
-1 1 1 1 1:0 2:1 3:0.87522854 4:0.72411188 
-1 1 1 1 1:0 2:0.96100172 3:0.8976056 4:0.79102202 
-1 0 1 1 1:0 2:0.98360469 3:0.98010661 4:0.87796953 
-1 1 0 1 1:1 2:0.16972946 3:0.44978252 4:0.21071352 
-1 1 1 0 1:0 2:0.75920193 3:0.92153744 4:0.8580596 
-1 1 1 1 1:0 2:0.016439223 3:0.46358445 4:0.29856168 
-1 1 1 1 1:0.83312738 2:0.42680039 3:1 4:0.77144938 
-1 1 1 1 1:0 2:0.3110556 3:0.55992353 4:0.98301271 
-1 1 1 1 1:0 2:0.87728123 3:0.90581273 4:0.84032552 
-1 1 1 0.1497822468719052 1:0 2:0.89053986 3:0.93148265 4:0.86276946 
-1 1 0 1 1:1 2:0.75467523 3:0.058448606 4:0.63512355 
-1 1 1 1 1:0 2:0.32038029 3:0.70016075 4:0.85843908 
-0 0 0 1 1:0.98286863 2:1 3:0 4:0.26180564 
-1 1 1 0 1:0.55676415 2:0.11179454 3:1 4:0.93498274 
-0 1 0 1 1:1 2:0.89736181 3:0.66060561 4:0.16556948 
-1 1 1 1 1:0 2:0.62919404 3:1 4:0.45003999 
-1 1 1 1 1:0 2:0.96685791 3:0.68518629 4:0.85286879 
-1 1 1 1 1:1 2:0.37380799 3:0.37729087 4:0.5459262 
-1 1 1 1 1:0 2:0.83437535 3:0.89158928 4:0.82923088 
-1 1 0 1 1:1 2:0.39307301 3:0.36173495 4:0 
-1 1 0 1 1:1 2:0 3:0.70473467 4:0.67959822 
-1 1 1 1 1:0 2:0.97645697 3:0.93564455 4:0.79665163 
-1 1 0 1 1:1 2:0.11926379 3:0.26528143 4:0.20033858 
-1 1 0 1 1:0.9836209 2:0.078950253 3:0.32044384 4:0.099076214 
-1 1 1 1 1:0.97263923 2:0.51787472 3:0.33401417 4:1 
-1 1 1 0 1:0 2:0.64396166 3:0.74233315 4:0.8784272 
-1 1 1 1 1:0.34435475 2:0.39704256 3:1 4:0.34303839 
-1 1 1 1 1:0 2:1 3:0.94154973 4:0.71858311 
-1 1 1 1 1:0 2:0.61890494 3:1 4:0.68978513 
-1 1 1 1 1:0 2:0.98930022 3:0.28934124 4:0.6775687 
-1 1 0 1 1:1 2:0.24684951 3:0.25500251 4:0 
-1 1 1 1 1:0.722669 2:0.0068795913 3:0.23646988 4:0.72014031 
-1 1 1 1 1:0.26699974 2:0.062742713 3:0 4:1 
-1 0 1 1 1:0 2:0.98849616 3:0.98985954 4:0.88066659 
-1 1 1 0 1:0 2:0.814811 3:0.85780248 4:0.9496856 
-1 1 0 1 1:0.70496991 2:0.42171861 3:1 4:0 
-1 1 1 1 1:1 2:0.34091337 3:0.68804389 4:0.6617793 
-1 1 1 1 1:0 2:0.83637927 3:0.84172557 4:0.79907513 
-1 0 1 1 1:0 2:1 3:0.97017878 4:0.82785838 
-1 0 1 1 1:0.029725176 2:1 3:0.50475535 4:0 
-0 1 0 1 1:1 2:0.89201297 3:0.71878255 4:0.38522104 
-1 1 1 1 1:0 2:0.48712023 3:1 4:0.30684783 
-1 1 1 1 1:0 2:0.89327619 3:0.85473667 4:0.68603132 
-1 1 1 1 1:0.2227079 2:0.18858024 3:1 4:0.72698719 
-1 1 1 1 1:0 2:0.96151697 3:0.87538655 4:0.79236588 
-1 1 1 0 1:0.42600425 2:0.52391807 3:0.49531547 4:1 
-1 1 0 1 1:1 2:0.33817116 3:0.27000156 4:0.24940494 
-1 1 1 1 1:0 2:1 3:0.39281998 4:0.82081096 
-1 1 1 1 1:0 2:0.25761678 3:1 4:0.44979826 
-1 1 1 0 1:0.9583531 2:0.28566648 3:0.48867252 4:1 
-1 1 0 1 1:1 2:0.023328029 3:0.26230213 4:0.29262857 
-1 1 1 1 1:0 2:0.59156146 3:0.77720629 4:0.47929534 
-1 1 0 1 1:1 2:0.75074754 3:0.51604139 4:0 
-1 1 1 1 1:0.18297115 2:0.93208287 3:0 4:0.99567063 
-1 1 1 1 1:0.99549712 2:0.36061189 3:0.24862267 4:1 
-1 1 0 1 1:1 2:0.4015963 3:0.36657632 4:0.1506695 
-1 1 1 1 1:0.24665218 2:1 3:0.79206264 4:0.45375573 
-1 1 1 0 1:0.75063184 2:0 3:0.70233475 4:1 
-1 0 1 1 1:0 2:1 3:0.98375529 4:0.81909266 
-1 1 1 1 1:0 2:0.94639921 3:0.84448953 4:0.79095778 
-1 1 1 1 1:0.099516807 2:0 3:1 4:0.63335711 
-1 1 1 1 1:0 2:1 3:0.81695644 4:0.73118408 
-1 1 1 1 1:0 2:1 3:0.48363074 4:0.64572521 
-1 1 0 1 1:1 2:0.073658414 3:0.22349544 4:0.041439108 
-1 1 1 1 1:0 2:0.8930442 3:0.89137383 4:0.81725517 
-1 1 0.06492961399760543 1 1:1 2:0.44416797 3:0.26186271 4:0.34807103 
-1 1 1 1 1:0.55607317 2:0.65624404 3:1 4:0.87163322 
-1 1 0 1 1:1 2:0.54356053 3:0.28362896 4:0.30000133 
-1 1 1 1 1:0.2341419 2:0.19987046 3:0.76874036 4:0 
-1 1 0 1 1:1 2:0.7543894 3:0.023153511 4:0.52311174 
-1 1 1 1 1:0.32160086 2:0.53113513 3:0.40731939 4:0 
-1 0 1 1 1:0 2:0.98865702 3:0.98686937 4:0.88294112 
-1 0 1 1 1:0 2:0.98285072 3:0.98486704 4:0.89363209 
-1 1 1 1 1:0.37953824 2:0.050820664 3:0 4:1 
-1 1 1 1 1:0.32369166 2:0 3:0.79715674 4:0.58406249 
-1 1 1 1 1:0.14217414 2:0.57939029 3:0.72560674 4:0 
-0 0 0 1 1:1 2:0.95811012 3:0.8640853 4:0 
-1 1 1 1 1:0.0058286648 2:0.229231 3:0 4:0.44661385 
-0 0 0 1 1:0.8556996 2:1 3:0.55606843 4:0 
-1 1 1 1 1:0 2:0.91285764 3:0.9901615 4:0.86901964 
-1 1 0 1 1:1 2:0.44052482 3:0.34923519 4:0.10845227 
-1 1 0 1 1:1 2:0.64751925 3:0 4:0.075159627 
-1 1 1 1 1:0 2:0.016726667 3:1 4:0.62808461 
-1 1 1 1 1:0.59219149 2:0.40499538 3:0.76350665 4:0.53397964 
-1 1 1 1 1:1 2:0.77764046 3:0.70158582 4:0.95252416 
-1 1 1 1 1:0 2:0.99727093 3:0.85936597 4:0.88007201 
-1 1 1 0 1:0 2:0.92808475 3:0.94599743 4:0.90141316 
-1 1 1 1 1:0 2:0.70077902 3:0.72749622 4:0.77856042 
-1 1 1 1 1:0 2:0.49532256 3:1 4:0.82248848 
-1 1 0 1 1:1 2:0.25616197 3:0.07229173 4:0.23402309 
-1 1 1 1 1:0.68778368 2:0.61060611 3:0 4:0.41492586 
-1 1 0 1 1:1 2:0.20586034 3:0.18052515 4:0.12134051 
-1 1 1 1 1:0.53386629 2:1 3:0.74573335 4:0.5921353 
-1 1 0 1 1:0.93021146 2:0.52505024 3:1 4:0.22483669 
-1 1 0 1 1:1 2:0.54642488 3:0 4:0.045610746 
-1 1 1 1 1:0 2:1 3:0.76488343 4:0.83932978 
-1 1 1 1 1:0 2:0.37095153 3:0.99652871 4:0.56461409 
-1 0.6685759342570569 0 1 1:0.63656428 2:1 3:0.38453035 4:0 
-1 1 1 1 1:0.57559011 2:0.28804167 3:0.61088526 4:0.75907738 
-1 1 1 1 1:0 2:0.69066092 3:1 4:0.76309622 
-1 1 1 1 1:0.21180168 2:0 3:0.62780651 4:0.72021405 
-1 1 1 1 1:0 2:0.80826159 3:0.61777631 4:0.69385386 
-1 1 0 1 1:1 2:0.57281776 3:0 4:0.62482894 
-1 1 1 0 1:0.52733689 2:0.050633216 3:0.3920003 4:1 
-1 1 0 1 1:0.92623218 2:0.51819484 3:0 4:0.41558087 
-1 1 1 1 1:0 2:1 3:0.52288175 4:0.82419311 
-1 1 1 1 1:1 2:0.39389562 3:0.28149052 4:0.39818338 
-1 0 1 1 1:0 2:1 3:0.19918337 4:0.78071011 
-1 1 1 1 1:0 2:1 3:0.96181644 4:0.67020813 
-1 1 1 1 1:0 2:0.8549604 3:0.99130086 4:0.70524793 
-1 1 0 1 1:1 2:0.60320027 3:0.72089946 4:0.34714424 
-1 1 1 1 1:0.62921002 2:0.092585287 3:0.63239743 4:0.36308582 
-1 1 0 1 1:1 2:0.47606227 3:0 4:0.12234302 
-1 1 1 0 1:0.66339782 2:0 3:1 4:0.99980298 
