svm_type epsilon_svr
kernel_type polynomial
degree 3
gamma 0.25
coef0 0
nr_class 2
total_sv 2002
rho -1.8135
SV
1 1:1 2:0.41465083 3:0.26573564 4:0 
-1 1:0 2:0.85775355 3:0.89744028 4:0.92728056 
1 1:0 2:0.91544736 3:0.900323 4:0.93683887 
1 1:1 2:0.28360396 3:0.35783764 4:0.22698646 
-1 1:0 2:0.88222716 3:0.80263925 4:0.90133248 
1 1:0 2:0.92316538 3:1 4:0.705267 
1 1:0.16858641 2:0.4709416 3:0.31682142 4:0.56539467 
-1 1:1 2:0.18712123 3:0.54458071 4:0.65097058 
-1 1:0 2:0.81308434 3:0.81771145 4:0.64811031 
-1 1:1 2:0.26611431 3:0 4:0.2965913 
1 1:0.13907153 2:0.29867585 3:1 4:0.38971181 
-1 1:0 2:0.9829519 3:0.98443837 4:0.89540196 
1 1:0 2:0.76519204 3:0.9324711 4:0.67787738 
-1 1:0 2:0.9691162 3:0.95998779 4:0.90074587 
-1 1:0.20783607 2:0 3:0.46888319 4:1 
-1 1:1 2:0.73812092 3:0.19435314 4:0 
-1 1:0 2:0.97052882 3:0.92583724 4:0.92195176 
1 1:0 2:1 3:0.9124103 4:0.76065218 
1 1:0 2:0.78826724 3:0.81241181 4:0.91998729 
-1 1:0.19624863 2:0 3:0.6200138 4:0.70503693 
1 1:0 2:0.88581477 3:0.91886371 4:0.77764549 
-1 1:0 2:0.82030755 3:0.86940513 4:0.83480946 
-1 1:0 2:0.68327588 3:0.73131901 4:0.79669409 
-1 1:0.68886644 2:0.69738973 3:1 4:0.25755296 
1 1:0 2:1 3:0.82165439 4:0.8338282 
-1 1:0.33407566 2:0.4637819 3:0.44717791 4:0 
-1 1:0 2:0.96193766 3:0.73832381 4:0.6123121 
-1 1:0.37397565 2:0 3:0.97662214 4:0.46082968 
1 1:0.96125263 2:1 3:0 4:0.077188995 
1 1:1 2:0.67103205 3:0.69825299 4:0 
-1 1:0 2:0.77241991 3:0.91519634 4:0.90644616 
-1 1:0 2:1 3:0.70905792 4:0.87275653 
-1 1:0 2:0.89490706 3:0.99713508 4:0.835456 
-1 1:0 2:0.98849616 3:0.98985954 4:0.88066659 
-1 1:0.84510063 2:0 3:0.11260622 4:0.38560621 
-1 1:1 2:0.4751899 3:0.70812673 4:0.51123764 
1 1:0.34862944 2:0.31711406 3:0 4:0.56871427 
-1 1:0.86139078 2:0 3:0.79872047 4:0.29627544 
-1 1:0.15131194 2:0.17468193 3:0 4:1 
1 1:1 2:0.55221017 3:0.16538513 4:0.34773496 
-1 1:0 2:0.89348088 3:0.93674055 4:0.81493369 
-1 1:1 2:0.097321834 3:0.10998871 4:0.41154142 
1 1:0.81650771 2:0.23010517 3:0.61945445 4:0 
1 1:0 2:0.9091737 3:0.92958612 4:0.89726641 
1 1:0 2:0.92031273 3:0.99499941 4:0.88873161 
1 1:0 2:0.9701111 3:0.92593881 4:0.92100341 
-1 1:0 2:0.918811 3:0.94224619 4:0.88245821 
1 1:0 2:0.33355025 3:0.66481348 4:0.8784916 
-1 1:0.45049304 2:1 3:0.064369595 4:0 
-1 1:0.88539636 2:0 3:0.74781428 4:0.27026499 
-1 1:1 2:0.20171903 3:0 4:0.15325556 
-1 1:0.59527414 2:0.55977395 3:0.57878357 4:0.98248183 
1 1:0.46754775 2:0.14940869 3:0.55097938 4:0.64730123 
1 1:0 2:0.89544418 3:0.85789578 4:0.86311994 
1 1:0 2:0.89907114 3:0.94670723 4:0.86930005 
-1 1:0 2:0.96239808 3:0.9560859 4:0.85382604 
-1 1:1 2:0 3:0.40361787 4:0.15426274 
1 1:0.82584762 2:0.39252052 3:0 4:0.34866118 
-1 1:1 2:0 3:0.056134589 4:0.32139914 
-1 1:1 2:0.23330401 3:0.24670513 4:0.020536831 
-1 1:0 2:0.55162477 3:0.64217176 4:1 
-1 1:0.98920507 2:0.80615111 3:1 4:0 
-1 1:0 2:0.75598217 3:1 4:0.79739254 
-1 1:1 2:0.0033378632 3:0.32908086 4:0.22170228 
1 1:1 2:0.22313853 3:0 4:0.48820679 
1 1:0.42135341 2:0.44726775 3:0.38028838 4:0 
-1 1:0.24172409 2:0.48823093 3:0.41617595 4:0.073388203 
-1 1:0.86902791 2:0.42389439 3:0.56995433 4:0 
-1 1:0 2:1 3:0.32985672 4:0.61968926 
-1 1:0.6125279 2:0.43144843 3:0.55646488 4:0.41369222 
-1 1:0 2:0.96770172 3:0.95854708 4:0.89908462 
1 1:0 2:1 3:0.76477814 4:0.71136399 
1 1:0 2:0.72168036 3:0.96530036 4:0.76918914 
1 1:0.77567242 2:0.4772252 3:0.41626525 4:0.71740327 
-1 1:0 2:0.82396412 3:0.76744639 4:0.69572057 
-1 1:0.92593454 2:1 3:0.52995506 4:0 
1 1:1 2:0.023032677 3:0.23711764 4:0.29744299 
1 1:0.90769785 2:0 3:0.57988519 4:0.48204006 
-1 1:0 2:0.77834292 3:1 4:0.84977995 
-1 1:1 2:0.22987965 3:0.63469028 4:0 
-1 1:1 2:0.58556305 3:0.64274224 4:0.34783841 
-1 1:0 2:1 3:0.79032904 4:0.77365864 
-1 1:0 2:0.34201615 3:0.17763316 4:0.79320042 
1 1:1 2:0.3590455 3:0.014671885 4:0.29140756 
1 1:0 2:0.70433317 3:0.84070557 4:0.74992918 
1 1:0 2:0.82807055 3:0.65851526 4:0.91969211 
-1 1:0.46227415 2:0.25278082 3:0.72861141 4:0.45101194 
1 1:1 2:0.61772509 3:0.49284677 4:0.91372176 
-1 1:0 2:0.89237989 3:1 4:0.88073221 
1 1:1 2:0.41641843 3:0.9773845 4:0.47044285 
1 1:0 2:0.71958908 3:0.32370633 4:0.28936482 
-1 1:0 2:0.87531731 3:0.93023647 4:0.83960106 
-1 1:0 2:0.80018688 3:0.97170736 4:0.88233289 
-1 1:0 2:0.68135615 3:0.53418318 4:0.8259068 
1 1:0 2:0.96668409 3:0.95791587 4:0.74903643 
1 1:0 2:0.97573267 3:0.74273474 4:1 
1 1:1 2:0.18945125 3:0.032404208 4:0.40070784 
-1 1:1 2:0.47399483 3:0.62445327 4:0.23653091 
-1 1:0.90911449 2:0 3:0.88633726 4:0.80054914 
-1 1:0 2:1 3:0.85597349 4:0.81177738 
-1 1:0 2:0.70359082 3:1 4:0.77429252 
1 1:1 2:0.15376834 3:0.076329854 4:0.21068781 
1 1:0 2:0.98579126 3:0.88968185 4:0.92168729 
1 1:0 2:0.86730987 3:0.0023865011 4:0.30170409 
1 1:0 2:0.82829315 3:1 4:0.81713844 
1 1:1 2:0.2069837 3:0.54073494 4:0.15419571 
1 1:1 2:0.60448595 3:0.68212354 4:0.1993807 
1 1:0 2:0.65535779 3:0.60450481 4:0.77471711 
-1 1:0 2:1 3:0.95819513 4:0.73750835 
1 1:0 2:0.76776033 3:1 4:0.82837141 
-0.4465593109818112 1:0 2:0.43130987 3:0.97291306 4:0.79555026 
1 1:0 2:0.57689217 3:0.9558705 4:0.88055564 
-1 1:1 2:0.79137192 3:0.44319747 4:0 
-1 1:0 2:1 3:0.93977243 4:0.70214115 
-1 1:0 2:0.94774893 3:0.77263862 4:0.72832025 
1 1:0 2:0.026014069 3:0.17792647 4:0.39607509 
1 1:0 2:0.40499839 3:0.21207079 4:0.53105008 
1 1:0.71091445 2:0.69438546 3:0.71754173 4:0.53214606 
1 1:0.20751059 2:0.40812718 3:0.47895372 4:0.6680177 
-1 1:0 2:0.23138047 3:1 4:0.086050109 
-1 1:1 2:0 3:0.70274729 4:0.40194131 
-1 1:0 2:0.84838346 3:0.81650556 4:0.88047366 
1 1:0.7540478 2:0.066375571 3:1 4:0 
1 1:0 2:0.96430668 3:1 4:0.9455397 
-1 1:0.88536558 2:0.59251448 3:0.21793572 4:0 
-1 1:0 2:0.90616951 3:1 4:0.88372675 
-1 1:1 2:0.044888171 3:0.23201832 4:0.21671257 
1 1:0 2:0.8705334 3:0.94239132 4:0.83843073 
1 1:0 2:0.035526288 3:0.1910556 4:0.38761862 
1 1:0 2:1 3:0.75411207 4:0.66108162 
1 1:0 2:0.95469708 3:0.92908039 4:0.89017725 
-1 1:1 2:0.74357066 3:0.09454513 4:0 
-1 1:0 2:0.86039746 3:0.79546726 4:0.6877789 
1 1:1 2:0 3:0.10654245 4:0.64367284 
-1 1:0 2:0.83692261 3:0.92855773 4:0.7268221 
-1 1:1 2:0.51594469 3:0.67770978 4:0.27306165 
-1 1:1 2:0.30315966 3:0.19839517 4:0 
-1 1:0 2:1 3:0.59510762 4:0.11736727 
1 1:0.26932094 2:0.44961339 3:1 4:0.99401201 
1 1:0.80098692 2:0.41639157 3:0.39515746 4:1 
1 1:1 2:0.25170219 3:0 4:0.035280106 
-1 1:1 2:0.21154909 3:0.19549576 4:0.80361208 
1 1:0 2:1 3:0.72568732 4:0.87783657 
-1 1:0 2:0.872662 3:0.82483768 4:0.84888649 
1 1:0.50064137 2:0.62474212 3:0 4:0.69083064 
-1 1:0 2:0.95676353 3:0.94936904 4:0.84407056 
-1 1:0.059010783 2:0.35879303 3:0.55613573 4:0.57031523 
-1 1:0.88730283 2:1 3:0.25284709 4:0 
-1 1:0.20574898 2:0.98425956 3:0.45167022 4:0.69478444 
-1 1:0 2:0.7818674 3:1 4:0.72894116 
-1 1:0 2:0.98435292 3:0.97326511 4:0.89849922 
-1 1:0.2688637 2:0.52449047 3:0.41400369 4:0 
-1 1:0 2:0.86193796 3:0.94561005 4:0.88983083 
-1 1:0.94541262 2:0.36326175 3:1 4:0 
1 1:1 2:0 3:0.65771435 4:0.38101374 
1 1:0 2:0.58113072 3:0.94119228 4:0.45562961 
1 1:0 2:0.62338596 3:0.42154762 4:0.7645778 
-1 1:0 2:1 3:0.95681173 4:0.87991626 
1 1:1 2:0.032733155 3:0.262488 4:0.61540704 
-1 1:1 2:0.50159075 3:0.74002561 4:0.3199408 
-1 1:1 2:0.46677342 3:0.31129 4:0.64738874 
-1 1:0 2:0.97500563 3:0.97592064 4:0.89542 
-1 1:0 2:0.8095686 3:0.82831618 4:0.7578075 
1 1:0 2:0.86463919 3:0.83841538 4:0.68418397 
-1 1:0 2:0.95692379 3:0.90534733 4:0.89730293 
-1 1:0 2:0.5755365 3:0.86384894 4:0.85700894 
1 1:1 2:0.43738265 3:0.32286615 4:0.3626994 
-1 1:0 2:0.82186529 3:0.93062871 4:0.90430132 
-1 1:0 2:0.92218062 3:0.94752901 4:0.89585513 
1 1:0.81047175 2:0.51211303 3:0.50660635 4:0.75293418 
1 1:0 2:1 3:0.87230165 4:0.85017589 
1 1:0 2:0.86584301 3:0.69710853 4:0.87632909 
-1 1:1 2:0.34035084 3:0.21205278 4:0.37635512 
-1 1:1 2:0.5154947 3:0.62712779 4:0 
-1 1:0 2:1 3:0.76460513 4:0.81948914 
-1 1:0.59380202 2:0.41828696 3:0.51155859 4:0.43429366 
1 1:0 2:0.69996662 3:0.51844816 4:0.85143668 
-1 1:0 2:1 3:0.92745132 4:0.87636272 
1 1:0.17722901 2:0.84562314 3:0.21183044 4:1 
-1 1:0.21817575 2:0 3:0.4768737 4:1 
-1 1:1 2:0.069956623 3:0.57437216 4:0.2400539 
-1 1:0 2:0.82030755 3:0.86940513 4:0.83480946 
-1 1:0.1884396 2:0 3:0.51155281 4:1 
1 1:0 2:0.73780623 3:0.91159247 4:0.90609792 
1 1:1 2:0.49185011 3:0.054660534 4:0 
-1 1:0 2:0.65106161 3:0.85116329 4:0.53716661 
1 1:1 2:0.40239439 3:0.12037144 4:0.3540584 
-1 1:0 2:1 3:0.2410262 4:0.66446387 
1 1:0 2:0.92363581 3:0.40919086 4:0.96570153 
-1 1:1 2:0.63756733 3:0.4228855 4:0.33167121 
-1 1:0.070213867 2:0.3926354 3:0.14576575 4:0.36921465 
-1 1:0 2:0.84674607 3:0.92739259 4:0.8511309 
1 1:0 2:0.52179097 3:0.90128372 4:0.94071151 
-1 1:0 2:0.93496977 3:0.74416565 4:0.62722781 
-1 1:0 2:0.79146204 3:0.94810029 4:0.86290177 
-1 1:0 2:0.97929088 3:0.9780293 4:0.87568488 
-1 1:1 2:0.30736916 3:0.39620007 4:0 
1 1:0.83311222 2:0.23203332 3:0 4:0.71452125 
-1 1:1 2:0.70116591 3:0.23797683 4:0.28370099 
1 1:0 2:0.55483385 3:0.85403009 4:0.69563204 
1 1:0 2:0.84530009 3:0.82010812 4:0.88312962 
1 1:0.36959101 2:1 3:0.78989251 4:0 
-1 1:0 2:0.97020462 3:1 4:0.83905312 
1 1:0 2:0.96717465 3:0.72125443 4:0.92751657 
1 1:0 2:0.74518376 3:0.72536285 4:0.62279266 
-1 1:0 2:0.86579063 3:0.72783588 4:0.91238795 
-1 1:0 2:0.48415282 3:0.60588107 4:0.80143492 
-1 1:0.22261853 2:0.78917057 3:0.67487804 4:0.15721703 
1 1:0.32883494 2:0.62981728 3:0.7857162 4:0.87787121 
-1 1:0 2:0.52611928 3:0.54264198 4:0.65964858 
1 1:1 2:0.69904891 3:0.52090932 4:0 
1 1:0 2:0.79697667 3:0.89336357 4:0.87894129 
1 1:0 2:0.63765382 3:0.61785651 4:1 
1 1:0.89961369 2:0.48415143 3:1 4:0 
-1 1:0 2:0.64231324 3:0.43110708 4:0.91319487 
1 1:0 2:0.8274994 3:0.93279064 4:0.81834307 
-1 1:0 2:0.79087251 3:0.59075667 4:0.77804898 
-1 1:0 2:0.98691044 3:0.98779361 4:0.89306629 
-1 1:0 2:0.97235972 3:0.92751393 4:0.88578144 
1 1:1 2:0 3:0.072745445 4:0.44104351 
1 1:0 2:0.80479834 3:0.87355222 4:0.90446921 
-1 1:0 2:0.98305719 3:0.84901498 4:0.85884924 
1 1:1 2:0.59271791 3:0.3776479 4:0 
-1 1:1 2:0.90437293 3:0 4:0.39222082 
-1 1:0 2:0.20501391 3:0.50132277 4:0.86743223 
-1 1:0 2:0.70197705 3:0.19765085 4:1 
1 1:0 2:0.91725646 3:0.95356862 4:0.8644136 
1 1:0 2:0.8539068 3:0.90072563 4:0.87940034 
1 1:1 2:0.6316605 3:0.71536021 4:0 
-1 1:0.42402503 2:0.61464362 3:0 4:0.89701237 
-1 1:0 2:1 3:0.87265442 4:0.30992889 
1 1:0 2:1 3:0.92693987 4:0.78827129 
-1 1:0 2:0.98751484 3:0.98272108 4:0.88667172 
-1 1:0.13791747 2:0.76906484 3:0.63506232 4:0.82066637 
1 1:0.89563621 2:0.94722385 3:0.29582736 4:0.17433104 
-1 1:0 2:0.93334232 3:1 4:0.076446549 
1 1:0 2:0.40148152 3:0.49415099 4:1 
-1 1:0.86784315 2:1 3:0.29604278 4:0.27937563 
-1 1:0 2:0.5017522 3:0.82601486 4:0.78753313 
-1 1:1 2:0.30976762 3:0.37378022 4:0.23681145 
-1 1:0.66002624 2:0.47657341 3:0 4:1 
1 1:0 2:0.68253813 3:0.2628422 4:0.98691511 
-1 1:0 2:0.89655369 3:1 4:0.80289058 
1 1:0 2:0.94382263 3:1 4:0.7789435 
-1 1:0 2:0.93325368 3:0.98202994 4:0.83432751 
1 1:1 2:0 3:0.91397468 4:0.60159237 
-1 1:0 2:0.95459076 3:0.69722157 4:0.95488759 
1 1:0 2:0.98327264 3:0.94229576 4:0.8884167 
-1 1:0.24548707 2:0.72433575 3:0.77366998 4:0 
-1 1:0 2:1 3:0.85106071 4:0.8088153 
-1 1:0 2:0.95915575 3:0.92318039 4:0.71646411 
-1 1:1 2:0.3016167 3:0.66820658 4:0.6098851 
1 1:0 2:0.92960115 3:0.97988554 4:0.89730391 
-1 1:1 2:0.037175183 3:0.10751612 4:0.10249356 
1 1:1 2:0.53810001 3:0.80687891 4:0.15324698 
1 1:0.11709025 2:0.59130966 3:0 4:0.28978551 
-1 1:0.91323341 2:0 3:0.98863711 4:0.26466326 
1 1:0.78888514 2:1 3:0.41430259 4:0.45763338 
-1 1:0.84929029 2:0.49168378 3:0.20102301 4:0.89405135 
-1 1:0 2:0.93764466 3:1 4:0.81269591 
-1 1:1 2:0.12085448 3:0.0082216874 4:0.39854604 
1 1:0 2:0.77211115 3:0.85242981 4:0.94521078 
-1 1:0 2:0.74361266 3:0.24992445 4:0.65329579 
1 1:0 2:0.89506671 3:0.94220647 4:0.9771568 
-1 1:1 2:0.21620291 3:0.56967458 4:0.63764377 
1 1:0 2:0.92671678 3:0.79386682 4:0.22531998 
-1 1:0.36578148 2:0.29228828 3:1 4:0.36888223 
1 1:1 2:0.26677415 3:0.33763054 4:0.75679369 
-1 1:0 2:0.64157174 3:0.99013237 4:0.92577241 
1 1:1 2:0.64116883 3:0.24811584 4:0.13513549 
-1 1:0.098252764 2:0.75231747 3:0 4:0.92766767 
-1 1:0 2:0.84232001 3:0.85193619 4:0.67488084 
1 1:0 2:0.87547929 3:0.85346567 4:0.78609294 
-1 1:0 2:0.98017517 3:0.74760958 4:0.88663044 
-1 1:0.53416065 2:0.68960493 3:0.38314 4:0.45446385 
1 1:1 2:0.089677654 3:0.23603587 4:0.30131557 
1 1:1 2:0.2620477 3:0.32680885 4:0.24808136 
1 1:0 2:1 3:0.67975446 4:0.83093973 
-1 1:0 2:0.95725528 3:0.92817908 4:0.89559505 
1 1:0.83097497 2:0.074026883 3:0.013897337 4:0.37210103 
-1 1:1 2:0 3:0.314096 4:0.59045408 
1 1:0 2:0.81447018 3:0.73992135 4:0.8991222 
-1 1:1 2:0.23507468 3:0.14675665 4:0.21128839 
-1 1:0.94330706 2:1 3:0.12448332 4:0 
1 1:1 2:0.19581113 3:0.54682936 4:0.43382711 
1 1:0 2:0.85682862 3:1 4:0.65884736 
1 1:0 2:1 3:0.92263737 4:0.83779301 
1 1:1 2:0 3:0.26976466 4:0.61970259 
1 1:0 2:0.64621836 3:0.3570646 4:0.98363942 
-1 1:0 2:0.88457661 3:0.97171463 4:0.75316925 
-1 1:0 2:0.96730286 3:0.95734988 4:0.89943441 
-1 1:1 2:0.35943531 3:0 4:0.25205529 
1 1:1 2:0.23159763 3:0.3653283 4:0.47465448 
-1 1:0 2:0.86193073 3:0.81604986 4:0.86060242 
1 1:0 2:0.78626796 3:0.77825682 4:0.71890599 
1 1:0.22610842 2:0 3:0.40023505 4:0.89644355 
-1 1:1 2:0.13469019 3:0.22896796 4:0.2000293 
1 1:0 2:0.85660435 3:0.8058451 4:0.94936312 
-1 1:0.63369771 2:0.33732157 3:0.45325915 4:1 
1 1:0 2:0.96805654 3:1 4:0.86980125 
1 1:1 2:0.75681988 3:0 4:0.065659737 
1 1:1 2:0 3:0.47280055 4:0.139889 
-1 1:0.40692404 2:0.65904851 3:1 4:0.3439331 
-1 1:1 2:0.069907147 3:0.11493022 4:0.056080054 
-1 1:0 2:0.92262963 3:0.52823993 4:0.64995448 
1 1:0 2:0.84812607 3:0.65185953 4:0.86447348 
-1 1:0 2:0.98476218 3:0.9869301 4:0.89417255 
-1 1:0 2:1 3:0.86710238 4:0.78868441 
1 1:0.70053784 2:0.02359105 3:0.58473559 4:0 
1 1:0.34472635 2:1 3:0.8295413 4:0.31825974 
1 1:0 2:0.90139798 3:0.7473992 4:0.9246631 
-1 1:0.69370086 2:0.63456093 3:0.50212692 4:0 
1 1:0 2:0.89681897 3:0.92434233 4:0.90281413 
1 1:0 2:0.76403774 3:0.93249388 4:0.68242219 
1 1:0 2:0.92810805 3:0.81099515 4:0.89930638 
1 1:0 2:0.70526919 3:0.7827452 4:0.52234363 
1 1:0 2:0.43496822 3:0.74350678 4:0.97905099 
-1 1:1 2:0.7998238 3:0.26725402 4:0.39341903 
-1 1:0.62630338 2:0.43421943 3:0.52879323 4:0.41842559 
-1 1:0.8117066 2:0.76857418 3:1 4:0.21590001 
1 1:0 2:1 3:0.77449206 4:0.68472727 
-1 1:0.22395771 2:0.46381206 3:0.53065046 4:0 
1 1:0 2:0.83327236 3:0.81163542 4:0.63256968 
-1 1:0 2:0.79957758 3:0.71834737 4:0.93494541 
-1 1:0 2:0.95768849 3:0.76415614 4:0.69752907 
1 1:1 2:0.60820819 3:0 4:0.40281989 
-1 1:1 2:0.33592611 3:0.25902511 4:0 
1 1:0.34026685 2:0.87762347 3:0 4:0.072509799 
-1 1:1 2:0.4530247 3:0.33815119 4:0 
1 1:0.61146215 2:1 3:0.97778894 4:0.53326509 
1 1:0.53379746 2:0.97632782 3:0.66078546 4:0.34305235 
1 1:0 2:0.9853628 3:0.88486761 4:0.92120675 
-1 1:0.90797729 2:0.64392972 3:0.18576388 4:0.8687096 
-1 1:1 2:0.11863218 3:0.064230792 4:0.010315425 
1 1:0.072992349 2:0.11980965 3:0.048587962 4:0.83783043 
1 1:0 2:0.74298237 3:1 4:0.73913741 
1 1:0 2:0.58246425 3:0.75376009 4:0.69699824 
-1 1:0 2:0.67223966 3:1 4:0.59460704 
-1 1:0.88415491 2:0 3:1 4:0.6941338 
1 1:1 2:0.77610093 3:0.98283271 4:0.48846815 
-1 1:0 2:0.87958164 3:1 4:0.78885213 
-1 1:0.021356688 2:0.14956755 3:0.9262228 4:0.773205 
1 1:0 2:0.84545619 3:0.50014088 4:0.93513076 
-1 1:0.79718258 2:0 3:0.69971482 4:0.65147439 
-1 1:1 2:0.72583044 3:0.29237797 4:0.32140682 
1 1:0.5791088 2:0.7995468 3:0.55699954 4:0.71800719 
1 1:1 2:0.65881069 3:0.5306177 4:0 
-1 1:0 2:0.74982346 3:0.97889047 4:0.9841268 
-1 1:0 2:0.83219619 3:0.95449047 4:0.3603627 
-1 1:3.8290369e-05 2:0.91450886 3:0.16417907 4:1 
-1 1:0.18702964 2:0 3:0.49587984 4:1 
-1 1:0 2:0.80132631 3:0.81332335 4:0.65244188 
1 1:0 2:0.57236555 3:0.35089099 4:0.90207883 
-1 1:0 2:0.93116936 3:0.75270481 4:0.65582526 
-1 1:0 2:1 3:0.97798763 4:0.76659242 
1 1:0.31319059 2:0.30069572 3:0.452937 4:0.58604227 
-1 1:0 2:0.83721043 3:0.92537249 4:0.71084803 
1 1:0.35801604 2:0.70537444 3:0.18975882 4:0.24119727 
-1 1:0.3140196 2:0.67495596 3:0.58458378 4:0.99353924 
1 1:1 2:0.3381644 3:0.034338316 4:0.35088839 
-1 1:1 2:0.1624166 3:0 4:0.19483232 
-1 1:1 2:0.30777573 3:0 4:0.23172541 
1 1:1 2:0.038983926 3:0.19482127 4:0.32830057 
-1 1:0.82298819 2:1 3:0.43158318 4:0.66561683 
-1 1:0.73554265 2:0.35025887 3:0.17378225 4:0.87613153 
1 1:0.87021481 2:0.9153006 3:0 4:0.3355607 
-1 1:1 2:0.54253052 3:0 4:0.2932349 
-1 1:0.11331925 2:0.96865951 3:0.42406427 4:0 
-1 1:0.84597427 2:0.65806403 3:0.610335 4:0.60882299 
1 1:0.91183402 2:0 3:0.84839483 4:0.3577041 
-1 1:0 2:0.98403035 3:0.97291185 4:0.8987094 
-1 1:0 2:1 3:0.98950614 4:0.74650773 
-1 1:1 2:0.21018713 3:0 4:0.17605794 
1 1:0 2:1 3:0.60533893 4:0.76629118 
1 1:0 2:0.81744072 3:0.42470277 4:1 
1 1:0.86557211 2:1 3:0.61632361 4:0 
-1 1:1 2:0.41787442 3:0 4:0.5079586 
-1 1:1 2:0.62307727 3:0 4:0.33764724 
1 1:0 2:0.98762359 3:0.99359542 4:0.89586222 
-1 1:0 2:0.93954933 3:0.95216099 4:0.76040669 
-1 1:0 2:0.86222515 3:0.94904567 4:0.72708698 
-1 1:0 2:0.77791012 3:0.93577305 4:0.87025544 
-1 1:0.3401624 2:0.28595786 3:1 4:0.38527815 
1 1:0.13776745 2:0 3:0.86726105 4:0.7818096 
1 1:0 2:0.26330647 3:0.62821296 4:0.82319744 
-1 1:0 2:0.30238448 3:1 4:0.90639344 
-1 1:0 2:0.75670253 3:1 4:0.77810063 
-1 1:1 2:0.40291797 3:0.76186425 4:0.3464749 
1 1:1 2:0.085652462 3:0.44462316 4:0.36329011 
-1 1:0 2:0.88213528 3:0.92135352 4:0.8908577 
1 1:0 2:0.52121169 3:0.90262877 4:0.94064284 
-1 1:0 2:0.98849616 3:0.98985954 4:0.88066659 
-1 1:0.79767581 2:1 3:0.37667093 4:0.64049271 
-1 1:0 2:0.37238709 3:1 4:0.63880145 
1 1:0.8716337 2:0.00056936544 3:1 4:0.17115251 
-1 1:0 2:0.88284868 3:0.18115728 4:0.97522676 
-1 1:0.025789783 2:0.34253764 3:0.79923436 4:0.029248632 
1 1:1 2:0.22881965 3:0.58617166 4:0.22969038 
1 1:0 2:0.92471746 3:0.52897908 4:0.96333088 
-1 1:0 2:0.40674603 3:0.97226606 4:0.78719787 
-1 1:1 2:0 3:0.83859198 4:0.96786736 
-1 1:0 2:0.79018931 3:0.94775672 4:0.86453233 
-1 1:0.43538774 2:0.38366955 3:0.53679762 4:0.59698655 
1 1:1 2:0.3613225 3:0.34980519 4:0.3883071 
1 1:0 2:0.73754372 3:0.59103357 4:0.97589168 
-1 1:0 2:0.59279566 3:0.9372966 4:0.82806728 
-1 1:0.83573977 2:0.67397721 3:0.72861968 4:0.26954869 
-1 1:0.66654204 2:0.77879222 3:0.63609138 4:0.43770684 
-1 1:0.81139918 2:0.051810331 3:0.017814267 4:0.35682234 
-1 1:0 2:0.97116003 3:0.93576427 4:0.86956466 
1 1:0 2:1 3:0.84507179 4:0.74772724 
-1 1:0.54632067 2:0.33010653 3:0.64378661 4:1 
-1 1:0.30674479 2:0.29511715 3:0.1826845 4:1 
1 1:0 2:0.97660172 3:1 4:0.91257467 
-1 1:1 2:0.45200411 3:0 4:0.69654539 
1 1:1 2:0.30224539 3:0.15895208 4:0 
1 1:0 2:0.85372043 3:0.57423965 4:0.85830318 
1 1:0.87264726 2:0.66022151 3:0 4:0.3730936 
1 1:0.90452962 2:0.41661377 3:1 4:0 
-1 1:0 2:0.88333193 3:0.76118992 4:0.83984612 
-1 1:1 2:0.60908125 3:0.71896221 4:0 
-1 1:0 2:0.37887641 3:0.364787 4:0.76075023 
1 1:0.15947248 2:0.63953723 3:0 4:0.69325314 
-1 1:1 2:0.72583044 3:0.29237797 4:0.32140682 
-1 1:0.14624586 2:0.46096002 3:0.31662365 4:0.20801404 
-1 1:0 2:0.94206668 3:0.97506806 4:0.89407439 
1 1:0 2:0.98796301 3:0.99372757 4:0.89630487 
1 1:0 2:1 3:0.98714792 4:0.78429539 
1 1:0 2:0.95466808 3:0.96612947 4:0.8603206 
1 1:1 2:0 3:0.52791289 4:0.13349774 
1 1:0.036693511 2:0.84489658 3:0 4:1 
-1 1:0.71599115 2:0.67305734 3:0.56194741 4:0.095983808 
1 1:0.58104345 2:0.22295619 3:1 4:0 
-1 1:1 2:0.047331721 3:0.24390765 4:0.3130861 
1 1:0.77022651 2:0 3:0.60498533 4:0.94849584 
1 1:0 2:0.99482 3:0.075745942 4:1 
1 1:0 2:0.92199712 3:0.85763636 4:0.9606881 
-1 1:0 2:0.97584731 3:0.98269297 4:0.88974647 
1 1:0 2:1 3:0.98908058 4:0.93176395 
-1 1:0.13070324 2:0.4511757 3:0.31364416 4:0.24889355 
-1 1:0.29020265 2:0 3:0.58325788 4:1 
1 1:0 2:0.83690977 3:0.55761301 4:0.79069898 
1 1:1 2:0.041624126 3:0.26950794 4:0 
1 1:1 2:0.30157746 3:0.10620149 4:0.24037851 
-1 1:1 2:0.16130457 3:0.080438041 4:0.93811772 
1 1:0 2:0.71265463 3:0.69202609 4:0.89411247 
-1 1:0 2:0.9279697 3:1 4:0.9105524 
-1 1:0 2:0.95554067 3:0.83820323 4:0.72112591 
-1 1:0.4739388 2:0.28249089 3:0.71702421 4:0.45602764 
-1 1:0.8221646 2:0 3:0.91300598 4:0.475062 
1 1:1 2:0.19955749 3:0.2955538 4:0.230427 
-1 1:0.7263294 2:0.38520782 3:1 4:0.047483184 
1 1:0 2:0.91464057 3:0.96389584 4:0.84089816 
-1 1:1 2:0.22536938 3:0.90031012 4:0 
1 1:1 2:0.045556951 3:0.34614594 4:0.43155904 
1 1:0 2:0.83385544 3:0.92151966 4:0.77323183 
-1 1:0 2:0.33405269 3:1 4:0.87452532 
1 1:0.87527156 2:0.26789813 3:0 4:0.27684134 
-1 1:1 2:0.49537573 3:0.48962667 4:0.34700703 
1 1:0 2:0.84829857 3:0.65260734 4:0.86386903 
1 1:1 2:0.75764487 3:0.86731699 4:0.050818125 
-1 1:0 2:0.82781774 3:0.97452569 4:0.88550185 
-1 1:0 2:0.51932136 3:0.69545098 4:0.59441559 
1 1:1 2:0.80884242 3:0.018853491 4:0.34764574 
-1 1:0 2:0.3499938 3:0.56631875 4:0.76936618 
-1 1:0 2:0.70755858 3:0.11366112 4:0.9842705 
1 1:0 2:0.67887411 3:0.93803398 4:0.83172489 
-1 1:0 2:0.47608926 3:0.62134867 4:0.79837876 
1 1:0 2:0.84603783 3:0.9305046 4:0.83491438 
1 1:0.61978156 2:0.14745949 3:0.39649976 4:0.41633062 
1 1:0 2:0.98699826 3:0.91268399 4:0.80987552 
-1 1:0.86490346 2:1 3:0.8990769 4:0 
1 1:1 2:0 3:0.98026698 4:0.33307025 
-1 1:0.8895381 2:1 3:0 4:0.73610365 
1 1:0.22768808 2:0.46457501 3:0.049555951 4:0.83925255 
-1 1:1 2:0.18334169 3:0 4:0.13533868 
1 1:0 2:0.82383872 3:1 4:0.73677732 
1 1:0 2:0.98085557 3:0.91998093 4:0.80225046 
-1 1:0.35833534 2:0.51578193 3:0.57531874 4:1 
-1 1:0.34423609 2:0.18131766 3:0.39796682 4:1 
1 1:0 2:0.7450871 3:0.73742907 4:1 
1 1:1 2:0.57558299 3:0.36920006 4:0.33385414 
-1 1:1 2:0 3:0.14804752 4:0.34296947 
-1 1:0 2:0.85086274 3:0.81813395 4:0.87992618 
-1 1:0 2:0.95833694 3:0.9649677 4:0.90054041 
1 1:0.72297037 2:0.4364447 3:0.52282024 4:0.86350998 
1 1:0 2:0.95316349 3:0.83541131 4:0.89169322 
-1 1:0 2:0.66160832 3:0.92785247 4:0.86934771 
1 1:0 2:0.87244208 3:0.80271342 4:0.87826417 
-1 1:0 2:0.93330624 3:0.98119282 4:0.83643421 
-1 1:0 2:0.89800304 3:1 4:0.80635891 
1 1:0 2:0.9444839 3:0.85488044 4:0.71003674 
-1 1:0 2:0.71994806 3:0.99125755 4:0.83278009 
-1 1:0 2:0.65588216 3:0.26256117 4:0.9987966 
1 1:1 2:0.40981816 3:0.63533624 4:0.18110226 
1 1:0.95427349 2:0.5801872 3:0.4460901 4:1 
1 1:0 2:0.92020574 3:0.93277864 4:0.76224494 
1 1:0.39763481 2:0.23269449 3:0.65052592 4:0.35743305 
-1 1:0 2:0.95745954 3:0.90623655 4:0.89690081 
-1 1:0.033531371 2:0.49657625 3:1 4:0.61617063 
-1 1:0 2:0.55416949 3:0.97039222 4:0.90533089 
-1 1:0 2:0.70167542 3:0.66669669 4:0.90155424 
-1 1:0.6907444 2:0.65239842 3:0.18554001 4:0.39341984 
1 1:0.99642766 2:0.17518371 3:1 4:0.401561 
-1 1:0 2:0.73244672 3:0.68785841 4:0.57177351 
1 1:0 2:0.42613408 3:0.97431353 4:0.7893864 
1 1:0 2:0.036626227 3:1 4:0.24622435 
1 1:0.47318848 2:1 3:0.39011839 4:0.0044103852 
-1 1:0.65947442 2:0.14338474 3:0.39885472 4:0.3297035 
-1 1:1 2:0.89607242 3:0.22632417 4:0.14542282 
1 1:0 2:0.97929088 3:0.9780293 4:0.87568488 
1 1:0.66150587 2:0.4845202 3:0.51604778 4:0.68357793 
-1 1:0 2:0.87069235 3:1 4:0.80657765 
1 1:0 2:0.84448107 3:1 4:0.92533834 
1 1:0 2:0.51935548 3:0.89966233 4:0.93567168 
-1 1:0 2:0.81723215 3:0.7596275 4:0.69013321 
1 1:0 2:0.66910293 3:0.87483969 4:0.9916564 
-1 1:0 2:0.9346739 3:0.93841248 4:0.86029094 
1 1:0.91962522 2:0.20542389 3:0.90578746 4:0.3242951 
1 1:0 2:0.88359391 3:0.98314369 4:0.78755651 
-1 1:0 2:0.99253951 3:0.97346039 4:0.81774233 
1 1:1 2:0.14790362 3:0.4244863 4:0.20364918 
-1 1:0.3351259 2:0.59059486 3:0 4:0.70788484 
1 1:0 2:0.9213223 3:0.90617298 4:0.89116615 
-1 1:0 2:0.82597922 3:0.79464423 4:0.74730502 
-1 1:0.86585176 2:0.61906044 3:0 4:0.82278133 
-1 1:0 2:0.35038937 3:0.18077356 4:0.80220388 
-1 1:0.9084617 2:1 3:0.60496763 4:0.95273644 
1 1:0 2:0.73774577 3:0.92698605 4:0.72967418 
-1 1:1 2:0.28673195 3:0.85349572 4:0.23331651 
-1 1:1 2:0.07266647 3:0.23627067 4:0.25071641 
-1 1:1 2:0.22322121 3:0.38250653 4:0.39983672 
1 1:1 2:0 3:0.48169369 4:0.23891115 
-1 1:0 2:0.95364725 3:0.91382275 4:0.90871581 
1 1:0.25676694 2:0.16649388 3:0.27201801 4:0.70764221 
1 1:1 2:0.68600525 3:0 4:0.2133761 
-1 1:0 2:0.029120859 3:0.54092419 4:1 
-1 1:0 2:0.92031004 3:1 4:0.8144194 
-1 1:0.012419502 2:0.4876747 3:0.80388299 4:0 
-1 1:0 2:0.8875949 3:0.859093 4:0.86533489 
-1 1:0 2:0.96522284 3:0.83978961 4:0.83225583 
-1 1:0.7055925 2:0.48004062 3:0.56618405 4:1 
1 1:1 2:0.36714587 3:0 4:0.48735161 
1 1:1 2:0.20390276 3:0.57514691 4:0.63787557 
-1 1:1 2:0.29085192 3:0.5226981 4:0.41915317 
1 1:0.89747274 2:1 3:0 4:0.53172406 
1 1:0 2:0.85770835 3:0.87786019 4:0.66592582 
1 1:0 2:0.59358427 3:1 4:0.92067507 
-1 1:0 2:0.45778616 3:1 4:0.80035709 
-1 1:0 2:0.52739472 3:0.57430528 4:0.72821996 
-1 1:0.92388946 2:0.6024071 3:1 4:0 
1 1:0.65193017 2:1 3:0.96886865 4:0.28388755 
1 1:0 2:0.8833776 3:0.92836464 4:0.81866217 
1 1:0.7995043 2:0.49826802 3:0.49449468 4:0.88670316 
1 1:1 2:0.26721982 3:0.30864303 4:0.32236936 
1 1:0 2:1 3:0.69425358 4:0.79402206 
1 1:0 2:0.89270492 3:0.65546983 4:0.80984694 
-1 1:0 2:0.70018316 3:0.63978133 4:0.93298427 
1 1:0.34718766 2:0.52528472 3:0.71674889 4:0 
-1 1:0 2:0.97933181 3:0.82866643 4:0.97014475 
1 1:0.29138397 2:0.49452634 3:0.31366328 4:0.8974482 
1 1:0 2:0.79694403 3:0.78964312 4:0.71482246 
-1 1:0 2:0.9079106 3:1 4:0.81742128 
-1 1:1 2:0.49405527 3:0.0073691009 4:0.54458396 
1 1:1 2:0.55773653 3:0 4:0.72968505 
1 1:0 2:0.91935576 3:0.98871204 4:0.86635354 
-1 1:1 2:0.15233477 3:0.36907992 4:0.78475494 
-1 1:0.18233717 2:0.62784776 3:0.53585725 4:0.10995815 
-1 1:1 2:0.019665738 3:0.36567739 4:0.14180868 
-1 1:0 2:0.87922353 3:0.97421897 4:0.80944816 
-1 1:0 2:1 3:0.72151506 4:0.86865552 
1 1:0 2:0.98631833 3:0.98214026 4:0.88060939 
1 1:0.92693781 2:0.38006758 3:0.14502659 4:0.68038933 
1 1:0 2:0.64524111 3:0.91990598 4:0.86314058 
-1 1:1 2:0.10702456 3:0 4:0.46144362 
1 1:0 2:0.82821419 3:0.783587 4:0.76458807 
1 1:1 2:0.45758889 3:0.22673729 4:0.35818515 
-1 1:1 2:0.29378602 3:0.62980918 4:0.59720467 
-1 1:0 2:0.96077816 3:0.97319582 4:0.85732743 
1 1:0.80564138 2:0.52728614 3:0 4:0.15814963 
1 1:1 2:0 3:0.46524377 4:0.34640813 
-1 1:0 2:0.81550794 3:0.92655691 4:0.90161407 
1 1:0 2:0.85445827 3:0.78561044 4:0.68306756 
-1 1:0.20448672 2:0.69190559 3:0 4:1 
1 1:0.34048976 2:0.31537245 3:0.73157694 4:0.77573046 
1 1:0 2:0.7508323 3:0.77575471 4:0.64941817 
1 1:1 2:0.43623418 3:0.035755199 4:0.42246734 
1 1:0.71415656 2:0.71171414 3:1 4:0 
1 1:0.39336707 2:0 3:0.45945436 4:0.86152476 
1 1:0.23153182 2:0.99671693 3:0.48526346 4:0.34607625 
1 1:0.1997826 2:0.046205239 3:0.28563051 4:0.35484243 
1 1:0 2:0.91645779 3:0.10351598 4:1 
-1 1:0 2:0.7063375 3:0.63681238 4:0.93410737 
-1 1:0 2:0.54123393 3:0.60960711 4:0.729796 
1 1:0 2:0.98085144 3:0.98245077 4:0.88741011 
1 1:0.74330753 2:0.3352924 3:0.41905467 4:0.73793287 
1 1:1 2:0.26271959 3:0 4:0.4573327 
1 1:0 2:0.57300699 3:0.72720354 4:0.82712886 
-1 1:1 2:0.67174595 3:0.11649523 4:0.3562613 
-1 1:0.70061007 2:0.48358992 3:0.57100305 4:1 
1 1:0 2:0.85956621 3:0.84763226 4:0.85558127 
1 1:0 2:0.82559734 3:0.9484651 4:0.63700118 
-1 1:1 2:0.35620363 3:0 4:0.16441994 
1 1:0 2:0.58914288 3:0.38547057 4:0.79346602 
1 1:0.32456664 2:0.86516697 3:0.91764192 4:0.93953943 
-1 1:0.74643654 2:0 3:1 4:0.43448229 
-1 1:0 2:0.98481767 3:0.98710717 4:0.89392481 
1 1:1 2:0.0012837789 3:0 4:0.73366735 
1 1:0 2:0.90573147 3:0.86572603 4:0.66477236 
1 1:0 2:0.92048624 3:0.97592283 4:0.72499167 
1 1:0 2:0.82290005 3:0.81830792 4:0.74317446 
1 1:0 2:0.97694551 3:0.80061388 4:0.78847526 
-1 1:0 2:0.6620207 3:0.58380754 4:0.9626836 
1 1:0 2:0.36825097 3:0.42292023 4:0.16057448 
-1 1:0 2:0.92196376 3:0.8939213 4:0.88144408 
-1 1:1 2:0.71835556 3:0.21062247 4:0.4378007 
-1 1:0 2:0.42058513 3:1 4:0.74597266 
-1 1:1 2:0.21821738 3:0 4:0.14971932 
1 1:0.26637011 2:0.59614307 3:0.4927879 4:0 
-1 1:1 2:0.20729691 3:0.55101496 4:0.56770924 
1 1:0.65979858 2:0.047686486 3:0.77438251 4:0.1490072 
-1 1:0 2:0.98691039 3:0.98254907 4:0.88404217 
-1 1:0.24915212 2:0.49167804 3:0.43887659 4:0.078002335 
1 1:0 2:0.75794587 3:1 4:0.67390629 
-1 1:0 2:0.72309822 3:0.95970411 4:0.78226775 
-1 1:1 2:0.43860276 3:0.23194151 4:0.34731871 
1 1:1 2:0.69394495 3:0.32607154 4:0.5397837 
1 1:0.2266256 2:0.26086396 3:0.94122075 4:1 
-1 1:0 2:0.6349514 3:1 4:0.72543389 
-1 1:0 2:0.98832021 3:0.95885398 4:0.89653104 
-1 1:0 2:0.81361295 3:0.85155225 4:0.63615754 
-1 1:1 2:0.49300316 3:0.99707017 4:0.53606571 
-1 1:0 2:0.78267163 3:1 4:0.75417471 
-1 1:0.45033913 2:1 3:0.28623703 4:0.28398804 
1 1:1 2:0.30371275 3:0.26727473 4:0.27523917 
-1 1:0 2:0.87239837 3:0.79940142 4:0.89303816 
-1 1:1 2:0.11073031 3:0.37480113 4:0.79846565 
-1 1:0 2:0.91626992 3:0.99379017 4:0.87128034 
-1 1:0.171894 2:0.13398351 3:0.4390719 4:0 
-1 1:0 2:0.48299032 3:0.91945805 4:0.897947 
0.6042295175935911 1:0.6446048 2:0.43384873 3:1 4:0.53328174 
-1 1:1 2:0.67105096 3:0.28886602 4:0.17576962 
-1 1:0 2:0.82567358 3:0.42367665 4:1 
1 1:0.1965039 2:0.84803995 3:0.74379847 4:0.12525776 
1 1:0.1667232 2:0.68361134 3:1 4:0.49345874 
-1 1:0 2:0.68459615 3:0.37956186 4:1 
-1 1:1 2:0.11987679 3:0 4:0.56270667 
-1 1:0 2:0.91454338 3:1 4:0.88230939 
-1 1:0 2:0.97231516 3:0.87215233 4:0.63177979 
1 1:0 2:0.8364989 3:0.84559765 4:0.78405158 
1 1:1 2:0.66392834 3:0.076638784 4:0.50046362 
-1 1:0 2:0.73217922 3:0.89968399 4:0.8729545 
-1 1:0 2:0.82136369 3:0.89482148 4:0.82318901 
-1 1:0 2:0.65282409 3:0.85438499 4:0.53238722 
-1 1:0.88155798 2:0.88831826 3:0 4:0.36794726 
-1 1:0.015310223 2:0.15059617 3:0.93838228 4:0.77744942 
1 1:0 2:0.84052915 3:0.86557721 4:0.91237147 
1 1:1 2:0.62767519 3:0.40387527 4:0.55992431 
-1 1:0.83081428 2:0.6377646 3:0 4:1 
-1 1:0 2:0.965879 3:0.97742221 4:0.90358391 
1 1:0 2:0.63834464 3:0.8487152 4:0.96743045 
1 1:0 2:0.86655869 3:0.8138045 4:0.90091041 
1 1:0 2:1 3:0.82333521 4:0.39701564 
-1 1:0 2:0.23553254 3:0.87030838 4:0.86555263 
1 1:0.92849551 2:0.82129655 3:0 4:0.59118569 
-1 1:0 2:0.98525737 3:0.9802924 4:0.93183287 
-1 1:0 2:0.91388459 3:0.85619181 4:0.84278436 
1 1:0 2:0.8980008 3:0.86119517 4:0.87981678 
1 1:0 2:0.87452454 3:0.94230353 4:0.90251601 
1 1:0 2:0.80356708 3:0.8286225 4:0.78676338 
-1 1:0.088759795 2:0.92134722 3:0.98922095 4:0 
1 1:0 2:0.86701926 3:0.92412352 4:0.86522828 
1 1:1 2:0.64890332 3:0 4:0.43144545 
-1 1:1 2:0 3:0.33970756 4:0.20069316 
-1 1:1 2:0.42374422 3:0.06878243 4:0.22924419 
-1 1:0 2:0.93002361 3:0.79967555 4:0.70847882 
1 1:0 2:0.90134416 3:0.84918561 4:0.73820838 
1 1:0.98630763 2:0.32357258 3:1 4:0.13652914 
1 1:1 2:0.04723459 3:0.28103297 4:0.21135042 
1 1:1 2:0.70211459 3:0.44617021 4:0 
1 1:0 2:0.69845559 3:0.9210018 4:0.6206071 
1 1:0 2:0.85135511 3:0.16611392 4:0.30954582 
1 1:0 2:0.20994487 3:0.87074149 4:0.73922159 
-1 1:0 2:1 3:0.86201148 4:0.83983345 
1 1:1 2:0.40000599 3:0 4:0.99544762 
1 1:1 2:0.25958457 3:0.1582107 4:0.31805545 
1 1:0 2:0.94835671 3:0.94616435 4:0.89684458 
1 1:0 2:0.54778788 3:0.38422508 4:1 
-1 1:0 2:0.93378617 3:0.26027246 4:0.6018629 
1 1:0.34792481 2:0.62127673 3:0.39521383 4:0 
-1 1:0 2:0.71021534 3:0.63839748 4:0.93698077 
1 1:1 2:0.82701767 3:0 4:0.10630023 
-1 1:0 2:0.83299796 3:0.86035557 4:0.69122278 
-1 1:0 2:0.61795872 3:0.90293017 4:0.78268079 
1 1:0.53747789 2:0 3:0.78950955 4:0.27386276 
1 1:1 2:0.54993674 3:0.68219724 4:0.27538725 
1 1:0 2:0.84959117 3:0.66590761 4:0.86441087 
-1 1:1 2:0.48675284 3:0.68444791 4:0.50473146 
-1 1:0.59519147 2:0.095468255 3:0.25532216 4:0.35822049 
1 1:0.98709084 2:0.74161834 3:1 4:0 
1 1:0 2:0.71278814 3:0.97028872 4:0.91493629 
1 1:0 2:1 3:0.77169737 4:0.85284188 
1 1:0 2:0.89965555 3:0.80591061 4:0.85873308 
1 1:1 2:0.27317662 3:0.34942399 4:0 
-1 1:0 2:0.91335392 3:0.79453441 4:0.75075273 
-1 1:0 2:0.44550817 3:0.89573838 4:1 
1 1:1 2:0.33453114 3:0 4:0.42560653 
1 1:0 2:0.77115316 3:0.82554361 4:0.73231922 
1 1:0 2:0.97343443 3:0.98461163 4:0.88216867 
-1 1:0.1605861 2:0.93731626 3:0.32156014 4:0 
-1 1:0 2:0.88313155 3:0.60484114 4:0.48785083 
1 1:0 2:0.932912 3:1 4:0.85627191 
-1 1:0 2:0.69490603 3:1 4:0.43327531 
1 1:0.24695313 2:0 3:0.29636418 4:0.43443452 
1 1:1 2:0.30837453 3:0.53526738 4:0.50697914 
-1 1:1 2:0.37206273 3:0 4:0.44493628 
1 1:0 2:0.60099175 3:0.77317457 4:1 
1 1:0 2:0.66173492 3:0.99555108 4:0.85580276 
-1 1:0 2:0.75550749 3:0.98355655 4:0.80848612 
-1 1:0 2:0.79693185 3:0.53343575 4:0.81946818 
1 1:1 2:0.54919723 3:0 4:0.54126611 
-1 1:0.17143154 2:1 3:0.87492598 4:0 
-1 1:0.23630771 2:0.10589082 3:0.12740657 4:0.91456431 
1 1:1 2:0.77287012 3:0.62871043 4:0.091550334 
-1 1:0.78745341 2:0.67548329 3:0.84873972 4:0.8908391 
1 1:0.19120554 2:0.17669138 3:0.38523368 4:0.24036219 
1 1:0 2:0.95274826 3:0.79343426 4:0.91325943 
1 1:1 2:0.54945757 3:0.26872978 4:0.74127075 
-1 1:0 2:0.90263845 3:0.95484082 4:0.7200466 
1 1:1 2:0.30662733 3:0.39072516 4:0.62854426 
1 1:0.50780188 2:0.020576318 3:1 4:0.26767783 
1 1:0 2:0.95182402 3:1 4:0.90347521 
1 1:0.038661252 2:0.24535903 3:0.65417739 4:1 
-1 1:0 2:0.97641298 3:0.98174344 4:0.88961177 
1 1:1 2:0.49468534 3:0.30165203 4:0.59192474 
1 1:0.69660224 2:0.63308889 3:0.29331452 4:0 
-1 1:0 2:0.79561087 3:0.94556456 4:0.85692508 
1 1:0.58313805 2:0 3:1 4:0.31720184 
-1 1:1 2:0 3:0.80248269 4:0.49946983 
1 1:0.40992846 2:0.1114449 3:0.25613758 4:1 
-1 1:1 2:0.84631214 3:0.76706902 4:0.40834084 
-1 1:0.44104882 2:0.39104759 3:0.54019552 4:0.59645837 
-1 1:0.4741597 2:0.41949627 3:0.70098775 4:1 
1 1:1 2:0.87155601 3:0.31691336 4:0.49559962 
1 1:1 2:0.75461963 3:0.47702241 4:0 
-1 1:0.47353256 2:0.1737474 3:1 4:0.55147947 
-1 1:1 2:0 3:0.70676845 4:0.43303762 
-1 1:0 2:0.3896905 3:0.63196663 4:0.75345491 
1 1:0 2:0.88619342 3:0.84033899 4:0.74042362 
1 1:1 2:0.74893369 3:0.48603839 4:0 
1 1:0.69576169 2:1 3:0.89477852 4:0.15438106 
1 1:1 2:0.11832825 3:0.44634447 4:0.13165062 
1 1:0.90775551 2:0.8107717 3:0.70003035 4:0 
-1 1:0.0020704748 2:0.50916035 3:1 4:0.61319984 
1 1:0 2:0.85101725 3:0.80845496 4:0.76843389 
1 1:0 2:0.96895937 3:0.99784243 4:0.89065029 
-1 1:0 2:0.9575906 3:0.74198874 4:0.92760256 
-1 1:0 2:0.97845305 3:0.98326276 4:0.89835564 
1 1:0 2:0.78239408 3:0.59249533 4:0.79239553 
-1 1:0 2:0.91596957 3:0.87518285 4:0.78727841 
1 1:0.2570784 2:0.30395735 3:1 4:0.3458514 
1 1:0.70683435 2:0.32086348 3:0.94552214 4:0 
1 1:1 2:0.18307925 3:0.5094591 4:0.45618178 
1 1:0 2:0.52742632 3:0.87315857 4:0.89390397 
-1 1:0 2:0.86626389 3:0.95348806 4:0.73238489 
1 1:0 2:0.9884324 3:0.91345632 4:0.88878035 
1 1:0 2:0.60323909 3:0.76310672 4:0.34578816 
1 1:0 2:0.85575478 3:0.89349282 4:0.64223624 
1 1:0.79750919 2:0.33533215 3:0.38842415 4:0.93662008 
-1 1:0 2:0.76902869 3:0.33560656 4:0.67278524 
1 1:0 2:0.67571865 3:0.64654515 4:0.78550886 
-1 1:0 2:0.9846441 3:0.98840829 4:0.88107575 
-1 1:0.84230561 2:0.61904643 3:0.57584813 4:0.60334015 
1 1:0 2:0.90702332 3:0.97947016 4:0.90789455 
-1 1:0 2:0.50559547 3:1 4:0.64393057 
-1 1:0 2:0.60991614 3:1 4:0.78503071 
-1 1:0.94332884 2:0.84598572 3:0.48068814 4:0 
1 1:0.63766279 2:1 3:0.03240189 4:0.52320298 
1 1:0 2:0.78857688 3:0.48636181 4:0.36903375 
-1 1:1 2:0.46588378 3:0.5763037 4:0.22724823 
-1 1:0.49245756 2:0.44977044 3:0.46836416 4:0.62514612 
-1 1:1 2:0.26901808 3:0.48318204 4:0.98974947 
1 1:1 2:0 3:0.5058636 4:0.21080429 
-1 1:0 2:0.74881335 3:0.97909086 4:0.98342247 
1 1:0 2:0.45043878 3:0.6189415 4:0.86182289 
1 1:0.74690696 2:0.23634969 3:0.24594036 4:1 
1 1:0 2:0.71477012 3:0.53630465 4:0.99052172 
-1 1:0 2:0.83486001 3:0.56174133 4:0.78890715 
1 1:0 2:0.73656003 3:0.75187399 4:0.62947799 
1 1:1 2:0.59531405 3:0 4:0.047703351 
1 1:0.10687228 2:0.54724263 3:1 4:0.52802821 
1 1:1 2:0.65623001 3:0.5586205 4:0 
1 1:1 2:0.16698788 3:0 4:0.48517908 
-1 1:1 2:0.2759057 3:0.41165043 4:0 
-1 1:0 2:0.87766357 3:0.7493076 4:0.90866469 
-1 1:0 2:0.9279697 3:1 4:0.9105524 
1 1:0 2:0.88012526 3:1 4:0.93861437 
1 1:1 2:0.19459309 3:0.31023527 4:0.21149696 
1 1:1 2:0.73620158 3:0.32116966 4:0.23538057 
-1 1:0 2:0.74571669 3:1 4:0.72713851 
-1 1:0 2:0.66889428 3:0.96198406 4:0.94953568 
-1 1:1 2:0 3:0.36699803 4:0.12437883 
1 1:0.83961253 2:0.3791967 3:0.16552448 4:0 
1 1:0.99962982 2:0.78070947 3:0 4:0.25883647 
-1 1:1 2:0.50936763 3:0.11402113 4:0.29285057 
1 1:0 2:0.83915569 3:0.84711715 4:0.80796353 
1 1:0 2:0.98777078 3:0.83862067 4:0.76544985 
-1 1:0 2:0.46246777 3:0.70604112 4:0.89208297 
-1 1:0 2:0.50229313 3:1 4:0.67992487 
1 1:0.045929643 2:0.64563192 3:0 4:1 
1 1:0 2:0.82205433 3:0.82659964 4:0.80128098 
-1 1:0.39256324 2:0.74983755 3:0.56286941 4:0.19928496 
-1 1:0.19221545 2:0.35640946 3:0 4:0.92108237 
1 1:0 2:0.67603901 3:0.46623853 4:0.91277988 
-1 1:0 2:0.90345678 3:0.78247965 4:0.78910475 
1 1:0 2:1 3:0.81716268 4:0.87054638 
-1 1:0.84762711 2:1 3:0 4:0.22412756 
1 1:0 2:1 3:0.70829056 4:0.69916744 
-1 1:0.82846512 2:0.058732246 3:0.0096278413 4:0.36455624 
-1 1:0.22996537 2:0.51783964 3:0.50976426 4:0.39663073 
-1 1:1 2:0.25990317 3:0.4136346 4:0.52762822 
-1 1:0.7263294 2:0.38520782 3:1 4:0.047483184 
-1 1:1 2:0.41028844 3:0.24856342 4:0.31196417 
1 1:0.67016033 2:1 3:0.31708096 4:0 
1 1:1 2:0.36709246 3:0.39137736 4:0.31393059 
-1 1:0 2:0.97436262 3:0.91808229 4:0.85842352 
1 1:0 2:1 3:0.82386982 4:0.87534462 
-1 1:0 2:1 3:0.93574414 4:0.83289688 
1 1:1 2:0.13955066 3:0.35523464 4:0.25144517 
-1 1:0.89467968 2:0.54869985 3:0 4:1 
-1 1:0 2:0.9746353 3:0.98138387 4:0.88948152 
-1 1:1 2:0.20414894 3:0.56558018 4:0.41903508 
1 1:1 2:0 3:0.39795258 4:0.30870483 
-1 1:1 2:0.93875971 3:0.27235679 4:0.52495796 
-1 1:1 2:0.087524051 3:0.24206432 4:0.21684658 
-1 1:0 2:0.95288288 3:0.91973669 4:0.87515909 
1 1:1 2:0.14746653 3:0.3250979 4:0.28967773 
-1 1:1 2:0.042602237 3:0.34220462 4:0.28508953 
-1 1:0 2:0.35117902 3:0.20113617 4:0.80727063 
-1 1:0 2:1 3:0.93945322 4:0.7099309 
1 1:0.72581824 2:1 3:0.082685946 4:0 
1 1:0 2:0.78218659 3:0.65784777 4:0.74022951 
1 1:0.87668937 2:0.65318198 3:1 4:0.33852 
-1 1:0 2:0.79952247 3:0.71864595 4:0.93461151 
1 1:1 2:0.46201336 3:0.13503984 4:0.22399059 
-1 1:1 2:0 3:0.36117586 4:0.38609786 
1 1:0 2:0.82986432 3:0.85186885 4:0.7823115 
1 1:0 2:1 3:0.75995645 4:0.83692938 
-1 1:0 2:0.95603226 3:0.90534591 4:0.78516884 
1 1:1 2:0.076593288 3:0.24181287 4:0.50031513 
1 1:0 2:0.80393572 3:0.96957482 4:0.87493802 
-1 1:1 2:0.41854157 3:0.1971854 4:0.96688303 
1 1:0.74577794 2:0.56523575 3:0.15502384 4:0.90011838 
-1 1:0 2:0.49982526 3:0.59567584 4:0.66207114 
1 1:0 2:1 3:0.82981275 4:0.9445543 
-1 1:1 2:0.57136469 3:0.40539705 4:0.67542786 
-1 1:0.49473569 2:1 3:0.17106628 4:0 
-1 1:0 2:0.98832021 3:0.95885398 4:0.89653104 
-1 1:1 2:0.10068084 3:0 4:0.34010854 
1 1:0.57323949 2:0.80389477 3:0.50824574 4:0.36156872 
-1 1:1 2:0.95994128 3:0.82056671 4:0 
-1 1:0.23182652 2:0.46199967 3:0.44255119 4:0.06497314 
-1 1:0 2:0.80787375 3:0.97996272 4:0.88603479 
1 1:0.58647307 2:0.48581087 3:0.22256046 4:0.54697669 
1 1:0 2:0.71006427 3:0.82662695 4:0.89432178 
-1 1:0 2:0.92713819 3:0.92989784 4:0.89275405 
1 1:1 2:0 3:0.29527232 4:0.19119746 
-1 1:0 2:0.58214701 3:0.36131984 4:0.90479737 
1 1:0.33638719 2:0 3:0.25710905 4:0.17333891 
1 1:0 2:0.73095172 3:1 4:0.81412717 
1 1:0.22659179 2:0.050974808 3:0.39181096 4:0.47961171 
-1 1:0 2:0.89528671 3:0.94302204 4:0.9748597 
1 1:0 2:0.75717685 3:1 4:0.67179626 
-1 1:0 2:0.93494461 3:0.84112901 4:0.9391598 
1 1:0 2:0.88077387 3:0.73715851 4:0.96342721 
1 1:0 2:0.79637654 3:0.75533802 4:0.90995695 
1 1:0.95473627 2:0.46612678 3:0.3547438 4:1 
1 1:0 2:0.65102347 3:0.83774555 4:0.61557429 
1 1:0.2211378 2:0.57167646 3:0.25493473 4:0.77879574 
1 1:0.16946729 2:0.45031639 3:0.42566479 4:0 
-1 1:0 2:0.90107038 3:0.74866443 4:1 
-1 1:1 2:0.14456194 3:0.17438348 4:0.1687103 
-1 1:0.11086872 2:0 3:1 4:0.80232784 
1 1:0 2:0.3252747 3:1 4:0.78101073 
1 1:0.75736768 2:0.30440855 3:0.39109104 4:0.74151981 
1 1:1 2:0 3:0.56993912 4:0.78352973 
-1 1:0.1284119 2:0.75608806 3:0.63677313 4:0.82444559 
-1 1:0 2:0.80303175 3:0.99533609 4:0.88125573 
1 1:0 2:0.87284722 3:0.92928977 4:0.8987175 
-1 1:0 2:0.96867794 3:0.99281361 4:0.89177156 
-1 1:0 2:0.94745329 3:0.95802369 4:0.90143327 
1 1:1 2:0.41557254 3:0 4:0.0052152327 
-1 1:0.3618934 2:0.41011946 3:0.27956784 4:1 
-1 1:1 2:0.95228547 3:0.1176951 4:0 
-1 1:0.00090198374 2:0.92188424 3:0.17022382 4:1 
-1 1:0 2:0.9356288 3:0.7958551 4:0.97215066 
1 1:0.15710197 2:0.63769111 3:0 4:0.6884354 
-1 1:0 2:0.7080792 3:0.86266826 4:0.82478451 
-1 1:0 2:0.65855434 3:1 4:0.58730104 
1 1:0.80454282 2:1 3:0.07893444 4:0 
-1 1:0.81788068 2:0.49795129 3:0.97440432 4:0.6499674 
-1 1:0 2:0.4000895 3:1 4:0.65159833 
1 1:0 2:0.57675196 3:0.56798554 4:0.85965929 
1 1:1 2:0.062430241 3:0.25881633 4:0.48358005 
1 1:0 2:0.98440693 3:0.98792584 4:0.89502412 
-1 1:1 2:0.44380749 3:0.24665141 4:0 
-1 1:0 2:0.98071683 3:0.7971217 4:0.83934021 
-1 1:1 2:0.3919714 3:0 4:0.079492827 
-1 1:0 2:0.84620773 3:0.95071269 4:0.63975266 
1 1:0 2:0.84820079 3:0.65827494 4:0.86106685 
1 1:1 2:0.15796272 3:0.33653451 4:0.47911068 
1 1:1 2:0.10266783 3:0.094300466 4:0.64033128 
1 1:0 2:0.83501244 3:0.87209331 4:0.70610892 
-1 1:0 2:0.98556374 3:0.98784751 4:0.89154454 
1 1:0 2:0.81226593 3:0.91486045 4:0.67008797 
-1 1:1 2:0.22878622 3:0.88989525 4:0.16799813 
-1 1:1 2:0.90886547 3:0.092685264 4:0.2920818 
1 1:0.52773419 2:0.067259134 3:1 4:0.17513291 
1 1:1 2:0.45556713 3:0.51430256 4:0.96731358 
1 1:0 2:0.89565418 3:0.90822848 4:0.84637323 
-1 1:0 2:1 3:0.25168407 4:0.18501409 
1 1:0.96625516 2:1 3:0.83308742 4:0.23094331 
1 1:1 2:0.55156418 3:0 4:0.69228536 
-1 1:0 2:0.98796301 3:0.99372757 4:0.89630487 
1 1:1 2:0.71304704 3:0.13450946 4:0.41942966 
1 1:0 2:0.18616401 3:0.50062517 4:0.87301194 
-1 1:0 2:0.67319077 3:1 4:0.82290209 
0.738165760703321 1:0 2:0.93956643 3:0.80976737 4:0.96741957 
1 1:0.38523898 2:1 3:0.059543664 4:0.81572804 
1 1:0 2:0.73295685 3:0.60500889 4:0.98242957 
-1 1:0.33581691 2:0.46334966 3:0.4477551 4:0 
1 1:0 2:1 3:0.79100932 4:0.80276228 
-1 1:0 2:0.6639168 3:1 4:0.58902655 
-1 1:0 2:0.98418415 3:0.47053011 4:1 
-1 1:0 2:0.84840687 3:0.81830084 4:0.87977816 
-1 1:0 2:0.97235972 3:0.92751393 4:0.88578144 
1 1:0 2:0.95466808 3:0.96612947 4:0.8603206 
1 1:0.86557211 2:1 3:0.61632361 4:0 
1 1:0 2:0.49167936 3:0.50951135 4:0.59880368 
1 1:0 2:0.72281175 3:1 4:0.45668262 
1 1:1 2:0.20958052 3:0.3654072 4:0.28574637 
-1 1:0 2:0.84601213 3:0.88811386 4:0.91178561 
1 1:0.39767611 2:0.55259663 3:0 4:0.81799812 
1 1:0 2:0.97929088 3:0.9780293 4:0.87568488 
-1 1:0.098644394 2:0.37336686 3:0.68092542 4:0.66059457 
1 1:1 2:0.50542185 3:0.68671853 4:0.057595955 
1 1:0.82827397 2:0.88839494 3:0.8892132 4:0.13847449 
1 1:1 2:0 3:0.17308116 4:0.054351773 
1 1:0.80971265 2:0.50907742 3:1 4:0 
1 1:0.029725176 2:1 3:0.50475535 4:0 
1 1:0 2:0.46529543 3:0.63255165 4:1 
1 1:1 2:0.69788599 3:0 4:0.041677788 
1 1:0 2:0.95122511 3:0.93215523 4:0.82000212 
1 1:0.19120554 2:0.17669138 3:0.38523368 4:0.24036219 
1 1:0 2:1 3:0.8082074 4:0.81567215 
1 1:1 2:0.2953386 3:0.48143555 4:0.46131896 
1 1:0 2:1 3:0.11550156 4:0.64035618 
-1 1:0.10900532 2:0.69906334 3:0 4:1 
-1 1:0 2:0.48510122 3:1 4:0.79515706 
1 1:1 2:0.16910926 3:0.57206885 4:0.50408837 
-1 1:1 2:0.093812005 3:0.1886108 4:0.23369386 
1 1:0.196826 2:1 3:0.92881885 4:0.2789779 
-1 1:0 2:0.74760936 3:0.90818342 4:0.86929732 
1 1:0 2:0.89714285 3:0.84922861 4:0.77875291 
-1 1:0.90227955 2:0 3:0.83500313 4:0.3528154 
-1 1:0 2:0.8193959 3:0.97348532 4:0.34971702 
1 1:0 2:0.92079351 3:0.8575335 4:0.79939368 
1 1:0 2:0.9852977 3:0.97919114 4:0.90118682 
1 1:1 2:0.67051806 3:0.22633864 4:0 
1 1:0 2:0.96026413 3:0.96583481 4:0.86187521 
-1 1:1 2:0.84627389 3:0.77845575 4:0.13245368 
-1 1:0 2:0.99151028 3:0.97747569 4:0.90187474 
1 1:0 2:0.43826874 3:1 4:0.18918521 
-1 1:1 2:0 3:0.53987456 4:0.13492278 
-1 1:1 2:0.20564343 3:0.03194772 4:0.22249166 
-1 1:0 2:0.39581762 3:0.80302514 4:0.87964594 
-1 1:0.68383754 2:0.67307064 3:1 4:0.75207186 
1 1:1 2:0.36916482 3:0 4:0.38601334 
-1 1:0 2:0.20028217 3:1 4:0.051506377 
-1 1:0 2:0.81971274 3:0.76528941 4:0.6935873 
1 1:1 2:0.44178224 3:0.26012969 4:0.048704169 
1 1:0 2:0.32722498 3:0.60617892 4:1 
1 1:1 2:0.32565591 3:0.48967933 4:0 
-1 1:0 2:0.92021982 3:0.8908345 4:0.88084394 
1 1:0.42745201 2:0.57168666 3:0 4:0.65822143 
-1 1:0.33736752 2:0.85622736 3:0.79537033 4:0.8781149 
1 1:0 2:0.89254931 3:0.85619194 4:0.90293763 
-1 1:0 2:0.61055509 3:0.4658599 4:0.40021771 
-1 1:0 2:0.95595361 3:0.68547577 4:0.92925938 
-1 1:0 2:0.84425302 3:0.92822398 4:0.63485373 
1 1:0 2:0.95363781 3:0.83671279 4:0.89371412 
-1 1:0 2:0.82136369 3:0.89482148 4:0.82318901 
1 1:0.62930876 2:0.79657082 3:0.20242434 4:0 
1 1:0.89022225 2:1 3:0.28743762 4:0.25949923 
-1 1:0 2:0.99042091 3:0.28922203 4:0.86110598 
1 1:1 2:0 3:0.81366859 4:0.017268512 
1 1:1 2:0.32046339 3:0.21786988 4:0.0081931762 
1 1:0.50345881 2:1 3:0.46789577 4:0.072243034 
-1 1:0 2:0.91589977 3:0.92220246 4:0.87934901 
-1 1:0.39256324 2:0.74983755 3:0.56286941 4:0.19928496 
-1 1:0.13289625 2:1 3:0.62661933 4:0 
-1 1:0 2:1 3:0.11424104 4:0.59022392 
1 1:0.76088895 2:0 3:0.87372056 4:1 
-1 1:0.7470091 2:1 3:0.53153519 4:0.28599914 
-1 1:0 2:0.50050368 3:0.6896855 4:0.58177619 
1 1:0.66116522 2:0 3:0.47885877 4:0.3406121 
1 1:1 2:0 3:0.27378285 4:0.50285507 
-1 1:1 2:0.31146954 3:0.43064003 4:0 
1 1:0 2:0.86156052 3:0.56446496 4:0.45134455 
1 1:0.63221153 2:0.33357448 3:1 4:0 
1 1:0 2:0.51806227 3:0.87732896 4:0.79860382 
1 1:0 2:1 3:0.78269496 4:0.78985522 
-1 1:0.21895816 2:0.51729293 3:0.49854826 4:0.39521215 
1 1:0 2:0.91002901 3:0.94074726 4:0.89626016 
1 1:0 2:0.68995765 3:0.82993397 4:0.90089386 
-1 1:0.24767641 2:0.10936136 3:0 4:0.44144546 
-1 1:0 2:1 3:0.96264477 4:0.74787358 
1 1:1 2:0.62407247 3:0.78898254 4:0 
1 1:0 2:0.65102347 3:0.83774555 4:0.61557429 
1 1:0 2:0.77758413 3:0.67997318 4:0.88493279 
-1 1:1 2:0 3:0.45351311 4:0.0019835677 
-1 1:0.10430798 2:0 3:0.58240452 4:0.68318131 
-1 1:1 2:0.23941031 3:0 4:0.41277883 
1 1:0 2:0.83692904 3:0.35624931 4:0.93059527 
1 1:0.84700443 2:1 3:0.058628065 4:0.17308252 
-1 1:0.77510915 2:1 3:0.63356193 4:0.6932961 
-1 1:0 2:0.93766856 3:0.89605947 4:0.81035757 
1 1:1 2:0 3:0.58215132 4:0.39803558 
-1 1:0 2:0.48420286 3:0.60550971 4:0.7992578 
1 1:0 2:0.84532328 3:0.81810117 4:0.74272565 
-1 1:0 2:0.95694959 3:0.69029449 4:0.93092805 
1 1:0 2:0.41034211 3:0.80377873 4:0.87674017 
-1 1:1 2:0.092645913 3:0 4:0.33523673 
-1 1:0 2:0.52881914 3:0.78923095 4:0.86207086 
-1 1:1 2:0.40439171 3:0.19057538 4:0.18248717 
-1 1:0 2:0.99467734 3:0.99270608 4:0.74044283 
-1 1:0 2:0.9335159 3:0.94457055 4:0.90259758 
-1 1:0 2:0.96747671 3:0.95740869 4:0.89968157 
-1 1:1 2:0.27320406 3:0.058576751 4:0 
1 1:0 2:0.87906316 3:0.70947256 4:0.92617341 
1 1:0 2:0.84013172 3:0.78086319 4:0.89475977 
-1 1:1 2:0 3:0.42469624 4:0.52256356 
1 1:0 2:0.67887411 3:0.93803398 4:0.83172489 
-1 1:1 2:0.14243591 3:0.24573423 4:0.6788059 
-1 1:0.9984538 2:0.32168073 3:0.66767667 4:0.97041422 
-1 1:0 2:1 3:0.95046362 4:0.73725168 
-1 1:0.54276419 2:1 3:0.27000851 4:0 
-1 1:1 2:0.47198754 3:0.32726428 4:0.44846125 
1 1:0.29070679 2:0.071181299 3:0.54177263 4:0 
-1 1:0 2:0.7616141 3:0.62337494 4:0.92764208 
1 1:0.23679302 2:0.62586651 3:0.78991891 4:0.61688123 
1 1:0 2:0.86840722 3:0.6924009 4:0.88773729 
-1 1:0 2:0.80957283 3:0.92226182 4:0.67834143 
-1 1:1 2:0.69051653 3:0.13702473 4:0 
1 1:0 2:0.97877506 3:0.94679561 4:0.72490304 
-1 1:0 2:0.95558223 3:0.89217655 4:0.78293547 
-1 1:1 2:0.29179288 3:0 4:0.17315941 
-1 1:0 2:0.98736007 3:0.98828857 4:0.89379705 
-1 1:0.8825023 2:1 3:0.62056793 4:0 
-1 1:1 2:0.70116591 3:0.23797683 4:0.28370099 
1 1:0 2:0.8725175 3:0.93097462 4:0.7739779 
1 1:0 2:0.91520617 3:1 4:0.84623477 
-1 1:0 2:0.85288293 3:0.79750588 4:0.76955959 
1 1:0 2:0.97574421 3:0.80311873 4:0.46503738 
-1 1:0 2:0.73386316 3:0.50042134 4:0.89366641 
1 1:0 2:0.99290517 3:0.97307107 4:0.78534198 
-1 1:0 2:0.96634376 3:0.91211313 4:0.78988989 
1 1:0 2:1 3:0.80987401 4:0.78241601 
-1 1:0.061556755 2:0.3642984 3:0.16692748 4:0.34510879 
1 1:0 2:0.70250035 3:0.85410895 4:0.76688702 
1 1:1 2:0.080369583 3:0.26282775 4:0.14863041 
-1 1:1 2:0.51770638 3:0.28063766 4:0.12713485 
-1 1:0.83486213 2:0.62524334 3:0.58245334 4:0.6132958 
-1 1:0 2:0.95676353 3:0.94936904 4:0.84407056 
1 1:0.20212913 2:0.8275228 3:0.48653495 4:0.86278842 
1 1:1 2:0.595227 3:0.35908418 4:0.32744113 
-1 1:0 2:0.98588292 3:0.9863356 4:0.89426627 
1 1:0 2:0.98596342 3:0.99108209 4:0.89592177 
-1 1:0.42942739 2:0.53717644 3:0.51085672 4:1 
-1 1:1 2:0.23249459 3:0.0057046142 4:0.22297079 
1 1:0.87435788 2:0.21171454 3:0.29630594 4:1 
-1 1:1 2:0.10757307 3:0.22613222 4:0.24479823 
-1 1:0 2:0.78469773 3:0.95661769 4:0.8618255 
1 1:1 2:0.69016426 3:0 4:0.56911687 
1 1:0 2:0.98135939 3:0.98195016 4:0.89807571 
-1 1:1 2:0.43517554 3:0.20965021 4:0.32295461 
1 1:1 2:0.18497489 3:0.33978079 4:0.035862944 
1 1:1 2:0.065109734 3:0.0068642155 4:0.44136554 
1 1:0 2:1 3:0.71230049 4:0.86421432 
1 1:0 2:0.04544598 3:0.31240064 4:0.11192648 
1 1:1 2:0.10301755 3:0.39294002 4:0.27360939 
1 1:1 2:0.05183261 3:0.42887833 4:0.044716271 
1 1:0 2:1 3:0.93267327 4:0.91477786 
-1 1:0 2:0.67892869 3:0.15906312 4:1 
-1 1:0 2:0.75381549 3:1 4:0.67175266 
-1 1:1 2:0.23507468 3:0.14675665 4:0.21128839 
-1 1:0 2:0.84976075 3:0.89307588 4:0.70445291 
1 1:0 2:0.92625073 3:0.73914068 4:0.95959315 
1 1:0.12190615 2:0.60130332 3:0.5051486 4:0.34324536 
-1 1:1 2:0.33014214 3:0.25328827 4:0.55327572 
-1 1:0 2:0.82648508 3:0.95419314 4:0.3516946 
1 1:0.71407944 2:1 3:0 4:0.17854867 
1 1:0 2:0.89214412 3:0.87461876 4:0.84713757 
1 1:0 2:0.79200596 3:1 4:0.82436375 
1 1:0 2:0.94857445 3:0.98550666 4:0.88271861 
1 1:1 2:0.29016344 3:0 4:0.18066028 
1 1:1 2:0 3:0.69641409 4:0.42976385 
1 1:0.87592695 2:0 3:0.77601613 4:0.62915088 
-1 1:0 2:0.85732863 3:1 4:0.89215308 
1 1:0.33817604 2:0.6620116 3:0 4:1 
1 1:0 2:0.54025354 3:0.50809855 4:1 
1 1:0.26510928 2:0.3777929 3:0.13191348 4:0.26125168 
-1 1:0 2:0.88759822 3:0.91907082 4:0.83876793 
1 1:0 2:0.8779832 3:0.91584478 4:0.81893558 
1 1:0.92137233 2:0.71777781 3:0.51401812 4:0 
-1 1:1 2:0.19012365 3:0.66901375 4:0.58672676 
1 1:0.8481996 2:1 3:0 4:0.19916492 
1 1:0.063946189 2:0 3:1 4:0.51344393 
-1 1:0.98630196 2:0.29019013 3:0.46064577 4:1 
1 1:0.26152285 2:0 3:0.51595645 4:0.97538467 
1 1:0 2:0.8394274 3:0.73320299 4:0.6515345 
1 1:0 2:0.9862322 3:1 4:0.9060384 
1 1:1 2:0.23161998 3:0.01876246 4:0.26959708 
1 1:1 2:0.087533019 3:0 4:0.42872491 
-1 1:0 2:0.64875825 3:0.84794907 4:0.53661707 
1 1:0.46151046 2:0.1704876 3:1 4:0.53477752 
-1 1:1 2:0.54643745 3:0.18974046 4:0.26524576 
1 1:0.090733658 2:1 3:0.75891258 4:0.8053588 
-1 1:0 2:0.98631833 3:0.98214026 4:0.88060939 
-1 1:0.39244321 2:1 3:0.10037755 4:0 
-1 1:0 2:0.96893184 3:1 4:0.86937629 
1 1:0 2:0.6680899 3:0.93757864 4:0.82492582 
1 1:0.44045518 2:0.14637433 3:0.70589266 4:0.44300809 
1 1:0 2:0.98771006 3:0.99804756 4:0.90384051 
1 1:1 2:0.022775575 3:0.25480892 4:0.45972939 
-1 1:0 2:0.91383347 3:0.98739585 4:0.82972189 
1 1:1 2:0.52417898 3:0.56250768 4:0.35309186 
-1 1:0 2:0.90746193 3:0.93946477 4:0.86895518 
-1 1:0 2:0.81902436 3:0.8858911 4:0.093524787 
1 1:1 2:0.62775948 3:0.51421589 4:0 
-1 1:1 2:0.26746304 3:0 4:0.29483742 
-0.1313393702332151 1:0.86716486 2:0.74603611 3:0 4:0.83246669 
1 1:0 2:0.92240716 3:0.90666868 4:0.90191796 
-1 1:1 2:0 3:0.5897805 4:0.28579406 
-1 1:0 2:0.6598456 3:0.88294172 4:0.74220201 
1 1:0.76617545 2:0.4643825 3:0.54130372 4:0.86630974 
1 1:0.39231829 2:0.66766461 3:0 4:0.91733161 
-1 1:0 2:0.54639188 3:0.45470241 4:0.40483081 
1 1:0.17163164 2:0.85748503 3:0 4:0.79547935 
-1 1:0 2:0.60635584 3:0.89535878 4:0.77394537 
1 1:0 2:0.92607148 3:1 4:0.71314336 
-1 1:1 2:0.18642465 3:0.29413446 4:0.66424612 
-1 1:0.33662918 2:0.26802967 3:1 4:0.38122576 
-1 1:1 2:0.20660683 3:0 4:0.20841725 
-1 1:0.15248693 2:0.77182162 3:0.63494832 4:0.78814644 
1 1:0.22655228 2:0.58923662 3:0.45945459 4:0.85193005 
-1 1:0.71854914 2:1 3:0.50520721 4:0 
1 1:0 2:0.85660435 3:0.8058451 4:0.94936312 
-1 1:0 2:1 3:0.62593177 4:0.72937692 
1 1:0.81465831 2:0.29150892 3:0.29524299 4:0.67565744 
1 1:0.37256971 2:1 3:0.51167707 4:0.29661341 
1 1:1 2:0.17797214 3:0.20752959 4:0.42158827 
1 1:0 2:0.99107412 3:0.77301042 4:0.80079205 
1 1:0 2:0.74198966 3:1 4:0.71300336 
-1 1:0.82060989 2:1 3:0 4:0.11404526 
-1 1:0 2:0.93872876 3:0.81431452 4:0.704611 
-1 1:0 2:1 3:0.95840437 4:0.86548904 
1 1:0 2:1 3:0.84607051 4:0.8647925 
-1 1:1 2:0.73589765 3:0.4423104 4:0 
1 1:0 2:1 3:0.89946827 4:0.85916329 
1 1:0.2266256 2:0.26086396 3:0.94122075 4:1 
-1 1:0 2:0.91961467 3:0.89037792 4:0.88118396 
1 1:0 2:1 3:0.94910822 4:0.6501672 
1 1:0 2:0.78075549 3:0.60375224 4:0.72592902 
0.2651808419576786 1:1 2:0.93885337 3:0 4:0.64557269 
1 1:0 2:0.82671793 3:0.81636966 4:0.6621818 
1 1:0.33657961 2:1 3:0 4:0.30552109 
-1 1:0 2:0.24504678 3:1 4:0.060775576 
-1 1:0 2:0.87022721 3:0.78671461 4:0.89270368 
-1 1:0.61526088 2:0 3:0.28634709 4:1 
1 1:1 2:0.29033342 3:0.26545056 4:0.69446483 
-1 1:1 2:0.47416254 3:0.29163534 4:0.31415728 
-1 1:1 2:0.22998708 3:0.33682248 4:0.42703199 
-1 1:0 2:0.9620784 3:0.84204862 4:0.87758737 
-1 1:0.59996182 2:0.92664748 3:0.064465486 4:0.86665784 
-1 1:0.89283322 2:0.97004818 3:1 4:0 
1 1:0.33591508 2:0 3:1 4:0.8953999 
-1 1:0.78547535 2:0.64076496 3:0.46760516 4:0.071377095 
-1 1:0 2:0.65077847 3:0.19567155 4:0.35375703 
1 1:0 2:0.60823824 3:0.53482176 4:1 
-1 1:0 2:0.98605144 3:0.9833393 4:0.88424687 
1 1:0 2:0.86729775 3:0.87788347 4:0.69819223 
-1 1:1 2:0.75415871 3:0.70851391 4:0 
1 1:1 2:0.21960406 3:0.13782511 4:0.74079227 
1 1:0.43544055 2:0 3:1 4:0.77603541 
1 1:1 2:0.42397263 3:0.48233016 4:0.50469144 
1 1:0.37372494 2:0.15192508 3:0 4:1 
1 1:0 2:0.71332576 3:0.43347521 4:0.99455281 
1 1:0 2:0.92687067 3:0.76396958 4:0.76460473 
1 1:1 2:0 3:0.47238183 4:0.2568613 
-1 1:0 2:0.16900871 3:0.82594034 4:1 
-1 1:0 2:0.85769726 3:0.7555777 4:0.83162038 
1 1:0 2:0.50091405 3:1 4:0.56457879 
1 1:0.71548456 2:0.55672505 3:0.51817462 4:1 
-1 1:1 2:0.44034782 3:0.55552064 4:0 
1 1:1 2:0.70126734 3:0.51258966 4:0 
1 1:1 2:0.082769143 3:0.26175733 4:0.33043753 
1 1:0.62315061 2:0.7001973 3:0.94504262 4:0.70103827 
0.762164557215581 1:1 2:0 3:0.93169354 4:0.28582779 
1 1:1 2:0.19697008 3:0.287417 4:0.19270074 
-1 1:0.21153999 2:0 3:0.62733014 4:0.72052859 
-1 1:0 2:0.50845348 3:0.50981594 4:0.85034296 
1 1:0 2:0.65735706 3:0.92504943 4:0.88121749 
-1 1:0 2:0.70854143 3:0.64543159 4:0.93492156 
1 1:0 2:0.86726775 3:0.67733377 4:0.9382698 
-1 1:0 2:0.73064957 3:0.71495915 4:0.9459537 
1 1:0 2:0.54504143 3:0.84866302 4:1 
-1 1:0 2:0.94120613 3:0.68984152 4:0.98195077 
-1 1:0.47529914 2:0.28514577 3:0.72676244 4:0.46395858 
1 1:0 2:0.94037421 3:0.96840704 4:0.63968978 
1 1:1 2:0 3:0.087959707 4:0.057042154 
1 1:0.37544325 2:0 3:0.26111396 4:0.26374008 
-1 1:1 2:0.0084560507 3:0.39537514 4:0.26687747 
1 1:0.93350455 2:0.44668555 3:0.63370499 4:0.041858304 
1 1:0.75916533 2:0.99825081 3:0 4:0.40363147 
-1 1:0.71661848 2:0.95716652 3:0.58988945 4:0.47043325 
-1 1:1 2:0 3:0.081716319 4:0.39565985 
-1 1:1 2:0.44868626 3:0.23384697 4:0.33907323 
-1 1:1 2:0.069619474 3:0.36151305 4:0.40277882 
-1 1:1 2:0.4426353 3:0.26869667 4:0.024959008 
-1 1:0.75184621 2:0.90806911 3:1 4:0 
1 1:0 2:1 3:0.41737266 4:0.22767938 
-1 1:0 2:0.87658385 3:0.8867441 4:0.66399911 
1 1:0.21094243 2:0 3:0.43975527 4:0.96966381 
1 1:1 2:0.46758523 3:0.31993533 4:0.9132287 
1 1:0 2:1 3:0.90737213 4:0.80414991 
1 1:1 2:0.33015576 3:0.045778511 4:0.39262682 
1 1:0 2:0.93710525 3:0.80332432 4:0.89084061 
-1 1:0 2:0.94800185 3:0.90104961 4:0.87422498 
-1 1:0 2:0.23138047 3:1 4:0.086050109 
1 1:0.64991805 2:0.1800039 3:1 4:0.52916146 
1 1:0 2:1 3:0.57317475 4:0.38127296 
-1 1:0 2:0.87185575 3:1 4:0.46508041 
1 1:0.6194418 2:1 3:0.53961307 4:0.6460245 
1 1:0 2:0.930649 3:0.78991251 4:0.7928617 
1 1:0.33851714 2:0 3:1 4:0.83993281 
1 1:0 2:0.76796553 3:1 4:0.76480305 
1 1:0 2:0.96942723 3:0.93796365 4:0.86953247 
1 1:1 2:0.11826046 3:0.22056128 4:0.3016889 
-1 1:0 2:0.64396166 3:0.74233315 4:0.8784272 
-1 1:0 2:1 3:0.69450352 4:0.81021821 
1 1:0 2:0.7574171 3:0.79406895 4:0.68462283 
-1 1:0 2:0.8458563 3:0.12380692 4:0.99778989 
-1 1:0 2:0.88728489 3:0.93355151 4:0.80910108 
-1 1:0 2:0.78453926 3:0.99298149 4:0.77331628 
1 1:0 2:1 3:0.79450356 4:0.85539333 
-1 1:1 2:0.51860511 3:0.11280643 4:0.27923131 
-1 1:0 2:0.85047869 3:0.5562601 4:0.85246885 
1 1:0 2:0.86225609 3:1 4:0.65175181 
1 1:0 2:0.77991117 3:0.80202472 4:0.96125553 
-1 1:0.054601796 2:0 3:0.47288916 4:0.3062627 
1 1:0 2:0.80019688 3:0.55114947 4:0.81334619 
-1 1:0.15782321 2:0.48761066 3:0 4:0.97638723 
1 1:1 2:0.047729379 3:0.0079805058 4:0.077607896 
1 1:0 2:0.94771334 3:0.90054781 4:0.87456479 
-1 1:0 2:1 3:0.87844854 4:0.81605467 
1 1:0 2:0.76469231 3:0.7582623 4:0.96306981 
1 1:0 2:0.65398373 3:0.79335009 4:0.72565672 
1 1:0 2:0.67983868 3:0.69809225 4:1 
1 1:1 2:0.42533745 3:0.44182853 4:0.41572908 
1 1:0 2:0.94301635 3:1 4:0.93503714 
1 1:0 2:0.91315783 3:0.94242164 4:0.92853926 
1 1:1 2:0.2634964 3:0.20256002 4:0.24350763 
1 1:0.72882165 2:0.29444734 3:0.35253276 4:0.74350853 
-1 1:0.15062972 2:0 3:1 4:0.43126971 
-1 1:0 2:0.65939705 3:0.81181725 4:1 
-1 1:1 2:0.075270021 3:0.17252342 4:0.21291841 
1 1:0 2:0.73724946 3:0.69183274 4:0.21718173 
-1 1:0 2:0.84050408 3:0.87497783 4:0.85543204 
-1 1:0.49042883 2:0.45425473 3:0.46920397 4:0.62461641 
1 1:0 2:0.60034283 3:0.55432716 4:0.79043426 
1 1:0 2:0.97764877 3:0.93481775 4:0.88387453 
-1 1:1 2:0.31044542 3:0.57922047 4:0.50418906 
-1 1:0 2:0.96131508 3:1 4:0.88021583 
1 1:0 2:0.83929833 3:1 4:0.87632043 
-1 1:0 2:0.8514637 3:0.8201974 4:0.88117396 
-1 1:0 2:0.975211 3:0.98258745 4:0.88865533 
1 1:0 2:0.98454083 3:0.98172782 4:0.99081964 
1 1:0 2:0.77548546 3:0.78459711 4:0.96512553 
1 1:0.35739619 2:0.63479725 3:0.62682497 4:0.586523 
-1 1:1 2:0.4140928 3:0 4:0.24378445 
-1 1:0 2:0.7415019 3:1 4:0.70635353 
1 1:0 2:0.52125235 3:0.90234027 4:0.94066897 
1 1:0 2:0.88851574 3:1 4:0.83195387 
-1 1:0 2:0.89769505 3:0.89939131 4:0.71919622 
-1 1:0 2:0.99121647 3:0.9742208 4:0.90043673 
-1 1:0 2:0.92234004 3:0.67349166 4:0.85046769 
1 1:0 2:0.80353863 3:0.72142489 4:0.94595235 
1 1:1 2:0.39307301 3:0.36173495 4:0 
1 1:0 2:0.83808626 3:0.45680227 4:0.8806403 
1 1:0 2:0.77938996 3:0.9205554 4:0.96934431 
1 1:0.92999643 2:0.44168201 3:1 4:0.18685015 
-1 1:0.20984845 2:0 3:0.47011816 4:1 
1 1:0 2:0.82105158 3:0.72511231 4:0.91636998 
-1 1:0 2:0.95842755 3:0.83566925 4:0.89540816 
-1 1:1 2:0.19787427 3:0 4:0.16305072 
-1 1:1 2:0.30971768 3:0.22911704 4:0.45373445 
1 1:0 2:0.6680899 3:0.93757864 4:0.82492582 
1 1:0.83372371 2:1 3:0.4746208 4:0.69235387 
1 1:1 2:0.38023801 3:0.4595986 4:0.20493898 
1 1:0 2:0.96976626 3:0.94742716 4:0.9137013 
-1 1:0 2:0.24061601 3:0.78809208 4:0.89446749 
-1 1:1 2:0.17786105 3:0.29912588 4:0.27067829 
1 1:0.68518964 2:0.69137769 3:1 4:0.25383235 
1 1:0.14773536 2:0.89382875 3:0 4:1 
-1 1:0 2:1 3:0.78314643 4:0.59840809 
-1 1:0 2:0.9705168 3:0.90432105 4:0.90745329 
-1 1:0.54362048 2:1 3:0 4:0.42940774 
1 1:0.36908298 2:0.35896375 3:0.032648757 4:0.88889298 
1 1:1 2:0.48226721 3:0.81869561 4:0 
-1 1:1 2:0 3:0.21132192 4:0.085946786 
1 1:0 2:0.8181188 3:0.55912408 4:1 
-1 1:1 2:0.1408696 3:0.49645155 4:0.17765793 
1 1:0 2:0.60099175 3:0.77317457 4:1 
1 1:0 2:0.8553801 3:1 4:0.86257154 
-1 1:1 2:0.3555174 3:0.21983542 4:0.49136601 
1 1:0 2:0.74244633 3:0.77176646 4:0.88925864 
1 1:0.86044255 2:1 3:0.64101127 4:0.065926185 
1 1:1 2:0.75044859 3:0.53405311 4:0 
1 1:0.070597359 2:0.92388392 3:0.67759618 4:0.33433271 
-1 1:0.24561716 2:0.63747793 3:1 4:0 
1 1:0.7421885 2:0.67679012 3:1 4:0.34162417 
-1 1:0 2:0.37542709 3:0.5656218 4:0.88182783 
1 1:0.2124867 2:0.75118659 3:0 4:0.9351392 
1 1:0.66499391 2:1 3:0.98504478 4:0 
1 1:0 2:0.85575478 3:0.89349282 4:0.64223624 
-1 1:0.1886527 2:1 3:0.037236674 4:0.63088145 
-1 1:1 2:0.11150729 3:0.62605268 4:0.16321612 
1 1:0 2:0.95418793 3:1 4:0.90391617 
-1 1:0.42948622 2:0 3:0.98114867 4:0.85511282 
-1 1:0 2:0.72779716 3:0.90907921 4:0.84315877 
1 1:0 2:0.40872225 3:0.88055692 4:0.76370286 
1 1:1 2:0.80195674 3:0.003270201 4:0.33169449 
1 1:0.74637597 2:0.64442754 3:1 4:0.085494812 
1 1:0 2:0.88913873 3:1 4:0.79816286 
-1 1:0 2:0.90043315 3:0.81727795 4:0.94684019 
-1 1:1 2:0.63756733 3:0.4228855 4:0.33167121 
-1 1:0 2:0.80164747 3:1 4:0.74588953 
1 1:1 2:0.61322063 3:0.051052699 4:0.25573958 
1 1:0 2:0.89631145 3:0.93013497 4:0.87626911 
-1 1:1 2:0.53064947 3:0.69007586 4:0.30204782 
1 1:0 2:0.61904848 3:0.88048065 4:0.99437462 
-1 1:0 2:0.71297591 3:0.49417338 4:0.73618647 
1 1:0 2:0.8980008 3:0.86119517 4:0.87981678 
-1 1:1 2:0.28235512 3:0.41737902 4:0 
1 1:0.7832444 2:0.56024282 3:0.18717331 4:0.98969205 
1 1:0.25244226 2:0.71714135 3:0.40996056 4:0.76243283 
-1 1:0 2:0.98542599 3:0.98240555 4:0.8996078 
1 1:0 2:0.79139711 3:0.8652514 4:0.94894883 
-1 1:0.19660347 2:0 3:0.4713339 4:1 
1 1:0 2:0.86698013 3:1 4:0.67620679 
-1 1:0.50037061 2:0.64048025 3:0 4:0.9014456 
-1 1:0.018047083 2:0.53238514 3:0.02625096 4:0.95793619 
1 1:0.23305063 2:0 3:0.50315752 4:1 
1 1:1 2:0.42010839 3:0.3399112 4:0.9627715 
1 1:0.1123123 2:0.58017512 3:0.33247576 4:0.54085664 
1 1:0 2:1 3:0.86578941 4:0.85837481 
1 1:0.39445683 2:0 3:0.67030978 4:0.063932228 
1 1:1 2:0.32647156 3:0 4:0.34277418 
-1 1:0.81776204 2:0.50076484 3:0.9986878 4:0.64964989 
-1 1:0 2:0.97848481 3:0.66076942 4:0.6812665 
1 1:0 2:0.67661261 3:0.6976068 4:0.92993574 
1 1:0 2:0.82932495 3:0.99824613 4:0.92940114 
1 1:1 2:0.89319929 3:0 4:0.39069693 
-1 1:1 2:0 3:0.40099714 4:0.53701575 
-1 1:0 2:0.7816511 3:0.86532037 4:0.72450554 
-1 1:0.81157798 2:0.69418328 3:0 4:0.011084453 
-1 1:0.00688765 2:0.18307616 3:0.10986602 4:0 
-1 1:0 2:0.82730438 3:0.86408392 4:0.70993122 
-1 1:0 2:0.97959861 3:0.98396863 4:0.8924976 
1 1:0.58367861 2:0.43950572 3:1 4:0.38110273 
1 1:0.3074536 2:0 3:0.80883694 4:0.6556562 
-1 1:0 2:0.949619 3:0.97454699 4:0.74671823 
1 1:0 2:0.78348368 3:0.87512767 4:0.94894996 
-1 1:0 2:0.72858072 3:0.44586016 4:0.8983546 
1 1:0 2:0.40330878 3:0.70485075 4:0.26159938 
1 1:0 2:0.44805741 3:0.79600545 4:0.97342939 
1 1:0.25088499 2:0.86538925 3:0.40848182 4:0 
-1 1:0 2:1 3:0.95377516 4:0.74160336 
1 1:0 2:0.54979716 3:0.3997893 4:0.78860348 
1 1:1 2:0 3:0.70260111 4:0.26439639 
1 1:1 2:0.30616596 3:0.069626044 4:0.21299379 
-1 1:0 2:0.91657927 3:0.86968545 4:0.79809501 
1 1:1 2:0.34414682 3:0.26436163 4:0 
-1 1:0.43886499 2:0.11883387 3:1 4:0.51630113 
-1 1:0.085073525 2:0.89389494 3:0.47473355 4:0.41710076 
1 1:0.49371042 2:0.53783966 3:0.57644356 4:0.10047628 
-1 1:1 2:0.68014354 3:0.3368146 4:0 
1 1:0.37869766 2:0.85065596 3:0.28415931 4:0.62089249 
1 1:0.60406997 2:1 3:0.63165 4:0.11921487 
1 1:0 2:0.96208821 3:0.98214193 4:0.88761768 
1 1:1 2:0.2937576 3:0.55375453 4:0 
1 1:1 2:0.44178224 3:0.26012969 4:0.048704169 
1 1:1 2:0.50299681 3:0 4:0.48021789 
1 1:0 2:1 3:0.70956133 4:0.69756383 
1 1:1 2:0.29209981 3:0.39594031 4:0.28666754 
1 1:0 2:0.97551299 3:0.97817128 4:0.87619207 
-1 1:0 2:0.87824797 3:0.9264073 4:0.78549462 
-1 1:0 2:0.83932198 3:1 4:0.84344748 
1 1:1 2:0 3:0.53914552 4:0.31090297 
-1 1:0.35170423 2:0.31160115 3:0.19135846 4:0.82865395 
-1 1:1 2:0.17528165 3:0.093787166 4:0.24897875 
-1 1:0 2:0.241125 3:0.56474036 4:0.97261827 
-1 1:0.055008901 2:0.35518806 3:0.11231892 4:0.36030153 
1 1:0.99690866 2:0.90841876 3:0.66622365 4:0 
-1 1:1 2:0.34934216 3:0.2376941 4:0.56302472 
1 1:0 2:0.87250461 3:0.89597141 4:0.71392222 
-1 1:0.71096323 2:0.25157037 3:0.45527246 4:0.3353799 
1 1:0 2:0.96187972 3:0.84522052 4:0.88208969 
-1 1:0.868098 2:0.88997723 3:0 4:0.77534154 
1 1:0 2:0.96442419 3:0.66581745 4:0.81609839 
-1 1:0 2:0.83071852 3:0.9023099 4:0.73121164 
1 1:1 2:0 3:0.50983773 4:0.1399686 
1 1:0 2:0.95549032 3:0.93061751 4:0.91786688 
1 1:0 2:1 3:0.93627855 4:0.91346732 
-1 1:0 2:0.71085276 3:0.83773734 4:0.7436744 
-1 1:1 2:0.93691015 3:0 4:0.65053823 
1 1:0 2:0.9900389 3:0.57025326 4:0.90167082 
1 1:0 2:0.87243634 3:0.93183236 4:0.63365865 
1 1:0 2:0.98631833 3:0.98214026 4:0.88060939 
1 1:0 2:0.58008478 3:1 4:0.80116476 
-1 1:1 2:0 3:0.9252037 4:0.81298777 
1 1:0 2:0.78530028 3:0.40547355 4:0.84381479 
1 1:0 2:0.89223051 3:0.76478684 4:0.79062379 
-1 1:1 2:0.35670928 3:0.24966536 4:0.58437787 
1 1:0.54122007 2:0 3:0.24349008 4:0.56200231 
1 1:0 2:0.73398061 3:1 4:0.85008825 
-1 1:0 2:0.98723702 3:0.84948218 4:0.66044003 
-1 1:0 2:0.96457034 3:0.98387312 4:0.89615684 
1 1:0 2:0.73486401 3:0.57910371 4:0.84974313 
1 1:0 2:0.95261675 3:0.93134903 4:0.88913227 
1 1:1 2:0 3:0.29555935 4:0.3272968 
-1 1:0 2:0.92468985 3:0.84243834 4:0.81555126 
1 1:1 2:0.30189163 3:0.32066096 4:0.16934633 
-1 1:0.61771412 2:0.42642891 3:0.52842185 4:0.41345189 
-1 1:0 2:0.92458804 3:0.89797722 4:0.88215724 
1 1:0 2:0.26077026 3:1 4:0.45078967 
-1 1:0.87320801 2:1 3:0.16449871 4:0.2342381 
-1 1:0 2:0.59970198 3:0.037914583 4:1 
-1 1:0 2:0.93144597 3:0.97551035 4:0.74546324 
1 1:0 2:0.97728334 3:0.78024033 4:0.8392567 
-1 1:1 2:0 3:0.51948029 4:0.57900115 
1 1:0.48068811 2:0.23051781 3:1 4:0.066898949 
1 1:0 2:1 3:0.99511346 4:0.92999333 
1 1:0.77572595 2:0.67874007 3:0 4:0.11238694 
-1 1:0 2:1 3:0.4218234 4:0.54701105 
1 1:1 2:0 3:0.45429372 4:0.18017743 
-1 1:0 2:0.92014929 3:1 4:0.88640968 
1 1:1 2:0 3:0.91397468 4:0.60159237 
-1 1:0 2:0.95594315 3:0.90491984 4:0.89619541 
1 1:1 2:0 3:0.17582627 4:0.50607422 
-1 1:1 2:0.46677708 3:0 4:0.14878057 
1 1:0.2985769 2:0.66575337 3:0.64395613 4:0.5862292 
1 1:0.6851254 2:0 3:0.13364718 4:0.48904777 
-1 1:1 2:0.64583962 3:0.29300608 4:0 
-1 1:1 2:0.3585578 3:0.56882604 4:0.36203705 
-1 1:0 2:0.66732479 3:0.95899548 4:0.94724814 
1 1:0 2:0.97116394 3:0.80773741 4:0.6571904 
1 1:1 2:0.10340368 3:0.25679604 4:0.060628863 
-1 1:0.33973039 2:0.60297192 3:0 4:0.71269192 
1 1:0 2:0.84567089 3:0.99229269 4:0.98624018 
1 1:1 2:0.37924938 3:0 4:0.83369087 
1 1:0 2:0.69484792 3:0.58312477 4:0.82492268 
-1 1:0 2:0.76394804 3:0.80356817 4:0.64615045 
1 1:0 2:0.91529805 3:0.93746596 4:0.91683137 
1 1:1 2:0.84211449 3:0.40546942 4:0 
1 1:1 2:0.7004411 3:0.77608317 4:0.18816533 
-1 1:0 2:0.82809943 3:0.80843916 4:0.74784894 
1 1:0 2:0.69897809 3:0.86905149 4:0.80016194 
-1 1:0.3640986 2:0 3:0.97784416 4:0.46845523 
-1 1:1 2:0.55446392 3:0.20004818 4:0.26362884 
-1 1:0 2:0.58875862 3:1 4:0.92649921 
-1 1:0.31116232 2:0.80938805 3:0 4:0.93131373 
1 1:0.57414198 2:1 3:0.11900764 4:0.13624879 
1 1:0 2:0.93934191 3:0.51341255 4:0.9770828 
-1 1:0 2:0.82949501 3:1 4:0.73678786 
-1 1:0 2:0.9621519 3:0.98748312 4:0.89018927 
-1 1:1 2:0.4699425 3:0.005565001 4:0.001670507 
-1 1:0 2:0.98584687 3:0.98686959 4:0.89637443 
-1 1:0.50658187 2:0.44215284 3:0.75475664 4:0 
-1 1:0 2:0.95745954 3:0.90623655 4:0.89690081 
1 1:0 2:0.81349463 3:0.75002826 4:0.77388064 
1 1:0 2:0.81618287 3:1 4:0.69161096 
1 1:0 2:0.60120227 3:0.47275472 4:0.58240049 
-1 1:1 2:0.28769905 3:0.37458227 4:0.24056624 
-1 1:0 2:0.84893579 3:0.88512284 4:0.68928432 
1 1:0.94832439 2:0.51634987 3:0.46026756 4:1 
1 1:0.91600037 2:0.2159031 3:0 4:0.0033374456 
1 1:0 2:0.90507292 3:0.9000367 4:0.87006926 
1 1:0 2:0.98497621 3:0.98876835 4:0.89519528 
1 1:0 2:0.81769352 3:0.94057838 4:0.74216443 
1 1:1 2:0.53810001 3:0.80687891 4:0.15324698 
1 1:0 2:0.89692699 3:0.93855537 4:0.79970539 
1 1:0.48696886 2:0.95003751 3:0.42222591 4:0.27867741 
1 1:1 2:0.27636441 3:0 4:0.41346535 
-1 1:0.30021373 2:1 3:0.054576104 4:0 
-1 1:0 2:0.85160503 3:0.81996537 4:0.88130664 
-1 1:0 2:0.71211374 3:0.51357777 4:0.83707577 
1 1:0.22430141 2:0.78747189 3:0.7703225 4:0.81109732 
-1 1:0 2:0.86943278 3:0.90468292 4:1 
1 1:0 2:1 3:0.45636741 4:0.37838886 
-1 1:1 2:0.017929792 3:0.078076402 4:0.52707623 
-1 1:0 2:0.56425344 3:1 4:0.8522787 
1 1:0 2:0.87986451 3:0.97590799 4:0.80412323 
1 1:0 2:0.96744244 3:0.81125582 4:0.91119075 
1 1:0.72737424 2:0.57006673 3:0 4:0.79867574 
-1 1:1 2:0.61440737 3:0.73523587 4:0.10610041 
-1 1:0.20872593 2:0.61907259 3:0.4904283 4:0 
1 1:0 2:0.74740144 3:0.75363404 4:0.75622688 
-1 1:1 2:0.14456194 3:0.17438348 4:0.1687103 
1 1:0 2:0.55714274 3:0.3808671 4:0.77830478 
1 1:0 2:0.88967789 3:0.84488653 4:0.76222073 
1 1:0 2:0.8523771 3:0.88135603 4:0.69644127 
-1 1:0 2:0.9196537 3:0.83404585 4:0.87886121 
-1 1:0 2:0.97356573 3:0.8879951 4:0.87460247 
1 1:0 2:0.045497921 3:0.23411658 4:0.45732227 
-1 1:0 2:0.96920188 3:0.9856673 4:0.89813188 
-1 1:1 2:0.10634489 3:0.064773209 4:0 
-1 1:0.48646135 2:0.14453662 3:0.24574381 4:1 
1 1:0 2:0.81467514 3:0.97180746 4:0.33333555 
-1 1:0.35582521 2:0.30145253 3:1 4:0.36150538 
1 1:1 2:0.32998908 3:0.14790764 4:0.024101811 
-1 1:0 2:1 3:0.79308907 4:0.79978442 
-1 1:0.03141561 2:0 3:0.41170202 4:0.26916202 
-1 1:0.79839158 2:0.26608915 3:0.80810543 4:0 
1 1:0 2:0.87271902 3:0.93918853 4:0.75973324 
1 1:0.9947567 2:0.19893901 3:0.63340913 4:0.80137759 
1 1:0 2:0.96069341 3:0.77271915 4:0.95364586 
-1 1:0 2:0.95198609 3:0.89447232 4:0.6790504 
1 1:0 2:0.84432541 3:0.8978763 4:0.82305859 
1 1:0 2:0.82071973 3:1 4:0.80121965 
-1 1:1 2:0.23330401 3:0.24670513 4:0.020536831 
1 1:0.73074163 2:0.054509853 3:0.086314906 4:0 
-1 1:0 2:0.84622642 3:1 4:0.42897213 
1 1:0.51506573 2:0.31448264 3:0 4:0.90596286 
1 1:0 2:0.60960004 3:0.60278248 4:0.76099553 
1 1:0 2:0.95769676 3:0.97484383 4:0.89254899 
-1 1:1 2:0.46722345 3:0 4:0.22148941 
1 1:0 2:0.84591554 3:0.33904062 4:0.92257149 
-1 1:0 2:0.4981527 3:0.66721459 4:0.82540695 
1 1:0 2:1 3:0.85080103 4:0.81717143 
1 1:0 2:0.85758162 3:0.77866604 4:0.81370111 
-1 1:0 2:0.025602828 3:0.56758184 4:0.72711752 
-1 1:0 2:0.79054033 3:1 4:0.83886891 
-1 1:0 2:0.82735957 3:0.72627057 4:0.87687785 
1 1:0 2:0.949987 3:0.7352091 4:0.92802258 
-1 1:0.09797425 2:1 3:0 4:0.90236198 
-1 1:1 2:0.80411701 3:0.06405052 4:0.61948558 
-1 1:1 2:0.37936485 3:0.19585262 4:0.51951742 
1 1:0 2:0.82040366 3:0.8889408 4:0.94783532 
1 1:0 2:0.52101939 3:1 4:0.76946049 
-1 1:0 2:0.89485186 3:0.8225405 4:0.87430612 
1 1:0 2:0.90015616 3:0.93929056 4:0.90147526 
-1 1:1 2:0.5317782 3:0.5747844 4:0.57756412 
-1 1:0.78043016 2:0.66914238 3:0 4:1 
1 1:0 2:0.68957581 3:0.56080656 4:0.80497157 
-1 1:0 2:0.87277725 3:0.75490858 4:0.79869694 
1 1:0 2:0.79300428 3:0.96728253 4:0.84356977 
-1 1:0 2:0.84349569 3:0.82458514 4:0.78240666 
-1 1:0 2:1 3:0.92792074 4:0.87593005 
-1 1:0 2:0.97885457 3:0.98016372 4:0.87330015 
1 1:0 2:1 3:0.13633138 4:0.03115283 
1 1:0.29321497 2:0.90703405 3:0.37076635 4:0 
-1 1:0 2:0.89588003 3:0.94371618 4:0.97765189 
1 1:0 2:0.38626885 3:0.87693825 4:0.75588432 
1 1:0 2:0.97714862 3:0.97741606 4:0.88362531 
1 1:0 2:0.92354597 3:0.80184377 4:0.9326101 
1 1:0 2:0.8811358 3:0.8649371 4:0.8450191 
-1 1:0.91853622 2:0.044927878 3:0.071872347 4:0 
-1 1:0 2:1 3:0.76364654 4:0.81890078 
-1 1:1 2:0.2913396 3:0.2286878 4:0.38116106 
-0.7918419962551451 1:0.17034361 2:0.50309212 3:0 4:0.78338507 
1 1:1 2:0.37565057 3:0.14187117 4:0.30363566 
1 1:0 2:0.59382568 3:0.91076099 4:0.93811176 
-1 1:1 2:0 3:0.27814459 4:0.59827981 
-1 1:0 2:0.86209047 3:0.11921741 4:1 
1 1:0 2:0.47642347 3:0.64246054 4:0.83631713 
1 1:0 2:1 3:0.83724178 4:0.65735413 
-1 1:1 2:0.94121589 3:0 4:0.65368506 
-1 1:0 2:0.80809203 3:1 4:0.84758021 
-1 1:0.52711958 2:0 3:0.79369585 4:0.86956604 
-1 1:0 2:0.97269072 3:0.97983402 4:0.89204222 
-1 1:0.42562099 2:0.74685916 3:0.35000458 4:0 
-1 1:0 2:1 3:0.76460513 4:0.81948914 
-1 1:1 2:0.13710413 3:0.15798856 4:0.28474007 
1 1:0 2:0.84997958 3:0.68334776 4:0.96508984 
1 1:0 2:0.75401999 3:0.97569227 4:0.928063 
-1 1:0 2:0.76892797 3:0.29594959 4:0.90227176 
1 1:1 2:0.25724877 3:0.48593813 4:0.49187025 
1 1:1 2:0.68032733 3:0.060284182 4:0 
1 1:0.76131792 2:0 3:0.61410997 4:1 
1 1:0 2:0.97518589 3:0.93062011 4:0.94046568 
1 1:0 2:0.71913114 3:0.82178692 4:0.17037147 
1 1:1 2:0.10200347 3:0.24756904 4:0.2770759 
1 1:0 2:0.96275391 3:0.9214157 4:0.92052978 
1 1:0 2:0.86550605 3:1 4:0.85916964 
-1 1:0 2:0.78376223 3:0.49928459 4:0.95869463 
1 1:0 2:0.77297108 3:0.85145674 4:0.94471918 
1 1:0 2:0.68807968 3:0.18117084 4:0.88920748 
-1 1:0.89037955 2:1 3:0.32268961 4:0.42521284 
1 1:0.57106558 2:0.33217494 3:0.3198854 4:1 
-1 1:0.013974481 2:0.91379265 3:0.16608193 4:1 
1 1:0 2:1 3:0.65412263 4:0.82271909 
1 1:1 2:0.35309139 3:0 4:0.10713149 
-1 1:0 2:0.96251108 3:0.98816832 4:0.89085107 
1 1:1 2:0.32686796 3:0.26762681 4:0.38718317 
-1 1:0 2:0.98185818 3:0.9554551 4:0.90606243 
1 1:0 2:1 3:0.77976149 4:0.90419812 
-1 1:1 2:0.86661517 3:0.50705412 4:0.10258107 
1 1:0 2:0.98724501 3:0.99182623 4:0.89685203 
-1 1:1 2:0 3:0.54326797 4:0.57781125 
1 1:1 2:0.53431983 3:0 4:0.73406025 
1 1:0 2:0.9414029 3:0.945645 4:0.90885547 
1 1:0 2:0.92316538 3:1 4:0.705267 
-1 1:0.10349475 2:0.52512168 3:0.80907855 4:0 
1 1:0.045928537 2:0 3:1 4:0.69525086 
1 1:0 2:0.87377326 3:0.97972915 4:0.8902786 
-1 1:0 2:0.89666153 3:0.94837999 4:0.81290534 
1 1:1 2:0 3:0.98766443 4:0.75562714 
1 1:0 2:0.9280336 3:1 4:0.88757972 
-1 1:1 2:0.2292516 3:0.25334447 4:0.47364917 
1 1:0 2:0.84528302 3:0.64875998 4:0.86344637 
-1 1:0.82057505 2:1 3:0 4:0.10880487 
1 1:1 2:0.30069373 3:0.4766139 4:0 
1 1:0 2:0.80444912 3:0.90332691 4:0.54149866 
1 1:0 2:0.85426985 3:0.69185672 4:0.96214873 
-1 1:0 2:0.8468957 3:0.8357605 4:0.80605315 
-1 1:1 2:0.27249855 3:0.30175364 4:0.27601811 
1 1:0.6026016 2:1 3:0.88221696 4:0 
-1 1:0.022761187 2:1 3:0.10178238 4:0.61857725 
-1 1:0 2:0.80647332 3:0.87821836 4:0.85798553 
-1 1:1 2:0.33592611 3:0.25902511 4:0 
1 1:0 2:0.85947205 3:0.66594848 4:0.73087904 
-1 1:0 2:0.98450249 3:0.98831913 4:0.89579717 
1 1:0 2:0.89936089 3:0.83470167 4:0.92350928 
1 1:0 2:0.9263726 3:0.97120766 4:0.91193942 
1 1:1 2:0 3:0.33207759 4:0.052809041 
1 1:0 2:0.93105756 3:0.98978593 4:0.88471282 
-1 1:0.82141823 2:0.34736494 3:0.93101327 4:0.61252827 
-1 1:0.24721001 2:0.4874695 3:0.43490077 4:0.077424871 
1 1:1 2:0 3:0.1211123 4:0.39986009 
-1 1:1 2:0.54659636 3:0.73608447 4:0.30663516 
1 1:0 2:0.94461578 3:0.83546365 4:0.95015799 
-1 1:0 2:0.78741918 3:0.9729533 4:0.79991747 
-1 1:0 2:0.89663045 3:0.95598807 4:0.88307947 
-1 1:0 2:0.98243671 3:0.68806085 4:0.66142177 
-1 1:0.84694892 2:0.058431959 3:1 4:0.21235921 
-1 1:0.82529032 2:0.43125294 3:1 4:0.77605331 
-1 1:0.96418264 2:0 3:0.52719649 4:0.65155739 
-1 1:0 2:0.6349514 3:1 4:0.72543389 
1 1:1 2:0.74364308 3:0.064795359 4:0.17920801 
-1 1:0.90098016 2:0 3:0.92657853 4:0.97612619 
1 1:0 2:0.73892705 3:1 4:0.81681057 
1 1:1 2:0.77914834 3:0.031729408 4:0.25064205 
-1 1:0 2:0.98718365 3:1 4:0.85728722 
1 1:0 2:0.12838987 3:0.10482588 4:0.0057242326 
1 1:1 2:0.36687638 3:0 4:0.046101524 
1 1:0 2:0.89742062 3:0.83388932 4:0.87818299 
-1 1:1 2:0.76585872 3:0.49369725 4:0 
1 1:0 2:1 3:0.89405535 4:0.89784368 
1 1:1 2:0.97566135 3:0.50625888 4:0.38679813 
-1 1:1 2:0.65394864 3:0.28429483 4:0 
-1 1:0 2:0.8896883 3:0.96674515 4:0.010555443 
-1 1:0.73498704 2:0.27250529 3:0.016221113 4:0.82399168 
1 1:0.68632418 2:0.50596746 3:0.51699256 4:0.6921579 
-1 1:1 2:0.28313277 3:0.43903878 4:0.21987165 
1 1:0.85481229 2:0.37893481 3:0.24804766 4:1 
-1 1:1 2:0.65555165 3:0.22362927 4:0.19712582 
-1 1:0 2:0.96507488 3:1 4:0.73282671 
1 1:0 2:0.93910612 3:0.96628443 4:0.90929947 
1 1:1 2:0 3:0.087349333 4:0.4130052 
1 1:0 2:0.61284557 3:0.94901105 4:0.91291642 
-1 1:0.65644139 2:0.54559907 3:1 4:0.1178779 
1 1:1 2:0 3:0.37664939 4:0.39668648 
1 1:0.87059444 2:0 3:1 4:0.99973818 
-1 1:0.9529593 2:0.59138389 3:0.16172941 4:0 
-1 1:1 2:0.065523199 3:0.28824875 4:0.58626661 
-1 1:0.031732623 2:0.25836502 3:0 4:1 
-1 1:0.54196813 2:1 3:0.67089832 4:0.093796074 
-1 1:0 2:0.92741004 3:0.77502189 4:0.33228357 
-1 1:1 2:0.40539285 3:0.51188816 4:0.3555709 
-1 1:0 2:1 3:0.91028811 4:0.81244254 
-1 1:0.11271507 2:0.54987522 3:0.33935482 4:0 
1 1:0 2:0.77075234 3:0.85193884 4:0.94509189 
-1 1:1 2:0.049093912 3:0.31313387 4:0.2950335 
-1 1:0 2:0.19747402 3:0.4782749 4:0.86232436 
-1 1:1 2:0.67624141 3:0.1851837 4:0 
-1 1:0 2:1 3:0.50054781 4:0.42533085 
1 1:1 2:0.73681072 3:0.093820168 4:0.47994244 
-1 1:0 2:0.89035832 3:0.90466348 4:0.79463778 
-1 1:0 2:0.92164038 3:0.79657167 4:0.85410281 
1 1:0 2:1 3:0.95301014 4:0.89974801 
-1 1:1 2:0.57211521 3:0.58262048 4:0.33378869 
-1 1:0 2:0.94119976 3:0.97493536 4:0.89442734 
-1 1:0 2:0.92642905 3:0.84478168 4:0.60670219 
1 1:0.72190777 2:0.80875827 3:1 4:0.51733888 
-1 1:0 2:0.9128075 3:0.88613589 4:0.88750039 
1 1:0 2:0.68837571 3:0.46254452 4:0.98694852 
1 1:0 2:1 3:0.75411207 4:0.66108162 
1 1:0.73497053 2:0.50519229 3:1 4:0.2918054 
1 1:0 2:0.90532273 3:0.96219055 4:0.850375 
1 1:0.82436131 2:0.50166126 3:0.52176984 4:0.77669551 
-1 1:1 2:0.2073988 3:0.23615441 4:0.26139467 
1 1:0 2:1 3:0.61821531 4:0.77915945 
-1 1:0.40875376 2:0.69128616 3:0.26971879 4:1 
1 1:1 2:0 3:0.33152707 4:0.074521017 
-1 1:0 2:0.96536289 3:0.98831697 4:0.89035091 
-1 1:0 2:0.93216517 3:0.98150289 4:0.83380363 
-1 1:0 2:0.62273357 3:1 4:0.74710214 
-1 1:0 2:0.75418803 3:0.75799114 4:0.74400754 
1 1:1 2:0.53201559 3:0.74018873 4:0.69412883 
1 1:1 2:0.03067905 3:0.33335161 4:0 
1 1:0.64424081 2:1 3:0.19225176 4:0.15714243 
-1 1:0 2:0.92387288 3:0.89705463 4:0.88181895 
1 1:0 2:0.60177248 3:0.85483528 4:1 
-1 1:0 2:0.98242147 3:0.84014484 4:0.85678306 
1 1:1 2:0.34034044 3:0.077100951 4:0.1681009 
-1 1:0 2:0.97436262 3:0.91808229 4:0.85842352 
1 1:1 2:0.32712858 3:0.039885283 4:0.22040326 
1 1:0.29161551 2:0.64862917 3:1 4:0.25319267 
1 1:0.35060468 2:0.5119826 3:0.50663958 4:0 
1 1:0 2:0.6944087 3:0.62296991 4:1 
1 1:0 2:0.9973539 3:0.91010452 4:0.76326012 
-1 1:1 2:0.035237828 3:0.19537096 4:0.23107537 
1 1:0 2:0.80444912 3:0.90332691 4:0.54149866 
1 1:0.97551678 2:0.33890294 3:1 4:0.13600412 
-1 1:0 2:0.99057553 3:0.96750187 4:0.7824782 
1 1:0 2:0.84436579 3:1 4:0.8431264 
-1 1:0 2:0.7054047 3:0.64179732 4:0.93237319 
1 1:1 2:0.4041494 3:0.03787161 4:0.43249199 
-1 1:0.71207084 2:0 3:0.96916024 4:1 
1 1:0 2:0.72790216 3:0.96465283 4:0.77596409 
1 1:0 2:0.96712835 3:0.97098735 4:0.88786974 
-1 1:0 2:0.48181385 3:0.91858444 4:0.89701174 
1 1:0 2:1 3:0.33541861 4:0.53391568 
-1 1:0 2:0.90818 3:1 4:0.88185301 
1 1:0.39169308 2:0 3:1 4:0.79437412 
-1 1:0.89467968 2:0.54869985 3:0 4:1 
-1 1:0.20335199 2:0.64120397 3:0 4:0.35394424 
-1 1:0.59894434 2:1 3:0.29696522 4:0.27199526 
1 1:0 2:0.85485724 3:1 4:0.64661542 
-1 1:0.51433595 2:1 3:0.24884014 4:0 
-1 1:0.86643206 2:0.84432206 3:0 4:0.50818208 
1 1:0 2:0.73416886 3:0.74112783 4:0.95931442 
1 1:0 2:0.76507352 3:1 4:0.73261601 
1 1:0 2:0.99981884 3:0.96634432 4:0.88548112 
1 1:0 2:0.96521987 3:1 4:0.94869118 
-1 1:1 2:0.31044865 3:0.31159184 4:0.15907088 
-1 1:1 2:0.48225968 3:0 4:0.3249528 
1 1:1 2:0 3:0.37161244 4:0.38819309 
-1 1:0 2:0.85395134 3:0.91693299 4:0.68026687 
-1 1:1 2:0.099564951 3:0.26793338 4:0.04631844 
-1 1:1 2:0.36335848 3:0.37231294 4:0 
-1 1:1 2:0.83857971 3:0.54773763 4:0 
1 1:0.72815935 2:0.038653223 3:0.1088623 4:0 
1 1:0 2:0.78499172 3:0.84035732 4:0.73113442 
1 1:0 2:0.58241684 3:0.95419846 4:0.72047258 
1 1:1 2:0.4959852 3:0 4:0.29059103 
-1 1:0 2:0.75815663 3:1 4:0.67639723 
1 1:0 2:0.94484388 3:0.8567588 4:0.88101066 
-1 1:0.19556773 2:1 3:0.92923064 4:0.27807781 
1 1:0.13725248 2:0.55749039 3:0 4:1 
-1 1:0 2:0.27123609 3:0.31585994 4:0.76148768 
1 1:0 2:0.8493175 3:0.65494046 4:0.86765608 
-1 1:0 2:0.96731924 3:0.9735417 4:0.88532783 
-1 1:0 2:0.55450043 3:0.6439193 4:1 
1 1:0 2:0.48712023 3:1 4:0.30684783 
-1 1:1 2:0.58462101 3:0.55493338 4:0.59187932 
-1 1:0 2:1 3:0.92614802 4:0.72685471 
-1 1:0.54923566 2:0.3756076 3:0.59122989 4:0.97537802 
1 1:0 2:0.7676276 3:0.84401555 4:0.71535084 
-1 1:1 2:0.0032981411 3:0.50868475 4:0.4589711 
1 1:0 2:0.83905993 3:0.92237301 4:0.69291053 
-1 1:0.15368645 2:0.44321281 3:0.30063138 4:0.21215257 
-1 1:0 2:1 3:0.95047951 4:0.73333862 
1 1:0 2:0.7955758 3:0.85907933 4:0.80551988 
1 1:0 2:0.97966209 3:1 4:0.7180661 
1 1:1 2:0.039437691 3:0.36704272 4:0.243563 
1 1:0.94362088 2:0 3:0.83128108 4:0.99792619 
1 1:0.024862596 2:0.53004232 3:0 4:0.97157273 
1 1:1 2:0.32529302 3:0.36458123 4:0.47020694 
1 1:1 2:0.19216902 3:0.61347624 4:0 
1 1:0.86044255 2:1 3:0.64101127 4:0.065926185 
-1 1:0 2:0.75556168 3:0.9834229 4:0.80835 
-1 1:0 2:0.6566324 3:0.6199773 4:0.9285494 
-1 1:0 2:0.83987591 3:1 4:0.8876456 
1 1:1 2:0.72114443 3:0.00086452431 4:0.25854973 
-1 1:0 2:0.96836636 3:0.81379025 4:0.91119966 
-1 1:0 2:0.76962942 3:1 4:0.7579807 
-1 1:1 2:0 3:0.64146407 4:0.19836591 
-1 1:1 2:0.028959267 3:0.11693332 4:0.073966503 
-1 1:0 2:1 3:0.18244293 4:0.44993574 
1 1:0 2:0.95616525 3:0.71252239 4:0.64368807 
-1 1:0 2:0.81550442 3:0.75775061 4:0.68734989 
1 1:0 2:0.5706851 3:0.73590347 4:1 
-1 1:0 2:0.4918298 3:0.74029548 4:0.85545799 
1 1:0 2:1 3:0.71532984 4:0.70478086 
1 1:1 2:0.21331105 3:0.8500285 4:0.099249146 
-1 1:0.73708335 2:0.35414346 3:0 4:0.26061505 
-1 1:0.98305949 2:0.051043324 3:0.97026869 4:0 
1 1:0 2:0.8562056 3:0.5477881 4:1 
-1 1:1 2:0.69693985 3:0.53269311 4:0 
1 1:0.03367459 2:0.49667024 3:1 4:0.61625217 
-1 1:0 2:0.66971868 3:1 4:0.53026275 
-1 1:0 2:0.8431203 3:0.57777861 4:1 
1 1:0 2:0.87641152 3:1 4:0.86161004 
1 1:0 2:0.93272316 3:0.83747193 4:0.9091615 
1 1:0 2:0.51007898 3:0.90848698 4:1 
-1 1:1 2:0.10999942 3:0.50575945 4:0.16055323 
-1 1:1 2:0.5173804 3:0.39821288 4:0.61808431 
-1 1:0 2:0.20637432 3:0.53657901 4:0.97348985 
1 1:0 2:0.82071973 3:1 4:0.80121965 
1 1:1 2:0 3:0.5778315 4:0.37820123 
1 1:0.60166272 2:0.46880095 3:0.085393809 4:0.51510698 
-1 1:1 2:0.41719494 3:0.66302917 4:0.51706101 
-1 1:0.22250947 2:0 3:0.50052144 4:1 
-1 1:0.58649466 2:0.45417466 3:0.49592911 4:0.44805429 
1 1:0 2:0.93817814 3:0.99155385 4:0.89953099 
-1 1:1 2:0.094056113 3:0.3133655 4:0.16786621 
1 1:0 2:0.86674838 3:0.69211316 4:0.87679847 
-1 1:1 2:0.1877602 3:0.09105949 4:0.54124288 
-1 1:1 2:0.24095224 3:0.062315833 4:0.19080432 
-1 1:0 2:1 3:0.89284134 4:0.14599536 
-1 1:1 2:0.20414894 3:0.56558018 4:0.41903508 
1 1:1 2:0.10562006 3:0.24225953 4:0.53127984 
1 1:0 2:0.92922223 3:0.80844545 4:0.90016957 
-1 1:0.56501798 2:0.83817335 3:0.6925996 4:0.44670299 
1 1:0 2:0.82357769 3:0.57596467 4:1 
1 1:0 2:0.8683348 3:0.73373337 4:0.89340718 
-1 1:0.85272679 2:0.69234392 3:0 4:0.59491444 
-1 1:0.95847356 2:0 3:0.72026638 4:0.82424119 
-1 1:0 2:0.89798326 3:1 4:0.79124861 
-1 1:1 2:0.32165095 3:0.59440687 4:0.51093751 
1 1:0 2:0.80987876 3:0.77754861 4:0.8089449 
-1 1:0 2:0.89424965 3:0.11737791 4:1 
-1 1:1 2:0.14643699 3:0.51032099 4:0.1380987 
-1 1:0 2:1 3:0.61693803 4:0.77728653 
-1 1:0 2:0.87032561 3:0.90352637 4:0.77672319 
-1 1:0.62948498 2:0.42856773 3:0.70596065 4:0.86006081 
1 1:0.71469087 2:0.99920083 3:0.13320611 4:0.32030018 
-1 1:0 2:0.98525737 3:0.9802924 4:0.93183287 
1 1:0 2:0.87256729 3:1 4:0.80822788 
1 1:1 2:0.60973218 3:0.0104652 4:0.43464325 
-1 1:0 2:0.97929088 3:0.9780293 4:0.87568488 
1 1:0 2:0.85635746 3:1 4:0.65109715 
-1 1:0.86585176 2:0.61906044 3:0 4:0.82278133 
-1 1:1 2:0.18828399 3:0.070580189 4:0.14587188 
-1 1:1 2:0.18450873 3:0.064099257 4:0.2311663 
1 1:0 2:0.97326678 3:0.9816805 4:0.89525425 
-1 1:0.11211991 2:1 3:0.064072531 4:0.65019138 
1 1:0 2:0.50582234 3:1 4:0.64900998 
1 1:0.54401277 2:0.700174 3:0.69556938 4:0.39271019 
1 1:0.82523743 2:0.72720824 3:0.58227172 4:0.2152674 
-1 1:0.53819821 2:0.25465247 3:0.20554122 4:1 
-1 1:0.54636251 2:0.97560649 3:0.80838482 4:1 
-1 1:1 2:0.35109423 3:0.35089693 4:0 
1 1:0.34741205 2:0.85555687 3:1 4:0.17882839 
-1 1:1 2:0.70116591 3:0.23797683 4:0.28370099 
1 1:1 2:0.14113588 3:0.095216279 4:0.54527551 
1 1:0 2:0.82782662 3:1 4:0.7548609 
-1 1:1 2:0.54626695 3:0 4:0.87372054 
1 1:0 2:0.88736399 3:0.71091193 4:0.71000473 
-1 1:0 2:0.72309822 3:0.95970411 4:0.78226775 
-1 1:0 2:0.78159085 3:1 4:0.72870706 
1 1:0.067825605 2:0 3:0.74571682 4:0.44992841 
1 1:0 2:0.86065165 3:0.92682619 4:0.91005243 
-1 1:1 2:0.36068239 3:0.28219842 4:0.54191884 
-1 1:0 2:0.89910233 3:0.94492264 4:0.62756359 
1 1:0.57514064 2:0.18471451 3:1 4:0.47160195 
-1 1:0 2:0.63759823 3:0.92860474 4:0.76495733 
-1 1:0 2:1 3:0.33150957 4:0.62595439 
-1 1:0 2:0.90787671 3:0.8475128 4:0.76970579 
1 1:0 2:0.92553944 3:0.90081576 4:0.86407142 
-1 1:0 2:0.90829315 3:0.83407911 4:0.90767126 
1 1:0 2:0.035526288 3:0.1910556 4:0.38761862 
1 1:0.42274427 2:0.69154206 3:0.99530761 4:0 
-1 1:0.3888113 2:1 3:0.081025911 4:0.35086567 
-1 1:1 2:0.55087214 3:0.6506365 4:0.25742648 
1 1:0 2:0.50662728 3:0.39839309 4:0.81875828 
1 1:0 2:0.55556179 3:0.43053101 4:0.74880864 
1 1:1 2:0 3:0.51190668 4:0.56546473 
1 1:0 2:0.57610943 3:0.49022494 4:0.91246581 
1 1:1 2:0.35619016 3:0.31603526 4:0.41330442 
-1 1:0 2:0.96951994 3:0.94505714 4:0.87759605 
-1 1:0 2:0.54212533 3:0.94077926 4:0.91015206 
1 1:0 2:0.78652764 3:0.71864913 4:1 
-1 1:0 2:0.967478 3:0.9574065 4:0.89968434 
-1 1:0 2:0.61036843 3:0.90078167 4:0.77905682 
-1 1:0 2:0.36085574 3:1 4:0.63008099 
-1 1:0 2:0.9818651 3:0.87593208 4:0.86417134 
1 1:0.91995055 2:0 3:0.75735559 4:0.86991907 
-1 1:1 2:0.29085192 3:0.5226981 4:0.41915317 
-1 1:1 2:0.7637941 3:0.7105653 4:0.44216485 
-1 1:0.55182075 2:0.44151223 3:0.88676891 4:0 
1 1:0 2:0.79865085 3:0.45787114 4:0.82237004 
-1 1:0.16007074 2:0 3:0.91883798 4:0.68997665 
-1 1:0 2:0.90239118 3:0.8741681 4:0.789282 
1 1:0 2:0.80413936 3:0.98355911 4:0.89858885 
1 1:0 2:0.79946058 3:0.86546796 4:0.63145128 
-1 1:1 2:0.48521625 3:0.66904401 4:0 
-1 1:1 2:0.4404427 3:0.69010082 4:0.33274076 
-1 1:1 2:0.16085508 3:0.47031215 4:0 
-1 1:0.46738359 2:0.72750145 3:0.53506822 4:0 
-1 1:1 2:0.40765462 3:0.549367 4:0 
-1 1:1 2:0.47178166 3:0.31607654 4:0 
-1 1:0.97582368 2:0 3:0.51760711 4:0.66447308 
1 1:0.061591902 2:0.88294347 3:0.52489122 4:0.13237274 
1 1:0 2:0.95062374 3:0.77120752 4:0.89569468 
1 1:1 2:0.69923589 3:0.42915898 4:0 
1 1:0.83614035 2:1 3:0.034037706 4:0.13516577 
-1 1:1 2:0.46518373 3:0.27981463 4:0.32281893 
1 1:0 2:0.92893749 3:0.8472997 4:0.76985586 
1 1:1 2:0.22555025 3:0.20622013 4:0.27336715 
1 1:0 2:0.46610372 3:0.50106703 4:0.87735749 
1 1:0.65446191 2:1 3:0.60946782 4:0 
1 1:1 2:0 3:0.71817254 4:0.81551035 
1 1:1 2:0.14284648 3:0.49430303 4:0.2878842 
1 1:0.99072674 2:0.042544203 3:0.72398922 4:0.61380481 
-1 1:0.62715716 2:0.43389311 3:0.53404801 4:0.41847107 
-1 1:0 2:0.76156157 3:0.92497679 4:0.80306011 
1 1:0 2:0.95635994 3:0.91690987 4:0.88001492 
-1 1:0 2:0.90099382 3:0.26429627 4:0.33696262 
1 1:1 2:0.35371788 3:0.56170712 4:0.43765442 
-1 1:0 2:0.81158429 3:1 4:0.43812498 
-1 1:1 2:0.50499956 3:0.70292903 4:0.28609931 
-1 1:0 2:0.25113864 3:0.82379918 4:0.78124683 
1 1:0 2:0.87987763 3:0.718955 4:0.92916917 
-1 1:0 2:0.75627595 3:0.9836568 4:0.80847345 
1 1:1 2:0.73804266 3:0 4:0.15315918 
-1 1:1 2:0.32837347 3:0.053317642 4:0.02745323 
1 1:0 2:0.35403617 3:1 4:0.4262903 
1 1:0.85200915 2:0 3:0.14555315 4:0.63218906 
1 1:1 2:0.39482208 3:0.34620645 4:0.57173248 
1 1:0 2:0.76009626 3:0.78024909 4:0.68023478 
1 1:0 2:1 3:0.72384252 4:0.75874053 
1 1:1 2:0.18751203 3:0.30039015 4:0.60761846 
-1 1:0.60562582 2:1 3:0.0081958638 4:0 
1 1:0 2:0.91479165 3:0.80860579 4:0.91197309 
1 1:0 2:0.89071329 3:0.86422127 4:0.80195184 
-1 1:0 2:0.93981005 3:0.88014008 4:0.8084946 
1 1:0 2:0.93921938 3:0.8179699 4:0.72602905 
-1 1:1 2:0.011049282 3:0.13706614 4:0.063550651 
-1 1:0 2:1 3:0.72961931 4:0.90617636 
-1 1:1 2:0 3:0.42824269 4:0.46437744 
1 1:0 2:0.79576246 3:0.75561868 4:0.68080229 
-1 1:0 2:0.68214608 3:0.57774089 4:0.7752998 
1 1:0 2:1 3:0.66444808 4:0.80887308 
-1 1:0 2:0.67051343 3:1 4:0.82249374 
1 1:0 2:0.93638799 3:0.93963286 4:0.86901565 
-1 1:0 2:1 3:0.47569057 4:0.42982311 
-1 1:0.18634971 2:0.2300569 3:0.42002385 4:0 
1 1:0 2:0.93013367 3:1 4:0.69120833 
1 1:1 2:0.46806588 3:0.44447051 4:0 
-1 1:0 2:0.73688405 3:0.89780664 4:0.87257978 
-1 1:0 2:0.96324313 3:0.9838822 4:0.89781757 
1 1:1 2:0.88214727 3:0.6046338 4:0 
1 1:0 2:0.91537263 3:0.97804148 4:0.91987982 
-1 1:0 2:0.86932151 3:0.86932609 4:0.72632178 
-1 1:0 2:0.88022538 3:0.80162011 4:0.63863016 
-1 1:1 2:0.439792 3:0.71963006 4:0.33436795 
-1 1:0 2:0.93274104 3:0.98176068 4:0.83411821 
-1 1:0.56630542 2:1 3:0 4:0.63027235 
-1 1:0.88730283 2:1 3:0.25284709 4:0 
1 1:1 2:0 3:0.52311636 4:0.12596122 
-1 1:0 2:0.75801052 3:0.54567989 4:0.89023616 
-1 1:0 2:0.93176418 3:0.78330146 4:0.87707582 
1 1:0.25480713 2:0.60716854 3:0.52209001 4:0 
1 1:0.79155481 2:0.73687565 3:0 4:0.79035092 
-1 1:1 2:0.34412182 3:0.52747016 4:0.37075081 
1 1:0.86726221 2:0 3:0.91406629 4:0.34272501 
-1 1:0 2:0.78029167 3:0.74703038 4:0.61320178 
1 1:0 2:1 3:0.85506777 4:0.75501356 
-1 1:0 2:0.58227399 3:0.53263797 4:0.96926377 
1 1:0.83242084 2:0 3:0.85681136 4:0.76749828 
1 1:0 2:0.94274026 3:0.96538053 4:0.78862483 
1 1:0 2:0.45128765 3:0.58210465 4:1 
-1 1:0.048568441 2:0 3:0.9676767 4:0.43880569 
1 1:0 2:0.98099426 3:0.94731447 4:0.84765611 
1 1:0.51949146 2:0.5587804 3:0.51926455 4:1 
-1 1:0 2:0.36227941 3:0.16785037 4:0.79870763 
-1 1:0 2:0.98360469 3:0.98010661 4:0.87796953 
-1 1:1 2:0.36082912 3:0.31882922 4:0.24829904 
-1 1:0 2:0.77457895 3:0.84485924 4:0.76244788 
-1 1:1 2:0.66092134 3:0.24111488 4:0 
-1 1:0 2:0.5712088 3:0.41172149 4:0.77200264 
-1 1:0.87519598 2:1 3:0.29564719 4:0 
1 1:0.60344291 2:0.85855418 3:0.11773756 4:0.27627005 
1 1:0.88000618 2:1 3:0 4:0.67636873 
-1 1:0 2:0.98316541 3:0.98808716 4:0.89474952 
-1 1:0 2:1 3:0.94371589 4:0.81753905 
-1 1:0.055754633 2:1 3:0 4:0.40946812 
-1 1:1 2:0 3:0.38300804 4:0.14413196 
