svm_type epsilon_svr
kernel_type rbf
gamma 8
nr_class 2
total_sv 200
rho -2.86455
SV
0.08852721160263861 1:0.22724596 2:1 3:0.18092043 4:0 5:0.82795302 
-0.3963520988678275 1:0 2:1 3:0.69974225 4:0.380862 5:0.31981134 
-24.76281770911235 1:0.54042007 2:1 3:0.41175342 4:0 5:0.96966044 
-50.94385220514369 1:0.098323705 2:1 3:0 4:0.95129963 5:0.51278313 
-6.296624219892679 1:0 2:0.41254632 3:1 4:0.58523687 5:0.61054459 
-88.18037424851639 1:0 2:1 3:0.75288122 4:0.50043633 5:0.37510605 
1.585339768751776 1:0 2:0.36496799 3:0.72859473 4:1 5:0.972789 
0.1272064494534265 1:0.025105837 2:0 3:1 4:0.64835948 5:0.73484032 
-2.063265037827887 1:0.45094065 2:1 3:0.41328645 4:0 5:0.86340517 
1.830960367032676 1:0.014973428 2:0.66580227 3:0 4:1 5:0.54527081 
0.7457677953658089 1:0.062819494 2:0.72033307 3:0 4:1 5:0.51551875 
1.349844936399537 1:0.56084187 2:0 3:1 4:0.41875571 5:0.73493066 
-0.04246227751820308 1:0.62426454 2:1 3:0.63543455 4:0.23856969 5:0 
-0.6792211558119108 1:0 2:0.20829531 3:0.72667797 4:1 5:0.85154325 
-0.1382457002408427 1:0.40699232 2:1 3:0.36768248 4:0 5:0.40540415 
4.927818284676162 1:0.5223871 2:1 3:0 4:0.98131771 5:0.92550412 
-43.15577687553547 1:0 2:1 3:0.70584804 4:0.47781786 5:0.41727373 
-5.764562620164254 1:0.21381856 2:0.60567217 3:0 4:1 5:0.67465042 
-4.559312670370946 1:0 2:1 3:0.32709315 4:0.28314119 5:0.44443986 
-1.469535199265063 1:0 2:0.26196039 3:1 4:0.1388974 5:0.091088407 
13.34206707638289 1:0 2:1 3:0.75109964 4:0.47462083 5:0.39545399 
1.986874442412921 1:0 2:0.018374321 3:1 4:0.72383455 5:0.94692916 
-1.312967348777541 1:0 2:0.92519174 3:0.0052212129 4:1 5:0.56485005 
-0.1146617746013355 1:0 2:1 3:0.71896652 4:0.47896773 5:0.57223567 
1.170428306733673 1:0.36744308 2:1 3:0.42436239 4:0 5:0.74510733 
-0.3677279130744166 1:0.40699232 2:1 3:0.36768248 4:0 5:0.40540415 
-1.733361462765128 1:0.45094065 2:1 3:0.41328645 4:0 5:0.86340517 
-18.5811752300527 1:0.39863378 2:1 3:0.33815534 4:0 5:0.89169213 
-0.2856720660132299 1:0 2:0.79182183 3:1 4:0.58447949 5:0.29850282 
0.0507884614498379 1:1 2:0 3:0.28538149 4:0.061721543 5:0.60722519 
-180.7665019911612 1:0.27144702 2:0.99044783 3:0 4:1 5:0.66219487 
-98.53414887261602 1:0 2:1 3:0.69974225 4:0.380862 5:0.31981134 
-171.0100195190698 1:0 2:1 3:0.77078809 4:0.49795633 5:0.39793453 
-0.5645753010590175 1:0.29333037 2:1 3:0.13767531 4:0 5:0.34717808 
-0.8185270129793042 1:1 2:0.4046686 3:0.37113072 4:0.20176822 5:0 
-3.680718794873757 1:0.20228661 2:0 3:0.71513431 4:1 5:0.50019267 
0.09391783973191771 1:0.032035527 2:1 3:0.38815976 4:0 5:0.76640701 
-0.7531342077217074 1:0.92856539 2:1 3:0.59324888 4:0 5:0.022694756 
-4.404689026303319 1:0 2:0.84683094 3:0.27810531 4:1 5:0.52889987 
0.3894473815094304 1:1 2:0.67839636 3:0 4:0.47014339 5:0.21756278 
4.67619511688181 1:0.053933878 2:1 3:0 4:0.90365838 5:0.18479297 
-1.241264409304533 1:0 2:0.06472995 3:0.77573487 4:0.90950258 5:1 
-23.69228439228447 1:0 2:0.75905035 3:1 4:0.74615676 5:0.65248006 
-458.8256806012652 1:0.17325449 2:1 3:0 4:0.92345148 5:0.62280089 
2.500115844897986 1:0 2:1 3:0.13487247 4:0.49961009 5:0.8511528 
0.08952900659098181 1:0.22724596 2:1 3:0.18092043 4:0 5:0.82795302 
-0.03107915761450623 1:0.62426454 2:1 3:0.63543455 4:0.23856969 5:0 
2.86508514621822 1:0.29882808 2:1 3:0 4:0.68289451 5:0.61838202 
-0.510380526546912 1:0.34378274 2:1 3:0.47498363 4:0 5:0.56287784 
-6.834618760626494 1:0.34378274 2:1 3:0.47498363 4:0 5:0.56287784 
-13.24628304728725 1:0 2:1 3:0.77078809 4:0.49795633 5:0.39793453 
0.006356858445885957 1:0.31453051 2:0 3:0.80447508 4:1 5:0.89324961 
-5.556202280455023 1:0.59464653 2:0 3:0.68273918 4:0.78450369 5:1 
-3.545606274169184 1:0.31850028 2:0.63029791 3:1 4:0 5:0.81898082 
-17.48801821843183 1:0.33292319 2:1 3:0.27664474 4:0 5:0.70894946 
-0.3349911783944936 1:1 2:0.48837709 3:0.45969122 4:0.28970777 5:0 
2.092140294370541 1:0.31453051 2:0 3:0.80447508 4:1 5:0.89324961 
-26.92853307368406 1:0.064969022 2:0.83655057 3:0 4:1 5:0.57296778 
10.22043116635077 1:0 2:0.84014409 3:0.12628695 4:1 5:0.56514292 
-7.406440697084733 1:0 2:1 3:0.70584804 4:0.47781786 5:0.41727373 
-0.1803992027185302 1:0.036673578 2:0 3:1 4:0.85110119 5:0.93009902 
5.805978260508511 1:0.25115755 2:1 3:0.070554946 4:0 5:0.71421591 
-6.264518471021959 1:0.45832581 2:0.51260324 3:0 4:1 5:0.60201881 
7.972879000641306 1:0 2:1 3:0.28381097 4:0.11371759 5:0.036065366 
-0.05525545012748147 1:0 2:0.79182183 3:1 4:0.58447949 5:0.29850282 
45.17352718164496 1:0.48006742 2:1 3:0.40048176 4:0 5:0.89964112 
-24.79300427879426 1:0 2:1 3:0.75288122 4:0.50043633 5:0.37510605 
2.711881393092749 1:0.34757413 2:0.19724107 3:1 4:0.52116507 5:0 
8.664963621381553 1:0 2:0.56862165 3:1 4:0.60428278 5:0.80355265 
-249.5842680173285 1:0 2:1 3:0.70584804 4:0.47781786 5:0.41727373 
-147.975715134001 1:0 2:1 3:0.77078809 4:0.49795633 5:0.39793453 
-0.07262248941884938 1:1 2:0.47269328 3:0.43234955 4:0 5:0.71300127 
2.592953214955743 1:0 2:0.084222096 3:0.61986193 4:1 5:0.79296788 
-0.3704998017739188 1:0.40699232 2:1 3:0.36768248 4:0 5:0.40540415 
8.041427917102707 1:1 2:0 3:0.21754911 4:0.30615114 5:0.35999555 
-11.53483367992382 1:1 2:0 3:0.19754893 4:0.23743142 5:0.23884063 
512 1:0 2:0.79525546 3:1 4:0.58554671 5:0.3013957 
-4.348866035890286 1:0 2:1 3:0.70584804 4:0.47781786 5:0.41727373 
-5.034111987641243 1:0.48084528 2:1 3:0.41101416 4:0 5:0.78967001 
194.5857939026298 1:0 2:1 3:0.75109964 4:0.47462083 5:0.39545399 
-91.26727684801315 1:0 2:1 3:0.77078809 4:0.49795633 5:0.39793453 
4.526388653146974 1:0.40630072 2:0 3:0.66240014 4:0.67472941 5:1 
-7.313483812385518 1:0 2:0.37282466 3:1 4:0.8096106 5:0.83324792 
86.493384957942 1:0.070540123 2:0.89211084 3:0 4:1 5:0.69194615 
14.82992774024422 1:0.4239201 2:0.72622304 3:0 4:1 5:0.72548372 
-170.6829525491806 1:0 2:1 3:0.69974225 4:0.380862 5:0.31981134 
0.007082881458960826 1:0.59352795 2:0.59144224 3:1 4:0 5:0.78923512 
-97.02589427348374 1:0 2:1 3:0.70584804 4:0.47781786 5:0.41727373 
-1.801959730420663 1:0.31912334 2:1 3:0.16559583 4:0 5:0.73586981 
1.661722464633471 1:1 2:0.43231578 3:0.46906785 4:0 5:0.29342212 
0.01502984369085461 1:1 2:0.56564515 3:0.42889956 4:0.16278164 5:0 
-0.513083836277619 1:0.038661207 2:1 3:0.27457726 4:0 5:0.27769165 
0.00425584969055736 1:0.95426398 2:0 3:0.091765602 4:0.19299836 5:1 
12.66685779705328 1:0 2:0.76853104 3:1 4:0.82156194 5:0.74290265 
12.79599187762884 1:0 2:1 3:0.75109964 4:0.47462083 5:0.39545399 
2.207360197047059 1:0.47053702 2:0 3:0.34348387 4:1 5:0.83178765 
37.0148888124572 1:0.22821991 2:1 3:0 4:0.94074139 5:0.59853984 
6.011943093632236 1:0.1190447 2:1 3:0.60508233 4:0 5:0.36717279 
0.6960949393146308 1:0.48659705 2:0 3:1 4:0.52120491 5:0.62176842 
-1.268655161693066 1:0 2:0.20829531 3:0.72667797 4:1 5:0.85154325 
5.077229783404145 1:0.25527853 2:0.91426612 3:0.36585891 4:0 5:1 
-512 1:0 2:1 3:0.77078809 4:0.49795633 5:0.39793453 
0.2997521198891423 1:0.017444536 2:0 3:1 4:0.86710017 5:0.64218203 
1.212042324430291 1:0 2:0.46244821 3:0.70636763 4:0.87442946 5:1 
-2.574705061315686 1:1 2:0 3:0.67355166 4:0.43965464 5:0.49493595 
-21.82314634582151 1:0.046980642 2:1 3:0 4:0.92634454 5:0.75528911 
-11.48227754822497 1:1 2:0 3:0.18691793 4:0.21260249 5:0.25865543 
-2.684661449070918 1:0.45094065 2:1 3:0.41328645 4:0 5:0.86340517 
43.19872710443551 1:1 2:0 3:0.1483522 4:0.18463389 5:0.28912267 
-15.30504817312882 1:0 2:1 3:0.77078809 4:0.49795633 5:0.39793453 
305.1251662929798 1:0 2:1 3:0.75109964 4:0.47462083 5:0.39545399 
-0.5002984103283289 1:0 2:1 3:0.69974225 4:0.380862 5:0.31981134 
11.61809815463366 1:0.091259795 2:1 3:0 4:0.98696146 5:0.82879808 
512 1:0 2:1 3:0.75109964 4:0.47462083 5:0.39545399 
-0.5299942218301982 1:0.10657561 2:1 3:0.36709967 4:0.61046322 5:0 
-0.4047317600459859 1:0.40699232 2:1 3:0.36768248 4:0 5:0.40540415 
-132.3398989674508 1:0.23892552 2:1 3:0 4:0.87425471 5:0.50380802 
-0.2536995026725598 1:0.29333037 2:1 3:0.13767531 4:0 5:0.34717808 
42.16514849162407 1:0.22821991 2:1 3:0 4:0.94074139 5:0.59853984 
-20.5525107017665 1:1 2:0 3:0.1534769 4:0.16746577 5:0.20827127 
-512 1:0 2:1 3:0.77078809 4:0.49795633 5:0.39793453 
30.29079322091907 1:0.11190069 2:0.94207621 3:0 4:1 5:0.65097963 
-0.02778924111365908 1:0 2:0.79182183 3:1 4:0.58447949 5:0.29850282 
-1.685897912035432 1:0 2:1 3:0.32709315 4:0.28314119 5:0.44443986 
-8.930585591839815 1:0.0079588763 2:1 3:0 4:0.60707352 5:0.82945683 
-0.1472058118076873 1:0.10657561 2:1 3:0.36709967 4:0.61046322 5:0 
2.173147986033801 1:0 2:0.010048818 3:1 4:0.96924181 5:0.95930586 
0.6811333144411023 1:0.033587245 2:1 3:0 4:0.44013995 5:0.61787625 
7.966720326705945 1:1 2:0 3:0.1883289 4:0.18158362 5:0.048102932 
-2.713049098940335 1:0 2:0.63954835 3:0.4833733 4:1 5:0.40060046 
-2.018523923568724 1:0.48084528 2:1 3:0.41101416 4:0 5:0.78967001 
0.2199747434607089 1:0.18773916 2:1 3:0.19494106 4:0 5:0.47747033 
-0.1912887428626329 1:1 2:0 3:0.50218382 4:0.81010994 5:0.75879033 
-18.21631661250462 1:1 2:0 3:0.1096674 4:0.20200097 5:0.49249947 
0.05885684779246717 1:1 2:0.56564515 3:0.42889956 4:0.16278164 5:0 
-1.27957386247888 1:0.31912334 2:1 3:0.16559583 4:0 5:0.73586981 
17.7249186504516 1:0.11178168 2:1 3:0 4:0.7318024 5:0.84372463 
-1.240949543404977 1:0 2:1 3:0.21703 4:0.89554058 5:0.98113927 
1.759749689917105 1:0 2:0.23681253 3:0.27343126 4:1 5:0.93594541 
-512 1:0 2:1 3:0.77078809 4:0.49795633 5:0.39793453 
512 1:0.22821991 2:1 3:0 4:0.94074139 5:0.59853984 
512 1:0 2:0.79525546 3:1 4:0.58554671 5:0.3013957 
2.892623675573586 1:0.59352795 2:0.59144224 3:1 4:0 5:0.78923512 
-0.8264301998153377 1:1 2:0 3:0.1534769 4:0.16746577 5:0.20827127 
-7.807293339486085 1:0.29333037 2:1 3:0.13767531 4:0 5:0.34717808 
0.4308871461627392 1:1 2:0.48460293 3:0.34368013 4:0.075402303 5:0 
8.651119224242827 1:0 2:1 3:0.90405792 4:0.40525581 5:0.046486825 
0.0371952786231002 1:0.95426398 2:0 3:0.091765602 4:0.19299836 5:1 
512 1:0 2:1 3:0.75109964 4:0.47462083 5:0.39545399 
-3.344591864729217 1:0 2:0.20702905 3:1 4:0.70317005 5:0.20078386 
5.167327363909743 1:1 2:0.39195814 3:0.31023393 4:0.30752301 5:0 
-2.127786294535142 1:0 2:0.65075153 3:0.4482347 4:1 5:0.70796639 
1.431866623848925 1:0.053664124 2:1 3:0 4:0.28786151 5:0.4712869 
5.004220832171306 1:0.38421349 2:1 3:0.27780903 4:0 5:0.8198115 
9.593930324905722 1:0 2:0.32388113 3:1 4:0.79251994 5:0.67514411 
1.074909336359666 1:0 2:0.821235 3:0.10688665 4:1 5:0.52000049 
-39.61798835702832 1:0.066910415 2:1 3:0 4:0.90264264 5:0.87216007 
512 1:0 2:1 3:0.77187448 4:0.57437162 5:0.42488444 
2.318987329896788 1:0 2:0.40468391 3:0.046029441 4:1 5:0.056173734 
-31.83937203344306 1:0.13322761 2:1 3:0.11867259 4:0 5:0.52324006 
2.474767818839554 1:0 2:0.020277189 3:1 4:0.63017512 5:0.17598015 
-0.3921611205382337 1:1 2:0 3:0.18691793 4:0.21260249 5:0.25865543 
50.5942407490125 1:0 2:1 3:0.52217718 4:0.39450125 5:0.33514655 
7.809917649034864 1:0.4801863 2:1 3:0.43233156 4:0 5:0.60251344 
-4.765563447816423 1:0 2:1 3:0.90126588 4:0.95625247 5:0.9602905 
0.944003450742544 1:0 2:0.40380388 3:1 4:0.8628476 5:0.75916362 
-1.119845906352907 1:0.10657561 2:1 3:0.36709967 4:0.61046322 5:0 
512 1:0 2:1 3:0.75109964 4:0.47462083 5:0.39545399 
-0.001952803066206346 1:1 2:0.47269328 3:0.43234955 4:0 5:0.71300127 
-12.7845380050295 1:0.038661207 2:1 3:0.27457726 4:0 5:0.27769165 
0.8093499872113099 1:0.95426398 2:0 3:0.091765602 4:0.19299836 5:1 
-4.91738939465774 1:1 2:0.4046686 3:0.37113072 4:0.20176822 5:0 
4.54134285874654 1:1 2:0 3:0.28538149 4:0.061721543 5:0.60722519 
0.8795241522161896 1:1 2:0.70612422 3:0 4:0.82529882 5:0.15871694 
-87.07257807818334 1:0 2:1 3:0.70584804 4:0.47781786 5:0.41727373 
2.779250174629901 1:0.0526069 2:1 3:0 4:0.86915654 5:0.74272854 
253.2666578031675 1:0 2:1 3:0.74250374 4:0.44072402 5:0.26731165 
51.43569618184515 1:0.18773916 2:1 3:0.19494106 4:0 5:0.47747033 
2.046003236058581 1:0 2:0.80231694 3:0.18636354 4:1 5:0.58402365 
-464.7028021214753 1:0 2:1 3:0.75288122 4:0.50043633 5:0.37510605 
118.7113421333058 1:0.076412642 2:1 3:0 4:0.9619847 5:0.78363867 
148.2869439115341 1:0.076001187 2:1 3:0 4:0.85939678 5:0.55871178 
-26.46001567474229 1:0 2:1 3:0.049559451 4:0.79411245 5:0.57410752 
-4.952125091171964 1:0.5218137 2:0.68379304 3:0 4:0.81549094 5:1 
-0.1678890175182508 1:1 2:0.48837709 3:0.45969122 4:0.28970777 5:0 
-511.6591856825814 1:0 2:0.79182183 3:1 4:0.58447949 5:0.29850282 
7.949958516576469 1:0.38421349 2:1 3:0.27780903 4:0 5:0.8198115 
-0.6885325673812848 1:1 2:0 3:0.47146471 4:0.64811072 5:0.39561539 
0.9403379422245973 1:1 2:0.56564515 3:0.42889956 4:0.16278164 5:0 
-497.4649283252908 1:0 2:0.79182183 3:1 4:0.58447949 5:0.29850282 
2.811710665519367 1:1 2:0 3:0.69384431 4:0.99998937 5:0.94644322 
-1.449967702939985 1:1 2:0.47269328 3:0.43234955 4:0 5:0.71300127 
-4.493308211859628 1:0.40699232 2:1 3:0.36768248 4:0 5:0.40540415 
-3.035731505143854 1:0.015550209 2:0 3:1 4:0.81100895 5:0.76940867 
4.047823339552505 1:1 2:0 3:0.5635977 4:0.49066147 5:0.54957302 
-30.17710926345524 1:0 2:1 3:0.71896652 4:0.47896773 5:0.57223567 
512 1:0 2:1 3:0.75109964 4:0.47462083 5:0.39545399 
2.244537677142667 1:0.01002046 2:0 3:1 4:0.7357298 5:0.48130821 
-93.26203387783769 1:0.032683113 2:0.91633164 3:0 4:1 5:0.73010478 
-56.22477150445697 1:0 2:1 3:0.71740643 4:0.38722156 5:0.17205623 
