svm_type c_svc
kernel_type rbf
gamma 0.00390625
nr_class 4
total_sv 738
rho -0.05297735333442688 -0.007745474576950073 -0.9740102291107178 0.0419079065322876 -0.9589920529393035 -0.9849892558931777
label 2 3 0 1
nr_sv 192 192 192 162
SV
1.0 1.0 1.0 1:0.0028853 2:0.00405268 3:0.00303992 4:0.00368718 5:0.003303 6:0.00684094 7:0.00439453 8:0.00722937 9:0.00558145 10:0.0599124 11:0.0616925 12:0.0276458 13:0.00481939 14:0.00526478 15:0.0138229 16:0.026742 17:0.00317954 18:0.0373874 19:0.026851 20:0.148213 21:0.00264878 22:0.0272705 23:0.0819811 24:0.00534783 25:0.0141381 26:0.0026039 27:0.00608839 28:0.0878203 29:0.0400666 30:0.00295673 31:0.00256638 32:0.00260254 33:0.00300751 34:0.00276 35:0.00403754 36:0.00437396 37:0.00302308 38:0.00463897 39:0.00388883 40:0.0843183 41:0.0255856 42:0.0123646 43:0.0180641 44:0.0166529 45:0.00736845 46:0.00558993 47:0.00467471 48:0.0052584 49:0.00274903 50:0.00300357 51:0.00418253 52:0.00667398 53:0.00449292 54:0.00536912 55:0.0100555 56:0.00671383 57:0.0081411 58:0.0155439 59:0.0105469 60:0.0116878 61:0.0375894 62:0.0119618 63:0.033058 64:0.0581911 65:0.0492214 66:0.0209602 67:0.0106374 68:0.0158928 69:0.00918691 70:0.00593811 71:0.00952872 72:0.00570613 73:0.00423423 74:0.00684087 75:0.00377321 76:0.00598783 77:0.00426331 78:0.00462491 79:0.00870126 80:0.00586766 81:0.00729916 82:0.0141082 83:0.00908052 84:0.0116102 85:0.0359003 86:0.00984756 87:0.0272709 88:0.0505422 89:0.0432797 90:0.0173839 91:0.0100673 92:0.0144007 93:0.00773748 94:0.0059977 95:0.00853689 96:0.00491931 97:0.0039925 98:0.00627255 99:0.00336722 100:0.0028739 101:0.0031025 102:0.00334615 103:0.00501796 104:0.00432781 105:0.00399516 106:0.0148593 107:0.0741808 108:0.00958144 109:0.0123127 110:0.00893302 111:0.00804588 112:0.00397455 113:0.00309323 114:0.0031151 115:0.00282519 116:0.0873765 117:0.0296268 118:0.00702744 119:0.00636879 120:0.00428492 121:0.00399692 122:0.00263926 123:0.00287881 124:0.0033564 125:0.00872296 126:0.00779914 127:0.00311207 128:0.0051517 129:0.00358054 130:0.0163227 131:0.107162 132:0.0292374 133:0.00261136 134:0.0090226 135:0.00393984 136:0.0030106 137:0.00254676 138:0.0945046 139:0.0197474 140:0.00621281 141:0.0060874 142:0.0042329 143:0.00312283 144:0.00372163 145:0.00283738 146:0.00514782 147:0.00257565 148:0.00378509 149:0.00806807 150:0.00385412 151:0.0026274 152:0.0188668 153:0.0156867 154:0.0328146 155:0.0211858 156:0.00553065 157:0.022255 158:0.00742214 159:0.00279435 160:0.0055146 161:0.00777101 162:0.00380074 163:0.00319289 164:0.00439818 165:0.00315434 166:0.0031869 167:0.00262368 168:0.00434606 169:0.00273455 170:0.00467846 171:0.00676333 172:0.00306087 173:0.0111101 174:0.0292919 175:0.0157526 176:0.0102423 177:0.0169245 178:0.0226546 179:0.00775413 180:0.0056895 181:0.00738362 182:0.0035237 183:0.00400492 184:0.00444372 185:0.00293505 186:0.00358606 187:0.00479906 188:0.00492707 189:0.00627372 190:0.00772219 191:0.010525 192:0.012051 193:0.0325975 194:0.0440018 195:0.0266775 196:0.072279 197:0.0318327 198:0.00665632 199:0.0140455 200:0.0122085 201:0.00315597 202:0.00829538 203:0.00764002 204:0.00560426 205:0.00564272 206:0.0034984 207:0.00306468 208:0.00379061 209:0.00369268 210:0.0 211:0.0 212:0.0 213:0.00571845 214:0.0 215:0.00474354 216:0.0 217:0.0 218:0.0 219:0.0 220:0.0 221:0.0150642 222:0.0 223:0.0 224:0.0128252 225:0.0 226:0.0 227:0.0 228:0.0382312 229:0.0623534 230:0.0152241 231:0.0121575 232:0.0 233:0.00490438 234:0.0 235:0.0 236:0.0 237:0.00876761 238:0.0 239:0.00649347 240:0.0 241:0.0 242:0.0 243:0.0 244:0.0 245:0.00454821 246:0.0 247:0.00370645 248:0.0 249:0.0 250:0.0 251:0.0 252:0.0 253:0.00279713 254:0.0 255:0.0 256:0.0 
1.0 1.0 1.0 1:0.00275986 2:0.00252848 3:0.00411549 4:0.00853487 5:0.00435574 6:0.00414097 7:0.0126955 8:0.00546293 9:0.0196049 10:0.0841879 11:0.219856 12:0.0812091 13:0.0161333 14:0.00481015 15:0.00608766 16:0.00823296 17:0.00482619 18:0.0106582 19:0.0144041 20:0.00896855 21:0.0372358 22:0.0522284 23:0.00784476 24:0.0411804 25:0.058494 26:0.0452912 27:0.02326 28:0.0685431 29:0.0407752 30:0.00280423 31:0.00425844 32:0.00494912 33:0.00415029 34:0.00434349 35:0.0028622 36:0.00361712 37:0.00287784 38:0.0031228 39:0.0038976 40:0.00567046 41:0.00646496 42:0.00731254 43:0.00750503 44:0.00280134 45:0.0140909 46:0.0191897 47:0.0267271 48:0.0470323 49:0.0237385 50:0.086171 51:0.0973067 52:0.0113837 53:0.0150509 54:0.0156253 55:0.00261872 56:0.0030375 57:0.00913778 58:0.0111149 59:0.0106665 60:0.00778349 61:0.00569846 62:0.0277261 63:0.0376353 64:0.0713733 65:0.144093 66:0.0164431 67:0.0626687 68:0.0345609 69:0.00492552 70:0.00258161 71:0.00320087 72:0.0031275 73:0.00338354 74:0.00373969 75:0.0088318 76:0.00411009 77:0.00575956 78:0.00815189 79:0.0090727 80:0.0208424 81:0.0305309 82:0.0186361 83:0.07088 84:0.0128818 85:0.0892694 86:0.018397 87:0.00314563 88:0.00474049 89:0.00475632 90:0.00482125 91:0.0107805 92:0.00716494 93:0.0121476 94:0.0147944 95:0.0535258 96:0.140611 97:0.124336 98:0.00312883 99:0.00302358 100:0.00273173 101:0.00351993 102:0.00274278 103:0.00276346 104:0.00958502 105:0.0115763 106:0.0238999 107:0.0277229 108:0.0509084 109:0.0561423 110:0.110182 111:0.00405744 112:0.0110428 113:0.011464 114:0.0191345 115:0.015493 116:0.0210777 117:0.0293995 118:0.029703 119:0.0219131 120:0.0248271 121:0.0226788 122:0.00912675 123:0.0106077 124:0.00359303 125:0.00447953 126:0.0039088 127:0.0057282 128:0.0046833 129:0.00435151 130:0.010268 131:0.00436704 132:0.0185502 133:0.00312493 134:0.0271196 135:0.0109059 136:0.0257238 137:0.0361378 138:0.0334194 139:0.024101 140:0.0214392 141:0.0310524 142:0.0190295 143:0.00478365 144:0.0100491 145:0.00498522 146:0.00495468 147:0.00559703 148:0.00372713 149:0.0042737 150:0.00296157 151:0.00265747 152:0.00285661 153:0.00329255 154:0.00359082 155:0.00313691 156:0.00283689 157:0.00322974 158:0.00338996 159:0.00386436 160:0.00338111 161:0.00469176 162:0.00462034 163:0.00485718 164:0.00629028 165:0.00647321 166:0.00622131 167:0.0071789 168:0.00707859 169:0.00677402 170:0.00562562 171:0.00495817 172:0.00602188 173:0.00564856 174:0.00691854 175:0.00730389 176:0.00696736 177:0.00593305 178:0.00672576 179:0.00480174 180:0.00580497 181:0.00418573 182:0.0045453 183:0.00396315 184:0.00388997 185:0.00290777 186:0.00302803 187:0.00276332 188:0.00283566 189:0.00265629 190:0.00447639 191:0.0134218 192:0.00406608 193:0.00271036 194:0.00596387 195:0.00560821 196:0.0118423 197:0.0120317 198:0.0263505 199:0.0469112 200:0.00314734 201:0.00329086 202:0.00324923 203:0.00277385 204:0.00289824 205:0.00478353 206:0.00259696 207:0.00887927 208:0.00490012 209:0.00847771 210:0.00461603 211:0.0053564 212:0.0448523 213:0.0152145 214:0.00402836 215:0.00664611 216:0.00562305 217:0.00302815 218:0.00504919 219:0.00350727 220:0.00464518 221:0.014259 222:0.00830743 223:0.00311115 224:0.00871562 225:0.0793265 226:0.0222403 227:0.0112195 228:0.00377702 229:0.00920723 230:0.00567226 231:0.00697498 232:0.00267543 233:0.00282093 234:0.0040374 235:0.00662364 236:0.00320549 237:0.00281413 238:0.0026521 239:0.0119802 240:0.00286303 241:0.00346803 242:0.00466016 243:0.00747272 244:0.0746353 245:0.0261016 246:0.0122507 247:0.00749241 248:0.0028523 249:0.00423664 250:0.00667085 251:0.00337829 252:0.00545595 253:0.00346768 254:0.00522813 255:0.00273965 256:0.00565559 
1.0 1.0 1.0 1:0.00466556 2:0.00325634 3:0.00338188 4:0.00367212 5:0.00379233 6:0.00446825 7:0.0547508 8:0.0806375 9:0.0870903 10:0.0605801 11:0.0286077 12:0.00406767 13:0.0104741 14:0.0068656 15:0.00404294 16:0.00382566 17:0.00385141 18:0.00268499 19:0.00283384 20:0.00429396 21:0.0256148 22:0.0419766 23:0.20257 24:0.0335322 25:0.0260308 26:0.00673624 27:0.0196833 28:0.00635252 29:0.00634642 30:0.00265563 31:0.0152254 32:0.00651433 33:0.0839159 34:0.0696112 35:0.0624058 36:0.0255043 37:0.0121782 38:0.019536 39:0.00674089 40:0.0097667 41:0.00525431 42:0.00486601 43:0.00520588 44:0.0046197 45:0.00602757 46:0.00423481 47:0.00331743 48:0.00270698 49:0.00286562 50:0.00289154 51:0.00369162 52:0.00350292 53:0.00309673 54:0.00341177 55:0.00317754 56:0.00386634 57:0.00293385 58:0.00302413 59:0.00252254 60:0.00277169 61:0.00280774 62:0.00336767 63:0.167632 64:0.0357389 65:0.0115991 66:0.00916603 67:0.0045323 68:0.00656749 69:0.00560314 70:0.00526332 71:0.0039841 72:0.00327702 73:0.00321585 74:0.00309824 75:0.00315089 76:0.00264623 77:0.00289056 78:0.00681402 79:0.00601781 80:0.0311803 81:0.0775288 82:0.0196674 83:0.0073889 84:0.00862445 85:0.00288995 86:0.00397472 87:0.00506277 88:0.0339078 89:0.100233 90:0.0476593 91:0.0386833 92:0.00650682 93:0.00262017 94:0.0045262 95:0.00450174 96:0.00359668 97:0.00327345 98:0.00255158 99:0.00321357 100:0.00386669 101:0.00341227 102:0.00560593 103:0.0111779 104:0.0941835 105:0.00349418 106:0.0176702 107:0.0317328 108:0.0137425 109:0.00326951 110:0.00616078 111:0.00727707 112:0.0030333 113:0.00388835 114:0.00437353 115:0.00271177 116:0.00356222 117:0.00404435 118:0.00532442 119:0.00527359 120:0.00704298 121:0.00891117 122:0.0102851 123:0.00253057 124:0.0225125 125:0.0253562 126:0.00898568 127:0.00840443 128:0.00854247 129:0.0661132 130:0.0447978 131:0.00972016 132:0.0109499 133:0.0129246 134:0.00460625 135:0.00740875 136:0.00786003 137:0.00278141 138:0.00500904 139:0.0059523 140:0.00291276 141:0.0432049 142:0.0332411 143:0.0304368 144:0.0201134 145:0.00827119 146:0.010678 147:0.00644497 148:0.00419098 149:0.00251758 150:0.00437829 151:0.00329934 152:0.00627879 153:0.00350354 154:0.00490193 155:0.0106521 156:0.0059613 157:0.0128212 158:0.031505 159:0.0405214 160:0.046144 161:0.0258233 162:0.0163354 163:0.00444897 164:0.00512539 165:0.00897399 166:0.0030697 167:0.00347085 168:0.00579948 169:0.00285759 170:0.00409948 171:0.00381779 172:0.00369332 173:0.00489851 174:0.0148296 175:0.0069225 176:0.0286862 177:0.185475 178:0.00634693 179:0.00320255 180:0.00351455 181:0.00339799 182:0.0149361 183:0.018373 184:0.0205896 185:0.0969755 186:0.00401718 187:0.0357015 188:0.0760659 189:0.0638713 190:0.0470884 191:0.0351934 192:0.0116652 193:0.00363235 194:0.00464318 195:0.0527479 196:0.035268 197:0.0458016 198:0.0118952 199:0.0342626 200:0.0720146 201:0.061082 202:0.0489022 203:0.0323861 204:0.0138616 205:0.00511903 206:0.00334451 207:0.00794221 208:0.0184052 209:0.0113448 210:0.0191501 211:0.0459379 212:0.0796939 213:0.15716 214:0.0706955 215:0.0506418 216:0.0101568 217:0.0026749 218:0.00344237 219:0.00274235 220:0.00254814 221:0.00329879 222:0.00283018 223:0.00292628 224:0.00267384 225:0.00386034 226:0.00338509 227:0.00808525 228:0.121578 229:0.00307687 230:0.00285556 231:0.00377871 232:0.00337964 233:0.00348362 234:0.00371822 235:0.0039736 236:0.00455238 237:0.00455527 238:0.0033603 239:0.0036983 240:0.00335398 241:0.003836 242:0.00418599 243:0.00535976 244:0.00303556 245:0.00270803 246:0.00304567 247:0.00295851 248:0.00324852 249:0.00496976 250:0.00264417 251:0.00350809 252:0.00285532 253:0.00478309 254:0.00362695 255:0.00561436 256:0.0128707 
1.0 1.0 1.0 1:0.00345304 2:0.00526409 3:0.00286066 4:0.00325349 5:0.00563566 6:0.00279295 7:0.111695 8:0.019125 9:0.0859938 10:0.0464893 11:0.00264894 12:0.0327171 13:0.0154477 14:0.00765479 15:0.00578036 16:0.00413354 17:0.00515181 18:0.00523092 19:0.167667 20:0.0215649 21:0.168335 22:0.0512473 23:0.0136686 24:0.00299755 25:0.00390666 26:0.00471222 27:0.229789 28:0.169941 29:0.0313153 30:0.0138303 31:0.00461082 32:0.240097 33:0.268015 34:0.00463129 35:0.00698984 36:0.00361562 37:0.0640617 38:0.0428772 39:0.138936 40:0.0363238 41:0.0220029 42:0.0188189 43:0.013975 44:0.00326882 45:0.00427455 46:0.00285366 47:0.00399877 48:0.00398883 49:0.00463498 50:0.00492212 51:0.00536123 52:0.00455252 53:0.00635379 54:0.0317993 55:0.0714071 56:0.0515628 57:0.0109575 58:0.0191183 59:0.0138038 60:0.00520246 61:0.0110387 62:0.0107609 63:0.00453618 64:0.003128 65:0.00609025 66:0.00604086 67:0.00406491 68:0.0027514 69:0.0037986 70:0.00499436 71:0.00283928 72:0.00434631 73:0.00270239 74:0.00570242 75:0.0867027 76:0.0795758 77:0.0243055 78:0.0590929 79:0.0110871 80:0.0156968 81:0.0044363 82:0.0129606 83:0.00808149 84:0.0036484 85:0.00689325 86:0.0034354 87:0.00295764 88:0.0042241 89:0.00553262 90:0.0198839 91:0.0159946 92:0.0538783 93:0.0610254 94:0.00409508 95:0.0443327 96:0.0101929 97:0.00771041 98:0.00976397 99:0.00411683 100:0.00391382 101:0.0053512 102:0.00261496 103:0.00275605 104:0.00785641 105:0.0177162 106:0.0219316 107:0.0410723 108:0.0475112 109:0.0058154 110:0.0300712 111:0.0715547 112:0.0781635 113:0.0387586 114:0.0402845 115:0.0270009 116:0.0117169 117:0.00791921 118:0.0146948 119:0.0234606 120:0.0424927 121:0.0511359 122:0.0164904 123:0.0276267 124:0.05936 125:0.104228 126:0.044511 127:0.0328871 128:0.0236727 129:0.00505279 130:0.0678658 131:0.33742 132:0.049805 133:0.0 134:0.0 135:0.0 136:0.0 137:0.0 138:0.0 139:0.0 140:0.0 141:0.0 142:0.0 143:0.0 144:0.0 145:0.0 146:0.0 147:0.0 148:0.0 149:0.0 150:0.0 151:0.0 152:0.0 153:0.0 154:0.0 155:0.0 156:0.0 157:0.0 158:0.0 159:0.0 160:0.0 161:0.0 162:0.0 163:0.0 164:0.0 165:0.0 166:0.257527 167:0.0306369 168:0.0258511 169:0.0 170:0.0 171:0.0 172:0.0 173:0.0 174:0.0 175:0.0 176:0.0 177:0.0 178:0.0 179:0.0 180:0.0 181:0.0 182:0.0 183:0.0 184:0.0 185:0.0 186:0.0 187:0.0 188:0.0 189:0.0 190:0.0 191:0.0 192:0.0 193:0.0 194:0.0 195:0.0 196:0.0 197:0.0 198:0.0 199:0.00287203 200:0.0 201:0.0 202:0.0 203:0.0 204:0.0 205:0.0 206:0.0 207:0.00326327 208:0.0 209:0.0 210:0.0 211:0.0 212:0.0 213:0.00293791 214:0.0 215:0.00475645 216:0.0 217:0.00273535 218:0.0 219:0.0 220:0.0 221:0.00261784 222:0.0 223:0.0138849 224:0.0 225:0.0 226:0.0 227:0.0651415 228:0.0363991 229:0.00961742 230:0.0 231:0.0157258 232:0.0 233:0.00614314 234:0.0 235:0.0 236:0.00340716 237:0.0041698 238:0.0 239:0.00566897 240:0.0 241:0.00279084 242:0.0 243:0.0 244:0.0 245:0.00281046 246:0.0 247:0.00331445 248:0.0 249:0.0 250:0.0 251:0.0 252:0.0 253:0.0 254:0.0 255:0.00272224 256:0.0 
1.0 1.0 1.0 1:0.00257536 2:0.00276182 3:0.00357115 4:0.00384538 5:0.0045694 6:0.00312273 7:0.00383137 8:0.0106157 9:0.00560831 10:0.0148604 11:0.0153964 12:0.040185 13:0.0941133 14:0.0977348 15:0.0291512 16:0.0161923 17:0.00280923 18:0.0032456 19:0.00481643 20:0.00885803 21:0.0132951 22:0.015857 23:0.0174149 24:0.0539601 25:0.143591 26:0.106874 27:0.0386937 28:0.0159225 29:0.00303427 30:0.00318759 31:0.00255164 32:0.00358621 33:0.00373715 34:0.00417979 35:0.00444599 36:0.00585683 37:0.00845385 38:0.00827323 39:0.0117566 40:0.0327342 41:0.0109934 42:0.00887943 43:0.0167092 44:0.0518917 45:0.0583626 46:0.0179713 47:0.0123975 48:0.00922728 49:0.00787635 50:0.00703931 51:0.00561282 52:0.00506834 53:0.00482047 54:0.00468375 55:0.00361947 56:0.00347253 57:0.00385694 58:0.00330742 59:0.00284016 60:0.0042875 61:0.00371786 62:0.00253299 63:0.00486641 64:0.00529316 65:0.0185114 66:0.0125485 67:0.0492286 68:0.148303 69:0.0648938 70:0.121574 71:0.0138478 72:0.00538413 73:0.00252655 74:0.00521317 75:0.00559902 76:0.00652599 77:0.00340411 78:0.0254419 79:0.0671882 80:0.161901 81:0.0381102 82:0.105283 83:0.00353986 84:0.00265329 85:0.00350494 86:0.00275946 87:0.00748591 88:0.00628978 89:0.0191443 90:0.0203468 91:0.0118582 92:0.0144685 93:0.130235 94:0.00651833 95:0.111817 96:0.0508492 97:0.0035785 98:0.00296916 99:0.00290967 100:0.00832945 101:0.00511159 102:0.0916982 103:0.146651 104:0.0230157 105:0.197482 106:0.0212867 107:0.00536033 108:0.00416851 109:0.00510223 110:0.0255216 111:0.0307385 112:0.0560473 113:0.149998 114:0.184607 115:0.00620883 116:0.00285505 117:0.00773943 118:0.00450674 119:0.00293737 120:0.0286249 121:0.0686709 122:0.0261198 123:0.0135831 124:0.00259423 125:0.0052896 126:0.00326085 127:0.00544124 128:0.00643966 129:0.00351635 130:0.00511336 131:0.00490264 132:0.00416073 133:0.00735707 134:0.0142895 135:0.0428751 136:0.0292617 137:0.0200961 138:0.010771 139:0.0156798 140:0.00873202 141:0.00826482 142:0.00332674 143:0.00555981 144:0.00276627 145:0.00304058 146:0.00381802 147:0.00301395 148:0.00329385 149:0.0118903 150:0.00657583 151:0.00498758 152:0.00469626 153:0.0059699 154:0.00762553 155:0.0767166 156:0.0197823 157:0.0162932 158:0.00299929 159:0.00740035 160:0.00847593 161:0.00480928 162:0.00374922 163:0.00309219 164:0.00323769 165:0.00612472 166:0.00395679 167:0.00403178 168:0.00348078 169:0.00409805 170:0.00254158 171:0.00366693 172:0.00780627 173:0.00473224 174:0.0143391 175:0.00914399 176:0.034438 177:0.0369519 178:0.0284833 179:0.00292371 180:0.00942801 181:0.00417144 182:0.0081345 183:0.00455734 184:0.00266091 185:0.0047811 186:0.00252236 187:0.00296268 188:0.00347914 189:0.00507538 190:0.00339816 191:0.00573826 192:0.00339128 193:0.00554572 194:0.00750668 195:0.00605127 196:0.00425303 197:0.0228755 198:0.0472495 199:0.0229462 200:0.0556002 201:0.0316718 202:0.012171 203:0.00779538 204:0.00909549 205:0.004027 206:0.00385376 207:0.00457901 208:0.00471707 209:0.00449867 210:0.00431247 211:0.0076141 212:0.00543853 213:0.00252076 214:0.00325711 215:0.00340691 216:0.00596297 217:0.00733461 218:0.128984 219:0.0419506 220:0.0200921 221:0.00278089 222:0.00668155 223:0.00759943 224:0.00775708 225:0.0035323 226:0.00935427 227:0.00274176 228:0.00528873 229:0.00289802 230:0.00347179 231:0.00539498 232:0.226668 233:0.0339824 234:0.00269569 235:0.0025619 236:0.00564492 237:0.00284357 238:0.00414784 239:0.00833247 240:0.165538 241:0.0357069 242:0.00766106 243:0.00392945 244:0.0046661 245:0.014025 246:0.00698736 247:0.00450281 248:0.00305297 249:0.00561802 250:0.1662 251:0.0434115 252:0.0149503 253:0.00689273 254:0.00263613 255:0.00774935 256:0.00662758 
1.0 1.0 1.0 1:0.00252266 2:0.0080638 3:0.120113 4:0.0744953 5:0.051632 6:0.0134098 7:0.00488892 8:0.00332406 9:0.00260753 10:0.00291422 11:0.0027469 12:0.00542218 13:0.00587478 14:0.00392425 15:0.0349273 16:0.0488312 17:0.0304446 18:0.0445885 19:0.0278557 20:0.0219132 21:0.0127674 22:0.00262849 23:0.00384734 24:0.00396979 25:0.00698366 26:0.00492865 27:0.0171955 28:0.0168582 29:0.0299494 30:0.0358034 31:0.0467764 32:0.140233 33:0.00379529 34:0.00521196 35:0.00575751 36:0.0116084 37:0.0225422 38:0.0325218 39:0.0115643 40:0.0472701 41:0.090735 42:0.0852157 43:0.0132645 44:0.053879 45:0.0032677 46:0.00447487 47:0.0046696 48:0.00318886 49:0.0119286 50:0.0100282 51:0.0078558 52:0.00453763 53:0.0205288 54:0.027481 55:0.0412837 56:0.0995805 57:0.0260638 58:0.111018 59:0.0277379 60:0.00414571 61:0.00340898 62:0.00448314 63:0.00539208 64:0.00444798 65:0.00271716 66:0.0126932 67:0.0144733 68:0.0241174 69:0.0224856 70:0.036786 71:0.0347521 72:0.0609158 73:0.141347 74:0.0375159 75:0.0339697 76:0.00595361 77:0.00296994 78:0.00794253 79:0.00790644 80:0.00790898 81:0.00975401 82:0.0338689 83:0.0162868 84:0.0640605 85:0.0673286 86:0.0390834 87:0.139569 88:0.00678965 89:0.0111638 90:0.00359436 91:0.00365599 92:0.00448569 93:0.00500797 94:0.00747929 95:0.00805633 96:0.0232963 97:0.0177846 98:0.0203339 99:0.0234317 100:0.0152496 101:0.00691052 102:0.0214341 103:0.00646872 104:0.0107559 105:0.00884388 106:0.00597582 107:0.00524505 108:0.00404408 109:0.00402215 110:0.00308158 111:0.00344378 112:0.012213 113:0.0322793 114:0.0502122 115:0.0603214 116:0.0294067 117:0.0103201 118:0.00721465 119:0.00511408 120:0.00937316 121:0.049927 122:0.0485407 123:0.0335022 124:0.0143026 125:0.00898554 126:0.0073778 127:0.00255805 128:0.0119618 129:0.0533369 130:0.0290921 131:0.0119345 132:0.0165854 133:0.0104936 134:0.0104858 135:0.00258408 136:0.0034048 137:0.00777639 138:0.00450379 139:0.0051186 140:0.012142 141:0.00991694 142:0.0634036 143:0.0873185 144:0.0503315 145:0.00277153 146:0.00319243 147:0.00716491 148:0.00252188 149:0.00517107 150:0.00367231 151:0.00804121 152:0.00475007 153:0.00686011 154:0.00677647 155:0.0218381 156:0.161832 157:0.0277554 158:0.00458424 159:0.00803686 160:0.00282438 161:0.00513735 162:0.00374409 163:0.00762208 164:0.00647919 165:0.0071729 166:0.00263638 167:0.00519469 168:0.00817034 169:0.00622097 170:0.0126646 171:0.012727 172:0.0112301 173:0.0369075 174:0.0688777 175:0.0118777 176:0.0355447 177:0.0159146 178:0.00659548 179:0.0138463 180:0.00703548 181:0.00336507 182:0.00943872 183:0.00373968 184:0.0051845 185:0.00296671 186:0.00320821 187:0.00290508 188:0.0039837 189:0.00329178 190:0.0121058 191:0.00425738 192:0.00376343 193:0.00485078 194:0.00326777 195:0.00386131 196:0.0118058 197:0.0296844 198:0.0289142 199:0.0121625 200:0.0189248 201:0.00802148 202:0.00456069 203:0.00290553 204:0.00490449 205:0.00530346 206:0.00468751 207:0.0128771 208:0.00852905 209:0.00394601 210:0.00313341 211:0.00513462 212:0.00510955 213:0.00333186 214:0.00903843 215:0.00735538 216:0.00783785 217:0.0101785 218:0.022293 219:0.00696646 220:0.0106598 221:0.0138478 222:0.00992818 223:0.00902916 224:0.00490932 225:0.00392552 226:0.00503057 227:0.00518511 228:0.00292116 229:0.0156258 230:0.0112834 231:0.00380273 232:0.00353777 233:0.0106994 234:0.00372135 235:0.0147645 236:0.010096 237:0.0375782 238:0.0109077 239:0.00908856 240:0.00493348 241:0.00653944 242:0.0056328 243:0.00265085 244:0.00262192 245:0.00810353 246:0.00356791 247:0.00542086 248:0.00588707 249:0.013063 250:0.0438807 251:0.0181211 252:0.0258896 253:0.0438833 254:0.0113631 255:0.00425976 256:0.00486834 
1.0 1.0 1.0 1:0.00478387 2:0.00421247 3:0.00381855 4:0.00372693 5:0.138935 6:0.0358829 7:0.023163 8:0.0108035 9:0.00802812 10:0.00586782 11:0.00385568 12:0.00289957 13:0.00302753 14:0.00255483 15:0.0734375 16:0.0875738 17:0.0317473 18:0.0117209 19:0.00936581 20:0.00608361 21:0.00362308 22:0.00316876 23:0.00320887 24:0.129666 25:0.0861749 26:0.0181748 27:0.00257903 28:0.00287536 29:0.00527131 30:0.00274595 31:0.00501668 32:0.00459154 33:0.114698 34:0.12212 35:0.0102493 36:0.0058741 37:0.00559205 38:0.00305944 39:0.00360546 40:0.00292387 41:0.00448802 42:0.0031199 43:0.00583808 44:0.00606558 45:0.00888548 46:0.00954173 47:0.00791285 48:0.00776193 49:0.00404696 50:0.00259242 51:0.0167689 52:0.00251143 53:0.00422745 54:0.00643021 55:0.00555243 56:0.00606328 57:0.00524742 58:0.00426639 59:0.0 60:0.0 61:0.0 62:0.0 63:0.0 64:0.0 65:0.0 66:0.0 67:0.0 68:0.00282975 69:0.0 70:0.0 71:0.0 72:0.0 73:0.0 74:0.0 75:0.0 76:0.0 77:0.0 78:0.0 79:0.0 80:0.0 81:0.0 82:0.0 83:0.0 84:0.0 85:0.0 86:0.0 87:0.0 88:0.0 89:0.0 90:0.0 91:0.00324831 92:0.0 93:0.00305413 94:0.0 95:0.00401728 96:0.0 97:0.00796534 98:0.0 99:0.0216894 100:0.0 101:0.0225968 102:0.00935384 103:0.0335113 104:0.0 105:0.032632 106:0.0 107:0.0 108:0.0 109:0.0113425 110:0.0 111:0.00470439 112:0.0 113:0.00283272 114:0.0 115:0.00414254 116:0.0 117:0.00311516 118:0.0 119:0.00259456 120:0.0 121:0.0 122:0.0 123:0.00251984 124:0.0 125:0.0 126:0.0 127:0.0 128:0.0 129:0.0 130:0.0 131:0.0 132:0.0 133:0.0 134:0.0 135:0.0 136:0.0 137:0.0 138:0.0 139:0.0 140:0.0 141:0.0 142:0.0 143:0.0 144:0.0 145:0.0 146:0.0 147:0.0 148:0.0 149:0.0 150:0.0 151:0.0 152:0.0 153:0.0 154:0.0 155:0.0 156:0.0 157:0.0 158:0.0 159:0.0110193 160:0.0278685 161:0.0321679 162:0.053383 163:0.0657704 164:0.022005 165:0.0 166:0.0271467 167:0.0783484 168:0.0377562 169:0.0420832 170:0.0357343 171:0.0133423 172:0.0 173:0.0 174:0.0 175:0.0 176:0.0 177:0.0 178:0.0 179:0.0 180:0.0 181:0.0 182:0.0 183:0.0 184:0.0 185:0.0 186:0.0 187:0.0 188:0.0 189:0.0 190:0.0 191:0.0 192:0.0 193:0.0 194:0.0 195:0.0 196:0.0 197:0.0031861 198:0.0 199:0.00610711 200:0.0 201:0.0 202:0.0 203:0.0 204:0.0 205:0.00277135 206:0.0 207:0.0061744 208:0.0 209:0.0036656 210:0.0 211:0.0 212:0.0 213:0.00439365 214:0.0 215:0.0100556 216:0.0 217:0.00503636 218:0.0 219:0.0 220:0.0 221:0.00422058 222:0.0 223:0.0203685 224:0.0 225:0.0 226:0.0 227:0.0214823 228:0.0484067 229:0.0635325 230:0.0 231:0.0425372 232:0.0 233:0.0110771 234:0.0 235:0.0 236:0.0 237:0.0103313 238:0.0 239:0.012616 240:0.0 241:0.00473303 242:0.0 243:0.0 244:0.0 245:0.00594846 246:0.0 247:0.00660988 248:0.0 249:0.0 250:0.0 251:0.0 252:0.0 253:0.00488183 254:0.0 255:0.00580834 256:0.0 
1.0 1.0 1.0 1:0.00312692 2:0.00299122 3:0.0110859 4:0.020522 5:0.0470548 6:0.049381 7:0.0998956 8:0.115891 9:0.101503 10:0.0246388 11:0.0167873 12:0.0466781 13:0.00950227 14:0.00439653 15:0.00736199 16:0.00407804 17:0.0116501 18:0.0110003 19:0.0129664 20:0.00949723 21:0.0337435 22:0.0405433 23:0.189643 24:0.0768565 25:0.070321 26:0.00385748 27:0.00371682 28:0.00298849 29:0.0125481 30:0.00952532 31:0.00979257 32:0.0176517 33:0.0401582 34:0.0716902 35:0.136198 36:0.169795 37:0.0301897 38:0.0383123 39:0.00384774 40:0.00552343 41:0.00453035 42:0.00301845 43:0.00470476 44:0.00772665 45:0.0117956 46:0.0373168 47:0.0419336 48:0.0660223 49:0.0375026 50:0.0908996 51:0.0358177 52:0.0031485 53:0.00358238 54:0.00267983 55:0.00252242 56:0.00509522 57:0.00378637 58:0.00314461 59:0.00786677 60:0.00307274 61:0.0053633 62:0.00373653 63:0.00408639 64:0.0290204 65:0.0145898 66:0.0407081 67:0.045823 68:0.0493009 69:0.0180702 70:0.0129352 71:0.00428252 72:0.00276943 73:0.00384452 74:0.00261251 75:0.00291619 76:0.00333146 77:0.00278815 78:0.00322303 79:0.00416846 80:0.00317315 81:0.00440908 82:0.00360856 83:0.00341679 84:0.00368728 85:0.00427306 86:0.00470045 87:0.00711899 88:0.00587786 89:0.00852301 90:0.0056305 91:0.00587853 92:0.00572904 93:0.00260597 94:0.00370751 95:0.00781293 96:0.00300649 97:0.00674449 98:0.0054138 99:0.00412339 100:0.00867556 101:0.00662428 102:0.00700259 103:0.00535629 104:0.00462797 105:0.00462142 106:0.005721 107:0.0046924 108:0.00671727 109:0.00440457 110:0.00535185 111:0.00358906 112:0.00275961 113:0.00260759 114:0.00296711 115:0.00263723 116:0.00478856 117:0.00300435 118:0.00307548 119:0.00253688 120:0.00321727 121:0.00344679 122:0.00272926 123:0.00268893 124:0.00491759 125:0.0068877 126:0.00290361 127:0.00267848 128:0.0129856 129:0.0125234 130:0.0161726 131:0.0353464 132:0.0481855 133:0.00978022 134:0.0167402 135:0.0126322 136:0.00323455 137:0.0040696 138:0.00698645 139:0.00540828 140:0.00318636 141:0.00354134 142:0.00347596 143:0.00317147 144:0.00296566 145:0.0026494 146:0.00887731 147:0.00277323 148:0.0336366 149:0.0441793 150:0.0359297 151:0.0248228 152:0.00737208 153:0.0176678 154:0.00257302 155:0.0 156:0.0 157:0.0 158:0.0 159:0.0 160:0.0161763 161:0.0252356 162:0.0479987 163:0.0654272 164:0.0522172 165:0.0 166:0.0425102 167:0.061585 168:0.0390691 169:0.0334485 170:0.0223189 171:0.0 172:0.0 173:0.0 174:0.0 175:0.0 176:0.0 177:0.0 178:0.0 179:0.0 180:0.0 181:0.0 182:0.0 183:0.0 184:0.0 185:0.0 186:0.0 187:0.0 188:0.0 189:0.0 190:0.0 191:0.0 192:0.0 193:0.0 194:0.0 195:0.0 196:0.0 197:0.0 198:0.00339491 199:0.0 200:0.0125925 201:0.0 202:0.0 203:0.0 204:0.0 205:0.0 206:0.00447037 207:0.0 208:0.0 209:0.0 210:0.0 211:0.0 212:0.0 213:0.0 214:0.0 215:0.0 216:0.0 217:0.0 218:0.0 219:0.00471787 220:0.0087831 221:0.0 222:0.0 223:0.0 224:0.0 225:0.0 226:0.0 227:0.029892 228:0.0178337 229:0.0 230:0.00509562 231:0.00462732 232:0.00996665 233:0.00363584 234:0.0 235:0.0 236:0.00328718 237:0.0 238:0.0 239:0.00271166 240:0.0 241:0.0 242:0.0 243:0.0 244:0.0 245:0.0 246:0.0 247:0.0 248:0.0 249:0.0 250:0.0 251:0.0 252:0.00697201 253:0.0 254:0.00383229 255:0.0 256:0.0 
1.0 1.0 1.0 1:0.00368756 2:0.00671109 3:0.0110418 4:0.00804892 5:0.00368102 6:0.00925473 7:0.00578224 8:0.0118538 9:0.00463972 10:0.0114777 11:0.00559496 12:0.232411 13:0.0027819 14:0.00469828 15:0.00608592 16:0.00671319 17:0.00944344 18:0.00393813 19:0.00337066 20:0.00466825 21:0.00345698 22:0.00864753 23:0.012022 24:0.00709799 25:0.00697124 26:0.051454 27:0.104286 28:0.00422563 29:0.00511451 30:0.00460714 31:0.0145257 32:0.0262651 33:0.0292436 34:0.0621043 35:0.0356293 36:0.0229866 37:0.0320361 38:0.0638857 39:0.0480235 40:0.043213 41:0.0278096 42:0.0101695 43:0.0155079 44:0.0252747 45:0.0328872 46:0.0514089 47:0.0508633 48:0.0241969 49:0.0330635 50:0.0673006 51:0.0527965 52:0.0402594 53:0.0286132 54:0.00785135 55:0.0162678 56:0.02074 57:0.0329903 58:0.0533568 59:0.0727074 60:0.00745571 61:0.0313654 62:0.0650481 63:0.0539309 64:0.0390527 65:0.0273264 66:0.00915926 67:0.0 68:0.0 69:0.0 70:0.0 71:0.0 72:0.0 73:0.0 74:0.0 75:0.0 76:0.0 77:0.0 78:0.0 79:0.0 80:0.0 81:0.0 82:0.0 83:0.0 84:0.0 85:0.0 86:0.0 87:0.0 88:0.0 89:0.0 90:0.0 91:0.0 92:0.0 93:0.0 94:0.0 95:0.0 96:0.0 97:0.0101135 98:0.0 99:0.0 100:0.0 101:0.0367224 102:0.0 103:0.0537244 104:0.0 105:0.047437 106:0.0719406 107:0.0182999 108:0.0221598 109:0.0115535 110:0.0 111:0.00628485 112:0.0 113:0.0 114:0.00302169 115:0.0 116:0.0 117:0.0 118:0.0 119:0.0 120:0.0 121:0.0 122:0.0 123:0.0 124:0.0 125:0.0 126:0.0 127:0.0 128:0.0 129:0.0 130:0.0 131:0.0 132:0.0 133:0.0 134:0.0 135:0.0 136:0.0 137:0.0 138:0.0 139:0.0 140:0.0 141:0.0 142:0.0 143:0.0 144:0.0 145:0.0 146:0.0 147:0.0 148:0.0 149:0.0 150:0.0 151:0.0 152:0.0 153:0.0 154:0.0 155:0.0 156:0.0 157:0.0 158:0.0 159:0.00864256 160:0.0 161:0.0 162:0.0404599 163:0.0388324 164:0.0 165:0.0 166:0.0 167:0.0775126 168:0.00806842 169:0.0175856 170:0.00789639 171:0.00284724 172:0.0 173:0.0 174:0.0 175:0.00283899 176:0.0 177:0.0 178:0.0 179:0.0 180:0.0 181:0.0 182:0.0 183:0.0 184:0.0 185:0.0 186:0.0 187:0.0 188:0.0 189:0.0 190:0.0 191:0.0 192:0.0 193:0.0 194:0.0 195:0.0 196:0.0 197:0.0 198:0.0 199:0.0 200:0.0 201:0.0 202:0.0 203:0.0 204:0.0 205:0.0 206:0.0 207:0.0 208:0.0 209:0.0 210:0.0 211:0.0 212:0.0 213:0.0 214:0.0 215:0.0 216:0.0 217:0.0 218:0.0 219:0.0043346 220:0.00798891 221:0.0118396 222:0.00744854 223:0.0186442 224:0.0190732 225:0.0 226:0.0 227:0.0 228:0.0195731 229:0.0177718 230:0.0174509 231:0.0145553 232:0.00573217 233:0.00368769 234:0.0 235:0.0 236:0.0 237:0.0 238:0.0 239:0.0 240:0.0 241:0.0 242:0.0 243:0.0 244:0.0 245:0.0 246:0.0 247:0.0 248:0.0 249:0.0 250:0.0 251:0.0 252:0.0 253:0.0 254:0.0 255:0.0 256:0.0 
1.0 1.0 0.0 1:0.00299066 2:0.013608 3:0.00726885 4:0.00643559 5:0.0107018 6:0.00690399 7:0.0328755 8:0.1017 9:0.0559763 10:0.0283455 11:0.0131681 12:0.00412245 13:0.00500535 14:0.00315567 15:0.00622252 16:0.00560657 17:0.00699784 18:0.00833913 19:0.0208343 20:0.0164545 21:0.0909374 22:0.0526569 23:0.026175 24:0.0317952 25:0.0142718 26:0.0198827 27:0.00294706 28:0.00442616 29:0.00817936 30:0.00789452 31:0.00476937 32:0.00286077 33:0.00329902 34:0.00436662 35:0.00336154 36:0.00748398 37:0.00431538 38:0.0354745 39:0.015457 40:0.134113 41:0.0641243 42:0.00444015 43:0.0088799 44:0.00785952 45:0.0200247 46:0.0105352 47:0.00651317 48:0.00435135 49:0.00641216 50:0.00277837 51:0.00282361 52:0.00271968 53:0.00286951 54:0.00393204 55:0.00386542 56:0.00316277 57:0.00425781 58:0.00619033 59:0.00597032 60:0.00482565 61:0.00730832 62:0.0284706 63:0.0479312 64:0.0403566 65:0.037838 66:0.054727 67:0.0334288 68:0.00890341 69:0.00517121 70:0.00304796 71:0.00462422 72:0.00604467 73:0.00471497 74:0.00303889 75:0.00401077 76:0.00416875 77:0.00311626 78:0.00300164 79:0.00279082 80:0.00305865 81:0.00325803 82:0.00338834 83:0.00256734 84:0.00443239 85:0.00439275 86:0.00283479 87:0.00421199 88:0.00695223 89:0.00640946 90:0.00434387 91:0.0076242 92:0.0301501 93:0.0504649 94:0.0427627 95:0.0401557 96:0.060832 97:0.037708 98:0.00919645 99:0.00352617 100:0.00312072 101:0.00727727 102:0.00556808 103:0.00368324 104:0.00509284 105:0.00346597 106:0.00290381 107:0.00381453 108:0.00708433 109:0.0529682 110:0.0362366 111:0.0150442 112:0.0239327 113:0.0059199 114:0.0125881 115:0.0179696 116:0.0158832 117:0.0159538 118:0.002553 119:0.00462353 120:0.0396257 121:0.0150678 122:0.0119192 123:0.0489162 124:0.0274181 125:0.00757516 126:0.00736784 127:0.00631389 128:0.00556687 129:0.00337146 130:0.031714 131:0.209358 132:0.134651 133:0.0923765 134:0.00544599 135:0.00439939 136:0.0129209 137:0.0692296 138:0.21115 139:0.104283 140:0.0087971 141:0.0102237 142:0.0148928 143:0.00919884 144:0.00274457 145:0.00286066 146:0.00359843 147:0.00325633 148:0.005429 149:0.00525233 150:0.00679356 151:0.0050967 152:0.0168476 153:0.0148561 154:0.00898358 155:0.0741281 156:0.0597043 157:0.0127075 158:0.00910033 159:0.00975237 160:0.0046707 161:0.00326301 162:0.00383834 163:0.00520471 164:0.00330239 165:0.00303343 166:0.00349551 167:0.00271357 168:0.00251141 169:0.0032722 170:0.00297579 171:0.00418839 172:0.00376599 173:0.00743594 174:0.00319778 175:0.0152374 176:0.0451632 177:0.0121578 178:0.0269442 179:0.00710092 180:0.0642294 181:0.0629551 182:0.0315271 183:0.00615393 184:0.00326792 185:0.0102193 186:0.00352847 187:0.00480944 188:0.00302787 189:0.00318255 190:0.00265591 191:0.00321336 192:0.00401952 193:0.0029076 194:0.00508064 195:0.00341155 196:0.0161043 197:0.0121222 198:0.030189 199:0.0102372 200:0.0119516 201:0.0605444 202:0.0194109 203:0.0081152 204:0.018871 205:0.00345164 206:0.00519457 207:0.00712214 208:0.00697287 209:0.00291249 210:0.00436734 211:0.0326478 212:0.0454444 213:0.0543057 214:0.017749 215:0.0105644 216:0.00422528 217:0.00681415 218:0.00624241 219:0.00479528 220:0.0032626 221:0.0158908 222:0.0272063 223:0.0575178 224:0.0564752 225:0.0638417 226:0.00697542 227:0.00581872 228:0.00564911 229:0.0100831 230:0.00943285 231:0.00303666 232:0.00445973 233:0.00343908 234:0.00741044 235:0.0059043 236:0.0165173 237:0.00977024 238:0.0058969 239:0.0578679 240:0.068166 241:0.364946 242:0.0602807 243:0.00396956 244:0.00298477 245:0.00478247 246:0.0113734 247:0.0187482 248:0.00666443 249:0.0129835 250:0.0172189 251:0.0212963 252:0.0472393 253:0.055581 254:0.0144986 255:0.194061 256:0.0257309 
1.0 1.0 1.0 1:0.00258228 2:0.00297575 3:0.00951244 4:0.00937371 5:0.00382781 6:0.00338247 7:0.00258538 8:0.00540289 9:0.00780397 10:0.0804111 11:0.0131847 12:0.00593345 13:0.00284387 14:0.00292822 15:0.00908862 16:0.00537596 17:0.00679758 18:0.00664149 19:0.00283166 20:0.00348811 21:0.00360282 22:0.00459572 23:0.00290858 24:0.00252321 25:0.0144903 26:0.0155296 27:0.00824918 28:0.0221398 29:0.0120048 30:0.00496091 31:0.003738 32:0.00411109 33:0.0079546 34:0.00526021 35:0.00366233 36:0.00663973 37:0.00339191 38:0.00359365 39:0.00354927 40:0.00484348 41:0.00421018 42:0.00718523 43:0.003761 44:0.00348505 45:0.00377597 46:0.00334736 47:0.00670207 48:0.00636511 49:0.0175048 50:0.00636016 51:0.0111081 52:0.0290085 53:0.0136288 54:0.0048022 55:0.00940933 56:0.00561962 57:0.00512927 58:0.00304265 59:0.00387979 60:0.00630584 61:0.00255174 62:0.00513047 63:0.00896772 64:0.00554279 65:0.00394231 66:0.008544 67:0.00524332 68:0.00454728 69:0.00350164 70:0.00366638 71:0.0068347 72:0.0185356 73:0.0135951 74:0.0197203 75:0.0366674 76:0.00947735 77:0.00392205 78:0.00387421 79:0.00952893 80:0.00414021 81:0.00405531 82:0.00659432 83:0.00651501 84:0.00539977 85:0.00265808 86:0.0102357 87:0.0088035 88:0.0109321 89:0.00273603 90:0.00576947 91:0.00318604 92:0.0 93:0.00432811 94:0.00408229 95:0.0 96:0.0 97:0.0 98:0.00798914 99:0.0 100:0.0 101:0.00259047 102:0.0 103:0.0 104:0.0 105:0.0306693 106:0.0 107:0.0 108:0.0184456 109:0.00550424 110:0.0181259 111:0.00334063 112:0.00491978 113:0.0 114:0.0 115:0.0 116:0.0 117:0.00718564 118:0.0 119:0.0 120:0.0 121:0.0 122:0.0 123:0.0 124:0.00387739 125:0.0035611 126:0.0 127:0.0 128:0.0 129:0.0 130:0.0070093 131:0.0 132:0.0 133:0.0 134:0.0 135:0.0 136:0.0 137:0.0 138:0.0 139:0.00929986 140:0.00658522 141:0.00295055 142:0.00409563 143:0.0 144:0.0 145:0.00464291 146:0.0 147:0.0 148:0.0 149:0.0 150:0.0 151:0.0 152:0.0 153:0.0 154:0.0 155:0.0 156:0.0 157:0.0 158:0.0 159:0.0110787 160:0.0 161:0.0 162:0.0 163:0.0 164:0.0 165:0.0 166:0.080874 167:0.01289 168:0.0 169:0.0081292 170:0.0 171:0.0 172:0.0 173:0.0 174:0.0 175:0.0 176:0.0 177:0.0 178:0.0 179:0.0 180:0.0 181:0.0 182:0.0 183:0.0 184:0.0 185:0.0 186:0.0 187:0.00415568 188:0.00309088 189:0.0 190:0.00488347 191:0.0 192:0.0 193:0.0 194:0.0 195:0.0 196:0.0 197:0.0 198:0.0 199:0.0 200:0.00795834 201:0.00797305 202:0.0 203:0.00345418 204:0.0034909 205:0.0 206:0.00608095 207:0.0 208:0.0 209:0.0 210:0.0 211:0.0 212:0.0 213:0.0 214:0.0 215:0.0 216:0.0 217:0.0 218:0.0 219:0.00385693 220:0.0141961 221:0.0 222:0.0 223:0.0 224:0.0 225:0.0 226:0.0 227:0.0800838 228:0.00508794 229:0.0 230:0.0 231:0.0 232:0.0 233:0.0 234:0.0 235:0.0 236:0.00262241 237:0.0 238:0.00352037 239:0.0 240:0.0 241:0.0 242:0.0 243:0.0 244:0.0 245:0.0 246:0.0 247:0.0 248:0.0 249:0.0 250:0.0 251:0.0 252:0.00341945 253:0.00250307 254:0.0 255:0.0 256:0.0 
1.0 1.0 1.0 1:0.0418729 2:0.216557 3:0.213901 4:0.0330804 5:0.00762933 6:0.0723151 7:0.204586 8:0.108817 9:0.0418725 10:0.0150841 11:0.00768921 12:0.00333059 13:0.0974414 14:0.0464232 15:0.0304002 16:0.0213121 17:0.0165854 18:0.0104431 19:0.0061281 20:0.00444811 21:0.0041661 22:0.00359117 23:0.00253279 24:0.00300632 25:0.0042103 26:0.00951744 27:0.0199573 28:0.00278841 29:0.0104162 30:0.0996573 31:0.0456712 32:0.0127473 33:0.00333974 34:0.00427703 35:0.00284928 36:0.00526241 37:0.00261625 38:0.00487214 39:0.0106467 40:0.00721357 41:0.0206502 42:0.00928489 43:0.0267518 44:0.0161572 45:0.01229 46:0.0609647 47:0.0821594 48:0.0198915 49:0.00647013 50:0.00530168 51:0.0032658 52:0.00323763 53:0.00267027 54:0.00356584 55:0.00306033 56:0.00586701 57:0.00440908 58:0.00774237 59:0.0207282 60:0.016776 61:0.00639858 62:0.0428503 63:0.0440022 64:0.0408746 65:0.00970338 66:0.00423067 67:0.00631297 68:0.00255702 69:0.00339243 70:0.0040187 71:0.00347385 72:0.00258802 73:0.00365881 74:0.00453772 75:0.00573056 76:0.00273601 77:0.00261706 78:0.00897307 79:0.00436961 80:0.0189903 81:0.00352472 82:0.0150766 83:0.0111543 84:0.0444041 85:0.0584992 86:0.134632 87:0.0906947 88:0.00281037 89:0.00445554 90:0.00886461 91:0.00324147 92:0.00532784 93:0.0060401 94:0.0262306 95:0.0415161 96:0.0202876 97:0.0105096 98:0.00925616 99:0.00695864 100:0.0435592 101:0.0296519 102:0.0144015 103:0.00516962 104:0.00559836 105:0.0217638 106:0.0269539 107:0.00884183 108:0.032737 109:0.0044943 110:0.0391543 111:0.00467062 112:0.0132614 113:0.0116192 114:0.00475685 115:0.00991669 116:0.0096121 117:0.0101746 118:0.00827265 119:0.0262589 120:0.0383729 121:0.0252746 122:0.0150054 123:0.00394445 124:0.00507495 125:0.00726628 126:0.00833693 127:0.00643946 128:0.0078755 129:0.0317044 130:0.0855639 131:0.0107416 132:0.00686433 133:0.00872898 134:0.00250282 135:0.00444173 136:0.00591135 137:0.00352196 138:0.00292451 139:0.00270711 140:0.0027107 141:0.00559681 142:0.00774073 143:0.00309808 144:0.00940199 145:0.0120033 146:0.0152344 147:0.036131 148:0.00852705 149:0.0317689 150:0.0498332 151:0.0385911 152:0.0403387 153:0.0033052 154:0.00338978 155:0.00271233 156:0.00252684 157:0.00283322 158:0.0030666 159:0.00308039 160:0.0044734 161:0.00425297 162:0.0180459 163:0.00692356 164:0.0480131 165:0.0659062 166:0.00323106 167:0.0532318 168:0.045627 169:0.0319905 170:0.0296617 171:0.00771492 172:0.0039995 173:0.00884731 174:0.0099626 175:0.0113372 176:0.0475806 177:0.0471147 178:0.0513806 179:0.00425046 180:0.0511346 181:0.0387909 182:0.0331367 183:0.022852 184:0.00698608 185:0.00264775 186:0.00355665 187:0.00442983 188:0.00573914 189:0.00616176 190:0.0071206 191:0.00810792 192:0.00488463 193:0.0310281 194:0.00481706 195:0.00611119 196:0.0123861 197:0.0138761 198:0.00929297 199:0.00930421 200:0.00611247 201:0.00457234 202:0.00283428 203:0.00897617 204:0.00803937 205:0.00548044 206:0.021378 207:0.124848 208:0.0763583 209:0.100005 210:0.096715 211:0.0337125 212:0.0055326 213:0.00851744 214:0.00726556 215:0.00315348 216:0.00329297 217:0.0246822 218:0.0354038 219:0.0108834 220:0.0400074 221:0.0237427 222:0.0113288 223:0.00313783 224:0.00392686 225:0.00878301 226:0.00996873 227:0.0285669 228:0.102919 229:0.0822333 230:0.0910018 231:0.0807303 232:0.0367625 233:0.00598868 234:0.0113531 235:0.00310956 236:0.0 237:0.0 238:0.0 239:0.0 240:0.0 241:0.0 242:0.0 243:0.0 244:0.0 245:0.0 246:0.0 247:0.0 248:0.0 249:0.0 250:0.0 251:0.0 252:0.0 253:0.0 254:0.0 255:0.0 256:0.0 
1.0 1.0 1.0 1:0.00473857 2:0.00539194 3:0.00277634 4:0.0152876 5:0.00664979 6:0.00321519 7:0.0056961 8:0.0051032 9:0.0262295 10:0.020123 11:0.046994 12:0.0089183 13:0.00770101 14:0.0401817 15:0.0487224 16:0.0104724 17:0.0116867 18:0.0131268 19:0.00757209 20:0.00968137 21:0.00396928 22:0.00457606 23:0.00602671 24:0.0118742 25:0.00402239 26:0.00284819 27:0.00450233 28:0.00581544 29:0.0057183 30:0.0093346 31:0.0295433 32:0.0112539 33:0.0303483 34:0.0109143 35:0.0117257 36:0.0107977 37:0.00359115 38:0.00670805 39:0.00832848 40:0.00513667 41:0.00295067 42:0.00596173 43:0.00385248 44:0.00264288 45:0.00904853 46:0.0134875 47:0.00730704 48:0.00406352 49:0.0103568 50:0.00696031 51:0.00473012 52:0.00420649 53:0.00917937 54:0.0218992 55:0.0569665 56:0.0202273 57:0.0102622 58:0.0161248 59:0.0036717 60:0.0191528 61:0.0126173 62:0.00567777 63:0.0081179 64:0.00476574 65:0.0036373 66:0.00645237 67:0.00527521 68:0.0152528 69:0.00310061 70:0.00675118 71:0.00404417 72:0.00358733 73:0.00323971 74:0.00474968 75:0.0117571 76:0.0031703 77:0.00421007 78:0.0125576 79:0.0342483 80:0.0408072 81:0.0277361 82:0.0128884 83:0.0121141 84:0.013798 85:0.0132142 86:0.00744348 87:0.0048112 88:0.00362094 89:0.00585182 90:0.00793056 91:0.00257432 92:0.00589045 93:0.00776571 94:0.0182128 95:0.0114183 96:0.00839571 97:0.00817512 98:0.00348264 99:0.00874686 100:0.00971011 101:0.00712075 102:0.0181609 103:0.03109 104:0.0840181 105:0.0445474 106:0.00658498 107:0.0042607 108:0.0083145 109:0.00327642 110:0.0136127 111:0.00400289 112:0.00324104 113:0.0043085 114:0.00440315 115:0.00362308 116:0.0108798 117:0.00417794 118:0.00341858 119:0.0149567 120:0.00610922 121:0.00593505 122:0.00329832 123:0.00643954 124:0.0345646 125:0.0336463 126:0.0145971 127:0.0417905 128:0.051754 129:0.0118653 130:0.00334225 131:0.00820462 132:0.00468188 133:0.00428861 134:0.0182695 135:0.00317084 136:0.00286812 137:0.00378449 138:0.00715547 139:0.00341274 140:0.00366766 141:0.0153571 142:0.0100553 143:0.00254489 144:0.00365358 145:0.00423808 146:0.0109745 147:0.00925049 148:0.0457059 149:0.0484451 150:0.0046177 151:0.021014 152:0.0542906 153:0.061586 154:0.0117036 155:0.0033378 156:0.016341 157:0.00597747 158:0.0105351 159:0.00322751 160:0.0153659 161:0.00998577 162:0.00670968 163:0.003309 164:0.00588771 165:0.0107838 166:0.00708483 167:0.00587714 168:0.031608 169:0.00484004 170:0.0519503 171:0.0360087 172:0.0660891 173:0.0547712 174:0.00841597 175:0.01483 176:0.00861662 177:0.0091482 178:0.0027687 179:0.00982121 180:0.0128884 181:0.00355309 182:0.0027524 183:0.00574037 184:0.0025335 185:0.00967996 186:0.00852455 187:0.0123991 188:0.00597371 189:0.0183483 190:0.0214613 191:0.0161306 192:0.0282971 193:0.0470104 194:0.0167043 195:0.0138838 196:0.00838049 197:0.00332419 198:0.0140028 199:0.00372523 200:0.00487558 201:0.00618466 202:0.00828352 203:0.0044528 204:0.00392863 205:0.00312813 206:0.00558182 207:0.00592137 208:0.0189937 209:0.0070137 210:0.00430769 211:0.00337543 212:0.00260814 213:0.00639164 214:0.00796686 215:0.00498384 216:0.00616739 217:0.0109999 218:0.010869 219:0.0085166 220:0.0385015 221:0.0591712 222:0.0391116 223:0.0172614 224:0.018522 225:0.00251881 226:0.0196066 227:0.0110499 228:0.0118012 229:0.0077413 230:0.011832 231:0.00452259 232:0.00330604 233:0.0140361 234:0.00375245 235:0.00394265 236:0.00326347 237:0.0041856 238:0.00365078 239:0.00685697 240:0.00647003 241:0.0120989 242:0.00782349 243:0.0483812 244:0.00959961 245:0.0336365 246:0.0364917 247:0.0177587 248:0.0117882 249:0.00646875 250:0.00268693 251:0.00574166 252:0.00362968 253:0.00417646 254:0.00294964 255:0.00346306 256:0.00516062 
1.0 1.0 1.0 1:0.0116653 2:0.00273421 3:0.00641417 4:0.00803873 5:0.00984029 6:0.0266817 7:0.0767524 8:0.108512 9:0.0637734 10:0.0228789 11:0.0121013 12:0.00874344 13:0.0081075 14:0.010339 15:0.00309816 16:0.00297617 17:0.00584271 18:0.00296725 19:0.00580576 20:0.00471087 21:0.00273588 22:0.00441579 23:0.0124218 24:0.00833311 25:0.0291564 26:0.0483993 27:0.0627354 28:0.00311828 29:0.00294032 30:0.0040257 31:0.00431793 32:0.00254759 33:0.0035956 34:0.00571382 35:0.00442446 36:0.0055342 37:0.005853 38:0.012837 39:0.00694854 40:0.00633988 41:0.00270059 42:0.00802315 43:0.0249202 44:0.0310702 45:0.0557508 46:0.00318026 47:0.00607029 48:0.00951474 49:0.00371102 50:0.00394013 51:0.00383456 52:0.00786977 53:0.0042353 54:0.00289671 55:0.00449257 56:0.00302279 57:0.00333188 58:0.0223581 59:0.00988403 60:0.00404456 61:0.00350604 62:0.00448536 63:0.00436796 64:0.00508068 65:0.0052146 66:0.0184184 67:0.0106167 68:0.00421884 69:0.00424668 70:0.00300101 71:0.00340225 72:0.00864402 73:0.00902907 74:0.00426556 75:0.00299602 76:0.0119244 77:0.0150599 78:0.00417029 79:0.0100331 80:0.00375537 81:0.00340303 82:0.0145824 83:0.0186502 84:0.00404654 85:0.00653023 86:0.00290231 87:0.00367881 88:0.00284677 89:0.0105728 90:0.00560058 91:0.00471236 92:0.00267505 93:0.0172284 94:0.00734222 95:0.00441835 96:0.004876 97:0.00904279 98:0.00476333 99:0.0105162 100:0.0210131 101:0.0160504 102:0.004754 103:0.00314342 104:0.00496285 105:0.013771 106:0.00354128 107:0.00270596 108:0.00681867 109:0.00502664 110:0.0204354 111:0.0122726 112:0.00417812 113:0.00546083 114:0.00634035 115:0.00507077 116:0.0034009 117:0.0150883 118:0.0520577 119:0.0110924 120:0.00313666 121:0.00459713 122:0.00681468 123:0.0029959 124:0.0 125:0.0 126:0.0 127:0.0 128:0.0 129:0.00643389 130:0.0124186 131:0.0 132:0.0 133:0.00401375 134:0.0 135:0.0 136:0.00381241 137:0.00304291 138:0.0 139:0.0214537 140:0.00591625 141:0.0 142:0.0 143:0.0 144:0.0 145:0.0025075 146:0.0 147:0.0 148:0.0 149:0.0 150:0.0 151:0.00639453 152:0.0 153:0.0 154:0.0 155:0.0 156:0.0 157:0.0 158:0.0 159:0.0155361 160:0.0 161:0.0 162:0.0 163:0.0 164:0.0 165:0.0 166:0.0917137 167:0.0 168:0.0 169:0.0 170:0.0 171:0.0117304 172:0.0 173:0.0 174:0.0 175:0.0 176:0.0 177:0.0 178:0.0 179:0.00465131 180:0.0 181:0.0 182:0.0 183:0.0 184:0.0 185:0.0 186:0.0 187:0.0 188:0.0 189:0.0 190:0.00567321 191:0.00907736 192:0.0 193:0.0 194:0.00444826 195:0.00450553 196:0.00418782 197:0.0 198:0.00371904 199:0.0 200:0.0212784 201:0.0128345 202:0.00273881 203:0.0 204:0.0 205:0.0 206:0.0 207:0.0 208:0.0 209:0.0 210:0.0 211:0.0 212:0.0 213:0.0 214:0.0 215:0.00741292 216:0.0 217:0.00919179 218:0.0 219:0.0 220:0.0138916 221:0.0 222:0.0 223:0.0 224:0.0 225:0.0 226:0.0 227:0.0170461 228:0.0 229:0.0 230:0.0 231:0.0 232:0.00867518 233:0.0 234:0.0 235:0.0 236:0.0 237:0.0069343 238:0.0 239:0.0 240:0.00271804 241:0.00287208 242:0.00289004 243:0.00721609 244:0.0 245:0.0 246:0.0 247:0.0 248:0.0 249:0.0 250:0.00252156 251:0.0101758 252:0.0107001 253:0.0 254:0.0 255:0.0 256:0.0 
1.0 1.0 1.0 1:0.00418929 2:0.00762821 3:0.00442078 4:0.00390097 5:0.0042783 6:0.00585497 7:0.00426169 8:0.0097482 9:0.0211164 10:0.0510349 11:0.0593754 12:0.00349358 13:0.0130121 14:0.0035308 15:0.00497347 16:0.00320482 17:0.00381276 18:0.00456682 19:0.00554168 20:0.00604533 21:0.00283185 22:0.00376843 23:0.00514398 24:0.015733 25:0.0541411 26:0.00580559 27:0.0960957 28:0.0404525 29:0.0167268 30:0.0151526 31:0.0135313 32:0.0152378 33:0.00406463 34:0.00267241 35:0.00439678 36:0.00450143 37:0.00320739 38:0.00273071 39:0.00846711 40:0.0319089 41:0.0166332 42:0.0800987 43:0.0437959 44:0.0542832 45:0.0296162 46:0.0512863 47:0.00711125 48:0.0332513 49:0.01626 50:0.00735997 51:0.0108282 52:0.00361087 53:0.00591835 54:0.00318628 55:0.00304542 56:0.00258903 57:0.0078594 58:0.00452652 59:0.00315856 60:0.00265516 61:0.0664451 62:0.0548815 63:0.038543 64:0.0600172 65:0.0383825 66:0.0089462 67:0.0401412 68:0.0160016 69:0.0058951 70:0.01256 71:0.00979237 72:0.0035779 73:0.00575757 74:0.00528851 75:0.00275868 76:0.00632474 77:0.0296635 78:0.0393893 79:0.033686 80:0.0994149 81:0.0710921 82:0.0329183 83:0.0222223 84:0.019584 85:0.00800767 86:0.00491043 87:0.00743237 88:0.00897993 89:0.00687751 90:0.00410237 91:0.00684083 92:0.00662466 93:0.010283 94:0.0464128 95:0.0937352 96:0.126525 97:0.0682156 98:0.0707699 99:0.0325967 100:0.00390065 101:0.00385588 102:0.020961 103:0.0587521 104:0.0611572 105:0.0121226 106:0.00667351 107:0.00384275 108:0.00311655 109:0.00325985 110:0.00471806 111:0.0110107 112:0.051274 113:0.0119371 114:0.195585 115:0.171025 116:0.0451162 117:0.0147353 118:0.00283452 119:0.00294444 120:0.00443236 121:0.002537 122:0.0167133 123:0.0184254 124:0.0216117 125:0.0484907 126:0.0383328 127:0.0143155 128:0.0250011 129:0.00367218 130:0.00277229 131:0.00373872 132:0.00494168 133:0.00251691 134:0.00299398 135:0.00577521 136:0.00624366 137:0.0353856 138:0.0384685 139:0.00588712 140:0.0369919 141:0.0203286 142:0.0100427 143:0.00470984 144:0.0031623 145:0.00390551 146:0.00357996 147:0.00513439 148:0.00532302 149:0.0 150:0.0 151:0.0 152:0.00997136 153:0.0 154:0.00897066 155:0.0 156:0.0 157:0.0 158:0.0 159:0.0 160:0.017701 161:0.0 162:0.0228062 163:0.0 164:0.0 165:0.0 166:0.00286328 167:0.0 168:0.0259102 169:0.0 170:0.0214313 171:0.0 172:0.0 173:0.0 174:0.00267485 175:0.0 176:0.00971079 177:0.0 178:0.00787835 179:0.0 180:0.0 181:0.0 182:0.0 183:0.0 184:0.00592902 185:0.0 186:0.00458803 187:0.0 188:0.0 189:0.0 190:0.0 191:0.0 192:0.00410578 193:0.0 194:0.00355378 195:0.0 196:0.0 197:0.0 198:0.0 199:0.0 200:0.0 201:0.0 202:0.0 203:0.0 204:0.0 205:0.0 206:0.0 207:0.0 208:0.0 209:0.0 210:0.0 211:0.0 212:0.00302527 213:0.00286163 214:0.00350003 215:0.0 216:0.0 217:0.0 218:0.0 219:0.0 220:0.00341478 221:0.00963081 222:0.00620696 223:0.0165547 224:0.0198973 225:0.0 226:0.0 227:0.0 228:0.0181458 229:0.0158932 230:0.0160995 231:0.0118641 232:0.00371777 233:0.0 234:0.0 235:0.0 236:0.0 237:0.0 238:0.0 239:0.0 240:0.0 241:0.0 242:0.0 243:0.0 244:0.0 245:0.0 246:0.0 247:0.0 248:0.0 249:0.0 250:0.0 251:0.0 252:0.0 253:0.0 254:0.0 255:0.0 256:0.0 
1.0 1.0 1.0 1:0.00572235 2:0.00360822 3:0.0386497 4:0.0286182 5:0.0423145 6:0.0394783 7:0.0185662 8:0.0141435 9:0.00945678 10:0.00667411 11:0.0053175 12:0.00294445 13:0.00308603 14:0.00498686 15:0.00271157 16:0.00787387 17:0.0562494 18:0.0200528 19:0.0214282 20:0.0355696 21:0.0171053 22:0.151326 23:0.0909619 24:0.0185347 25:0.00340818 26:0.0025166 27:0.00336101 28:0.00385071 29:0.00274194 30:0.0311883 31:0.0182573 32:0.0653615 33:0.0299095 34:0.113938 35:0.0120465 36:0.00576916 37:0.0113965 38:0.0116367 39:0.00382703 40:0.00282179 41:0.00272772 42:0.00265195 43:0.00415058 44:0.00595378 45:0.0143663 46:0.0131035 47:0.0339579 48:0.0438955 49:0.0748253 50:0.062298 51:0.039132 52:0.0169954 53:0.0131524 54:0.00905588 55:0.00544832 56:0.00440867 57:0.00407508 58:0.00465674 59:0.00338014 60:0.00264648 61:0.00294022 62:0.00474044 63:0.00507003 64:0.00338438 65:0.00381231 66:0.0863507 67:0.0570906 68:0.0044224 69:0.0363023 70:0.014922 71:0.043219 72:0.00903193 73:0.0204266 74:0.00294484 75:0.00903086 76:0.0131586 77:0.00650411 78:0.00730419 79:0.00378688 80:0.00725211 81:0.00353817 82:0.00303496 83:0.00267023 84:0.0271559 85:0.0445545 86:0.0541843 87:0.118089 88:0.0809768 89:0.0205449 90:0.0239028 91:0.0212176 92:0.0160432 93:0.0119122 94:0.00274702 95:0.00399774 96:0.00488249 97:0.00652018 98:0.00377498 99:0.00265023 100:0.0360017 101:0.0596866 102:0.0936963 103:0.0773163 104:0.0768255 105:0.0271902 106:0.0107589 107:0.00994113 108:0.00366683 109:0.00465496 110:0.00333178 111:0.00648049 112:0.00327575 113:0.00632324 114:0.0611357 115:0.106075 116:0.19625 117:0.0561842 118:0.0295409 119:0.00552685 120:0.00738598 121:0.00484922 122:0.00279784 123:0.0829958 124:0.120967 125:0.0550378 126:0.0281746 127:0.0284636 128:0.0095943 129:0.00754644 130:0.00250466 131:0.00306207 132:0.00259381 133:0.00364103 134:0.00321516 135:0.00516409 136:0.00448225 137:0.00822718 138:0.00332749 139:0.00699966 140:0.0194971 141:0.0160871 142:0.0590554 143:0.00955772 144:0.0246911 145:0.00910369 146:0.00713461 147:0.00822616 148:0.00436305 149:0.00406365 150:0.00495924 151:0.00252893 152:0.00357788 153:0.00712334 154:0.0056571 155:0.00398448 156:0.00874342 157:0.00689804 158:0.00651878 159:0.0139237 160:0.0110193 161:0.0161966 162:0.0347281 163:0.0371924 164:0.0192856 165:0.0558564 166:0.0232066 167:0.00383015 168:0.00859678 169:0.0150261 170:0.00920281 171:0.0045235 172:0.00901832 173:0.00565549 174:0.00407078 175:0.0056529 176:0.00410332 177:0.00278927 178:0.00403901 179:0.00361548 180:0.00391205 181:0.00504916 182:0.0242905 183:0.0718349 184:0.0449573 185:0.00261506 186:0.00369654 187:0.0039152 188:0.00253805 189:0.00281582 190:0.00410636 191:0.00267114 192:0.00664413 193:0.00676207 194:0.00299236 195:0.00506056 196:0.0217623 197:0.00318256 198:0.0609826 199:0.0506779 200:0.107884 201:0.0459124 202:0.00491533 203:0.00354369 204:0.00350549 205:0.0027231 206:0.00316467 207:0.00297341 208:0.00272961 209:0.009818 210:0.0142006 211:0.0127325 212:0.00440217 213:0.00668731 214:0.02708 215:0.031841 216:0.0135451 217:0.00278808 218:0.0113814 219:0.0313887 220:0.0158987 221:0.00375094 222:0.0399415 223:0.0839106 224:0.0419658 225:0.0137072 226:0.00629612 227:0.00541966 228:0.00378195 229:0.0234383 230:0.00401109 231:0.0115708 232:0.0507827 233:0.0176052 234:0.0361199 235:0.0259353 236:0.00254445 237:0.00456404 238:0.00770753 239:0.0130757 240:0.0101614 241:0.0247829 242:0.0286653 243:0.0303255 244:0.0250534 245:0.0223416 246:0.0155117 247:0.00561915 248:0.00298742 249:0.00257159 250:0.00340708 251:0.00420788 252:0.00432491 253:0.00626868 254:0.00853609 255:0.00389031 256:0.00472633 
1.0 1.0 1.0 1:0.00390417 2:0.00426487 3:0.00291197 4:0.00540932 5:0.0278845 6:0.014125 7:0.0151509 8:0.137114 9:0.0519238 10:0.018475 11:0.0425678 12:0.00402832 13:0.0299896 14:0.0181855 15:0.00626758 16:0.0116282 17:0.00604482 18:0.00502438 19:0.00308812 20:0.00317869 21:0.00382933 22:0.00334497 23:0.00397485 24:0.00558833 25:0.00367931 26:0.00355732 27:0.00290005 28:0.00372173 29:0.00449455 30:0.00323937 31:0.00361944 32:0.0028677 33:0.00257942 34:0.032247 35:0.0759516 36:0.0337583 37:0.00954422 38:0.0166067 39:0.00762222 40:0.00591214 41:0.00328556 42:0.0032235 43:0.00262189 44:0.00427477 45:0.00303615 46:0.00810022 47:0.0039658 48:0.0081061 49:0.0495631 50:0.116933 51:0.11207 52:0.0447584 53:0.0304355 54:0.0301373 55:0.00334826 56:0.0129328 57:0.022021 58:0.0348129 59:0.00829231 60:0.066399 61:0.0317758 62:0.0152962 63:0.0473526 64:0.00325207 65:0.00705269 66:0.00816205 67:0.0169786 68:0.0768045 69:0.0169685 70:0.0102792 71:0.0064271 72:0.00438371 73:0.00660653 74:0.00539422 75:0.004184 76:0.00386388 77:0.00352821 78:0.00267976 79:0.00353255 80:0.00273287 81:0.00257829 82:0.00272648 83:0.136925 84:0.119735 85:0.0250614 86:0.0220238 87:0.00301168 88:0.00672079 89:0.00253571 90:0.00355109 91:0.0031289 92:0.00359915 93:0.00443873 94:0.00320036 95:0.00657584 96:0.00411361 97:0.012052 98:0.184196 99:0.0284407 100:0.0310373 101:0.0128982 102:0.00543591 103:0.00913633 104:0.00514471 105:0.00275699 106:0.00534878 107:0.00311321 108:0.00383917 109:0.004135 110:0.00543893 111:0.00564841 112:0.0079527 113:0.00344576 114:0.00846175 115:0.0129539 116:0.0053497 117:0.0143357 118:0.0354265 119:0.0280272 120:0.0240035 121:0.08086 122:0.0381871 123:0.0121603 124:0.014446 125:0.0143847 126:0.00495534 127:0.00804313 128:0.00856717 129:0.00318752 130:0.00524385 131:0.00624305 132:0.00265832 133:0.00312028 134:0.00408591 135:0.00703282 136:0.00314191 137:0.0284122 138:0.0252036 139:0.0427538 140:0.0599244 141:0.00666042 142:0.00418951 143:0.00417686 144:0.00295039 145:0.00267437 146:0.00533776 147:0.0361498 148:0.0269892 149:0.0670624 150:0.047234 151:0.0240825 152:0.0249685 153:0.00258793 154:0.0392777 155:0.0252012 156:0.154293 157:0.0207508 158:0.0228642 159:0.00294216 160:0.00427971 161:0.0081673 162:0.0336897 163:0.053018 164:0.247309 165:0.0576562 166:0.0027472 167:0.00390852 168:0.00402076 169:0.00568647 170:0.00450437 171:0.0046687 172:0.0149705 173:0.00762093 174:0.00327215 175:0.0138449 176:0.0474544 177:0.0305484 178:0.0049831 179:0.0974204 180:0.0475386 181:0.00356264 182:0.00261272 183:0.00390856 184:0.00338955 185:0.0049454 186:0.00543959 187:0.00696264 188:0.0178962 189:0.0459877 190:0.023244 191:0.0213143 192:0.016129 193:0.0176376 194:0.0123445 195:0.0184846 196:0.00821758 197:0.00332658 198:0.00657724 199:0.00386588 200:0.00428631 201:0.00276386 202:0.00335645 203:0.00356997 204:0.00413876 205:0.00566574 206:0.00799073 207:0.0164179 208:0.0134871 209:0.00703716 210:0.0311917 211:0.0406302 212:0.00715602 213:0.00729398 214:0.0121926 215:0.00847801 216:0.00540333 217:0.00492869 218:0.00347022 219:0.0033874 220:0.00254591 221:0.00648674 222:0.00529901 223:0.00387782 224:0.00272842 225:0.0066688 226:0.00911792 227:0.00394018 228:0.0103631 229:0.0108475 230:0.0109257 231:0.0222709 232:0.00729226 233:0.0235605 234:0.0429662 235:0.0327766 236:0.0337547 237:0.0357174 238:0.0157637 239:0.00442689 240:0.00621676 241:0.00854214 242:0.00867933 243:0.0102107 244:0.00362034 245:0.041799 246:0.0277185 247:0.0158157 248:0.00487144 249:0.0033498 250:0.00379949 251:0.00519858 252:0.00466449 253:0.00391239 254:0.0335289 255:0.0786129 256:0.0321145 
1.0 1.0 1.0 1:0.00268496 2:0.0026057 3:0.00600709 4:0.00313139 5:0.00448993 6:0.00370586 7:0.00333366 8:0.0103148 9:0.00731526 10:0.0145284 11:0.0457458 12:0.0461723 13:0.0367274 14:0.0197514 15:0.0038624 16:0.00557613 17:0.00290364 18:0.00657778 19:0.0083318 20:0.00506247 21:0.00427687 22:0.0045781 23:0.00580967 24:0.00381645 25:0.00261667 26:0.00489014 27:0.0039258 28:0.0120287 29:0.0757904 30:0.0240488 31:0.0310211 32:0.0463171 33:0.0134157 34:0.00606951 35:0.00352729 36:0.00426207 37:0.00863821 38:0.00672103 39:0.00375293 40:0.0066411 41:0.00400671 42:0.00349227 43:0.0117671 44:0.0204859 45:0.115376 46:0.0338966 47:0.0075431 48:0.00867538 49:0.0375584 50:0.0294374 51:0.0102528 52:0.00686707 53:0.00851835 54:0.00533046 55:0.00599315 56:0.00298274 57:0.115895 58:0.0625951 59:0.00922776 60:0.0153596 61:0.0183818 62:0.0218197 63:0.0311579 64:0.0042395 65:0.00357499 66:0.00869073 67:0.00726238 68:0.00586036 69:0.00433238 70:0.0025175 71:0.0051599 72:0.0130374 73:0.113716 74:0.157178 75:0.0539856 76:0.010415 77:0.0235676 78:0.0387686 79:0.0119224 80:0.00851566 81:0.00572198 82:0.00639653 83:0.0518441 84:0.135242 85:0.0438955 86:0.0234267 87:0.0310485 88:0.0122103 89:0.0113079 90:0.00546078 91:0.00495245 92:0.00459599 93:0.00270397 94:0.00572921 95:0.00266852 96:0.00284062 97:0.00402373 98:0.00316341 99:0.00534095 100:0.00611496 101:0.00640675 102:0.0294478 103:0.109574 104:0.0567006 105:0.0429832 106:0.00652544 107:0.0051085 108:0.0116372 109:0.00411782 110:0.00760145 111:0.00262114 112:0.00362885 113:0.00368127 114:0.00382505 115:0.003016 116:0.00324819 117:0.00257791 118:0.00558362 119:0.00301862 120:0.00822956 121:0.0300625 122:0.00341162 123:0.0288596 124:0.0718729 125:0.00527556 126:0.03726 127:0.00914569 128:0.0132313 129:0.00984684 130:0.0124187 131:0.00444566 132:0.00386898 133:0.00642712 134:0.00385163 135:0.00352601 136:0.00310182 137:0.00531853 138:0.00437031 139:0.00688786 140:0.00292833 141:0.00579822 142:0.0107457 143:0.00432641 144:0.00332179 145:0.0370882 146:0.0271092 147:0.0535924 148:0.0437424 149:0.0159321 150:0.0109019 151:0.0141957 152:0.00697743 153:0.0056282 154:0.00809201 155:0.00514025 156:0.00412184 157:0.177462 158:0.00664144 159:0.0389295 160:0.0139195 161:0.0225965 162:0.0130266 163:0.0041767 164:0.00355337 165:0.0031424 166:0.00306248 167:0.0105584 168:0.0130987 169:0.283544 170:0.149544 171:0.0380225 172:0.0082901 173:0.00251315 174:0.0030399 175:0.00370141 176:0.00396029 177:0.00439424 178:0.00359855 179:0.00517133 180:0.0173039 181:0.0046274 182:0.0147212 183:0.0208019 184:0.0137852 185:0.00939452 186:0.00334736 187:0.0254778 188:0.00661754 189:0.00447849 190:0.00349064 191:0.00363962 192:0.00308089 193:0.00291864 194:0.00851569 195:0.00448278 196:0.023578 197:0.021075 198:0.0540841 199:0.101783 200:0.0531502 201:0.0121784 202:0.0031239 203:0.00531513 204:0.0026627 205:0.00888911 206:0.00333791 207:0.00367194 208:0.00450374 209:0.0154888 210:0.0862442 211:0.0892471 212:0.0618055 213:0.00451976 214:0.00571016 215:0.0034755 216:0.00267057 217:0.0034609 218:0.0100201 219:0.0153979 220:0.0303963 221:0.00506903 222:0.0511815 223:0.0323174 224:0.00251784 225:0.00773697 226:0.00531394 227:0.00319671 228:0.00320393 229:0.00376488 230:0.00359297 231:0.00803538 232:0.00945642 233:0.0207767 234:0.0202438 235:0.0205466 236:0.0491526 237:0.0374835 238:0.220464 239:0.0324895 240:0.00957868 241:0.00295022 242:0.00318575 243:0.00323211 244:0.00693072 245:0.00644413 246:0.00268671 247:0.00389831 248:0.00294264 249:0.00973571 250:0.0128149 251:0.0158489 252:0.00883181 253:0.00481649 254:0.0149419 255:0.0422483 256:0.0818277 
1.0 1.0 1.0 1:0.0040119 2:0.00476416 3:0.00250203 4:0.00379676 5:0.00427754 6:0.00567925 7:0.00523943 8:0.00408918 9:0.00817354 10:0.0151 11:0.0136153 12:0.0203554 13:0.0339371 14:0.0230295 15:0.183857 16:0.0479942 17:0.0305671 18:0.00708704 19:0.0037713 20:0.00559376 21:0.0101647 22:0.0134207 23:0.00474817 24:0.0281037 25:0.0360153 26:0.0455023 27:0.0115536 28:0.0773744 29:0.0651835 30:0.00616462 31:0.00520695 32:0.00672833 33:0.00408019 34:0.00429906 35:0.00261743 36:0.00364362 37:0.00845747 38:0.00285733 39:0.00554903 40:0.0118997 41:0.00666286 42:0.017248 43:0.0304606 44:0.0053511 45:0.0669388 46:0.0661934 47:0.0971416 48:0.0114734 49:0.0239554 50:0.00345528 51:0.00558551 52:0.00374486 53:0.00332514 54:0.0035284 55:0.00459806 56:0.00524063 57:0.00759673 58:0.00798146 59:0.00396668 60:0.00392144 61:0.00708324 62:0.0451206 63:0.0246649 64:0.0222088 65:0.0440437 66:0.0143599 67:0.00315503 68:0.00817584 69:0.0072033 70:0.00531883 71:0.0043605 72:0.003626 73:0.00328579 74:0.0040187 75:0.00462721 76:0.0171904 77:0.0443244 78:0.0152967 79:0.0160306 80:0.0414271 81:0.0163395 82:0.00442666 83:0.0096949 84:0.00440871 85:0.00370054 86:0.00277644 87:0.00692768 88:0.00567697 89:0.0123221 90:0.032722 91:0.0772702 92:0.146198 93:0.0273948 94:0.0403367 95:0.00885917 96:0.011291 97:0.00726831 98:0.0487392 99:0.0422031 100:0.0302995 101:0.0204398 102:0.0133489 103:0.00475563 104:0.00363784 105:0.00491223 106:0.00283113 107:0.0314292 108:0.0529034 109:0.0539622 110:0.0229433 111:0.00966003 112:0.00270111 113:0.00349119 114:0.00288228 115:0.00334259 116:0.00375756 117:0.00475738 118:0.00473633 119:0.00425397 120:0.00510769 121:0.00778047 122:0.00778805 123:0.00727925 124:0.0110955 125:0.0155545 126:0.0265011 127:0.058241 128:0.072552 129:0.0260546 130:0.0149392 131:0.0114337 132:0.00788935 133:0.00951738 134:0.00717484 135:0.00490274 136:0.00524857 137:0.00613529 138:0.00462085 139:0.00352211 140:0.00447501 141:0.00361028 142:0.00342708 143:0.00498913 144:0.0036626 145:0.00462378 146:0.00777935 147:0.00569313 148:0.00380357 149:0.0123438 150:0.00944746 151:0.0156892 152:0.0327766 153:0.0526378 154:0.0429002 155:0.00688014 156:0.00942303 157:0.00574829 158:0.00590625 159:0.0124278 160:0.00627501 161:0.011749 162:0.00634047 163:0.00546656 164:0.00296138 165:0.00261457 166:0.00584136 167:0.00454548 168:0.00463665 169:0.00299929 170:0.00476762 171:0.00430301 172:0.0136534 173:0.0118666 174:0.0165725 175:0.018751 176:0.00652929 177:0.00845152 178:0.0182502 179:0.0228055 180:0.00862856 181:0.00521604 182:0.0 183:0.0 184:0.00739256 185:0.0 186:0.0 187:0.0 188:0.0 189:0.0 190:0.00426498 191:0.00306138 192:0.0 193:0.0 194:0.0 195:0.0 196:0.0 197:0.00444498 198:0.00453244 199:0.0076901 200:0.0179135 201:0.00427404 202:0.0 203:0.0 204:0.0 205:0.0 206:0.0 207:0.0 208:0.0 209:0.00296286 210:0.0 211:0.0 212:0.00585154 213:0.0 214:0.0 215:0.0 216:0.0 217:0.0 218:0.0140373 219:0.00790428 220:0.0132207 221:0.0 222:0.0 223:0.0 224:0.0 225:0.0 226:0.0 227:0.0 228:0.0 229:0.0 230:0.0 231:0.0 232:0.0154227 233:0.0262072 234:0.0657511 235:0.0360587 236:0.0 237:0.0 238:0.0 239:0.0 240:0.0 241:0.0 242:0.0 243:0.0118041 244:0.00513882 245:0.0 246:0.00465796 247:0.0 248:0.0 249:0.0 250:0.0 251:0.00370349 252:0.0103425 253:0.00318097 254:0.0 255:0.0 256:0.0 
1.0 1.0 1.0 1:0.00534912 2:0.00328384 3:0.00325663 4:0.00415689 5:0.00317558 6:0.0032881 7:0.0050145 8:0.00946854 9:0.00858305 10:0.0118429 11:0.0124518 12:0.0202551 13:0.0204659 14:0.0460614 15:0.0153693 16:0.0946547 17:0.00284343 18:0.0119607 19:0.00817421 20:0.00578586 21:0.00400236 22:0.00606815 23:0.0622348 24:0.15735 25:0.0512123 26:0.00699046 27:0.00333444 28:0.0169722 29:0.0311616 30:0.0407463 31:0.0644898 32:0.0754338 33:0.0426701 34:0.0342813 35:0.0671858 36:0.052122 37:0.0373501 38:0.0201481 39:0.00475285 40:0.00369312 41:0.0157184 42:0.0302131 43:0.0411534 44:0.0665608 45:0.0807316 46:0.0356566 47:0.0332213 48:0.0680289 49:0.0533348 50:0.0383136 51:0.0205917 52:0.00411613 53:0.00397695 54:0.0088303 55:0.0114924 56:0.0041172 57:0.00399521 58:0.00357868 59:0.00451383 60:0.00409408 61:0.0065036 62:0.00837115 63:0.0029858 64:0.0 65:0.0 66:0.0 67:0.0 68:0.0 69:0.00675157 70:0.0043382 71:0.0 72:0.00360778 73:0.0 74:0.0 75:0.00264607 76:0.0 77:0.00802626 78:0.0119245 79:0.00562588 80:0.00579241 81:0.00275214 82:0.0 83:0.00330838 84:0.00425945 85:0.0 86:0.0 87:0.0 88:0.0 89:0.00450695 90:0.00506688 91:0.0 92:0.0 93:0.00329004 94:0.0 95:0.00359369 96:0.0 97:0.0 98:0.0106772 99:0.00470485 100:0.0 101:0.0 102:0.0 103:0.0 104:0.0 105:0.0 106:0.0 107:0.0 108:0.0 109:0.0 110:0.0 111:0.0 112:0.0 113:0.0 114:0.0 115:0.0 116:0.0 117:0.0 118:0.0 119:0.0 120:0.00463591 121:0.0 122:0.0 123:0.0 124:0.00273174 125:0.0 126:0.0 127:0.0 128:0.0 129:0.00736064 130:0.00966297 131:0.0 132:0.0 133:0.0 134:0.00330693 135:0.0 136:0.0029039 137:0.00441984 138:0.0 139:0.0293433 140:0.00967512 141:0.0 142:0.0 143:0.0 144:0.0 145:0.00672063 146:0.0 147:0.0 148:0.0 149:0.0 150:0.0 151:0.00814335 152:0.0 153:0.00559335 154:0.0 155:0.0 156:0.0 157:0.0 158:0.0 159:0.0263585 160:0.0 161:0.0 162:0.0 163:0.0 164:0.0 165:0.0 166:0.0 167:0.0 168:0.0 169:0.0 170:0.0 171:0.0104783 172:0.0 173:0.0 174:0.0 175:0.0 176:0.0 177:0.0 178:0.00551569 179:0.00383931 180:0.0 181:0.00259074 182:0.0 183:0.0 184:0.0 185:0.00744609 186:0.0 187:0.0 188:0.0 189:0.0 190:0.00403506 191:0.0175036 192:0.00750183 193:0.0 194:0.0 195:0.00259199 196:0.00536414 197:0.00603536 198:0.0076464 199:0.00833 200:0.0220924 201:0.0175038 202:0.00253961 203:0.0 204:0.0 205:0.0 206:0.00748148 207:0.0 208:0.0 209:0.0 210:0.0 211:0.0 212:0.00909441 213:0.00673759 214:0.0 215:0.0 216:0.0 217:0.0 218:0.0 219:0.00806171 220:0.0156467 221:0.0 222:0.0 223:0.0 224:0.0 225:0.0 226:0.0 227:0.0 228:0.0 229:0.0 230:0.0 231:0.0 232:0.00834895 233:0.0 234:0.0 235:0.0 236:0.0 237:0.0 238:0.0 239:0.00362061 240:0.00460016 241:0.0 242:0.0 243:0.0 244:0.0 245:0.0 246:0.0 247:0.0 248:0.0 249:0.0 250:0.0 251:0.0127637 252:0.0121477 253:0.0 254:0.0 255:0.0 256:0.0 
1.0 1.0 1.0 1:0.00319005 2:0.00589792 3:0.0504053 4:0.229516 5:0.0334381 6:0.0207352 7:0.010961 8:0.015691 9:0.00357804 10:0.00556613 11:0.0289576 12:0.0629378 13:0.13416 14:0.0436192 15:0.0295205 16:0.0266273 17:0.0138916 18:0.00426702 19:0.00358572 20:0.0107468 21:0.00335633 22:0.00320736 23:0.00378949 24:0.00379191 25:0.0046216 26:0.00630091 27:0.00705141 28:0.00346425 29:0.00642055 30:0.0384947 31:0.0075425 32:0.0485739 33:0.0465454 34:0.0142928 35:0.0116007 36:0.00531875 37:0.00605451 38:0.00767099 39:0.00362472 40:0.00439338 41:0.00433358 42:0.0030324 43:0.00338069 44:0.00451286 45:0.00525623 46:0.00577382 47:0.00681456 48:0.00945286 49:0.0111988 50:0.00722642 51:0.0110606 52:0.0527272 53:0.0482569 54:0.0598189 55:0.0231156 56:0.0165876 57:0.00291155 58:0.00904394 59:0.0111121 60:0.00414808 61:0.00606995 62:0.00633088 63:0.00415082 64:0.00478186 65:0.00261184 66:0.00323275 67:0.00326738 68:0.00462297 69:0.0031749 70:0.00490789 71:0.0026284 72:0.00927671 73:0.016192 74:0.00751052 75:0.0463428 76:0.0270731 77:0.00502546 78:0.00343663 79:0.00327218 80:0.0085363 81:0.00508792 82:0.00499847 83:0.00259301 84:0.00323061 85:0.00504411 86:0.00342304 87:0.00298745 88:0.00702585 89:0.00508042 90:0.0 91:0.00449344 92:0.0 93:0.0113128 94:0.0 95:0.00797456 96:0.0 97:0.0 98:0.0 99:0.0061274 100:0.0 101:0.0296173 102:0.0 103:0.00831713 104:0.0 105:0.0281049 106:0.0130762 107:0.0377479 108:0.0 109:0.0360742 110:0.0 111:0.0152116 112:0.0 113:0.0 114:0.0 115:0.00739433 116:0.0 117:0.0123334 118:0.0 119:0.00663731 120:0.0 121:0.0 122:0.0 123:0.00453757 124:0.0 125:0.00715064 126:0.0 127:0.00418455 128:0.0 129:0.0 130:0.0 131:0.00289881 132:0.0 133:0.00538578 134:0.0 135:0.0 136:0.00267615 137:0.00312822 138:0.0 139:0.0 140:0.0 141:0.0 142:0.0 143:0.0 144:0.00364499 145:0.00435955 146:0.00327476 147:0.0 148:0.0 149:0.0 150:0.0 151:0.00408763 152:0.00592139 153:0.00649929 154:0.00519251 155:0.0 156:0.0 157:0.0 158:0.0 159:0.00790591 160:0.0139068 161:0.00470657 162:0.0 163:0.0 164:0.0 165:0.0 166:0.0 167:0.0 168:0.0144221 169:0.0225442 170:0.0174487 171:0.00537399 172:0.0 173:0.0 174:0.0 175:0.00380862 176:0.00702348 177:0.00692125 178:0.00585861 179:0.0 180:0.0 181:0.0 182:0.0 183:0.0 184:0.00432075 185:0.00397784 186:0.00350737 187:0.0 188:0.0 189:0.0 190:0.0 191:0.0 192:0.00297531 193:0.00315318 194:0.00278338 195:0.0 196:0.0 197:0.0 198:0.0 199:0.0 200:0.0 201:0.0 202:0.0 203:0.0 204:0.0 205:0.0 206:0.0 207:0.0 208:0.0 209:0.0 210:0.0 211:0.0 212:0.0 213:0.0 214:0.0 215:0.0 216:0.0 217:0.0 218:0.0 219:0.0 220:0.0 221:0.0 222:0.0 223:0.036241 224:0.134833 225:0.241133 226:0.0 227:0.0 228:0.0 229:0.0 230:0.0 231:0.0 232:0.0 233:0.0 234:0.0 235:0.0 236:0.0 237:0.0 238:0.0 239:0.0 240:0.0 241:0.0 242:0.0 243:0.0 244:0.0 245:0.0 246:0.0 247:0.0 248:0.0 249:0.0 250:0.0 251:0.0 252:0.0 253:0.0 254:0.0 255:0.0 256:0.0 
1.0 1.0 1.0 1:0.00300509 2:0.00470955 3:0.00328425 4:0.00358908 5:0.00395387 6:0.00366559 7:0.0309333 8:0.0219659 9:0.106542 10:0.00982635 11:0.0117354 12:0.00273085 13:0.0157721 14:0.0168205 15:0.00297777 16:0.00328378 17:0.00698809 18:0.0141092 19:0.0233816 20:0.010762 21:0.0187945 22:0.0154748 23:0.0170877 24:0.0136841 25:0.0137824 26:0.0111788 27:0.0038846 28:0.00285393 29:0.00285303 30:0.00439075 31:0.0137331 32:0.0702796 33:0.0698752 34:0.0105624 35:0.0105351 36:0.00252103 37:0.00407943 38:0.00540509 39:0.00741533 40:0.00682233 41:0.00643529 42:0.0 43:0.0 44:0.0 45:0.0263772 46:0.0211902 47:0.0179571 48:0.0114605 49:0.00383773 50:0.00548039 51:0.00514795 52:0.00571506 53:0.00463147 54:0.00315034 55:0.0 56:0.0 57:0.0 58:0.0 59:0.0 60:0.0 61:0.0 62:0.0 63:0.0 64:0.0 65:0.0 66:0.0 67:0.0 68:0.0 69:0.0 70:0.0 71:0.0 72:0.0 73:0.0 74:0.0 75:0.0 76:0.00282203 77:0.0 78:0.0 79:0.0 80:0.0 81:0.0 82:0.0 83:0.00251814 84:0.00322814 85:0.00259971 86:0.0 87:0.0 88:0.0 89:0.0 90:0.0 91:0.00374554 92:0.00570753 93:0.00384097 94:0.00405185 95:0.0 96:0.0 97:0.0086565 98:0.0 99:0.0 100:0.0 101:0.0328932 102:0.0213281 103:0.0 104:0.0 105:0.0204866 106:0.0 107:0.0303427 108:0.0307566 109:0.008041 110:0.00280663 111:0.0 112:0.0 113:0.0 114:0.00336356 115:0.00482012 116:0.00488734 117:0.00380756 118:0.0 119:0.0 120:0.0 121:0.0 122:0.0 123:0.00320125 124:0.00292168 125:0.0 126:0.0 127:0.0 128:0.0 129:0.0 130:0.0 131:0.0 132:0.0 133:0.0 134:0.0 135:0.0 136:0.0 137:0.0 138:0.0 139:0.0 140:0.0 141:0.0 142:0.0 143:0.0 144:0.0 145:0.0 146:0.0 147:0.0 148:0.0 149:0.0 150:0.0 151:0.0 152:0.0 153:0.0 154:0.0 155:0.0 156:0.0 157:0.00510529 158:0.00344667 159:0.0 160:0.0 161:0.0 162:0.023613 163:0.0419478 164:0.00701412 165:0.0 166:0.0148385 167:0.0429924 168:0.0214567 169:0.00758349 170:0.0 171:0.0 172:0.0 173:0.0 174:0.0 175:0.0 176:0.0 177:0.0 178:0.0 179:0.0 180:0.0 181:0.0 182:0.0 183:0.0 184:0.0 185:0.0 186:0.0 187:0.0 188:0.0 189:0.0 190:0.0 191:0.0 192:0.0 193:0.0 194:0.0 195:0.0 196:0.0 197:0.0 198:0.00421453 199:0.0 200:0.0143741 201:0.00926451 202:0.0 203:0.0 204:0.0 205:0.00579416 206:0.00344869 207:0.00611191 208:0.0 209:0.0 210:0.0 211:0.0 212:0.0 213:0.00752603 214:0.0 215:0.0104053 216:0.0 217:0.00876343 218:0.0 219:0.0 220:0.00320099 221:0.023763 222:0.0 223:0.0208281 224:0.0 225:0.0 226:0.0 227:0.0 228:0.0 229:0.0199894 230:0.0 231:0.0319909 232:0.00372909 233:0.0 234:0.0 235:0.0 236:0.0 237:0.00874315 238:0.0 239:0.00638549 240:0.0 241:0.0 242:0.0 243:0.0 244:0.0 245:0.00646496 246:0.0 247:0.00315953 248:0.0 249:0.0 250:0.0 251:0.0 252:0.0039884 253:0.0 254:0.0 255:0.0 256:0.0 
1.0 1.0 1.0 1:0.00271671 2:0.00601832 3:0.00585575 4:0.00274762 5:0.00277234 6:0.00322691 7:0.102383 8:0.0142649 9:0.0160185 10:0.0385973 11:0.00455403 12:0.0197503 13:0.00387888 14:0.00287316 15:0.00597164 16:0.00716944 17:0.00277699 18:0.00290405 19:0.00340291 20:0.014521 21:0.0275661 22:0.0377467 23:0.0652216 24:0.0719677 25:0.0245182 26:0.0330958 27:0.0647176 28:0.0520597 29:0.0425981 30:0.0291982 31:0.00394326 32:0.00325569 33:0.00481002 34:0.00473463 35:0.00792832 36:0.00829846 37:0.00466356 38:0.0230042 39:0.0202138 40:0.0311647 41:0.038741 42:0.0274781 43:0.0168284 44:0.00301692 45:0.0090988 46:0.00588631 47:0.00570031 48:0.00402525 49:0.00361605 50:0.00318107 51:0.00495965 52:0.00364524 53:0.0329565 54:0.0516813 55:0.0575715 56:0.0360187 57:0.0134131 58:0.00401846 59:0.00358291 60:0.0 61:0.0 62:0.0 63:0.0 64:0.0 65:0.0 66:0.0 67:0.0 68:0.0 69:0.0 70:0.0 71:0.0 72:0.0 73:0.0 74:0.0 75:0.0 76:0.0 77:0.0 78:0.0 79:0.0 80:0.0 81:0.0 82:0.0 83:0.0 84:0.0 85:0.0 86:0.0 87:0.0 88:0.0 89:0.0 90:0.0 91:0.0 92:0.0 93:0.0 94:0.0 95:0.0 96:0.00290543 97:0.00549885 98:0.0 99:0.00587302 100:0.0 101:0.0 102:0.0374876 103:0.0579512 104:0.0 105:0.0643317 106:0.0369162 107:0.0 108:0.00753179 109:0.0033909 110:0.0 111:0.00454489 112:0.0 113:0.0 114:0.0 115:0.0 116:0.0 117:0.0 118:0.0 119:0.0 120:0.0 121:0.0 122:0.0 123:0.0 124:0.0 125:0.0 126:0.0 127:0.0 128:0.0 129:0.0 130:0.0 131:0.0 132:0.0 133:0.0 134:0.0 135:0.0 136:0.0 137:0.0 138:0.0 139:0.0 140:0.0 141:0.0 142:0.0 143:0.0 144:0.0 145:0.0 146:0.0 147:0.0 148:0.0 149:0.0 150:0.0 151:0.0 152:0.0 153:0.0 154:0.0 155:0.0 156:0.00284874 157:0.00769974 158:0.00760332 159:0.0 160:0.0 161:0.00725225 162:0.0466967 163:0.0751785 164:0.0446668 165:0.0 166:0.0418783 167:0.0566357 168:0.0249515 169:0.00468193 170:0.0 171:0.0 172:0.0 173:0.0 174:0.0 175:0.0 176:0.0 177:0.0 178:0.0 179:0.0 180:0.0 181:0.0 182:0.0 183:0.0 184:0.0 185:0.0 186:0.0 187:0.0 188:0.0 189:0.0 190:0.0 191:0.0 192:0.0 193:0.0 194:0.0 195:0.0 196:0.0 197:0.0 198:0.0 199:0.0 200:0.0 201:0.0 202:0.0 203:0.0 204:0.0 205:0.0 206:0.0 207:0.0 208:0.0 209:0.0 210:0.0 211:0.0 212:0.0 213:0.0 214:0.0 215:0.0 216:0.0 217:0.0 218:0.0 219:0.00468581 220:0.00708366 221:0.0197505 222:0.0 223:0.0253254 224:0.139706 225:0.173596 226:0.0 227:0.0511428 228:0.0130981 229:0.0254409 230:0.0245724 231:0.0 232:0.0 233:0.0 234:0.0 235:0.0 236:0.0 237:0.0 238:0.0 239:0.0 240:0.0 241:0.0 242:0.0 243:0.0 244:0.0 245:0.0 246:0.0 247:0.0 248:0.0 249:0.0 250:0.0 251:0.0 252:0.0 253:0.0 254:0.0 255:0.0 256:0.0 
1.0 1.0 1.0 1:0.00367407 2:0.00428891 3:0.00804546 4:0.00329844 5:0.00453332 6:0.00514771 7:0.00442045 8:0.00765848 9:0.0101382 10:0.0220487 11:0.0215583 12:0.0209424 13:0.0100175 14:0.0241553 15:0.153034 16:0.0620703 17:0.00286722 18:0.00671075 19:0.00283862 20:0.00458819 21:0.00286232 22:0.00877382 23:0.00714079 24:0.0038644 25:0.00629316 26:0.0271797 27:0.0621208 28:0.0182072 29:0.0264216 30:0.0970866 31:0.0139577 32:0.0048377 33:0.0113217 34:0.00385398 35:0.00251715 36:0.00298921 37:0.00391247 38:0.00428737 39:0.00317436 40:0.00943596 41:0.00443532 42:0.00312413 43:0.0028479 44:0.00423346 45:0.00305065 46:0.0199525 47:0.0180531 48:0.0373268 49:0.00509582 50:0.218135 51:0.0274639 52:0.00337603 53:0.00418873 54:0.00285685 55:0.0111605 56:0.00572058 57:0.0301862 58:0.0450982 59:0.0958229 60:0.153002 61:0.0780276 62:0.00261089 63:0.00420732 64:0.00294875 65:0.0116329 66:0.00771915 67:0.00266887 68:0.00754216 69:0.0129988 70:0.00892444 71:0.0345821 72:0.114111 73:0.0397898 74:0.0058928 75:0.00679681 76:0.00453213 77:0.00469866 78:0.00277406 79:0.00323715 80:0.00277029 81:0.00311542 82:0.00277475 83:0.00791801 84:0.00608111 85:0.0354977 86:0.0598496 87:0.00567168 88:0.00501211 89:0.00259264 90:0.00496828 91:0.00467817 92:0.00278727 93:0.00383238 94:0.0088446 95:0.00738153 96:0.00250504 97:0.00555171 98:0.00356785 99:0.00386746 100:0.00407968 101:0.00310016 102:0.00590586 103:0.017026 104:0.0140642 105:0.0216929 106:0.00280718 107:0.0222305 108:0.00532079 109:0.0067648 110:0.00800602 111:0.0061982 112:0.00276406 113:0.00391959 114:0.00513227 115:0.00787173 116:0.00389678 117:0.00462924 118:0.00414688 119:0.0089831 120:0.00656058 121:0.00263403 122:0.0173179 123:0.00838403 124:0.016205 125:0.0180405 126:0.0280783 127:0.011723 128:0.00339961 129:0.00687256 130:0.0062096 131:0.00381133 132:0.00438491 133:0.00285986 134:0.00443314 135:0.0060978 136:0.00994274 137:0.00344997 138:0.00262114 139:0.00433177 140:0.0106818 141:0.0068469 142:0.0029292 143:0.00286386 144:0.0165321 145:0.00994957 146:0.0115683 147:0.0167899 148:0.0254064 149:0.0124266 150:0.00934288 151:0.00366225 152:0.00258372 153:0.00331538 154:0.00319369 155:0.00304776 156:0.00438575 157:0.00563677 158:0.00334223 159:0.0116229 160:0.014013 161:0.00259752 162:0.00326981 163:0.00477929 164:0.00270837 165:0.00272213 166:0.00916101 167:0.00291531 168:0.00365628 169:0.00365381 170:0.0133742 171:0.00980094 172:0.0081608 173:0.00356133 174:0.00511194 175:0.004131 176:0.00694039 177:0.00813699 178:0.00394336 179:0.00747038 180:0.0385487 181:0.0475113 182:0.0505761 183:0.0343785 184:0.00404324 185:0.00698044 186:0.0 187:0.0 188:0.0 189:0.0 190:0.0 191:0.0 192:0.0 193:0.0 194:0.0 195:0.0 196:0.0 197:0.0 198:0.0 199:0.0 200:0.0 201:0.0 202:0.0 203:0.0 204:0.0 205:0.0 206:0.0 207:0.0 208:0.0 209:0.0 210:0.0 211:0.0 212:0.0 213:0.0 214:0.0 215:0.0 216:0.0 217:0.0 218:0.0 219:0.0 220:0.00491504 221:0.0221927 222:0.0 223:0.0 224:0.0969284 225:0.136634 226:0.0 227:0.133042 228:0.0829167 229:0.0 230:0.0 231:0.0128202 232:0.0 233:0.0 234:0.0 235:0.00322518 236:0.0 237:0.0 238:0.0 239:0.0 240:0.0 241:0.0 242:0.0 243:0.0 244:0.0 245:0.0 246:0.0 247:0.0 248:0.0 249:0.0 250:0.0 251:0.0 252:0.0 253:0.0 254:0.0 255:0.0 256:0.0 
1.0 1.0 1.0 1:0.00502767 2:0.00604533 3:0.00384631 4:0.00308155 5:0.0525056 6:0.11057 7:0.0406049 8:0.00992882 9:0.0362469 10:0.00518489 11:0.0139844 12:0.00331343 13:0.00346226 14:0.00939165 15:0.00646762 16:0.00329088 17:0.00578905 18:0.00532759 19:0.00331497 20:0.0311688 21:0.116891 22:0.0498468 23:0.0307611 24:0.0255624 25:0.00714948 26:0.0101218 27:0.00447112 28:0.00280669 29:0.00561395 30:0.00599953 31:0.00333366 32:0.00259662 33:0.00276034 34:0.00468497 35:0.00292592 36:0.00523426 37:0.00347338 38:0.00694778 39:0.00877149 40:0.0208036 41:0.0888873 42:0.0743543 43:0.0368619 44:0.0147483 45:0.00850363 46:0.0116345 47:0.00530195 48:0.00437423 49:0.0068473 50:0.00405161 51:0.00327355 52:0.00335992 53:0.00270277 54:0.0029532 55:0.00342338 56:0.00727448 57:0.00610132 58:0.0104912 59:0.00748327 60:0.00528023 61:0.0254956 62:0.00922436 63:0.0185171 64:0.00690136 65:0.0103964 66:0.0051529 67:0.00360112 68:0.00390317 69:0.00525387 70:0.00391524 71:0.00303027 72:0.00274624 73:0.00253805 74:0.00300515 75:0.00422737 76:0.00264699 77:0.00491277 78:0.00461062 79:0.0123489 80:0.00578727 81:0.0130941 82:0.0212803 83:0.0175506 84:0.00257527 85:0.00415642 86:0.0229349 87:0.0165828 88:0.010787 89:0.0123354 90:0.00627509 91:0.00540798 92:0.00385809 93:0.00421984 94:0.00365179 95:0.00284138 96:0.00310404 97:0.00903997 98:0.00644682 99:0.00765105 100:0.0216127 101:0.0947861 102:0.126146 103:0.0445211 104:0.0621631 105:0.0487044 106:0.0270312 107:0.00773221 108:0.00263907 109:0.0191768 110:0.0263919 111:0.0493295 112:0.0415794 113:0.0221051 114:0.00947478 115:0.0118371 116:0.00626218 117:0.106641 118:0.0242637 119:0.00333232 120:0.00468675 121:0.0040101 122:0.00787592 123:0.00566801 124:0.00292692 125:0.0135762 126:0.0243865 127:0.0555565 128:0.0389565 129:0.0238775 130:0.0109418 131:0.0037466 132:0.00808808 133:0.00470746 134:0.00507752 135:0.00272737 136:0.00324822 137:0.00365592 138:0.0037004 139:0.00543489 140:0.00629381 141:0.00277863 142:0.0135865 143:0.0072626 144:0.0135257 145:0.0118247 146:0.0370999 147:0.0510921 148:0.00731587 149:0.0586356 150:0.00408359 151:0.00281405 152:0.00285939 153:0.00288441 154:0.00643688 155:0.00729084 156:0.00303263 157:0.0116746 158:0.0120714 159:0.00951386 160:0.0332583 161:0.0474506 162:0.0184979 163:0.0255661 164:0.0283579 165:0.0283897 166:0.0442245 167:0.0165883 168:0.00861282 169:0.00738655 170:0.00555993 171:0.00537944 172:0.00419384 173:0.00432911 174:0.00301391 175:0.00440259 176:0.00319206 177:0.0104246 178:0.0203851 179:0.0262409 180:0.00527546 181:0.0288356 182:0.0236682 183:0.0175689 184:0.00932351 185:0.00487874 186:0.00468556 187:0.00459379 188:0.00343436 189:0.00254385 190:0.00416944 191:0.0138842 192:0.0246329 193:0.063765 194:0.0115479 195:0.039577 196:0.108967 197:0.160612 198:0.0422949 199:0.00717243 200:0.0167163 201:0.00277253 202:0.0025458 203:0.00461998 204:0.0238565 205:0.0186461 206:0.0349552 207:0.028672 208:0.030925 209:0.0328765 210:0.00645342 211:0.00290801 212:0.00690246 213:0.00650352 214:0.0111044 215:0.0128097 216:0.0157157 217:0.0045966 218:0.0396414 219:0.0992511 220:0.254923 221:0.0473714 222:0.00945413 223:0.00399859 224:0.00602873 225:0.00686479 226:0.00464208 227:0.00679755 228:0.00694306 229:0.0192233 230:0.00567348 231:0.0100918 232:0.0555264 233:0.0475486 234:0.0649279 235:0.0503887 236:0.0247688 237:0.00344042 238:0.00281896 239:0.0038893 240:0.00929811 241:0.00607488 242:0.00565923 243:0.00524271 244:0.00430351 245:0.015488 246:0.015987 247:0.0185594 248:0.0550723 249:0.0194396 250:0.0172012 251:0.0342323 252:0.00315321 253:0.0333044 254:0.00487073 255:0.00529831 256:0.00383573 
1.0 1.0 1.0 1:0.0040327 2:0.0113151 3:0.00323683 4:0.00513621 5:0.0102093 6:0.00628715 7:0.00867073 8:0.00484727 9:0.00738095 10:0.00658776 11:0.0294573 12:0.0362747 13:0.0317183 14:0.0121814 15:0.0028 16:0.00320246 17:0.00605763 18:0.00732835 19:0.00445832 20:0.00565637 21:0.00365677 22:0.0119645 23:0.00700045 24:0.00589025 25:0.00377704 26:0.00318751 27:0.00687752 28:0.0256788 29:0.0441563 30:0.049277 31:0.0227249 32:0.00984202 33:0.00535033 34:0.00496555 35:0.00727074 36:0.00495821 37:0.00582124 38:0.00255704 39:0.00334795 40:0.00283781 41:0.00373423 42:0.00668734 43:0.00631036 44:0.0103536 45:0.0132451 46:0.0112153 47:0.00321529 48:0.00960564 49:0.00638217 50:0.00445623 51:0.00739347 52:0.0123974 53:0.0115709 54:0.00695771 55:0.00445166 56:0.00979345 57:0.00307231 58:0.00320078 59:0.00396353 60:0.00622873 61:0.01202 62:0.0692923 63:0.0706081 64:0.00796339 65:0.00405533 66:0.0 67:0.0 68:0.0 69:0.0 70:0.0 71:0.0 72:0.0 73:0.0 74:0.0 75:0.00364393 76:0.0 77:0.0102215 78:0.0219521 79:0.0168007 80:0.00641621 81:0.0 82:0.0 83:0.0 84:0.0 85:0.0 86:0.0 87:0.00259384 88:0.0 89:0.0 90:0.0 91:0.0 92:0.00696533 93:0.0 94:0.0 95:0.0 96:0.0 97:0.0 98:0.0182107 99:0.0 100:0.0 101:0.0 102:0.0 103:0.0 104:0.0 105:0.0 106:0.0 107:0.0 108:0.0 109:0.0 110:0.0152427 111:0.0 112:0.0 113:0.0 114:0.0 115:0.0 116:0.00261434 117:0.0 118:0.0064917 119:0.0 120:0.0 121:0.0 122:0.0 123:0.0 124:0.0 125:0.0 126:0.0 127:0.0 128:0.0 129:0.00818401 130:0.0110851 131:0.00312022 132:0.0 133:0.0 134:0.0 135:0.00486412 136:0.0 137:0.0 138:0.00752995 139:0.0253943 140:0.0172792 141:0.00469061 142:0.00329311 143:0.0 144:0.00797863 145:0.0 146:0.0 147:0.0 148:0.0 149:0.0 150:0.00625891 151:0.00554333 152:0.00711305 153:0.00299824 154:0.0 155:0.0 156:0.0 157:0.0 158:0.00921265 159:0.0147221 160:0.0 161:0.0 162:0.0 163:0.0 164:0.0 165:0.0 166:0.0 167:0.0 168:0.0 169:0.0 170:0.0 171:0.00909987 172:0.00360989 173:0.0 174:0.0 175:0.0 176:0.0 177:0.0 178:0.0 179:0.0 180:0.0 181:0.0 182:0.0 183:0.0 184:0.0 185:0.0 186:0.0 187:0.0 188:0.00299229 189:0.0 190:0.0091126 191:0.0123232 192:0.0 193:0.0 194:0.00379064 195:0.00257239 196:0.0 197:0.00383065 198:0.0 199:0.0 200:0.0225347 201:0.0109839 202:0.0 203:0.00296395 204:0.00313689 205:0.00557162 206:0.0 207:0.0 208:0.00283369 209:0.00261629 210:0.0 211:0.0 212:0.00441183 213:0.00443859 214:0.0 215:0.0 216:0.00372358 217:0.00304455 218:0.0 219:0.0 220:0.0065547 221:0.0 222:0.0 223:0.0 224:0.0 225:0.0 226:0.0 227:0.0 228:0.0 229:0.0 230:0.0 231:0.0 232:0.0 233:0.0 234:0.0 235:0.0 236:0.00376697 237:0.0 238:0.0 239:0.00306458 240:0.0 241:0.0 242:0.0 243:0.0 244:0.0 245:0.0 246:0.0 247:0.0 248:0.0 249:0.0 250:0.0 251:0.0 252:0.00407351 253:0.00330694 254:0.00326826 255:0.00346148 256:0.0 
1.0 1.0 1.0 1:0.00250579 2:0.0150271 3:0.102594 4:0.106001 5:0.225872 6:0.0195068 7:0.0164022 8:0.0075112 9:0.00619403 10:0.00839394 11:0.0118619 12:0.0819462 13:0.23159 14:0.139167 15:0.0185321 16:0.00776798 17:0.0204066 18:0.0142797 19:0.00292846 20:0.00417764 21:0.00378723 22:0.00349355 23:0.00553747 24:0.0063159 25:0.00937142 26:0.00663784 27:0.00548029 28:0.0184811 29:0.031069 30:0.0176356 31:0.028936 32:0.0329596 33:0.0112749 34:0.0449362 35:0.0121054 36:0.00506961 37:0.00836186 38:0.00419518 39:0.00368173 40:0.00507414 41:0.00279682 42:0.00369673 43:0.00463148 44:0.00704004 45:0.00362697 46:0.00654634 47:0.00984725 48:0.0048476 49:0.0114544 50:0.0172815 51:0.0104827 52:0.00297479 53:0.0324212 54:0.0399178 55:0.0139398 56:0.0436954 57:0.0322832 58:0.00731857 59:0.0508842 60:0.022963 61:0.0100812 62:0.0159122 63:0.00780257 64:0.00670906 65:0.00919372 66:0.0050097 67:0.00452086 68:0.0065676 69:0.00264402 70:0.00293137 71:0.00251501 72:0.00285861 73:0.00294021 74:0.00408541 75:0.00444891 76:0.00521097 77:0.00477536 78:0.00344267 79:0.00604154 80:0.0046491 81:0.00630723 82:0.00658183 83:0.00500426 84:0.00728261 85:0.00998359 86:0.0109624 87:0.00659675 88:0.00452573 89:0.00845956 90:0.00583939 91:0.00867141 92:0.00435879 93:0.00484502 94:0.00268114 95:0.00291959 96:0.00252013 97:0.0041375 98:0.00388432 99:0.00330506 100:0.00256146 101:0.00400476 102:0.00366197 103:0.00328247 104:0.00485849 105:0.0137535 106:0.00492287 107:0.00970233 108:0.0940838 109:0.0455808 110:0.0101203 111:0.00335052 112:0.00393288 113:0.00319727 114:0.0160673 115:0.0175567 116:0.0286532 117:0.0592915 118:0.065206 119:0.0808559 120:0.00340835 121:0.00307765 122:0.0256178 123:0.0060726 124:0.010247 125:0.0690668 126:0.16209 127:0.125538 128:0.0533255 129:0.0190805 130:0.0207036 131:0.0111012 132:0.0113353 133:0.0238152 134:0.0395007 135:0.0354611 136:0.197134 137:0.0704878 138:0.0175139 139:0.00267347 140:0.0049323 141:0.00503314 142:0.00367042 143:0.00533012 144:0.00653648 145:0.00565708 146:0.0108221 147:0.00575299 148:0.0253177 149:0.00589066 150:0.00581791 151:0.00811637 152:0.0979958 153:0.0552272 154:0.168611 155:0.0307657 156:0.00401179 157:0.00381938 158:0.0103201 159:0.00340907 160:0.00405135 161:0.0035168 162:0.0117623 163:0.00383076 164:0.00984246 165:0.0215422 166:0.0186089 167:0.0124263 168:0.0910987 169:0.0592341 170:0.128742 171:0.0193468 172:0.00360775 173:0.00550857 174:0.00643777 175:0.00309621 176:0.0100278 177:0.00610356 178:0.004417 179:0.00536942 180:0.0161296 181:0.00745697 182:0.0108037 183:0.011144 184:0.0115498 185:0.0615108 186:0.0327021 187:0.0311648 188:0.00510153 189:0.0142437 190:0.00330665 191:0.00418726 192:0.0062496 193:0.00302889 194:0.0049553 195:0.00932219 196:0.00559037 197:0.00781474 198:0.00373423 199:0.0100382 200:0.00362225 201:0.00278901 202:0.0029891 203:0.0127461 204:0.0427554 205:0.0316119 206:0.0285397 207:0.0108065 208:0.015332 209:0.00838624 210:0.00360551 211:0.00689732 212:0.00301161 213:0.002968 214:0.0139784 215:0.00263286 216:0.00672063 217:0.00310198 218:0.00801064 219:0.0212368 220:0.00343316 221:0.0795402 222:0.0274577 223:0.0823532 224:0.00429661 225:0.00275465 226:0.00405931 227:0.00373613 228:0.0133587 229:0.0104928 230:0.00264653 231:0.0076953 232:0.0182379 233:0.0124371 234:0.0203889 235:0.165516 236:0.00842941 237:0.00404327 238:0.00308127 239:0.0117216 240:0.00694296 241:0.00495122 242:0.00297386 243:0.00582987 244:0.0036909 245:0.00299104 246:0.00270682 247:0.00749454 248:0.00674635 249:0.0184789 250:0.0208392 251:0.0371382 252:0.0389228 253:0.0102084 254:0.00482725 255:0.00636958 256:0.0029376 
1.0 1.0 1.0 1:0.00416738 2:0.00816547 3:0.00599303 4:0.0831807 5:0.0339307 6:0.05696 7:0.0327924 8:0.0297698 9:0.0116789 10:0.00630759 11:0.00346514 12:0.00406806 13:0.00276414 14:0.00499881 15:0.00352993 16:0.00616451 17:0.0166386 18:0.0225347 19:0.0228166 20:0.0452371 21:0.0602588 22:0.018977 23:0.0095188 24:0.0392306 25:0.0282374 26:0.0281732 27:0.020857 28:0.00535486 29:0.0374394 30:0.0555693 31:0.0913552 32:0.0334765 33:0.0460856 34:0.0257387 35:0.0734101 36:0.114985 37:0.0232279 38:0.0157221 39:0.00684787 40:0.0110808 41:0.0195524 42:0.018993 43:0.00448097 44:0.0162613 45:0.0401776 46:0.0193036 47:0.0522547 48:0.0755676 49:0.0550835 50:0.0272002 51:0.00403788 52:0.0 53:0.0 54:0.0 55:0.0 56:0.0 57:0.0 58:0.0 59:0.0 60:0.0 61:0.0 62:0.0 63:0.0 64:0.0 65:0.0 66:0.0 67:0.0 68:0.0 69:0.0 70:0.0 71:0.0 72:0.0 73:0.0 74:0.0 75:0.00298784 76:0.0 77:0.0 78:0.0 79:0.0 80:0.0 81:0.0 82:0.0 83:0.00380239 84:0.0 85:0.002926 86:0.0 87:0.0 88:0.0 89:0.0 90:0.0 91:0.00649395 92:0.0 93:0.0026745 94:0.0 95:0.0 96:0.0 97:0.00743581 98:0.00591243 99:0.016079 100:0.00762615 101:0.0184175 102:0.0219133 103:0.0 104:0.0 105:0.0 106:0.0201821 107:0.0163512 108:0.0129192 109:0.0143784 110:0.0 111:0.0 112:0.0 113:0.0 114:0.0 115:0.00554267 116:0.0 117:0.00583276 118:0.0 119:0.0 120:0.0 121:0.0 122:0.0 123:0.00416477 124:0.0 125:0.00321184 126:0.0 127:0.0 128:0.0 129:0.0 130:0.0 131:0.00255737 132:0.0 133:0.0 134:0.0 135:0.0 136:0.0 137:0.0 138:0.0 139:0.0 140:0.00272272 141:0.0 142:0.00350992 143:0.0 144:0.0 145:0.0 146:0.0 147:0.0 148:0.00367795 149:0.0 150:0.00591931 151:0.0 152:0.0 153:0.0 154:0.0 155:0.0 156:0.00819556 157:0.0 158:0.013146 159:0.00265873 160:0.0 161:0.0 162:0.0 163:0.0117404 164:0.0405269 165:0.0 166:0.0545717 167:0.0 168:0.0 169:0.00695213 170:0.0 171:0.0 172:0.00996913 173:0.0 174:0.00861225 175:0.0 176:0.0 177:0.0 178:0.0 179:0.0 180:0.00597909 181:0.0 182:0.00380365 183:0.0 184:0.0 185:0.0 186:0.0 187:0.0 188:0.00337556 189:0.0 190:0.0037408 191:0.0 192:0.0 193:0.0 194:0.0 195:0.0 196:0.0 197:0.00343302 198:0.0 199:0.00306374 200:0.0 201:0.0 202:0.0 203:0.0 204:0.0 205:0.00456689 206:0.0 207:0.00455645 208:0.0 209:0.0 210:0.0 211:0.0 212:0.0 213:0.00712933 214:0.0 215:0.00660224 216:0.0 217:0.00290257 218:0.0 219:0.0 220:0.0 221:0.0232075 222:0.0 223:0.0197794 224:0.0 225:0.00637376 226:0.0 227:0.0154969 228:0.0 229:0.0205521 230:0.0 231:0.0213641 232:0.0 233:0.0 234:0.0 235:0.00381749 236:0.0 237:0.00780826 238:0.0 239:0.00633876 240:0.0 241:0.0 242:0.0 243:0.0 244:0.0 245:0.00542122 246:0.0 247:0.00423427 248:0.0 249:0.0 250:0.0 251:0.0 252:0.0 253:0.00333394 254:0.0 255:0.00297675 256:0.0 
1.0 1.0 1.0 1:0.00319463 2:0.00363376 3:0.00365358 4:0.0059064 5:0.104206 6:0.0720101 7:0.0147154 8:0.0191772 9:0.00722089 10:0.00706755 11:0.00455349 12:0.00412292 13:0.00266566 14:0.00648873 15:0.00354478 16:0.0049436 17:0.00712771 18:0.00282646 19:0.00834784 20:0.0116578 21:0.00457518 22:0.0220474 23:0.0386174 24:0.0316509 25:0.0557656 26:0.0397448 27:0.00840631 28:0.0112799 29:0.0112296 30:0.00303768 31:0.00632919 32:0.00725006 33:0.0050957 34:0.0044951 35:0.00302498 36:0.00299145 37:0.00513444 38:0.00415314 39:0.0100868 40:0.0121546 41:0.00715243 42:0.0133332 43:0.0257877 44:0.162881 45:0.00330327 46:0.00296816 47:0.0034 48:0.00256595 49:0.00289094 50:0.00253751 51:0.00310014 52:0.00332511 53:0.00483305 54:0.00608635 55:0.00597175 56:0.00811023 57:0.00775693 58:0.00979556 59:0.0211957 60:0.0140339 61:0.0234725 62:0.0197934 63:0.0705835 64:0.0779536 65:0.0264842 66:0.0626756 67:0.0508374 68:0.0250295 69:0.011726 70:0.038946 71:0.0308992 72:0.0732294 73:0.0930098 74:0.0552179 75:0.024276 76:0.00349923 77:0.0226018 78:0.0586049 79:0.0366352 80:0.0158645 81:0.012023 82:0.0314557 83:0.0163134 84:0.0517227 85:0.0794922 86:0.0492719 87:0.0214708 88:0.00307887 89:0.00685977 90:0.0029828 91:0.00416367 92:0.00438752 93:0.00396011 94:0.014132 95:0.0145499 96:0.0279004 97:0.0523885 98:0.0269227 99:0.0385926 100:0.176063 101:0.0884366 102:0.0037129 103:0.0032016 104:0.0028462 105:0.00454385 106:0.00405955 107:0.00261621 108:0.00529523 109:0.00712531 110:0.00609834 111:0.00324671 112:0.00254577 113:0.0333772 114:0.0467542 115:0.0366106 116:0.0328944 117:0.0409184 118:0.0282754 119:0.00631536 120:0.00425987 121:0.0093409 122:0.00794 123:0.00469236 124:0.0041055 125:0.00551086 126:0.00456248 127:0.0026003 128:0.00317926 129:0.00395799 130:0.0036183 131:0.00507809 132:0.00403333 133:0.00329942 134:0.00694267 135:0.00563269 136:0.00648796 137:0.0108618 138:0.00806388 139:0.0105743 140:0.00268353 141:0.0382523 142:0.0474094 143:0.0432141 144:0.0351497 145:0.0458646 146:0.0350272 147:0.0081908 148:0.011991 149:0.0112608 150:0.00465732 151:0.00343302 152:0.00772144 153:0.00663182 154:0.00307547 155:0.00514276 156:0.00473834 157:0.00311749 158:0.00269385 159:0.00379179 160:0.00508738 161:0.00477858 162:0.00559888 163:0.00432174 164:0.00349545 165:0.00412004 166:0.00548831 167:0.00642681 168:0.0095127 169:0.00684742 170:0.00641881 171:0.00423714 172:0.00428236 173:0.00343726 174:0.00633767 175:0.0102752 176:0.0116273 177:0.00283878 178:0.00253529 179:0.00426265 180:0.00474674 181:0.00686341 182:0.00712846 183:0.00535883 184:0.0042612 185:0.0047135 186:0.00374915 187:0.00479478 188:0.00494027 189:0.00523611 190:0.00378095 191:0.00348541 192:0.00251574 193:0.00271421 194:0.00408824 195:0.0028718 196:0.00321832 197:0.00831653 198:0.0031294 199:0.0382091 200:0.0601843 201:0.0338644 202:0.0321521 203:0.0520501 204:0.0198835 205:0.0089234 206:0.0137801 207:0.00316819 208:0.0504795 209:0.115541 210:0.104545 211:0.0968217 212:0.0874182 213:0.0291414 214:0.00299028 215:0.00259484 216:0.00297238 217:0.00302044 218:0.00255586 219:0.00303564 220:0.00258336 221:0.00286549 222:0.0035173 223:0.00358356 224:0.00470547 225:0.00597206 226:0.00593354 227:0.00670142 228:0.00880721 229:0.00849383 230:0.00936911 231:0.0095975 232:0.00667788 233:0.00386378 234:0.00454646 235:0.00294652 236:0.00791039 237:0.0061879 238:0.00722776 239:0.00716468 240:0.00630155 241:0.00497467 242:0.00429484 243:0.00271249 244:0.00313259 245:0.00258858 246:0.00330656 247:0.00320229 248:0.00282672 249:0.00260912 250:0.0 251:0.00275321 252:0.0 253:0.0 254:0.0 255:0.0 256:0.0 
1.0 1.0 1.0 1:0.00677355 2:0.0125947 3:0.00376648 4:0.00791441 5:0.187899 6:0.0195287 7:0.0104792 8:0.0108328 9:0.00724497 10:0.00345563 11:0.00315544 12:0.00272022 13:0.00719148 14:0.00490163 15:0.0150099 16:0.00613028 17:0.00742011 18:0.00811261 19:0.242452 20:0.00423525 21:0.00294993 22:0.00520877 23:0.00627632 24:0.00252086 25:0.00455283 26:0.00577859 27:0.0126621 28:0.0453596 29:0.0208314 30:0.0282914 31:0.0453534 32:0.0116668 33:0.00815449 34:0.00964246 35:0.0228405 36:0.0733086 37:0.156162 38:0.156906 39:0.0687745 40:0.0233591 41:0.00682186 42:0.00488889 43:0.0100519 44:0.00839978 45:0.0216529 46:0.0246001 47:0.025439 48:0.0174122 49:0.0148392 50:0.00936919 51:0.0 52:0.0 53:0.0 54:0.0 55:0.0 56:0.0 57:0.0 58:0.0 59:0.0 60:0.0 61:0.0 62:0.0 63:0.0 64:0.0 65:0.0 66:0.0 67:0.0 68:0.0 69:0.0 70:0.0 71:0.0 72:0.0 73:0.0 74:0.0 75:0.00355446 76:0.0 77:0.00306477 78:0.0 79:0.0 80:0.0 81:0.0 82:0.0 83:0.00466892 84:0.0 85:0.004978 86:0.0 87:0.0 88:0.0 89:0.0 90:0.0 91:0.007412 92:0.0 93:0.0084965 94:0.0 95:0.0 96:0.0 97:0.00535516 98:0.0 99:0.0198254 100:0.0 101:0.0059896 102:0.0 103:0.0263515 104:0.0 105:0.0413138 106:0.0 107:0.00561714 108:0.0 109:0.0192011 110:0.0 111:0.0 112:0.0 113:0.0 114:0.0 115:0.00923583 116:0.0 117:0.00645773 118:0.0 119:0.0 120:0.0 121:0.0 122:0.0 123:0.00577507 124:0.0 125:0.00431367 126:0.0 127:0.0 128:0.0 129:0.0 130:0.0 131:0.00355247 132:0.0 133:0.00324079 134:0.0 135:0.0 136:0.0 137:0.0 138:0.0 139:0.0 140:0.00275526 141:0.0 142:0.0 143:0.0 144:0.0 145:0.0 146:0.00337864 147:0.0 148:0.00376383 149:0.0 150:0.00260611 151:0.00305288 152:0.0 153:0.0 154:0.00413182 155:0.0055538 156:0.00963778 157:0.00704133 158:0.0111533 159:0.00681001 160:0.00826048 161:0.0 162:0.0148376 163:0.0 164:0.0 165:0.0 166:0.0 167:0.0296577 168:0.0 169:0.00562928 170:0.0045407 171:0.00376959 172:0.009653 173:0.0 174:0.0083154 175:0.00603096 176:0.0 177:0.0 178:0.0044403 179:0.0 180:0.00586669 181:0.0 182:0.0 183:0.0 184:0.0 185:0.0 186:0.00282682 187:0.0 188:0.00291389 189:0.0 190:0.0 191:0.0 192:0.0 193:0.0 194:0.0 195:0.0 196:0.0 197:0.00292217 198:0.0 199:0.00319284 200:0.0 201:0.0 202:0.0 203:0.0 204:0.0 205:0.00369895 206:0.0 207:0.00467603 208:0.0 209:0.0 210:0.0 211:0.0 212:0.0 213:0.00617267 214:0.0 215:0.00678752 216:0.0 217:0.00262113 218:0.0 219:0.0 220:0.0 221:0.0180111 222:0.0 223:0.0224441 224:0.00288169 225:0.00762723 226:0.0 227:0.0170375 228:0.0 229:0.0214539 230:0.0 231:0.0183024 232:0.0 233:0.0 234:0.0 235:0.0 236:0.0 237:0.00799444 238:0.0 239:0.00728104 240:0.0 241:0.0 242:0.0 243:0.0 244:0.0 245:0.00444339 246:0.0 247:0.00399398 248:0.0 249:0.0 250:0.0 251:0.0 252:0.0 253:0.00302454 254:0.0 255:0.00310839 256:0.0 
1.0 1.0 1.0 1:0.146424 2:0.0508457 3:0.0320672 4:0.026865 5:0.00617455 6:0.00421835 7:0.00716728 8:0.004429 9:0.00369266 10:0.00337869 11:0.0030877 12:0.0145033 13:0.0247822 14:0.0597148 15:0.02078 16:0.00273061 17:0.00347827 18:0.00393555 19:0.00278166 20:0.00744509 21:0.00432536 22:0.0382288 23:0.180646 24:0.139336 25:0.0727648 26:0.00364533 27:0.00484755 28:0.00548674 29:0.011773 30:0.0116001 31:0.014771 32:0.00428404 33:0.0292593 34:0.00665017 35:0.0727184 36:0.0311302 37:0.0117053 38:0.00720085 39:0.00416881 40:0.00980409 41:0.059068 42:0.108819 43:0.0794551 44:0.0315408 45:0.066916 46:0.0813204 47:0.00417713 48:0.0060001 49:0.0570768 50:0.0831158 51:0.0728743 52:0.0132157 53:0.0961599 54:0.0603588 55:0.00502525 56:0.00418182 57:0.00581224 58:0.00693309 59:0.00786746 60:0.00293324 61:0.0217647 62:0.0442035 63:0.0624558 64:0.0290143 65:0.117491 66:0.0841611 67:0.0902912 68:0.0111027 69:0.0045576 70:0.0031938 71:0.00645628 72:0.00523006 73:0.015682 74:0.00621943 75:0.0374694 76:0.0127192 77:0.071285 78:0.118392 79:0.120468 80:0.0773359 81:0.0116402 82:0.0033815 83:0.00303135 84:0.00449946 85:0.00461636 86:0.00720325 87:0.00680555 88:0.00295373 89:0.00461409 90:0.00816947 91:0.0448739 92:0.0213475 93:0.0208705 94:0.044014 95:0.012197 96:0.00255286 97:0.00787092 98:0.00643357 99:0.00519252 100:0.00399737 101:0.00349527 102:0.00302295 103:0.00632564 104:0.0106848 105:0.0207047 106:0.0485113 107:0.00773003 108:0.0178969 109:0.0414289 110:0.0150637 111:0.00583641 112:0.00352547 113:0.00294548 114:0.0229691 115:0.0239241 116:0.0394508 117:0.032912 118:0.0245157 119:0.00725493 120:0.00496455 121:0.0027567 122:0.00404308 123:0.00876526 124:0.0057021 125:0.0294323 126:0.0471684 127:0.0219994 128:0.0174034 129:0.00513097 130:0.00399809 131:0.0 132:0.0 133:0.0 134:0.0 135:0.0 136:0.0 137:0.00514537 138:0.0 139:0.0130138 140:0.00328584 141:0.0 142:0.0 143:0.0 144:0.0 145:0.0 146:0.0 147:0.0 148:0.0 149:0.0 150:0.0 151:0.00317959 152:0.0 153:0.0 154:0.0 155:0.0 156:0.0 157:0.0 158:0.0 159:0.00676809 160:0.0 161:0.0 162:0.0 163:0.0307695 164:0.116859 165:0.0 166:0.0 167:0.0 168:0.0 169:0.0 170:0.0 171:0.00568517 172:0.0 173:0.0 174:0.0 175:0.0 176:0.0 177:0.0 178:0.0 179:0.0 180:0.0 181:0.0 182:0.0 183:0.0 184:0.0 185:0.0 186:0.0 187:0.0 188:0.0 189:0.0 190:0.00262232 191:0.00343188 192:0.0 193:0.0 194:0.0 195:0.0 196:0.0 197:0.00327838 198:0.0 199:0.00323105 200:0.0 201:0.0 202:0.0 203:0.0 204:0.0 205:0.0048481 206:0.0 207:0.00492619 208:0.0 209:0.0 210:0.0 211:0.0 212:0.0 213:0.00719621 214:0.0 215:0.00885775 216:0.0 217:0.0 218:0.0 219:0.00525089 220:0.0 221:0.0192677 222:0.0 223:0.00789295 224:0.0 225:0.0258494 226:0.0 227:0.0286058 228:0.0 229:0.0106414 230:0.0 231:0.0219265 232:0.0 233:0.00399498 234:0.0 235:0.0 236:0.0 237:0.00936205 238:0.0 239:0.00712395 240:0.0 241:0.0 242:0.0 243:0.0 244:0.0 245:0.0057827 246:0.0 247:0.00475752 248:0.0 249:0.0 250:0.0 251:0.0 252:0.0 253:0.00353084 254:0.0 255:0.00336022 256:0.0 
