solver_type L2R_L2LOSS_SVC_DUAL
nr_class 4
label 2 3 0 1
nr_feature 256
bias 1
w
-2.048966049676049 5.564234430342878 7.58960160900689 -4.915437631252435 
9.507218962217422 -3.971630492941258 -4.035032751660313 -7.711049728537147 
-4.693816054359398 3.648459024219467 -6.467181620738011 3.176507153971659 
3.227724500820972 -4.163621482061524 8.836790492802699 -4.404096882556829 
1.174996660956909 0.3256379993170445 2.689623820106533 -0.4601700412295973 
-4.196302925660032 1.110361912039494 5.59829772051593 6.470786226092585 
-3.437155262210152 -1.590575455834179 8.89451384931227 0.6165497175393676 
-2.802793230876561 -0.8941129835418865 2.309231457436181 6.214461690372982 
-3.466764402541966 1.952187783731413 8.994435516320282 -1.054812106499025 
-1.627958111897692 -0.2405679673794184 4.821455856839463 1.848661127239752 
-3.765985864103689 1.847858864301743 -13.26049117092923 6.427300441733247 
2.864325748377997 -0.4892008554391278 -0.9240174224027593 -0.2279238913552226 
-9.858041367052662 3.568937532814037 7.854355189192484 -9.94527310271005 
4.672611968814819 -1.744013742888528 -5.655585056598043 -14.40052571386082 
0.9046451115135468 -2.355124036960163 0.08569062260251201 0.1049004698041303 
-2.602462210705525 4.76811385096943 5.323671111453806 -12.58540482528028 
-4.612088344259581 3.859184966445669 0.101782147468811 -7.992499662186269 
0.4027490718677145 -2.456645828098335 -4.599928063291608 2.069220425256004 
1.377480890793907 2.003567808466348 -8.822981006182994 0.4185015711781986 
-2.339625988858074 -0.2398359726327694 2.500075782979707 -3.494133559990556 
8.776982093176075 -12.00501918093179 -20.62476518783863 4.775842424604356 
-1.856017445819182 7.733815685520268 7.881712702319439 -0.09014617743806819 
-2.070553372003299 -4.688636014551742 -0.5117474801263928 -1.996968112060835 
5.759298688282458 -1.517594806195059 -2.462049447203905 -5.459176815993752 
2.419697892538613 1.992678638524815 -19.39849132925954 4.138435802984448 
-1.946265319023411 3.114682852778898 -2.334519966074626 3.774875357487732 
5.771066975479448 -4.407904298258901 0.3140341486695223 4.7018781853589 
0.8018186139978912 -4.766023316195778 -1.567466459690908 10.95716915792773 
-5.813350187693465 1.725064068956897 -8.797356395462739 6.327112563049535 
5.263807510113263 -1.515452206430326 -3.072382347833388 -8.705425262989428 
-2.125739441976746 3.614755220814855 -0.08077244228413157 7.015302648015768 
1.302413137958524 -0.3830888843746371 -2.385916690236204 -2.378147717629085 
-1.232346007072803 -5.060811034899184 10.45353551224421 6.146173312979157 
2.662503981765896 5.248806083106107 -8.611890913109097 -0.8633284536984023 
-0.5054293622067517 -2.113679762504736 -0.1592839078288865 6.380106990933127 
0.04540684032960063 -5.702214889676528 5.32202963370249 -5.478448187275657 
0.09151685425163014 -0.24089165643141 0.1133009874590655 0.5161161796970423 
0.4189411078638938 -1.799567910633417 -1.472990243247125 2.206110232487512 
-2.178070985604335 -5.985856466713801 6.837411130039948 -2.459763295567161 
-2.363533747788453 4.431015801013335 -0.9819249526938874 2.78955399692313 
0.9935346297971839 -0.1648982280265048 4.658825273169151 -4.130878707147149 
-2.389011444316216 0.1469520746320664 4.301073645847337 -2.776342562769756 
3.749407211094109 -4.277573769368658 -4.883315125808349 3.697283943910243 
-0.1695747521062061 -1.450927879229431 5.835667614974093 3.958843596117847 
-0.9113818497585269 -0.114229971369686 12.94437368919684 -17.34902736987614 
2.878765163610074 -6.515929963969986 0.6946860648979925 5.911169487994899 
-1.113236595253422 3.579181240916918 -6.512282639635091 -6.351605161981318 
-4.03256066508856 0.6595464260625638 3.050438287696043 3.546633468954271 
4.801605305940644 -0.1167350310551721 -8.082045293487131 1.09341812639474 
0.8721509013112649 -3.186554302343774 4.025008876054242 -2.537090391745056 
2.206114536238441 -1.626974087067649 4.000379929769602 6.265335406210357 
-1.520739496872644 4.907811197288491 -3.384514135062586 -17.26182211915738 
0.9162378315088187 2.242441887064856 5.329331819054431 2.849757325615426 
6.490444478517063 -10.33392869155495 -11.29014884853416 0.3390942485963257 
-3.955691522865212 13.02183769763856 -1.419706839036733 7.329834936277177 
8.736211322499958 -7.718535802860804 -3.497481681247965 2.840980606352153 
-5.336124603309573 1.612621579059643 14.09599330498835 -2.903757752600362 
1.589108714082037 7.082564035059859 -7.660686789136204 -1.414437754416247 
0.1090554271322185 -5.677589088717352 -0.7469389770983993 2.564806744825699 
2.650504342740883 4.936208987008657 -3.062225965449247 4.628001748700421 
1.091998279542924 -8.790289117376808 1.210383897933055 9.867971689898662 
-0.0209797870818153 -4.200138838214748 -0.2542021648034637 -2.281093692070931 
-0.9830729455823602 7.53056334815271 0.5694420734701694 1.615214909777558 
-5.003173803515914 -2.32398197363966 4.461237207185262 -2.397437167180377 
5.234763489814374 -8.101807165844457 3.912792691216894 -1.895851259402771 
-3.845459168560527 11.42318152132636 -10.6810831852434 -6.36114844172043 
0.3518053233199825 -6.663013377814777 7.532536115432794 6.099758011063495 
5.33176095802488 2.143882074650921 10.25907923134016 1.62622182901971 
-7.549027420910961 3.438083304355978 -7.748055492256371 -0.9963069415698014 
-2.714304514253244 -5.478174557816136 -3.961934933623164 11.15680749177684 
-2.253426591792353 -4.718115332097319 0.3995688230010235 8.212441899623677 
4.158145059612013 1.11715444445956 -6.127513144676969 2.206352965328621 
-5.968221382945251 5.389946892995034 -0.5940406869147302 -9.612963408017629 
-0.2404448567109718 -8.786917987725495 -2.031943636906549 19.40884591649782 
-7.705912667148455 -0.7173433924852904 4.215981936755558 0.9519823695360096 
-10.21920430757132 6.670718774282088 5.232220556055971 1.649008522705708 
11.14664575472751 -11.77361552577809 -2.332263089202203 -7.954338385194154 
5.123319337686858 -2.597924809772396 -6.953434560166561 -7.561744462555876 
-6.835977884053463 -1.139646423214946 8.474233761610392 8.160552964596441 
6.727806553303921 -12.78984452837602 -9.801501069988518 1.477169766799898 
-4.346540652924994 -3.086551987399371 -2.625621348254497 5.535746183744783 
10.47671055990946 -8.275824122449212 1.905687655306307 -7.17765948100989 
4.090224700198791 3.30642442388205 -6.832046164168228 -13.95431969412099 
-3.683440817627318 -3.257148875947128 -3.760392204109218 7.832550451887441 
-2.017730338083765 5.666824923624707 1.119354275378594 2.838901954991492 
-2.827511563401717 13.93042345854191 -3.801291934278699 -16.59759793595584 
6.516460410062023 -0.2469428245293824 -0.9059225885629859 8.436852673407074 
3.261794313775577 5.740327784578692 8.883802541727324 -25.92340551003973 
4.078959794643286 -11.69663505938902 -11.2508207664363 14.03513485489117 
-2.521232372847067 7.54768829156762 -1.199159447430023 7.340775945716853 
-1.210576575199256 1.096267372126711 7.460690376055464 -24.36993474822872 
2.018266876810768 2.294334037706508 -6.418788583898119 15.80409522139257 
0.5987782984380539 20.74127258420554 -3.54133146946643 -0.1542468692519915 
2.167454849363659 -18.68118164240822 -0.8927331915335431 -8.751577482072889 
-0.5870300457701743 25.33568224448722 -10.77605258522854 9.824872709574853 
6.90700057749368 -17.12263421093176 7.269879163669595 -7.595474917559692 
6.898498601085561 6.423236753155527 -14.91929421493797 -13.12138933865053 
1.005684931495127 -0.4375627136021911 10.26690487317545 -2.320655657693368 
-1.807263018965043 11.29109912194179 -14.6792022410702 0.7181235295767666 
-1.701418106255367 -2.676474022263041 1.530198089827673 5.500862369117968 
7.655500150297616 -1.392414328191291 -0.3554571812517281 -0.6876389192820683 
1.253783886679391 -3.356544110841315 4.709519846571613 1.966940980460102 
-6.295302665287696 9.84703937014346 1.088160586030957 1.223123034800156 
-3.748110969935523 -1.708092723244163 -3.108809905690971 -3.962798136400397 
4.245921949365079 -0.5635126883383077 -0.8421259018226075 -5.108778597279644 
1.239612169458622 -7.017043178759933 4.390239473967402 -3.210148483176527 
-5.648630817299255 5.4544035290922 -1.335132233639258 14.65017135365223 
0.713804155687038 -11.15154099378252 1.093660028124542 0.7908325974656546 
-8.659700254679837 -11.43109040407865 13.72923458389234 11.92842470023274 
-9.482528422547276 13.2874016373859 14.86981053265414 -6.437602646640248 
7.717970856708178 -11.33565513470539 -10.67336840892914 -7.321244239695057 
-4.01720421655268 -10.61967426880212 3.078258901541509 7.596172420297319 
1.480416633665038 -3.822305172536262 1.107916161245157 4.73231389090162 
-2.511843477778655 4.770966086905848 0.5244409939086971 -4.209205124953 
-0.105080167926621 12.24161280484773 0.2291089485315642 -11.63270076086461 
-0.4420873295017765 -4.852834252483301 -4.056629409287711 10.58027337689522 
0.4156712655476471 -12.86202602903211 4.126255949404483 11.35549489866163 
9.098977856043931 6.492063731006944 -19.2731481732254 -18.61833281125419 
-3.039472412901903 -21.12752070732383 13.26495351285951 17.74097306461322 
-2.082719455281622 9.209642638545619 5.016107493935327 -8.407217295039406 
5.641751174118042 -6.609438487977892 1.04324321857183 -7.087834441488979 
-2.232065190488893 7.311804316941489 4.364075462326102 9.38355806106701 
-2.638349407173346 3.658878666827931 4.944966478445946 -9.041629500489345 
-9.634324813171668 0.3709094106939607 14.04083717396091 16.23429707003309 
10.16815907397677 -0.909742963698692 -13.48124579814962 -14.6841618237314 
-0.850540587949648 7.077426744673185 -10.16116070370416 2.780262574990493 
-4.947569429521055 1.759180879325317 18.42871331322237 9.522601210918111 
0.5857322254542175 -15.46240455568812 9.953626659613347 -9.184625694647929 
-0.1469703500398303 -1.934190657401256 -12.21488883173853 -5.495965294226181 
-3.320698063873088 -10.93922108886071 16.94071869418251 11.90115051204899 
7.098252259865077 9.346471795939106 -1.905518569142672 -37.99400556889342 
-0.4998339519066003 14.61693502585626 -6.131127340626406 7.556289758913649 
-12.33915454655874 -10.15494927787448 18.21799042077312 2.795284783494151 
7.006338218024469 3.704776335105617 -0.02459136127582469 -10.14992454841533 
2.422361394339784 -17.06138070790763 -22.07841924347685 5.423534349062619 
-6.467676789316002 2.060969672710943 11.18067110244578 10.67039449184022 
7.25639289538958 3.881900240454843 -18.26523744740414 -3.612826967280077 
4.511555193045125 -13.44762821735472 1.214991379923841 2.155268582243223 
-5.129632522281236 -9.204852137452912 -2.818188350856855 5.36389326087152 
2.652305387689755 10.14197925239536 2.287257606107996 -10.0222427269066 
-4.657513277420441 -3.995629974579175 13.79632211582434 4.175995461369983 
11.01466640820746 0.08209890477446036 -23.84559626862761 -6.587757316527936 
18.60309141012301 -8.861423445710527 7.267328714883468 -55.71616468956805 
-2.069904559585668 -6.6352729462861 -16.8492209627384 9.694724025253143 
-10.8809897586944 3.279521260045775 -3.357037504673073 28.79088959785479 
0.4217783005435066 14.86272772967079 22.81193225483802 -8.656526885464473 
-8.623076789012634 16.37521699109698 23.03734687685805 -29.6798884271324 
2.449604434495686 12.20406990261515 -23.98397543203237 -3.748724161654893 
6.295827374560242 -13.43418826356356 -0.3611423226907609 3.685367910375703 
-2.153308184752015 -2.835968823425216 13.94851318627148 16.68662329212737 
-10.43646704051805 19.48644902312837 8.761488240543351 -11.39726686423433 
20.52654043742834 -9.955853567542439 11.91735147253814 -1.591858402073789 
-17.96612570631126 35.91201117834522 -17.17497367819914 21.70575579053507 
15.27477563763828 3.658034509600809 -2.532458912393468 -2.542890679691689 
-16.59649876782885 -14.02703701898701 42.47329610478611 4.466181594913408 
7.546740838156849 2.73170413122428 -22.41524785580367 10.04486409537717 
10.57526171868708 12.95172842954103 -16.41651999430621 -4.282695898507846 
-6.619799586944279 -1.985118531749649 -4.177060967434221 7.050440966340147 
-0.6366611518067211 8.570955341502611 7.813463490478497 -10.60251479756555 
-5.924764821491229 -8.966796927027136 12.79447765557014 17.26312630621254 
3.063315642831102 -22.7672314490263 -9.875983950293618 7.423101181478038 
-2.801958050570507 -6.974383914017948 9.226042444767604 -3.95185267753014 
-2.091932960366334 -1.844884925222102 -15.02452258743301 9.469240814974389 
-6.943529732027686 5.205385975282096 -0.4363685329298128 -1.786194757307481 
4.886358216231294 -10.58022413368226 -13.79633041338236 -2.281994237379989 
1.455432239138187 -0.9663792339878936 2.006134293515928 2.416331447531354 
1.403505324859764 1.743669594324649 4.110597807152939 -3.832341305622485 
-1.002286238901325 7.54976606428006 -2.03981927773023 -15.4369279604025 
13.18908895051874 -20.94441488695975 -18.31624126953705 16.51799145752118 
0.567046548809792 11.40535382477733 -1.754199575563276 -13.26802182176814 
-4.96607643101471 -14.81219272891118 12.75180284929382 2.039236802480269 
8.703255322564695 -7.143567251357977 -7.393473158913905 -4.710531772015451 
-8.493878817237428 -0.6667899777256406 -6.599733207641473 12.23297983131142 
6.501453579385379 1.557149219921198 5.564060033822035 -20.11206793317779 
-5.299953392271462 -21.13995489293123 16.91579829485752 0.4915962349241172 
1.924616907761271 -2.699106717826195 7.752380759179189 9.781625625040006 
16.66356897368504 10.93453646450172 -12.30323526755279 -19.91414891046358 
-1.622767643868522 -2.81750420584886 -12.16271402000505 6.926980492686396 
-6.997673001997042 9.090596545188486 -3.835407366909672 -7.102123600962013 
6.051389645260149 -23.54331134811424 -9.488420335378615 18.75857644919042 
-1.57739138170301 11.96487801087455 -3.632484804582917 -4.038340387327296 
1.740950196416832 3.52964929828203 7.501900588458743 -4.457858747354789 
3.136188957852392 -18.24722669943016 -11.55794355624071 -2.619629180841448 
-3.190858865205044 -21.04019099847266 -2.587810655926727 31.48041610749373 
-3.178940583519835 -4.248173567322619 12.30921808820949 -7.407040684193786 
9.253314117784836 -1.001896356924893 -5.27323857710159 -22.14720516126521 
-5.781119484729019 -14.33573785399675 -12.61073664461717 35.77880483990706 
-7.629616331261706 32.02255261674704 3.95085925553261 -11.21151012060463 
-11.67138448804316 -18.47231600151839 33.10443496823139 -8.696857428512248 
10.26220828884413 -12.66631619814909 -7.951252011787211 2.946075849757414 
-3.785543011360125 -25.41809874725548 -24.47846864930873 45.58269163504509 
-1.078299635641061 9.093350746176839 -1.704501367279641 -8.165801017791408 
-3.738404066314149 8.538131146451482 -23.36487709267652 -14.02675975524993 
1.284355780114794 -15.88728959587663 -16.68644712595024 21.16841209450166 
9.1705326537096 20.3733943898904 -7.003868125063005 -8.617521439681155 
5.11444189862818 9.862857136484172 -10.14903551684545 -7.304968636110837 
-4.658339579476456 -4.400637579269425 7.993905655069867 11.6918214924673 
2.322632342471618 7.483359006387136 -2.715566724952537 -0.09331910013032613 
-2.631033335614489 5.707712631274906 -4.26748169167556 -4.615625656666094 
28.59072896600496 -34.47261850366326 18.36100961080684 -23.70746479282831 
-16.96259133005248 -1.017701736143104 -25.42258466522898 12.80809889381703 
-5.710486903506731 30.22508422702379 20.74136291827943 2.034458402874265 
4.733317907883564 -4.6257695742012 11.61395516339361 -16.58169872649032 
11.41676146294393 -16.68062546178048 -25.62871959162507 23.84616844426963 
-11.69038585850954 26.03994948565045 -6.215269502627897 -17.13939064432037 
3.889453595893981 -12.19004752062604 15.83396836754163 -24.25501834044814 
12.55969100379229 -4.410840480450585 -28.48537777206124 25.90662179510521 
2.16971877791566 4.110936248725104 8.152543360717861 -14.236903423859 
-3.973660212854571 18.56929021351153 24.45504024893286 -20.29521410882079 
-7.67545592987442 0.168456673276601 -34.22274051009203 14.13706123198045 
7.75277517667244 -12.98015253941344 5.586835990840181 2.133811260814327 
-6.09893335830068 5.943569817938314 0.7042584597377457 -4.908412285764799 
6.185209517238841 -15.82201861606015 -20.25951629884551 24.09238528515133 
-1.553177647811781 1.975495390454388 -12.23958064338694 4.766134901661006 
8.723151630950651 7.721369084239836 9.762562283277072 -26.1816843534415 
-3.994456676873319 11.05955358909569 20.05551541834815 -2.144844492232692 
-5.048228263822616 2.012323486743189 -21.50316585001887 24.0654393351054 
6.973872696709045 4.137960966354012 -6.59564090489767 -12.16266485036387 
0.7589031836648389 4.275401001641905 6.378385690494551 -16.73381697846228 
2.951890456460017 -8.68737206051085 -0.1683935289296665 7.103273050810416 
-3.54239025948521 -0.400523022857484 6.639289567659159 19.65554603740073 
4.667877078082147 -28.30097774326858 9.038187957469633 1.305337857339604 
8.567952263725743 -21.24239312407655 -23.68886500267386 3.837135335318062 
1.443191772444632 -9.235304521053139 17.4504038199505 -3.519128008308232 
3.451747829110028 6.465738894877889 -7.878687462308052 -8.867554660689795 
6.893706126116178 -30.36104718954771 -17.81199008134913 25.38825156733686 
-5.675883809251732 -12.90570181275602 9.945908976360972 5.946704430491969 
-11.9524985241802 4.08885142393872 -3.403808365569108 17.22343698233572 
-7.278200750798468 -9.764772941367884 20.65722470642164 12.71155370536191 
-11.63626424979971 7.753271041126053 -4.659524063195551 11.13215914114586 
11.29877103031128 -7.978292910392526 9.563047265800877 -16.41346311925873 
-12.25386754662354 -0.8226774679741468 11.05016214771327 16.05113049183623 
-10.81652615544212 5.970203384939726 -5.87147640805723 18.55485876832408 
6.498287408848934 -1.525593405945009 10.88606283886021 5.098160508730359 
-9.038441641478622 29.87863622699395 -35.25492575785468 -2.476528275914884 
5.54287316768044 -15.00250603299207 24.99222688938384 -21.07112375092997 
-11.23697638902476 -28.13689416994857 2.50815244531902 14.19826376739786 
-5.785715163184393 2.23202581831544 4.841598379830739 7.572368612746064 
-13.25570940510965 24.46623546912681 10.10172200890898 4.116910398622657 
-6.406697181646986 13.75988253207554 -10.88283335549602 11.51836039626781 
-2.671986451787118 6.661158924325201 -6.975852204357404 -20.25784267793227 
4.840380051510305 7.470855090392741 14.74220365917011 -3.729930534380831 
4.783949916548938 27.10747635811676 1.641108422309196 -16.3616286989269 
1.948752693785889 16.87897347392877 -14.03390042634767 10.72283283714187 
-11.57829638100116 1.32878899536637 10.71980652425236 -16.78228823331675 
8.061032575080615 -27.2454425885223 -3.505366133054361 9.369924390592349 
1.183838157720137 -9.521984842131124 -1.889513016637649 5.828686360401928 
0.7783515915455858 36.53410978924147 1.864322765052499 -4.864068182541054 
-18.48208368330216 20.9065969137696 -13.83210446602684 1.76182462378654 
13.74586485342871 -5.266792835440714 -10.73640383004637 -20.77659788729499 
-16.9478614558507 -26.75335047149069 -10.03678894965481 41.15122984821263 
23.42714257322795 -9.381421931377432 2.839150839350125 2.370706495586098 
-8.221772675322615 -13.20113698872244 19.72712019775958 -42.25530869107737 
-34.31389824074063 17.25577313169159 4.797597094478659 18.41913167768977 
10.06488746455701 2.716807165643902 15.23941675291816 12.9909865925773 
4.321466711997485 -2.580711103257442 20.16804666304416 -47.28034862759947 
-0.6491005049521772 0.03297406384540436 -1.987350620602429 -1.626013939007037 
